{"learner":{"attributes":{"best_iteration":"155","best_score":"10.26877202182578","scikit_learn":"{\"_estimator_type\": \"regressor\"}"},"feature_names":["O3_forecast","NO2_forecast","T_forecast","q_forecast","u_forecast","v_forecast","w_forecast","O3_target_lag_1","O3_target_lag_2","O3_target_lag_3","O3_target_lag_6","O3_target_lag_12","O3_target_lag_24","NO2_target_lag_1","NO2_target_lag_2","NO2_target_lag_3","NO2_target_lag_6","NO2_target_lag_12","NO2_target_lag_24"],"feature_types":["float","float","float","float","float","float","float","float","float","float","float","float","float","float","float","float","float","float","float"],"gradient_booster":{"model":{"cats":{"enc":[],"feature_segments":[],"sorted_idx":[]},"gbtree_model_param":{"num_parallel_tree":"1","num_trees":"206"},"iteration_indptr":[0,1,2,3,4,5,6,7,8,9,10,11,12,13,14,15,16,17,18,19,20,21,22,23,24,25,26,27,28,29,30,31,32,33,34,35,36,37,38,39,40,41,42,43,44,45,46,47,48,49,50,51,52,53,54,55,56,57,58,59,60,61,62,63,64,65,66,67,68,69,70,71,72,73,74,75,76,77,78,79,80,81,82,83,84,85,86,87,88,89,90,91,92,93,94,95,96,97,98,99,100,101,102,103,104,105,106,107,108,109,110,111,112,113,114,115,116,117,118,119,120,121,122,123,124,125,126,127,128,129,130,131,132,133,134,135,136,137,138,139,140,141,142,143,144,145,146,147,148,149,150,151,152,153,154,155,156,157,158,159,160,161,162,163,164,165,166,167,168,169,170,171,172,173,174,175,176,177,178,179,180,181,182,183,184,185,186,187,188,189,190,191,192,193,194,195,196,197,198,199,200,201,202,203,204,205,206],"tree_info":[0,0,0,0,0,0,0,0,0,0,0,0,0,0,0,0,0,0,0,0,0,0,0,0,0,0,0,0,0,0,0,0,0,0,0,0,0,0,0,0,0,0,0,0,0,0,0,0,0,0,0,0,0,0,0,0,0,0,0,0,0,0,0,0,0,0,0,0,0,0,0,0,0,0,0,0,0,0,0,0,0,0,0,0,0,0,0,0,0,0,0,0,0,0,0,0,0,0,0,0,0,0,0,0,0,0,0,0,0,0,0,0,0,0,0,0,0,0,0,0,0,0,0,0,0,0,0,0,0,0,0,0,0,0,0,0,0,0,0,0,0,0,0,0,0,0,0,0,0,0,0,0,0,0,0,0,0,0,0,0,0,0,0,0,0,0,0,0,0,0,0,0,0,0,0,0,0,0,0,0,0,0,0,0,0,0,0,0,0,0,0,0,0,0,0,0,0,0,0,0,0,0,0,0,0,0],"trees":[{"base_weights":[-4.3824185E-2,-6.790305E0,2.212197E1,-1.1677033E1,7.8016263E-1,1.5913896E1,3.9696003E1,-1.4956874E1,-8.604509E0,-2.0069747E-1,1.1668423E1,1.2818163E1,2.1798754E1,3.2897106E1,5.0518356E1,-1.6845455E1,-1.317447E1,-9.123773E0,-1.4300424E0,-3.123741E0,3.3560693E0,4.2897954E0,1.771308E1,1.135639E1,2.6053251E1,2.0104517E1,2.8239601E1,3.1690187E1,4.073079E1,4.7289185E1,6.673371E1,-1.810477E1,-1.61341E1,-1.3790375E1,-1.0392789E1,-1.0386327E1,-7.333631E0,-8.306213E0,1.4837519E0,-4.2397294E0,-1.0396463E0,1.7686037E0,5.3380804E0,2.506846E-1,1.008633E1,1.985006E1,8.228339E0,9.186143E0,1.3716117E1,3.0743282E1,1.8179459E1,2.0737926E1,1.2132465E1,2.1318604E1,2.9628704E1,2.8620722E1,3.4602062E1,1.9241682E-1,4.1143715E1,4.2874893E1,4.998824E1,7.044094E1,2.7012863E1,-1.819584E1,-5.2061057E0,-1.6478573E1,-1.4365748E1,-1.4560982E1,-1.2890926E1,-6.3165336E0,-1.2030491E1,-7.6162424E0,-1.0753853E1,-4.3849363E0,-7.9964833E0,-4.309594E0,-9.885684E0,-3.3528044E0,6.7724075E0,-1.1278187E0,-4.693621E0,1.8376456E0,-1.9172989E0,4.3780794E0,1.102423E0,7.613812E0,4.414305E0,-2.0525544E0,3.7767467E0,1.2163589E1,-2.3522167E0,1.2454898E1,2.4801207E1,3.68369E0,1.1232955E1,1.0832555E1,7.8801646E0,1.1021813E1,1.5300835E1,-1.9249959E0,3.161986E1,1.2125654E1,2.3436234E1,1.8709234E1,2.3288143E1,4.198736E0,1.5900168E1,1.1258339E1,2.3227102E1,3.067852E1,2.1219551E1,2.8972782E1,1.1002863E1,3.4951683E1,1.8275044E0,4.1556717E1,2.129168E-1,4.333021E1,8.701116E0,4.7866678E-1,5.0143223E1,7.130155E1,5.561668E-1,-1.0833168E-2,3.1587227E1,-9.822902E-1,-1.7763828E1,-5.900331E-1,6.9416684E-1,-1.6543016E1,-7.651846E0,-1.9586613E0,-1.4607726E1,-1.3067626E1,-1.4926621E1,-1.1088578E1,-1.3306627E1,-1.1096768E1,-4.2564826E0,-6.676186E-1,-1.0046409E1,-8.957771E0,-2.928105E0,-1.1627536E1,-9.787274E0,-5.733035E0,-3.724715E-1,-8.89131E0,-7.3596044E0,-8.41309E0,8.369498E-1,-1.019204E1,1.8941684E-1,-8.877216E0,-1.0365692E0,-7.2724385E0,9.353424E0,-2.5871994E0,4.0816374E0,-5.7088995E0,-3.4783146E0,-2.802342E-1,4.193676E0,-3.201926E0,-9.406776E-1,2.8192332E0,6.485506E0,1.5240259E0,-3.005128E0,5.2261252E0,1.0146078E1,5.2368817E0,2.039929E0,-4.2228513E0,3.1092122E0,-2.9652163E-1,8.048642E0,-4.1011092E-1,1.2916416E1,3.3250046E0,-4.614069E0,1.5449187E1,3.7344499E0,2.0165253E1,2.9859875E1,-2.104998E-1,5.426881E0,1.2186253E0,8.459426E0,9.728208E0,1.4993504E1,6.591002E0,9.84573E0,1.1633445E1,3.6328058E0,1.3701968E1,1.9136293E1,-3.736109E-1,3.679168E-1,1.8007505E1,3.3500443E1,1.9137783E1,8.274806E0,9.170006E0,2.5824589E1,1.781328E1,2.2533384E1,2.2494192E1,3.3092278E1,7.245558E-1,2.3526375E0,2.2906975E1,1.2900973E1,7.45028E-1,2.2111511E-1,2.3902117E1,7.441683E-2,2.8271223E1,3.5560303E1,2.7611563E1,6.5820885E0,2.6072954E1,3.0615005E1,5.920281E-1,1.4941683E-1,3.31678E1,3.898026E1,3.8155577E-1,-3.895832E-1,1.9060005E1,4.2193954E1,3.581748E1,2.2512383E0,6.7816687E-1,-2.5583172E-2,6.081668E-1,2.5136805E0,1.5780003E0,3.6477802E0,1.7054669E0,4.7441682E-1,-7.3108554E-1,-8.9714205E-1,-4.038886E-1,-8.2891256E-1,-6.972706E-1,1.0674169E0,3.6522245E-1,-5.2844423E-1,-7.837813E-1,-6.4594483E-1,-6.5812826E-1,8.866682E-2,-7.4760264E-1,-2.106109E-1,6.116681E-2,-5.590963E-1,-6.762981E-1,-5.7081616E-1,-6.1198187E-1,-1.6124774E-2,-3.1313303E-1,-1.1736883E-2,-5.8464074E-1,-3.6296E-1,-2.2411776E-1,-4.7508532E-1,-5.1826235E-2,-5.204025E-1,-5.3951615E-1,-6.017583E-1,-3.6171314E-1,-5.0649256E-1,-3.763704E-1,-1.9758378E-1,-1.824997E-1,2.4196008E-1,1.3438909E-1,-4.4702703E-1,-3.9423028E-1,-2.9776844E-1,-4.9442396E-1,-1.12624764E-1,-7.3481224E-2,2.9087523E-1,-1.0787477E-1,-5.2992254E-1,1.6441683E-1,-4.7050548E-1,3.3959752E-1,-1.2675239E-1,-1.2043307E-1,-4.411058E-1,5.8442706E-1,-1.1615449E-1,-1.6544887E-1,6.3895345E-2,7.348669E-1,1.3761657E-1,-2.6973528E-1,-4.335898E-1,-2.3046735E-1,-1.1403467E-1,-2.371485E-2,5.266668E-1,1.441911E-1,4.0834054E-1,-7.572241E-2,-2.1132119E-1,4.6887523E-1,-5.224474E-2,4.8543956E-2,2.7954575E-1,3.4127864E-1,-1.6912477E-1,7.582135E-3,1.3389066E-1,-1.64087E-1,1.7775023E-1,2.0093332E-1,4.1250458E-1,4.0380555E-1,6.7928404E-1,2.2718559E-1,3.944541E-1,8.702808E-2,5.041114E-1,1.9453993E-2,-3.3425492E-1,5.9556687E-1,1.6872851E-2,-1.637259E-1,1.7603059E-1,5.423455E-1,1.4007436E-1,7.1816987E-1,1.1585211E-1,-7.1833186E-2,2.6955578E-1,-7.387479E-2,-2.9680532E-1,9.854193E-2,8.64837E-1,-3.515124E-2,3.9162147E-1,1.1745883E0,7.391862E-1,1.5290569E0,-1.5508318E-1,4.4766694E-1,1.7526418E-1,4.5736393E-1,-1.6683316E-1,4.349319E-1,6.603717E-1,5.983009E-1,1.0468786E0,3.965537E-1,2.359914E-1,5.139491E-1,-1.7221403E-1,4.2016697E-1,6.160607E-1,7.079394E-2,6.1086696E-1,6.3806635E-1,7.9945177E-1,1.2984362E0,8.7746805E-1,2.6555762E-2,1.0233098E0,3.2772243E-1,1.6994231E0,6.301045E-1,1.2883669E0,7.6310444E-1,2.3548177E-1,1.1668205E-3,5.345281E-1,4.048891E-1,1.3368225E0,4.0147945E-1,8.997144E-1,1.296696E0,8.2840586E-1,1.032066E0,1.1900288E0,1.756794E0,-2.4558318E-1,2.1668084E-1,-4.564556E-2,1.2039002E0,2.7991685E-1,6.900118E-1,-4.610888E-3,-5.9583187E-2,7.616682E-2,4.5522246E-1,1.2316967E0,1.4280216E0,4.5072246E-1,1.8471116E0,6.080002E-1,6.2662524E-1,1.5168475E0,-1.0374979E-1,6.095669E-1,1.3930465E0,9.0711397E-1,1.0535306E0,1.554588E0,1.6797355E0,8.3600026E-1,4.7116682E-1,1.9619191E0,2.1941681E-1,1.124389E0,5.399168E-1,2.123429E0,1.8407658E0,7.448891E-1],"categories":[],"categories_nodes":[],"categories_segments":[],"categories_sizes":[],"default_left":[0,0,0,0,0,0,0,0,0,0,0,0,0,0,0,0,0,0,0,0,0,0,0,0,0,0,0,0,0,0,0,0,0,0,0,0,0,0,0,0,0,0,0,0,0,0,0,0,0,0,0,0,0,0,0,0,0,0,0,0,0,0,0,0,0,0,0,0,0,0,0,0,0,0,0,0,0,0,0,0,0,0,0,0,0,0,0,0,0,0,0,0,0,0,0,0,0,0,0,0,0,0,0,0,0,0,0,0,0,0,0,0,0,0,0,0,0,0,0,0,0,0,0,0,0,0,0,0,0,0,0,0,0,0,0,0,0,0,0,0,0,0,0,0,0,0,0,0,0,0,0,0,0,0,0,0,0,0,0,0,0,0,0,0,0,0,0,0,0,0,0,0,0,0,0,0,0,0,0,0,0,0,0,0,0,0,0,0,0,0,0,0,0,0,0,0,0,0,0,0,0,0,0,0,0,0,0,0,0,0,0,0,0,0,0,0,0,0,0,0,0,0,0,0,0,0,0,0,0,0,0,0,0,0,0,0,0,0,0,0,0,0,0,0,0,0,0,0,0,0,0,0,0,0,0,0,0,0,0,0,0,0,0,0,0,0,0,0,0,0,0,0,0,0,0,0,0,0,0,0,0,0,0,0,0,0,0,0,0,0,0,0,0,0,0,0,0,0,0,0,0,0,0,0,0,0,0,0,0,0,0,0,0,0,0,0,0,0,0,0,0,0,0,0,0,0,0,0,0,0,0,0,0,0,0,0,0,0,0,0,0,0,0,0,0,0,0,0,0,0,0,0,0,0,0,0,0,0,0,0,0,0,0,0,0,0,0,0,0,0,0,0,0,0,0,0,0,0,0,0,0,0,0,0,0,0,0,0,0,0,0,0,0,0,0,0,0,0,0,0,0,0,0,0,0,0,0,0,0,0,0,0,0,0,0,0,0,0,0,0,0],"id":0,"left_children":[1,3,5,7,9,11,13,15,17,19,21,23,25,27,29,31,33,35,37,39,41,43,45,47,49,51,53,55,57,59,61,63,65,67,69,71,73,75,77,79,81,83,85,87,89,91,93,95,97,99,101,103,105,107,109,111,113,-1,115,117,119,121,123,125,127,129,131,133,135,137,139,141,143,145,147,149,151,153,155,157,159,161,163,165,167,169,171,173,175,177,179,181,183,185,187,189,191,193,195,197,199,201,203,205,207,209,211,213,215,217,219,221,223,225,227,229,-1,231,233,-1,235,237,-1,-1,239,-1,241,-1,-1,243,245,247,249,251,253,255,257,259,261,-1,263,265,267,269,271,273,275,277,279,281,283,285,-1,287,289,291,293,295,297,299,301,303,305,307,309,311,313,315,317,319,321,323,325,327,329,331,333,-1,335,337,339,341,343,345,347,-1,349,-1,351,353,355,357,359,361,363,365,367,-1,-1,369,371,373,375,377,379,381,383,385,387,-1,389,391,393,-1,395,397,-1,399,401,403,405,407,409,-1,-1,411,413,-1,-1,415,417,419,-1,-1,-1,-1,-1,-1,-1,-1,-1,-1,-1,-1,-1,-1,-1,-1,-1,-1,-1,-1,-1,-1,-1,-1,-1,-1,-1,-1,-1,-1,-1,-1,-1,-1,-1,-1,-1,-1,-1,-1,-1,-1,-1,-1,-1,-1,-1,-1,-1,-1,-1,-1,-1,-1,-1,-1,-1,-1,-1,-1,-1,-1,-1,-1,-1,-1,-1,-1,-1,-1,-1,-1,-1,-1,-1,-1,-1,-1,-1,-1,-1,-1,-1,-1,-1,-1,-1,-1,-1,-1,-1,-1,-1,-1,-1,-1,-1,-1,-1,-1,-1,-1,-1,-1,-1,-1,-1,-1,-1,-1,-1,-1,-1,-1,-1,-1,-1,-1,-1,-1,-1,-1,-1,-1,-1,-1,-1,-1,-1,-1,-1,-1,-1,-1,-1,-1,-1,-1,-1,-1,-1,-1,-1,-1,-1,-1,-1,-1,-1,-1,-1,-1,-1,-1,-1,-1,-1,-1,-1,-1,-1,-1,-1,-1,-1,-1,-1,-1,-1,-1,-1,-1,-1,-1,-1,-1,-1,-1,-1,-1,-1,-1,-1,-1,-1,-1,-1,-1,-1],"loss_changes":[2.520516E6,4.780562E5,4.2846212E5,7.9009E4,5.414923E4,5.2698375E4,7.383125E4,1.2559625E4,1.51010625E4,4.8375395E4,1.8611945E4,3.6617656E4,1.0355469E4,4.694E3,1.7474875E4,1.3562188E3,3.21125E3,8.473969E3,5.522155E3,5.93575E3,6.594801E3,4.4459126E3,4.4984766E3,8.682453E3,6.420547E3,3.7679062E3,1.3488438E3,3.9523125E3,1.0752812E3,1.812375E3,7.3742188E3,6.758594E2,4.8509375E2,9.2128125E2,2.320582E3,2.1741719E3,3.029664E3,4.750249E2,4.9850093E3,2.3436465E3,2.2560576E3,2.0238657E3,1.9278027E3,9.2546606E2,2.043981E3,6.5380156E3,5.5943774E2,1.8476484E3,3.3410469E3,3.4113203E3,2.0389355E3,3.3720625E3,1.7566475E3,4.6810156E2,8.409531E2,1.3869062E3,3.1330938E3,0E0,1.0417344E3,1.6924375E3,7.7271875E2,2.1167188E3,8.7874805E2,5.8796875E1,9.19151E2,4.3375E2,5.7483984E2,2.7126562E2,4.121328E2,9.867573E2,5.3465234E2,1.6278516E3,1.5362969E3,1.5665327E3,6.6346875E2,5.3501184E2,2.8158057E2,1.2959734E3,3.43927E3,1.6299095E3,1.7704941E3,1.044041E3,8.551306E2,7.6029736E2,1.6168444E3,1.567373E3,1.2900859E3,7.861068E2,7.8541254E2,1.1331836E3,1.6943422E2,1.9528955E3,2.0010156E3,2.84291E2,7.413384E2,1.6692148E3,1.2147422E3,1.3497031E3,2.8959844E3,2.6096988E2,2.315039E3,8.137334E2,1.0579551E3,1.0205E3,1.7620625E3,3.6492334E2,5.66084E2,3.1830554E2,4.1931836E2,7.339531E2,1.8766396E3,4.828125E2,1.1612671E1,6.90625E2,2.8276266E2,3.2829688E2,0E0,5.5046875E1,1.413236E2,0E0,3.7396875E2,1.3786562E3,0E0,0E0,1.0774414E1,0E0,2.5640625E1,0E0,0E0,1.5746875E2,1.940342E3,4.7598712E2,1.5278125E2,2.7132227E2,1.2203125E2,1.8147266E2,9.517969E1,3.7777368E2,6.036549E2,0E0,4.0154004E2,4.540127E2,8.3814685E2,2.1857812E2,7.436094E2,6.638784E2,1.2816848E3,3.244453E2,5.0817188E2,1.04976074E2,1.4640576E2,1.6325732E2,0E0,2.2543188E2,8.7357135E2,9.180975E1,2.18117E3,4.7011658E2,6.2278906E2,6.8771875E2,8.8755273E2,2.3793074E2,4.91667E2,5.036006E2,4.2917792E2,7.0155273E2,3.5866602E2,1.3375992E3,1.6953778E2,4.780298E2,8.087422E2,8.723369E2,3.9896637E2,5.590309E2,5.083245E2,2.843461E2,2.9263745E2,0E0,9.6363086E2,4.709776E1,2.8549438E1,1.3853213E3,3.8738467E2,7.4471094E2,1.3073281E3,0E0,7.703891E1,0E0,2.1714258E2,1.01347656E3,1.2071035E3,7.348789E2,1.1754727E3,5.273789E2,4.5848376E2,5.854844E2,1.1598086E3,0E0,0E0,6.7663477E2,1.0790859E3,1.9522266E2,5.508926E2,9.710669E1,3.007539E2,4.5940625E2,1.091707E3,2.373125E2,1.8812031E3,0E0,1.2686693E2,8.816113E1,3.6348535E2,0E0,7.334557E0,1.0059961E2,0E0,3.217422E2,1.00597266E3,2.3624805E2,4.1377496E2,9.692422E2,1.0021875E2,0E0,0E0,8.285781E2,2.3295312E2,0E0,0E0,1.0248096E2,1.9670312E2,5.6890625E1,0E0,0E0,0E0,0E0,0E0,0E0,0E0,0E0,0E0,0E0,0E0,0E0,0E0,0E0,0E0,0E0,0E0,0E0,0E0,0E0,0E0,0E0,0E0,0E0,0E0,0E0,0E0,0E0,0E0,0E0,0E0,0E0,0E0,0E0,0E0,0E0,0E0,0E0,0E0,0E0,0E0,0E0,0E0,0E0,0E0,0E0,0E0,0E0,0E0,0E0,0E0,0E0,0E0,0E0,0E0,0E0,0E0,0E0,0E0,0E0,0E0,0E0,0E0,0E0,0E0,0E0,0E0,0E0,0E0,0E0,0E0,0E0,0E0,0E0,0E0,0E0,0E0,0E0,0E0,0E0,0E0,0E0,0E0,0E0,0E0,0E0,0E0,0E0,0E0,0E0,0E0,0E0,0E0,0E0,0E0,0E0,0E0,0E0,0E0,0E0,0E0,0E0,0E0,0E0,0E0,0E0,0E0,0E0,0E0,0E0,0E0,0E0,0E0,0E0,0E0,0E0,0E0,0E0,0E0,0E0,0E0,0E0,0E0,0E0,0E0,0E0,0E0,0E0,0E0,0E0,0E0,0E0,0E0,0E0,0E0,0E0,0E0,0E0,0E0,0E0,0E0,0E0,0E0,0E0,0E0,0E0,0E0,0E0,0E0,0E0,0E0,0E0,0E0,0E0,0E0,0E0,0E0,0E0,0E0,0E0,0E0,0E0,0E0,0E0,0E0,0E0,0E0,0E0,0E0,0E0,0E0,0E0,0E0,0E0,0E0,0E0,0E0,0E0,0E0,0E0,0E0,0E0,0E0,0E0,0E0,0E0,0E0,0E0,0E0],"parents":[2147483647,0,0,1,1,2,2,3,3,4,4,5,5,6,6,7,7,8,8,9,9,10,10,11,11,12,12,13,13,14,14,15,15,16,16,17,17,18,18,19,19,20,20,21,21,22,22,23,23,24,24,25,25,26,26,27,27,28,28,29,29,30,30,31,31,32,32,33,33,34,34,35,35,36,36,37,37,38,38,39,39,40,40,41,41,42,42,43,43,44,44,45,45,46,46,47,47,48,48,49,49,50,50,51,51,52,52,53,53,54,54,55,55,56,56,58,58,59,59,60,60,61,61,62,62,63,63,64,64,65,65,66,66,67,67,68,68,69,69,70,70,71,71,72,72,73,73,74,74,75,75,76,76,77,77,78,78,79,79,80,80,81,81,82,82,83,83,84,84,85,85,86,86,87,87,88,88,89,89,90,90,91,91,92,92,93,93,94,94,95,95,96,96,97,97,98,98,99,99,100,100,101,101,102,102,103,103,104,104,105,105,106,106,107,107,108,108,109,109,110,110,111,111,112,112,113,113,114,114,115,115,117,117,118,118,120,120,121,121,124,124,126,126,129,129,130,130,131,131,132,132,133,133,134,134,135,135,136,136,137,137,138,138,140,140,141,141,142,142,143,143,144,144,145,145,146,146,147,147,148,148,149,149,150,150,151,151,153,153,154,154,155,155,156,156,157,157,158,158,159,159,160,160,161,161,162,162,163,163,164,164,165,165,166,166,167,167,168,168,169,169,170,170,171,171,172,172,173,173,174,174,175,175,176,176,178,178,179,179,180,180,181,181,182,182,183,183,184,184,186,186,188,188,189,189,190,190,191,191,192,192,193,193,194,194,195,195,196,196,199,199,200,200,201,201,202,202,203,203,204,204,205,205,206,206,207,207,208,208,210,210,211,211,212,212,214,214,215,215,217,217,218,218,219,219,220,220,221,221,222,222,225,225,226,226,229,229,230,230,231,231],"right_children":[2,4,6,8,10,12,14,16,18,20,22,24,26,28,30,32,34,36,38,40,42,44,46,48,50,52,54,56,58,60,62,64,66,68,70,72,74,76,78,80,82,84,86,88,90,92,94,96,98,100,102,104,106,108,110,112,114,-1,116,118,120,122,124,126,128,130,132,134,136,138,140,142,144,146,148,150,152,154,156,158,160,162,164,166,168,170,172,174,176,178,180,182,184,186,188,190,192,194,196,198,200,202,204,206,208,210,212,214,216,218,220,222,224,226,228,230,-1,232,234,-1,236,238,-1,-1,240,-1,242,-1,-1,244,246,248,250,252,254,256,258,260,262,-1,264,266,268,270,272,274,276,278,280,282,284,286,-1,288,290,292,294,296,298,300,302,304,306,308,310,312,314,316,318,320,322,324,326,328,330,332,334,-1,336,338,340,342,344,346,348,-1,350,-1,352,354,356,358,360,362,364,366,368,-1,-1,370,372,374,376,378,380,382,384,386,388,-1,390,392,394,-1,396,398,-1,400,402,404,406,408,410,-1,-1,412,414,-1,-1,416,418,420,-1,-1,-1,-1,-1,-1,-1,-1,-1,-1,-1,-1,-1,-1,-1,-1,-1,-1,-1,-1,-1,-1,-1,-1,-1,-1,-1,-1,-1,-1,-1,-1,-1,-1,-1,-1,-1,-1,-1,-1,-1,-1,-1,-1,-1,-1,-1,-1,-1,-1,-1,-1,-1,-1,-1,-1,-1,-1,-1,-1,-1,-1,-1,-1,-1,-1,-1,-1,-1,-1,-1,-1,-1,-1,-1,-1,-1,-1,-1,-1,-1,-1,-1,-1,-1,-1,-1,-1,-1,-1,-1,-1,-1,-1,-1,-1,-1,-1,-1,-1,-1,-1,-1,-1,-1,-1,-1,-1,-1,-1,-1,-1,-1,-1,-1,-1,-1,-1,-1,-1,-1,-1,-1,-1,-1,-1,-1,-1,-1,-1,-1,-1,-1,-1,-1,-1,-1,-1,-1,-1,-1,-1,-1,-1,-1,-1,-1,-1,-1,-1,-1,-1,-1,-1,-1,-1,-1,-1,-1,-1,-1,-1,-1,-1,-1,-1,-1,-1,-1,-1,-1,-1,-1,-1,-1,-1,-1,-1,-1,-1,-1,-1,-1,-1,-1,-1,-1,-1,-1],"split_conditions":[3.153E1,1.652E1,5.375E1,9.82E0,4.695E1,4.268E1,6.742E1,6.6E0,4.4E1,2.37E1,2.548E1,4.323E1,2.98E1,5.31E1,8.897E1,4.6E0,2.88E1,1.348E1,4.4E1,2.085E1,2.78E1,3.712E1,2.065E1,3.648E1,2.59E1,4.112E1,1.525E1,5.938E1,4.6E0,7.195E1,5.588E1,4.985E1,3.51E1,8.33E0,6.2E0,8.45E0,1.265E1,1.09E1,1.255E1,1.4E1,1.87E1,2.135E1,2.715E1,1.525E1,5.96E1,2.085E1,2.068E1,3.29E1,2.627E1,1.735E1,2.27E1,4.757E1,1.843E1,1.693E1,3.852E1,6.34E1,6.838E1,1.9241682E-1,7.625E1,2.1046E2,6.79E0,1.8729E2,3.3E0,2.9E0,1.6544E2,1.857E1,3.53E0,6.7E0,8.25E0,1.04E1,1.255E1,3.852E1,1.182E1,2.225E1,1.472E1,1.325E1,4.383E1,1.245E1,1.132E1,2.512E1,1.888E1,1.297E1,1.75E1,1.338E1,3.783E1,1.935E1,1.295E1,2.31E1,1.295E1,-4.79E0,1.368E1,1.39E1,2.905E1,8.12E0,-1.37E0,5.083E1,3.46E1,4.93E1,3.848E1,7.386E1,1.11E1,-1.66E0,-1.99E0,5.265E1,6.742E1,3.725E1,6.036E1,3.897E1,5.18E1,1.395E1,-3E-2,3.53E1,1.5925E2,1.262E1,1.3084E2,3.78E0,2.129168E-1,7.53E0,3.83E0,4.7866678E-1,-4.79E0,1.472E1,5.561668E-1,-1.0833168E-2,1.408E2,-9.822902E-1,2.9E0,-5.900331E-1,6.9416684E-1,2.9E0,1.6785E2,1.489E1,8.65E0,6.838E1,3.648E1,5E-2,2.43E1,6.07E0,1.1444E2,-6.676186E-1,4.93E1,5.85E0,5.01E1,1.153E1,1.1E1,1.535E1,2.173E1,4.35E0,2.12E1,9.72E0,1.09E1,1.1E-1,1.8941684E-1,9.1E0,5.83E0,4.93E1,5.588E1,2.88E1,2.72E1,4.557E1,1.873E1,2.074E2,3.037E1,1.765E1,3.98E0,2.173E1,5.265E1,2.568E1,4E0,3.03E1,3.318E1,3.725E1,1.2753E2,4.592E1,2.23E1,2.348E1,1.073E2,-4.1011092E-1,2.455E1,6.3E-1,-1.1E0,1.665E1,5.395E1,1.46E1,3.13E1,-2.104998E-1,2.348E1,1.2186253E0,4.558E1,2.14E1,3.603E1,6.47E0,5.265E1,1.193E1,4.383E1,4.075E1,3.105E1,-3.736109E-1,3.679168E-1,2.375E1,4.95E0,4.558E1,1.532E1,9.977E1,5.65E0,1.735E1,4.383E1,3.53E0,6.385E1,7.245558E-1,6.05E1,2.866E1,1.88E0,7.45028E-1,2.65E0,4.83E0,7.441683E-2,2.0182E2,5.49E1,4.112E1,4.545E1,4.117E1,1.123E1,5.920281E-1,1.4941683E-1,2.815E1,7.07E0,3.8155577E-1,-3.895832E-1,1.1249E2,2.15E0,5.265E1,2.2512383E0,6.7816687E-1,-2.5583172E-2,6.081668E-1,2.5136805E0,1.5780003E0,3.6477802E0,1.7054669E0,4.7441682E-1,-7.3108554E-1,-8.9714205E-1,-4.038886E-1,-8.2891256E-1,-6.972706E-1,1.0674169E0,3.6522245E-1,-5.2844423E-1,-7.837813E-1,-6.4594483E-1,-6.5812826E-1,8.866682E-2,-7.4760264E-1,-2.106109E-1,6.116681E-2,-5.590963E-1,-6.762981E-1,-5.7081616E-1,-6.1198187E-1,-1.6124774E-2,-3.1313303E-1,-1.1736883E-2,-5.8464074E-1,-3.6296E-1,-2.2411776E-1,-4.7508532E-1,-5.1826235E-2,-5.204025E-1,-5.3951615E-1,-6.017583E-1,-3.6171314E-1,-5.0649256E-1,-3.763704E-1,-1.9758378E-1,-1.824997E-1,2.4196008E-1,1.3438909E-1,-4.4702703E-1,-3.9423028E-1,-2.9776844E-1,-4.9442396E-1,-1.12624764E-1,-7.3481224E-2,2.9087523E-1,-1.0787477E-1,-5.2992254E-1,1.6441683E-1,-4.7050548E-1,3.3959752E-1,-1.2675239E-1,-1.2043307E-1,-4.411058E-1,5.8442706E-1,-1.1615449E-1,-1.6544887E-1,6.3895345E-2,7.348669E-1,1.3761657E-1,-2.6973528E-1,-4.335898E-1,-2.3046735E-1,-1.1403467E-1,-2.371485E-2,5.266668E-1,1.441911E-1,4.0834054E-1,-7.572241E-2,-2.1132119E-1,4.6887523E-1,-5.224474E-2,4.8543956E-2,2.7954575E-1,3.4127864E-1,-1.6912477E-1,7.582135E-3,1.3389066E-1,-1.64087E-1,1.7775023E-1,2.0093332E-1,4.1250458E-1,4.0380555E-1,6.7928404E-1,2.2718559E-1,3.944541E-1,8.702808E-2,5.041114E-1,1.9453993E-2,-3.3425492E-1,5.9556687E-1,1.6872851E-2,-1.637259E-1,1.7603059E-1,5.423455E-1,1.4007436E-1,7.1816987E-1,1.1585211E-1,-7.1833186E-2,2.6955578E-1,-7.387479E-2,-2.9680532E-1,9.854193E-2,8.64837E-1,-3.515124E-2,3.9162147E-1,1.1745883E0,7.391862E-1,1.5290569E0,-1.5508318E-1,4.4766694E-1,1.7526418E-1,4.5736393E-1,-1.6683316E-1,4.349319E-1,6.603717E-1,5.983009E-1,1.0468786E0,3.965537E-1,2.359914E-1,5.139491E-1,-1.7221403E-1,4.2016697E-1,6.160607E-1,7.079394E-2,6.1086696E-1,6.3806635E-1,7.9945177E-1,1.2984362E0,8.7746805E-1,2.6555762E-2,1.0233098E0,3.2772243E-1,1.6994231E0,6.301045E-1,1.2883669E0,7.6310444E-1,2.3548177E-1,1.1668205E-3,5.345281E-1,4.048891E-1,1.3368225E0,4.0147945E-1,8.997144E-1,1.296696E0,8.2840586E-1,1.032066E0,1.1900288E0,1.756794E0,-2.4558318E-1,2.1668084E-1,-4.564556E-2,1.2039002E0,2.7991685E-1,6.900118E-1,-4.610888E-3,-5.9583187E-2,7.616682E-2,4.5522246E-1,1.2316967E0,1.4280216E0,4.5072246E-1,1.8471116E0,6.080002E-1,6.2662524E-1,1.5168475E0,-1.0374979E-1,6.095669E-1,1.3930465E0,9.0711397E-1,1.0535306E0,1.554588E0,1.6797355E0,8.3600026E-1,4.7116682E-1,1.9619191E0,2.1941681E-1,1.124389E0,5.399168E-1,2.123429E0,1.8407658E0,7.448891E-1],"split_indices":[13,13,13,13,9,13,13,13,10,13,18,9,9,9,13,13,10,13,9,13,13,10,14,13,14,12,17,13,17,13,12,18,10,13,14,15,14,14,13,14,14,14,14,18,12,13,10,14,18,10,17,13,18,18,12,12,7,0,17,0,2,0,10,13,0,14,17,15,14,18,18,9,13,10,13,13,14,18,17,10,13,9,18,9,12,17,12,13,10,4,14,14,17,17,6,17,13,12,17,1,7,4,6,17,17,15,0,14,15,7,6,18,0,9,0,16,0,10,1,0,4,18,0,0,0,0,15,0,0,14,0,0,18,9,14,0,18,14,0,0,9,1,12,15,14,18,18,16,18,14,15,0,0,12,14,10,12,18,10,12,18,0,2,16,16,17,16,13,6,13,18,17,1,0,14,13,0,0,14,4,4,17,9,14,13,0,14,0,16,9,18,12,14,18,16,13,14,0,0,18,17,18,7,0,7,15,15,7,14,0,14,2,6,0,0,15,0,0,7,9,0,17,17,0,0,7,17,0,0,0,10,17,0,0,0,0,0,0,0,0,0,0,0,0,0,0,0,0,0,0,0,0,0,0,0,0,0,0,0,0,0,0,0,0,0,0,0,0,0,0,0,0,0,0,0,0,0,0,0,0,0,0,0,0,0,0,0,0,0,0,0,0,0,0,0,0,0,0,0,0,0,0,0,0,0,0,0,0,0,0,0,0,0,0,0,0,0,0,0,0,0,0,0,0,0,0,0,0,0,0,0,0,0,0,0,0,0,0,0,0,0,0,0,0,0,0,0,0,0,0,0,0,0,0,0,0,0,0,0,0,0,0,0,0,0,0,0,0,0,0,0,0,0,0,0,0,0,0,0,0,0,0,0,0,0,0,0,0,0,0,0,0,0,0,0,0,0,0,0,0,0,0,0,0,0,0,0,0,0,0,0,0,0,0,0,0,0,0,0,0,0],"split_type":[0,0,0,0,0,0,0,0,0,0,0,0,0,0,0,0,0,0,0,0,0,0,0,0,0,0,0,0,0,0,0,0,0,0,0,0,0,0,0,0,0,0,0,0,0,0,0,0,0,0,0,0,0,0,0,0,0,0,0,0,0,0,0,0,0,0,0,0,0,0,0,0,0,0,0,0,0,0,0,0,0,0,0,0,0,0,0,0,0,0,0,0,0,0,0,0,0,0,0,0,0,0,0,0,0,0,0,0,0,0,0,0,0,0,0,0,0,0,0,0,0,0,0,0,0,0,0,0,0,0,0,0,0,0,0,0,0,0,0,0,0,0,0,0,0,0,0,0,0,0,0,0,0,0,0,0,0,0,0,0,0,0,0,0,0,0,0,0,0,0,0,0,0,0,0,0,0,0,0,0,0,0,0,0,0,0,0,0,0,0,0,0,0,0,0,0,0,0,0,0,0,0,0,0,0,0,0,0,0,0,0,0,0,0,0,0,0,0,0,0,0,0,0,0,0,0,0,0,0,0,0,0,0,0,0,0,0,0,0,0,0,0,0,0,0,0,0,0,0,0,0,0,0,0,0,0,0,0,0,0,0,0,0,0,0,0,0,0,0,0,0,0,0,0,0,0,0,0,0,0,0,0,0,0,0,0,0,0,0,0,0,0,0,0,0,0,0,0,0,0,0,0,0,0,0,0,0,0,0,0,0,0,0,0,0,0,0,0,0,0,0,0,0,0,0,0,0,0,0,0,0,0,0,0,0,0,0,0,0,0,0,0,0,0,0,0,0,0,0,0,0,0,0,0,0,0,0,0,0,0,0,0,0,0,0,0,0,0,0,0,0,0,0,0,0,0,0,0,0,0,0,0,0,0,0,0,0,0,0,0,0,0,0,0,0,0,0,0,0,0,0,0,0,0,0,0,0,0,0,0,0,0,0,0,0,0,0,0,0,0,0],"sum_hessian":[1.6853E4,1.2921E4,3.932E3,7.852E3,5.069E3,2.907E3,1.025E3,3.796E3,4.056E3,4.651E3,4.18E2,1.907E3,1E3,6.32E2,3.93E2,1.839E3,1.957E3,3.782E3,2.74E2,2.553E3,2.098E3,1.89E2,2.29E2,1.719E3,1.88E2,7.95E2,2.05E2,5.52E2,8E1,3.31E2,6.2E1,6.55E2,1.184E3,1.599E3,3.58E2,2.215E3,1.567E3,8.1E1,1.93E2,1.662E3,8.91E2,1.166E3,9.32E2,1.12E2,7.7E1,1.86E2,4.3E1,8.98E2,8.21E2,1.16E2,7.2E1,7.35E2,6E1,3.7E1,1.68E2,2.74E2,2.78E2,1E0,7.9E1,1.32E2,1.99E2,5.6E1,6E0,6.5E2,5E0,9.84E2,2E2,8.53E2,7.46E2,1.04E2,2.54E2,2.62E2,1.953E3,2.89E2,1.278E3,2.4E1,5.7E1,1.01E2,9.2E1,2.12E2,1.45E3,2.08E2,6.83E2,2.36E2,9.3E2,2.67E2,6.65E2,6.8E1,4.4E1,6.6E1,1.1E1,7.6E1,1.1E2,1.8E1,2.5E1,3.94E2,5.04E2,3.07E2,5.14E2,3E0,1.13E2,3.5E1,3.7E1,4.14E2,3.21E2,2E1,4E1,7E0,3E1,1.47E2,2.1E1,2.68E2,6E0,2.75E2,3E0,7.8E1,1E0,1.3E2,2E0,1E0,1.98E2,5.5E1,1E0,1E0,5E0,1.39E2,5.11E2,4E0,1E0,9.76E2,8E0,4E0,1.96E2,1.75E2,6.78E2,1.45E2,6.01E2,3E1,7.4E1,1.49E2,1.05E2,2.03E2,5.9E1,1.02E3,9.33E2,2.16E2,7.3E1,5.26E2,7.52E2,1.3E1,1.1E1,5.6E1,1E0,2.9E1,7.2E1,1.4E1,7.8E1,1.66E2,4.6E1,7.88E2,6.62E2,1.1E2,9.8E1,2.94E2,3.89E2,1.37E2,9.9E1,8.44E2,8.6E1,1.39E2,1.28E2,4.93E2,1.72E2,4.8E1,2E1,2.3E1,2.1E1,2E0,6.4E1,3E0,8E0,5.6E1,2E1,6E1,5E1,3E0,1.5E1,3E0,2.2E1,3.14E2,8E1,3.07E2,1.97E2,2.83E2,2.4E1,3.66E2,1.48E2,2E0,1E0,1.5E1,9.8E1,1.1E1,2.4E1,6E0,3.1E1,3.4E2,7.4E1,3E2,2.1E1,2E0,1.8E1,1E1,3E1,5E0,2E0,2.9E1,1E0,1.03E2,4.4E1,1.4E1,7E0,1.03E2,1.65E2,5E0,1E0,1.97E2,7.8E1,2E0,1E0,3E0,7.5E1,2.8E1,1.02E2,1E0,1E0,1E0,1.97E2,3E0,5.2E1,4E0,1E0,3.2E1,4.79E2,5E0,9.71E2,7E0,1E0,2E0,2E0,1.15E2,8.1E1,1.74E2,1E0,6.76E2,2E0,1E0,1.44E2,5.33E2,6.8E1,2.7E1,3E0,4.9E1,2.5E1,6.4E1,4.1E1,2.3E1,1.8E2,4.8E1,1.1E1,3.43E2,6.77E2,1.13E2,8.2E2,1.06E2,1.1E2,4.5E1,2.8E1,2E0,5.24E2,5.44E2,2.08E2,1E1,3E0,8E0,3E0,3E0,5.3E1,1E0,2.8E1,1.1E1,6.1E1,4E0,1E1,6.5E1,1.3E1,1.4E2,2.6E1,4E0,4.2E1,7.15E2,7.3E1,3.39E2,3.23E2,1.09E2,1E0,7.5E1,2.3E1,1.12E2,1.82E2,3E0,3.86E2,8.3E1,5.4E1,9.6E1,3E0,3.86E2,4.58E2,8.3E1,3E0,1.01E2,3.8E1,8.2E1,4.6E1,3.93E2,1E2,1.67E2,5E0,1.7E1,3.1E1,4E0,1.6E1,1.3E1,1E1,1.3E1,8E0,5.6E1,8E0,1E0,2E0,3E0,5E0,7E0,4.9E1,1E1,1E1,3.5E1,2.5E1,4.9E1,1E0,4E0,1.1E1,2.1E1,1E0,2.45E2,6.9E1,5.5E1,2.5E1,1.77E2,1.3E2,1.91E2,6E0,5.2E1,2.31E2,2E1,4E0,2.64E2,1.02E2,2.5E1,1.23E2,2E0,1.3E1,2E0,9.6E1,7E0,4E0,7E0,1.7E1,1E0,5E0,2E0,2.9E1,7E0,3.33E2,4.5E1,2.9E1,1.31E2,1.69E2,2E1,1E0,1.1E1,7E0,9E0,1E0,2.8E1,2E0,1E0,1E0,2E0,2.7E1,1.01E2,2E0,4.1E1,3E0,3E0,1.1E1,3E0,4E0,8.2E1,2.1E1,1E1,1.55E2,1.91E2,6E0,1E0,7.7E1,1E0,2E0,1E0,7.4E1,2.6E1,2E0],"tree_param":{"num_deleted":"0","num_feature":"19","num_nodes":"421","size_leaf_vector":"1"}},{"base_weights":[2.2369439E-2,-6.4603357E0,2.112737E1,-1.1113579E1,7.313104E-1,1.50901375E1,3.7675858E1,-1.4036428E1,-8.021373E0,-2.0249405E0,4.42962E0,1.1150777E1,1.8936539E1,3.217054E1,4.9823536E1,-1.5963521E1,-1.2317706E1,-8.873786E0,-3.5536034E0,-3.0216577E0,7.0246744E0,3.423849E0,1.6353632E1,9.839021E0,2.370408E1,1.7376097E1,2.5124695E1,3.0546404E1,3.970541E1,4.4118305E1,5.826144E1,-1.7355766E1,-1.5342038E1,-1.2787008E1,-9.200734E0,-1.0130179E1,-7.2853594E0,-7.6699595E0,1.9143085E-1,-4.131314E0,-1.0795015E0,-1.0506239E0,1.2261234E1,1.602809E0,4.877939E0,2.1836813E1,5.760638E0,8.727334E0,1.2215484E1,2.7985388E1,1.2338129E1,1.5814672E1,2.1012932E1,1.024736E1,2.6111732E1,2.7864483E1,3.5228817E1,4.1344215E1,1.6396988E1,4.0481857E1,2.411983E0,5.9694992E1,3.7326183E1,-8.721369E-1,-4.710207E-1,-1.5388258E1,-5.8096347E0,-1.3340794E1,-1.1713054E1,-5.291704E0,-1.1016434E1,-1.0769589E1,-9.255726E0,-5.1821504E0,-7.711942E0,-9.3038025E0,-5.8426695E0,-3.7821913E0,5.8964715E0,-3.1587822E0,-5.310913E0,6.4451474E-1,-2.3059354E0,-2.9758527E0,5.999234E0,1.50780735E1,5.618042E0,6.2980943E0,1.0491095E0,8.198141E0,4.2891483E0,2.3776493E1,9.712898E0,4.5529375E0,2.1228287E1,9.15234E0,5.090287E0,1.6036486E1,1.1311553E1,1.4946992E1,3.0347183E1,9.162701E0,2.06306E1,1.171613E1,1.6606869E1,2.1759825E1,1.037317E1,-3.302013E-1,1.3609606E1,2.4033777E1,3.3347023E1,2.4912128E1,2.9169312E1,3.548852E1,2.3935576E-1,1.8760638E-1,4.1633446E1,-3.798436E-1,1.9907068E1,1.5048661E1,4.080454E1,6.003501E1,4.8082486E-1,4.673003E1,9.186942E0,-4.8260984E-1,6.768127E-1,-8.202365E0,-1.5453556E1,-1.2586619E1,1.0407314E0,-1.3849598E1,-1.2460996E1,1.0347843E-1,-1.1787416E1,4.4294044E-1,-5.8682246E0,-1.2305109E1,-9.27E0,-6.927278E0,-1.0909933E1,-7.156409E0,-9.647394E0,-7.1308184E0,-3.4894762E0,-7.248256E0,-9.257048E0,6.4634194E0,-9.555444E0,-4.0197124E0,-7.5833354E0,-9.2249775E-1,-6.1156306E0,9.290899E0,-1.1215763E-1,-4.197571E0,-1.297622E0,-6.4331517E0,-4.3660254E0,-7.3845154E-1,3.2947018E0,-1.6769046E0,-5.1827083E0,3.625036E-1,-4.04551E0,1.003626E1,-2.2928407E0,1.04859915E1,1.942696E1,8.272513E-1,1.1572062E1,4.962265E0,1.1309932E1,6.9619924E-2,2.3473E0,4.725409E0,9.641827E0,2.271098E0,5.194574E0,9.843733E0,2.5483835E1,1.4185033E0,1.5377125E1,-2.3470192E0,5.7518263E0,1.2834425E0,1.9766498E-1,8.5035E0,1.2728433E1,3.332126E0,8.198341E0,1.9397808E1,1.1214876E1,9.451689E0,1.2826919E1,1.9858036E1,-8.1112444E-1,2.28108E1,3.3832516E1,4.886346E0,1.4378984E1,1.0777979E-1,2.2443867E1,1.2991905E1,4.7723923E0,1.580801E1,2.0451115E1,2.1074049E1,3.0340446E1,1.5048073E1,1.8560079E0,7.7938995E0,1.0402173E0,1.3971503E1,2.4869526E1,2.2117254E1,3.6039845E1,2.5190706E1,2.5003174E-1,1.7339891E0,2.8040558E1,3.0631588E1,1.8559316E0,1.4775299E0,4.312062E1,3.8042486E-1,1.2394136E0,1.2995747E0,-1.7092519E-1,4.147365E1,2.493863E1,5.414819E1,6.510384E1,5.605302E-1,2.510136E0,6.195044E-1,-1.0562325E-2,3.4999125E-2,-6.6129446E-1,-7.844102E-1,-6.913745E-1,-1.644014E-1,-6.79419E-1,-3.9982992E-1,-6.942689E-1,8.8894226E-2,-6.2480605E-1,6.297103E-1,-3.0838776E-1,-6.117423E-1,-4.8891288E-1,-2.9456154E-2,-3.796434E-1,-6.192832E-1,-9.214272E-2,-5.5137634E-1,-3.3798847E-1,-4.2188993E-1,1.393442E-1,-5.157227E-1,-5.798605E-1,3.0676976E-1,-3.6571768E-1,-5.826702E-1,-4.6984363E-1,-3.7255567E-1,-1.1521085E-2,-1.9520845E-1,1.713141E-1,-3.6774483E-1,1.0824376E-1,-4.7719055E-1,-3.1049272E-1,4.0871248E-1,7.6043986E-2,-3.852953E-1,-5.210825E-1,-3.174046E-1,-7.217168E-2,-3.9986858E-1,-2.29896E-1,1.2500791E-1,-3.441659E-1,-3.7102982E-1,-7.010903E-2,5.9719708E-2,6.049646E-1,-1.5528348E-1,2.8526875E-1,-2.4094956E-1,-1.1373824E-1,-9.259441E-2,9.2719555E-2,-3.0320928E-1,-4.313914E-1,-2.7789363E-1,-1.7287448E-1,-5.5550583E-2,1.5987183E-1,3.5793734E-1,9.493102E-2,-1.483195E-1,-3.7275054E-2,-1.6025114E-1,-3.1466663E-1,-1.2264782E-1,3.5741317E-1,-2.9198194E-1,-4.2684745E-2,2.7357873E-1,9.948595E-1,-9.438276E-4,-1.7133383E-1,5.601537E-1,-3.675499E-1,6.567329E-1,1.1527699E0,-4.5017555E-2,6.3568276E-1,3.853993E-1,9.927551E-1,3.2312316E-1,8.2168154E-2,1.5972424E-1,6.990065E-1,-3.423584E-2,6.2791295E-2,1.5090315E-1,-2.8865933E-3,4.6592188E-1,1.6889396E-1,3.7752888E-1,6.352741E-1,1.5731297E-1,2.6215954E-2,2.3138964E-1,3.921852E-1,5.9994847E-1,-3.1081615E-2,3.9499685E-1,1.3615413E0,-1.5452409E-1,2.3709953E-1,2.0752764E-1,8.0816746E-1,3.3789236E-2,-2.4502097E-1,4.4011417E-1,1.4160608E-1,4.0524888E-1,7.263333E-1,8.84257E-1,5.3343505E-1,2.1251221E-1,-9.794623E-2,-1.6788362E-1,4.5127603E-1,9.934015E-1,-2.0544052E-2,6.1753464E-1,-1.9571042E-2,4.870853E-1,-2.0022035E-1,6.0154724E-1,7.88253E-1,1.6925292E-1,1.0474348E0,8.41816E-2,-2.6975375E-1,5.183027E-1,1.219366E0,1.7740204E0,8.8497275E-1,-2.3438838E-1,3.1880477E-1,8.0742925E-1,1.5487306E-1,1.2884905E0,5.9219944E-1,5.829074E-1,8.478293E-1,3.078291E-1,-7.210045E-2,7.951755E-1,8.319785E-2,1.0518141E0,1.6265862E-1,9.120019E-1,1.1055931E0,1.6120657E0,-2.3944362E-1,7.864417E-1,1.2091651E-1,2.6501536E-1,-1.3241765E-1,4.4735852E-1,-9.347019E-2,8.3892155E-1,1.3782094E-1,9.7396463E-1,1.2764124E0,1.345594E0,4.052274E-1,4.7073036E-1,1.8518057E0,1.3065541E0,9.284544E-1,1.4139144E0,7.3053545E-1,7.466711E-1,1.6379756E0,2.1730886E0,8.6877483E-1,1.4769257E0,2.1348026E0,5.062665E-1,1.4419442E0,2.829258E0,1.546506E0,3.2926176E0,5.422627E-1],"categories":[],"categories_nodes":[],"categories_segments":[],"categories_sizes":[],"default_left":[0,0,0,0,0,0,0,0,0,0,0,0,0,0,0,0,0,0,0,0,0,0,0,0,0,0,0,0,0,0,0,0,0,0,0,0,0,0,0,0,0,0,0,0,0,0,0,0,0,0,0,0,0,0,0,0,0,0,0,0,0,0,0,0,0,0,0,0,0,0,0,0,0,0,0,0,0,0,0,0,0,0,0,0,0,0,0,0,0,0,0,0,0,0,0,0,0,0,0,0,0,0,0,0,0,0,0,0,0,0,0,0,0,0,0,0,0,0,0,0,0,0,0,0,0,0,0,0,0,0,0,0,0,0,0,0,0,0,0,0,0,0,0,0,0,0,0,0,0,0,0,0,0,0,0,0,0,0,0,0,0,0,0,0,0,0,0,0,0,0,0,0,0,0,0,0,0,0,0,0,0,0,0,0,0,0,0,0,0,0,0,0,0,0,0,0,0,0,0,0,0,0,0,0,0,0,0,0,0,0,0,0,0,0,0,0,0,0,0,0,0,0,0,0,0,0,0,0,0,0,0,0,0,0,0,0,0,0,0,0,0,0,0,0,0,0,0,0,0,0,0,0,0,0,0,0,0,0,0,0,0,0,0,0,0,0,0,0,0,0,0,0,0,0,0,0,0,0,0,0,0,0,0,0,0,0,0,0,0,0,0,0,0,0,0,0,0,0,0,0,0,0,0,0,0,0,0,0,0,0,0,0,0,0,0,0,0,0,0,0,0,0,0,0,0,0,0,0,0,0,0,0,0,0,0,0,0,0,0,0,0,0,0,0,0,0,0,0,0,0,0,0,0,0,0,0,0,0,0,0,0,0,0,0,0,0,0,0,0,0,0,0,0,0,0,0,0,0,0,0,0,0,0,0,0,0,0,0,0,0,0,0,0,0,0,0,0,0,0,0,0,0,0,0,0,0,0,0,0,0,0,0,0,0,0,0,0,0,0,0,0],"id":1,"left_children":[1,3,5,7,9,11,13,15,17,19,21,23,25,27,29,31,33,35,37,39,41,43,45,47,49,51,53,55,57,59,61,63,65,67,69,71,73,75,77,79,81,83,85,87,89,91,93,95,97,99,101,103,105,107,109,111,113,115,117,119,-1,121,123,-1,125,127,129,131,133,135,137,139,141,143,145,147,149,151,153,155,157,159,161,163,165,167,169,171,173,175,177,179,181,183,185,187,189,191,193,195,197,199,201,203,205,207,209,-1,211,213,215,217,219,221,-1,-1,223,-1,225,227,229,231,-1,233,235,-1,-1,237,239,241,-1,243,245,247,249,-1,251,253,255,257,259,261,263,265,267,269,271,273,275,277,279,281,283,285,287,289,291,293,295,297,299,301,303,305,307,309,311,313,315,317,319,321,323,325,327,329,331,333,335,337,339,341,343,345,347,-1,-1,349,351,353,355,357,359,361,363,365,367,369,371,373,375,-1,377,379,381,383,385,387,389,391,393,395,-1,397,399,401,403,405,-1,-1,407,409,-1,-1,411,-1,-1,-1,-1,413,415,417,419,-1,-1,-1,-1,-1,-1,-1,-1,-1,-1,-1,-1,-1,-1,-1,-1,-1,-1,-1,-1,-1,-1,-1,-1,-1,-1,-1,-1,-1,-1,-1,-1,-1,-1,-1,-1,-1,-1,-1,-1,-1,-1,-1,-1,-1,-1,-1,-1,-1,-1,-1,-1,-1,-1,-1,-1,-1,-1,-1,-1,-1,-1,-1,-1,-1,-1,-1,-1,-1,-1,-1,-1,-1,-1,-1,-1,-1,-1,-1,-1,-1,-1,-1,-1,-1,-1,-1,-1,-1,-1,-1,-1,-1,-1,-1,-1,-1,-1,-1,-1,-1,-1,-1,-1,-1,-1,-1,-1,-1,-1,-1,-1,-1,-1,-1,-1,-1,-1,-1,-1,-1,-1,-1,-1,-1,-1,-1,-1,-1,-1,-1,-1,-1,-1,-1,-1,-1,-1,-1,-1,-1,-1,-1,-1,-1,-1,-1,-1,-1,-1,-1,-1,-1,-1,-1,-1,-1,-1,-1,-1,-1,-1,-1,-1,-1,-1,-1,-1,-1,-1,-1,-1,-1,-1,-1,-1,-1,-1,-1,-1,-1,-1,-1,-1,-1,-1,-1,-1],"loss_changes":[2.3190565E6,4.3394194E5,3.9736125E5,7.1044E4,5.194469E4,4.403375E4,6.9554125E4,1.320425E4,1.4546984E4,2.6359355E4,2.604039E4,2.356139E4,1.38160625E4,7.7818125E3,1.3315875E4,1.3811562E3,3.0170938E3,6.340328E3,9.482242E3,5.6656777E3,1.227605E4,5.3092773E3,9.690281E3,3.35425E3,6.272625E3,6.3798438E3,4.0643438E3,6.666125E3,4.1732188E3,1.0595625E3,1.6733438E3,8.435156E2,4.94375E2,9.5E2,1.9574297E3,9.022969E2,1.2367344E3,8.2039453E2,7.344607E3,1.9036309E3,2.0270739E3,1.5787007E3,3.2087422E3,2.3149934E3,2.1465117E3,2.3793984E3,1.0054857E3,1.3384219E3,1.2519805E3,2.564211E3,8.379214E2,2.5035469E3,2.5715312E3,1.2230483E3,3.3480938E3,7.8346875E2,1.5535938E3,1.1267812E3,9.9343555E2,3.133125E2,0E0,1.466E3,2.4814824E3,0E0,6.450676E2,4.9165625E2,1.7054434E3,3.735625E2,5.644844E2,8.025271E2,3.2029297E2,4.7929688E2,5.5914453E2,7.7664307E2,7.7903125E2,6.688174E2,4.1693262E2,1.2688865E3,2.713691E3,1.7732373E3,7.725078E2,1.4648157E3,1.00467334E3,3.264182E2,8.5989453E2,2.2526562E3,1.5307477E3,5.732036E2,1.0170879E3,7.9169824E2,1.7240371E3,2.009E3,7.7687E2,4.7674756E2,2.0536609E2,1.7503359E3,4.9727026E2,1.0303945E3,8.341914E2,1.3317168E3,1.3821406E3,5.989397E2,2.8662158E2,1.1604902E3,1.808E3,1.2906875E3,9.674934E2,0E0,5.4917505E2,1.4858047E3,9.870469E2,5.784844E2,6.820625E2,5.73125E2,0E0,0E0,8.2815625E2,0E0,3.516848E2,6.951013E2,1.4409375E2,2.565625E1,0E0,4.2398047E2,1.2303241E2,0E0,0E0,6.353542E2,2.81E2,2.0525757E1,0E0,4.8953125E1,2.5077344E2,4.693393E2,4.529922E2,0E0,8.058335E2,6.819824E1,3.048711E2,5.957793E2,2.8596094E2,3.0519824E2,2.126289E2,2.4582129E2,3.919414E2,9.3241016E2,1.7579102E2,1.2935478E1,1.6160645E2,4.167345E2,5.0990234E1,1.7921688E3,6.3543823E2,1.918293E3,8.710468E2,6.940117E2,5.81709E2,2.2542676E2,4.2799463E2,3.8920367E2,7.2545764E2,5.5146387E2,1.9947632E2,4.569502E2,3.9014514E2,6.563356E2,2.3140041E1,8.753711E2,1.1127109E3,6.480312E2,6.151084E2,3.6778467E2,3.6706738E2,4.0978287E2,5.5511707E2,2.8417493E2,6.5366895E2,4.508496E2,9.471699E2,2.7812292E2,2.3652656E3,1.3453947E2,2.11792E1,7.277747E1,4.0257983E2,0E0,0E0,1.5169141E3,1.0466699E3,3.1436786E2,3.5530664E2,4.18E2,4.5304395E2,6.478008E2,2.4065039E2,1.6265137E2,6.626252E1,3.1616113E2,8.076328E2,2.8662418E2,2.0950952E2,0E0,1.207373E1,4.1571875E2,2.0672186E2,7.556094E2,1.0989453E3,4.9960938E2,1.6234746E3,9.952759E1,1.6918076E2,1.3931427E2,0E0,5.5187036E2,2.1286719E2,7.224912E2,8.715156E2,2.931172E2,0E0,0E0,3.0840625E2,1.5150547E3,0E0,0E0,1.4070312E2,0E0,0E0,0E0,0E0,2.7071875E2,1.1242627E2,1.7012812E3,1.6819531E3,0E0,0E0,0E0,0E0,0E0,0E0,0E0,0E0,0E0,0E0,0E0,0E0,0E0,0E0,0E0,0E0,0E0,0E0,0E0,0E0,0E0,0E0,0E0,0E0,0E0,0E0,0E0,0E0,0E0,0E0,0E0,0E0,0E0,0E0,0E0,0E0,0E0,0E0,0E0,0E0,0E0,0E0,0E0,0E0,0E0,0E0,0E0,0E0,0E0,0E0,0E0,0E0,0E0,0E0,0E0,0E0,0E0,0E0,0E0,0E0,0E0,0E0,0E0,0E0,0E0,0E0,0E0,0E0,0E0,0E0,0E0,0E0,0E0,0E0,0E0,0E0,0E0,0E0,0E0,0E0,0E0,0E0,0E0,0E0,0E0,0E0,0E0,0E0,0E0,0E0,0E0,0E0,0E0,0E0,0E0,0E0,0E0,0E0,0E0,0E0,0E0,0E0,0E0,0E0,0E0,0E0,0E0,0E0,0E0,0E0,0E0,0E0,0E0,0E0,0E0,0E0,0E0,0E0,0E0,0E0,0E0,0E0,0E0,0E0,0E0,0E0,0E0,0E0,0E0,0E0,0E0,0E0,0E0,0E0,0E0,0E0,0E0,0E0,0E0,0E0,0E0,0E0,0E0,0E0,0E0,0E0,0E0,0E0,0E0,0E0,0E0,0E0,0E0,0E0,0E0,0E0,0E0,0E0,0E0,0E0,0E0,0E0,0E0,0E0,0E0,0E0,0E0,0E0,0E0,0E0,0E0,0E0,0E0,0E0,0E0,0E0,0E0,0E0,0E0,0E0,0E0,0E0,0E0,0E0,0E0,0E0,0E0,0E0],"parents":[2147483647,0,0,1,1,2,2,3,3,4,4,5,5,6,6,7,7,8,8,9,9,10,10,11,11,12,12,13,13,14,14,15,15,16,16,17,17,18,18,19,19,20,20,21,21,22,22,23,23,24,24,25,25,26,26,27,27,28,28,29,29,30,30,31,31,32,32,33,33,34,34,35,35,36,36,37,37,38,38,39,39,40,40,41,41,42,42,43,43,44,44,45,45,46,46,47,47,48,48,49,49,50,50,51,51,52,52,53,53,54,54,55,55,56,56,57,57,58,58,59,59,61,61,62,62,64,64,65,65,66,66,67,67,68,68,69,69,70,70,71,71,72,72,73,73,74,74,75,75,76,76,77,77,78,78,79,79,80,80,81,81,82,82,83,83,84,84,85,85,86,86,87,87,88,88,89,89,90,90,91,91,92,92,93,93,94,94,95,95,96,96,97,97,98,98,99,99,100,100,101,101,102,102,103,103,104,104,105,105,106,106,108,108,109,109,110,110,111,111,112,112,113,113,116,116,118,118,119,119,120,120,121,121,123,123,124,124,127,127,128,128,129,129,131,131,132,132,133,133,134,134,136,136,137,137,138,138,139,139,140,140,141,141,142,142,143,143,144,144,145,145,146,146,147,147,148,148,149,149,150,150,151,151,152,152,153,153,154,154,155,155,156,156,157,157,158,158,159,159,160,160,161,161,162,162,163,163,164,164,165,165,166,166,167,167,168,168,169,169,170,170,171,171,172,172,173,173,174,174,175,175,176,176,177,177,178,178,179,179,180,180,181,181,182,182,183,183,184,184,187,187,188,188,189,189,190,190,191,191,192,192,193,193,194,194,195,195,196,196,197,197,198,198,199,199,200,200,202,202,203,203,204,204,205,205,206,206,207,207,208,208,209,209,210,210,211,211,213,213,214,214,215,215,216,216,217,217,220,220,221,221,224,224,229,229,230,230,231,231,232,232],"right_children":[2,4,6,8,10,12,14,16,18,20,22,24,26,28,30,32,34,36,38,40,42,44,46,48,50,52,54,56,58,60,62,64,66,68,70,72,74,76,78,80,82,84,86,88,90,92,94,96,98,100,102,104,106,108,110,112,114,116,118,120,-1,122,124,-1,126,128,130,132,134,136,138,140,142,144,146,148,150,152,154,156,158,160,162,164,166,168,170,172,174,176,178,180,182,184,186,188,190,192,194,196,198,200,202,204,206,208,210,-1,212,214,216,218,220,222,-1,-1,224,-1,226,228,230,232,-1,234,236,-1,-1,238,240,242,-1,244,246,248,250,-1,252,254,256,258,260,262,264,266,268,270,272,274,276,278,280,282,284,286,288,290,292,294,296,298,300,302,304,306,308,310,312,314,316,318,320,322,324,326,328,330,332,334,336,338,340,342,344,346,348,-1,-1,350,352,354,356,358,360,362,364,366,368,370,372,374,376,-1,378,380,382,384,386,388,390,392,394,396,-1,398,400,402,404,406,-1,-1,408,410,-1,-1,412,-1,-1,-1,-1,414,416,418,420,-1,-1,-1,-1,-1,-1,-1,-1,-1,-1,-1,-1,-1,-1,-1,-1,-1,-1,-1,-1,-1,-1,-1,-1,-1,-1,-1,-1,-1,-1,-1,-1,-1,-1,-1,-1,-1,-1,-1,-1,-1,-1,-1,-1,-1,-1,-1,-1,-1,-1,-1,-1,-1,-1,-1,-1,-1,-1,-1,-1,-1,-1,-1,-1,-1,-1,-1,-1,-1,-1,-1,-1,-1,-1,-1,-1,-1,-1,-1,-1,-1,-1,-1,-1,-1,-1,-1,-1,-1,-1,-1,-1,-1,-1,-1,-1,-1,-1,-1,-1,-1,-1,-1,-1,-1,-1,-1,-1,-1,-1,-1,-1,-1,-1,-1,-1,-1,-1,-1,-1,-1,-1,-1,-1,-1,-1,-1,-1,-1,-1,-1,-1,-1,-1,-1,-1,-1,-1,-1,-1,-1,-1,-1,-1,-1,-1,-1,-1,-1,-1,-1,-1,-1,-1,-1,-1,-1,-1,-1,-1,-1,-1,-1,-1,-1,-1,-1,-1,-1,-1,-1,-1,-1,-1,-1,-1,-1,-1,-1,-1,-1,-1,-1,-1,-1,-1,-1,-1],"split_conditions":[3.153E1,1.652E1,5.375E1,1.012E1,2.39E1,3.94E1,6.938E1,6.7E0,2.617E1,4.323E1,4.852E1,4.323E1,2.98E1,2.397E1,8.122E1,4.47E0,3.645E1,1.348E1,3.852E1,2.085E1,3.45E1,2.715E1,2.015E1,3.648E1,2.183E1,4.757E1,7.85E0,6.225E1,4.627E1,1.357E1,5.588E1,4.985E1,1.857E1,1.325E1,6.4E0,1.203E1,1.265E1,1.348E1,2.33E1,2E1,2.173E1,2.648E1,1.39E1,1.8E1,2.27E1,2.102E1,1.6213E2,3.032E1,3.13E1,2.375E1,5.02E1,1.905E1,4.323E1,9.15E0,4.852E1,3.345E1,8.897E1,4.6E0,4.78E0,1.07E1,2.411983E0,3.73E0,2.07E1,-8.721369E-1,1.6544E2,2.9E0,7.377E1,8.78E0,3.25E0,2.25E0,1.245E1,7.28E0,1.1E1,1.535E1,2.76E1,2.9E0,1.495E1,4.4E1,7.83E0,2.188E1,1.888E1,1.262E1,2.875E1,1.68E1,6.97E0,2.455E1,1.525E1,3.562E1,2.33E1,1.173E1,1.888E1,1.8E1,6.6E0,1.212E1,1.6544E2,5.083E1,1.558E1,1.593E1,2.852E1,3.18E1,4.695E1,6.475E1,7.25E0,4.042E1,5.265E1,6.555E1,5.938E1,-3.302013E-1,6.085E1,9.55E0,1.132E1,6.34E1,3.7E0,1.83E1,2.3935576E-1,1.8760638E-1,2.627E1,-3.798436E-1,1.3084E2,2.36E1,3.3E0,8.897E1,4.8082486E-1,8.42E0,1.752E1,-4.8260984E-1,6.768127E-1,1.46E1,3.852E1,3.33E0,1.0407314E0,3.25E0,4.35E0,9.4E0,2.673E1,4.4294044E-1,3.73E0,2.1046E2,5.088E1,1.83E1,1.212E1,3.78E0,6.7E0,4.627E1,1.255E1,4.323E1,1.62E1,1.08E0,1.043E1,1.857E1,5.18E1,1.338E1,1.68E1,1.192E1,1.422E1,1.935E1,2.812E1,4.4E1,1.585E1,4.757E1,4.65E0,1.843E1,9.25E0,1.295E1,1.51E1,2.065E1,3.082E1,1.46E1,3.18E1,4.075E1,7.797E1,1.2E1,-5.6E-1,2.59E1,9.5E0,1.472E1,3.415E1,2.93E1,4.683E1,1.3431E2,4.18E1,7.9E0,1.443E1,3.718E1,2.735E1,1.2834425E0,1.9766498E-1,2.618E1,2.88E1,4.83E1,6.01E0,5.8E1,3.897E1,5.573E1,4.83E1,7.05E0,6.208E1,2.762E1,2.927E1,6.04E0,6.838E1,1.0777979E-1,7.386E1,5.265E1,6.05E1,6.938E1,7.355E1,4.903E1,6.385E1,1.872E1,5.47E0,6.838E1,1.0402173E0,3.03E1,4.075E1,2.333E1,1.235E1,5.265E1,2.5003174E-1,1.7339891E0,1.89E1,6.89E0,1.8559316E0,1.4775299E0,1.0957E2,3.8042486E-1,1.2394136E0,1.2995747E0,-1.7092519E-1,3.6E0,6.46E0,2.43E1,1.7763E2,5.605302E-1,2.510136E0,6.195044E-1,-1.0562325E-2,3.4999125E-2,-6.6129446E-1,-7.844102E-1,-6.913745E-1,-1.644014E-1,-6.79419E-1,-3.9982992E-1,-6.942689E-1,8.8894226E-2,-6.2480605E-1,6.297103E-1,-3.0838776E-1,-6.117423E-1,-4.8891288E-1,-2.9456154E-2,-3.796434E-1,-6.192832E-1,-9.214272E-2,-5.5137634E-1,-3.3798847E-1,-4.2188993E-1,1.393442E-1,-5.157227E-1,-5.798605E-1,3.0676976E-1,-3.6571768E-1,-5.826702E-1,-4.6984363E-1,-3.7255567E-1,-1.1521085E-2,-1.9520845E-1,1.713141E-1,-3.6774483E-1,1.0824376E-1,-4.7719055E-1,-3.1049272E-1,4.0871248E-1,7.6043986E-2,-3.852953E-1,-5.210825E-1,-3.174046E-1,-7.217168E-2,-3.9986858E-1,-2.29896E-1,1.2500791E-1,-3.441659E-1,-3.7102982E-1,-7.010903E-2,5.9719708E-2,6.049646E-1,-1.5528348E-1,2.8526875E-1,-2.4094956E-1,-1.1373824E-1,-9.259441E-2,9.2719555E-2,-3.0320928E-1,-4.313914E-1,-2.7789363E-1,-1.7287448E-1,-5.5550583E-2,1.5987183E-1,3.5793734E-1,9.493102E-2,-1.483195E-1,-3.7275054E-2,-1.6025114E-1,-3.1466663E-1,-1.2264782E-1,3.5741317E-1,-2.9198194E-1,-4.2684745E-2,2.7357873E-1,9.948595E-1,-9.438276E-4,-1.7133383E-1,5.601537E-1,-3.675499E-1,6.567329E-1,1.1527699E0,-4.5017555E-2,6.3568276E-1,3.853993E-1,9.927551E-1,3.2312316E-1,8.2168154E-2,1.5972424E-1,6.990065E-1,-3.423584E-2,6.2791295E-2,1.5090315E-1,-2.8865933E-3,4.6592188E-1,1.6889396E-1,3.7752888E-1,6.352741E-1,1.5731297E-1,2.6215954E-2,2.3138964E-1,3.921852E-1,5.9994847E-1,-3.1081615E-2,3.9499685E-1,1.3615413E0,-1.5452409E-1,2.3709953E-1,2.0752764E-1,8.0816746E-1,3.3789236E-2,-2.4502097E-1,4.4011417E-1,1.4160608E-1,4.0524888E-1,7.263333E-1,8.84257E-1,5.3343505E-1,2.1251221E-1,-9.794623E-2,-1.6788362E-1,4.5127603E-1,9.934015E-1,-2.0544052E-2,6.1753464E-1,-1.9571042E-2,4.870853E-1,-2.0022035E-1,6.0154724E-1,7.88253E-1,1.6925292E-1,1.0474348E0,8.41816E-2,-2.6975375E-1,5.183027E-1,1.219366E0,1.7740204E0,8.8497275E-1,-2.3438838E-1,3.1880477E-1,8.0742925E-1,1.5487306E-1,1.2884905E0,5.9219944E-1,5.829074E-1,8.478293E-1,3.078291E-1,-7.210045E-2,7.951755E-1,8.319785E-2,1.0518141E0,1.6265862E-1,9.120019E-1,1.1055931E0,1.6120657E0,-2.3944362E-1,7.864417E-1,1.2091651E-1,2.6501536E-1,-1.3241765E-1,4.4735852E-1,-9.347019E-2,8.3892155E-1,1.3782094E-1,9.7396463E-1,1.2764124E0,1.345594E0,4.052274E-1,4.7073036E-1,1.8518057E0,1.3065541E0,9.284544E-1,1.4139144E0,7.3053545E-1,7.466711E-1,1.6379756E0,2.1730886E0,8.6877483E-1,1.4769257E0,2.1348026E0,5.062665E-1,1.4419442E0,2.829258E0,1.546506E0,3.2926176E0,5.422627E-1],"split_indices":[13,13,13,13,13,13,13,13,10,9,9,9,9,8,13,13,10,13,8,13,10,13,14,13,11,13,10,13,12,9,12,18,14,18,14,13,14,13,18,14,14,18,14,14,14,11,0,12,14,18,1,18,12,18,8,18,14,17,10,18,0,6,8,0,0,14,0,13,15,16,18,14,14,18,12,15,14,12,11,18,13,9,12,14,11,17,15,18,18,17,18,18,16,18,0,17,11,11,18,14,8,9,10,12,17,17,14,0,11,17,16,12,11,17,0,0,18,0,0,0,6,13,0,3,1,0,0,17,10,8,0,15,14,3,9,0,11,0,8,10,14,15,18,8,14,8,13,0,11,18,18,11,18,13,13,13,9,12,18,17,11,18,8,11,18,13,18,15,18,17,9,11,6,13,12,14,18,17,17,0,8,15,10,0,14,0,0,8,14,14,3,18,13,14,17,0,8,8,12,3,11,0,1,15,14,14,12,13,14,3,9,8,0,15,13,1,17,17,0,0,8,3,0,0,9,0,0,0,0,10,3,12,0,0,0,0,0,0,0,0,0,0,0,0,0,0,0,0,0,0,0,0,0,0,0,0,0,0,0,0,0,0,0,0,0,0,0,0,0,0,0,0,0,0,0,0,0,0,0,0,0,0,0,0,0,0,0,0,0,0,0,0,0,0,0,0,0,0,0,0,0,0,0,0,0,0,0,0,0,0,0,0,0,0,0,0,0,0,0,0,0,0,0,0,0,0,0,0,0,0,0,0,0,0,0,0,0,0,0,0,0,0,0,0,0,0,0,0,0,0,0,0,0,0,0,0,0,0,0,0,0,0,0,0,0,0,0,0,0,0,0,0,0,0,0,0,0,0,0,0,0,0,0,0,0,0,0,0,0,0,0,0,0,0,0,0,0,0,0,0,0,0,0,0,0,0,0,0,0,0,0,0,0,0,0,0,0,0,0,0,0],"split_type":[0,0,0,0,0,0,0,0,0,0,0,0,0,0,0,0,0,0,0,0,0,0,0,0,0,0,0,0,0,0,0,0,0,0,0,0,0,0,0,0,0,0,0,0,0,0,0,0,0,0,0,0,0,0,0,0,0,0,0,0,0,0,0,0,0,0,0,0,0,0,0,0,0,0,0,0,0,0,0,0,0,0,0,0,0,0,0,0,0,0,0,0,0,0,0,0,0,0,0,0,0,0,0,0,0,0,0,0,0,0,0,0,0,0,0,0,0,0,0,0,0,0,0,0,0,0,0,0,0,0,0,0,0,0,0,0,0,0,0,0,0,0,0,0,0,0,0,0,0,0,0,0,0,0,0,0,0,0,0,0,0,0,0,0,0,0,0,0,0,0,0,0,0,0,0,0,0,0,0,0,0,0,0,0,0,0,0,0,0,0,0,0,0,0,0,0,0,0,0,0,0,0,0,0,0,0,0,0,0,0,0,0,0,0,0,0,0,0,0,0,0,0,0,0,0,0,0,0,0,0,0,0,0,0,0,0,0,0,0,0,0,0,0,0,0,0,0,0,0,0,0,0,0,0,0,0,0,0,0,0,0,0,0,0,0,0,0,0,0,0,0,0,0,0,0,0,0,0,0,0,0,0,0,0,0,0,0,0,0,0,0,0,0,0,0,0,0,0,0,0,0,0,0,0,0,0,0,0,0,0,0,0,0,0,0,0,0,0,0,0,0,0,0,0,0,0,0,0,0,0,0,0,0,0,0,0,0,0,0,0,0,0,0,0,0,0,0,0,0,0,0,0,0,0,0,0,0,0,0,0,0,0,0,0,0,0,0,0,0,0,0,0,0,0,0,0,0,0,0,0,0,0,0,0,0,0,0,0,0,0,0,0,0,0,0,0,0,0,0,0,0,0,0,0,0,0,0,0,0,0,0,0,0,0,0,0,0,0,0,0,0],"sum_hessian":[1.6948E4,1.2966E4,3.982E3,7.872E3,5.094E3,2.919E3,1.063E3,4.045E3,3.827E3,2.919E3,2.175E3,1.444E3,1.475E3,7.34E2,3.29E2,1.903E3,2.142E3,3.213E3,6.14E2,2.63E3,2.89E2,2.007E3,1.68E2,1.309E3,1.35E2,1.181E3,2.94E2,6.08E2,1.26E2,2E2,1.29E2,5.79E2,1.324E3,1.859E3,2.83E2,1.791E3,1.422E3,2.92E2,3.22E2,1.673E3,9.57E2,1.14E2,1.75E2,8.92E2,1.115E3,1.1E2,5.8E1,8.95E2,4.14E2,9.7E1,3.8E1,8.3E2,3.51E2,1.9E1,2.75E2,3.91E2,2.17E2,1.17E2,9E0,1.12E2,8.8E1,1.19E2,1E1,5.76E2,3E0,1.317E3,7E0,1.219E3,6.4E2,9.1E1,1.92E2,1.028E3,7.63E2,2.42E2,1.18E3,1.52E2,1.4E2,1.9E2,1.32E2,9.19E2,7.54E2,3.98E2,5.59E2,9E1,2.4E1,1.22E2,5.3E1,9.3E1,7.99E2,1.66E2,9.49E2,9.4E1,1.6E1,5.5E1,3E0,8E2,9.5E1,7.6E1,3.38E2,1.6E1,8.1E1,2.9E1,9E0,1.37E2,6.93E2,3.27E2,2.4E1,3E0,1.6E1,2.17E2,5.8E1,1.26E2,2.65E2,2.15E2,2E0,1E0,1.16E2,1E0,8E0,2E0,1.1E2,1.18E2,1E0,7E0,3E0,2E0,1E0,1.3E1,1.304E3,6E0,1E0,7.63E2,4.56E2,4E0,6.36E2,3E0,8.8E1,1.07E2,8.5E1,3.8E1,9.9E2,1.23E2,6.4E2,1.11E2,1.31E2,9.12E2,2.68E2,2E0,1.5E2,7E1,7E1,8.6E1,1.04E2,8.4E1,4.8E1,5.89E2,3.3E2,3.42E2,4.12E2,2.62E2,1.36E2,4.6E2,9.9E1,2.2E1,6.8E1,1.6E1,8E0,6.1E1,6.1E1,3E1,2.3E1,7.5E1,1.8E1,4.56E2,3.43E2,5E1,1.16E2,2.95E2,6.54E2,1.1E1,8.3E1,7E0,9E0,8E0,4.7E1,2E0,1E0,6.8E2,1.2E2,6.2E1,3.3E1,4.3E1,3.3E1,1.55E2,1.83E2,1.2E1,4E0,2.8E1,5.3E1,1.7E1,1.2E1,1E0,8E0,1.15E2,2.2E1,5.78E2,1.15E2,3.06E2,2.1E1,1.5E1,9E0,1E1,6E0,1.8E1,1.99E2,1.3E1,4.5E1,1.24E2,2E0,4E1,2.25E2,5.9E1,1.56E2,1.5E1,1.01E2,3E0,5E0,1E0,1E0,1.04E2,6E0,6E1,5.8E1,1E0,6E0,2E0,1E0,5E0,8E0,1.132E3,1.72E2,1E0,5E0,6E0,7.57E2,1E0,4.55E2,1E0,3E0,5.16E2,1.2E2,2.2E1,6.6E1,1.06E2,1E0,4.8E1,3.7E1,3.3E1,5E0,5.39E2,4.51E2,1E0,1.22E2,6.6E1,5.74E2,1.06E2,5E0,1.24E2,7E0,9.02E2,1E1,2.43E2,2.5E1,1E0,1E0,5.1E1,9.9E1,3.6E1,3.4E1,6E1,1E1,5.5E1,3.1E1,8.1E1,2.3E1,2.2E1,6.2E1,3.2E1,1.6E1,4.44E2,1.45E2,2.81E2,4.9E1,2.96E2,4.6E1,1.76E2,2.36E2,2.4E2,2.2E1,3.5E1,1.01E2,1.92E2,2.68E2,3.7E1,6.2E1,1.6E1,6E0,4.3E1,2.5E1,1.2E1,4E0,3E0,5E0,5.9E1,2E0,2.4E1,3.7E1,2.7E1,3E0,1.7E1,6E0,5.1E1,2.4E1,5E0,1.3E1,2.79E2,1.77E2,2.68E2,7.5E1,1E1,4E1,7.1E1,4.5E1,1.96E2,9.9E1,5.41E2,1.13E2,9E0,2E0,8E0,7.5E1,3E0,4E0,1E0,8E0,4E0,4E0,2.2E1,2.5E1,6.4E2,4E1,3.3E1,8.7E1,5.3E1,9E0,2E0,3.1E1,4.2E1,1E0,3E1,3E0,1.52E2,3E0,1.48E2,3.5E1,1E0,1.1E1,3E0,1E0,4E0,2.4E1,4.7E1,6E0,2E0,1.5E1,1E1,2E0,5E0,3E0,8.9E1,2.6E1,1.8E1,4E0,5.74E2,4E0,1.11E2,4E0,8.7E1,2.19E2,2E1,1E0,1.4E1,1E0,5E0,4E0,9E0,1E0,1.4E1,4E0,2.5E1,1.74E2,9E0,4E0,2E0,4.3E1,1.06E2,1.8E1,2.2E2,5E0,8E0,5.1E1,9.9E1,2E0,1.2E1,9.2E1,2E0,4E0,5.3E1,7E0,5.7E1,1E0],"tree_param":{"num_deleted":"0","num_feature":"19","num_nodes":"421","size_leaf_vector":"1"}},{"base_weights":[6.716032E-2,-6.570693E0,1.8835155E1,-1.1230463E1,-6.969355E-1,1.3384287E1,3.579732E1,-1.411031E1,-8.957404E0,-3.3682485E0,2.8768375E0,9.9156685E0,1.824822E1,3.1162092E1,4.9466553E1,-1.5796408E1,-1.2972707E1,-9.496778E0,-4.7321787E0,-4.258547E0,4.4885216E0,1.9842992E0,1.4259449E1,8.733822E0,2.1826048E1,1.6796276E1,2.4047716E1,2.8442652E1,3.677532E1,4.198664E1,5.576363E1,-8.5233E-1,-1.5319391E1,-1.3313845E1,-9.709677E0,-1.0742808E1,-8.174271E0,-9.051985E0,-2.335892E0,-5.4142303E0,-2.5640633E0,1.0729971E1,-1.6273001E0,4.9593225E-1,3.3369265E0,2.000652E1,3.8330438E0,6.3062725E0,1.0179411E1,2.6186934E1,1.2808256E1,1.3464634E1,1.843497E1,1.1617703E1,2.5189957E1,2.7279118E1,4.170015E1,-3.7034753E-1,3.6976055E1,5.3959256E-1,2.1074286E0,3.4849808E0,5.265378E1,-1.5631556E1,-1.3848695E1,-1.3924066E1,-1.2557123E1,3.2105714E-1,-1.03122425E1,-8.388491E0,-1.09433775E1,-8.602512E0,-5.0504413E0,-9.570018E0,-2.5776172E0,-6.3752923E0,9.0523833E-1,-2.561342E0,-5.821984E0,-1.2024825E0,-3.55324E0,2.8724762E1,9.065601E0,-4.843134E0,2.8238811E0,3.964626E0,-2.6824853E-1,8.080873E0,2.972644E0,1.1905628E1,2.2759855E1,-2.3926249E0,5.533581E0,1.0678424E1,5.78952E0,9.089165E0,1.1926029E1,1.8453384E1,3.0937496E1,7.8202314E0,1.9756617E1,8.918698E0,1.4514276E1,1.3675892E1,1.9121033E1,-3.1781873E-1,1.4357639E1,1.8579666E1,2.7169212E1,2.445476E1,2.9550371E1,2.357803E0,2.873577E1,3.358213E1,2.0673735E0,5.2943542E1,4.4706878E-1,-7.826365E-1,-5.261481E0,3.4844908E-1,-1.4023955E1,-1.4612958E1,-1.3305313E1,-1.1531166E1,-1.3072736E1,-3.6380105E0,3.1030974E0,-1.1347008E1,-5.930746E0,-1.015248E1,-6.176678E0,-1.1591788E1,-1.0171442E1,-9.153819E0,-7.7726665E0,-7.08852E0,-1.2959641E0,-1.1100525E1,-8.074239E0,-5.3085213E0,2.4470234E-1,-7.369956E0,-1.0036598E0,-4.9554567E0,2.4795113E0,-5.026733E0,-1.0591419E0,-6.850512E0,-4.905843E0,-1.8873065E0,1.7833192E0,-4.9647593E0,-2.775374E0,6.8063587E-1,1.5948552E0,1.2925048E0,1.2373599E1,-2.637169E0,-6.5414996E0,-4.04787E0,5.914603E0,8.543838E-1,7.1325684E0,-1.2220451E0,5.827432E-1,5.071516E0,1.1038675E1,2.0378294E0,4.248531E0,1.3982061E1,1.2695532E0,1.6795433E1,2.7640148E1,-3.5760668E-1,2.2639199E-1,8.49667E0,1.1781925E0,5.0512357E0,1.2872149E1,3.9121377E0,6.4462457E0,1.0737177E1,7.631412E0,9.890299E0,1.3350558E1,8.137995E0,2.0682344E1,1.9143246E1,3.3250977E1,1.2954309E0,5.390723E0,2.2727232E1,1.097448E1,9.733945E0,-1.671341E0,1.93611E1,1.3486854E1,1.4548672E1,2.1476307E0,1.8528513E1,2.5400936E1,2.917958E0,1.6737682E1,1.5402163E1,1.1756209E0,2.2435555E1,2.9217808E1,1.42830515E1,2.4998304E1,2.9631815E1,1.8291621E-1,1.5054872E0,2.3750392E-1,8.400357E0,3.40389E1,2.7900888E1,5.3789738E1,-3.867501E-1,-7.8609465E-3,-3.9000264E-1,4.1613632E-1,-7.5223804E-1,-5.5391544E-1,-4.8125148E-1,-7.3556894E-1,-8.427324E-2,-6.6628355E-1,-6.04062E-1,-4.5254204E-1,-6.6054904E-1,-3.9025298E-1,-2.2150232E-2,-2.1630053E-1,1.0067463E-3,2.7051428E-1,-6.1939156E-1,-4.7612914E-1,-4.417428E-1,6.4846994E-3,1.3972889E-1,-5.1784587E-1,-4.8577476E-1,-2.3236077E-1,-5.8086747E-1,2.6937756E-1,-5.2402806E-1,-4.5992237E-1,-4.8893234E-1,-4.2869988E-1,1.4433237E-2,-3.9557174E-1,-2.6862177E-1,-4.1804796E-1,-2.1275719E-1,5.214936E-1,8.644929E-2,-5.6573105E-1,-2.5437492E-1,-4.5517087E-1,-3.5423428E-1,-1.05771E-1,-4.8023993E-1,-2.8283283E-1,-3.955646E-1,5.4351773E-2,-3.1552383E-1,5.8627117E-2,-1.7811125E-2,2.6604497E-1,2.935695E-2,-3.062378E-1,-1.116148E-1,1.14473455E-1,-2.9718158E-1,-3.8162354E-1,-2.0802164E-1,-3.0340198E-1,-1.2327387E-1,1.5788186E-2,5.8473283E-1,5.9660207E-2,-2.242925E-1,-3.743728E-1,-1.579468E-1,-1.5172161E-2,-1.3540147E-1,3.2142872E-1,1.18627906E-1,7.3037475E-1,-2.355841E-1,1.2563027E-1,-3.634084E-1,9.440743E-2,-2.3739775E-1,2.663478E-1,6.351883E-1,1.6493335E-1,-4.960859E-4,2.958727E-1,1.9783863E-1,4.780235E-1,-3.1516127E-2,-1.5043308E-1,-3.1388518E-1,3.4455594E-2,3.5055155E-1,5.5649396E-2,6.119272E-1,1.0998326E-1,1.2102125E-1,-1.5817411E-2,2.4989259E-1,9.469121E-2,9.937565E-1,3.9660707E-1,-1.4118937E-1,3.152078E-1,1.0699116E0,5.41208E-1,7.7396394E-3,1.4145437E0,-7.040561E-2,1.5150881E-1,1.2181236E-1,5.7790715E-1,-2.2291933E-1,1.18265525E-1,-4.0233403E-1,3.0542326E-1,9.0884334E-1,5.330217E-1,-2.8223297E-1,2.0994408E-1,2.4890219E-1,3.7030956E-1,3.790311E-1,5.896439E-1,4.2419073E-1,2.8882614E-1,-7.684081E-2,5.1489276E-1,6.012254E-1,8.466817E-1,5.8812815E-1,-2.1200931E-1,4.253626E-3,1.0618365E0,3.4018084E-1,1.1699369E0,1.6880449E0,6.32441E-1,-6.267269E-3,4.2743656E-1,5.967113E-1,1.256507E0,6.670069E-1,2.6368937E-1,5.8769226E-1,3.7138763E-1,-1.5556024E-1,1.3819948E-1,1.1114601E0,6.2430036E-1,-3.6036408E-1,6.799454E-1,7.5715727E-1,-1.00915335E-1,1.3363487E-1,-3.8195897E-2,8.733897E-1,1.0273092E0,9.8383266E-1,1.4904583E0,1.6819946E-1,2.8345823E-2,8.968342E-1,-9.113345E-2,-1.0470352E-2,8.5713E-1,1.1743139E0,4.357221E-1,1.2989622E0,1.7478646E0,1.02344E0,3.5425702E-1,1.1382972E0,1.383859E0,1.7397101E0,1.441337E0,8.1749934E-1,1.5024249E-2,1.7108996E0,1.9728294E-1,1.6781727E0,-1.0298252E-2,2.7048542E0,4.688042E-1],"categories":[],"categories_nodes":[],"categories_segments":[],"categories_sizes":[],"default_left":[0,0,0,0,0,0,0,0,0,0,0,0,0,0,0,0,0,0,0,0,0,0,0,0,0,0,0,0,0,0,0,0,0,0,0,0,0,0,0,0,0,0,0,0,0,0,0,0,0,0,0,0,0,0,0,0,0,0,0,0,0,0,0,0,0,0,0,0,0,0,0,0,0,0,0,0,0,0,0,0,0,0,0,0,0,0,0,0,0,0,0,0,0,0,0,0,0,0,0,0,0,0,0,0,0,0,0,0,0,0,0,0,0,0,0,0,0,0,0,0,0,0,0,0,0,0,0,0,0,0,0,0,0,0,0,0,0,0,0,0,0,0,0,0,0,0,0,0,0,0,0,0,0,0,0,0,0,0,0,0,0,0,0,0,0,0,0,0,0,0,0,0,0,0,0,0,0,0,0,0,0,0,0,0,0,0,0,0,0,0,0,0,0,0,0,0,0,0,0,0,0,0,0,0,0,0,0,0,0,0,0,0,0,0,0,0,0,0,0,0,0,0,0,0,0,0,0,0,0,0,0,0,0,0,0,0,0,0,0,0,0,0,0,0,0,0,0,0,0,0,0,0,0,0,0,0,0,0,0,0,0,0,0,0,0,0,0,0,0,0,0,0,0,0,0,0,0,0,0,0,0,0,0,0,0,0,0,0,0,0,0,0,0,0,0,0,0,0,0,0,0,0,0,0,0,0,0,0,0,0,0,0,0,0,0,0,0,0,0,0,0,0,0,0,0,0,0,0,0,0,0,0,0,0,0,0,0,0,0,0,0,0,0,0,0,0,0,0,0,0,0,0,0,0,0,0,0,0,0,0,0,0,0,0,0,0,0,0,0,0,0,0,0,0,0,0,0,0,0,0,0,0,0,0,0,0,0,0,0,0,0,0,0,0,0,0,0],"id":2,"left_children":[1,3,5,7,9,11,13,15,17,19,21,23,25,27,29,31,33,35,37,39,41,43,45,47,49,51,53,55,57,59,61,-1,63,65,67,69,71,73,75,77,79,81,83,85,87,89,91,93,95,97,99,101,103,105,107,109,111,-1,113,-1,-1,-1,115,117,119,121,123,125,127,129,131,133,135,137,139,141,143,145,147,149,151,153,155,157,159,161,163,165,167,169,171,173,175,177,179,181,183,185,187,189,191,193,195,197,199,-1,201,203,205,207,209,-1,211,213,-1,215,-1,-1,217,219,221,223,225,227,229,231,233,235,237,239,241,243,245,247,249,251,253,255,257,259,-1,261,263,265,267,269,271,273,275,277,279,281,283,-1,-1,285,287,289,291,293,295,297,299,301,303,305,307,309,311,313,315,317,319,-1,321,323,325,327,329,331,333,335,337,339,341,343,345,347,349,-1,351,353,355,357,359,361,363,365,367,369,371,373,375,377,-1,379,381,383,385,387,-1,-1,-1,389,391,393,395,-1,-1,-1,-1,-1,-1,-1,-1,-1,-1,-1,-1,-1,-1,-1,-1,-1,-1,-1,-1,-1,-1,-1,-1,-1,-1,-1,-1,-1,-1,-1,-1,-1,-1,-1,-1,-1,-1,-1,-1,-1,-1,-1,-1,-1,-1,-1,-1,-1,-1,-1,-1,-1,-1,-1,-1,-1,-1,-1,-1,-1,-1,-1,-1,-1,-1,-1,-1,-1,-1,-1,-1,-1,-1,-1,-1,-1,-1,-1,-1,-1,-1,-1,-1,-1,-1,-1,-1,-1,-1,-1,-1,-1,-1,-1,-1,-1,-1,-1,-1,-1,-1,-1,-1,-1,-1,-1,-1,-1,-1,-1,-1,-1,-1,-1,-1,-1,-1,-1,-1,-1,-1,-1,-1,-1,-1,-1,-1,-1,-1,-1,-1,-1,-1,-1,-1,-1,-1,-1,-1,-1,-1,-1,-1,-1,-1,-1,-1,-1,-1,-1,-1,-1,-1,-1,-1,-1,-1,-1,-1,-1,-1,-1,-1,-1,-1,-1,-1,-1,-1,-1,-1,-1,-1,-1,-1,-1,-1,-1,-1],"loss_changes":[2.0970409E6,3.4034262E5,4.061535E5,4.5264E4,5.2535445E4,5.5999875E4,6.61905E4,5.6586875E3,8.792906E3,2.2045969E4,2.3886969E4,2.7201734E4,1.1258531E4,1.1181125E4,1.0329E4,4.7059375E2,1.9089062E3,5.5775938E3,4.5438643E3,5.5261055E3,1.2270541E4,4.3951865E3,1.0169855E4,6.1541875E3,6.5465625E3,5.8173438E3,3.6118281E3,7.2539375E3,2.5620625E3,1.8664062E2,2.5274688E3,0E0,1.9579688E2,5.89375E2,1.0731289E3,7.4259375E2,2.1932812E3,5.018994E2,3.7370542E3,1.9405586E3,1.543251E3,4.5016367E3,2.346901E3,2.7604517E3,1.9529668E3,2.1825195E3,6.6963245E2,1.4383652E3,2.0034062E3,3.7275312E3,1.8903545E3,1.6360469E3,2.1611406E3,1.3224583E3,2.7791406E3,2.5040312E3,1.6156953E3,0E0,2.424375E3,0E0,0E0,0E0,1.0592188E3,7.859375E1,4.1792383E2,1.9217188E2,2.4547656E2,1.3244626E2,6.898535E2,4.9522168E2,6.9546875E2,6.009219E2,1.5518047E3,2.4231934E2,2.912373E2,6.7116016E2,1.4792743E3,7.798203E2,1.3515391E3,9.950687E2,7.1637305E2,1.8902148E2,3.763876E3,3.3866968E2,1.48941E3,1.8462825E3,6.9388086E2,6.6500586E2,1.2603926E3,6.4480176E2,1.8935312E3,1.7613245E2,6.22354E2,7.867505E2,7.0960547E2,1.5685039E3,1.0946406E3,9.123379E2,1.3007578E3,1.4423855E3,3.7670215E2,6.378804E2,1.2278203E3,9.447344E2,1.9331094E3,0E0,5.5015234E2,5.9396094E2,1.1966719E3,9.145625E2,4.6939062E2,0E0,3.513125E2,1.4393906E3,0E0,1.042125E3,0E0,0E0,3.6660416E1,2.598529E2,3.264668E2,6.410156E1,9.321094E1,2.4402734E2,2.5444531E2,9.074387E0,4.9681885E1,1.3648828E2,5.9955225E2,2.3539844E2,3.1207446E2,4.4279688E2,1.2917969E2,2.3389062E2,6.6564844E2,2.4331885E2,2.577397E3,2.0908789E2,1.9037646E2,4.172763E1,0E0,3.553667E2,3.1187668E2,2.8972028E2,1.0171305E3,4.967284E2,5.2759283E2,4.4394336E2,6.513457E2,5.0391028E2,5.1828925E2,2.5032568E2,4.0768896E2,0E0,0E0,9.4202466E2,2.2664941E3,4.7121936E2,3.3837793E2,1.6968198E2,8.105751E2,4.201585E2,6.7925E2,4.2414758E2,3.3416672E2,3.1465698E2,3.9730518E2,5.555957E2,7.8276465E2,7.336626E2,1.4145166E2,8.402793E2,7.646992E2,0E0,5.0094795E1,5.0990234E2,1.5106242E2,3.3995056E2,3.8112012E2,4.5393677E2,5.832656E2,9.7696484E2,5.328418E2,8.448047E2,9.6521094E2,4.98531E2,4.3210645E2,5.7595996E2,1.8227734E2,0E0,5.759246E2,1.4097949E2,3.7534058E1,2.248003E2,4.691697E1,7.083711E2,6.7772656E2,9.169414E2,1.4271778E1,9.12375E2,7.5085547E2,3.33609E0,4.332622E2,1.0904277E3,0E0,6.891875E2,1.5082344E3,4.7831836E2,6.67625E2,1.31625E2,0E0,0E0,0E0,2.5265103E2,6.572656E2,9.61854E2,1.0625625E3,0E0,0E0,0E0,0E0,0E0,0E0,0E0,0E0,0E0,0E0,0E0,0E0,0E0,0E0,0E0,0E0,0E0,0E0,0E0,0E0,0E0,0E0,0E0,0E0,0E0,0E0,0E0,0E0,0E0,0E0,0E0,0E0,0E0,0E0,0E0,0E0,0E0,0E0,0E0,0E0,0E0,0E0,0E0,0E0,0E0,0E0,0E0,0E0,0E0,0E0,0E0,0E0,0E0,0E0,0E0,0E0,0E0,0E0,0E0,0E0,0E0,0E0,0E0,0E0,0E0,0E0,0E0,0E0,0E0,0E0,0E0,0E0,0E0,0E0,0E0,0E0,0E0,0E0,0E0,0E0,0E0,0E0,0E0,0E0,0E0,0E0,0E0,0E0,0E0,0E0,0E0,0E0,0E0,0E0,0E0,0E0,0E0,0E0,0E0,0E0,0E0,0E0,0E0,0E0,0E0,0E0,0E0,0E0,0E0,0E0,0E0,0E0,0E0,0E0,0E0,0E0,0E0,0E0,0E0,0E0,0E0,0E0,0E0,0E0,0E0,0E0,0E0,0E0,0E0,0E0,0E0,0E0,0E0,0E0,0E0,0E0,0E0,0E0,0E0,0E0,0E0,0E0,0E0,0E0,0E0,0E0,0E0,0E0,0E0,0E0,0E0,0E0,0E0,0E0,0E0,0E0,0E0,0E0,0E0,0E0,0E0,0E0,0E0,0E0,0E0,0E0,0E0,0E0,0E0,0E0,0E0,0E0,0E0,0E0,0E0,0E0,0E0,0E0,0E0,0E0],"parents":[2147483647,0,0,1,1,2,2,3,3,4,4,5,5,6,6,7,7,8,8,9,9,10,10,11,11,12,12,13,13,14,14,15,15,16,16,17,17,18,18,19,19,20,20,21,21,22,22,23,23,24,24,25,25,26,26,27,27,28,28,29,29,30,30,32,32,33,33,34,34,35,35,36,36,37,37,38,38,39,39,40,40,41,41,42,42,43,43,44,44,45,45,46,46,47,47,48,48,49,49,50,50,51,51,52,52,53,53,54,54,55,55,56,56,58,58,62,62,63,63,64,64,65,65,66,66,67,67,68,68,69,69,70,70,71,71,72,72,73,73,74,74,75,75,76,76,77,77,78,78,79,79,80,80,81,81,82,82,83,83,84,84,85,85,86,86,87,87,88,88,89,89,90,90,91,91,92,92,93,93,94,94,95,95,96,96,97,97,98,98,99,99,100,100,101,101,102,102,103,103,104,104,106,106,107,107,108,108,109,109,110,110,112,112,113,113,115,115,118,118,119,119,120,120,121,121,122,122,123,123,124,124,125,125,126,126,127,127,128,128,129,129,130,130,131,131,132,132,133,133,134,134,135,135,136,136,137,137,138,138,139,139,141,141,142,142,143,143,144,144,145,145,146,146,147,147,148,148,149,149,150,150,151,151,152,152,155,155,156,156,157,157,158,158,159,159,160,160,161,161,162,162,163,163,164,164,165,165,166,166,167,167,168,168,169,169,170,170,171,171,172,172,174,174,175,175,176,176,177,177,178,178,179,179,180,180,181,181,182,182,183,183,184,184,185,185,186,186,187,187,188,188,190,190,191,191,192,192,193,193,194,194,195,195,196,196,197,197,198,198,199,199,200,200,201,201,202,202,203,203,205,205,206,206,207,207,208,208,209,209,213,213,214,214,215,215,216,216],"right_children":[2,4,6,8,10,12,14,16,18,20,22,24,26,28,30,32,34,36,38,40,42,44,46,48,50,52,54,56,58,60,62,-1,64,66,68,70,72,74,76,78,80,82,84,86,88,90,92,94,96,98,100,102,104,106,108,110,112,-1,114,-1,-1,-1,116,118,120,122,124,126,128,130,132,134,136,138,140,142,144,146,148,150,152,154,156,158,160,162,164,166,168,170,172,174,176,178,180,182,184,186,188,190,192,194,196,198,200,-1,202,204,206,208,210,-1,212,214,-1,216,-1,-1,218,220,222,224,226,228,230,232,234,236,238,240,242,244,246,248,250,252,254,256,258,260,-1,262,264,266,268,270,272,274,276,278,280,282,284,-1,-1,286,288,290,292,294,296,298,300,302,304,306,308,310,312,314,316,318,320,-1,322,324,326,328,330,332,334,336,338,340,342,344,346,348,350,-1,352,354,356,358,360,362,364,366,368,370,372,374,376,378,-1,380,382,384,386,388,-1,-1,-1,390,392,394,396,-1,-1,-1,-1,-1,-1,-1,-1,-1,-1,-1,-1,-1,-1,-1,-1,-1,-1,-1,-1,-1,-1,-1,-1,-1,-1,-1,-1,-1,-1,-1,-1,-1,-1,-1,-1,-1,-1,-1,-1,-1,-1,-1,-1,-1,-1,-1,-1,-1,-1,-1,-1,-1,-1,-1,-1,-1,-1,-1,-1,-1,-1,-1,-1,-1,-1,-1,-1,-1,-1,-1,-1,-1,-1,-1,-1,-1,-1,-1,-1,-1,-1,-1,-1,-1,-1,-1,-1,-1,-1,-1,-1,-1,-1,-1,-1,-1,-1,-1,-1,-1,-1,-1,-1,-1,-1,-1,-1,-1,-1,-1,-1,-1,-1,-1,-1,-1,-1,-1,-1,-1,-1,-1,-1,-1,-1,-1,-1,-1,-1,-1,-1,-1,-1,-1,-1,-1,-1,-1,-1,-1,-1,-1,-1,-1,-1,-1,-1,-1,-1,-1,-1,-1,-1,-1,-1,-1,-1,-1,-1,-1,-1,-1,-1,-1,-1,-1,-1,-1,-1,-1,-1,-1,-1,-1,-1,-1,-1,-1,-1],"split_conditions":[3.002E1,1.485E1,5.375E1,8.65E0,2.21E1,3.988E1,7.195E1,5.6E0,3.51E1,4.323E1,5.01E1,4.323E1,2.98E1,6.385E1,8.122E1,3.78E0,4.4E1,1.172E1,3.852E1,1.888E1,1.39E1,2.568E1,2.065E1,3.29E1,2.645E1,4.325E1,8.43E0,4.695E1,6.5E0,-4.79E0,6.385E1,-8.5233E-1,3.258E1,9.93E0,3.78E0,7.58E0,2.068E1,1.432E1,1.61E1,1.265E1,2.03E1,6.3E0,2.173E1,1.87E1,1.83E1,1.888E1,1.212E1,2.27E1,3.69E1,4.695E1,3.603E1,1.905E1,1.843E1,9.15E0,1.71E1,3.988E1,4.83E1,-3.7034753E-1,1.532E1,5.3959256E-1,2.1074286E0,3.4849808E0,4.98E0,4.262E1,2.25E0,6.83E0,6.83E0,1.736E1,2.173E1,1.255E1,1.04E1,1.348E1,2.065E1,1.153E1,2.823E1,2.25E0,1.447E1,1.432E1,1.662E1,1.997E1,1.422E1,6.085E1,2.188E1,2.93E1,4.323E1,1.395E1,2.048E1,1.735E1,2.568E1,9.849E1,2.568E1,-1.1E0,2.735E1,1.61E1,1.888E1,3.46E1,2.627E1,3.317E1,2.852E1,-2.04E0,3.94E1,6.05E1,3.53E1,2.267E1,6.742E1,-3.1781873E-1,-1.79E0,4.683E1,9E0,1.203E1,9.188E1,2.357803E0,6.623E1,-2.83E0,2.0673735E0,3.3E0,4.4706878E-1,-7.826365E-1,1.9911E2,1.779E1,8.9E0,4.17E0,2.25E0,7.7E0,1.857E1,1.247E1,-3.5E-1,1.132E1,7.025E1,2.51E0,8.57E0,5.18E1,1.71E1,1.255E1,7.9E0,1.212E1,4.467E1,2.25E0,1.09E1,1.592E1,2.4470234E-1,1.002E1,8.03E0,2.21E0,1.192E1,6.95E0,1.997E1,1.662E1,2E1,2.548E1,3.53E0,2.927E1,2.173E1,6.8063587E-1,1.5948552E0,1.765E1,1.873E1,2.43E1,1.985E1,3.922E1,1.535E1,3.848E1,7.6E0,2.905E1,-2.95E0,1.608E1,3.38E1,3.53E1,3.29E1,1.46E1,2.113E1,-7.8E-1,-2.84E0,-3.5760668E-1,1.15E0,2.43E1,6.53E0,1.1E1,2.548E1,5.32E0,1.402E1,1.182E1,2.76E1,8.3E-1,4.038E1,3.035E1,4.17E0,1.305E1,1.3556E2,1.2954309E0,-6.5E-1,5.079E1,8.863E1,9.2E-1,5.671E1,1.542E1,2.25E0,6.742E1,1.4416E2,4.903E1,3.65E0,1.318E2,1.24E0,6.6E0,1.1756209E0,5.242E1,4.627E1,2.43E1,5.8E1,4.038E1,1.8291621E-1,1.5054872E0,2.3750392E-1,1.408E2,8.897E1,8.17E0,3.49E0,-3.867501E-1,-7.8609465E-3,-3.9000264E-1,4.1613632E-1,-7.5223804E-1,-5.5391544E-1,-4.8125148E-1,-7.3556894E-1,-8.427324E-2,-6.6628355E-1,-6.04062E-1,-4.5254204E-1,-6.6054904E-1,-3.9025298E-1,-2.2150232E-2,-2.1630053E-1,1.0067463E-3,2.7051428E-1,-6.1939156E-1,-4.7612914E-1,-4.417428E-1,6.4846994E-3,1.3972889E-1,-5.1784587E-1,-4.8577476E-1,-2.3236077E-1,-5.8086747E-1,2.6937756E-1,-5.2402806E-1,-4.5992237E-1,-4.8893234E-1,-4.2869988E-1,1.4433237E-2,-3.9557174E-1,-2.6862177E-1,-4.1804796E-1,-2.1275719E-1,5.214936E-1,8.644929E-2,-5.6573105E-1,-2.5437492E-1,-4.5517087E-1,-3.5423428E-1,-1.05771E-1,-4.8023993E-1,-2.8283283E-1,-3.955646E-1,5.4351773E-2,-3.1552383E-1,5.8627117E-2,-1.7811125E-2,2.6604497E-1,2.935695E-2,-3.062378E-1,-1.116148E-1,1.14473455E-1,-2.9718158E-1,-3.8162354E-1,-2.0802164E-1,-3.0340198E-1,-1.2327387E-1,1.5788186E-2,5.8473283E-1,5.9660207E-2,-2.242925E-1,-3.743728E-1,-1.579468E-1,-1.5172161E-2,-1.3540147E-1,3.2142872E-1,1.18627906E-1,7.3037475E-1,-2.355841E-1,1.2563027E-1,-3.634084E-1,9.440743E-2,-2.3739775E-1,2.663478E-1,6.351883E-1,1.6493335E-1,-4.960859E-4,2.958727E-1,1.9783863E-1,4.780235E-1,-3.1516127E-2,-1.5043308E-1,-3.1388518E-1,3.4455594E-2,3.5055155E-1,5.5649396E-2,6.119272E-1,1.0998326E-1,1.2102125E-1,-1.5817411E-2,2.4989259E-1,9.469121E-2,9.937565E-1,3.9660707E-1,-1.4118937E-1,3.152078E-1,1.0699116E0,5.41208E-1,7.7396394E-3,1.4145437E0,-7.040561E-2,1.5150881E-1,1.2181236E-1,5.7790715E-1,-2.2291933E-1,1.18265525E-1,-4.0233403E-1,3.0542326E-1,9.0884334E-1,5.330217E-1,-2.8223297E-1,2.0994408E-1,2.4890219E-1,3.7030956E-1,3.790311E-1,5.896439E-1,4.2419073E-1,2.8882614E-1,-7.684081E-2,5.1489276E-1,6.012254E-1,8.466817E-1,5.8812815E-1,-2.1200931E-1,4.253626E-3,1.0618365E0,3.4018084E-1,1.1699369E0,1.6880449E0,6.32441E-1,-6.267269E-3,4.2743656E-1,5.967113E-1,1.256507E0,6.670069E-1,2.6368937E-1,5.8769226E-1,3.7138763E-1,-1.5556024E-1,1.3819948E-1,1.1114601E0,6.2430036E-1,-3.6036408E-1,6.799454E-1,7.5715727E-1,-1.00915335E-1,1.3363487E-1,-3.8195897E-2,8.733897E-1,1.0273092E0,9.8383266E-1,1.4904583E0,1.6819946E-1,2.8345823E-2,8.968342E-1,-9.113345E-2,-1.0470352E-2,8.5713E-1,1.1743139E0,4.357221E-1,1.2989622E0,1.7478646E0,1.02344E0,3.5425702E-1,1.1382972E0,1.383859E0,1.7397101E0,1.441337E0,8.1749934E-1,1.5024249E-2,1.7108996E0,1.9728294E-1,1.6781727E0,-1.0298252E-2,2.7048542E0,4.688042E-1],"split_indices":[13,13,13,13,13,13,13,13,10,9,9,9,9,13,13,13,10,13,8,13,14,13,14,13,14,13,10,8,14,4,14,0,10,18,14,14,10,13,18,14,14,14,18,14,14,17,18,14,13,8,13,18,18,18,17,18,16,0,9,0,0,0,4,2,14,13,14,2,18,18,13,13,18,13,2,6,17,18,13,9,18,8,18,17,8,9,18,8,18,1,13,4,14,18,18,14,18,8,18,5,14,14,14,8,17,0,5,13,16,18,9,0,1,4,0,10,0,0,0,0,18,14,16,13,14,0,5,18,9,1,9,18,18,18,14,14,9,16,14,3,0,18,18,4,13,18,10,14,14,18,16,14,13,0,0,13,17,17,18,2,14,17,16,14,5,3,17,14,14,14,2,5,6,0,4,13,3,14,18,3,17,17,17,0,17,8,17,14,1,0,5,0,0,6,0,3,17,14,0,13,9,0,5,17,0,8,8,17,13,14,0,0,0,0,14,3,6,0,0,0,0,0,0,0,0,0,0,0,0,0,0,0,0,0,0,0,0,0,0,0,0,0,0,0,0,0,0,0,0,0,0,0,0,0,0,0,0,0,0,0,0,0,0,0,0,0,0,0,0,0,0,0,0,0,0,0,0,0,0,0,0,0,0,0,0,0,0,0,0,0,0,0,0,0,0,0,0,0,0,0,0,0,0,0,0,0,0,0,0,0,0,0,0,0,0,0,0,0,0,0,0,0,0,0,0,0,0,0,0,0,0,0,0,0,0,0,0,0,0,0,0,0,0,0,0,0,0,0,0,0,0,0,0,0,0,0,0,0,0,0,0,0,0,0,0,0,0,0,0,0,0,0,0,0,0,0,0,0,0,0,0,0,0,0,0,0,0,0,0,0,0,0,0,0,0,0,0],"split_type":[0,0,0,0,0,0,0,0,0,0,0,0,0,0,0,0,0,0,0,0,0,0,0,0,0,0,0,0,0,0,0,0,0,0,0,0,0,0,0,0,0,0,0,0,0,0,0,0,0,0,0,0,0,0,0,0,0,0,0,0,0,0,0,0,0,0,0,0,0,0,0,0,0,0,0,0,0,0,0,0,0,0,0,0,0,0,0,0,0,0,0,0,0,0,0,0,0,0,0,0,0,0,0,0,0,0,0,0,0,0,0,0,0,0,0,0,0,0,0,0,0,0,0,0,0,0,0,0,0,0,0,0,0,0,0,0,0,0,0,0,0,0,0,0,0,0,0,0,0,0,0,0,0,0,0,0,0,0,0,0,0,0,0,0,0,0,0,0,0,0,0,0,0,0,0,0,0,0,0,0,0,0,0,0,0,0,0,0,0,0,0,0,0,0,0,0,0,0,0,0,0,0,0,0,0,0,0,0,0,0,0,0,0,0,0,0,0,0,0,0,0,0,0,0,0,0,0,0,0,0,0,0,0,0,0,0,0,0,0,0,0,0,0,0,0,0,0,0,0,0,0,0,0,0,0,0,0,0,0,0,0,0,0,0,0,0,0,0,0,0,0,0,0,0,0,0,0,0,0,0,0,0,0,0,0,0,0,0,0,0,0,0,0,0,0,0,0,0,0,0,0,0,0,0,0,0,0,0,0,0,0,0,0,0,0,0,0,0,0,0,0,0,0,0,0,0,0,0,0,0,0,0,0,0,0,0,0,0,0,0,0,0,0,0,0,0,0,0,0,0,0,0,0,0,0,0,0,0,0,0,0,0,0,0,0,0,0,0,0,0,0,0,0,0,0,0,0,0,0,0,0,0,0,0,0,0,0,0,0,0,0,0,0,0,0,0,0],"sum_hessian":[1.6831E4,1.2434E4,4.397E3,6.933E3,5.501E3,3.329E3,1.068E3,3.056E3,3.877E3,3.148E3,2.353E3,1.945E3,1.384E3,8E2,2.68E2,1.226E3,1.83E3,3.437E3,4.4E2,2.828E3,3.2E2,2.183E3,1.7E2,1.771E3,1.74E2,1.11E3,2.74E2,5.43E2,2.57E2,1.26E2,1.42E2,3.29E2,8.97E2,1.654E3,1.76E2,1.766E3,1.671E3,1.56E2,2.84E2,1.68E3,1.148E3,1.58E2,1.62E2,1.04E3,1.143E3,1.09E2,6.1E1,6.63E2,1.108E3,1.16E2,5.8E1,3.69E2,7.41E2,2.4E1,2.5E2,5.02E2,4.1E1,1E0,2.56E2,1E0,1.25E2,2.2E1,1.2E2,7.32E2,1.65E2,9.06E2,7.48E2,1E1,1.66E2,1.42E2,1.624E3,1.468E3,2.03E2,1.44E2,1.2E1,1.26E2,1.58E2,2.11E2,1.469E3,4.84E2,6.64E2,1.2E1,1.46E2,9.4E1,6.8E1,1.87E2,8.53E2,8E1,1.063E3,2.9E1,8E1,1.3E1,4.8E1,6.8E1,5.95E2,6.86E2,4.22E2,4.6E1,7E1,3.5E1,2.3E1,7.1E1,2.98E2,9.6E1,6.45E2,3E0,2.1E1,6E1,1.9E2,2.29E2,2.73E2,2.7E1,1.4E1,1.49E2,1.07E2,1.19E2,1E0,7.3E2,2E0,2E0,1.63E2,4.18E2,4.88E2,2.58E2,4.9E2,4E0,6E0,1.33E2,3.3E1,7.7E1,6.5E1,8.75E2,7.49E2,8.76E2,5.92E2,1.31E2,7.2E1,6.8E1,7.6E1,9E0,3E0,1.06E2,2E1,3.3E1,1.25E2,7.9E1,1.32E2,6.89E2,7.8E2,3.94E2,9E1,2.34E2,4.3E2,3E0,9E0,4.4E1,1.02E2,4.2E1,5.2E1,2.1E1,4.7E1,9.5E1,9.2E1,4.02E2,4.51E2,4.1E1,3.9E1,6.15E2,4.48E2,2.4E1,5E0,3.8E1,4.2E1,4E0,9E0,2.8E1,2E1,2E1,4.8E1,1.56E2,4.39E2,3.19E2,3.67E2,1.77E2,2.45E2,9E0,3.7E1,1.3E1,5.7E1,3E0,3.2E1,1.6E1,7E0,6.6E1,5E0,4.9E1,2.49E2,8.9E1,7E0,5.93E2,5.2E1,4E0,1.7E1,3.9E1,2.1E1,6.1E1,1.29E2,1.3E1,2.16E2,2.72E2,1E0,1.3E1,1E0,3E0,1.46E2,5E0,1.14E2,1E0,1E0,1E0,1E0,1.18E2,4.5E1,1E1,4.08E2,1E0,4.87E2,2.08E2,5E1,4.76E2,1.4E1,1E0,3E0,3E0,3E0,8.1E1,5.2E1,2.2E1,1.1E1,1E0,7.6E1,1.8E1,4.7E1,8.74E2,1E0,5.61E2,1.88E2,4.14E2,4.62E2,1E1,5.82E2,5.8E1,7.3E1,5.8E1,1.4E1,1E0,6.7E1,2.1E1,5.5E1,5E0,4E0,4.4E1,6.2E1,4E0,1.6E1,2.7E1,6E0,6.3E1,6.2E1,1.3E1,6.6E1,9.8E1,3.4E1,3.23E2,3.66E2,4.78E2,3.02E2,3.12E2,8.2E1,4E0,8.6E1,1.99E2,3.5E1,3.72E2,5.8E1,2.5E1,1.9E1,1.9E1,8.3E1,3E1,1.2E1,4.8E1,4E0,2E1,1E0,1.2E1,3.5E1,8.2E1,1.3E1,4.1E1,5.1E1,3.03E2,9.9E1,6E0,4.45E2,2.7E1,1.4E1,3.4E1,5E0,5.29E2,8.6E1,3.39E2,1.09E2,1.1E1,1.3E1,3E0,2E0,2E1,1.8E1,1E0,4.1E1,6E0,3E0,1E1,1.8E1,3E0,1.7E1,1E0,1.9E1,1.2E1,3.6E1,4E0,1.52E2,1.76E2,2.63E2,8.2E1,2.37E2,2.49E2,1.18E2,6E0,1.71E2,1.82E2,6.3E1,7E0,2E0,1E0,3.6E1,4E0,9E0,5.5E1,2E0,1.2E1,2E1,4E0,1.2E1,4E0,3E0,3.3E1,3.3E1,4E0,1E0,3.3E1,1.6E1,1E0,2.48E2,8.6E1,3E0,6E0,1E0,3.95E2,1.98E2,2.5E1,2.7E1,3E0,1E0,1.6E1,1E0,4E0,3.5E1,5.6E1,5E0,8.6E1,4.3E1,6E0,7E0,1.23E2,9.3E1,3.1E1,2.41E2,1E0,2E0,1.45E2,1E0,4E0,1E0,1.13E2,1E0],"tree_param":{"num_deleted":"0","num_feature":"19","num_nodes":"397","size_leaf_vector":"1"}},{"base_weights":[1.5874233E-2,-5.8524685E0,1.908909E1,-1.0699188E1,-1.2019178E-1,1.3653662E1,3.4130486E1,-1.3387869E1,-8.560792E0,-3.075654E0,3.2702243E0,1.0888214E1,1.8569008E1,2.9922777E1,4.701274E1,-1.4938543E1,-1.2302707E1,-9.1595E0,-5.423012E0,-4.0007634E0,4.9930186E0,2.3498802E0,1.4605334E1,9.711847E0,2.1442457E1,1.711117E1,2.3815046E1,2.7124968E1,3.5385372E1,4.259216E1,5.8504013E1,-1.6130327E1,-1.449174E1,-1.2680887E1,-8.583494E0,-1.0210348E1,-7.834943E0,-8.324035E0,-3.1686363E0,-4.9733143E0,-2.567212E0,-2.1888552E0,8.71105E0,6.8316084E-1,4.0017657E0,1.964295E1,5.4772263E0,7.9499927E0,1.2095864E1,2.5425371E1,1.4098454E1,1.7687872E1,8.865672E0,1.5538935E1,2.4587042E1,2.5663187E1,3.625479E1,3.2195587E1,3.9512344E1,4.911786E1,4.0408398E1,6.0159794E1,1.65576E1,2.2585725E-2,-1.6180872E1,-9.044218E0,-1.4594861E1,-1.3258969E1,-1.19178705E1,-4.2845845E0,-9.770613E0,-1.0759958E1,-9.502825E0,-4.403558E0,-8.063492E0,-9.092809E0,-5.3684535E0,-5.513596E0,6.479794E-1,-2.1012676E0,-5.440009E0,-1.2407519E0,-3.4954686E0,6.9785047E0,-2.8664746E0,1.6973486E1,5.9710493E0,3.6583893E0,1.1143329E-1,4.865521E0,2.1983764E0,2.063573E1,5.368163E0,1.685452E1,3.8671834E0,9.978318E0,7.249929E0,1.375853E1,1.095535E1,2.1218369E1,3.2465393E1,5.589621E0,1.5821961E1,1.5752844E1,2.021252E1,1.5038758E1,6.840313E0,2.0819683E1,8.365487E0,2.1576721E1,2.6498531E1,2.4041643E1,2.8233038E1,1.5839056E0,4.6341415E1,2.5539773E0,3.0965605E1,3.992886E1,1.8284184E1,5.1783955E-1,2.4897077E0,4.1001335E1,2.2607548E1,6.9602996E-1,6.0657005E1,-1.0040808E-2,1.110534E0,-3.4132493E-1,-8.1081706E-1,-1.0374405E1,4.0573293E-1,-7.44615E-1,-1.315081E1,-1.3314721E1,-6.7704463E0,-1.0446418E1,-1.2554914E1,-7.491119E0,7.93003E-1,-1.2123146E1,-8.603118E0,-8.789642E0,-1.1105938E1,-8.072649E0,-9.892441E0,-6.3646235E0,-1.3976837E0,-7.5913677E0,-9.152649E0,4.1301638E-1,-9.211941E0,-6.024087E0,1.4269905E0,6.226171E-1,-6.5233593E0,3.6703563E0,-4.3049054E0,-3.2994728E0,-9.422468E-2,-6.38232E0,-4.800133E0,-1.8299754E0,1.1991767E0,-3.1348174E0,-5.8088784E0,-4.346378E0,1.464271E1,-4.930524E0,-3.1269658E-1,8.610032E0,2.3598066E1,9.645098E0,2.7301545E0,2.927602E0,1.3419301E1,-4.6421278E-1,1.3295313E0,7.4734807E0,3.9820063E0,3.8118408E0,5.5882883E-1,1.4630863E1,2.353297E1,8.381412E0,-2.2282767E-1,6.302984E0,1.2017578E0,5.9421024E0,1.1100465E0,9.350035E0,1.846478E1,5.26565E0,8.2600355E0,1.50077505E1,7.9599347E0,1.12272E1,7.352935E0,2.3121778E1,1.0865502E1,3.3882298E1,2.2792327E0,6.615583E-1,7.2324985E-1,1.8728563E1,9.653651E0,1.7644611E1,1.4489373E1,2.660116E1,1.8728952E1,7.7346606E0,9.318493E-1,8.749186E0,3.2939162E0,2.8842756E-1,1.0831778E0,-4.4107437E-2,1.0239186E1,2.248262E1,5.9019594E0,2.6717075E1,4.4984064E-1,2.4191765E1,1.6162065E0,2.6514563E1,1.5811826E0,4.966124E1,5.4876685E-1,-8.7765835E-2,3.1198551E1,1.5120958E1,4.0251244E1,2.5493297E-1,1.0489901E0,3.8359115E-1,4.1183308E1,1.4352608E0,5.428996E-1,8.281971E-1,3.0543573E0,-5.684419E-1,1.8813486E-1,-6.7206746E-1,9.518496E-2,-5.255811E-1,-6.708147E-1,-6.037958E-1,1.0244695E0,-5.256347E-1,1.099865E-1,-6.2921417E-1,5.3232003E-2,1.1611565E-2,-4.767901E-1,-6.445803E-2,3.6808917E-1,-6.741543E-2,-6.176531E-1,-2.911887E-1,-5.053033E-1,-4.4888186E-1,1.9266595E-1,-1.4386468E-1,-5.565648E-1,-4.3666968E-1,-1.9369674E-1,-4.748036E-1,-5.2315444E-1,-1.281508E-2,-3.7644243E-1,-1.02503635E-1,3.4484383E-1,-4.085184E-1,-3.3220118E-1,-4.043866E-1,-4.980724E-1,-9.951424E-2,-4.7048694E-1,-1.5420221E-1,-3.7042204E-1,2.649438E-1,-9.168356E-2,1.5772171E-1,-4.43511E-1,-4.987177E-1,-2.808847E-1,3.9990735E-1,-8.19649E-2,2.8496093E-1,-2.8668436E-1,-2.2195604E-1,-9.5690355E-2,-3.8566175E-1,1.2857884E-2,-2.3765948E-1,-3.387563E-1,-2.2783147E-1,-3.8977832E-1,-1.2125712E-1,-2.8364336E-2,1.768228E-1,-7.420383E-2,-1.4894049E-1,-4.2580864E-1,-6.420313E-2,-3.211331E-1,-4.458766E-2,-2.6003343E-1,8.1663316E-1,1.9707242E-1,-1.0727157E-1,-3.226634E-1,-1.2597618E-1,3.6696568E-1,1.1190714E-2,5.623266E-1,9.910686E-2,1.3007988E0,6.4611876E-1,2.2320189E-2,-1.9367693E-2,2.8588575E-1,5.8948666E-2,2.490383E-1,7.2352225E-1,-6.139183E-3,-3.431371E-3,-1.0671423E-1,1.1883183E-1,2.753543E-2,4.379284E-1,2.9347464E-1,1.700235E-1,2.899006E-1,1.14868365E-1,3.0739403E-1,-7.0543095E-2,1.0219075E-1,7.9355884E-1,2.1685326E-1,1.2820458E0,3.7980738E-1,4.87171E-1,-2.8816177E-2,3.711832E-1,4.5506667E-2,2.1903007E-1,5.625078E-1,1.4732042E-1,-7.589983E-2,7.129003E-1,4.187913E-1,1.0706547E0,2.1332847E-1,3.4104967E-1,1.9566219E-1,4.2684895E-1,1.05327286E-1,8.50804E-1,6.5203434E-1,2.5967583E-1,6.5252763E-1,5.64134E-1,8.996042E-3,-4.3832055E-1,4.33784E-1,4.505117E-1,1.1829635E0,-2.3064001E-1,6.91481E-1,2.5374103E-1,1.7237806E0,-2.0654236E-1,3.774848E-1,-2.344722E-1,1.4698273E-1,9.696922E-1,-1.3053833E-1,9.663617E-2,6.831202E-1,4.8295102E-1,8.987628E-1,3.4701574E-1,7.4687904E-1,1.6698916E0,1.1318451E0,8.2510865E-1,9.81806E-1,8.049865E-2,4.318802E-1,5.223424E-1,1.08189665E-1,-2.1588286E-2,2.682679E-1,-9.092965E-2,8.762159E-2,5.586111E-1,6.937261E-2,8.6636305E-1,1.2958211E0,-1.8275966E-1,5.797167E-1,1.4023355E0,1.09188E0,1.2202773E0,5.038225E-1,-1.1503172E-2,1.3271867E-1,3.3461568E-1,1.331199E0,1.1870258E0,2.7685707E0,1.5744084E0,3.3521855E-1,1.07919835E-1,1.026152E0,1.8762562E0,2.405776E0,2.0826135E0,1.0048548E0],"categories":[],"categories_nodes":[],"categories_segments":[],"categories_sizes":[],"default_left":[0,0,0,0,0,0,0,0,0,0,0,0,0,0,0,0,0,0,0,0,0,0,0,0,0,0,0,0,0,0,0,0,0,0,0,0,0,0,0,0,0,0,0,0,0,0,0,0,0,0,0,0,0,0,0,0,0,0,0,0,0,0,0,0,0,0,0,0,0,0,0,0,0,0,0,0,0,0,0,0,0,0,0,0,0,0,0,0,0,0,0,0,0,0,0,0,0,0,0,0,0,0,0,0,0,0,0,0,0,0,0,0,0,0,0,0,0,0,0,0,0,0,0,0,0,0,0,0,0,0,0,0,0,0,0,0,0,0,0,0,0,0,0,0,0,0,0,0,0,0,0,0,0,0,0,0,0,0,0,0,0,0,0,0,0,0,0,0,0,0,0,0,0,0,0,0,0,0,0,0,0,0,0,0,0,0,0,0,0,0,0,0,0,0,0,0,0,0,0,0,0,0,0,0,0,0,0,0,0,0,0,0,0,0,0,0,0,0,0,0,0,0,0,0,0,0,0,0,0,0,0,0,0,0,0,0,0,0,0,0,0,0,0,0,0,0,0,0,0,0,0,0,0,0,0,0,0,0,0,0,0,0,0,0,0,0,0,0,0,0,0,0,0,0,0,0,0,0,0,0,0,0,0,0,0,0,0,0,0,0,0,0,0,0,0,0,0,0,0,0,0,0,0,0,0,0,0,0,0,0,0,0,0,0,0,0,0,0,0,0,0,0,0,0,0,0,0,0,0,0,0,0,0,0,0,0,0,0,0,0,0,0,0,0,0,0,0,0,0,0,0,0,0,0,0,0,0,0,0,0,0,0,0,0,0,0,0,0,0,0,0,0,0,0,0,0,0,0,0,0,0,0,0,0,0,0,0,0,0,0,0,0,0,0,0,0,0,0,0,0,0,0,0,0,0,0,0,0,0,0,0,0,0,0,0,0,0,0,0],"id":3,"left_children":[1,3,5,7,9,11,13,15,17,19,21,23,25,27,29,31,33,35,37,39,41,43,45,47,49,51,53,55,57,59,61,63,65,67,69,71,73,75,77,79,81,83,85,87,89,91,93,95,97,99,101,103,105,107,109,111,113,115,117,119,121,123,125,-1,127,129,131,133,135,137,139,141,143,145,147,149,151,153,155,157,159,161,163,165,167,169,171,173,175,177,179,181,183,185,187,189,191,193,195,197,199,201,203,205,207,209,211,213,215,217,219,221,223,-1,225,-1,227,229,231,-1,-1,233,235,-1,237,-1,-1,-1,-1,239,-1,-1,241,243,245,247,249,251,253,255,257,259,261,263,265,267,269,271,273,-1,275,277,279,281,283,285,287,289,291,293,295,297,299,301,303,305,307,309,311,313,315,317,319,321,323,325,327,329,331,333,335,337,339,341,-1,343,-1,345,347,349,351,353,355,357,359,361,363,365,367,369,371,-1,373,375,377,379,381,383,385,387,-1,389,391,-1,-1,393,395,397,399,401,-1,403,405,407,-1,409,-1,-1,411,413,415,-1,-1,-1,417,-1,-1,-1,-1,-1,-1,-1,-1,-1,-1,-1,-1,-1,-1,-1,-1,-1,-1,-1,-1,-1,-1,-1,-1,-1,-1,-1,-1,-1,-1,-1,-1,-1,-1,-1,-1,-1,-1,-1,-1,-1,-1,-1,-1,-1,-1,-1,-1,-1,-1,-1,-1,-1,-1,-1,-1,-1,-1,-1,-1,-1,-1,-1,-1,-1,-1,-1,-1,-1,-1,-1,-1,-1,-1,-1,-1,-1,-1,-1,-1,-1,-1,-1,-1,-1,-1,-1,-1,-1,-1,-1,-1,-1,-1,-1,-1,-1,-1,-1,-1,-1,-1,-1,-1,-1,-1,-1,-1,-1,-1,-1,-1,-1,-1,-1,-1,-1,-1,-1,-1,-1,-1,-1,-1,-1,-1,-1,-1,-1,-1,-1,-1,-1,-1,-1,-1,-1,-1,-1,-1,-1,-1,-1,-1,-1,-1,-1,-1,-1,-1,-1,-1,-1,-1,-1,-1,-1,-1,-1,-1,-1,-1,-1,-1,-1,-1,-1,-1,-1,-1,-1,-1,-1,-1,-1,-1,-1,-1,-1,-1,-1,-1,-1,-1],"loss_changes":[1.8919218E6,3.5911838E5,3.2467925E5,4.0154625E4,5.9359977E4,3.9530562E4,5.57795E4,5.0344375E3,7.2844062E3,2.3644826E4,2.8748121E4,2.3046297E4,7.630375E3,1.123625E4,1.0614125E4,4.435625E2,2.465125E3,4.4812812E3,4.0807402E3,3.9467617E3,8.724061E3,7.0262627E3,9.411078E3,6.9897188E3,5.1113906E3,3.7709844E3,1.0618828E3,6.1695625E3,2.2427188E3,7.2278125E2,3.7962188E3,2.9060156E2,3.9323438E2,5.7371875E2,8.359072E2,6.070469E2,1.1047734E3,5.737617E2,3.1807556E3,2.2551328E3,1.4116523E3,7.157455E2,4.7660527E3,2.1632896E3,1.9862598E3,1.7740664E3,1.3086653E3,1.3092773E3,1.205125E3,2.8652266E3,9.087822E2,3.448125E3,5.972822E2,6.5921924E2,6.078594E2,1.2464062E3,1.8095781E3,2.0417031E3,2.6023438E2,6.114922E2,6.351719E2,6.73E2,3.8340686E2,0E0,1.1171875E0,5.406748E2,1.9759375E2,2.4809375E2,5.484453E2,6.4091724E2,2.6374316E2,5.9702344E2,3.692578E2,5.3931287E2,6.308828E2,5.2263477E2,2.7146033E2,1.367208E3,2.0516504E3,5.7204333E2,8.460703E2,6.850846E2,5.457998E2,7.5801245E2,5.519262E2,2.733252E3,1.9145415E3,1.423009E3,7.494917E2,1.9656504E3,1.1009816E3,1.8129844E3,3.3339532E2,5.30407E2,3.7669995E2,1.144334E3,1.4136523E3,1.9594922E3,3.3757422E2,1.2858203E3,1.7619258E3,4.7385626E2,8.2321484E2,7.984219E2,2.639E3,1.9751294E2,2.6904395E2,2.7447266E1,1.7377924E2,1.0742891E3,2.2244531E2,9.372031E2,1.6953125E2,0E0,1.8031367E3,0E0,1.1904688E3,2.6310938E2,3.5203735E1,0E0,0E0,5.453125E2,1.8983325E2,0E0,2.2096875E2,0E0,0E0,0E0,0E0,3.098871E2,0E0,0E0,7.4728125E2,1.22625E2,1.6936904E3,2.1170703E2,2.1378906E2,3.812179E2,2.2832692E2,8.7390625E1,3.296255E2,4.077539E2,1.4804688E2,4.5998926E2,4.291797E1,3.9631226E2,2.197677E2,4.7009375E2,2.6998438E2,0E0,2.883828E2,1.9693542E2,8.546584E1,7.970727E2,5.346763E2,1.9663326E3,7.7595056E2,2.2680078E2,2.4293024E2,3.421582E2,5.9905664E2,2.8645276E2,5.8849896E2,4.6743848E2,2.417063E2,7.1672974E0,2.604895E1,2.3213208E2,8.290513E2,5.502394E2,1.4641279E3,2.2853774E3,8.2182434E2,6.834503E2,2.010625E2,4.794897E2,2.7841083E2,3.9794727E2,6.656758E2,7.2882886E2,6.112758E2,4.8016992E2,2.5599297E3,1.0321942E2,0E0,2.3461777E1,0E0,2.6568176E2,1.4925378E2,9.898613E2,5.7841113E2,4.9496484E2,8.000137E2,7.0646875E2,6.786089E2,2.4129297E2,7.7967346E2,2.7983594E2,7.061062E2,5.258125E2,1.3253891E2,0E0,1.2175583E2,5.759082E2,5.9262E2,2.8051953E2,8.098867E2,8.6060547E2,2.2541406E2,1.9275146E1,0E0,2.904287E2,1.3351462E2,0E0,0E0,1.2750759E1,5.8829834E1,9.671367E2,3.6879688E2,1.5959375E2,0E0,6.231406E2,6.360882E0,8.425E1,0E0,1.3496641E3,0E0,0E0,8.387969E2,1.6577759E2,4.8842188E2,0E0,0E0,0E0,5.571875E2,0E0,0E0,0E0,0E0,0E0,0E0,0E0,0E0,0E0,0E0,0E0,0E0,0E0,0E0,0E0,0E0,0E0,0E0,0E0,0E0,0E0,0E0,0E0,0E0,0E0,0E0,0E0,0E0,0E0,0E0,0E0,0E0,0E0,0E0,0E0,0E0,0E0,0E0,0E0,0E0,0E0,0E0,0E0,0E0,0E0,0E0,0E0,0E0,0E0,0E0,0E0,0E0,0E0,0E0,0E0,0E0,0E0,0E0,0E0,0E0,0E0,0E0,0E0,0E0,0E0,0E0,0E0,0E0,0E0,0E0,0E0,0E0,0E0,0E0,0E0,0E0,0E0,0E0,0E0,0E0,0E0,0E0,0E0,0E0,0E0,0E0,0E0,0E0,0E0,0E0,0E0,0E0,0E0,0E0,0E0,0E0,0E0,0E0,0E0,0E0,0E0,0E0,0E0,0E0,0E0,0E0,0E0,0E0,0E0,0E0,0E0,0E0,0E0,0E0,0E0,0E0,0E0,0E0,0E0,0E0,0E0,0E0,0E0,0E0,0E0,0E0,0E0,0E0,0E0,0E0,0E0,0E0,0E0,0E0,0E0,0E0,0E0,0E0,0E0,0E0,0E0,0E0,0E0,0E0,0E0,0E0,0E0,0E0,0E0,0E0,0E0,0E0,0E0,0E0,0E0,0E0,0E0,0E0,0E0,0E0,0E0,0E0,0E0,0E0,0E0,0E0,0E0,0E0,0E0,0E0,0E0,0E0,0E0,0E0,0E0,0E0,0E0,0E0,0E0,0E0,0E0,0E0,0E0,0E0],"parents":[2147483647,0,0,1,1,2,2,3,3,4,4,5,5,6,6,7,7,8,8,9,9,10,10,11,11,12,12,13,13,14,14,15,15,16,16,17,17,18,18,19,19,20,20,21,21,22,22,23,23,24,24,25,25,26,26,27,27,28,28,29,29,30,30,31,31,32,32,33,33,34,34,35,35,36,36,37,37,38,38,39,39,40,40,41,41,42,42,43,43,44,44,45,45,46,46,47,47,48,48,49,49,50,50,51,51,52,52,53,53,54,54,55,55,56,56,57,57,58,58,59,59,60,60,61,61,62,62,64,64,65,65,66,66,67,67,68,68,69,69,70,70,71,71,72,72,73,73,74,74,75,75,76,76,77,77,78,78,79,79,80,80,81,81,82,82,83,83,84,84,85,85,86,86,87,87,88,88,89,89,90,90,91,91,92,92,93,93,94,94,95,95,96,96,97,97,98,98,99,99,100,100,101,101,102,102,103,103,104,104,105,105,106,106,107,107,108,108,109,109,110,110,111,111,112,112,114,114,116,116,117,117,118,118,121,121,122,122,124,124,129,129,132,132,133,133,134,134,135,135,136,136,137,137,138,138,139,139,140,140,141,141,142,142,143,143,144,144,145,145,146,146,147,147,148,148,150,150,151,151,152,152,153,153,154,154,155,155,156,156,157,157,158,158,159,159,160,160,161,161,162,162,163,163,164,164,165,165,166,166,167,167,168,168,169,169,170,170,171,171,172,172,173,173,174,174,175,175,176,176,177,177,178,178,179,179,180,180,181,181,182,182,183,183,185,185,187,187,188,188,189,189,190,190,191,191,192,192,193,193,194,194,195,195,196,196,197,197,198,198,199,199,200,200,202,202,203,203,204,204,205,205,206,206,207,207,208,208,209,209,211,211,212,212,215,215,216,216,217,217,218,218,219,219,221,221,222,222,223,223,225,225,228,228,229,229,230,230,234,234],"right_children":[2,4,6,8,10,12,14,16,18,20,22,24,26,28,30,32,34,36,38,40,42,44,46,48,50,52,54,56,58,60,62,64,66,68,70,72,74,76,78,80,82,84,86,88,90,92,94,96,98,100,102,104,106,108,110,112,114,116,118,120,122,124,126,-1,128,130,132,134,136,138,140,142,144,146,148,150,152,154,156,158,160,162,164,166,168,170,172,174,176,178,180,182,184,186,188,190,192,194,196,198,200,202,204,206,208,210,212,214,216,218,220,222,224,-1,226,-1,228,230,232,-1,-1,234,236,-1,238,-1,-1,-1,-1,240,-1,-1,242,244,246,248,250,252,254,256,258,260,262,264,266,268,270,272,274,-1,276,278,280,282,284,286,288,290,292,294,296,298,300,302,304,306,308,310,312,314,316,318,320,322,324,326,328,330,332,334,336,338,340,342,-1,344,-1,346,348,350,352,354,356,358,360,362,364,366,368,370,372,-1,374,376,378,380,382,384,386,388,-1,390,392,-1,-1,394,396,398,400,402,-1,404,406,408,-1,410,-1,-1,412,414,416,-1,-1,-1,418,-1,-1,-1,-1,-1,-1,-1,-1,-1,-1,-1,-1,-1,-1,-1,-1,-1,-1,-1,-1,-1,-1,-1,-1,-1,-1,-1,-1,-1,-1,-1,-1,-1,-1,-1,-1,-1,-1,-1,-1,-1,-1,-1,-1,-1,-1,-1,-1,-1,-1,-1,-1,-1,-1,-1,-1,-1,-1,-1,-1,-1,-1,-1,-1,-1,-1,-1,-1,-1,-1,-1,-1,-1,-1,-1,-1,-1,-1,-1,-1,-1,-1,-1,-1,-1,-1,-1,-1,-1,-1,-1,-1,-1,-1,-1,-1,-1,-1,-1,-1,-1,-1,-1,-1,-1,-1,-1,-1,-1,-1,-1,-1,-1,-1,-1,-1,-1,-1,-1,-1,-1,-1,-1,-1,-1,-1,-1,-1,-1,-1,-1,-1,-1,-1,-1,-1,-1,-1,-1,-1,-1,-1,-1,-1,-1,-1,-1,-1,-1,-1,-1,-1,-1,-1,-1,-1,-1,-1,-1,-1,-1,-1,-1,-1,-1,-1,-1,-1,-1,-1,-1,-1,-1,-1,-1,-1,-1,-1,-1,-1,-1,-1,-1,-1],"split_conditions":[3.153E1,1.485E1,5.375E1,8.65E0,2.21E1,4.215E1,7.195E1,5.6E0,2.72E1,4.323E1,4.93E1,4.323E1,2.98E1,6.385E1,8.897E1,3.78E0,4.4E1,1.203E1,3.852E1,1.888E1,2.315E1,2.645E1,2.065E1,3.69E1,2.59E1,4.112E1,1.075E1,2.675E1,1.532E1,6.385E1,6.628E1,2.33E0,2.9E0,7.38E0,5.03E0,1.048E1,8.12E0,1.368E1,1.203E1,1.305E1,2.03E1,-3.07E0,8.55E0,1.87E1,9.8E0,3.032E1,2.55E0,3.002E1,1.275E1,5.395E1,7.25E0,4.757E1,3.7E0,3.65E0,4.683E1,5.938E1,2.03E0,3.988E1,6.085E1,2.02E0,3.3E0,1.337E1,6.036E1,2.2585725E-2,-5.28E0,7.193E1,3.258E1,1.857E1,7.9E0,7.05E0,6.83E0,8.25E0,1.03E1,1.378E1,1.61E1,2.9E0,2.055E1,5.83E0,4.557E1,1.83E1,1.638E1,1.997E1,4.112E1,2.194E1,1.78E1,3.903E1,5.3E0,3.852E1,2.52E1,5.53E0,3.057E1,3.037E1,1.922E1,8.466E1,2.697E1,3.09E1,3.318E1,2.76E1,1.855E1,1.507E1,2.125E1,6.208E1,3.09E1,1.375E1,5.2E0,3.65E0,2.957E1,2.15E0,6.12E0,6.34E1,2.0182E2,8.122E1,1.51E1,1.5839056E0,3.448E1,2.5539773E0,4.038E1,5.83E0,8.466E1,5.1783955E-1,2.4897077E0,6.79E0,6.938E1,6.9602996E-1,3.12E0,-1.0040808E-2,1.110534E0,-3.4132493E-1,-8.1081706E-1,2.91E0,4.0573293E-1,-7.44615E-1,4.042E1,4.47E0,1.6544E2,7.797E1,3.08E1,2.9E0,8.355E1,-3.92E0,6.4E0,5.96E1,5.46E0,1.923E1,1.325E1,7.64E0,3.365E1,1.357E1,1.04E1,4.1301638E-1,2.76E1,1.162E1,5.079E1,4.93E1,9.23E0,7.15E0,9.53E0,1.638E1,1.495E1,1.495E1,5.01E1,2.065E1,1.32E1,3.81E1,6.18E0,9.877E1,1.073E2,5.96E1,1.853E1,1.719E1,2.15E0,4.467E1,1.83E1,2.39E1,1.5069E2,2.18E1,2.697E1,1.017E1,3.03E1,1.18E1,2.905E1,9.849E1,4.557E1,6E-1,-2.2282767E-1,2.33E0,1.2017578E0,8.355E1,1.0293E2,3E0,3.51E1,4.17E0,5.083E1,3.562E1,5.2E0,2.2407E2,1.985E1,1.71E1,-1.77E0,4.74E0,4.73E0,6.615583E-1,-9.3E-1,1.9392E2,3.603E1,1.735E1,3.81E1,4.075E1,4.903E1,1.54E1,9.318493E-1,6.742E1,3.5E0,2.8842756E-1,1.0831778E0,2.65E0,2.75E0,8.57E0,5.87E0,2.138E1,4.4984064E-1,6.34E1,6.741E1,5E-2,1.5811826E0,5.6E0,5.4876685E-1,-8.7765835E-2,2.2407E2,1.1249E2,6.97E0,2.5493297E-1,1.0489901E0,3.8359115E-1,3.51E1,1.4352608E0,5.428996E-1,8.281971E-1,3.0543573E0,-5.684419E-1,1.8813486E-1,-6.7206746E-1,9.518496E-2,-5.255811E-1,-6.708147E-1,-6.037958E-1,1.0244695E0,-5.256347E-1,1.099865E-1,-6.2921417E-1,5.3232003E-2,1.1611565E-2,-4.767901E-1,-6.445803E-2,3.6808917E-1,-6.741543E-2,-6.176531E-1,-2.911887E-1,-5.053033E-1,-4.4888186E-1,1.9266595E-1,-1.4386468E-1,-5.565648E-1,-4.3666968E-1,-1.9369674E-1,-4.748036E-1,-5.2315444E-1,-1.281508E-2,-3.7644243E-1,-1.02503635E-1,3.4484383E-1,-4.085184E-1,-3.3220118E-1,-4.043866E-1,-4.980724E-1,-9.951424E-2,-4.7048694E-1,-1.5420221E-1,-3.7042204E-1,2.649438E-1,-9.168356E-2,1.5772171E-1,-4.43511E-1,-4.987177E-1,-2.808847E-1,3.9990735E-1,-8.19649E-2,2.8496093E-1,-2.8668436E-1,-2.2195604E-1,-9.5690355E-2,-3.8566175E-1,1.2857884E-2,-2.3765948E-1,-3.387563E-1,-2.2783147E-1,-3.8977832E-1,-1.2125712E-1,-2.8364336E-2,1.768228E-1,-7.420383E-2,-1.4894049E-1,-4.2580864E-1,-6.420313E-2,-3.211331E-1,-4.458766E-2,-2.6003343E-1,8.1663316E-1,1.9707242E-1,-1.0727157E-1,-3.226634E-1,-1.2597618E-1,3.6696568E-1,1.1190714E-2,5.623266E-1,9.910686E-2,1.3007988E0,6.4611876E-1,2.2320189E-2,-1.9367693E-2,2.8588575E-1,5.8948666E-2,2.490383E-1,7.2352225E-1,-6.139183E-3,-3.431371E-3,-1.0671423E-1,1.1883183E-1,2.753543E-2,4.379284E-1,2.9347464E-1,1.700235E-1,2.899006E-1,1.14868365E-1,3.0739403E-1,-7.0543095E-2,1.0219075E-1,7.9355884E-1,2.1685326E-1,1.2820458E0,3.7980738E-1,4.87171E-1,-2.8816177E-2,3.711832E-1,4.5506667E-2,2.1903007E-1,5.625078E-1,1.4732042E-1,-7.589983E-2,7.129003E-1,4.187913E-1,1.0706547E0,2.1332847E-1,3.4104967E-1,1.9566219E-1,4.2684895E-1,1.05327286E-1,8.50804E-1,6.5203434E-1,2.5967583E-1,6.5252763E-1,5.64134E-1,8.996042E-3,-4.3832055E-1,4.33784E-1,4.505117E-1,1.1829635E0,-2.3064001E-1,6.91481E-1,2.5374103E-1,1.7237806E0,-2.0654236E-1,3.774848E-1,-2.344722E-1,1.4698273E-1,9.696922E-1,-1.3053833E-1,9.663617E-2,6.831202E-1,4.8295102E-1,8.987628E-1,3.4701574E-1,7.4687904E-1,1.6698916E0,1.1318451E0,8.2510865E-1,9.81806E-1,8.049865E-2,4.318802E-1,5.223424E-1,1.08189665E-1,-2.1588286E-2,2.682679E-1,-9.092965E-2,8.762159E-2,5.586111E-1,6.937261E-2,8.6636305E-1,1.2958211E0,-1.8275966E-1,5.797167E-1,1.4023355E0,1.09188E0,1.2202773E0,5.038225E-1,-1.1503172E-2,1.3271867E-1,3.3461568E-1,1.331199E0,1.1870258E0,2.7685707E0,1.5744084E0,3.3521855E-1,1.07919835E-1,1.026152E0,1.8762562E0,2.405776E0,2.0826135E0,1.0048548E0],"split_indices":[13,13,13,13,13,13,13,13,10,9,9,9,9,13,13,13,10,13,8,13,10,13,14,13,14,12,8,8,9,14,12,12,14,13,14,13,15,13,13,14,14,6,14,14,12,11,11,14,11,8,10,13,8,7,13,13,4,14,12,1,6,2,0,0,4,8,10,14,15,13,13,14,14,10,14,15,3,14,12,9,13,9,12,2,13,7,11,8,13,11,14,7,3,0,14,8,13,12,7,11,3,9,11,11,11,10,1,7,3,12,0,14,9,0,12,0,14,15,0,0,0,2,14,0,10,0,0,0,0,6,0,0,11,14,0,8,14,15,8,4,14,11,2,10,14,1,2,13,12,0,10,14,0,12,13,11,14,13,13,14,12,13,11,14,8,0,0,8,10,2,11,12,13,13,0,12,15,3,13,8,13,1,12,4,0,11,0,8,0,9,12,7,14,14,11,0,14,8,4,3,0,0,4,0,13,15,14,14,13,0,0,15,11,0,0,0,4,7,0,11,0,12,0,0,0,7,0,0,0,0,7,0,0,0,8,0,0,0,0,0,0,0,0,0,0,0,0,0,0,0,0,0,0,0,0,0,0,0,0,0,0,0,0,0,0,0,0,0,0,0,0,0,0,0,0,0,0,0,0,0,0,0,0,0,0,0,0,0,0,0,0,0,0,0,0,0,0,0,0,0,0,0,0,0,0,0,0,0,0,0,0,0,0,0,0,0,0,0,0,0,0,0,0,0,0,0,0,0,0,0,0,0,0,0,0,0,0,0,0,0,0,0,0,0,0,0,0,0,0,0,0,0,0,0,0,0,0,0,0,0,0,0,0,0,0,0,0,0,0,0,0,0,0,0,0,0,0,0,0,0,0,0,0,0,0,0,0,0,0,0,0,0,0,0,0,0,0,0,0,0,0,0,0,0,0,0,0,0,0,0,0,0,0,0,0,0,0,0,0],"split_type":[0,0,0,0,0,0,0,0,0,0,0,0,0,0,0,0,0,0,0,0,0,0,0,0,0,0,0,0,0,0,0,0,0,0,0,0,0,0,0,0,0,0,0,0,0,0,0,0,0,0,0,0,0,0,0,0,0,0,0,0,0,0,0,0,0,0,0,0,0,0,0,0,0,0,0,0,0,0,0,0,0,0,0,0,0,0,0,0,0,0,0,0,0,0,0,0,0,0,0,0,0,0,0,0,0,0,0,0,0,0,0,0,0,0,0,0,0,0,0,0,0,0,0,0,0,0,0,0,0,0,0,0,0,0,0,0,0,0,0,0,0,0,0,0,0,0,0,0,0,0,0,0,0,0,0,0,0,0,0,0,0,0,0,0,0,0,0,0,0,0,0,0,0,0,0,0,0,0,0,0,0,0,0,0,0,0,0,0,0,0,0,0,0,0,0,0,0,0,0,0,0,0,0,0,0,0,0,0,0,0,0,0,0,0,0,0,0,0,0,0,0,0,0,0,0,0,0,0,0,0,0,0,0,0,0,0,0,0,0,0,0,0,0,0,0,0,0,0,0,0,0,0,0,0,0,0,0,0,0,0,0,0,0,0,0,0,0,0,0,0,0,0,0,0,0,0,0,0,0,0,0,0,0,0,0,0,0,0,0,0,0,0,0,0,0,0,0,0,0,0,0,0,0,0,0,0,0,0,0,0,0,0,0,0,0,0,0,0,0,0,0,0,0,0,0,0,0,0,0,0,0,0,0,0,0,0,0,0,0,0,0,0,0,0,0,0,0,0,0,0,0,0,0,0,0,0,0,0,0,0,0,0,0,0,0,0,0,0,0,0,0,0,0,0,0,0,0,0,0,0,0,0,0,0,0,0,0,0,0,0,0,0,0,0,0,0,0,0,0,0,0,0,0,0,0,0,0,0,0,0,0,0,0,0,0,0,0,0,0],"sum_hessian":[1.6901E4,1.2925E4,3.976E3,7.003E3,5.922E3,2.922E3,1.054E3,3.1E3,3.903E3,3.164E3,2.758E3,1.872E3,1.05E3,7.97E2,2.57E2,1.271E3,1.829E3,3.276E3,6.27E2,2.839E3,3.25E2,2.552E3,2.06E2,1.686E3,1.86E2,8.25E2,2.25E2,5.31E2,2.66E2,1.89E2,6.8E1,3.37E2,9.34E2,1.658E3,1.71E2,1.823E3,1.453E3,2.73E2,3.54E2,1.69E3,1.149E3,1.11E2,2.14E2,1.271E3,1.281E3,1.32E2,7.4E1,9.72E2,7.14E2,1.19E2,6.7E1,7.7E2,5.5E1,2.1E1,2.04E2,4.61E2,7E1,1.55E2,1.11E2,4.2E1,1.47E2,6.5E1,3E0,1E0,3.36E2,1.9E1,9.15E2,9.34E2,7.24E2,3.8E1,1.33E2,1.018E3,8.05E2,9.2E1,1.361E3,2.15E2,5.8E1,2.19E2,1.35E2,2.37E2,1.453E3,4.74E2,6.75E2,7E0,1.04E2,5.2E1,1.62E2,2.04E2,1.067E3,8.65E2,4.16E2,1.23E2,9E0,8E0,6.6E1,2.46E2,7.26E2,2.86E2,4.28E2,7.7E1,4.2E1,1.2E1,5.5E1,4.4E2,3.3E2,1.2E1,4.3E1,1.1E1,1E1,8.4E1,1.2E2,2.89E2,1.72E2,5.1E1,1.9E1,7E0,1.48E2,1.08E2,3E0,1E0,4.1E1,1.41E2,6E0,1E0,6.4E1,1E0,2E0,2E0,3.34E2,1.8E1,1E0,7.51E2,1.64E2,9.25E2,9E0,2.24E2,5E2,2.3E1,1.5E1,4.1E1,9.2E1,1.56E2,8.62E2,1.77E2,6.28E2,5.5E1,3.7E1,9.55E2,4.06E2,1E0,2.14E2,5.3E1,5E0,3.1E1,1.88E2,8.4E1,5.1E1,1.48E2,8.9E1,5.84E2,8.69E2,3.82E2,9.2E1,5.86E2,8.9E1,3E0,4E0,5.7E1,4.7E1,2.4E1,2.8E1,7.5E1,8.7E1,1.91E2,1.3E1,7.25E2,3.42E2,2.17E2,6.48E2,2.09E2,2.07E2,4.2E1,8.1E1,7E0,2E0,4E0,4E0,3.7E1,2.9E1,2.31E2,1.5E1,2.47E2,4.79E2,2.34E2,5.2E1,3.96E2,3.2E1,6.4E1,1.3E1,4E1,2E0,4E0,8E0,3.6E1,1.9E1,1.71E2,2.69E2,5.9E1,2.71E2,5E0,7E0,2.7E1,1.6E1,1E0,1E1,2E0,8E0,7.9E1,5E0,1.18E2,2E0,2.87E2,2E0,1.2E2,5.2E1,1.7E1,2E0,1E0,1.47E2,2E0,1.06E2,1E0,2E0,1E0,1.4E2,3E0,3E0,1E0,6.3E1,1.7E1,1E0,1.61E2,3E0,3.6E1,8.89E2,8E0,1E0,2.23E2,1E0,4.99E2,1E0,5E0,1.8E1,1.2E1,3E0,1E0,4E1,3.4E1,5.8E1,1.54E2,2E0,3E0,8.59E2,1.52E2,2.5E1,3.81E2,2.47E2,9E0,4.6E1,3.5E1,2E0,5.88E2,3.67E2,1.8E2,2.26E2,6E0,2.08E2,1.8E1,3.5E1,2E0,3E0,2.5E1,6E0,3.7E1,1.51E2,4.6E1,3.8E1,6E0,4.5E1,8E1,6.8E1,3E0,8.6E1,1.16E2,4.68E2,8.06E2,6.3E1,2.59E2,1.23E2,4.9E1,4.3E1,5.71E2,1.5E1,1.1E1,7.8E1,1E0,2E0,3E0,1E0,2.1E1,3.6E1,3.7E1,1E1,6E0,1.8E1,3E0,2.5E1,5.5E1,2E1,4.3E1,4.4E1,1.04E2,8.7E1,1.2E1,1E0,5.87E2,1.38E2,1.45E2,1.97E2,1.18E2,9.9E1,4.93E2,1.55E2,1.28E2,8.1E1,8.9E1,1.18E2,3.7E1,5E0,7.1E1,1E1,6E0,1E0,3E0,1E0,3E1,7E0,1.7E1,1.2E1,3.6E1,1.95E2,1.2E1,3E0,1.13E2,1.34E2,4.58E2,2.1E1,1.12E2,1.22E2,3.5E1,1.7E1,3.94E2,2E0,2E0,3E1,3E0,6.1E1,2E0,1.1E1,1E0,3.9E1,1E0,1E0,2E0,6E0,3.5E1,1E0,7E0,1.2E1,8E0,1.63E2,1.6E1,2.53E2,1.9E1,4E1,8.4E1,1.87E2,1E0,4E0,2.1E1,6E0,6E0,1E1,1E0,1E0,7E0,1E0,3.4E1,4.5E1,2E0,3E0,8.9E1,2.9E1,2.82E2,5E0,1E0,1E0,1E0,1.19E2,4E0,1.3E1,1.45E2,2E0,1E0,1E0,8.3E1,2.3E1,1.36E2,4E0],"tree_param":{"num_deleted":"0","num_feature":"19","num_nodes":"419","size_leaf_vector":"1"}},{"base_weights":[-4.2486355E-2,-5.941059E0,1.7033632E1,-1.0171457E1,-6.770317E-1,1.2032044E1,3.239475E1,-1.2721611E1,-8.125782E0,-3.325003E0,2.0570717E0,8.051763E0,1.5666568E1,2.8264652E1,4.4271152E1,-1.3853093E1,-1.1301704E1,-8.730431E0,-5.2095885E0,2.161094E0,-4.2042923E0,1.2241096E1,1.4342911E0,7.158418E0,1.5764418E1,1.4503094E1,2.067255E1,2.5277515E1,3.2505257E1,3.8596813E1,4.919416E1,-1.4721354E1,-1.3138581E1,-8.696673E0,-1.1815115E1,-9.747824E0,-7.4625616E0,-7.8143945E0,-3.0803194E0,-1.5894426E0,1.0778624E1,-5.55467E0,-3.2301261E0,5.4934373E0,1.9091343E1,-2.2806611E-3,3.2924123E0,5.608826E0,8.484185E0,2.2065584E1,6.5946374E0,1.1864959E1,1.6685844E1,1.455404E1,2.4004044E1,3.404906E1,2.3953617E1,2.8104214E1,3.4901447E1,1.1879085E1,3.8918953E1,2.548577E0,2.9303009E1,-7.900421E-1,-7.1225935E-1,-1.3518784E1,-1.1579244E1,-9.839189E0,-3.912721E0,-1.1950431E1,-8.801608E0,-1.0358997E1,-9.057096E0,-4.49546E0,-7.6499124E0,-8.518427E0,-5.1596565E0,-6.223624E0,1.0708191E0,-4.4929547E0,2.1325268E-1,-2.6253257E0,1.1899177E1,-6.213369E0,-4.0496626E0,-5.038679E-1,-3.6556246E0,3.4125726E0,9.764014E0,1.2770557E1,2.3442795E1,2.5660505E0,-7.782718E-1,8.917684E0,2.5887754E0,-8.8439554E-1,5.827713E0,-2.5848136E0,8.59166E0,2.2750542E1,7.9517365E-1,1.185897E1,4.9803047E0,1.3629432E1,1.0390893E1,1.703523E1,9.435994E0,8.609193E0,1.8252739E1,2.1185995E1,2.7582705E1,2.8768099E1,2.3811007E0,2.4185743E1,9.265982E0,-3.8731357E-1,2.8473677E1,2.1088145E0,3.2768196E1,1.1623344E0,-2.7140313E-1,1.9532614E0,5.0489354E-1,3.400724E1,7.0169705E-1,-1.3570342E1,-6.0560236E0,-1.1762747E1,-3.899623E0,-1.1273254E1,-7.94102E0,7.115021E0,-5.132387E0,-1.2377904E1,-1.1342038E1,-4.6529484E0,-9.658204E0,-9.916885E0,-5.4689354E-1,-6.254325E0,-9.433217E0,-6.464955E0,-2.5994983E0,-8.152131E0,-6.797309E0,4.0269095E-1,-8.624118E0,-5.970441E0,5.4860467E-1,-3.151132E0,-7.6830454E0,-2.478654E0,4.3508024E0,-4.77862E0,2.1760755E0,-1.0936416E0,3.7599602E0,9.8795736E-1,-5.1988406E0,6.337106E0,1.4865143E1,-5.6998353E0,-7.5961065E0,-4.57219E0,4.3038964E0,-2.6026723E0,4.5494666E0,-4.4677815E0,-2.6448572E0,4.986651E0,-4.9188054E-1,-2.847888E-1,1.1289654E1,1.0291877E1,2.5088533E1,1.8955124E1,3.0392002E1,1.6490182E0,1.4018018E1,-2.0898774E0,7.098979E-2,5.4841943E0,1.872488E1,3.285514E0,1.1296519E0,2.585588E-1,-4.055074E0,8.416672E0,5.126966E0,1.90984E-1,-5.3562584E0,8.980889E0,5.463747E0,2.0307344E1,3.004386E1,2.7426586E-1,-1.2983233E-1,2.8340974E-1,6.809012E-1,3.3962746E0,1.1452007E1,1.4390826E1,5.8490944E0,8.389491E0,1.1087915E1,1.57711E1,1.9482317E1,4.3046646E0,1.2738961E1,-3.8076122E0,1.0566904E1,-1.2727486E-1,1.8591055E1,2.1699343E1,1.0024531E0,3.2974174E1,2.2515171E1,2.9149271E1,2.999135E-1,2.2387186E1,2.6519138E1,8.047344E-1,4.307297E0,1.2961188E1,2.9188978E1,3.4380394E1,2.5889864E1,5.955058E-1,1.902138E0,-6.796749E-1,-1.6327962E-1,7.0147103E-1,-5.8709174E-1,-5.4360443E-1,-6.7408085E-1,3.884373E-1,-5.837997E-1,-6.0196346E-1,-4.335582E-1,2.2824632E-1,-4.0746006E-1,5.360278E-1,-1.8267787E-1,-4.5949364E-1,-1.498311E-1,-6.1966777E-1,-2.5062028E-1,-5.685541E-1,5.19012E-2,1.0008144E-2,-3.7273747E-1,-4.9178478E-1,-5.5089045E-2,-5.16327E-1,-4.3621573E-1,-3.260842E-1,5.187218E-1,-5.210715E-1,-4.4053155E-1,-4.3267366E-1,-2.0410267E-1,-1.5913595E-1,3.4104526E-1,-3.8744265E-1,-4.5160508E-1,1.8691222E-1,-3.43407E-1,-4.3503356E-1,7.260927E-3,-1.4748728E-1,-3.7015817E-1,2.634513E-1,-1.3448885E-1,-4.116545E-2,-3.484664E-1,-4.2780995E-1,-1.534957E-1,1.0495589E-1,-2.3599365E-1,-2.8459212E-1,3.1485885E-1,1.2809764E-1,-2.4763964E-1,-1.5624018E-1,2.141248E-1,4.1519273E-2,-1.30862E-1,4.327936E-3,3.1708702E-1,-9.779449E-2,1.1064458E-1,-2.8455588E-1,-6.843648E-2,5.370822E-1,1.7761458E-1,4.0030524E-1,8.69899E-1,-3.068181E-1,-2.400848E-1,1.8596758E-1,-3.8685086E-1,-8.5000515E-2,-2.5334677E-1,8.7449706E-1,3.6919586E-2,-2.124459E-1,-8.1886485E-2,-3.8297825E-2,3.6136675E-1,-1.944876E-1,-2.794593E-1,-2.1626087E-1,-8.585028E-2,1.8280865E-1,4.9257705E-1,1.0582329E-1,-7.2862685E-2,7.905757E-1,3.46518E-1,7.2879684E-1,2.5180438E-1,1.3958827E0,3.4430128E-1,5.920792E-1,1.0302632E0,1.6319504E0,4.887657E-1,1.4234154E-1,-3.204278E-2,2.1081924E-1,1.0709065E0,-1.7602776E-1,-6.3136406E-2,-4.05343E-3,2.8423792E-1,1.4039327E-1,4.3654457E-1,4.0457818E-1,1.1595204E0,1.2883264E-1,2.8227502E-1,1.1127986E-1,-3.138035E-2,-1.0570303E-1,-4.4321728E-1,3.462379E-1,5.962483E-1,2.9161537E-1,1.8940805E-1,-3.5598546E-1,-6.097854E-2,4.1617998E-1,5.967498E-1,2.9823267E-1,-3.0853888E-1,1.1324598E0,6.770728E-1,1.640077E0,7.3294896E-1,5.214386E-2,-3.0888129E-2,-1.16719544E-1,2.271773E-1,1.2983354E-2,7.108817E-1,4.8318025E-1,7.594267E-1,-3.729865E-1,3.606095E-1,5.0230837E-1,2.5113603E-1,5.35312E-1,8.684704E-1,6.6555566E-1,8.342671E-1,1.3168148E0,9.1146564E-1,3.7409124E-1,5.0111324E-2,8.907332E-1,4.283042E-1,-3.3646306E-1,3.43057E-1,7.3251694E-2,5.912657E-1,1.073853E0,6.934884E-1,8.758715E-1,1.1645039E0,-3.2844418E-1,2.85793E-1,7.0096403E-1,1.706608E0,5.856094E-1,1.1749479E0,6.580784E-1,1.4999045E0,9.8669636E-1,1.1939821E0,3.6683565E-1,1.3294616E0,-3.007102E-2,2.7046627E-1,9.176654E-1,-1.7303659E-2,1.4706576E0,1.0764652E-1,1.6130799E0,1.9783278E0,1.5834122E0,1.0517952E0],"categories":[],"categories_nodes":[],"categories_segments":[],"categories_sizes":[],"default_left":[0,0,0,0,0,0,0,0,0,0,0,0,0,0,0,0,0,0,0,0,0,0,0,0,0,0,0,0,0,0,0,0,0,0,0,0,0,0,0,0,0,0,0,0,0,0,0,0,0,0,0,0,0,0,0,0,0,0,0,0,0,0,0,0,0,0,0,0,0,0,0,0,0,0,0,0,0,0,0,0,0,0,0,0,0,0,0,0,0,0,0,0,0,0,0,0,0,0,0,0,0,0,0,0,0,0,0,0,0,0,0,0,0,0,0,0,0,0,0,0,0,0,0,0,0,0,0,0,0,0,0,0,0,0,0,0,0,0,0,0,0,0,0,0,0,0,0,0,0,0,0,0,0,0,0,0,0,0,0,0,0,0,0,0,0,0,0,0,0,0,0,0,0,0,0,0,0,0,0,0,0,0,0,0,0,0,0,0,0,0,0,0,0,0,0,0,0,0,0,0,0,0,0,0,0,0,0,0,0,0,0,0,0,0,0,0,0,0,0,0,0,0,0,0,0,0,0,0,0,0,0,0,0,0,0,0,0,0,0,0,0,0,0,0,0,0,0,0,0,0,0,0,0,0,0,0,0,0,0,0,0,0,0,0,0,0,0,0,0,0,0,0,0,0,0,0,0,0,0,0,0,0,0,0,0,0,0,0,0,0,0,0,0,0,0,0,0,0,0,0,0,0,0,0,0,0,0,0,0,0,0,0,0,0,0,0,0,0,0,0,0,0,0,0,0,0,0,0,0,0,0,0,0,0,0,0,0,0,0,0,0,0,0,0,0,0,0,0,0,0,0,0,0,0,0,0,0,0,0,0,0,0,0,0,0,0,0,0,0,0,0,0,0,0,0,0,0,0,0,0,0,0,0,0,0,0,0,0,0,0,0,0,0,0,0,0,0,0,0,0,0,0,0,0,0,0,0,0,0,0,0],"id":4,"left_children":[1,3,5,7,9,11,13,15,17,19,21,23,25,27,29,31,33,35,37,39,41,43,45,47,49,51,53,55,57,59,61,63,65,67,69,71,73,75,77,79,81,83,85,87,89,91,93,95,97,99,101,103,105,107,109,111,113,115,117,119,121,-1,123,-1,-1,125,127,129,131,133,135,137,139,141,143,145,147,149,151,153,155,157,159,161,163,165,167,169,171,173,175,177,179,181,183,185,187,189,191,193,195,197,199,201,203,205,207,209,211,213,215,217,-1,219,221,-1,223,-1,225,-1,-1,-1,-1,227,-1,229,231,233,235,237,239,241,243,245,247,249,251,253,-1,255,257,259,261,263,265,-1,267,269,271,273,275,277,279,281,283,285,287,289,291,293,295,297,299,301,303,305,307,309,311,313,315,-1,317,319,321,323,325,327,329,331,333,335,337,339,341,-1,343,345,347,-1,349,351,353,355,357,-1,-1,359,-1,361,363,365,367,369,371,373,375,377,379,381,383,-1,385,387,389,391,393,395,-1,397,399,-1,401,403,405,407,409,-1,-1,-1,-1,-1,-1,-1,-1,-1,-1,-1,-1,-1,-1,-1,-1,-1,-1,-1,-1,-1,-1,-1,-1,-1,-1,-1,-1,-1,-1,-1,-1,-1,-1,-1,-1,-1,-1,-1,-1,-1,-1,-1,-1,-1,-1,-1,-1,-1,-1,-1,-1,-1,-1,-1,-1,-1,-1,-1,-1,-1,-1,-1,-1,-1,-1,-1,-1,-1,-1,-1,-1,-1,-1,-1,-1,-1,-1,-1,-1,-1,-1,-1,-1,-1,-1,-1,-1,-1,-1,-1,-1,-1,-1,-1,-1,-1,-1,-1,-1,-1,-1,-1,-1,-1,-1,-1,-1,-1,-1,-1,-1,-1,-1,-1,-1,-1,-1,-1,-1,-1,-1,-1,-1,-1,-1,-1,-1,-1,-1,-1,-1,-1,-1,-1,-1,-1,-1,-1,-1,-1,-1,-1,-1,-1,-1,-1,-1,-1,-1,-1,-1,-1,-1,-1,-1,-1,-1,-1,-1,-1,-1,-1,-1,-1,-1,-1,-1,-1,-1,-1,-1,-1,-1,-1,-1,-1,-1,-1,-1,-1,-1,-1,-1],"loss_changes":[1.6956004E6,2.78622E5,3.3166938E5,3.6085562E4,4.037611E4,4.7063344E4,5.0791375E4,4.8014062E3,6.7466562E3,1.3675104E4,1.738602E4,1.062875E4,9.624844E3,9.1854375E3,5.6995625E3,8.6928125E2,1.7348906E3,4.0408125E3,3.6586934E3,1.2686713E4,3.1944883E3,7.198377E3,6.9055493E3,2.8265234E3,9.157113E3,7.7831562E3,6.1530625E3,4.619125E3,2.425375E3,6.651875E2,3.5266562E3,1.6814062E2,4.0607812E2,1.218623E3,3.6173438E2,6.517031E2,7.571953E2,5.130156E2,4.7953887E3,1.4351145E3,1.8186006E3,9.8799414E2,1.6465459E3,6.8648535E2,1.8459805E3,2.9117805E3,4.441706E3,9.261426E2,9.168086E2,1.3659922E3,5.1033057E2,1.4995781E3,1.7542031E3,2.371502E3,1.4830234E3,2.8590234E3,1.1737656E3,1.7967656E3,1.7993906E3,7.16407E2,1.49375E2,0E0,5.283535E2,0E0,0E0,2.0909375E2,2.2611328E2,4.140664E2,6.552248E2,1.4385938E2,1.434082E2,1.2953906E2,8.2335156E2,3.080598E2,5.175078E2,4.7931836E2,3.0410645E2,9.129575E2,1.8618958E3,2.104353E2,7.920913E2,9.812462E1,1.720458E3,4.601504E2,1.3902754E3,2.058791E3,9.970703E2,3.4662415E2,6.775415E2,7.798911E2,8.272754E2,3.5370027E3,1.2499402E3,4.106422E3,1.0169824E3,4.4337546E2,1.0943535E3,1.6245679E2,8.579492E2,1.0292383E3,7.787592E1,3.015713E2,5.0442847E2,1.5982188E3,3.924453E2,1.9200156E3,5.722617E2,1.1584263E3,5.3986914E2,1.2112266E3,1.6345469E3,2.1571484E2,0E0,1.0975781E3,2.0156653E2,0E0,9.3102344E2,0E0,9.174375E2,0E0,0E0,0E0,0E0,4.3863965E2,0E0,1.348125E2,9.641453E2,1.4124023E2,6.351332E2,1.0090918E2,2.5329199E2,