{"learner":{"attributes":{"best_iteration":"161","best_score":"7.704109085079528","scikit_learn":"{\"_estimator_type\": \"regressor\"}"},"feature_names":["O3_forecast","NO2_forecast","T_forecast","q_forecast","u_forecast","v_forecast","w_forecast","O3_target_lag_1","O3_target_lag_2","O3_target_lag_3","O3_target_lag_6","O3_target_lag_12","O3_target_lag_24","NO2_target_lag_1","NO2_target_lag_2","NO2_target_lag_3","NO2_target_lag_6","NO2_target_lag_12","NO2_target_lag_24"],"feature_types":["float","float","float","float","float","float","float","float","float","float","float","float","float","float","float","float","float","float","float"],"gradient_booster":{"model":{"cats":{"enc":[],"feature_segments":[],"sorted_idx":[]},"gbtree_model_param":{"num_parallel_tree":"1","num_trees":"212"},"iteration_indptr":[0,1,2,3,4,5,6,7,8,9,10,11,12,13,14,15,16,17,18,19,20,21,22,23,24,25,26,27,28,29,30,31,32,33,34,35,36,37,38,39,40,41,42,43,44,45,46,47,48,49,50,51,52,53,54,55,56,57,58,59,60,61,62,63,64,65,66,67,68,69,70,71,72,73,74,75,76,77,78,79,80,81,82,83,84,85,86,87,88,89,90,91,92,93,94,95,96,97,98,99,100,101,102,103,104,105,106,107,108,109,110,111,112,113,114,115,116,117,118,119,120,121,122,123,124,125,126,127,128,129,130,131,132,133,134,135,136,137,138,139,140,141,142,143,144,145,146,147,148,149,150,151,152,153,154,155,156,157,158,159,160,161,162,163,164,165,166,167,168,169,170,171,172,173,174,175,176,177,178,179,180,181,182,183,184,185,186,187,188,189,190,191,192,193,194,195,196,197,198,199,200,201,202,203,204,205,206,207,208,209,210,211,212],"tree_info":[0,0,0,0,0,0,0,0,0,0,0,0,0,0,0,0,0,0,0,0,0,0,0,0,0,0,0,0,0,0,0,0,0,0,0,0,0,0,0,0,0,0,0,0,0,0,0,0,0,0,0,0,0,0,0,0,0,0,0,0,0,0,0,0,0,0,0,0,0,0,0,0,0,0,0,0,0,0,0,0,0,0,0,0,0,0,0,0,0,0,0,0,0,0,0,0,0,0,0,0,0,0,0,0,0,0,0,0,0,0,0,0,0,0,0,0,0,0,0,0,0,0,0,0,0,0,0,0,0,0,0,0,0,0,0,0,0,0,0,0,0,0,0,0,0,0,0,0,0,0,0,0,0,0,0,0,0,0,0,0,0,0,0,0,0,0,0,0,0,0,0,0,0,0,0,0,0,0,0,0,0,0,0,0,0,0,0,0,0,0,0,0,0,0,0,0,0,0,0,0,0,0,0,0,0,0,0,0,0,0,0,0],"trees":[{"base_weights":[-1.2780677E-3,-1.21258135E1,2.6645998E1,-1.9968664E1,-3.8423605E0,1.756264E1,5.0424065E1,-2.6109592E1,-1.655277E1,-7.4699273E0,1.6120782E0,1.0968925E1,2.4635233E1,4.5565502E1,7.961647E1,-2.901755E1,-2.4040762E1,-1.9390783E1,-1.406023E1,-8.306784E0,4.911057E0,3.2660842E-1,1.7811886E1,9.500914E0,2.7199413E1,2.3019749E1,4.28943E1,3.94825E1,5.3764713E1,7.261989E1,9.158593E1,-1.5219433E0,-1.4048849E0,-2.479249E1,-2.1037056E1,-2.0689869E1,-1.7320827E1,-1.4995973E1,-8.795383E0,-9.844968E0,-4.98654E0,7.925629E0,-3.180554E0,-2.5889475E0,1.7920258E0,4.028142E0,2.7833405E1,6.892027E0,1.1453136E1,1.7878517E1,4.1193474E1,1.9808254E1,2.8067757E1,2.1402447E1,4.5939724E1,3.7732754E1,5.9619232E1,4.7146736E1,5.5908363E1,7.3173164E1,8.649512E-2,9.152452E-1,4.620945E0,-2.4828835E1,-1.0235145E1,-2.1269772E1,4.359871E0,-2.1805134E1,-1.9562582E1,-1.8060722E1,-1.1927722E1,-1.6202856E1,-1.2879991E1,-1.2467046E1,-5.163798E0,-1.1450801E1,-7.9554253E0,-6.7924056E0,-8.585499E-1,1.712934E0,1.2620651E1,-5.723009E0,2.8392293E0,-2.057656E0,-8.659228E0,1.1787531E0,6.0066977E0,-8.124624E-1,1.3113293E1,1.9638107E1,3.6143764E1,5.2975645E0,9.407164E0,9.18452E0,1.3446284E1,2.3325003E1,1.0709573E1,1.052108E1,4.5046036E1,2.0831942E1,1.562723E1,1.5730994E1,2.8373577E1,3.032255E1,8.122048E0,3.9476433E1,5.7430542E1,3.579644E1,4.1075417E1,7.832452E-1,3.0086963E0,1.0356177E0,4.7619244E1,5.6082348E1,-1.9425483E-1,3.7074125E0,1.2569927E0,-1.2686061E0,-2.3288012E1,1.984952E-1,-8.146731E-1,3.4274513E-1,-2.141799E1,4.997452E-1,-1.7275487E-1,-1.102148E0,-1.8220459E1,-1.9263227E-1,-1.9647108E1,-1.8241705E1,-8.170177E0,-7.4238477E0,-1.6140676E1,-1.6666336E1,-1.3694556E1,-9.647923E0,-1.3667566E1,-5.7591877E0,-1.4122911E1,-5.837815E0,1.5145845E1,-1.2546157E1,-1.0309729E1,-8.62246E0,-1.0526011E0,-7.47686E0,-3.732589E0,-2.6573079E0,1.2551577E1,-1.0021085E1,4.071476E0,-1.7301842E0,1.6621347E1,-8.835837E0,-1.1748884E0,-3.5842475E-1,7.606489E0,-4.55663E0,-1.1442617E0,-9.158965E0,-3.726449E-1,8.054028E-1,6.4198084E0,1.4586479E1,4.0555854E0,-4.6873302E0,5.6174645E0,2.3067606E1,6.2664857E0,8.4291935E0,2.4628876E1,3.812006E1,7.3448544E0,6.0981655E0,-2.7317312E-1,8.28089E0,1.5770543E1,9.676612E0,-4.5757684E-1,2.5344597E1,1.2859152E1,6.1831613E0,2.6301174E1,1.7915152E1,6.466956E0,7.483923E-1,2.3323545E0,2.6074514E-1,4.571173E1,1.9575647E1,2.5075876E1,-2.1876454E0,1.5918498E1,4.835548E0,2.123437E1,2.9985134E1,2.6173359E1,3.988983E1,3.6073542E0,1.1975547E1,-1.7883982E-1,4.0256733E1,6.0298705E0,7.798269E-1,5.9175964E1,3.6303688E1,2.2986483E1,4.2849514E-1,4.1184216E1,2.8263172E1,2.409751E0,4.9981564E1,2.9304826E0,-2.5183982E-1,-1.1706938E0,-1.1470655E0,-9.220978E-1,-9.488427E-1,2.252452E-1,-6.350484E-2,-9.840293E-1,-6.0117006E-1,-9.2681783E-1,4.8032686E-1,-6.3430876E-1,-5.570528E-1,-1.2666708E-1,-8.5988444E-1,-3.5542476E-1,-8.3583736E-1,-3.360914E-1,-5.1893586E-1,-7.2224444E-1,-6.4420766E-1,-3.4719613E-1,-6.905492E-1,1.2449223E-1,-8.215086E-1,-5.660018E-2,-1.0137037E0,-6.4179313E-1,-1.4302163E-1,-4.8966527E-1,2.3495197E-2,9.348677E-1,-6.49939E-1,-3.8265237E-1,-4.9426672E-1,-6.379767E-1,-5.2968705E-1,-3.7748885E-1,-2.2664444E-1,4.7191936E-1,-3.236437E-1,-4.5530468E-1,-1.2500906E-2,-3.4151736E-1,3.9846694E-1,-1.8018347E-1,7.983707E-1,1.378413E-1,-5.424587E-1,-4.350481E-2,9.985509E-2,8.8570595E-1,6.393922E-1,-3.2270905E-1,7.0571274E-1,1.3259078E0,-5.0250924E-1,-2.7757263E-2,4.0786767E-1,-1.8786614E-1,5.5471367E-1,-1.0713227E-1,-4.1186575E-2,-3.0509812E-1,1.2469309E-1,-1.1822634E-1,-5.305594E-1,-3.261342E-1,-2.2600484E-1,1.258269E-1,-1.983427E-2,1.4296083E-1,2.4086165E-1,8.177412E-1,6.1391275E-2,1.0126575E0,1.5709816E-1,4.575908E-1,-4.03825E-1,1.1104127E-1,4.6629873E-1,-2.5740775E-1,1.4144086E0,4.734927E-1,-1.438398E-1,3.9472184E-1,-8.008303E-3,6.799413E-1,1.6957912E0,9.760124E-1,1.999342E0,5.661177E-1,4.4749355E-1,6.324511E-2,4.532357E-1,2.4867104E-1,-1.8452372E-1,2.4694724E-1,4.7440895E-1,2.5757015E-1,2.535821E-1,9.5290995E-1,3.9005458E-1,5.766648E-1,-1.7862676E-1,3.5863453E-1,1.8899517E-1,1.3076499E0,6.5233916E-1,-9.6222594E-2,4.9899173E-1,-2.368398E-1,9.742737E-3,1.4103321E0,3.0399168E-1,1.2564914E0,1.3375269E-1,7.806166E-1,-8.839798E-3,2.4649516E-1,2.3440416E0,9.9811774E-1,9.450923E-1,1.1343335E0,2.2416027E-1,1.2645254E0,1.4899512E-1,-2.451731E-1,9.119859E-1,6.270522E-1,-1.990774E-2,5.973269E-1,5.849514E-2,1.1561912E0,1.3758532E0,1.5937213E0,1.7448107E0,1.256701E0,2.1184204E0,5.6349516E-1,4.8782688E-1,-3.7100488E-1,1.9866015E-1,7.190922E-1,2.0768466E0,8.985753E-1,4.639952E-1,-1.1754895E-2,3.0705044E0,1.2137427E0,1.1177185E0,1.8308448E0,1.2564596E0,1.9482683E-1,1.8623536E0,2.164881E0,1.5788922E0,2.922452E-1,3.1995106E-2,2.5206277E0],"categories":[],"categories_nodes":[],"categories_segments":[],"categories_sizes":[],"default_left":[0,0,0,0,0,0,0,0,0,0,0,0,0,0,0,0,0,0,0,0,0,0,0,0,0,0,0,0,0,0,0,0,0,0,0,0,0,0,0,0,0,0,0,0,0,0,0,0,0,0,0,0,0,0,0,0,0,0,0,0,0,0,0,0,0,0,0,0,0,0,0,0,0,0,0,0,0,0,0,0,0,0,0,0,0,0,0,0,0,0,0,0,0,0,0,0,0,0,0,0,0,0,0,0,0,0,0,0,0,0,0,0,0,0,0,0,0,0,0,0,0,0,0,0,0,0,0,0,0,0,0,0,0,0,0,0,0,0,0,0,0,0,0,0,0,0,0,0,0,0,0,0,0,0,0,0,0,0,0,0,0,0,0,0,0,0,0,0,0,0,0,0,0,0,0,0,0,0,0,0,0,0,0,0,0,0,0,0,0,0,0,0,0,0,0,0,0,0,0,0,0,0,0,0,0,0,0,0,0,0,0,0,0,0,0,0,0,0,0,0,0,0,0,0,0,0,0,0,0,0,0,0,0,0,0,0,0,0,0,0,0,0,0,0,0,0,0,0,0,0,0,0,0,0,0,0,0,0,0,0,0,0,0,0,0,0,0,0,0,0,0,0,0,0,0,0,0,0,0,0,0,0,0,0,0,0,0,0,0,0,0,0,0,0,0,0,0,0,0,0,0,0,0,0,0,0,0,0,0,0,0,0,0,0,0,0,0,0,0,0,0,0,0,0,0,0,0,0,0,0,0,0,0,0,0,0,0,0,0,0,0,0,0,0,0,0,0,0,0,0,0,0,0,0,0,0,0,0,0,0,0,0,0,0,0,0,0,0,0,0,0,0,0],"id":0,"left_children":[1,3,5,7,9,11,13,15,17,19,21,23,25,27,29,31,33,35,37,39,41,43,45,47,49,51,53,55,57,59,61,-1,-1,63,65,67,69,71,73,75,77,79,81,83,85,87,89,91,93,95,97,99,101,103,105,107,109,111,113,115,-1,-1,-1,117,119,121,123,125,127,129,131,133,135,137,139,141,143,145,147,149,151,153,155,157,159,161,163,165,167,169,171,173,175,177,179,181,183,185,187,189,191,193,195,197,199,201,203,205,207,-1,-1,-1,209,211,-1,-1,-1,-1,213,-1,-1,-1,215,-1,-1,-1,217,-1,219,221,223,225,227,229,231,233,235,237,239,241,243,245,247,249,251,253,255,257,259,261,263,265,267,269,271,-1,273,275,277,279,281,283,285,287,289,291,293,295,297,299,301,303,305,307,309,311,313,315,317,319,321,323,325,327,329,-1,331,-1,333,335,337,339,341,343,345,347,349,351,353,355,-1,357,359,-1,361,363,365,-1,367,369,-1,371,-1,-1,-1,-1,-1,-1,-1,-1,-1,-1,-1,-1,-1,-1,-1,-1,-1,-1,-1,-1,-1,-1,-1,-1,-1,-1,-1,-1,-1,-1,-1,-1,-1,-1,-1,-1,-1,-1,-1,-1,-1,-1,-1,-1,-1,-1,-1,-1,-1,-1,-1,-1,-1,-1,-1,-1,-1,-1,-1,-1,-1,-1,-1,-1,-1,-1,-1,-1,-1,-1,-1,-1,-1,-1,-1,-1,-1,-1,-1,-1,-1,-1,-1,-1,-1,-1,-1,-1,-1,-1,-1,-1,-1,-1,-1,-1,-1,-1,-1,-1,-1,-1,-1,-1,-1,-1,-1,-1,-1,-1,-1,-1,-1,-1,-1,-1,-1,-1,-1,-1,-1,-1,-1,-1,-1,-1,-1,-1,-1,-1,-1,-1,-1,-1,-1,-1,-1,-1,-1,-1,-1,-1,-1,-1,-1,-1,-1,-1,-1,-1,-1,-1,-1,-1,-1,-1,-1,-1,-1,-1,-1],"loss_changes":[5.0666325E6,7.001254E5,1.0583035E6,1.1569525E5,1.0375182E5,1.6528275E5,1.8855575E5,1.1196125E4,2.4910312E4,3.2667938E4,4.3621227E4,4.3558562E4,4.951175E4,5.5933E4,9.42825E3,2.12875E2,2.1E3,4.110875E3,9.223594E3,1.5017E4,4.903757E3,8.301847E3,2.1160527E4,8.518266E3,1.9089984E4,2.4977375E4,8.049125E3,2.1427875E4,4.358125E3,4.815375E3,2.398E3,0E0,0E0,2.3425E2,1.5052891E3,8.5075E2,2.3663281E3,3.9053438E3,3.7891348E3,6.023E3,6.97167E3,4.2370186E3,8.580256E2,2.0784902E3,3.3349932E3,2.913177E3,5.351625E3,2.857625E3,4.235422E3,3.3814355E3,6.6161016E3,3.8090312E3,1.8550938E3,2.0045059E3,6.645078E3,2.549E3,3.2520312E2,5.9996875E2,4.036E3,3.9905625E3,0E0,0E0,0E0,1.7925E2,4.0891824E2,1.1347656E3,1.6664616E2,2.634375E1,6.081875E2,8.658906E2,1.4171191E3,9.5990625E2,1.3699844E3,1.5070078E3,2.1007085E3,1.2292656E3,4.2684336E3,1.3354844E3,6.9321226E3,1.8120121E3,4.7940645E3,5.417622E2,8.655873E2,1.3620327E3,2.119248E2,2.2059565E3,2.6862217E3,1.122596E3,1.4230183E3,2.421629E3,2.1673672E3,1.9907988E3,1.8761387E3,2.1585664E3,3.2438672E3,2.4902637E3,1.168105E3,2.563963E2,1.1669453E3,3.6304688E3,1.0414766E3,9.1666943E2,1.321375E3,2.6676123E3,4.4856738E2,1.8451172E3,2.0707969E3,1.7711562E3,4.2859375E2,0E0,0E0,0E0,1.98125E1,2.71375E3,0E0,0E0,0E0,0E0,4.6095312E2,0E0,0E0,0E0,6.468125E2,0E0,0E0,0E0,7.214951E2,0E0,2.8996875E2,7.958594E2,1.0852252E3,7.1711597E2,2.6918262E2,3.1775E2,2.605957E2,9.51875E2,1.1281328E3,1.4626993E3,6.422871E2,1.6560986E3,2.5182275E2,1.118625E3,4.3322266E2,1.7110547E3,3.0732507E3,8.0963086E2,1.3036598E3,2.5730518E3,1.0935278E3,7.391626E1,1.4928203E3,1.3856144E3,1.2385098E3,2.257002E2,4.403481E2,0E0,4.3180548E2,9.1794434E2,1.9592656E3,1.1838135E2,5.930598E1,2.6082563E3,1.1153362E3,2.246105E3,5.998093E2,6.73498E2,7.2672644E2,3.7100635E2,2.4598285E2,7.126394E2,8.5614844E2,1.5482656E3,2.7712997E1,1.2561943E3,1.0334755E3,8.578887E2,1.3454912E3,1.4143594E3,5.7228784E2,3.021006E2,1.3815312E3,4.2040802E2,2.1832715E3,1.1280342E3,9.2923047E2,0E0,2.6942146E1,0E0,6.2953125E2,8.310156E2,6.512656E2,7.074829E1,1.2686562E3,2.6527417E2,3.8996777E2,6.8965625E2,1.4710156E3,9.000488E1,3.4363373E2,7.7650085E1,0E0,1.4788359E3,6.326574E1,0E0,1.55025E3,8.5915625E2,6.383584E2,0E0,2.17875E2,2.6128564E2,0E0,2.3920312E3,0E0,0E0,0E0,0E0,0E0,0E0,0E0,0E0,0E0,0E0,0E0,0E0,0E0,0E0,0E0,0E0,0E0,0E0,0E0,0E0,0E0,0E0,0E0,0E0,0E0,0E0,0E0,0E0,0E0,0E0,0E0,0E0,0E0,0E0,0E0,0E0,0E0,0E0,0E0,0E0,0E0,0E0,0E0,0E0,0E0,0E0,0E0,0E0,0E0,0E0,0E0,0E0,0E0,0E0,0E0,0E0,0E0,0E0,0E0,0E0,0E0,0E0,0E0,0E0,0E0,0E0,0E0,0E0,0E0,0E0,0E0,0E0,0E0,0E0,0E0,0E0,0E0,0E0,0E0,0E0,0E0,0E0,0E0,0E0,0E0,0E0,0E0,0E0,0E0,0E0,0E0,0E0,0E0,0E0,0E0,0E0,0E0,0E0,0E0,0E0,0E0,0E0,0E0,0E0,0E0,0E0,0E0,0E0,0E0,0E0,0E0,0E0,0E0,0E0,0E0,0E0,0E0,0E0,0E0,0E0,0E0,0E0,0E0,0E0,0E0,0E0,0E0,0E0,0E0,0E0,0E0,0E0,0E0,0E0,0E0,0E0,0E0,0E0,0E0,0E0,0E0,0E0,0E0,0E0,0E0,0E0,0E0,0E0,0E0,0E0,0E0,0E0,0E0,0E0,0E0,0E0,0E0,0E0,0E0,0E0,0E0],"parents":[2147483647,0,0,1,1,2,2,3,3,4,4,5,5,6,6,7,7,8,8,9,9,10,10,11,11,12,12,13,13,14,14,15,15,16,16,17,17,18,18,19,19,20,20,21,21,22,22,23,23,24,24,25,25,26,26,27,27,28,28,29,29,30,30,33,33,34,34,35,35,36,36,37,37,38,38,39,39,40,40,41,41,42,42,43,43,44,44,45,45,46,46,47,47,48,48,49,49,50,50,51,51,52,52,53,53,54,54,55,55,56,56,57,57,58,58,59,59,63,63,64,64,65,65,66,66,67,67,68,68,69,69,70,70,71,71,72,72,73,73,74,74,75,75,76,76,77,77,78,78,79,79,80,80,81,81,82,82,83,83,84,84,85,85,86,86,87,87,88,88,89,89,90,90,91,91,92,92,93,93,94,94,95,95,96,96,97,97,98,98,99,99,100,100,101,101,102,102,103,103,104,104,105,105,106,106,107,107,108,108,112,112,113,113,118,118,122,122,126,126,128,128,129,129,130,130,131,131,132,132,133,133,134,134,135,135,136,136,137,137,138,138,139,139,140,140,141,141,142,142,143,143,144,144,145,145,146,146,147,147,148,148,149,149,150,150,151,151,152,152,153,153,154,154,156,156,157,157,158,158,159,159,160,160,161,161,162,162,163,163,164,164,165,165,166,166,167,167,168,168,169,169,170,170,171,171,172,172,173,173,174,174,175,175,176,176,177,177,178,178,179,179,180,180,181,181,182,182,183,183,184,184,186,186,188,188,189,189,190,190,191,191,192,192,193,193,194,194,195,195,196,196,197,197,198,198,199,199,201,201,202,202,204,204,205,205,206,206,208,208,209,209,211,211],"right_children":[2,4,6,8,10,12,14,16,18,20,22,24,26,28,30,32,34,36,38,40,42,44,46,48,50,52,54,56,58,60,62,-1,-1,64,66,68,70,72,74,76,78,80,82,84,86,88,90,92,94,96,98,100,102,104,106,108,110,112,114,116,-1,-1,-1,118,120,122,124,126,128,130,132,134,136,138,140,142,144,146,148,150,152,154,156,158,160,162,164,166,168,170,172,174,176,178,180,182,184,186,188,190,192,194,196,198,200,202,204,206,208,-1,-1,-1,210,212,-1,-1,-1,-1,214,-1,-1,-1,216,-1,-1,-1,218,-1,220,222,224,226,228,230,232,234,236,238,240,242,244,246,248,250,252,254,256,258,260,262,264,266,268,270,272,-1,274,276,278,280,282,284,286,288,290,292,294,296,298,300,302,304,306,308,310,312,314,316,318,320,322,324,326,328,330,-1,332,-1,334,336,338,340,342,344,346,348,350,352,354,356,-1,358,360,-1,362,364,366,-1,368,370,-1,372,-1,-1,-1,-1,-1,-1,-1,-1,-1,-1,-1,-1,-1,-1,-1,-1,-1,-1,-1,-1,-1,-1,-1,-1,-1,-1,-1,-1,-1,-1,-1,-1,-1,-1,-1,-1,-1,-1,-1,-1,-1,-1,-1,-1,-1,-1,-1,-1,-1,-1,-1,-1,-1,-1,-1,-1,-1,-1,-1,-1,-1,-1,-1,-1,-1,-1,-1,-1,-1,-1,-1,-1,-1,-1,-1,-1,-1,-1,-1,-1,-1,-1,-1,-1,-1,-1,-1,-1,-1,-1,-1,-1,-1,-1,-1,-1,-1,-1,-1,-1,-1,-1,-1,-1,-1,-1,-1,-1,-1,-1,-1,-1,-1,-1,-1,-1,-1,-1,-1,-1,-1,-1,-1,-1,-1,-1,-1,-1,-1,-1,-1,-1,-1,-1,-1,-1,-1,-1,-1,-1,-1,-1,-1,-1,-1,-1,-1,-1,-1,-1,-1,-1,-1,-1,-1,-1,-1,-1,-1,-1,-1],"split_conditions":[4.017E1,2.025E1,7.17E1,1.025E1,3.06E1,5.26E1,1.0667E2,5.75E0,1.512E1,9.512E1,9.197E1,8.56E1,8.977E1,8.612E1,1.258E2,3.45E0,1.9E1,1.83E1,7.145E1,2.69E1,2.462E1,3.34E1,3.675E1,4.493E1,6.315E1,6.242E1,3.24E1,9.79E1,8.965E1,2.3813E2,9.4E0,-1.5219433E0,-1.4048849E0,2.94E1,2.1744E2,1.25E1,8.362E1,2.385E1,2.502E1,2.595E1,3.58E1,3.43E1,2.76E1,4.493E1,5.803E1,9.94E1,4.86E1,4.19E1,4.017E1,6.29E1,2.738E1,4.218E1,1.55E1,7.24E1,6.29E1,7.925E1,1.87E1,7.6E0,1.3552E2,8.05E1,8.649512E-2,9.152452E-1,4.620945E0,5.21E1,1.2E-1,6.09E0,2.225E2,8.56E1,4.92E0,4.74E0,1.197E1,1.927E1,1.465E1,1.1E1,4.42E1,2.327E1,8.46E1,5.26E1,7.585E1,2.097E1,2.402E1,2.84E1,-1.38E0,2.165E1,1.4347E2,8.15E1,2.715E1,3.53E1,1.008E2,5.047E1,1.5023E2,7.062E1,5.885E1,6.98E1,2.805E1,8.977E1,1.87E1,2.5E1,5.75E0,5.907E1,1.793E1,8.17E0,1.368E1,3.985E1,1.2795E2,6.222E1,1.793E1,8.05E1,8E-1,7.832452E-1,3.0086963E0,1.0356177E0,9.6E0,3.5E1,-1.9425483E-1,3.7074125E0,1.2569927E0,-1.2686061E0,6.73E0,1.984952E-1,-8.146731E-1,3.4274513E-1,9.18E0,4.997452E-1,-1.7275487E-1,-1.102148E0,1.945E1,-1.9263227E-1,-3.62E0,7.82E0,1.815E1,2.618E1,2.618E1,6.965E1,1.793E1,1.98E1,1.3138E2,7.145E1,1.16E1,1.63E1,2.95E1,6.378E1,5.432E1,2.255E1,4.455E1,4.04E1,2.785E1,2.097E1,1.3695E2,1.1379E2,2.38E0,1.04E1,2.86E0,1.2512E2,2.928E1,-3.5842475E-1,1.0838E2,1.55E1,2.715E1,4.553E1,1.6E0,3.767E1,8.692E1,1.738E1,8.082E1,6.73E1,2.46E0,1.215E1,6.29E1,1.882E1,2.459E1,3.705E1,2.98E1,3.675E1,2.715E1,4.002E1,5E1,4.822E1,2.262E1,6.09E0,8.965E1,6.78E1,3.888E1,8.5E-1,7.683E1,7.483923E-1,4.485E1,2.6074514E-1,2.033E2,4.473E1,1.5E1,9.45E1,5.202E1,5.611E1,1.468E1,6.653E1,3.03E1,1.4013E2,1.0909E2,1.738E1,-1.7883982E-1,4.11E0,1.484E2,7.798269E-1,1.1583E2,1.995E1,1.5084E2,4.2849514E-1,7.73E0,2.882E1,2.409751E0,1.232E1,2.9304826E0,-2.5183982E-1,-1.1706938E0,-1.1470655E0,-9.220978E-1,-9.488427E-1,2.252452E-1,-6.350484E-2,-9.840293E-1,-6.0117006E-1,-9.2681783E-1,4.8032686E-1,-6.3430876E-1,-5.570528E-1,-1.2666708E-1,-8.5988444E-1,-3.5542476E-1,-8.3583736E-1,-3.360914E-1,-5.1893586E-1,-7.2224444E-1,-6.4420766E-1,-3.4719613E-1,-6.905492E-1,1.2449223E-1,-8.215086E-1,-5.660018E-2,-1.0137037E0,-6.4179313E-1,-1.4302163E-1,-4.8966527E-1,2.3495197E-2,9.348677E-1,-6.49939E-1,-3.8265237E-1,-4.9426672E-1,-6.379767E-1,-5.2968705E-1,-3.7748885E-1,-2.2664444E-1,4.7191936E-1,-3.236437E-1,-4.5530468E-1,-1.2500906E-2,-3.4151736E-1,3.9846694E-1,-1.8018347E-1,7.983707E-1,1.378413E-1,-5.424587E-1,-4.350481E-2,9.985509E-2,8.8570595E-1,6.393922E-1,-3.2270905E-1,7.0571274E-1,1.3259078E0,-5.0250924E-1,-2.7757263E-2,4.0786767E-1,-1.8786614E-1,5.5471367E-1,-1.0713227E-1,-4.1186575E-2,-3.0509812E-1,1.2469309E-1,-1.1822634E-1,-5.305594E-1,-3.261342E-1,-2.2600484E-1,1.258269E-1,-1.983427E-2,1.4296083E-1,2.4086165E-1,8.177412E-1,6.1391275E-2,1.0126575E0,1.5709816E-1,4.575908E-1,-4.03825E-1,1.1104127E-1,4.6629873E-1,-2.5740775E-1,1.4144086E0,4.734927E-1,-1.438398E-1,3.9472184E-1,-8.008303E-3,6.799413E-1,1.6957912E0,9.760124E-1,1.999342E0,5.661177E-1,4.4749355E-1,6.324511E-2,4.532357E-1,2.4867104E-1,-1.8452372E-1,2.4694724E-1,4.7440895E-1,2.5757015E-1,2.535821E-1,9.5290995E-1,3.9005458E-1,5.766648E-1,-1.7862676E-1,3.5863453E-1,1.8899517E-1,1.3076499E0,6.5233916E-1,-9.6222594E-2,4.9899173E-1,-2.368398E-1,9.742737E-3,1.4103321E0,3.0399168E-1,1.2564914E0,1.3375269E-1,7.806166E-1,-8.839798E-3,2.4649516E-1,2.3440416E0,9.9811774E-1,9.450923E-1,1.1343335E0,2.2416027E-1,1.2645254E0,1.4899512E-1,-2.451731E-1,9.119859E-1,6.270522E-1,-1.990774E-2,5.973269E-1,5.849514E-2,1.1561912E0,1.3758532E0,1.5937213E0,1.7448107E0,1.256701E0,2.1184204E0,5.6349516E-1,4.8782688E-1,-3.7100488E-1,1.9866015E-1,7.190922E-1,2.0768466E0,8.985753E-1,4.639952E-1,-1.1754895E-2,3.0705044E0,1.2137427E0,1.1177185E0,1.8308448E0,1.2564596E0,1.9482683E-1,1.8623536E0,2.164881E0,1.5788922E0,2.922452E-1,3.1995106E-2,2.5206277E0],"split_indices":[13,13,13,13,13,13,13,13,13,10,9,9,9,13,13,13,18,18,10,13,14,13,18,13,18,13,18,9,13,0,18,0,0,14,0,13,10,18,18,18,18,18,13,14,18,10,17,18,18,12,17,12,18,1,7,13,7,17,7,12,0,0,0,10,0,1,0,10,14,4,15,13,15,16,16,13,9,10,9,13,17,2,4,18,1,10,14,13,9,18,10,12,9,14,14,9,2,14,16,17,14,9,7,15,10,7,17,12,9,0,0,0,16,10,0,0,0,0,2,0,0,0,13,0,0,0,14,0,6,14,17,18,15,10,15,17,9,9,18,14,7,10,17,13,18,12,14,14,0,0,4,15,4,7,2,0,9,17,14,7,4,13,9,7,17,16,4,16,12,15,1,15,2,14,18,10,18,13,9,1,15,0,10,4,1,0,0,0,0,9,18,0,17,0,2,13,15,0,0,10,0,4,0,0,7,18,0,0,9,1,0,16,0,0,0,0,0,0,0,0,0,0,0,0,0,0,0,0,0,0,0,0,0,0,0,0,0,0,0,0,0,0,0,0,0,0,0,0,0,0,0,0,0,0,0,0,0,0,0,0,0,0,0,0,0,0,0,0,0,0,0,0,0,0,0,0,0,0,0,0,0,0,0,0,0,0,0,0,0,0,0,0,0,0,0,0,0,0,0,0,0,0,0,0,0,0,0,0,0,0,0,0,0,0,0,0,0,0,0,0,0,0,0,0,0,0,0,0,0,0,0,0,0,0,0,0,0,0,0,0,0,0,0,0,0,0,0,0,0,0,0,0,0,0,0,0,0,0,0,0,0,0,0,0,0,0,0,0,0,0,0,0,0],"split_type":[0,0,0,0,0,0,0,0,0,0,0,0,0,0,0,0,0,0,0,0,0,0,0,0,0,0,0,0,0,0,0,0,0,0,0,0,0,0,0,0,0,0,0,0,0,0,0,0,0,0,0,0,0,0,0,0,0,0,0,0,0,0,0,0,0,0,0,0,0,0,0,0,0,0,0,0,0,0,0,0,0,0,0,0,0,0,0,0,0,0,0,0,0,0,0,0,0,0,0,0,0,0,0,0,0,0,0,0,0,0,0,0,0,0,0,0,0,0,0,0,0,0,0,0,0,0,0,0,0,0,0,0,0,0,0,0,0,0,0,0,0,0,0,0,0,0,0,0,0,0,0,0,0,0,0,0,0,0,0,0,0,0,0,0,0,0,0,0,0,0,0,0,0,0,0,0,0,0,0,0,0,0,0,0,0,0,0,0,0,0,0,0,0,0,0,0,0,0,0,0,0,0,0,0,0,0,0,0,0,0,0,0,0,0,0,0,0,0,0,0,0,0,0,0,0,0,0,0,0,0,0,0,0,0,0,0,0,0,0,0,0,0,0,0,0,0,0,0,0,0,0,0,0,0,0,0,0,0,0,0,0,0,0,0,0,0,0,0,0,0,0,0,0,0,0,0,0,0,0,0,0,0,0,0,0,0,0,0,0,0,0,0,0,0,0,0,0,0,0,0,0,0,0,0,0,0,0,0,0,0,0,0,0,0,0,0,0,0,0,0,0,0,0,0,0,0,0,0,0,0,0,0,0,0,0,0,0,0,0,0,0,0,0,0,0,0,0,0,0,0,0,0,0,0,0,0,0,0,0,0,0,0,0,0,0,0,0,0,0,0,0,0,0],"sum_hessian":[1.568E4,1.0777E4,4.903E3,5.535E3,5.242E3,3.549E3,1.354E3,1.976E3,3.559E3,3.148E3,2.094E3,1.838E3,1.711E3,1.163E3,1.91E2,8.16E2,1.16E3,1.661E3,1.898E3,2.949E3,1.99E2,1.941E3,1.53E2,1.687E3,1.51E2,1.574E3,1.37E2,6.71E2,4.92E2,1.25E2,6.6E1,3.08E2,5.08E2,9.22E2,2.38E2,1.015E3,6.46E2,1.61E3,2.88E2,2.014E3,9.35E2,1.45E2,5.4E1,6.49E2,1.292E3,6.5E1,8.8E1,7.24E2,9.63E2,9.2E1,5.9E1,9.65E2,6.09E2,1.8E1,1.19E2,6.2E2,5.1E1,1.26E2,3.66E2,1.24E2,1E0,1E0,6.5E1,9.19E2,3E0,2.36E2,2E0,5.01E2,5.14E2,5.66E2,8E1,1.021E3,5.89E2,1.42E2,1.46E2,1.086E3,9.28E2,6.5E2,2.85E2,6.3E1,8.2E1,3.8E1,1.6E1,5.98E2,5.1E1,1.129E3,1.63E2,4.3E1,2.2E1,4.6E1,4.2E1,4.45E2,2.79E2,4.53E2,5.1E2,5.1E1,4.1E1,7E0,5.2E1,7.72E2,1.93E2,1.6E1,5.93E2,1E1,8E0,7.9E1,4E1,4E2,2.2E2,1E0,5E1,3E0,1.23E2,3.65E2,1E0,1.21E2,3E0,6.68E2,2.51E2,1E0,2E0,1E0,2.35E2,1E0,1E0,4.65E2,3.6E1,3E0,5.11E2,5.55E2,1.1E1,4E1,4E1,8.57E2,1.64E2,1.18E2,4.71E2,2.9E1,1.13E2,1.42E2,4E0,5.49E2,5.37E2,8.46E2,8.2E1,5.3E2,1.2E2,2.52E2,3.3E1,1E1,5.3E1,1.8E1,6.4E1,2.2E1,1.6E1,5E0,1.1E1,1.59E2,4.39E2,4.8E1,3E0,1.055E3,7.4E1,2.9E1,1.34E2,2.7E1,1.6E1,8E0,1.4E1,1.5E1,3.1E1,3.9E1,3E0,3.89E2,5.6E1,2.39E2,4E1,4.31E2,2.2E1,2.2E1,4.88E2,8E0,4.3E1,1.4E1,2.7E1,4E0,3E0,1E0,5.1E1,6E2,1.72E2,3E0,1.9E2,6E0,1E1,3.35E2,2.58E2,7E0,3E0,6E0,2E0,7.7E1,2E0,2E0,3.8E1,3.83E2,1.7E1,1E0,2.19E2,5E0,1.18E2,1.13E2,2.52E2,2E0,2.49E2,1.51E2,8.4E1,3.5E1,1E0,1E0,5.1E2,2.7E1,5.28E2,2E0,9E0,2.2E1,1.8E1,3.5E1,5E0,8.52E2,5E0,3.3E1,1.31E2,5.2E1,6.6E1,4.67E2,4E0,8E0,2.1E1,1.7E1,9.6E1,8.2E1,6E1,1E0,3E0,5.01E2,4.8E1,4.62E2,7.5E1,2.95E2,5.51E2,6.2E1,2E1,3.31E2,1.99E2,5.7E1,6.3E1,2E1,2.32E2,2.4E1,9E0,9E0,1E0,4.7E1,6E0,4E0,1.4E1,5.3E1,1.1E1,1.9E1,3E0,3E0,1.3E1,8E0,3E0,4.7E1,1.12E2,1.1E2,3.29E2,2.9E1,1.9E1,1E0,2E0,6.66E2,3.89E2,6.5E1,9E0,9E0,2E1,1.15E2,1.9E1,1.8E1,9E0,1.2E1,4E0,5E0,3E0,2E0,1.2E1,6E0,9E0,9E0,2.2E1,3.6E1,3E0,2E0,1E0,1.05E2,2.84E2,3.4E1,2.2E1,1.71E2,6.8E1,1E1,3E1,2.17E2,2.14E2,1.6E1,6E0,1E0,2.1E1,4.82E2,6E0,6E0,2E0,3E0,4E1,6E0,8E0,2E1,7E0,2E0,1E0,4.8E1,3E0,4.99E2,1.01E2,2E0,1.7E2,1E0,2E0,1.1E2,8E1,4E0,2E0,1E0,9E0,1.52E2,1.83E2,2.4E1,2.34E2,6E0,1E0,2E0,1E0,2E0,4E0,7.2E1,5E0,1E0,1E0,3.5E1,3E0,1E1,3.73E2,1.5E1,2E0,8.3E1,1.36E2,4E0,1E0,1E0,1.12E2],"tree_param":{"num_deleted":"0","num_feature":"19","num_nodes":"373","size_leaf_vector":"1"}},{"base_weights":[8.017338E-2,-1.0333749E1,2.8187704E1,-1.827077E1,-1.534803E0,1.9224335E1,4.8199226E1,-2.3596619E1,-1.4359083E1,-5.3071012E0,4.1608577E0,1.3261759E1,2.5085358E1,4.1783123E1,6.472135E1,-2.671098E1,-2.1102556E1,-1.7358442E1,-1.2612015E1,-6.726997E0,2.8777568E0,2.8211417E0,1.9323204E1,1.2035309E1,3.2232536E1,2.3265455E1,4.235125E1,3.997892E1,5.8374664E1,5.7879955E1,7.7766716E1,-1.4149768E0,-1.2742568E0,-2.219546E1,-1.843079E1,-1.8046656E1,-1.4409927E1,-1.3734442E1,-8.144411E0,-9.126694E0,-4.296543E0,1.1750044E1,-1.776004E0,1.0831554E0,5.8509674E0,4.1974382E0,2.4487036E1,9.526667E0,1.4293792E1,1.944357E1,3.8512283E1,2.0103727E1,2.7852234E1,3.4373436E1,4.9202484E1,3.6802288E1,4.674732E1,5.3270504E1,3.6915455E0,-1.8939844E-1,5.8149323E1,1.179203E0,3.9462376E0,-2.2913015E1,-2.0939388E1,-2.044243E1,-1.599233E1,-1.9659325E1,-1.7298616E1,-9.741726E0,-1.5888522E1,-1.535042E1,-1.2006009E1,-1.1150357E1,-5.019465E0,-9.968365E0,-5.7123823E0,-5.744025E0,-1.0330521E0,9.151506E-1,1.7062578E1,4.6078634E0,-3.303228E0,4.876243E-1,5.0372705E0,3.906002E0,9.071144E0,1.7051786E1,1.8429914E0,1.1607129E1,3.0648726E1,7.9970703E0,1.2783684E1,1.3722583E1,2.4184376E1,2.1627497E1,3.7616394E0,3.998188E0,4.1692894E1,2.1862741E1,1.7542873E1,1.6114374E1,2.8553007E1,3.6401024E1,1.4616409E1,2.9868303E1,5.328401E1,3.7248505E1,2.2222612E1,-2.7527052E-1,4.6961235E1,2.6832516E0,6.31474E-1,3.0448315E-1,5.833928E1,-2.3919813E1,-1.0802873E0,-2.1041197E1,-6.1854606E0,-1.091126E0,-1.8732496E1,-1.8588278E1,-1.3840984E1,-2.4759352E-1,-9.868126E-1,-1.7896156E1,-1.5480176E1,-1.26054735E1,-3.0975804E0,-1.7137085E1,-1.3767223E1,-1.6095615E1,-1.3720211E1,-1.3016519E1,-1.031805E1,1.1307123E1,-1.160593E1,1.3371364E0,-8.806266E0,-1.1227127E1,-9.003864E0,-6.213364E0,8.435464E0,-4.671387E0,-7.3464036E0,-2.6108027E0,1.1511864E1,-4.5500836E0,5.4693747E0,4.5836973E0,2.059578E1,9.192315E-1,9.679845E0,-6.449532E0,-1.0666636E0,8.5152763E-1,-5.3423314E0,1.7596355E1,3.9443786E0,5.0461183E0,2.1034274E0,8.075686E0,1.906253E1,3.1158122E-1,1.0066763E0,-1.0373983E1,3.1139348E0,1.4983351E1,4.7622833E0,3.395391E1,1.0753181E1,9.7418995E0,6.016992E0,1.4268672E1,7.5673976E0,1.2386333E1,1.7415783E1,2.6008682E1,2.1755996E0,2.5946808E1,1.0105899E1,3.0698404E-1,-1.4376317E-1,-1.612484E-1,3.0439064E-1,4.681813E1,2.2321543E1,1.8076283E1,2.3200985E1,1.7670012E1,-6.0713214E-1,5.756728E0,2.2559008E1,3.270255E1,2.7174627E1,1.4267557E1,3.770394E1,3.5E-1,1.2488548E0,5.7693195E-1,1.5900332E0,5.3802998E1,5.7957405E-1,3.6187584E1,4.456405E1,2.3321962E1,3.3374406E-2,2.380081E0,3.4630722E1,1.8039436E0,5.8848827E1,-1.2005793E0,1.9353285E-1,-6.5038437E-1,-1.0590626E0,-5.587734E-1,2.1961403E-1,-9.612529E-3,-9.540249E-1,-5.752117E-1,-9.4903415E-1,-7.5427085E-1,-4.7283944E-1,-9.0716803E-1,-7.411585E-1,-5.478459E-1,-8.216201E-1,-6.5988547E-1,-1.5488434E-2,-4.4463643E-1,1.7934206E-1,-6.1917257E-2,-8.63399E-1,-8.749774E-1,-5.078629E-1,-3.7650308E-1,-8.090853E-1,-6.9253856E-1,-4.449327E-2,-3.9429352E-1,-6.8205714E-1,-5.212996E-1,6.163828E-1,-2.9089928E-2,7.2124016E-1,-4.499015E-1,-6.505901E-1,1.198886E-2,7.6899755E-1,-1.99486E-1,-5.053627E-1,-1.2410823E-1,-5.731613E-1,-4.5510074E-1,1.4585401E-1,-1.7652063E-1,-3.5299608E-1,1.1172314E-2,6.9364506E-1,-3.002971E-1,-1.4938366E-1,-3.8888374E-1,-5.5449642E-2,2.8761968E-1,-1.5945737E-1,1.1278253E0,4.0058938E-1,-3.8590726E-1,3.64824E-1,-1.9501222E-2,5.1588523E-1,9.120197E-1,6.3577615E-2,5.9272194E-1,1.2733058E0,-1.0717598E-1,3.3692136E-1,6.187068E-1,-6.817403E-2,-5.4696817E-3,-3.62462E-1,-2.0517682E-1,9.723108E-2,4.843164E-3,1.4398396E-1,1.5293841E-1,-3.0467013E-1,1.767839E-1,1.0730495E0,4.4570604E-1,1.0005676E-1,2.6099179E-2,2.8584865E-1,4.2570356E-2,3.509151E-1,4.8115072E-1,2.584232E-1,1.2741357E0,2.7654067E-1,-4.2819645E-2,-6.630525E-1,3.0590755E-1,-1.12928666E-1,1.15634345E-1,8.459075E-1,-2.7226895E-1,5.7157093E-1,6.467206E-1,1.8682269E0,7.025518E-1,-3.0113146E-1,-1.4017244E-1,5.068812E-1,1.6362342E-1,4.2902088E-1,5.024171E-1,7.967553E-1,6.90917E-1,1.3044631E-1,7.241078E-1,5.569937E-1,-1.0487547E-1,8.7685966E-1,5.610259E-1,1.3777441E0,-1.8481337E-1,2.682489E-1,4.995148E-1,1.5465984E0,1.9716073E-2,5.6352776E-1,1.4035966E0,2.5256002E0,-2.9020373E-2,1.3269149E0,-2.9413214E-1,9.1565603E-1,-2.1160603E-2,1.1670393E0,9.360008E-1,6.374993E-1,-2.059604E-1,4.4123197E-1,1.2624186E0,-5.4842826E-2,1.3835423E0,1.7577378E0,1.963276E-1,1.3612086E0,-6.603384E-2,9.247393E-1,1.3723505E0,2.1055057E0,2.772179E0,1.5172021E0,1.780016E0,2.3999717E0,2.2669604E0,1.041336E0,1.1133366E-1,1.218511E0,5.13306E-1,1.8597463E0,1.4522228E0,2.955452E0],"categories":[],"categories_nodes":[],"categories_segments":[],"categories_sizes":[],"default_left":[0,0,0,0,0,0,0,0,0,0,0,0,0,0,0,0,0,0,0,0,0,0,0,0,0,0,0,0,0,0,0,0,0,0,0,0,0,0,0,0,0,0,0,0,0,0,0,0,0,0,0,0,0,0,0,0,0,0,0,0,0,0,0,0,0,0,0,0,0,0,0,0,0,0,0,0,0,0,0,0,0,0,0,0,0,0,0,0,0,0,0,0,0,0,0,0,0,0,0,0,0,0,0,0,0,0,0,0,0,0,0,0,0,0,0,0,0,0,0,0,0,0,0,0,0,0,0,0,0,0,0,0,0,0,0,0,0,0,0,0,0,0,0,0,0,0,0,0,0,0,0,0,0,0,0,0,0,0,0,0,0,0,0,0,0,0,0,0,0,0,0,0,0,0,0,0,0,0,0,0,0,0,0,0,0,0,0,0,0,0,0,0,0,0,0,0,0,0,0,0,0,0,0,0,0,0,0,0,0,0,0,0,0,0,0,0,0,0,0,0,0,0,0,0,0,0,0,0,0,0,0,0,0,0,0,0,0,0,0,0,0,0,0,0,0,0,0,0,0,0,0,0,0,0,0,0,0,0,0,0,0,0,0,0,0,0,0,0,0,0,0,0,0,0,0,0,0,0,0,0,0,0,0,0,0,0,0,0,0,0,0,0,0,0,0,0,0,0,0,0,0,0,0,0,0,0,0,0,0,0,0,0,0,0,0,0,0,0,0,0,0,0,0,0,0,0,0,0,0,0,0,0,0,0,0,0,0,0,0,0,0,0,0,0,0,0,0,0,0,0,0,0,0,0,0,0,0,0,0,0,0,0,0,0,0],"id":1,"left_children":[1,3,5,7,9,11,13,15,17,19,21,23,25,27,29,31,33,35,37,39,41,43,45,47,49,51,53,55,57,59,61,-1,-1,63,65,67,69,71,73,75,77,79,81,83,85,87,89,91,93,95,97,99,101,103,105,107,109,111,-1,-1,113,-1,-1,115,117,119,121,123,125,127,129,131,133,135,137,139,141,143,145,147,149,151,153,155,157,159,161,163,165,167,169,171,173,175,177,179,181,183,185,187,189,191,193,195,197,199,201,203,205,-1,207,-1,-1,-1,209,211,-1,213,215,-1,217,219,221,-1,-1,223,225,227,229,231,233,235,237,239,241,243,245,247,249,251,253,255,257,259,261,263,265,267,269,271,273,275,277,279,281,283,285,287,289,291,293,295,297,-1,-1,299,301,303,305,307,309,311,313,315,317,319,321,323,325,327,329,-1,-1,-1,-1,331,333,335,337,339,-1,341,343,345,347,349,351,-1,-1,-1,-1,353,-1,355,357,359,-1,-1,361,-1,363,-1,-1,-1,-1,-1,-1,-1,-1,-1,-1,-1,-1,-1,-1,-1,-1,-1,-1,-1,-1,-1,-1,-1,-1,-1,-1,-1,-1,-1,-1,-1,-1,-1,-1,-1,-1,-1,-1,-1,-1,-1,-1,-1,-1,-1,-1,-1,-1,-1,-1,-1,-1,-1,-1,-1,-1,-1,-1,-1,-1,-1,-1,-1,-1,-1,-1,-1,-1,-1,-1,-1,-1,-1,-1,-1,-1,-1,-1,-1,-1,-1,-1,-1,-1,-1,-1,-1,-1,-1,-1,-1,-1,-1,-1,-1,-1,-1,-1,-1,-1,-1,-1,-1,-1,-1,-1,-1,-1,-1,-1,-1,-1,-1,-1,-1,-1,-1,-1,-1,-1,-1,-1,-1,-1,-1,-1,-1,-1,-1,-1,-1,-1,-1,-1,-1,-1,-1,-1,-1,-1,-1,-1,-1,-1,-1,-1,-1,-1,-1,-1,-1,-1,-1,-1],"loss_changes":[4.6049065E6,8.0163575E5,7.619365E5,1.253885E5,1.170119E5,1.02376E5,1.36696E5,1.927425E4,1.8027062E4,3.809186E4,4.4025215E4,3.3558234E4,4.5551062E4,2.6104E4,2.816375E4,1.483125E3,3.746125E3,2.3352812E3,1.0940219E4,1.6244703E4,2.0046277E4,1.0498927E4,1.3644031E4,7.637203E3,6.3185938E3,1.8901938E4,5.9608438E3,1.677025E4,3.2460625E3,4.2734375E3,5.8563125E3,0E0,0E0,4.26E2,1.7284062E3,9.0609375E2,1.5501094E3,4.7315938E3,4.1241035E3,3.9777734E3,6.5554863E3,9.597029E3,3.1253418E3,2.9857827E3,4.5178633E3,1.360758E3,1.004068E4,3.150961E3,3.7358281E3,9.8033984E2,6.2003125E3,3.211125E3,4.0228438E3,2.1919688E3,4.1691562E3,3.0105625E3,3.28775E3,4.7667188E2,0E0,0E0,2.0478125E3,0E0,0E0,3.110625E2,4.3614062E2,1.2453125E2,8.2616797E2,2.643203E2,4.9878125E2,1.1406372E3,2.5670312E2,8.797969E2,1.3240625E3,2.4434375E3,5.3074355E3,1.2647422E3,2.037E3,1.6191426E3,8.501352E3,1.4187206E3,4.8437188E3,1.1510394E3,1.808644E3,2.3467297E3,2.2090635E3,9.2447656E2,2.5613164E3,1.0794995E2,6.5338727E2,9.4547266E2,5.4216406E3,1.4857227E3,1.4954727E3,3.154914E3,1.4691445E3,1.0814492E3,9.656735E1,1.1019512E2,4.2169297E3,1.957125E3,1.4600234E3,2.0729248E3,2.0455E3,1.2211797E3,4.564502E2,1.6435645E2,6.529531E2,2.819E3,4.5836426E2,0E0,4.835625E2,0E0,0E0,0E0,6.2175E2,9.753594E2,0E0,1.4528125E2,2.6021783E2,0E0,6.9315234E2,1.7923828E1,4.5748242E2,0E0,0E0,1.344375E2,6.1246875E2,3.0903564E2,8.066411E2,2.1377734E2,8.192959E2,3.3239062E2,4.7513672E2,1.5941328E3,9.2296875E2,1.9372162E2,6.968574E2,1.2753431E3,8.2441895E2,9.7084766E2,7.7771875E2,5.905908E2,4.4342346E2,1.2830742E3,1.0243379E3,1.8611704E3,1.6748218E3,1.0321119E3,8.8468134E2,1.1528635E3,3.4019844E3,6.738856E2,7.904741E2,5.417246E2,1.3980029E3,1.5915178E3,4.2877686E2,6.3053296E2,1.4694038E3,8.4075586E2,1.0893518E3,1.0748721E3,1.9440869E3,0E0,0E0,9.855496E1,6.1100464E2,6.7181396E2,1.1514689E3,4.8934297E3,8.591626E2,1.200043E3,1.4634229E3,9.651406E2,1.4517148E3,1.1579062E3,4.6085156E2,4.9111133E2,9.47408E1,1.2023506E3,9.735162E1,0E0,0E0,0E0,0E0,1.4211172E3,1.2708379E3,8.283789E2,1.1426875E3,1.4609531E3,0E0,4.605294E2,1.3000791E3,5.449219E2,3.434375E2,3.5390076E2,1.42025E3,0E0,0E0,0E0,0E0,5.498281E2,0E0,1.787375E3,3.0695312E2,3.658877E2,0E0,0E0,6.8024023E2,0E0,1.0575E2,0E0,0E0,0E0,0E0,0E0,0E0,0E0,0E0,0E0,0E0,0E0,0E0,0E0,0E0,0E0,0E0,0E0,0E0,0E0,0E0,0E0,0E0,0E0,0E0,0E0,0E0,0E0,0E0,0E0,0E0,0E0,0E0,0E0,0E0,0E0,0E0,0E0,0E0,0E0,0E0,0E0,0E0,0E0,0E0,0E0,0E0,0E0,0E0,0E0,0E0,0E0,0E0,0E0,0E0,0E0,0E0,0E0,0E0,0E0,0E0,0E0,0E0,0E0,0E0,0E0,0E0,0E0,0E0,0E0,0E0,0E0,0E0,0E0,0E0,0E0,0E0,0E0,0E0,0E0,0E0,0E0,0E0,0E0,0E0,0E0,0E0,0E0,0E0,0E0,0E0,0E0,0E0,0E0,0E0,0E0,0E0,0E0,0E0,0E0,0E0,0E0,0E0,0E0,0E0,0E0,0E0,0E0,0E0,0E0,0E0,0E0,0E0,0E0,0E0,0E0,0E0,0E0,0E0,0E0,0E0,0E0,0E0,0E0,0E0,0E0,0E0,0E0,0E0,0E0,0E0,0E0,0E0,0E0,0E0,0E0,0E0,0E0,0E0,0E0,0E0,0E0,0E0,0E0,0E0,0E0,0E0,0E0,0E0,0E0,0E0,0E0,0E0,0E0,0E0],"parents":[2147483647,0,0,1,1,2,2,3,3,4,4,5,5,6,6,7,7,8,8,9,9,10,10,11,11,12,12,13,13,14,14,15,15,16,16,17,17,18,18,19,19,20,20,21,21,22,22,23,23,24,24,25,25,26,26,27,27,28,28,29,29,30,30,33,33,34,34,35,35,36,36,37,37,38,38,39,39,40,40,41,41,42,42,43,43,44,44,45,45,46,46,47,47,48,48,49,49,50,50,51,51,52,52,53,53,54,54,55,55,56,56,57,57,60,60,63,63,64,64,65,65,66,66,67,67,68,68,69,69,70,70,71,71,72,72,73,73,74,74,75,75,76,76,77,77,78,78,79,79,80,80,81,81,82,82,83,83,84,84,85,85,86,86,87,87,88,88,89,89,90,90,91,91,92,92,93,93,94,94,95,95,96,96,97,97,98,98,99,99,100,100,101,101,102,102,103,103,104,104,105,105,106,106,107,107,108,108,110,110,114,114,115,115,117,117,118,118,120,120,121,121,122,122,125,125,126,126,127,127,128,128,129,129,130,130,131,131,132,132,133,133,134,134,135,135,136,136,137,137,138,138,139,139,140,140,141,141,142,142,143,143,144,144,145,145,146,146,147,147,148,148,149,149,150,150,151,151,152,152,153,153,154,154,155,155,156,156,157,157,158,158,159,159,160,160,161,161,162,162,165,165,166,166,167,167,168,168,169,169,170,170,171,171,172,172,173,173,174,174,175,175,176,176,177,177,178,178,179,179,180,180,185,185,186,186,187,187,188,188,189,189,191,191,192,192,193,193,194,194,195,195,196,196,201,201,203,203,204,204,205,205,208,208,210,210],"right_children":[2,4,6,8,10,12,14,16,18,20,22,24,26,28,30,32,34,36,38,40,42,44,46,48,50,52,54,56,58,60,62,-1,-1,64,66,68,70,72,74,76,78,80,82,84,86,88,90,92,94,96,98,100,102,104,106,108,110,112,-1,-1,114,-1,-1,116,118,120,122,124,126,128,130,132,134,136,138,140,142,144,146,148,150,152,154,156,158,160,162,164,166,168,170,172,174,176,178,180,182,184,186,188,190,192,194,196,198,200,202,204,206,-1,208,-1,-1,-1,210,212,-1,214,216,-1,218,220,222,-1,-1,224,226,228,230,232,234,236,238,240,242,244,246,248,250,252,254,256,258,260,262,264,266,268,270,272,274,276,278,280,282,284,286,288,290,292,294,296,298,-1,-1,300,302,304,306,308,310,312,314,316,318,320,322,324,326,328,330,-1,-1,-1,-1,332,334,336,338,340,-1,342,344,346,348,350,352,-1,-1,-1,-1,354,-1,356,358,360,-1,-1,362,-1,364,-1,-1,-1,-1,-1,-1,-1,-1,-1,-1,-1,-1,-1,-1,-1,-1,-1,-1,-1,-1,-1,-1,-1,-1,-1,-1,-1,-1,-1,-1,-1,-1,-1,-1,-1,-1,-1,-1,-1,-1,-1,-1,-1,-1,-1,-1,-1,-1,-1,-1,-1,-1,-1,-1,-1,-1,-1,-1,-1,-1,-1,-1,-1,-1,-1,-1,-1,-1,-1,-1,-1,-1,-1,-1,-1,-1,-1,-1,-1,-1,-1,-1,-1,-1,-1,-1,-1,-1,-1,-1,-1,-1,-1,-1,-1,-1,-1,-1,-1,-1,-1,-1,-1,-1,-1,-1,-1,-1,-1,-1,-1,-1,-1,-1,-1,-1,-1,-1,-1,-1,-1,-1,-1,-1,-1,-1,-1,-1,-1,-1,-1,-1,-1,-1,-1,-1,-1,-1,-1,-1,-1,-1,-1,-1,-1,-1,-1,-1,-1,-1,-1,-1,-1,-1],"split_conditions":[4.42E1,2.162E1,7.267E1,1.197E1,3.317E1,5.538E1,9.628E1,7.1E0,1.565E1,6.81E1,8.56E1,8.977E1,8.15E1,9.633E1,1.1482E2,4.3E0,1.793E1,6.158E1,6.29E1,2.69E1,2.59E1,3.95E1,3.03E1,4.017E1,3.217E1,6.392E1,6.73E1,8.612E1,9.897E1,8E-1,1.43E1,-1.4149768E0,-1.2742568E0,4.218E1,4.288E1,1.288E1,9.38E0,2.085E1,2.618E1,3.8E1,3.58E1,3.195E1,1.43E1,5.803E1,4.19E1,9.38E0,3.13E1,5.105E1,5.823E1,2.045E1,1.927E1,2.102E1,1.945E1,5.595E1,6.222E1,8.56E1,3.29E1,2.281E1,3.6915455E0,-1.8939844E-1,3.53E1,1.179203E0,3.9462376E0,9.82E0,2.403E1,1.025E1,6.038E1,5.17E0,1.482E1,1.472E1,2.195E1,1.927E1,1.96E1,4.03E0,2.107E1,1.995E1,8.362E1,4.002E1,5.478E1,2.462E1,8.362E1,1.039E2,3.085E1,9.358E1,1.867E1,4.42E1,6.017E1,1.039E2,9.85E0,3.483E1,8.46E1,3.23E1,6.05E1,5.202E1,6.45E1,7.802E1,8.31E1,2.799E1,1.746E1,5.745E1,1.1482E2,4.25E1,1.128E1,1.818E1,1.472E1,1.848E1,1.5965E2,6.017E1,1.258E2,-2.7527052E-1,5.647E1,2.6832516E0,6.31474E-1,3.0448315E-1,1.927E1,2.785E1,-1.0802873E0,4.288E1,1.0558E2,-1.091126E0,6E-2,2.75E0,3.735E1,-2.4759352E-1,-9.868126E-1,6.575E1,1.305E1,1.5023E2,3.13E1,-3.62E0,7.685E1,-3.62E0,2.225E2,1.36E1,1.3138E2,1.532E1,2.56E1,4.42E1,-1.59E0,7.82E0,2.3813E2,7.52E0,2.255E1,3.01E1,8.818E1,2.08E1,5.05E0,2.017E1,8.56E1,1.268E1,2.58E1,3.01E1,1.777E1,3.44E1,2.738E1,3.767E1,7.46E0,1.662E1,1.677E1,1.63E1,6.81E1,3.578E1,4.095E1,3.1158122E-1,1.0066763E0,7.83E0,4.698E1,2.191E1,5.478E1,8.262E1,4.158E1,4.03E0,3.612E1,2.765E1,3.217E1,4.615E1,1.793E1,8.25E0,1.0558E2,1.777E1,6.29E1,3.0698404E-1,-1.4376317E-1,-1.612484E-1,3.0439064E-1,1.0222E2,2.138E1,4.54E0,1.565E1,6.81E1,-6.0713214E-1,2.045E1,9.05E1,4.6E0,-3.62E0,5.22E0,3.542E1,3.5E-1,1.2488548E0,5.7693195E-1,1.5900332E0,2.01E0,5.7957405E-1,1.1482E2,1.5023E2,2.7E0,3.3374406E-2,2.380081E0,2.88E0,1.8039436E0,8E-1,-1.2005793E0,1.9353285E-1,-6.5038437E-1,-1.0590626E0,-5.587734E-1,2.1961403E-1,-9.612529E-3,-9.540249E-1,-5.752117E-1,-9.4903415E-1,-7.5427085E-1,-4.7283944E-1,-9.0716803E-1,-7.411585E-1,-5.478459E-1,-8.216201E-1,-6.5988547E-1,-1.5488434E-2,-4.4463643E-1,1.7934206E-1,-6.1917257E-2,-8.63399E-1,-8.749774E-1,-5.078629E-1,-3.7650308E-1,-8.090853E-1,-6.9253856E-1,-4.449327E-2,-3.9429352E-1,-6.8205714E-1,-5.212996E-1,6.163828E-1,-2.9089928E-2,7.2124016E-1,-4.499015E-1,-6.505901E-1,1.198886E-2,7.6899755E-1,-1.99486E-1,-5.053627E-1,-1.2410823E-1,-5.731613E-1,-4.5510074E-1,1.4585401E-1,-1.7652063E-1,-3.5299608E-1,1.1172314E-2,6.9364506E-1,-3.002971E-1,-1.4938366E-1,-3.8888374E-1,-5.5449642E-2,2.8761968E-1,-1.5945737E-1,1.1278253E0,4.0058938E-1,-3.8590726E-1,3.64824E-1,-1.9501222E-2,5.1588523E-1,9.120197E-1,6.3577615E-2,5.9272194E-1,1.2733058E0,-1.0717598E-1,3.3692136E-1,6.187068E-1,-6.817403E-2,-5.4696817E-3,-3.62462E-1,-2.0517682E-1,9.723108E-2,4.843164E-3,1.4398396E-1,1.5293841E-1,-3.0467013E-1,1.767839E-1,1.0730495E0,4.4570604E-1,1.0005676E-1,2.6099179E-2,2.8584865E-1,4.2570356E-2,3.509151E-1,4.8115072E-1,2.584232E-1,1.2741357E0,2.7654067E-1,-4.2819645E-2,-6.630525E-1,3.0590755E-1,-1.12928666E-1,1.15634345E-1,8.459075E-1,-2.7226895E-1,5.7157093E-1,6.467206E-1,1.8682269E0,7.025518E-1,-3.0113146E-1,-1.4017244E-1,5.068812E-1,1.6362342E-1,4.2902088E-1,5.024171E-1,7.967553E-1,6.90917E-1,1.3044631E-1,7.241078E-1,5.569937E-1,-1.0487547E-1,8.7685966E-1,5.610259E-1,1.3777441E0,-1.8481337E-1,2.682489E-1,4.995148E-1,1.5465984E0,1.9716073E-2,5.6352776E-1,1.4035966E0,2.5256002E0,-2.9020373E-2,1.3269149E0,-2.9413214E-1,9.1565603E-1,-2.1160603E-2,1.1670393E0,9.360008E-1,6.374993E-1,-2.059604E-1,4.4123197E-1,1.2624186E0,-5.4842826E-2,1.3835423E0,1.7577378E0,1.963276E-1,1.3612086E0,-6.603384E-2,9.247393E-1,1.3723505E0,2.1055057E0,2.772179E0,1.5172021E0,1.780016E0,2.3999717E0,2.2669604E0,1.041336E0,1.1133366E-1,1.218511E0,5.13306E-1,1.8597463E0,1.4522228E0,2.955452E0],"split_indices":[13,13,13,13,13,13,13,13,13,10,9,9,9,9,13,13,18,10,10,13,11,13,18,18,17,13,18,13,18,10,18,0,0,10,10,18,15,18,18,18,18,18,15,18,18,16,17,13,8,16,10,12,18,15,8,12,14,3,0,0,14,0,0,13,14,13,0,14,13,3,18,13,13,15,11,18,9,12,9,13,8,10,18,12,15,14,8,10,18,14,12,12,14,13,12,11,1,0,3,13,16,11,11,0,3,15,1,9,15,0,12,0,0,0,18,14,0,10,0,0,0,15,18,0,0,11,15,8,17,6,8,6,0,14,9,0,17,16,6,15,0,12,13,13,11,14,11,3,8,14,13,13,14,11,13,13,0,14,11,18,16,10,15,0,0,3,17,0,11,8,13,17,9,1,17,14,14,16,0,18,8,0,0,0,0,9,12,3,18,12,0,17,1,9,6,3,12,0,0,0,0,6,0,17,10,9,0,0,9,0,9,0,0,0,0,0,0,0,0,0,0,0,0,0,0,0,0,0,0,0,0,0,0,0,0,0,0,0,0,0,0,0,0,0,0,0,0,0,0,0,0,0,0,0,0,0,0,0,0,0,0,0,0,0,0,0,0,0,0,0,0,0,0,0,0,0,0,0,0,0,0,0,0,0,0,0,0,0,0,0,0,0,0,0,0,0,0,0,0,0,0,0,0,0,0,0,0,0,0,0,0,0,0,0,0,0,0,0,0,0,0,0,0,0,0,0,0,0,0,0,0,0,0,0,0,0,0,0,0,0,0,0,0,0,0,0,0,0,0,0,0,0,0,0,0,0,0,0,0,0,0,0,0,0,0],"split_type":[0,0,0,0,0,0,0,0,0,0,0,0,0,0,0,0,0,0,0,0,0,0,0,0,0,0,0,0,0,0,0,0,0,0,0,0,0,0,0,0,0,0,0,0,0,0,0,0,0,0,0,0,0,0,0,0,0,0,0,0,0,0,0,0,0,0,0,0,0,0,0,0,0,0,0,0,0,0,0,0,0,0,0,0,0,0,0,0,0,0,0,0,0,0,0,0,0,0,0,0,0,0,0,0,0,0,0,0,0,0,0,0,0,0,0,0,0,0,0,0,0,0,0,0,0,0,0,0,0,0,0,0,0,0,0,0,0,0,0,0,0,0,0,0,0,0,0,0,0,0,0,0,0,0,0,0,0,0,0,0,0,0,0,0,0,0,0,0,0,0,0,0,0,0,0,0,0,0,0,0,0,0,0,0,0,0,0,0,0,0,0,0,0,0,0,0,0,0,0,0,0,0,0,0,0,0,0,0,0,0,0,0,0,0,0,0,0,0,0,0,0,0,0,0,0,0,0,0,0,0,0,0,0,0,0,0,0,0,0,0,0,0,0,0,0,0,0,0,0,0,0,0,0,0,0,0,0,0,0,0,0,0,0,0,0,0,0,0,0,0,0,0,0,0,0,0,0,0,0,0,0,0,0,0,0,0,0,0,0,0,0,0,0,0,0,0,0,0,0,0,0,0,0,0,0,0,0,0,0,0,0,0,0,0,0,0,0,0,0,0,0,0,0,0,0,0,0,0,0,0,0,0,0,0,0,0,0,0,0,0,0,0,0,0,0,0,0,0,0,0,0,0,0,0,0,0,0,0,0,0,0,0,0,0,0],"sum_hessian":[1.573E4,1.1478E4,4.252E3,6.034E3,5.444E3,2.938E3,1.314E3,2.553E3,3.481E3,3.275E3,2.169E3,1.458E3,1.48E3,9.49E2,3.65E2,1.131E3,1.422E3,1.278E3,2.203E3,2.791E3,4.84E2,1.994E3,1.75E2,1.371E3,8.7E1,1.341E3,1.39E2,8.59E2,9E1,2.43E2,1.22E2,4.83E2,6.48E2,1.004E3,4.18E2,1.032E3,2.46E2,1.759E3,4.44E2,1.403E3,1.388E3,1.66E2,3.18E2,1.268E3,7.26E2,4.5E1,1.3E2,6.52E2,7.19E2,3E1,5.7E1,7.97E2,5.44E2,6.7E1,7.2E1,5.89E2,2.7E2,7.1E1,1.9E1,1E0,2.42E2,3E0,1.19E2,6.28E2,3.76E2,2.25E2,1.93E2,3.19E2,7.13E2,6.1E1,1.85E2,9.05E2,8.54E2,2.25E2,2.19E2,1.124E3,2.79E2,9.61E2,4.27E2,5.5E1,1.11E2,6.1E1,2.57E2,1.103E3,1.65E2,4.54E2,2.72E2,6E0,3.9E1,4.3E1,8.7E1,4.46E2,2.06E2,6.82E2,3.7E1,2.6E1,4E0,5E0,5.2E1,4.68E2,3.29E2,3.2E1,5.12E2,6E1,7E0,1.4E1,5.8E1,5.7E2,1.9E1,1E0,2.69E2,7E1,1E0,1E0,2.41E2,3.45E2,2.83E2,3.73E2,3E0,1.18E2,1.07E2,8.4E1,1.09E2,2E0,3.17E2,5.3E2,1.83E2,4.2E1,1.9E1,1.12E2,7.3E1,6.15E2,2.9E2,5.3E2,3.24E2,4E0,2.21E2,8.2E1,1.37E2,4.83E2,6.41E2,2.7E2,9E0,5.78E2,3.83E2,3.8E2,4.7E1,2.5E1,3E1,2.5E1,8.6E1,3.6E1,2.5E1,1.06E2,1.51E2,1.039E3,6.4E1,1.2E1,1.53E2,2.77E2,1.77E2,2.49E2,2.3E1,2E0,4E0,3E0,3.6E1,2.8E1,1.5E1,7.4E1,1.3E1,2.35E2,2.11E2,1.59E2,4.7E1,5.04E2,1.78E2,3.4E1,3E0,1.8E1,8E0,3E0,1E0,1E0,4E0,4E1,1.2E1,1.26E2,3.42E2,3.28E2,1E0,1.3E1,1.9E1,1.22E2,3.9E2,4E0,5.6E1,5E0,2E0,2E0,1.2E1,5.7E1,1E0,5.03E2,6.7E1,1.8E1,1E0,2.53E2,1.6E1,7E0,2.34E2,3.44E2,1E0,8E0,3.65E2,2E0,1E0,2E0,1.05E2,6E0,7.8E1,8.3E1,2.6E1,4.86E2,4.4E1,3.4E1,1.49E2,4E1,2E0,1E1,9E0,1E0,1.11E2,3.4E1,3.9E1,7E0,6.08E2,2.87E2,3E0,5.9E1,4.71E2,3.23E2,1E0,1E0,3E0,8E1,1.41E2,7.7E1,5E0,3E1,1.07E2,1.3E1,4.7E2,6.36E2,5E0,6.6E1,2.04E2,4E0,5E0,3.21E2,2.57E2,3.58E2,2.5E1,2.4E1,3.56E2,1E1,3.7E1,2E1,5E0,1.4E1,1.6E1,4E0,2.1E1,3.2E1,5.4E1,2.4E1,1.2E1,2E1,5E0,1.2E1,9.4E1,7.5E1,7.6E1,7.58E2,2.81E2,5E0,5.9E1,3E0,9E0,4.2E1,1.11E2,3.6E1,2.41E2,1.42E2,3.5E1,1.61E2,8.8E1,1.5E1,8E0,1E0,2E0,2.3E1,1.3E1,4E0,2.4E1,6E0,9E0,1.1E1,6.3E1,1.1E1,2E0,7E0,2.28E2,1.03E2,1.08E2,4.7E1,1.12E2,2E1,2.7E1,1.84E2,3.2E2,1E0,1.77E2,4E0,3E1,1E0,2E0,5E0,1.3E1,1E0,7E0,8E0,3.2E1,2E0,1E1,1E0,1.25E2,2E0,3.4E2,2.68E2,6E1,3E0,1E1,1.7E1,2E0,4.4E1,7.8E1,1E0,3.89E2,1E0,3E0,1.9E1,3.7E1,5.2E1,5E0,4.83E2,2E1,6.4E1,3E0,1E0,1.7E1,2E0,1.4E1,3E0,2.31E2],"tree_param":{"num_deleted":"0","num_feature":"19","num_nodes":"365","size_leaf_vector":"1"}},{"base_weights":[-1.39835905E-2,-1.017036E1,2.5822292E1,-1.7757277E1,-2.4162908E0,1.7430859E1,4.5323826E1,-2.1982544E1,-1.3679379E1,-6.617477E0,2.3578327E0,1.2246489E1,2.3336576E1,3.7254948E1,5.6761612E1,-2.5494919E1,-1.9769606E1,-1.5211349E1,-1.1297163E1,-7.3662E0,5.4609323E0,1.0108485E0,1.3295578E1,1.1092852E1,3.183785E1,2.1648672E1,3.8636757E1,3.5428936E1,5.4744E1,5.167727E1,7.423478E1,-1.334836E0,-1.1994215E0,-2.0727037E1,-1.7539307E1,-1.671054E1,-1.3815139E1,-1.2726087E1,-7.9744744E0,-8.628072E0,-4.1163335E0,1.1460566E1,-1.9940242E-1,-1.4829165E0,3.3922248E0,6.136428E0,2.5147844E1,9.195307E0,1.4226732E1,2.3538586E1,4.3863434E1,1.7965523E1,2.5006544E1,4.312288E1,2.7664871E1,3.1719261E1,3.967691E1,3.3990845E1,5.7543045E1,-1.8466344E-1,5.1815918E1,7.485818E1,-1.4323235E-2,-2.167913E1,-1.9422747E1,-1.8437023E1,-1.4781781E1,-1.7137527E1,-1.3972321E1,-1.47855015E1,-1.2008063E1,-1.4497225E1,-1.10904E1,-1.0454452E1,-5.1237936E0,-1.0083802E1,-6.6736493E0,-5.2170525E0,6.9488325E0,4.104428E0,1.3847462E1,-3.380769E0,9.215047E0,-2.831334E0,3.67913E-1,8.7046015E-1,4.4016905E0,1.143284E1,3.3015635E0,2.8589014E1,1.4417792E1,7.699468E0,1.2997108E1,1.470263E1,5.5431576E0,4.947002E0,2.699342E1,5.5108765E1,2.95565E1,1.6319344E1,2.0283646E1,2.0641575E1,2.621806E1,3.4994125E1,5.0703358E1,2.0740738E0,3.0172098E1,2.0420118E1,3.2123238E1,3.980689E1,9.6146566E-1,1.8178223E0,2.5837097E-1,8.2530004E-1,5.794519E1,4.4509293E1,5.307944E1,1.0581496E0,7.558892E1,-2.2471926E1,-2.0373545E1,-9.894008E-1,-1.572584E1,-4.489343E0,-1.8533794E1,-1.5803222E1,-4.970735E0,-4.833205E0,-1.7199173E1,-8.176095E0,-1.4991843E1,-1.525632E1,-1.3398659E1,-5.088034E0,-1.2825694E1,-1.4540921E1,4.831028E-2,-7.6791773E0,-1.2145599E1,-1.0882376E1,2.6666975E-1,-1.9025482E0,-8.928754E0,-1.1262066E1,-8.8393755E0,-7.225873E0,-3.3776028E0,-7.7394643E0,-3.1156805E0,-1.9988605E-1,9.756171E0,-1.9976391E0,1.0388099E1,1.9846039E0,1.6048292E1,-4.3298287E0,7.147818E0,2.0624474E1,4.0723842E-1,-2.0113668E0,-5.1222224E0,1.5162399E0,-2.012071E0,1.5673631E0,-4.878972E0,2.879679E0,6.13219E0,7.516072E0,2.4324898E1,-5.867788E0,4.693875E0,1.2723122E1,3.176173E1,8.1445465E0,2.9082838E1,7.8846707E0,-5.8679557E0,1.1669221E1,2.6923313E1,1.2695249E1,1.6078E1,-2.8156534E-1,1.008914E1,-7.700887E-1,9.2717886E-1,2.8618961E1,-6.387503E0,3.001611E0,1.0818884E0,3.9805042E1,1.7377161E1,1.720487E1,1.0443098E1,2.0806648E1,5.3894205E0,-9.506543E-1,2.1382471E1,2.388953E1,2.8111444E1,3.6186142E1,3.8598316E0,4.024819E1,2.9958575E0,6.736266E0,-4.143674E-1,1.2554951E-1,3.0816973E1,1.0054711E1,2.736491E1,3.3407593E1,2.7832487E1,3.986027E1,5.641228E-1,1.2101152E0,2.9339406E0,4.494874E1,3.6567354E-1,1.9446747E1,5.330888E1,3.8372192E0,4.122951E1,-1.1248797E0,-2.967753E-1,-1.0257198E0,-5.4690838E-2,-8.3117115E-1,2.088316E-1,3.6145458E-1,-5.402593E-1,-9.305954E-1,-3.210509E-1,-8.0286187E-1,-2.720852E-2,1.6867869E-1,-4.9906522E-1,-2.7882043E-1,-4.650984E-2,-8.936376E-1,-8.145732E-1,-4.798729E-1,4.707451E-1,3.904098E-2,-7.660851E-1,-1.7163177E-1,-7.63785E-1,-6.757173E-1,1.1910267E-1,-4.9116156E-1,7.224572E-2,-6.891482E-1,-5.5424494E-1,-3.684101E-1,-7.3384136E-1,-4.085732E-1,5.562998E-1,1.3655345E-1,-6.124527E-1,-7.946729E-1,-4.9737358E-1,-1.2661748E-1,2.887909E-1,-1.440831E-1,4.1855928E-1,-5.1243037E-1,8.711305E-2,-5.972362E-1,-4.6540943E-1,-4.726077E-1,-3.52256E-1,-4.272499E-1,-3.2443067E-1,-3.2531175E-1,5.7780626E-4,-4.082102E-1,-6.313819E-2,-1.9303612E-1,1.06639385E-1,-1.3854657E-1,5.7098943E-1,6.141236E-1,1.4371096E-1,-4.1271934E-1,1.08126655E-1,2.1950756E-1,8.3538026E-1,-2.6128826E-1,7.954595E-1,2.33688E-1,8.5678846E-1,4.7483775E-1,-2.4694219E-1,-1.4089654E-1,6.417588E-1,1.2956693E0,-1.770579E-2,-3.4371096E-1,2.6081476E-1,-1.810468E-1,-4.1287445E-2,-2.7486908E-1,4.253787E-1,2.4858935E-2,1.9427109E-1,-1.6702434E-1,1.3379475E-1,1.2042909E-1,-8.444316E-2,-1.9242743E-1,-6.208915E-1,2.320317E-1,4.2317886E-2,4.0551087E-1,2.0913501E-1,6.6308796E-1,9.616404E-2,4.3549162E-1,1.6016089E0,1.8356924E-1,-4.1757748E-1,2.9548666E-2,3.9334857E-1,7.9196453E-1,-2.5106594E-1,7.291653E-1,1.7109133E0,1.200544E0,2.0831099E-1,1.8435653E0,6.038272E-1,3.4828418E-1,4.8973784E-1,-5.7896996E-1,-8.829972E-2,7.909846E-1,5.2658767E-1,1.4768958E0,-1.7667325E-2,6.411773E-1,-4.1711497E-1,1.1787285E0,7.741298E-1,8.9182013E-1,-2.220488E-1,5.641136E-1,-2.548526E-1,2.1210888E-1,-3.4214497E-1,1.6986084E0,8.9017755E-1,-2.5549222E-2,-4.5351353E-1,2.2399597E0,7.441837E-1,5.211957E-2,1.0665277E0,9.6222395E-1,7.5611395E-1,6.0086215E-1,-3.2212397E-1,6.6232485E-1,1.0819954E0,-5.733069E-1,7.125625E-1,-3.2811186E-1,6.7768145E-1,9.101923E-1,1.284404E0,1.2051667E0,-6.245747E-2,1.8058226E0,1.3566862E0,-6.438303E-2,1.8496836E0,3.5472106E-2,2.5401527E-1,2.0997844E0,6.42609E-1,3.8389868E-1,9.777861E-2,8.4461564E-1,1.6418421E0,1.8275945E-1,7.770218E-1,1.4560758E0,3.3280182E-1,9.751113E-1,1.6926011E0,-4.6127635E-1,1.4173374E0,1.9299637E0,2.218013E0,5.2134323E-1,2.2654183E0,1.0985359E0,2.968711E-1,2.4679482E0,2.8095798E0,2.2483444E0,5.635657E-1],"categories":[],"categories_nodes":[],"categories_segments":[],"categories_sizes":[],"default_left":[0,0,0,0,0,0,0,0,0,0,0,0,0,0,0,0,0,0,0,0,0,0,0,0,0,0,0,0,0,0,0,0,0,0,0,0,0,0,0,0,0,0,0,0,0,0,0,0,0,0,0,0,0,0,0,0,0,0,0,0,0,0,0,0,0,0,0,0,0,0,0,0,0,0,0,0,0,0,0,0,0,0,0,0,0,0,0,0,0,0,0,0,0,0,0,0,0,0,0,0,0,0,0,0,0,0,0,0,0,0,0,0,0,0,0,0,0,0,0,0,0,0,0,0,0,0,0,0,0,0,0,0,0,0,0,0,0,0,0,0,0,0,0,0,0,0,0,0,0,0,0,0,0,0,0,0,0,0,0,0,0,0,0,0,0,0,0,0,0,0,0,0,0,0,0,0,0,0,0,0,0,0,0,0,0,0,0,0,0,0,0,0,0,0,0,0,0,0,0,0,0,0,0,0,0,0,0,0,0,0,0,0,0,0,0,0,0,0,0,0,0,0,0,0,0,0,0,0,0,0,0,0,0,0,0,0,0,0,0,0,0,0,0,0,0,0,0,0,0,0,0,0,0,0,0,0,0,0,0,0,0,0,0,0,0,0,0,0,0,0,0,0,0,0,0,0,0,0,0,0,0,0,0,0,0,0,0,0,0,0,0,0,0,0,0,0,0,0,0,0,0,0,0,0,0,0,0,0,0,0,0,0,0,0,0,0,0,0,0,0,0,0,0,0,0,0,0,0,0,0,0,0,0,0,0,0,0,0,0,0,0,0,0,0,0,0,0,0,0,0,0,0,0,0,0,0,0,0,0,0,0,0,0,0,0,0,0,0,0,0,0,0,0,0,0,0,0,0,0,0,0,0,0,0,0,0,0,0,0,0,0,0,0,0,0,0,0,0,0],"id":2,"left_children":[1,3,5,7,9,11,13,15,17,19,21,23,25,27,29,31,33,35,37,39,41,43,45,47,49,51,53,55,57,59,61,-1,-1,63,65,67,69,71,73,75,77,79,81,83,85,87,89,91,93,95,97,99,101,103,105,107,109,111,113,-1,115,117,-1,119,121,123,125,127,129,131,133,135,137,139,141,143,145,147,149,151,153,155,157,159,161,163,165,167,169,171,173,175,177,179,181,183,185,187,189,191,193,195,197,199,201,203,205,207,209,211,-1,-1,-1,-1,213,215,217,-1,219,221,223,-1,225,227,229,231,233,235,237,239,241,243,245,247,249,251,-1,253,255,257,259,261,263,265,267,269,271,273,275,277,279,281,283,285,287,289,291,293,295,297,299,301,303,305,307,309,311,313,315,317,319,321,323,325,327,329,331,333,335,337,339,341,343,345,-1,347,349,-1,-1,351,353,355,357,359,361,363,365,367,369,371,373,375,-1,377,-1,-1,379,381,383,385,387,389,-1,-1,-1,391,-1,393,395,-1,397,-1,-1,-1,-1,-1,-1,-1,-1,-1,-1,-1,-1,-1,-1,-1,-1,-1,-1,-1,-1,-1,-1,-1,-1,-1,-1,-1,-1,-1,-1,-1,-1,-1,-1,-1,-1,-1,-1,-1,-1,-1,-1,-1,-1,-1,-1,-1,-1,-1,-1,-1,-1,-1,-1,-1,-1,-1,-1,-1,-1,-1,-1,-1,-1,-1,-1,-1,-1,-1,-1,-1,-1,-1,-1,-1,-1,-1,-1,-1,-1,-1,-1,-1,-1,-1,-1,-1,-1,-1,-1,-1,-1,-1,-1,-1,-1,-1,-1,-1,-1,-1,-1,-1,-1,-1,-1,-1,-1,-1,-1,-1,-1,-1,-1,-1,-1,-1,-1,-1,-1,-1,-1,-1,-1,-1,-1,-1,-1,-1,-1,-1,-1,-1,-1,-1,-1,-1,-1,-1,-1,-1,-1,-1,-1,-1,-1,-1,-1,-1,-1,-1,-1,-1,-1,-1,-1,-1,-1,-1,-1,-1,-1,-1,-1,-1,-1,-1,-1,-1,-1,-1,-1,-1,-1,-1,-1,-1,-1],"loss_changes":[4.10372E6,6.60377E5,7.2137875E5,9.7463375E4,1.1139203E5,9.4230125E4,1.203545E5,2.114275E4,1.0375125E4,2.6754375E4,3.8292285E4,3.6848625E4,3.6403562E4,2.3001875E4,4.4759E4,1.30225E3,3.294375E3,3.4447812E3,5.2873438E3,1.1373234E4,5.877354E3,1.37588125E4,2.4028543E4,9.122203E3,8.0496406E3,1.56409375E4,5.7964375E3,9.930125E3,2.2264844E3,3.469375E3,5.64275E3,0E0,0E0,1.060375E3,1.0171875E3,7.45E2,1.4269219E3,2.133664E3,2.3783848E3,5.6314688E3,9.536371E3,1.4180635E3,2.726727E3,2.826164E3,3.012745E3,2.6498696E3,3.5386719E3,5.427578E3,2.3360156E3,3.4633926E3,4.163078E3,2.0501875E3,3.0442188E3,4.326047E3,2.7605469E3,1.0967812E3,1.03625E2,5.6216113E2,6.6734375E1,0E0,1.570375E3,3.10875E3,0E0,2.470625E2,3.815625E2,4.4184375E2,1.254293E3,4.66E2,5.806426E2,1.8147656E2,1.7736016E3,2.6878125E2,1.4041289E3,8.4247266E2,1.9685996E3,1.5807969E3,1.5372852E3,3.7392598E3,1.4268401E3,8.64306E2,1.6129639E3,7.1042224E2,2.3029182E3,1.2200845E3,1.3094247E3,1.3699579E3,2.2105703E3,2.947875E3,1.5340002E3,3.6229219E3,2.339062E3,1.8051641E3,4.7342617E3,1.3254219E3,8.5017163E2,7.9160864E2,2.733121E3,1.8321016E3,1.5550703E3,1.7456641E3,1.8742422E3,2.4519531E3,1.651875E3,1.7530664E3,2.3086953E3,2.9736047E2,6.361328E2,8.7662354E2,1.1037188E3,4.3625E1,0E0,0E0,0E0,0E0,8.9859375E1,7.99125E2,1.725875E3,0E0,1.520625E3,4.2171875E1,7.053125E2,0E0,9.80501E2,3.741588E2,2.4570312E2,4.5638672E2,6.190089E2,9.316475E0,1.490625E2,5.90423E2,5.322363E2,4.7E1,3.2063867E2,1.1278467E3,3.3047656E2,2.5839062E2,0E0,1.0259258E3,5.1979297E2,6.6643945E2,1.3798807E2,9.1938745E2,1.0600859E3,6.6910156E2,5.513164E2,6.5839844E2,1.3255042E3,8.754824E2,1.5293525E3,6.5901227E2,8.5137695E2,3.3020013E2,3.4359583E2,1.187553E3,5.754971E2,5.7740076E2,3.762413E2,1.1187148E3,5.260951E2,9.206438E2,9.2626416E2,7.779005E2,9.804395E2,8.3678394E2,2.3963348E2,1.6144983E3,1.4892549E3,1.549081E3,1.4059004E3,4.0975024E2,1.3362976E3,9.0895435E2,2.2861484E3,1.225516E3,6.143457E2,1.1447188E3,2.1383209E2,1.0183672E3,1.6507422E3,7.277578E2,1.0856328E3,1.209612E3,3.8365076E2,2.7253714E2,0E0,2.000543E3,4.2661232E1,0E0,0E0,4.5337305E2,6.2354297E2,1.0682344E3,1.4330181E3,1.2630469E3,1.6571179E3,5.7729395E2,1.5442109E3,1.3361562E3,1.2506094E3,1.5304297E3,7.9307175E0,7.049961E2,0E0,2.993225E0,0E0,0E0,5.4222656E2,2.2404498E2,1.3356152E2,1.0640312E3,1.9957422E3,1.2059375E2,0E0,0E0,0E0,3.7179688E2,0E0,5.939087E0,1.268625E3,0E0,1.6495508E2,0E0,0E0,0E0,0E0,0E0,0E0,0E0,0E0,0E0,0E0,0E0,0E0,0E0,0E0,0E0,0E0,0E0,0E0,0E0,0E0,0E0,0E0,0E0,0E0,0E0,0E0,0E0,0E0,0E0,0E0,0E0,0E0,0E0,0E0,0E0,0E0,0E0,0E0,0E0,0E0,0E0,0E0,0E0,0E0,0E0,0E0,0E0,0E0,0E0,0E0,0E0,0E0,0E0,0E0,0E0,0E0,0E0,0E0,0E0,0E0,0E0,0E0,0E0,0E0,0E0,0E0,0E0,0E0,0E0,0E0,0E0,0E0,0E0,0E0,0E0,0E0,0E0,0E0,0E0,0E0,0E0,0E0,0E0,0E0,0E0,0E0,0E0,0E0,0E0,0E0,0E0,0E0,0E0,0E0,0E0,0E0,0E0,0E0,0E0,0E0,0E0,0E0,0E0,0E0,0E0,0E0,0E0,0E0,0E0,0E0,0E0,0E0,0E0,0E0,0E0,0E0,0E0,0E0,0E0,0E0,0E0,0E0,0E0,0E0,0E0,0E0,0E0,0E0,0E0,0E0,0E0,0E0,0E0,0E0,0E0,0E0,0E0,0E0,0E0,0E0,0E0,0E0,0E0,0E0,0E0,0E0,0E0,0E0,0E0,0E0,0E0,0E0,0E0,0E0,0E0,0E0,0E0,0E0,0E0,0E0,0E0,0E0,0E0,0E0,0E0,0E0,0E0,0E0,0E0,0E0,0E0,0E0,0E0,0E0,0E0,0E0,0E0,0E0],"parents":[2147483647,0,0,1,1,2,2,3,3,4,4,5,5,6,6,7,7,8,8,9,9,10,10,11,11,12,12,13,13,14,14,15,15,16,16,17,17,18,18,19,19,20,20,21,21,22,22,23,23,24,24,25,25,26,26,27,27,28,28,29,29,30,30,33,33,34,34,35,35,36,36,37,37,38,38,39,39,40,40,41,41,42,42,43,43,44,44,45,45,46,46,47,47,48,48,49,49,50,50,51,51,52,52,53,53,54,54,55,55,56,56,57,57,58,58,60,60,61,61,63,63,64,64,65,65,66,66,67,67,68,68,69,69,70,70,71,71,72,72,73,73,74,74,75,75,76,76,77,77,78,78,79,79,80,80,81,81,82,82,83,83,84,84,85,85,86,86,87,87,88,88,89,89,90,90,91,91,92,92,93,93,94,94,95,95,96,96,97,97,98,98,99,99,100,100,101,101,102,102,103,103,104,104,105,105,106,106,107,107,108,108,109,109,114,114,115,115,116,116,118,118,119,119,120,120,122,122,123,123,124,124,125,125,126,126,127,127,128,128,129,129,130,130,131,131,132,132,133,133,134,134,135,135,137,137,138,138,139,139,140,140,141,141,142,142,143,143,144,144,145,145,146,146,147,147,148,148,149,149,150,150,151,151,152,152,153,153,154,154,155,155,156,156,157,157,158,158,159,159,160,160,161,161,162,162,163,163,164,164,165,165,166,166,167,167,168,168,169,169,170,170,171,171,172,172,173,173,174,174,175,175,176,176,177,177,178,178,179,179,180,180,181,181,182,182,183,183,185,185,186,186,189,189,190,190,191,191,192,192,193,193,194,194,195,195,196,196,197,197,198,198,199,199,200,200,201,201,203,203,206,206,207,207,208,208,209,209,210,210,211,211,215,215,217,217,218,218,220,220],"right_children":[2,4,6,8,10,12,14,16,18,20,22,24,26,28,30,32,34,36,38,40,42,44,46,48,50,52,54,56,58,60,62,-1,-1,64,66,68,70,72,74,76,78,80,82,84,86,88,90,92,94,96,98,100,102,104,106,108,110,112,114,-1,116,118,-1,120,122,124,126,128,130,132,134,136,138,140,142,144,146,148,150,152,154,156,158,160,162,164,166,168,170,172,174,176,178,180,182,184,186,188,190,192,194,196,198,200,202,204,206,208,210,212,-1,-1,-1,-1,214,216,218,-1,220,222,224,-1,226,228,230,232,234,236,238,240,242,244,246,248,250,252,-1,254,256,258,260,262,264,266,268,270,272,274,276,278,280,282,284,286,288,290,292,294,296,298,300,302,304,306,308,310,312,314,316,318,320,322,324,326,328,330,332,334,336,338,340,342,344,346,-1,348,350,-1,-1,352,354,356,358,360,362,364,366,368,370,372,374,376,-1,378,-1,-1,380,382,384,386,388,390,-1,-1,-1,392,-1,394,396,-1,398,-1,-1,-1,-1,-1,-1,-1,-1,-1,-1,-1,-1,-1,-1,-1,-1,-1,-1,-1,-1,-1,-1,-1,-1,-1,-1,-1,-1,-1,-1,-1,-1,-1,-1,-1,-1,-1,-1,-1,-1,-1,-1,-1,-1,-1,-1,-1,-1,-1,-1,-1,-1,-1,-1,-1,-1,-1,-1,-1,-1,-1,-1,-1,-1,-1,-1,-1,-1,-1,-1,-1,-1,-1,-1,-1,-1,-1,-1,-1,-1,-1,-1,-1,-1,-1,-1,-1,-1,-1,-1,-1,-1,-1,-1,-1,-1,-1,-1,-1,-1,-1,-1,-1,-1,-1,-1,-1,-1,-1,-1,-1,-1,-1,-1,-1,-1,-1,-1,-1,-1,-1,-1,-1,-1,-1,-1,-1,-1,-1,-1,-1,-1,-1,-1,-1,-1,-1,-1,-1,-1,-1,-1,-1,-1,-1,-1,-1,-1,-1,-1,-1,-1,-1,-1,-1,-1,-1,-1,-1,-1,-1,-1,-1,-1,-1,-1,-1,-1,-1,-1,-1,-1,-1,-1,-1,-1,-1,-1],"split_conditions":[4.305E1,2.08E1,7.17E1,1.285E1,3.06E1,5.538E1,8.965E1,7.1E0,2.293E1,9.512E1,7.585E1,9.633E1,7.922E1,6.575E1,1.1482E2,4.92E0,1.83E1,1.627E1,5.762E1,3.502E1,1.945E1,3.58E1,5.105E1,5E1,6.73E1,6.172E1,4.9E1,7.925E1,2.58E1,8E-1,2.3813E2,-1.334836E0,-1.1994215E0,1.04E1,6.017E1,6.158E1,5.762E1,1.73E1,3.082E1,2.58E1,8.362E1,2.23E1,2.738E1,3.502E1,2.638E1,2.48E1,2.94E1,5.385E1,7.267E1,1.995E1,1.102E1,5.047E1,3.367E1,6.98E1,2.345E1,1.995E1,1.6974E2,1.68E0,1.118E1,-1.8466344E-1,1.003E1,1.43E1,-1.4323235E-2,4.075E1,8.05E1,6.09E0,3.483E1,4.92E0,8.75E0,1.945E1,1.1E1,1.258E2,1.715E1,1.3138E2,1.63E1,2.098E1,6.575E1,2.523E1,3.985E1,4.739E1,-2.03E0,5.26E1,2.462E1,4.058E1,3.767E1,6.242E1,3.95E1,4.86E1,1.58E1,2.595E1,1.1988E2,7.805E1,6.088E1,3.823E1,2.693E1,1.3552E2,2.225E2,5.26E1,3.642E1,2.46E0,2.04E0,3.082E1,2.877E1,3.09E0,9.94E1,1.4935E2,-4.51E0,1.325E1,1.959E1,1.258E2,9.6146566E-1,1.8178223E0,2.5837097E-1,8.2530004E-1,7.05E0,1.94E0,3.53E1,1.0581496E0,1.181E2,4.97E0,5.97E1,-9.894008E-1,2.21E1,1.8908E2,5.29E0,2.36E0,2.275E1,2.799E1,1.482E1,2.31E1,-3E0,5.47E0,2.275E1,5.831E1,1.868E1,7.82E0,4.831028E-2,4.24E0,4.94E0,7.6E0,2.958E1,3.519E1,4.74E1,5.823E1,4.677E1,-1.2E-1,2.145E1,5.97E1,5.647E1,9.482E1,1.3695E2,2.56E1,7.8E-1,2.1282E2,1.882E1,5.01E0,4.439E1,4.612E1,-1.38E0,3.262E1,2.0016E2,5.432E1,6.112E1,4.615E1,4.82E1,3.888E1,4.158E1,9.79E1,3.53E1,3.5E-1,3.502E1,2.162E1,-2.31E0,1.25E1,8.91E0,3.888E1,7.031E1,7.53E0,1.898E1,2.223E1,3.217E1,2.701E1,9.05E1,2.241E1,9.2717886E-1,3.705E1,1.272E1,3.001611E0,1.0818884E0,2.045E1,-1.29E0,5.803E1,7.925E1,1.296E1,8.98E0,8.445E1,-6.1E-1,4.39E0,5.047E1,1.725E1,3.436E1,6.558E1,2.9958575E0,6.19E1,-4.143674E-1,1.2554951E-1,4.73E1,4.822E1,3.581E1,-2.62E0,7.83E0,4.73E1,5.641228E-1,1.2101152E0,2.9339406E0,-3.01E0,3.6567354E-1,1.3404E2,4.262E1,3.8372192E0,3.102E1,-1.1248797E0,-2.967753E-1,-1.0257198E0,-5.4690838E-2,-8.3117115E-1,2.088316E-1,3.6145458E-1,-5.402593E-1,-9.305954E-1,-3.210509E-1,-8.0286187E-1,-2.720852E-2,1.6867869E-1,-4.9906522E-1,-2.7882043E-1,-4.650984E-2,-8.936376E-1,-8.145732E-1,-4.798729E-1,4.707451E-1,3.904098E-2,-7.660851E-1,-1.7163177E-1,-7.63785E-1,-6.757173E-1,1.1910267E-1,-4.9116156E-1,7.224572E-2,-6.891482E-1,-5.5424494E-1,-3.684101E-1,-7.3384136E-1,-4.085732E-1,5.562998E-1,1.3655345E-1,-6.124527E-1,-7.946729E-1,-4.9737358E-1,-1.2661748E-1,2.887909E-1,-1.440831E-1,4.1855928E-1,-5.1243037E-1,8.711305E-2,-5.972362E-1,-4.6540943E-1,-4.726077E-1,-3.52256E-1,-4.272499E-1,-3.2443067E-1,-3.2531175E-1,5.7780626E-4,-4.082102E-1,-6.313819E-2,-1.9303612E-1,1.06639385E-1,-1.3854657E-1,5.7098943E-1,6.141236E-1,1.4371096E-1,-4.1271934E-1,1.08126655E-1,2.1950756E-1,8.3538026E-1,-2.6128826E-1,7.954595E-1,2.33688E-1,8.5678846E-1,4.7483775E-1,-2.4694219E-1,-1.4089654E-1,6.417588E-1,1.2956693E0,-1.770579E-2,-3.4371096E-1,2.6081476E-1,-1.810468E-1,-4.1287445E-2,-2.7486908E-1,4.253787E-1,2.4858935E-2,1.9427109E-1,-1.6702434E-1,1.3379475E-1,1.2042909E-1,-8.444316E-2,-1.9242743E-1,-6.208915E-1,2.320317E-1,4.2317886E-2,4.0551087E-1,2.0913501E-1,6.6308796E-1,9.616404E-2,4.3549162E-1,1.6016089E0,1.8356924E-1,-4.1757748E-1,2.9548666E-2,3.9334857E-1,7.9196453E-1,-2.5106594E-1,7.291653E-1,1.7109133E0,1.200544E0,2.0831099E-1,1.8435653E0,6.038272E-1,3.4828418E-1,4.8973784E-1,-5.7896996E-1,-8.829972E-2,7.909846E-1,5.2658767E-1,1.4768958E0,-1.7667325E-2,6.411773E-1,-4.1711497E-1,1.1787285E0,7.741298E-1,8.9182013E-1,-2.220488E-1,5.641136E-1,-2.548526E-1,2.1210888E-1,-3.4214497E-1,1.6986084E0,8.9017755E-1,-2.5549222E-2,-4.5351353E-1,2.2399597E0,7.441837E-1,5.211957E-2,1.0665277E0,9.6222395E-1,7.5611395E-1,6.0086215E-1,-3.2212397E-1,6.6232485E-1,1.0819954E0,-5.733069E-1,7.125625E-1,-3.2811186E-1,6.7768145E-1,9.101923E-1,1.284404E0,1.2051667E0,-6.245747E-2,1.8058226E0,1.3566862E0,-6.438303E-2,1.8496836E0,3.5472106E-2,2.5401527E-1,2.0997844E0,6.42609E-1,3.8389868E-1,9.777861E-2,8.4461564E-1,1.6418421E0,1.8275945E-1,7.770218E-1,1.4560758E0,3.3280182E-1,9.751113E-1,1.6926011E0,-4.6127635E-1,1.4173374E0,1.9299637E0,2.218013E0,5.2134323E-1,2.2654183E0,1.0985359E0,2.968711E-1,2.4679482E0,2.8095798E0,2.2483444E0,5.635657E-1],"split_indices":[13,13,13,13,13,13,13,13,18,10,9,9,9,8,13,13,18,13,10,18,14,13,18,13,18,13,14,13,18,10,0,0,0,13,10,10,9,13,17,13,9,13,13,18,18,14,14,18,14,18,3,18,18,18,18,18,1,5,17,0,10,18,0,10,10,1,2,14,16,13,16,17,14,10,14,18,9,13,18,1,6,17,14,17,14,17,13,17,18,17,9,14,8,18,18,10,0,13,1,4,5,14,17,4,8,0,4,10,3,14,0,0,0,0,10,6,14,0,1,4,16,0,14,0,4,5,17,0,13,14,6,14,18,1,18,14,0,4,1,17,2,2,16,9,9,6,18,16,9,1,0,18,4,0,18,3,1,1,4,13,0,18,16,14,10,14,14,8,18,4,13,16,5,17,3,18,0,10,3,3,14,0,1,2,0,14,1,0,0,16,6,14,14,2,3,0,5,4,14,0,0,17,0,1,0,0,8,16,2,6,17,9,0,0,0,5,0,0,17,0,0,0,0,0,0,0,0,0,0,0,0,0,0,0,0,0,0,0,0,0,0,0,0,0,0,0,0,0,0,0,0,0,0,0,0,0,0,0,0,0,0,0,0,0,0,0,0,0,0,0,0,0,0,0,0,0,0,0,0,0,0,0,0,0,0,0,0,0,0,0,0,0,0,0,0,0,0,0,0,0,0,0,0,0,0,0,0,0,0,0,0,0,0,0,0,0,0,0,0,0,0,0,0,0,0,0,0,0,0,0,0,0,0,0,0,0,0,0,0,0,0,0,0,0,0,0,0,0,0,0,0,0,0,0,0,0,0,0,0,0,0,0,0,0,0,0,0,0,0,0,0,0,0,0,0,0,0,0,0,0,0,0,0,0,0,0,0,0,0,0,0,0,0,0,0,0,0,0,0],"split_type":[0,0,0,0,0,0,0,0,0,0,0,0,0,0,0,0,0,0,0,0,0,0,0,0,0,0,0,0,0,0,0,0,0,0,0,0,0,0,0,0,0,0,0,0,0,0,0,0,0,0,0,0,0,0,0,0,0,0,0,0,0,0,0,0,0,0,0,0,0,0,0,0,0,0,0,0,0,0,0,0,0,0,0,0,0,0,0,0,0,0,0,0,0,0,0,0,0,0,0,0,0,0,0,0,0,0,0,0,0,0,0,0,0,0,0,0,0,0,0,0,0,0,0,0,0,0,0,0,0,0,0,0,0,0,0,0,0,0,0,0,0,0,0,0,0,0,0,0,0,0,0,0,0,0,0,0,0,0,0,0,0,0,0,0,0,0,0,0,0,0,0,0,0,0,0,0,0,0,0,0,0,0,0,0,0,0,0,0,0,0,0,0,0,0,0,0,0,0,0,0,0,0,0,0,0,0,0,0,0,0,0,0,0,0,0,0,0,0,0,0,0,0,0,0,0,0,0,0,0,0,0,0,0,0,0,0,0,0,0,0,0,0,0,0,0,0,0,0,0,0,0,0,0,0,0,0,0,0,0,0,0,0,0,0,0,0,0,0,0,0,0,0,0,0,0,0,0,0,0,0,0,0,0,0,0,0,0,0,0,0,0,0,0,0,0,0,0,0,0,0,0,0,0,0,0,0,0,0,0,0,0,0,0,0,0,0,0,0,0,0,0,0,0,0,0,0,0,0,0,0,0,0,0,0,0,0,0,0,0,0,0,0,0,0,0,0,0,0,0,0,0,0,0,0,0,0,0,0,0,0,0,0,0,0,0,0,0,0,0,0,0,0,0,0,0,0,0,0,0,0,0,0,0,0,0,0,0,0,0,0,0,0,0,0,0,0,0,0,0],"sum_hessian":[1.5637E4,1.1225E4,4.412E3,5.673E3,5.552E3,3.086E3,1.326E3,2.784E3,2.889E3,2.953E3,2.599E3,1.645E3,1.441E3,7.8E2,5.46E2,1.072E3,1.712E3,1.755E3,1.134E3,2.781E3,1.72E2,2.315E3,2.84E2,1.555E3,9E1,1.3E3,1.41E2,7.09E2,7.1E1,4.26E2,1.2E2,5.87E2,4.85E2,1.192E3,5.2E2,8.41E2,9.14E2,7.91E2,3.43E2,2.002E3,7.79E2,8.3E1,8.9E1,1.131E3,1.184E3,1.78E2,1.06E2,9.71E2,5.84E2,5.5E1,3.5E1,6.23E2,6.77E2,9.8E1,4.3E1,3.83E2,3.26E2,1E1,6.1E1,1E0,4.25E2,1.19E2,1E0,6.8E2,5.12E2,3.88E2,1.32E2,7.23E2,1.18E2,5.9E2,3.24E2,3.76E2,4.15E2,1.82E2,1.61E2,1.145E3,8.57E2,7.09E2,7E1,2.1E1,6.2E1,6.7E1,2.2E1,6.54E2,4.77E2,3.39E2,8.45E2,6.1E1,1.17E2,7.9E1,2.7E1,6.99E2,2.72E2,5.53E2,3.1E1,9E0,4.6E1,1.8E1,1.7E1,3.69E2,2.54E2,1.51E2,5.26E2,5E1,4.8E1,4E0,3.9E1,1.5E1,3.68E2,3.23E2,3E0,9E0,1E0,1E0,6E1,6.8E1,3.57E2,2E0,1.17E2,4.13E2,2.67E2,4.62E2,5E1,3E0,3.85E2,1.19E2,1.3E1,4E0,7.19E2,1.9E1,9.9E1,4.33E2,1.57E2,3.5E1,2.89E2,3.75E2,1E0,1E2,3.15E2,1.75E2,7E0,8.8E1,7.3E1,5.84E2,5.61E2,7.33E2,1.24E2,3.21E2,3.88E2,2E1,5E1,1.1E1,1E1,1E1,5.2E1,6.2E1,5E0,9E0,1.3E1,4.83E2,1.71E2,3.22E2,1.55E2,3.03E2,3.6E1,4.51E2,3.94E2,4.8E1,1.3E1,1.5E1,1.02E2,1.4E1,6.5E1,2E1,7E0,6.9E2,9E0,2.5E2,2.2E1,2.29E2,3.24E2,1.4E1,1.7E1,7E0,2E0,4.4E1,2E0,1.5E1,3E0,8E0,9E0,3.19E2,5E1,2.45E2,9E0,5E0,1.46E2,2.42E2,2.84E2,4.8E1,2E0,2.5E1,2.3E1,3E0,1E0,1E0,3.8E1,7E0,8E0,2.78E2,9E1,3.22E2,1E0,2E0,5.8E1,6.7E1,1E0,3E0,3.54E2,1.12E2,5E0,4.12E2,1E0,2.65E2,2E0,4.8E1,2E0,1E0,2E0,3.82E2,3E0,1.17E2,2E0,5E0,8E0,3E0,1E0,4.02E2,3.17E2,1.8E1,1E0,2E0,9.7E1,1E0,4.32E2,1.56E2,1E0,2E1,1.5E1,1.82E2,1.07E2,8E0,3.67E2,9.8E1,2E0,2E0,3.13E2,2.5E1,1.5E2,5E0,2E0,8.1E1,7E0,6.5E1,8E0,4.29E2,1.55E2,4.15E2,1.46E2,2.59E2,4.74E2,6.4E1,6E1,3.01E2,2E1,3.4E2,4.8E1,1.7E1,3E0,3.6E1,1.4E1,4E0,7E0,6E0,4E0,7E0,3E0,5E0,4.7E1,2E0,6E1,2E0,3E0,7E0,2E0,5E0,8E0,2.04E2,2.79E2,1.67E2,4E0,2.26E2,9.6E1,1.21E2,3.4E1,2.41E2,6.2E1,3.3E1,3E0,2.41E2,2.1E2,1.94E2,2E2,2.3E1,2.5E1,5E0,8E0,3E0,1.2E1,4.5E1,5.7E1,1.2E1,2E0,9E0,5.6E1,3E0,1.7E1,4E0,3E0,4.69E2,2.21E2,3E0,6E0,5.1E1,1.99E2,2E1,2E0,2.28E2,1E0,2.1E1,3.03E2,2E0,1.2E1,1.6E1,1E0,4E0,3E0,2.8E1,1.6E1,1E0,1E0,6E0,2E0,2E0,7E0,1.57E2,1.62E2,4.6E1,4E0,2.6E1,2.19E2,3E0,6E0,4E0,1E0,8.7E1,5.9E1,2.4E2,2E0,2.7E1,2.57E2,1E0,4.7E1,1E0,1E0,2.3E1,2E0,2E0,1E0,6E0,3.2E1,4E0,3E0,7E0,1E0,1E1,2.68E2,1E0,8.9E1,2.59E2,6.3E1,1E0,6.6E1,2E0,1E0,1.57E2,1.97E2,4E0,1E0],"tree_param":{"num_deleted":"0","num_feature":"19","num_nodes":"399","size_leaf_vector":"1"}},{"base_weights":[-1.0438431E-1,-1.0290898E1,2.2683138E1,-1.6959496E1,-3.0011196E0,1.5086576E1,4.2707417E1,-2.240468E1,-1.4079085E1,-6.2077856E0,1.4836743E0,1.0451276E1,2.206343E1,3.6543095E1,5.642859E1,-2.4900557E1,-2.0663422E1,-1.6473433E1,-1.186096E1,-7.0037084E0,5.2615776E0,3.3745527E-1,1.4515894E1,9.369716E0,2.7620707E1,2.0504429E1,3.611516E1,3.522375E1,5.4954597E1,5.0829277E1,7.0972916E1,-1.3373002E0,-1.2155406E0,-2.145364E1,-1.9270155E1,-1.6905981E1,-1.2527426E1,-1.2976839E1,-8.507273E0,-8.42364E0,-4.774862E0,1.4911756E1,-4.16219E-1,-1.672134E0,2.0001268E0,2.3320513E1,6.5019236E0,7.3083186E0,1.2392727E1,3.245537E1,1.3158749E1,1.8152084E1,2.441481E1,4.002155E1,2.6140368E1,3.2589546E1,4.244041E1,5.6435547E1,1.3688515E0,4.0663605E1,5.2692303E1,7.287864E1,1.5987912E0,-2.1495794E1,-8.407755E0,-1.0253716E0,-1.713831E1,-1.8272383E1,-1.6283201E1,-5.3818326E0,-1.4154606E1,-1.386875E1,-1.1983686E1,-5.364759E0,-1.0344282E1,-8.955374E0,-4.1974716E0,-5.654143E0,8.119496E-1,1.6476522E1,-2.1955516E0,-1.8966938E0,1.3682977E1,1.9085988E0,-2.3214138E0,3.3493395E0,1.5888265E-1,1.9564592E0,2.6220293E1,1.3550652E1,1.385518E0,6.502638E0,1.3391377E1,1.36774235E1,8.262851E0,3.968209E1,2.3129374E1,2.8717031E1,7.8654795E0,1.8707735E1,1.1398994E1,3.1516563E1,2.3828024E1,3.4307423E1,4.9326763E1,-1.6903738E0,2.7574163E1,3.296413E1,1.936669E1,-2.9585215E-1,4.2679504E1,5.7063576E1,5.473506E-1,2.1290718E1,4.4308018E1,6.662585E-1,5.295499E1,1.4360536E0,3.6725826E0,-2.196947E1,-1.9984182E1,2.1681653E-1,-7.050614E-1,-4.988566E0,-1.7410873E1,1.4725152E-1,-1.8321392E1,-1.6785189E1,-1.502833E1,5.43311E-1,-9.852857E0,-7.7497787E0,-1.4722372E1,-1.3201588E1,-1.4872244E1,-9.982817E0,-1.2743095E1,-3.9772642E0,-1.0657246E1,7.982506E-1,-1.0483342E1,-1.0069902E1,-7.664648E0,-1.8287834E0,-7.5796013E0,-4.535596E0,-7.805005E0,3.9109707E0,-5.3412476E0,3.443911E0,1.8975E1,-3.8922462E-1,1.5969231E0,-4.0410976E0,4.24234E0,1.742735E1,1.8373947E0,3.2365386E0,-4.5893016E0,-1.8169316E0,-5.0405235E0,2.8598516E0,1.029956E1,1.7875305E0,-1.5645711E0,7.346953E-1,-2.5067408E0,9.184798E0,2.9094578E1,2.8173481E1,8.224687E0,-7.881389E0,4.1549196E0,8.35286E0,5.0650883E0,1.8892185E1,7.6167707E0,2.1614101E1,1.3289722E1,9.336263E0,1.2778125E0,2.5479464E1,4.8774612E1,2.6327938E1,2.9184756E0,4.1382238E-1,3.0454765E1,1.4569767E1,-1.1703372E0,2.1876556E1,1.765961E1,1.54957485E1,5.3627396E0,3.405672E1,1.4409725E1,4.9897947E0,2.4076391E1,3.522654E1,3.8765614E0,8.5803E-1,5.1806072E1,2.7723017E-1,-4.040082E-1,-1.06609724E-1,2.8390537E1,3.5311905E1,3.0431303E1,8.162213E-3,2.0368805E1,3.526927E1,4.393692E1,3.11165E0,4.648067E1,-7.2928685E-1,2.6886879E1,3.9045772E-1,4.5007767E1,5.060766E1,2.9540956E0,-3.067363E-1,-1.099365E0,7.2410725E-2,-1.0054266E0,-6.1096686E-1,5.983629E-1,-4.2530987E-1,-8.821622E-1,-9.192258E-1,-9.416364E-2,-8.602759E-1,-7.49714E-1,-4.999201E-1,-7.687997E-1,2.0028725E-1,-2.2403197E-1,-6.0745245E-1,-2.6723403E-2,-1.4583677E-1,-6.083073E-1,-7.4366355E-1,-1.6128461E-1,-6.697905E-1,-2.7240327E-1,-7.893436E-1,-6.575438E-1,1.1258047E-1,-5.2591276E-1,-6.5135837E-1,-3.7547415E-1,1.398894E-1,-2.5736076E-1,-5.5968827E-1,2.1643667E-1,-3.954353E-1,-5.7478267E-1,-4.4568458E-1,-5.6861377E-1,-3.2847401E-1,-4.6008006E-1,2.4258462E-1,-1.5526584E-1,-4.0988812E-1,5.5095595E-1,-2.4580494E-1,5.2527823E-2,2.0436609E-1,-4.020749E-1,5.618394E-1,-7.2093518E-3,2.1607044E-1,-3.0175966E-1,2.5882822E-1,-1.7397846E-1,1.1678666E0,5.279432E-1,1.0970378E-1,-1.9792175E-2,-3.064011E-1,-1.9656403E-2,5.4592735E-1,4.3058917E-2,7.890034E-2,9.605633E-1,-1.7713223E-1,2.4058114E-1,8.62939E-2,7.53643E-1,7.15388E-2,-3.8443822E-1,5.9648013E-1,-9.713849E-2,-3.2209024E-1,-1.5555733E-1,7.240427E-2,2.3389888E-1,6.251423E-1,-1.7592466E-2,8.1265785E-2,1.005812E0,-8.795655E-2,1.0504206E0,4.36615E-2,-1.798597E-1,2.2471972E-1,1.087894E0,1.5867374E0,8.351021E-1,5.240927E-1,1.71291E0,1.8700095E-1,9.136677E-1,-5.6452423E-1,1.3058482E-1,5.0723475E-1,-2.8175285E-2,6.1965954E-1,3.8504183E-1,2.7254775E-1,-3.0776623E-4,1.1672994E0,5.467212E-1,7.267027E-1,2.3487614E-1,1.2348314E-1,1.2926427E0,5.965025E-1,7.546466E-1,1.06842004E-1,5.119984E-1,-5.168053E-2,5.8273983E-1,8.399417E-2,1.3887714E0,6.8435006E-2,2.5181053E0,1.6404352E0,8.3867913E-1,-1.2033448E-1,3.757011E-1,6.5777117E-1,1.7371708E0,8.6856216E-1,1.26145E-1,3.0772576E-1,-4.760471E-1,1.601832E0,1.0193853E0,8.8667566E-1,-5.8390075E-1,4.0840545E-1,9.140873E-1,3.8278702E-1,-3.1288067E-1,1.7379621E0,3.7721702E-1,1.5767108E-1,8.015151E-1,5.3101677E-1,-3.0288523E-1,1.2622215E0,9.8730344E-1,6.827265E-1,1.8045994E0,-6.277342E-2,3.5351554E-1,2.6782837E0,8.470688E-1,1.4743454E0,2.7025503E-1,1.8500763E0,1.5682782E0,1.531012E0,-6.7514944E-1,4.4036227E-1,1.143237E0,4.3534112E-1,1.8251555E0,2.1388874E0,3.0262141E0,1.1007309E0,2.4592533E0,-1.800469E-1,1.2535039E-1,1.4345269E0,3.565317E-1,2.2824628E0,4.8370773E-1,2.2969742E0,2.6728876E0],"categories":[],"categories_nodes":[],"categories_segments":[],"categories_sizes":[],"default_left":[0,0,0,0,0,0,0,0,0,0,0,0,0,0,0,0,0,0,0,0,0,0,0,0,0,0,0,0,0,0,0,0,0,0,0,0,0,0,0,0,0,0,0,0,0,0,0,0,0,0,0,0,0,0,0,0,0,0,0,0,0,0,0,0,0,0,0,0,0,0,0,0,0,0,0,0,0,0,0,0,0,0,0,0,0,0,0,0,0,0,0,0,0,0,0,0,0,0,0,0,0,0,0,0,0,0,0,0,0,0,0,0,0,0,0,0,0,0,0,0,0,0,0,0,0,0,0,0,0,0,0,0,0,0,0,0,0,0,0,0,0,0,0,0,0,0,0,0,0,0,0,0,0,0,0,0,0,0,0,0,0,0,0,0,0,0,0,0,0,0,0,0,0,0,0,0,0,0,0,0,0,0,0,0,0,0,0,0,0,0,0,0,0,0,0,0,0,0,0,0,0,0,0,0,0,0,0,0,0,0,0,0,0,0,0,0,0,0,0,0,0,0,0,0,0,0,0,0,0,0,0,0,0,0,0,0,0,0,0,0,0,0,0,0,0,0,0,0,0,0,0,0,0,0,0,0,0,0,0,0,0,0,0,0,0,0,0,0,0,0,0,0,0,0,0,0,0,0,0,0,0,0,0,0,0,0,0,0,0,0,0,0,0,0,0,0,0,0,0,0,0,0,0,0,0,0,0,0,0,0,0,0,0,0,0,0,0,0,0,0,0,0,0,0,0,0,0,0,0,0,0,0,0,0,0,0,0,0,0,0,0,0,0,0,0,0,0,0,0,0,0,0,0,0,0,0,0,0,0,0,0,0,0,0,0,0,0,0,0,0,0,0,0,0,0,0,0,0,0,0,0,0,0,0,0,0,0,0,0],"id":3,"left_children":[1,3,5,7,9,11,13,15,17,19,21,23,25,27,29,31,33,35,37,39,41,43,45,47,49,51,53,55,57,59,61,-1,-1,63,65,67,69,71,73,75,77,79,81,83,85,87,89,91,93,95,97,99,101,103,105,107,109,111,-1,113,115,117,-1,119,121,-1,123,125,127,129,131,133,135,137,139,141,143,145,147,149,151,153,155,157,159,161,163,165,167,169,171,173,175,177,179,181,183,185,187,189,191,193,195,197,199,201,203,205,207,-1,209,211,-1,213,215,-1,217,-1,-1,219,221,-1,-1,223,225,-1,227,229,231,233,235,237,239,241,243,245,247,249,251,-1,253,255,257,259,261,263,265,267,269,271,273,-1,275,277,279,281,283,285,287,289,291,293,295,297,299,-1,301,303,305,307,309,311,313,315,317,319,321,323,325,327,329,331,333,335,337,-1,339,341,343,345,347,349,351,353,355,357,359,361,363,-1,365,-1,-1,-1,367,369,371,-1,373,375,377,-1,379,381,383,-1,385,387,-1,-1,-1,-1,-1,-1,-1,-1,-1,-1,-1,-1,-1,-1,-1,-1,-1,-1,-1,-1,-1,-1,-1,-1,-1,-1,-1,-1,-1,-1,-1,-1,-1,-1,-1,-1,-1,-1,-1,-1,-1,-1,-1,-1,-1,-1,-1,-1,-1,-1,-1,-1,-1,-1,-1,-1,-1,-1,-1,-1,-1,-1,-1,-1,-1,-1,-1,-1,-1,-1,-1,-1,-1,-1,-1,-1,-1,-1,-1,-1,-1,-1,-1,-1,-1,-1,-1,-1,-1,-1,-1,-1,-1,-1,-1,-1,-1,-1,-1,-1,-1,-1,-1,-1,-1,-1,-1,-1,-1,-1,-1,-1,-1,-1,-1,-1,-1,-1,-1,-1,-1,-1,-1,-1,-1,-1,-1,-1,-1,-1,-1,-1,-1,-1,-1,-1,-1,-1,-1,-1,-1,-1,-1,-1,-1,-1,-1,-1,-1,-1,-1,-1,-1,-1,-1,-1,-1,-1,-1,-1,-1,-1,-1,-1,-1,-1,-1,-1,-1,-1,-1],"loss_changes":[3.6487812E6,5.2802775E5,7.38029E5,8.8662E4,7.46622E4,1.1367031E5,1.108545E5,8.007875E3,1.952425E4,2.7669484E4,3.2335389E4,3.907197E4,3.0038312E4,2.0509375E4,2.9945125E4,2.215625E2,8.648125E2,2.8315312E3,7.1159688E3,8.919359E3,1.080018E4,6.6558477E3,1.2196363E4,1.2335281E4,8.312766E3,1.1211375E4,4.3700156E3,1.5060625E4,9.054219E2,3.5579375E3,5.9931875E3,0E0,0E0,2.218125E2,7.827344E2,1.0674062E3,2.0167109E3,1.1155781E3,2.7443242E3,3.8455625E3,5.4278535E3,1.9903076E3,2.6351406E3,2.1014883E3,2.7072783E3,5.0906406E3,3.3351917E3,5.7353125E3,4.168633E3,5.350047E3,2.491815E3,2.769875E3,1.2200938E3,3.5185156E3,1.7225605E3,2.521625E3,2.8886875E3,9.751406E2,0E0,2.6573906E3,1.8900625E3,5.725E2,0E0,8.296875E1,3.513799E2,0E0,4.562461E2,5.6765625E2,4.4759375E2,9.3255426E2,4.1682617E2,3.0979688E2,9.242656E2,1.28675E3,1.2832285E3,2.1295547E3,1.5483245E3,2.2597715E3,2.9002915E3,2.116287E3,1.6080264E2,1.5179044E3,5.0023022E2,1.2142595E3,1.038853E3,2.110433E3,1.2995842E3,6.6218134E2,3.307211E3,2.8056284E3,1.4442549E3,2.753125E3,4.239672E3,1.6020703E3,1.4426475E3,5.3432734E3,2.7029355E3,3.210498E1,1.5920983E3,2.0482188E3,1.4748306E3,9.432383E2,1.9432188E3,1.6534844E3,1.9022188E3,1.8349127E2,1.0305938E3,2.6063125E3,3.8155664E2,0E0,5.655E2,1.16265625E2,0E0,1.2518833E3,7.2121094E2,0E0,5.910625E2,0E0,0E0,1.9E1,5.221719E2,0E0,0E0,7.592503E2,1.8099219E2,0E0,4.7690625E2,3.329375E2,4.1810156E2,2.9626984E2,4.21443E2,2.633374E2,1.827539E2,6.242656E2,2.5526172E2,1.3010859E3,6.425547E2,1.16374E3,3.459453E2,0E0,7.0141406E2,1.1334062E3,1.1430547E3,1.0042965E3,1.0100928E3,1.3442588E3,9.4691406E2,3.002062E3,3.680536E2,1.6196407E2,1.8187793E3,0E0,6.8184395E0,6.446991E2,6.677972E2,2.2414966E2,8.105173E1,2.0481428E3,4.58817E2,1.1406523E3,3.0168677E2,1.5050527E3,9.665908E2,6.7492426E2,1.0251104E3,0E0,3.6312466E1,6.0988544E2,1.4985078E3,7.17396E2,1.2836052E3,4.945224E2,1.2209957E3,1.1111133E3,1.1623857E3,2.2256875E3,1.3250615E3,2.127162E3,1.2615781E3,1.0711533E3,6.596578E2,1.1554854E3,2.1887656E3,1.7407031E3,1.8938823E2,0E0,6.2271484E1,4.6240918E2,7.926001E2,2.0394219E3,1.4125469E3,6.0601953E2,7.673346E2,2.5927734E2,5.8899902E1,4.997586E2,1.7017344E3,6.646953E2,5.8047802E1,0E0,1.0556484E3,0E0,0E0,0E0,8.2344336E2,9.3978125E2,2.9452188E3,0E0,3.4690527E2,9.275781E2,1.0641562E3,0E0,3.7285938E2,3.6908104E1,8.048633E1,0E0,4.876953E2,3.215625E1,0E0,0E0,0E0,0E0,0E0,0E0,0E0,0E0,0E0,0E0,0E0,0E0,0E0,0E0,0E0,0E0,0E0,0E0,0E0,0E0,0E0,0E0,0E0,0E0,0E0,0E0,0E0,0E0,0E0,0E0,0E0,0E0,0E0,0E0,0E0,0E0,0E0,0E0,0E0,0E0,0E0,0E0,0E0,0E0,0E0,0E0,0E0,0E0,0E0,0E0,0E0,0E0,0E0,0E0,0E0,0E0,0E0,0E0,0E0,0E0,0E0,0E0,0E0,0E0,0E0,0E0,0E0,0E0,0E0,0E0,0E0,0E0,0E0,0E0,0E0,0E0,0E0,0E0,0E0,0E0,0E0,0E0,0E0,0E0,0E0,0E0,0E0,0E0,0E0,0E0,0E0,0E0,0E0,0E0,0E0,0E0,0E0,0E0,0E0,0E0,0E0,0E0,0E0,0E0,0E0,0E0,0E0,0E0,0E0,0E0,0E0,0E0,0E0,0E0,0E0,0E0,0E0,0E0,0E0,0E0,0E0,0E0,0E0,0E0,0E0,0E0,0E0,0E0,0E0,0E0,0E0,0E0,0E0,0E0,0E0,0E0,0E0,0E0,0E0,0E0,0E0,0E0,0E0,0E0,0E0,0E0,0E0,0E0,0E0,0E0,0E0,0E0,0E0,0E0,0E0,0E0,0E0,0E0,0E0,0E0,0E0,0E0,0E0,0E0,0E0,0E0,0E0,0E0,0E0,0E0,0E0],"parents":[2147483647,0,0,1,1,2,2,3,3,4,4,5,5,6,6,7,7,8,8,9,9,10,10,11,11,12,12,13,13,14,14,15,15,16,16,17,17,18,18,19,19,20,20,21,21,22,22,23,23,24,24,25,25,26,26,27,27,28,28,29,29,30,30,33,33,34,34,35,35,36,36,37,37,38,38,39,39,40,40,41,41,42,42,43,43,44,44,45,45,46,46,47,47,48,48,49,49,50,50,51,51,52,52,53,53,54,54,55,55,56,56,57,57,59,59,60,60,61,61,63,63,64,64,66,66,67,67,68,68,69,69,70,70,71,71,72,72,73,73,74,74,75,75,76,76,77,77,78,78,79,79,80,80,81,81,82,82,83,83,84,84,85,85,86,86,87,87,88,88,89,89,90,90,91,91,92,92,93,93,94,94,95,95,96,96,97,97,98,98,99,99,100,100,101,101,102,102,103,103,104,104,105,105,106,106,107,107,108,108,110,110,111,111,113,113,114,114,116,116,119,119,120,120,123,123,124,124,126,126,127,127,128,128,129,129,130,130,131,131,132,132,133,133,134,134,135,135,136,136,137,137,138,138,140,140,141,141,142,142,143,143,144,144,145,145,146,146,147,147,148,148,149,149,150,150,152,152,153,153,154,154,155,155,156,156,157,157,158,158,159,159,160,160,161,161,162,162,163,163,164,164,166,166,167,167,168,168,169,169,170,170,171,171,172,172,173,173,174,174,175,175,176,176,177,177,178,178,179,179,180,180,181,181,182,182,183,183,184,184,186,186,187,187,188,188,189,189,190,190,191,191,192,192,193,193,194,194,195,195,196,196,197,197,198,198,200,200,204,204,205,205,206,206,208,208,209,209,210,210,212,212,213,213,214,214,216,216,217,217],"right_children":[2,4,6,8,10,12,14,16,18,20,22,24,26,28,30,32,34,36,38,40,42,44,46,48,50,52,54,56,58,60,62,-1,-1,64,66,68,70,72,74,76,78,80,82,84,86,88,90,92,94,96,98,100,102,104,106,108,110,112,-1,114,116,118,-1,120,122,-1,124,126,128,130,132,134,136,138,140,142,144,146,148,150,152,154,156,158,160,162,164,166,168,170,172,174,176,178,180,182,184,186,188,190,192,194,196,198,200,202,204,206,208,-1,210,212,-1,214,216,-1,218,-1,-1,220,222,-1,-1,224,226,-1,228,230,232,234,236,238,240,242,244,246,248,250,252,-1,254,256,258,260,262,264,266,268,270,272,274,-1,276,278,280,282,284,286,288,290,292,294,296,298,300,-1,302,304,306,308,310,312,314,316,318,320,322,324,326,328,330,332,334,336,338,-1,340,342,344,346,348,350,352,354,356,358,360,362,364,-1,366,-1,-1,-1,368,370,372,-1,374,376,378,-1,380,382,384,-1,386,388,-1,-1,-1,-1,-1,-1,-1,-1,-1,-1,-1,-1,-1,-1,-1,-1,-1,-1,-1,-1,-1,-1,-1,-1,-1,-1,-1,-1,-1,-1,-1,-1,-1,-1,-1,-1,-1,-1,-1,-1,-1,-1,-1,-1,-1,-1,-1,-1,-1,-1,-1,-1,-1,-1,-1,-1,-1,-1,-1,-1,-1,-1,-1,-1,-1,-1,-1,-1,-1,-1,-1,-1,-1,-1,-1,-1,-1,-1,-1,-1,-1,-1,-1,-1,-1,-1,-1,-1,-1,-1,-1,-1,-1,-1,-1,-1,-1,-1,-1,-1,-1,-1,-1,-1,-1,-1,-1,-1,-1,-1,-1,-1,-1,-1,-1,-1,-1,-1,-1,-1,-1,-1,-1,-1,-1,-1,-1,-1,-1,-1,-1,-1,-1,-1,-1,-1,-1,-1,-1,-1,-1,-1,-1,-1,-1,-1,-1,-1,-1,-1,-1,-1,-1,-1,-1,-1,-1,-1,-1,-1,-1,-1,-1,-1,-1,-1,-1,-1,-1,-1,-1],"split_conditions":[4.017E1,2.06E1,7.17E1,1.025E1,3.06E1,5.538E1,9.398E1,5.75E0,1.545E1,9.197E1,8.692E1,9.358E1,8.05E1,7.315E1,1.1482E2,2.75E0,8.75E0,8.362E1,5.533E1,2.615E1,2.418E1,3.46E1,1.677E1,4.822E1,6.29E1,6.392E1,4.9E1,8.612E1,2.17E0,1.003E1,8.05E1,-1.3373002E0,-1.2155406E0,3.217E1,4.218E1,1.197E1,8.53E0,1.812E1,1.547E1,6.29E1,6.575E1,1.0543E2,3.581E1,2.097E1,3.917E1,3.402E1,1E0,6.29E1,4.218E1,1.124E1,7.18E0,6.72E1,3.5E0,6.29E1,3E0,8.56E1,3.29E1,9.897E1,1.3688515E0,1.482E1,3.53E1,1.136E1,1.5987912E0,5.37E1,1.2E-1,-1.0253716E0,4.288E1,4.74E0,4.18E1,1.58E1,6.82E0,4.635E1,1.793E1,9.79E1,6.64E0,2.345E1,4.865E1,3.962E1,9.358E1,9.358E1,7.8E-1,1.4013E2,2.85E1,5.71E1,6.158E1,7.145E1,2.523E1,1.597E1,8.818E1,2.151E1,-5.5E-1,1.497E1,3.688E1,3.105E1,6.98E1,9.512E1,2.985E1,-1.26E0,2.177E1,-1.24E0,6.653E1,7.925E1,3.502E1,6.158E1,5.71E1,5.429E1,1.565E1,6.017E1,6.73E0,-2.9585215E-1,7.377E1,4.739E1,5.473506E-1,-9.2E-1,-3.11E0,6.662585E-1,3.258E1,1.4360536E0,3.6725826E0,4.14E0,6.73E0,2.1681653E-1,-7.050614E-1,9.411E1,1.497E1,1.4725152E-1,5.29E0,1.55E0,7.4E0,7.508E1,1.305E1,3.925E1,1.94E0,7.405E1,3.772E1,2.88E0,8.362E1,9.58E0,5.885E1,7.982506E-1,2.073E1,2.38E1,3.81E1,6.505E1,3.537E1,4.677E1,8.53E0,1.98E1,1.645E1,1.1988E2,1.1378E2,-3.8922462E-1,2.483E1,1.2232E2,2.277E1,5.823E1,9.018E1,3.268E1,4.635E1,-5.22E0,2.9E-1,3.735E1,1.0695E2,4.148E1,1.258E2,7.346953E-1,1.832E1,8.38E0,7.405E1,3.29E1,3.675E1,4.635E1,2.01E1,-1.54E0,8.977E1,7.115E1,2.23E1,2.033E1,5.202E1,2.405E1,2.628E1,1.867E1,8.97E0,4.697E1,2.877E1,4.1382238E-1,1.762E1,1.68E0,8.42E0,6.4E0,1.0667E2,8.11E0,4.002E1,2.145E1,7.5E-1,8.002E1,3.65E1,2.655E1,1.725E1,8.5803E-1,1.1583E2,2.7723017E-1,-4.040082E-1,-1.06609724E-1,7.805E1,1.486E1,6.575E1,8.162213E-3,6.6E0,2.5E0,4.865E1,3.11165E0,5.38E1,5.89E0,1.468E1,3.9045772E-1,1.2232E2,9.897E1,2.9540956E0,-3.067363E-1,-1.099365E0,7.2410725E-2,-1.0054266E0,-6.1096686E-1,5.983629E-1,-4.2530987E-1,-8.821622E-1,-9.192258E-1,-9.416364E-2,-8.602759E-1,-7.49714E-1,-4.999201E-1,-7.687997E-1,2.0028725E-1,-2.2403197E-1,-6.0745245E-1,-2.6723403E-2,-1.4583677E-1,-6.083073E-1,-7.4366355E-1,-1.6128461E-1,-6.697905E-1,-2.7240327E-1,-7.893436E-1,-6.575438E-1,1.1258047E-1,-5.2591276E-1,-6.5135837E-1,-3.7547415E-1,1.398894E-1,-2.5736076E-1,-5.5968827E-1,2.1643667E-1,-3.954353E-1,-5.7478267E-1,-4.4568458E-1,-5.6861377E-1,-3.2847401E-1,-4.6008006E-1,2.4258462E-1,-1.5526584E-1,-4.0988812E-1,5.5095595E-1,-2.4580494E-1,5.2527823E-2,2.0436609E-1,-4.020749E-1,5.618394E-1,-7.2093518E-3,2.1607044E-1,-3.0175966E-1,2.5882822E-1,-1.7397846E-1,1.1678666E0,5.279432E-1,1.0970378E-1,-1.9792175E-2,-3.064011E-1,-1.9656403E-2,5.4592735E-1,4.3058917E-2,7.890034E-2,9.605633E-1,-1.7713223E-1,2.4058114E-1,8.62939E-2,7.53643E-1,7.15388E-2,-3.8443822E-1,5.9648013E-1,-9.713849E-2,-3.2209024E-1,-1.5555733E-1,7.240427E-2,2.3389888E-1,6.251423E-1,-1.7592466E-2,8.1265785E-2,1.005812E0,-8.795655E-2,1.0504206E0,4.36615E-2,-1.798597E-1,2.2471972E-1,1.087894E0,1.5867374E0,8.351021E-1,5.240927E-1,1.71291E0,1.8700095E-1,9.136677E-1,-5.6452423E-1,1.3058482E-1,5.0723475E-1,-2.8175285E-2,6.1965954E-1,3.8504183E-1,2.7254775E-1,-3.0776623E-4,1.1672994E0,5.467212E-1,7.267027E-1,2.3487614E-1,1.2348314E-1,1.2926427E0,5.965025E-1,7.546466E-1,1.06842004E-1,5.119984E-1,-5.168053E-2,5.8273983E-1,8.399417E-2,1.3887714E0,6.8435006E-2,2.5181053E0,1.6404352E0,8.3867913E-1,-1.2033448E-1,3.757011E-1,6.5777117E-1,1.7371708E0,8.6856216E-1,1.26145E-1,3.0772576E-1,-4.760471E-1,1.601832E0,1.0193853E0,8.8667566E-1,-5.8390075E-1,4.0840545E-1,9.140873E-1,3.8278702E-1,-3.1288067E-1,1.7379621E0,3.7721702E-1,1.5767108E-1,8.015151E-1,5.3101677E-1,-3.0288523E-1,1.2622215E0,9.8730344E-1,6.827265E-1,1.8045994E0,-6.277342E-2,3.5351554E-1,2.6782837E0,8.470688E-1,1.4743454E0,2.7025503E-1,1.8500763E0,1.5682782E0,1.531012E0,-6.7514944E-1,4.4036227E-1,1.143237E0,4.3534112E-1,1.8251555E0,2.1388874E0,3.0262141E0,1.1007309E0,2.4592533E0,-1.800469E-1,1.2535039E-1,1.4345269E0,3.565317E-1,2.2824628E0,4.8370773E-1,2.2969742E0,2.6728876E0],"split_indices":[13,13,13,13,13,13,13,13,13,10,9,9,9,8,13,13,13,10,10,13,11,13,11,13,12,13,14,13,6,10,12,0,0,14,10,13,15,13,15,10,9,12,2,15,14,10,4,9,12,3,3,12,11,7,11,12,14,15,0,2,14,2,0,10,0,0,10,3,10,11,3,12,14,12,1,13,11,12,12,8,4,0,14,12,12,9,7,1,8,1,6,12,12,14,14,8,15,6,11,6,14,14,14,7,10,0,15,11,3,0,14,1,0,4,4,0,8,0,0,3,2,0,0,1,12,0,4,6,15,12,13,11,6,8,10,11,11,11,11,0,11,14,12,10,2,9,15,11,15,10,7,0,2,10,2,8,0,2,7,4,6,13,11,8,15,0,1,11,12,13,13,11,15,6,12,0,15,0,13,15,9,14,15,1,12,0,14,6,3,11,15,3,11,3,4,1,12,7,0,0,7,0,0,0,15,3,8,0,8,10,8,0,1,0,2,0,12,13,0,0,0,0,0,0,0,0,0,0,0,0,0,0,0,0,0,0,0,0,0,0,0,0,0,0,0,0,0,0,0,0,0,0,0,0,0,0,0,0,0,0,0,0,0,0,0,0,0,0,0,0,0,0,0,0,0,0,0,0,0,0,0,0,0,0,0,0,0,0,0,0,0,0,0,0,0,0,0,0,0,0,0,0,0,0,0,0,0,0,0,0,0,0,0,0,0,0,0,0,0,0,0,0,0,0,0,0,0,0,0,0,0,0,0,0,0,0,0,0,0,0,0,0,0,0,0,0,0,0,0,0,0,0,0,0,0,0,0,0,0,0,0,0,0,0,0,0,0,0,0,0,0,0,0,0,0,0,0,0,0,0,0,0,0,0,0,0,0,0,0],"split_type":[0,0,0,0,0,0,0,0,0,0,0,0,0,0,0,0,0,0,0,0,0,0,0,0,0,0,0,0,0,0,0,0,0,0,0,0,0,0,0,0,0,0,0,0,0,0,0,0,0,0,0,0,0,0,0,0,0,0,0,0,0,0,0,0,0,0,0,0,0,0,0,0,0,0,0,0,0,0,0,0,0,0,0,0,0,0,0,0,0,0,0,0,0,0,0,0,0,0,0,0,0,0,0,0,0,0,0,0,0,0,0,0,0,0,0,0,0,0,0,0,0,0,0,0,0,0,0,0,0,0,0,0,0,0,0,0,0,0,0,0,0,0,0,0,0,0,0,0,0,0,0,0,0,0,0,0,0,0,0,0,0,0,0,0,0,0,0,0,0,0,0,0,0,0,0,0,0,0,0,0,0,0,0,0,0,0,0,0,0,0,0,0,0,0,0,0,0,0,0,0,0,0,0,0,0,0,0,0,0,0,0,0,0,0,0,0,0,0,0,0,0,0,0,0,0,0,0,0,0,0,0,0,0,0,0,0,0,0,0,0,0,0,0,0,0,0,0,0,0,0,0,0,0,0,0,0,0,0,0,0,0,0,0,0,0,0,0,0,0,0,0,0,0,0,0,0,0,0,0,0,0,0,0,0,0,0,0,0,0,0,0,0,0,0,0,0,0,0,0,0,0,0,0,0,0,0,0,0,0,0,0,0,0,0,0,0,0,0,0,0,0,0,0,0,0,0,0,0,0,0,0,0,0,0,0,0,0,0,0,0,0,0,0,0,0,0,0,0,0,0,0,0,0,0,0,0,0,0,0,0,0,0,0,0,0,0,0,0,0,0,0,0,0,0,0,0,0,0,0,0,0,0,0,0,0,0,0,0,0],"sum_hessian":[1.5717E4,1.0862E4,4.855E3,5.672E3,5.19E3,3.521E3,1.334E3,1.96E3,3.712E3,3.026E3,2.164E3,2.117E3,1.404E3,9.23E2,4.11E2,8E2,1.16E3,1.782E3,1.93E3,2.83E3,1.96E2,1.99E3,1.74E2,1.993E3,1.24E2,1.266E3,1.38E2,8.64E2,5.9E1,3E2,1.11E2,1.83E2,6.17E2,7.31E2,4.29E2,1.603E3,1.79E2,1.446E3,4.84E2,1.727E3,1.103E3,7.2E1,1.24E2,9.01E2,1.089E3,8.2E1,9.2E1,1.187E3,8.06E2,9.2E1,3.2E1,7.94E2,4.72E2,9.7E1,4.1E1,6.37E2,2.27E2,5.5E1,4E0,5E1,2.5E2,1.05E2,6E0,7.28E2,3E0,2.66E2,1.63E2,4.93E2,1.11E3,3.4E1,1.45E2,7.55E2,6.91E2,1.8E2,3.04E2,1.533E3,1.94E2,9.53E2,1.5E2,6.6E1,6E0,1.13E2,1.1E1,1.38E2,7.63E2,6.28E2,4.61E2,1E1,7.2E1,3.8E1,5.4E1,1.05E3,1.37E2,6.13E2,1.93E2,5E1,4.2E1,7E0,2.5E1,7.32E2,6.2E1,3.2E1,4.4E2,6.3E1,3.4E1,2E0,3.9E1,6.18E2,1.9E1,1E0,2.26E2,5.4E1,1E0,9E0,4.1E1,2E0,2.48E2,2E0,1.03E2,5.44E2,1.84E2,1E0,2E0,4E0,1.59E2,1E0,4.92E2,7.84E2,3.26E2,1.5E1,1.9E1,1.3E1,1.32E2,4.62E2,2.93E2,1.94E2,4.97E2,1.44E2,3.6E1,1E0,3.03E2,8.19E2,7.14E2,1.15E2,7.9E1,6.29E2,3.24E2,1E2,5E1,1.1E1,5.5E1,2E0,4E0,8.4E1,2.9E1,8E0,3E0,1.15E2,2.3E1,6.45E2,1.18E2,5.88E2,4E1,2.37E2,2.24E2,2E0,8E0,1.1E1,6.1E1,9E0,2.9E1,1.2E1,4.2E1,4.57E2,5.93E2,6.9E1,6.8E1,2.6E1,5.87E2,1.67E2,2.6E1,2.1E1,2.9E1,3.6E1,6E0,1E0,6E0,1.4E1,1.1E1,1.77E2,5.55E2,3.6E1,2.6E1,2.7E1,5E0,6E0,4.34E2,6.1E1,2E0,3E0,3.1E1,1E0,1E0,1E0,3.8E1,3.14E2,3.04E2,1E0,1.8E1,3.7E1,1.89E2,3.3E1,2.1E1,2E0,7E0,1E0,4E1,1.86E2,6.2E1,1E0,5.43E2,1E0,1.83E2,3E0,1E0,5E0,1.54E2,4.9E2,2E0,6.28E2,1.56E2,2.3E1,3.03E2,9E0,6E0,1.5E1,4E0,7E0,6E0,1.3E2,2E0,4.5E2,1.2E1,1.86E2,1.07E2,8E0,1.86E2,4.7E2,2.7E1,2.1E1,1.23E2,3.5E1,1E0,8.8E1,2.15E2,4.38E2,3.81E2,4.2E2,2.94E2,1.8E1,9.7E1,7.7E1,2E0,5.89E2,4E1,6E0,3.18E2,3.5E1,6.5E1,3E0,4.7E1,9E0,2E0,3.5E1,2E1,3E0,1E0,5.3E1,3.1E1,9E0,2E1,1E0,7E0,1E0,2E0,1.03E2,1.2E1,8E0,1.5E1,5E0,6.4E2,6.7E1,5.1E1,3.32E2,2.56E2,3.3E1,7E0,2.36E2,1E0,2.23E2,1E0,2E0,6E0,9E0,2E0,4.9E1,1.2E1,3E0,6E0,2.1E1,8E0,9E0,3E0,1.8E1,2.4E1,6.1E1,3.96E2,5.51E2,4.2E1,4.3E1,2.6E1,1.9E1,4.9E1,5E0,2.1E1,3.39E2,2.48E2,1.9E1,1.48E2,2.2E1,4E0,2E0,1.9E1,1E0,2.8E1,2E1,1.6E1,3E0,3E0,2E0,4E0,1.1E1,3E0,6E0,5E0,2E1,1.57E2,5.54E2,1E0,1.1E1,2.5E1,2.2E1,4E0,2.6E1,1E0,1E0,4E0,4E0,2E0,3.38E2,9.6E1,3E0,5.8E1,1E0,1E0,2.9E1,2E0,3.6E1,2E0,2.14E2,1E2,3.03E2,1E0,4E0,1.4E1,2E0,3.5E1,1.8E2,9E0,3E0,1.8E1,1E0,1E0,6E0,1E0,3.9E1,1E0,7.7E1,1.09E2],"tree_param":{"num_deleted":"0","num_feature":"19","num_nodes":"389","size_leaf_vector":"1"}},{"base_weights":[-1.0972492E-1,-8.959861E0,2.435945E1,-1.6075258E1,-1.8762124E0,1.6458447E1,4.1065796E1,-2.0787668E1,-1.2954446E1,-5.8246703E0,2.257798E0,1.1569579E1,2.101838E1,3.386904E1,5.1710747E1,-2.305834E1,-1.8777704E1,-1.5333007E1,-1.1153394E1,-6.5068083E0,5.033173E0,1.1596416E0,9.281802E0,1.06608715E1,2.7081423E1,1.9602434E1,3.3457233E1,3.2686726E1,5.059192E1,4.7191284E1,6.735875E1,-1.2314619E0,-2.213448E1,-1.979358E1,-1.7243622E1,-1.62632E1,-1.3566744E1,-1.2605085E1,-8.848367E0,-7.7628856E0,-3.8037815E0,1.3670079E1,-1.9472682E-1,-9.5283645E-1,4.0649695E0,5.472318E0,1.7521826E1,8.978413E0,1.2853979E1,3.517227E1,5.991092E0,1.6943525E1,2.3293018E1,3.743661E1,1.5837148E1,3.019797E1,3.6465443E1,8.372981E-1,5.163163E1,4.282062E1,5.0482407E1,-1.0577965E-1,6.797063E1,-1.1317904E0,-2.0354298E1,-2.0293201E1,-1.816532E1,-1.7750938E1,-1.3132692E1,-1.7349825E1,-1.5475412E1,-4.7760096E0,-1.3983313E1,-1.3404805E1,-1.0836127E1,-1.0068252E1,-4.3165436E0,-9.463629E0,-6.4228272E0,-4.688105E0,5.513788E0,1.671918E1,1.1506225E0,-1.6245027E0,1.1617151E1,-2.63098E0,1.3924909E0,3.7355978E0,1.7674322E1,1.798644E1,4.01743E0,8.023702E0,3.0214903E1,8.328508E0,1.6420773E1,1.4179159E1,7.670926E0,1.9020891E1,4.0896626E1,-5.509311E-1,7.3257747E0,1.51594515E1,1.8923365E1,2.0343504E1,2.4890486E1,3.2295067E1,4.312266E1,-3.92233E-1,1.7881899E1,2.935585E1,4.164326E1,3.747659E1,2.7941101E1,5.2694733E1,8.8829184E-1,6.7761893E0,4.3371475E1,4.721979E1,5.8410915E1,9.07289E-1,3.433968E0,-2.9046366E-1,-2.0409239E1,-2.0411242E1,-1.4745987E1,-3.6940854E0,-1.8307163E1,-1.7829138E1,-5.2114487E-1,-1.4419721E1,-5.512986E0,-1.8496769E1,-1.659226E1,-2.514175E0,-1.5539443E1,-9.432889E0,-4.43255E-1,-1.4439806E1,-8.576288E0,-1.4060647E1,-1.2094421E1,3.1813965E0,-1.0955794E1,-7.1617928E0,-1.08614235E1,-1.3905968E-1,-7.50431E0,-1.0645075E1,-8.2363825E0,-7.1202636E0,-4.969415E0,-6.550959E0,-2.4591591E0,8.456762E0,-4.602447E0,1.1597757E1,2.2424324E1,-2.3214722E0,1.0411227E1,1.9903564E0,-4.930055E0,9.992084E-1,4.9356217E0,-1.1544576E0,-4.484595E0,9.761966E-1,2.815813E1,4.6912994E0,1.2720941E0,6.0005994E0,3.0925034E1,3.9867103E0,2.0986984E1,1.212108E0,6.295522E0,2.0625725E0,1.5456654E1,3.3054512E1,1.6884092E1,6.672607E0,1.03803425E1,2.5049385E1,1.3868344E1,2.086233E1,1.3120905E1,9.303212E0,-1.562362E-1,2.2600086E1,3.313323E-1,4.6519455E1,2.4368639E1,1.244065E1,4.450448E0,1.5490404E1,4.7154055E0,1.9333754E1,5.4109836E0,1.6468555E1,2.4129486E1,2.2803844E1,2.7697687E1,3.342635E1,1.5222653E1,2.6892805E1,4.813079E1,1.33782425E1,1.5707495E0,2.9679789E1,1.5598621E1,3.0368152E0,3.402176E1,1.7891638E0,4.1377506E1,-7.9578094E0,3.0357937E1,5.3570625E1,1.0995717E0,6.440498E-1,-2.884558E-1,4.3646847E1,-1.7554574E-1,4.74688E1,1.22216605E-1,6.855545E-1,5.96317E1,-2.9906788E-1,-1.023135E0,-1.0215025E0,-2.6012173E-1,-9.187623E-1,-8.58562E-3,-3.4765688E-1,7.0600465E-2,-8.448229E-2,-9.1957515E-1,-7.577076E-1,-9.100733E-1,-4.1898823E-1,3.7990236E-1,-7.4069387E-1,1.1249447E-1,4.5833398E-2,-4.9761E-1,-1.8822832E-1,-9.285188E-1,-8.66237E-1,-7.572998E-1,-3.284912E-2,-1.4571224E-1,-7.88897E-1,-6.245016E-1,-6.2068236E-1,-2.1915948E-1,-1.9333185E-1,3.24608E-1,-2.9392573E-1,-7.2705597E-1,-5.54772E-1,1.6010706E-1,-5.735688E-1,-7.1297926E-1,1.2948404E-1,-6.077838E-1,8.5705996E-1,-3.592802E-1,-5.8106536E-1,-4.4540292E-1,-3.87394E-1,2.205442E-1,-5.6043994E-1,-2.5902256E-1,7.200307E-1,-4.8996203E-2,-4.2627916E-1,4.36254E-1,-5.416072E-1,-1.3438936E-1,3.0624765E-1,-4.231573E-1,-3.252731E-1,-4.3880525E-1,-4.4968903E-2,-2.7701375E-1,1.1437466E-1,-3.4130237E-1,2.3490849E-1,-1.6596311E-1,-3.1473193E-1,5.5916876E-1,7.118221E-2,-6.1565083E-1,7.244062E-1,1.555293E-3,1.5224877E-1,1.2523903E0,-3.015835E-1,3.30154E-2,6.0396105E-1,1.3518114E-1,-8.163842E-2,3.5721847E-1,-3.5227787E-1,1.7977516E-1,-1.1802057E-1,3.8805172E-1,-1.7766003E-1,-6.301664E-3,-2.548246E-1,-2.1723637E-2,5.099771E-1,1.836955E-2,1.6059078E0,4.7660166E-1,2.1668263E-1,6.404247E-1,-4.7861945E-2,1.6925156E-1,8.8912964E-2,4.472536E-1,8.8943475E-1,2.4733226E0,4.872593E-2,4.7619173E-1,5.7028115E-1,1.2823681E0,-2.5241602E-2,2.4566637E-1,4.6897117E-2,3.981837E-1,2.867292E-1,-5.611321E-1,1.1304406E0,4.5175812E-1,1.7061913E0,-2.429513E-1,1.9113068E-1,1.0652161E0,4.372799E-2,3.6215636E-1,9.014551E-1,4.8711476E-1,1.3269213E0,2.1674748E-1,4.1697097E-1,8.506262E-1,1.3192236E0,7.511738E-1,5.985668E-1,7.879364E-1,1.0601547E0,4.1371486E-1,4.6047068E-1,-1.829295E-1,4.2513797E-1,1.3177222E0,8.300339E-1,2.4091208E0,5.314686E-1,1.6331961E0,1.353981E-1,7.896067E-1,3.4133476E-1,-8.3369255E-2,8.193049E-1,6.1314905E-1,-2.0935097E-1,5.063211E-1,8.989893E-1,1.1830859E0,-5.8666676E-1,5.0065905E-1,1.1245146E0,6.393718E-1,1.9229447E0,1.1388464E0,6.461132E-1,1.1593871E0,6.624694E-1,1.40068E0,1.688082E0,3.2434255E-1,8.273141E-1,2.1511269E-1,3.5265097E-1,1.6733044E0,2.5163925E0,1.1342925E0,2.7640936E-1,8.7345594E-1,9.570142E-1,1.5025369E0,1.8194453E-1,8.8133395E-1,6.509699E-1,1.8260571E0,2.0861166E0,4.223714E-1,-6.582708E-1,6.1435033E-2,1.8435265E0,9.4429076E-1,2.3438468E0,3.1916442E0,2.198033E0,9.306747E-1,2.002893E0,2.4869413E0,3.0028567E0,8.4200495E-1],"categories":[],"categories_nodes":[],"categories_segments":[],"categories_sizes":[],"default_left":[0,0,0,0,0,0,0,0,0,0,0,0,0,0,0,0,0,0,0,0,0,0,0,0,0,0,0,0,0,0,0,0,0,0,0,0,0,0,0,0,0,0,0,0,0,0,0,0,0,0,0,0,0,0,0,0,0,0,0,0,0,0,0,0,0,0,0,0,0,0,0,0,0,0,0,0,0,0,0,0,0,0,0,0,0,0,0,0,0,0,0,0,0,0,0,0,0,0,0,0,0,0,0,0,0,0,0,0,0,0,0,0,0,0,0,0,0,0,0,0,0,0,0,0,0,0,0,0,0,0,0,0,0,0,0,0,0,0,0,0,0,0,0,0,0,0,0,0,0,0,0,0,0,0,0,0,0,0,0,0,0,0,0,0,0,0,0,0,0,0,0,0,0,0,0,0,0,0,0,0,0,0,0,0,0,0,0,0,0,0,0,0,0,0,0,0,0,0,0,0,0,0,0,0,0,0,0,0,0,0,0,0,0,0,0,0,0,0,0,0,0,0,0,0,0,0,0,0,0,0,0,0,0,0,0,0,0,0,0,0,0,0,0,0,0,0,0,0,0,0,0,0,0,0,0,0,0,0,0,0,0,0,0,0,0,0,0,0,0,0,0,0,0,0,0,0,0,0,0,0,0,0,0,0,0,0,0,0,0,0,0,0,0,0,0,0,0,0,0,0,0,0,0,0,0,0,0,0,0,0,0,0,0,0,0,0,0,0,0,0,0,0,0,0,0,0,0,0,0,0,0,0,0,0,0,0,0,0,0,0,0,0,0,0,0,0,0,0,0,0,0,0,0,0,0,0,0,0,0,0,0,0,0,0,0,0,0,0,0,0,0,0,0,0,0,0,0,0,0,0,0,0,0,0,0,0,0,0,0,0,0,0,0,0,0,0,0,0,0,0,0,0,0,0,0,0,0,0,0],"id":4,"left_children":[1,3,5,7,9,11,13,15,17,19,21,23,25,27,29,31,33,35,37,39,41,43,45,47,49,51,53,55,57,59,61,-1,63,65,67,69,71,73,75,77,79,81,83,85,87,89,91,93,95,97,99,101,103,105,107,109,111,-1,113,115,117,-1,119,-1,121,123,125,127,129,131,133,135,137,139,141,143,145,147,149,151,153,155,157,159,161,163,165,167,169,171,173,175,177,179,181,183,185,187,189,-1,191,193,195,197,199,201,203,-1,205,207,209,211,213,215,-1,217,219,221,223,-1,-1,-1,225,227,229,231,233,235,237,239,241,243,245,247,249,251,253,255,257,259,261,263,265,267,269,271,273,275,277,279,281,283,285,287,289,291,293,295,297,299,301,-1,303,305,307,309,311,313,315,317,319,321,323,325,327,329,331,333,335,337,339,341,343,345,347,349,351,353,-1,355,357,359,361,363,365,367,369,371,373,375,377,379,381,383,385,387,-1,389,391,-1,393,-1,395,397,399,401,-1,-1,-1,403,-1,405,-1,-1,407,-1,-1,-1,-1,-1,-1,-1,-1,-1,-1,-1,-1,-1,-1,-1,-1,-1,-1,-1,-1,-1,-1,-1,-1,-1,-1,-1,-1,-1,-1,-1,-1,-1,-1,-1,-1,-1,-1,-1,-1,-1,-1,-1,-1,-1,-1,-1,-1,-1,-1,-1,-1,-1,-1,-1,-1,-1,-1,-1,-1,-1,-1,-1,-1,-1,-1,-1,-1,-1,-1,-1,-1,-1,-1,-1,-1,-1,-1,-1,-1,-1,-1,-1,-1,-1,-1,-1,-1,-1,-1,-1,-1,-1,-1,-1,-1,-1,-1,-1,-1,-1,-1,-1,-1,-1,-1,-1,-1,-1,-1,-1,-1,-1,-1,-1,-1,-1,-1,-1,-1,-1,-1,-1,-1,-1,-1,-1,-1,-1,-1,-1,-1,-1,-1,-1,-1,-1,-1,-1,-1,-1,-1,-1,-1,-1,-1,-1,-1,-1,-1,-1,-1,-1,-1,-1,-1,-1,-1,-1,-1,-1,-1,-1,-1,-1,-1,-1,-1,-1,-1,-1,-1,-1,-1,-1,-1,-1,-1,-1,-1,-1,-1,-1,-1],"loss_changes":[3.3940762E6,5.80108E5,5.488275E5,8.4175625E4,9.418034E4,6.2801188E4,1.00598E5,1.000025E4,1.46384375E4,2.1889469E4,2.173346E4,1.898014E4,2.5094E4,1.4163625E4,3.479825E4,1.0063125E3,1.556875E3,2.2224375E3,6.483797E3,9.398969E3,7.904416E3,1.4973096E4,1.1863801E4,4.6555312E3,1.2587176E4,1.2509344E4,9.784422E3,5.952125E3,9.300703E2,3.8798125E3,5.1599375E3,0E0,1.488125E2,2.2196875E2,7.950625E2,5.609844E2,1.8337656E3,1.56225E3,4.1856914E3,4.2581094E3,7.301546E3,2.5001855E3,1.8765892E3,5.564943E3,4.537543E3,4.6978833E3,1.42248125E4,3.4183047E3,3.7307031E3,4.21475E3,5.801764E2,2.4258594E3,2.0756562E3,2.1155469E3,1.5445562E3,3.191875E3,1.4783125E3,0E0,8.2796875E2,3.419E3,3.294875E3,0E0,2.885375E3,0E0,9.296875E0,5.71875E1,3.0185156E2,5.781406E2,4.892959E2,3.978125E1,4.348125E2,5.0024664E2,1.0979609E3,5.406719E2,6.739531E2,1.3100156E3,2.1829185E3,1.1201094E3,1.0421367E3,3.3347148E3,2.3313516E3,1.2885059E3,4.743211E2,1.192774E3,5.722191E2,2.2500317E3,6.5465176E3,2.3578252E3,3.5268735E3,1.0505146E3,1.5005938E3,3.0697344E3,1.3724727E3,2.234332E3,9.2999316E2,2.866461E3,1.4834888E3,5.6001953E2,2.4908086E3,0E0,2.5347925E2,1.3406484E3,1.8916953E3,2.5073828E3,1.4244062E3,7.851797E2,3.0948125E3,0E0,1.2253301E3,1.4533125E3,2.1536562E3,2.3021875E2,3.278248E3,8.586719E1,0E0,3.8065866E2,2.5287188E3,1.7905E3,2.6747812E3,0E0,0E0,0E0,2.5E-1,4.6171875E1,7.902522E2,5.974098E1,2.1839062E2,1.564375E2,2.5508678E2,3.5528125E2,2.94549E2,9.275391E1,2.4375E0,1.0574226E0,2.1603125E2,1.2621167E2,3.5749887E2,3.0916406E2,1.2520671E3,1.1715625E2,2.8602734E2,7.0205505E2,4.1161328E2,9.29478E2,8.7141406E2,8.943758E2,1.6158276E3,5.975664E2,1.3968262E3,6.718086E2,8.035674E2,1.0829766E3,2.2871733E3,2.4836768E3,8.5389215E2,1.0025054E3,1.1439229E3,1.25675705E2,1.8767273E1,9.0799945E2,9.631958E2,0E0,1.8323369E2,1.1343379E3,9.023501E2,3.2643137E3,3.57687E2,2.0434277E3,1.3315842E3,1.5814923E2,1.7992861E3,9.079211E1,6.8983594E2,6.824409E2,1.154374E3,2.0156951E3,1.2194785E3,1.8280078E3,5.536438E2,1.2440527E3,1.2933125E3,2.5509375E2,6.751699E2,1.5059473E3,9.8183594E2,9.9998047E2,7.225317E2,4.1103125E2,0E0,5.932383E2,1.02045654E3,1.8556812E2,2.29445E2,9.438047E2,7.167958E2,1.6196719E3,1.0643065E3,1.9512461E3,1.02339844E3,4.856172E2,2.906797E2,3.41E2,1.5541016E1,1.7201504E3,1.0944219E3,6.099265E2,0E0,1.063E3,2.269187E2,0E0,7.318574E2,0E0,4.65125E2,1.5969551E2,1.7692051E3,9.8859375E1,0E0,0E0,0E0,6.1934375E2,0E0,8.675E2,0E0,0E0,1.1734375E2,0E0,0E0,0E0,0E0,0E0,0E0,0E0,0E0,0E0,0E0,0E0,0E0,0E0,0E0,0E0,0E0,0E0,0E0,0E0,0E0,0E0,0E0,0E0,0E0,0E0,0E0,0E0,0E0,0E0,0E0,0E0,0E0,0E0,0E0,0E0,0E0,0E0,0E0,0E0,0E0,0E0,0E0,0E0,0E0,0E0,0E0,0E0,0E0,0E0,0E0,0E0,0E0,0E0,0E0,0E0,0E0,0E0,0E0,0E0,0E0,0E0,0E0,0E0,0E0,0E0,0E0,0E0,0E0,0E0,0E0,0E0,0E0,0E0,0E0,0E0,0E0,0E0,0E0,0E0,0E0,0E0,0E0,0E0,0E0,0E0,0E0,0E0,0E0,0E0,0E0,0E0,0E0,0E0,0E0,0E0,0E0,0E0,0E0,0E0,0E0,0E0,0E0,0E0,0E0,0E0,0E0,0E0,0E0,0E0,0E0,0E0,0E0,0E0,0E0,0E0,0E0,0E0,0E0,0E0,0E0,0E0,0E0,0E0,0E0,0E0,0E0,0E0,0E0,0E0,0E0,0E0,0E0,0E0,0E0,0E0,0E0,0E0,0E0,0E0,0E0,0E0,0E0,0E0,0E0,0E0,0E0,0E0,0E0,0E0,0E0,0E0,0E0,0E0,0E0,0E0,0E0,0E0,0E0,0E0,0E0,0E0,0E0,0E0,0E0,0E0,0E0,0E0,0E0,0E0,0E0,0E0,0E0,0E0,0E0,0E0,0E0,0E0,0E0,0E0,0E0,0E0,0E0,0E0,0E0],"parents":[2147483647,0,0,1,1,2,2,3,3,4,4,5,5,6,6,7,7,8,8,9,9,10,10,11,11,12,12,13,13,14,14,15,15,16,16,17,17,18,18,19,19,20,20,21,21,22,22,23,23,24,24,25,25,26,26,27,27,28,28,29,29,30,30,32,32,33,33,34,34,35,35,36,36,37,37,38,38,39,39,40,40,41,41,42,42,43,43,44,44,45,45,46,46,47,47,48,48,49,49,50,50,51,51,52,52,53,53,54,54,55,55,56,56,58,58,59,59,60,60,62,62,64,64,65,65,66,66,67,67,68,68,69,69,70,70,71,71,72,72,73,73,74,74,75,75,76,76,77,77,78,78,79,79,80,80,81,81,82,82,83,83,84,84,85,85,86,86,87,87,88,88,89,89,90,90,91,91,92,92,93,93,94,94,95,95,96,96,97,97,98,98,100,100,101,101,102,102,103,103,104,104,105,105,106,106,108,108,109,109,110,110,111,111,112,112,113,113,115,115,116,116,117,117,118,118,122,122,123,123,124,124,125,125,126,126,127,127,128,128,129,129,130,130,131,131,132,132,133,133,134,134,135,135,136,136,137,137,138,138,139,139,140,140,141,141,142,142,143,143,144,144,145,145,146,146,147,147,148,148,149,149,150,150,151,151,152,152,153,153,154,154,155,155,156,156,157,157,158,158,159,159,160,160,162,162,163,163,164,164,165,165,166,166,167,167,168,168,169,169,170,170,171,171,172,172,173,173,174,174,175,175,176,176,177,177,178,178,179,179,180,180,181,181,182,182,183,183,184,184,185,185,186,186,187,187,189,189,190,190,191,191,192,192,193,193,194,194,195,195,196,196,197,197,198,198,199,199,200,200,201,201,202,202,203,203,204,204,205,205,207,207,208,208,210,210,212,212,213,213,214,214,215,215,219,219,221,221,224,224],"right_children":[2,4,6,8,10,12,14,16,18,20,22,24,26,28,30,32,34,36,38,40,42,44,46,48,50,52,54,56,58,60,62,-1,64,66,68,70,72,74,76,78,80,82,84,86,88,90,92,94,96,98,100,102,104,106,108,110,112,-1,114,116,118,-1,120,-1,122,124,126,128,130,132,134,136,138,140,142,144,146,148,150,152,154,156,158,160,162,164,166,168,170,172,174,176,178,180,182,184,186,188,190,-1,192,194,196,198,200,202,204,-1,206,208,210,212,214,216,-1,218,220,222,224,-1,-1,-1,226,228,230,232,234,236,238,240,242,244,246,248,250,252,254,256,258,260,262,264,266,268,270,272,274,276,278,280,282,284,286,288,290,292,294,296,298,300,302,-1,304,306,308,310,312,314,316,318,320,322,324,326,328,330,332,334,336,338,340,342,344,346,348,350,352,354,-1,356,358,360,362,364,366,368,370,372,374,376,378,380,382,384,386,388,-1,390,392,-1,394,-1,396,398,400,402,-1,-1,-1,404,-1,406,-1,-1,408,-1,-1,-1,-1,-1,-1,-1,-1,-1,-1,-1,-1,-1,-1,-1,-1,-1,-1,-1,-1,-1,-1,-1,-1,-1,-1,-1,-1,-1,-1,-1,-1,-1,-1,-1,-1,-1,-1,-1,-1,-1,-1,-1,-1,-1,-1,-1,-1,-1,-1,-1,-1,-1,-1,-1,-1,-1,-1,-1,-1,-1,-1,-1,-1,-1,-1,-1,-1,-1,-1,-1,-1,-1,-1,-1,-1,-1,-1,-1,-1,-1,-1,-1,-1,-1,-1,-1,-1,-1,-1,-1,-1,-1,-1,-1,-1,-1,-1,-1,-1,-1,-1,-1,-1,-1,-1,-1,-1,-1,-1,-1,-1,-1,-1,-1,-1,-1,-1,-1,-1,-1,-1,-1,-1,-1,-1,-1,-1,-1,-1,-1,-1,-1,-1,-1,-1,-1,-1,-1,-1,-1,-1,-1,-1,-1,-1,-1,-1,-1,-1,-1,-1,-1,-1,-1,-1,-1,-1,-1,-1,-1,-1,-1,-1,-1,-1,-1,-1,-1,-1,-1,-1,-1,-1,-1,-1,-1,-1,-1,-1,-1,-1,-1,-1],"split_conditions":[4.42E1,2.08E1,7.17E1,1.118E1,3.06E1,5.483E1,8.965E1,6.9E0,1.545E1,9.512E1,7.802E1,8.692E1,6.378E1,7.685E1,1.1482E2,3.73E0,1.375E1,2.045E1,2.462E1,3.29E1,2.418E1,3.767E1,8.818E1,4.947E1,4.615E1,6.315E1,5.745E1,8.082E1,5.22E0,4.305E1,1.77E0,-1.2314619E0,1.412E1,5.21E1,8.262E1,1.285E1,8.05E0,4.405E1,7.145E1,2.44E1,8.56E1,9.197E1,3.56E1,3.53E1,9.398E1,1.45E1,5.202E1,6.017E1,4.37E1,3.917E1,8.21E0,4.822E1,3.985E1,9.633E1,1.005E1,1.0222E2,5.26E1,8.372981E-1,1.1788E2,3.53E1,3.258E1,-1.0577965E-1,1.395E1,-1.1317904E0,2.33E0,3.502E1,6.73E0,9.197E1,3.227E1,1.062E1,4.92E0,2.58E1,9.358E1,1.882E1,4.92E0,1.58E1,2.107E1,2.098E1,2.85E1,2.638E1,2.985E1,2.58E1,2.31E0,1.5E1,3.015E1,3.542E1,1.0543E2,4.18E1,3.19E1,3.34E1,4.865E1,-6.6E-1,1.3552E2,4.388E1,7.92E0,3.985E1,6.653E1,4E-1,1.486E1,-5.509311E-1,-1.47E0,3.768E1,2.04E0,-6.1E-1,3.985E1,1.039E2,1.91E1,-3.92233E-1,6.882E1,8.46E1,3.9E0,1.425E1,5.22E0,6.73E1,8.8829184E-1,3.379E1,1.1003E2,1.1003E2,1.927E1,9.07289E-1,3.433968E0,-2.9046366E-1,4.14E0,5.78E0,2.42E1,6.07E0,3.13E0,6.6E0,1.155E1,2.097E1,7.6E0,8E-1,4.52E1,8.79E0,7.802E1,7.1E0,8.56E1,-4.28E0,1.988E1,1.135E1,2.73E0,2.761E1,1.927E1,6.112E1,5.907E1,7.4E0,2.75E0,8.15E1,1.078E1,3.173E1,1.63E1,5.65E0,2.097E1,3.44E1,2.985E1,1.945E1,9.358E1,7.8E-1,7.18E0,9.512E1,1.185E1,9.992084E-1,1.0695E2,1.962E1,8.46E1,2.01E1,7.25E0,5.885E1,2.58E1,9.24E0,1.3E1,3.1E1,-9.6E-1,4.017E1,3.317E1,1.008E2,1.1583E2,6.017E1,7.405E1,9.38E0,3.9E0,1.994E1,-1.48E0,2.785E1,5.907E1,2.7E0,7.92E0,4.74E1,3.313323E-1,1.102E1,-1.7E0,2.145E1,1.3552E2,4.218E1,3.367E1,1.869E1,3.9E0,1.105E1,2.33E0,-2.47E0,-2.91E0,4.55E0,2.54E1,5E1,4.58E1,5.97E1,1.5707495E0,1.995E1,-1.78E0,3.0368152E0,6.392E1,1.7891638E0,9.628E1,1.636E1,2.592E1,5.478E1,1.0995717E0,6.440498E-1,-2.884558E-1,5.823E1,-1.7554574E-1,7.377E1,1.22216605E-1,6.855545E-1,1.0222E2,-2.9906788E-1,-1.023135E0,-1.0215025E0,-2.6012173E-1,-9.187623E-1,-8.58562E-3,-3.4765688E-1,7.0600465E-2,-8.448229E-2,-9.1957515E-1,-7.577076E-1,-9.100733E-1,-4.1898823E-1,3.7990236E-1,-7.4069387E-1,1.1249447E-1,4.5833398E-2,-4.9761E-1,-1.8822832E-1,-9.285188E-1,-8.66237E-1,-7.572998E-1,-3.284912E-2,-1.4571224E-1,-7.88897E-1,-6.245016E-1,-6.2068236E-1,-2.1915948E-1,-1.9333185E-1,3.24608E-1,-2.9392573E-1,-7.2705597E-1,-5.54772E-1,1.6010706E-1,-5.735688E-1,-7.1297926E-1,1.2948404E-1,-6.077838E-1,8.5705996E-1,-3.592802E-1,-5.8106536E-1,-4.4540292E-1,-3.87394E-1,2.205442E-1,-5.6043994E-1,-2.5902256E-1,7.200307E-1,-4.8996203E-2,-4.2627916E-1,4.36254E-1,-5.416072E-1,-1.3438936E-1,3.0624765E-1,-4.231573E-1,-3.252731E-1,-4.3880525E-1,-4.4968903E-2,-2.7701375E-1,1.1437466E-1,-3.4130237E-1,2.3490849E-1,-1.6596311E-1,-3.1473193E-1,