{"learner":{"attributes":{"best_iteration":"115","best_score":"7.729116671083287","scikit_learn":"{\"_estimator_type\": \"regressor\"}"},"feature_names":["O3_forecast","NO2_forecast","T_forecast","q_forecast","u_forecast","v_forecast","w_forecast","O3_target_lag_1","O3_target_lag_2","O3_target_lag_3","O3_target_lag_6","O3_target_lag_12","O3_target_lag_24","NO2_target_lag_1","NO2_target_lag_2","NO2_target_lag_3","NO2_target_lag_6","NO2_target_lag_12","NO2_target_lag_24"],"feature_types":["float","float","float","float","float","float","float","float","float","float","float","float","float","float","float","float","float","float","float"],"gradient_booster":{"model":{"cats":{"enc":[],"feature_segments":[],"sorted_idx":[]},"gbtree_model_param":{"num_parallel_tree":"1","num_trees":"166"},"iteration_indptr":[0,1,2,3,4,5,6,7,8,9,10,11,12,13,14,15,16,17,18,19,20,21,22,23,24,25,26,27,28,29,30,31,32,33,34,35,36,37,38,39,40,41,42,43,44,45,46,47,48,49,50,51,52,53,54,55,56,57,58,59,60,61,62,63,64,65,66,67,68,69,70,71,72,73,74,75,76,77,78,79,80,81,82,83,84,85,86,87,88,89,90,91,92,93,94,95,96,97,98,99,100,101,102,103,104,105,106,107,108,109,110,111,112,113,114,115,116,117,118,119,120,121,122,123,124,125,126,127,128,129,130,131,132,133,134,135,136,137,138,139,140,141,142,143,144,145,146,147,148,149,150,151,152,153,154,155,156,157,158,159,160,161,162,163,164,165,166],"tree_info":[0,0,0,0,0,0,0,0,0,0,0,0,0,0,0,0,0,0,0,0,0,0,0,0,0,0,0,0,0,0,0,0,0,0,0,0,0,0,0,0,0,0,0,0,0,0,0,0,0,0,0,0,0,0,0,0,0,0,0,0,0,0,0,0,0,0,0,0,0,0,0,0,0,0,0,0,0,0,0,0,0,0,0,0,0,0,0,0,0,0,0,0,0,0,0,0,0,0,0,0,0,0,0,0,0,0,0,0,0,0,0,0,0,0,0,0,0,0,0,0,0,0,0,0,0,0,0,0,0,0,0,0,0,0,0,0,0,0,0,0,0,0,0,0,0,0,0,0,0,0,0,0,0,0,0,0,0,0,0,0,0,0,0,0,0,0],"trees":[{"base_weights":[-3.7571236E-2,-1.3317905E1,4.318049E1,-2.0127064E1,2.7145466E-1,2.9943943E1,7.50214E1,-2.2934782E1,-1.5713818E1,-4.6463847E0,8.977009E0,1.8329714E1,3.672061E1,6.520031E1,9.931547E1,-2.4252941E1,-2.1280842E1,-1.7673382E1,-1.2383807E1,-8.469663E0,-3.29153E-2,6.5696244E0,2.1237127E1,1.3168793E1,2.5340048E1,3.0033596E1,4.637501E1,3.626154E1,6.949832E1,1.0407808E2,6.1354645E1,-1.2470356E0,-2.3400242E1,-2.194058E1,-1.9867016E1,-1.9198797E1,-1.56851425E1,-5.440543E0,-1.3908255E1,-6.255749E0,-1.138404E1,2.5817976E0,-9.942245E0,1.6299366E0,1.199172E1,1.7598238E1,4.319147E1,1.9366467E1,6.306693E0,3.728385E1,2.055784E1,4.2304703E1,2.6422092E1,5.8095448E1,4.1833187E1,4.9494133E1,1.803426E1,6.3100296E1,7.667218E1,4.4764895E0,1.13126785E2,2.703794E1,7.7473076E1,-1.626713E1,-1.173548E0,-2.2683882E1,-2.1130354E1,-1.4304207E1,-2.0388199E1,-1.7219587E1,-1.9594843E1,-1.3423581E1,-1.6467428E1,-7.746714E0,3.551474E0,-1.6369282E1,-1.2248587E1,-8.5656395E0,-3.460371E0,-1.2723468E1,-8.444562E0,1.0267786E-1,8.882896E0,-1.23488E1,-3.5872211E0,1.0739524E1,-1.4038072E0,1.9334742E1,8.529177E0,1.0713016E1,2.4322006E1,2.6415796E1,5.1903652E1,2.9799517E1,1.7475227E1,1.7062801E1,2.8593938E0,3.3372776E1,5.186355E1,2.4835733E1,6.0720844E0,3.6908318E1,5.340088E1,2.2300234E1,3.1273348E1,5.333972E1,6.9613464E1,4.400913E1,3.1596413E1,6.5077995E1,4.052377E1,2.6279175E1,-1.5099844E1,7.342518E1,5.5328197E1,8.352245E1,7.16489E1,2.73084E0,1.13829765E2,4.2805466E1,-1.1196703E0,8.233355E1,1.276493E1,-1.8607822E1,-4.6323353E-1,-3.1044012E-1,-1.1348366E0,-3.0419013E-1,-1.0571073E0,-1.6440363E1,-8.462224E0,-2.123546E1,-1.909578E1,-1.9094608E1,-1.4552291E1,-1.004545E0,-1.8600508E1,-1.5774183E1,-1.0728415E1,-5.534537E0,-1.6591562E1,-1.0464778E1,-1.5272844E0,-2.9568708E0,1.0188378E1,-1.783605E1,-1.4024664E1,-1.3150353E1,-6.440525E0,-1.0656967E1,-5.7727165E0,-3.8063178E0,1.8968662E1,-1.1082687E1,-1.5284702E1,-1.264858E1,-6.462407E0,3.0239737E0,-2.7611423E0,1.1342383E1,2.29368E0,-6.5531416E0,-1.4431372E1,3.5167367E0,-9.688436E0,7.4068966E0,1.7637907E1,-4.0348125E0,2.4345684E0,1.517002E1,2.2100027E1,5.0562835E0,1.1171284E1,1.2280902E1,-1.0616653E1,2.8002699E1,5.413322E0,3.785799E-1,1.4462765E0,2.754377E0,1.1902149E0,2.0365568E1,1.6645224E0,1.4798851E1,2.097532E1,9.733162E0,2.4541718E1,1.0397964E1,-1.19955E0,-4.038403E0,3.4185772E1,1.1022958E0,5.6724777E1,2.1620426E1,3.4956818E1,1.2521184E1,-2.7667448E-2,3.1484983E1,2.1470222E0,7.163099E-1,2.686995E0,2.655205E1,1.9977423E1,3.9621998E1,2.7749388E1,8.8691324E-1,5.3718906E1,3.6521401E0,2.4783819E0,3.830056E1,4.7656563E1,3.542313E1,2.2251982E1,1.1871596E1,7.005385E1,4.421336E1,-2.7903518E-1,2.856433E1,-2.8570318E-1,-4.958403E0,-1.7015404E1,4.3953133E0,6.915153E1,5.649076E1,3.4020798E1,4.2059875E0,1.0205989E-1,7.3714775E1,4.830648E1,1.57081E0,1.14128E2,4.8037098E1,2.380991E-2,8.924297E0,-7.0692015E-1,8.270599E-1,4.223745E0,1.1178099E0,-1.6044012E-1,-9.6934223E-1,-2.704401E-1,-8.351807E-1,-1.01690106E-1,-4.8906374E-1,-3.7035156E-2,-7.257093E-1,-1.0685292E0,-9.770176E-1,-7.1195877E-1,-9.719211E-1,-2.304102E-1,-7.5655025E-1,3.444132E-1,-6.1689353E-1,-9.3579954E-1,-8.021502E-1,-4.475402E-1,-6.42353E-1,-3.658611E-1,-7.690669E-1,5.3096485E-1,-8.831095E-1,-7.7303714E-1,-6.6255754E-1,-3.0658263E-1,-5.8411163E-1,-2.2704203E-3,-3.4797356E-1,4.8264414E-2,7.696106E-1,1.5560889E-1,-8.9492846E-1,-3.4342015E-1,-7.144383E-1,2.2357987E-1,-7.1233433E-1,-5.558006E-1,4.859395E-2,-4.6490723E-1,-2.791002E-1,-5.525844E-1,-3.933601E-1,-2.545988E-2,-3.9265686E-1,-1.2777755E-1,1.5932466E0,2.277148E-1,-5.8090353E-1,-3.2061756E-1,-8.315061E-1,-3.4618503E-1,-4.6519804E-1,-1.0040182E0,-2.9283568E-1,-7.313935E-1,1.10651515E-1,7.75376E-1,1.7344829E-2,-1.9430761E-1,5.344999E-1,2.03184E0,4.8356348E-1,5.1466446E-2,-5.510549E-1,-2.2823481E-1,-5.226385E-1,-8.110283E-1,6.228118E-1,-1.6818623E-1,-6.602661E-1,5.927665E-1,9.3594335E-2,5.343265E-1,2.45662E-1,9.872042E-1,-2.703177E-1,-3.073792E-2,2.8683499E-1,-4.616294E-2,3.8364354E-1,8.378831E-1,1.1352628E0,2.1219583E-1,3.792788E-1,8.683079E-2,6.4912194E-1,2.9958615E-1,1.7037427E-1,7.796182E-1,-7.209835E-1,2.6413187E-2,5.759725E-1,1.4947727E0,-2.2561839E-1,8.4716207E-1,1.1056515E0,5.015899E-1,6.103125E-2,7.67238E-1,1.1900142E0,8.807449E-1,2.1227136E-1,7.49252E-1,1.3143257E0,-8.342015E-2,3.9927498E-1,7.9234165E-1,-1.3107662E-1,1.1295424E0,-3.1244013E-1,9.55987E-3,1.4765095E0,2.0318534E0,3.0314364E0,1.2975899E0,1.3473614E0,7.3328906E-1,9.592908E-1,1.8984107E0,4.595158E-1,1.3544332E0,5.572078E-1,-1.9395332E-1,1.5966066E0,7.055899E-1,1.1300291E0,1.4933652E0,7.9704344E-1,1.150619E0,1.9930617E0,3.6255985E-1,1.4953352E0,8.79909E-1,6.5080994E-1,2.6958334E0,1.9394406E0,-9.042015E-2,2.4090335E0,5.9599584E-1,1.8055862E0,4.577465E-1,1.4534248E0,6.748785E-1,1.1780987E-1,7.725599E-1,1.9199799E0,4.265943E0,4.8607984E-1,2.290752E0,7.988078E-1,1.6153653E0,2.883099E-1,-2.1125348E-1,7.655988E-2,-4.4844013E-1,-2.511901E-1,-9.005402E-1,9.963099E-1,3.4690213E0,2.5282316E0,2.96823E0,1.9519014E0,1.3057986E-1,3.6968148E0,8.515598E-1,2.528641E0,1.878099E-1,5.3630366E0,6.299039E0,4.7559883E-2,2.7313886E0,5.674132E-1,4.1309882E-2],"categories":[],"categories_nodes":[],"categories_segments":[],"categories_sizes":[],"default_left":[0,0,0,0,0,0,0,0,0,0,0,0,0,0,0,0,0,0,0,0,0,0,0,0,0,0,0,0,0,0,0,0,0,0,0,0,0,0,0,0,0,0,0,0,0,0,0,0,0,0,0,0,0,0,0,0,0,0,0,0,0,0,0,0,0,0,0,0,0,0,0,0,0,0,0,0,0,0,0,0,0,0,0,0,0,0,0,0,0,0,0,0,0,0,0,0,0,0,0,0,0,0,0,0,0,0,0,0,0,0,0,0,0,0,0,0,0,0,0,0,0,0,0,0,0,0,0,0,0,0,0,0,0,0,0,0,0,0,0,0,0,0,0,0,0,0,0,0,0,0,0,0,0,0,0,0,0,0,0,0,0,0,0,0,0,0,0,0,0,0,0,0,0,0,0,0,0,0,0,0,0,0,0,0,0,0,0,0,0,0,0,0,0,0,0,0,0,0,0,0,0,0,0,0,0,0,0,0,0,0,0,0,0,0,0,0,0,0,0,0,0,0,0,0,0,0,0,0,0,0,0,0,0,0,0,0,0,0,0,0,0,0,0,0,0,0,0,0,0,0,0,0,0,0,0,0,0,0,0,0,0,0,0,0,0,0,0,0,0,0,0,0,0,0,0,0,0,0,0,0,0,0,0,0,0,0,0,0,0,0,0,0,0,0,0,0,0,0,0,0,0,0,0,0,0,0,0,0,0,0,0,0,0,0,0,0,0,0,0,0,0,0,0,0,0,0,0,0,0,0,0,0,0,0,0,0,0,0,0,0,0,0,0,0,0,0,0,0,0,0,0,0,0,0,0,0,0,0,0,0,0,0,0,0,0,0,0,0,0,0,0,0,0,0,0,0,0,0,0,0,0,0,0,0,0,0,0,0,0,0,0,0,0,0,0,0,0,0,0,0,0,0,0,0,0,0,0,0,0,0,0,0,0],"id":0,"left_children":[1,3,5,7,9,11,13,15,17,19,21,23,25,27,29,31,33,35,37,39,41,43,45,47,49,51,53,55,57,59,61,-1,63,65,67,69,71,73,75,77,79,81,83,85,87,89,91,93,95,97,99,101,103,105,107,109,111,113,115,-1,117,119,121,123,-1,125,127,129,131,133,135,137,139,141,143,145,147,149,151,153,155,157,159,161,163,165,167,169,171,173,175,177,179,181,183,185,187,189,191,193,195,197,199,201,203,205,207,209,211,213,215,217,219,221,223,225,227,-1,229,231,233,235,237,239,-1,-1,-1,-1,-1,241,243,245,247,249,251,-1,253,255,257,259,261,263,265,267,269,271,273,275,277,279,281,283,285,287,289,291,293,295,297,299,301,303,305,307,309,311,313,315,317,319,321,323,325,327,329,331,333,-1,-1,-1,-1,335,-1,337,339,341,343,345,347,349,351,-1,353,355,357,359,361,363,-1,-1,-1,365,367,369,371,-1,373,-1,-1,375,377,379,381,383,385,387,-1,389,391,393,395,-1,397,399,401,-1,-1,403,405,-1,407,409,-1,411,-1,-1,-1,-1,-1,-1,-1,-1,-1,-1,-1,-1,-1,-1,-1,-1,-1,-1,-1,-1,-1,-1,-1,-1,-1,-1,-1,-1,-1,-1,-1,-1,-1,-1,-1,-1,-1,-1,-1,-1,-1,-1,-1,-1,-1,-1,-1,-1,-1,-1,-1,-1,-1,-1,-1,-1,-1,-1,-1,-1,-1,-1,-1,-1,-1,-1,-1,-1,-1,-1,-1,-1,-1,-1,-1,-1,-1,-1,-1,-1,-1,-1,-1,-1,-1,-1,-1,-1,-1,-1,-1,-1,-1,-1,-1,-1,-1,-1,-1,-1,-1,-1,-1,-1,-1,-1,-1,-1,-1,-1,-1,-1,-1,-1,-1,-1,-1,-1,-1,-1,-1,-1,-1,-1,-1,-1,-1,-1,-1,-1,-1,-1,-1,-1,-1,-1,-1,-1,-1,-1,-1,-1,-1,-1,-1,-1,-1,-1,-1,-1,-1,-1,-1,-1,-1,-1,-1,-1,-1,-1,-1,-1,-1,-1,-1,-1,-1,-1,-1,-1,-1,-1,-1,-1,-1,-1,-1,-1,-1],"loss_changes":[9.535038E6,1.1759038E6,1.643569E6,1.0454275E5,1.8169523E5,2.1655475E5,2.669535E5,1.075975E4,2.128225E4,4.7835535E4,4.507717E4,3.653347E4,1.1106925E5,9.93465E4,5.291425E4,1.100125E3,1.711375E3,5.983E3,1.28799375E4,9.497367E3,3.1895031E4,3.431685E4,1.9292156E4,2.4927469E4,2.3851281E4,4.46175E4,3.5417625E4,2.515639E4,2.784175E4,2.8048E4,1.9477422E4,0E0,2.73E2,4.60125E2,1.8625E3,5.78125E2,1.3800781E3,4.631155E3,3.8962344E3,5.426543E3,2.4084375E3,1.5214117E4,3.8861875E3,1.8586572E4,1.5370094E4,9.785375E3,3.7442773E3,5.576242E3,1.0370558E4,5.2259062E3,1.905943E4,1.19809375E4,1.52995E4,7.0230625E3,1.01031875E4,6.0299688E3,1.3236642E4,2.6591375E4,5.40575E3,0E0,9.81E2,6.263588E3,7.126328E3,8.9854004E1,0E0,2.840625E1,6.40625E0,6.969971E2,3.3584375E2,7.373828E2,1.028125E2,1.3385625E3,8.1475E2,2.976168E3,2.0171077E3,1.1289062E3,3.0735234E3,2.6369844E3,3.0517534E3,1.6670625E3,1.6098604E3,5.8645957E3,4.430662E3,2.1504277E3,3.154751E3,3.7316328E3,5.10971E3,1.9104844E3,3.7698066E3,3.7756133E3,7.4344883E3,4.4310254E2,6.5691016E2,8.369531E2,2.162625E3,3.4887383E3,6.56058E3,3.149164E3,2.2282578E3,7.0218594E3,2.8326763E3,3.8823125E3,2.1040625E2,3.7755781E3,9.638906E3,9.7753125E2,9.159375E1,6.98225E3,2.5730625E3,4.728039E3,7.3912188E3,2.3149434E3,1.0989624E2,3.8849375E3,3.577375E3,6.3498125E3,5.987125E3,0E0,6.42E2,1.9701855E3,9.1073364E2,1.9839062E3,5.3136163E2,8.246094E0,0E0,0E0,0E0,0E0,0E0,1.4806934E2,1.9645642E2,5.3109375E1,3.22E2,4.8817578E2,1.196125E3,0E0,1.13671875E1,8.568555E1,7.2988477E2,1.5949111E3,5.259844E2,1.4038135E3,8.2713E2,3.8348993E2,7.990342E2,4.3679688E1,8.4059766E2,1.0036328E3,1.7671284E3,4.6514844E2,2.2008657E3,1.8982881E3,9.702273E2,6.006172E2,1.7746992E3,1.4039873E3,6.067368E2,3.4785176E3,1.2391355E3,3.3878457E3,6.9896265E2,4.0279053E2,7.9856445E2,2.1331672E3,3.1114658E3,2.0675664E3,1.3502148E3,1.4039004E3,2.2894214E3,8.355469E2,1.1464531E3,1.5149736E3,2.136127E3,2.9440332E3,3.4669183E2,2.4947031E3,2.2508599E3,0E0,0E0,0E0,0E0,4.9034668E1,0E0,1.1153789E3,6.439844E2,9.739348E2,1.5529883E3,8.593447E2,4.7953555E3,2.9242065E1,1.7133359E3,0E0,8.293008E2,6.4212656E3,1.9311406E3,1.4493286E3,1.6782606E3,2.3300781E2,0E0,0E0,0E0,1.3031094E3,3.1368828E3,5.3184375E2,5.167547E3,0E0,4.331875E2,0E0,0E0,3.3992969E3,4.1830625E3,8.451328E2,1.3978838E3,6.577792E1,5.9046406E3,1.7091484E3,0E0,1.1329551E3,1.1972522E2,9.181068E1,5.008545E0,0E0,7.10625E1,5.5775E2,2.1042695E3,0E0,0E0,1.0009375E3,1.7283984E3,0E0,4.0625E2,2.4306602E3,0E0,6.914218E1,0E0,0E0,0E0,0E0,0E0,0E0,0E0,0E0,0E0,0E0,0E0,0E0,0E0,0E0,0E0,0E0,0E0,0E0,0E0,0E0,0E0,0E0,0E0,0E0,0E0,0E0,0E0,0E0,0E0,0E0,0E0,0E0,0E0,0E0,0E0,0E0,0E0,0E0,0E0,0E0,0E0,0E0,0E0,0E0,0E0,0E0,0E0,0E0,0E0,0E0,0E0,0E0,0E0,0E0,0E0,0E0,0E0,0E0,0E0,0E0,0E0,0E0,0E0,0E0,0E0,0E0,0E0,0E0,0E0,0E0,0E0,0E0,0E0,0E0,0E0,0E0,0E0,0E0,0E0,0E0,0E0,0E0,0E0,0E0,0E0,0E0,0E0,0E0,0E0,0E0,0E0,0E0,0E0,0E0,0E0,0E0,0E0,0E0,0E0,0E0,0E0,0E0,0E0,0E0,0E0,0E0,0E0,0E0,0E0,0E0,0E0,0E0,0E0,0E0,0E0,0E0,0E0,0E0,0E0,0E0,0E0,0E0,0E0,0E0,0E0,0E0,0E0,0E0,0E0,0E0,0E0,0E0,0E0,0E0,0E0,0E0,0E0,0E0,0E0,0E0,0E0,0E0,0E0,0E0,0E0,0E0,0E0,0E0,0E0,0E0,0E0,0E0,0E0,0E0,0E0,0E0,0E0,0E0,0E0,0E0,0E0,0E0,0E0,0E0,0E0,0E0,0E0,0E0,0E0,0E0,0E0,0E0,0E0,0E0,0E0,0E0,0E0,0E0,0E0],"parents":[2147483647,0,0,1,1,2,2,3,3,4,4,5,5,6,6,7,7,8,8,9,9,10,10,11,11,12,12,13,13,14,14,15,15,16,16,17,17,18,18,19,19,20,20,21,21,22,22,23,23,24,24,25,25,26,26,27,27,28,28,29,29,30,30,32,32,33,33,34,34,35,35,36,36,37,37,38,38,39,39,40,40,41,41,42,42,43,43,44,44,45,45,46,46,47,47,48,48,49,49,50,50,51,51,52,52,53,53,54,54,55,55,56,56,57,57,58,58,60,60,61,61,62,62,63,63,65,65,66,66,67,67,68,68,69,69,70,70,71,71,72,72,73,73,74,74,75,75,76,76,77,77,78,78,79,79,80,80,81,81,82,82,83,83,84,84,85,85,86,86,87,87,88,88,89,89,90,90,91,91,92,92,93,93,94,94,95,95,96,96,97,97,98,98,99,99,100,100,101,101,102,102,103,103,104,104,105,105,106,106,107,107,108,108,109,109,110,110,111,111,112,112,113,113,114,114,115,115,116,116,118,118,119,119,120,120,121,121,122,122,123,123,129,129,130,130,131,131,132,132,133,133,134,134,136,136,137,137,138,138,139,139,140,140,141,141,142,142,143,143,144,144,145,145,146,146,147,147,148,148,149,149,150,150,151,151,152,152,153,153,154,154,155,155,156,156,157,157,158,158,159,159,160,160,161,161,162,162,163,163,164,164,165,165,166,166,167,167,168,168,169,169,170,170,171,171,172,172,173,173,174,174,175,175,176,176,181,181,183,183,184,184,185,185,186,186,187,187,188,188,189,189,190,190,192,192,193,193,194,194,195,195,196,196,197,197,201,201,202,202,203,203,204,204,206,206,209,209,210,210,211,211,212,212,213,213,214,214,215,215,217,217,218,218,219,219,220,220,222,222,223,223,224,224,227,227,228,228,230,230,231,231,233,233],"right_children":[2,4,6,8,10,12,14,16,18,20,22,24,26,28,30,32,34,36,38,40,42,44,46,48,50,52,54,56,58,60,62,-1,64,66,68,70,72,74,76,78,80,82,84,86,88,90,92,94,96,98,100,102,104,106,108,110,112,114,116,-1,118,120,122,124,-1,126,128,130,132,134,136,138,140,142,144,146,148,150,152,154,156,158,160,162,164,166,168,170,172,174,176,178,180,182,184,186,188,190,192,194,196,198,200,202,204,206,208,210,212,214,216,218,220,222,224,226,228,-1,230,232,234,236,238,240,-1,-1,-1,-1,-1,242,244,246,248,250,252,-1,254,256,258,260,262,264,266,268,270,272,274,276,278,280,282,284,286,288,290,292,294,296,298,300,302,304,306,308,310,312,314,316,318,320,322,324,326,328,330,332,334,-1,-1,-1,-1,336,-1,338,340,342,344,346,348,350,352,-1,354,356,358,360,362,364,-1,-1,-1,366,368,370,372,-1,374,-1,-1,376,378,380,382,384,386,388,-1,390,392,394,396,-1,398,400,402,-1,-1,404,406,-1,408,410,-1,412,-1,-1,-1,-1,-1,-1,-1,-1,-1,-1,-1,-1,-1,-1,-1,-1,-1,-1,-1,-1,-1,-1,-1,-1,-1,-1,-1,-1,-1,-1,-1,-1,-1,-1,-1,-1,-1,-1,-1,-1,-1,-1,-1,-1,-1,-1,-1,-1,-1,-1,-1,-1,-1,-1,-1,-1,-1,-1,-1,-1,-1,-1,-1,-1,-1,-1,-1,-1,-1,-1,-1,-1,-1,-1,-1,-1,-1,-1,-1,-1,-1,-1,-1,-1,-1,-1,-1,-1,-1,-1,-1,-1,-1,-1,-1,-1,-1,-1,-1,-1,-1,-1,-1,-1,-1,-1,-1,-1,-1,-1,-1,-1,-1,-1,-1,-1,-1,-1,-1,-1,-1,-1,-1,-1,-1,-1,-1,-1,-1,-1,-1,-1,-1,-1,-1,-1,-1,-1,-1,-1,-1,-1,-1,-1,-1,-1,-1,-1,-1,-1,-1,-1,-1,-1,-1,-1,-1,-1,-1,-1,-1,-1,-1,-1,-1,-1,-1,-1,-1,-1,-1,-1,-1,-1,-1,-1,-1,-1,-1],"split_conditions":[4.22E1,1.435E1,8.272E1,5.38E0,2.975E1,4.392E1,1.1697E2,2.95E0,1.243E1,2.435E1,5.062E1,5.467E1,6.39E1,4.338E1,5.977E1,1.7E0,8.55E0,8.9E0,3.45E0,2.07E1,4.805E1,3.077E1,6.188E1,2.777E1,5.03E1,2.14E1,4.602E1,1.069E2,9.685E1,1.2943E2,3.562E1,-1.2470356E0,6.2E-1,4E0,1.93E0,4.07E0,7.12E0,4.37E1,8.9E0,1.87E1,2.14E1,3.395E1,3.738E1,8.4E0,2.14E1,2.7E1,2.502E1,2.32E1,4.34E1,3.785E1,3.723E1,3.695E1,5.467E1,3.723E1,8.107E1,1.358E1,6.19E1,6.97E1,8.61E1,4.4764895E0,1.216E1,5.42E1,1.1278E2,9.62E0,-1.173548E0,3E-1,-5.41E0,5.16E1,4.3E0,2.797E1,6.72E0,2.373E1,5E-2,1.082E1,8.57E0,3.492E1,5.84E1,1.53E1,1.1908E2,3.51E1,6.38E0,1.902E1,3.918E1,3.12E1,2.102E1,2.467E1,2.545E1,3.565E1,3.62E1,5.395E1,2.63E1,5.73E1,2.5E-1,4.392E1,4.88E1,1.762E1,2.102E1,7.85E0,5.722E1,7.222E1,9.06E1,5.107E1,4.462E1,3.918E1,4.22E1,2.8E-1,3.34E1,7.095E1,3.632E1,1.408E1,5.217E1,1.366E2,1.1302E2,2.32E1,1.1697E2,1.0338E2,5.308E1,2.73084E0,-3.94E0,1.6429E2,6.65E0,2.806E1,8.358E1,1.16E0,-4.6323353E-1,-3.1044012E-1,-1.1348366E0,-3.0419013E-1,-1.0571073E0,2.0232E2,4.275E1,3E0,8.467E1,7.958E1,2.52E0,-1.004545E0,2.17E0,1.357E1,6.5E0,6.25E0,1.128E1,3.39E1,9.68E0,4.202E1,2.78E0,6.862E1,1.4327E2,1.243E1,5.12E0,1.68E0,2.627E1,6.6E0,1.0122E2,3.633E1,5.112E1,4.34E1,7.495E1,5.91E1,1.832E1,8.688E1,1.01E1,1.102E1,2.698E1,1.752E1,6.188E1,2.568E1,2.15E1,4.938E1,2.545E1,1.578E1,5.107E1,3.675E1,4.165E1,2.947E1,4.235E1,1.603E1,5.02E1,3.785799E-1,1.4462765E0,2.754377E0,1.1902149E0,1.2E0,1.6645224E0,1.062E1,3.225E1,4.532E1,6.117E1,5.03E1,7.803E1,3.017E1,6.208E1,1.1022958E0,1.87E1,1.818E1,1.242E1,1.0345E2,2.45E1,1.8143E2,2.1470222E0,7.163099E-1,2.686995E0,4.735E1,4.88E1,2.85E0,2.495E1,8.8691324E-1,5.82E0,3.6521401E0,2.4783819E0,6.608E1,6.612E1,5.53E1,3.185E1,1.22E1,9.25E1,2.8E-1,-2.7903518E-1,1.642E1,2.237E1,2.177E1,-4.29E0,4.3953133E0,4.2E0,8.825E1,2.34E0,4.2059875E0,1.0205989E-1,5.783E1,1.77E0,1.57081E0,1.4995E2,6.44E0,2.380991E-2,1.7238E2,-7.0692015E-1,8.270599E-1,4.223745E0,1.1178099E0,-1.6044012E-1,-9.6934223E-1,-2.704401E-1,-8.351807E-1,-1.01690106E-1,-4.8906374E-1,-3.7035156E-2,-7.257093E-1,-1.0685292E0,-9.770176E-1,-7.1195877E-1,-9.719211E-1,-2.304102E-1,-7.5655025E-1,3.444132E-1,-6.1689353E-1,-9.3579954E-1,-8.021502E-1,-4.475402E-1,-6.42353E-1,-3.658611E-1,-7.690669E-1,5.3096485E-1,-8.831095E-1,-7.7303714E-1,-6.6255754E-1,-3.0658263E-1,-5.8411163E-1,-2.2704203E-3,-3.4797356E-1,4.8264414E-2,7.696106E-1,1.5560889E-1,-8.9492846E-1,-3.4342015E-1,-7.144383E-1,2.2357987E-1,-7.1233433E-1,-5.558006E-1,4.859395E-2,-4.6490723E-1,-2.791002E-1,-5.525844E-1,-3.933601E-1,-2.545988E-2,-3.9265686E-1,-1.2777755E-1,1.5932466E0,2.277148E-1,-5.8090353E-1,-3.2061756E-1,-8.315061E-1,-3.4618503E-1,-4.6519804E-1,-1.0040182E0,-2.9283568E-1,-7.313935E-1,1.10651515E-1,7.75376E-1,1.7344829E-2,-1.9430761E-1,5.344999E-1,2.03184E0,4.8356348E-1,5.1466446E-2,-5.510549E-1,-2.2823481E-1,-5.226385E-1,-8.110283E-1,6.228118E-1,-1.6818623E-1,-6.602661E-1,5.927665E-1,9.3594335E-2,5.343265E-1,2.45662E-1,9.872042E-1,-2.703177E-1,-3.073792E-2,2.8683499E-1,-4.616294E-2,3.8364354E-1,8.378831E-1,1.1352628E0,2.1219583E-1,3.792788E-1,8.683079E-2,6.4912194E-1,2.9958615E-1,1.7037427E-1,7.796182E-1,-7.209835E-1,2.6413187E-2,5.759725E-1,1.4947727E0,-2.2561839E-1,8.4716207E-1,1.1056515E0,5.015899E-1,6.103125E-2,7.67238E-1,1.1900142E0,8.807449E-1,2.1227136E-1,7.49252E-1,1.3143257E0,-8.342015E-2,3.9927498E-1,7.9234165E-1,-1.3107662E-1,1.1295424E0,-3.1244013E-1,9.55987E-3,1.4765095E0,2.0318534E0,3.0314364E0,1.2975899E0,1.3473614E0,7.3328906E-1,9.592908E-1,1.8984107E0,4.595158E-1,1.3544332E0,5.572078E-1,-1.9395332E-1,1.5966066E0,7.055899E-1,1.1300291E0,1.4933652E0,7.9704344E-1,1.150619E0,1.9930617E0,3.6255985E-1,1.4953352E0,8.79909E-1,6.5080994E-1,2.6958334E0,1.9394406E0,-9.042015E-2,2.4090335E0,5.9599584E-1,1.8055862E0,4.577465E-1,1.4534248E0,6.748785E-1,1.1780987E-1,7.725599E-1,1.9199799E0,4.265943E0,4.8607984E-1,2.290752E0,7.988078E-1,1.6153653E0,2.883099E-1,-2.1125348E-1,7.655988E-2,-4.4844013E-1,-2.511901E-1,-9.005402E-1,9.963099E-1,3.4690213E0,2.5282316E0,2.96823E0,1.9519014E0,1.3057986E-1,3.6968148E0,8.515598E-1,2.528641E0,1.878099E-1,5.3630366E0,6.299039E0,4.7559883E-2,2.7313886E0,5.674132E-1,4.1309882E-2],"split_indices":[7,7,7,7,12,12,7,7,12,7,17,7,7,12,18,7,12,7,9,9,9,7,16,18,9,9,9,9,7,7,12,0,9,7,9,9,9,13,7,7,7,7,7,9,9,7,7,9,9,17,13,13,7,13,10,10,13,9,9,0,2,13,17,12,0,10,4,17,7,17,12,17,0,7,7,17,17,12,17,9,12,10,9,13,16,7,7,7,7,10,9,14,6,7,7,12,13,15,7,7,9,7,12,9,9,0,9,7,17,9,13,10,9,9,9,18,18,0,6,0,1,0,0,6,0,0,0,0,0,0,12,7,17,14,6,0,10,7,12,12,7,17,18,18,9,12,13,7,10,10,14,12,0,15,17,9,9,14,18,13,17,15,17,1,17,13,17,12,9,17,10,9,10,14,14,14,12,0,0,0,0,6,0,12,10,10,16,7,17,0,7,0,10,13,16,10,16,0,0,0,0,7,7,6,18,0,17,0,0,18,13,14,18,0,7,0,0,2,0,0,6,0,15,7,4,0,0,14,6,0,7,0,0,0,0,0,0,0,0,0,0,0,0,0,0,0,0,0,0,0,0,0,0,0,0,0,0,0,0,0,0,0,0,0,0,0,0,0,0,0,0,0,0,0,0,0,0,0,0,0,0,0,0,0,0,0,0,0,0,0,0,0,0,0,0,0,0,0,0,0,0,0,0,0,0,0,0,0,0,0,0,0,0,0,0,0,0,0,0,0,0,0,0,0,0,0,0,0,0,0,0,0,0,0,0,0,0,0,0,0,0,0,0,0,0,0,0,0,0,0,0,0,0,0,0,0,0,0,0,0,0,0,0,0,0,0,0,0,0,0,0,0,0,0,0,0,0,0,0,0,0,0,0,0,0,0,0,0,0,0,0,0,0,0,0,0,0,0,0,0,0,0,0,0,0,0,0,0,0,0,0,0,0],"split_type":[0,0,0,0,0,0,0,0,0,0,0,0,0,0,0,0,0,0,0,0,0,0,0,0,0,0,0,0,0,0,0,0,0,0,0,0,0,0,0,0,0,0,0,0,0,0,0,0,0,0,0,0,0,0,0,0,0,0,0,0,0,0,0,0,0,0,0,0,0,0,0,0,0,0,0,0,0,0,0,0,0,0,0,0,0,0,0,0,0,0,0,0,0,0,0,0,0,0,0,0,0,0,0,0,0,0,0,0,0,0,0,0,0,0,0,0,0,0,0,0,0,0,0,0,0,0,0,0,0,0,0,0,0,0,0,0,0,0,0,0,0,0,0,0,0,0,0,0,0,0,0,0,0,0,0,0,0,0,0,0,0,0,0,0,0,0,0,0,0,0,0,0,0,0,0,0,0,0,0,0,0,0,0,0,0,0,0,0,0,0,0,0,0,0,0,0,0,0,0,0,0,0,0,0,0,0,0,0,0,0,0,0,0,0,0,0,0,0,0,0,0,0,0,0,0,0,0,0,0,0,0,0,0,0,0,0,0,0,0,0,0,0,0,0,0,0,0,0,0,0,0,0,0,0,0,0,0,0,0,0,0,0,0,0,0,0,0,0,0,0,0,0,0,0,0,0,0,0,0,0,0,0,0,0,0,0,0,0,0,0,0,0,0,0,0,0,0,0,0,0,0,0,0,0,0,0,0,0,0,0,0,0,0,0,0,0,0,0,0,0,0,0,0,0,0,0,0,0,0,0,0,0,0,0,0,0,0,0,0,0,0,0,0,0,0,0,0,0,0,0,0,0,0,0,0,0,0,0,0,0,0,0,0,0,0,0,0,0,0,0,0,0,0,0,0,0,0,0,0,0,0,0,0,0,0,0,0,0,0,0,0,0,0,0,0,0,0,0,0,0,0,0,0,0,0,0,0,0,0,0,0,0,0],"sum_hessian":[1.6611E4,1.2707E4,3.904E3,8.465E3,4.242E3,2.759E3,1.145E3,5.171E3,3.294E3,2.711E3,1.531E3,1.018E3,1.741E3,8.18E2,3.27E2,2.87E3,2.301E3,2.071E3,1.223E3,1.482E3,1.229E3,1.281E3,2.5E2,5.88E2,4.3E2,1.031E3,7.1E2,1.07E2,7.11E2,2.89E2,3.8E1,1.573E3,1.297E3,1.559E3,7.42E2,1.167E3,9.04E2,2.21E2,1.002E3,8.44E2,6.38E2,9.73E2,2.56E2,6.71E2,6.1E2,2.16E2,3.4E1,3.08E2,2.8E2,1.21E2,3.09E2,2.32E2,7.99E2,1.95E2,5.15E2,6.1E1,4.6E1,3.81E2,3.3E2,1.15E2,1.74E2,1.3E1,2.5E1,1.5E1,1.282E3,7.99E2,7.6E2,6.6E1,6.76E2,2.02E2,9.65E2,2.37E2,6.67E2,1.76E2,4.5E1,4E2,6.02E2,4.61E2,3.83E2,4.36E2,2.02E2,6.99E2,2.74E2,1.85E2,7.1E1,1.67E2,5.04E2,1.94E2,4.16E2,1.08E2,1.08E2,1.3E1,2.1E1,4.5E1,2.63E2,6.7E1,2.13E2,9.8E1,2.3E1,2.38E2,7.1E1,1.59E2,7.3E1,4.35E2,3.64E2,1.42E2,5.3E1,4.22E2,9.3E1,2E1,4.1E1,3.7E1,9E0,1.6E2,2.21E2,1.33E2,1.97E2,3E0,1.71E2,8E0,5E0,2.3E1,2E0,1E1,5E0,1E0,7.98E2,1E0,7.59E2,4.7E1,1.9E1,3.99E2,2.77E2,1.15E2,8.7E1,6.31E2,3.34E2,1.24E2,1.13E2,8E0,6.59E2,1.22E2,5.4E1,2.3E1,2.2E1,2.42E2,1.58E2,5.2E2,8.2E1,2.62E2,1.99E2,3.78E2,5E0,2.69E2,1.67E2,6.3E1,1.39E2,3.46E2,3.53E2,1.99E2,7.5E1,5E1,1.35E2,3.3E1,3.8E1,1.14E2,5.3E1,2.99E2,2.05E2,8E1,1.14E2,1.81E2,2.35E2,1.01E2,7E0,9E1,1.8E1,2E0,1.1E1,1.8E1,3E0,1.4E1,3.1E1,1.52E2,1.11E2,3.5E1,3.2E1,7.4E1,1.39E2,2E0,9.6E1,4E0,1.9E1,1.83E2,5.5E1,3.4E1,3.7E1,8.7E1,7.2E1,1E0,7.2E1,1.5E2,2.85E2,1.05E2,2.59E2,2E0,1.4E2,4.3E1,1E1,1.69E2,2.53E2,6.4E1,2.9E1,2E0,1.8E1,3.8E1,3E0,3.4E1,3E0,2E0,7E0,3.2E1,1.28E2,2.08E2,1.3E1,1.32E2,1E0,1.79E2,1.8E1,1E0,1.7E2,7E0,1E0,3E0,2E0,1E0,2.2E1,1E0,1E0,9E0,1E0,4.6E1,1E0,1.6E1,3E0,1E1,3.89E2,2.51E2,2.6E1,1.12E2,3E0,8.5E1,2E0,8E0,3.26E2,1.18E2,6E0,6.8E1,4.5E1,5E0,3E0,3.31E2,3.28E2,7.3E1,4.9E1,6E0,4.8E1,1.1E1,1.2E1,1.2E1,1E1,2.4E2,2E0,1.56E2,2E0,3.34E2,1.86E2,2.3E1,5.9E1,2E1,2.42E2,1.42E2,5.7E1,8.8E1,2.9E2,2E0,3E0,2.4E2,2.9E1,1.43E2,2.4E1,4.5E1,1.8E1,1.31E2,8E0,3.26E2,2E1,9.4E1,2.59E2,1.96E2,3E0,1E1,6.5E1,1.4E1,3.6E1,4.4E1,9.1E1,1.4E1,1.9E1,3.3E1,5E0,4.3E1,7.1E1,8E0,4.5E1,2.13E2,8.6E1,1.03E2,1.02E2,1.5E1,6.5E1,1.1E2,4E0,1.02E2,7.9E1,1.73E2,6.2E1,2.8E1,7.3E1,5E0,2E0,1E1,8E1,1E1,8E0,1.1E1,3E0,6E0,1.46E2,5.7E1,5.4E1,1.8E1,1.7E1,3E1,2E0,5.3E1,2.1E1,1.32E2,7E0,1E0,1E0,5.9E1,3.7E1,1.6E1,3E0,1.02E2,8.1E1,1E1,4.5E1,2.9E1,5E0,9E0,2.8E1,8.4E1,3E0,7.2E1,7.8E1,1.25E2,1.6E2,1.04E2,1E0,2.12E2,4.7E1,1E0,1.39E2,1.67E2,2E0,2.49E2,4E0,6.2E1,2E0,1.5E1,1.4E1,1E0,1E0,7E0,1.1E1,2E0,3.6E1,9E0,2.5E1,1E0,2E0,1E0,1E0,1E0,6E0,1E0,1.27E2,7.4E1,1.34E2,1.1E1,2E0,1.78E2,1E0,1.7E1,1E0,1.14E2,5.6E1,1E0,6E0,2E0,1E0],"tree_param":{"num_deleted":"0","num_feature":"19","num_nodes":"413","size_leaf_vector":"1"}},{"base_weights":[1.5688796E-1,-1.1022503E1,3.9742535E1,-1.7266008E1,1.1905013E0,2.7661654E1,6.777881E1,-1.9366098E1,-9.489815E0,-4.344065E0,1.1121061E1,2.2081951E1,4.2594494E1,5.637577E1,8.189485E1,-2.1445732E1,-1.6318903E1,-6.3845716E0,-1.4757953E1,-6.5382624E0,4.5938663E0,4.783702E0,2.0048067E1,1.1364711E1,2.7876667E1,3.6044693E1,6.069533E1,4.8626938E1,6.698066E1,7.533118E1,1.0139725E2,-2.2447763E1,-1.9671154E1,-1.7574924E1,-1.4349822E1,-1.0266048E1,-2.7014499E0,-1.884285E1,-1.0864313E1,-3.3592005E0,-1.1672898E1,1.4393514E1,-9.036387E0,1.159926E1,2.8216007E0,2.2987684E1,4.459138E0,3.876814E0,1.5902782E1,3.4693447E1,2.4125362E1,1.6241781E1,4.1889782E1,-3.1602454E0,6.399739E1,5.927545E1,4.224873E1,7.098198E1,4.541639E1,6.336761E1,8.541324E1,1.0229437E2,-1.564291E-1,-1.1684489E0,-2.1505428E1,-1.7858662E1,-2.0303078E1,-1.8864666E1,-1.6327736E1,-1.2890427E1,-1.5968017E1,-1.43636E1,-8.99974E0,-7.741336E-1,-1.1367205E1,-1.4645935E1,-1.9778278E1,4.5836763E0,-1.1814445E1,-5.8370705E0,2.874846E0,-1.6453856E1,-6.0380445E0,9.727062E0,3.663545E1,3.7247837E1,-1.1486496E1,1.3007388E1,-4.8209486E0,3.7278032E-1,7.3484955E0,2.0148195E1,4.6276524E1,2.950784E1,-3.7554815E-1,-8.372271E0,7.7043962E0,8.003238E0,2.2362394E1,3.1024725E1,4.444088E1,2.5567257E1,4.8469377E0,-6.9087915E0,2.3440956E1,3.226639E1,4.4646194E1,-1.680392E1,1.0753124E0,4.8304554E1,7.449816E1,6.52327E1,4.67199E1,4.6427055E1,2.3720575E1,6.564352E1,9.412051E1,1.2359373E1,5.639351E1,6.3984562E1,1.0575491E0,7.550298E1,9.0922806E1,1.1068503E0,1.0278194E2,-2.1524076E1,5.907011E-2,-9.894018E-1,-1.6021896E1,-1.1401112E0,-1.9709997E1,-1.9033407E1,-1.5543114E1,-6.5026546E0,-1.661411E1,-7.9439178E0,-1.3411861E1,-1.8529907E1,-1.4677835E1,-6.5377016E0,-1.693214E1,-5.1372123E0,-1.1390876E1,-3.7306843E0,5.582676E0,-8.719249E0,-1.5650748E1,-1.5353218E1,4.853214E0,-1.0858188E0,-1.7972013E1,1.5300772E1,-8.735206E0,-1.4872826E1,-9.086732E0,-7.717724E0,-2.2328262E0,1.2920452E1,1.2019551E0,-1.2498581E1,-2.072414E1,-1.0975037E0,-1.2070386E1,2.0581972E1,4.365447E0,6.8407326E1,2.4416077E1,1.2275439E1,4.2061887E0,-1.2797981E1,1.2640277E1,9.6199045E0,2.0365702E1,3.2047805E-1,-6.745654E0,-6.818286E-1,1.522734E1,1.4013022E1,5.3285413E0,2.4465513E1,1.4916242E1,5.968673E1,3.786907E1,1.2045846E1,4.3691185E1,5.7724485E0,-1.3975557E1,3.59754E0,-1.1439672E1,2.4217762E1,5.7394447E0,9.853358E0,-1.3745037E1,6.5832195E0,2.605427E1,2.51601E1,3.6137188E1,3.8279617E1,5.4627552E1,1.8798666E1,3.0606823E1,3.365955E1,-3.7760367E0,1.0244291E1,-1.3931123E1,3.6224907E1,1.401075E1,4.73261E1,2.262232E1,5.134496E1,4.016854E1,-9.4180727E-1,-1.1526423E-1,6.935365E0,5.3289448E1,5.3370083E1,8.0585754E1,7.604006E1,5.686495E1,4.729132E1,5.2514476E-1,4.0561863E1,5.111236E1,1.467147E1,3.2932858E1,7.455461E1,5.7073246E1,9.579172E1,8.071396E-1,-6.910362E0,2.7110664E1,4.195003E1,3.7138138E0,1.8024079E0,6.495716E1,9.055939E-1,3.800991E0,3.9641716E0,4.831069E0,5.173571E0,2.0815656E0,-4.8067665E-1,-1.0772265E0,-8.1212443E-1,-4.9342584E-2,-3.1961238E-1,-9.8818487E-1,-2.6463637E-1,-9.522168E-1,-7.019886E-2,-9.0553725E-1,-5.893608E-1,9.0249723E-1,-8.7714094E-1,-7.479858E-1,-5.4938287E-1,6.0362226E-1,3.1709245E-1,-6.750531E-1,-3.9469704E-1,-9.5092374E-1,-7.448432E-1,3.7771448E-1,-5.374327E-1,-2.436263E-2,-6.68169E-2,-8.539573E-1,-5.230899E-1,-9.87184E-2,-7.273044E-1,-4.482742E-1,-4.6610992E-2,-4.9853158E-1,-1.4248894E-1,5.124512E-1,-4.5991245E-1,5.9631944E-1,-8.258893E-1,-1.8589829E-1,-8.141479E-1,-1.9809172E-1,3.8543608E-2,3.254474E-1,3.5086665E-1,-9.097919E-1,8.706978E-1,-1.9860612E-1,-7.368181E-1,-1.1391878E-1,-7.60217E-1,-9.764186E-2,-4.9349284E-1,4.3452594E-1,-4.8667565E-1,-6.787744E-2,8.964971E-2,-1.9041593E-1,1.2004828E-1,9.98298E-1,2.5429344E-1,-9.8641336E-2,-7.541609E-1,-2.824914E-1,-1.0721654E0,-5.35292E-1,2.3403049E0,-1.441582E-1,6.8784617E-3,-7.4571383E-1,6.769986E-1,1.4838381E0,-1.3167419E-1,7.932815E-1,-3.7341308E-2,3.6700127E0,4.9146256E-1,1.6507269E0,-4.9794826E-1,1.6027378E0,-4.357864E-1,-9.1709083E-1,1.1100203E-1,1.646287E0,3.9119574E-1,9.1221106E-1,1.5856159E0,8.0654633E-1,-1.7038019E-1,-5.592398E-1,1.7659402E-2,-4.9672183E-1,5.1664454E-1,2.2840824E0,7.743842E-1,-2.3579565E-1,4.566217E-1,1.4112106E-1,8.983264E-1,1.4023503E0,1.0252123E0,4.049185E-1,1.7188548E0,3.494302E0,2.8395265E-1,2.019691E0,1.0159198E0,2.261586E-1,9.416407E-1,2.990566E0,1.3188422E-1,1.0904727E0,-7.805527E-1,-1.2990832E-2,6.061713E-1,-6.234282E-1,4.8855433E-1,-6.2871474E-1,9.533703E-1,2.3523657E0,3.9221832E-1,-1.5173891E-1,7.802165E-2,6.716978E-1,3.7106058E-1,-8.786122E-1,-2.559016E-2,5.5347055E-1,1.405796E0,5.655116E-1,1.050863E0,1.5199325E0,1.6432022E0,2.0832691E0,1.950387E0,-3.9003602E-1,2.7703714E0,5.8581215E-1,8.804199E-1,1.4964986E0,1.6957501E0,1.253021E0,3.1361263E-3,1.988118E0,-4.6697116E-1,3.271802E-1,1.1279672E0,-2.0598102E-1,9.404406E-1,-8.25428E-1,6.361872E-1,1.9700062E0,-4.9173594E-2,8.72044E-1,8.295455E-1,2.484453E0,6.943055E-1,1.3427452E0,2.3946483E0,3.301883E0,1.637145E0,2.4486198E0,-6.6279314E-2,1.1949565E0,-2.2430563E-2,2.7068057E0,9.341795E-1,2.9413733E0,-4.1217166E-1,4.092322E0,1.0593976E0,3.8515096E0,1.0441121E0,2.893329E0,5.658542E-1,2.3925855E0,8.32279E-1,2.0608928E0,2.569988E0,5.736702E-1,1.340754E-1,1.3218987E0,1.0933831E0,2.5969653E0,3.8767612E-1,3.8044674E0,3.5158005E0,2.4445274E0,1.8947544E0,4.900869E0,5.9771944E-2,-7.707321E-1,1.6859032E0,3.530721E-1,2.3017728E0,1.7270674E-1,3.276615E0,1.2784424E0],"categories":[],"categories_nodes":[],"categories_segments":[],"categories_sizes":[],"default_left":[0,0,0,0,0,0,0,0,0,0,0,0,0,0,0,0,0,0,0,0,0,0,0,0,0,0,0,0,0,0,0,0,0,0,0,0,0,0,0,0,0,0,0,0,0,0,0,0,0,0,0,0,0,0,0,0,0,0,0,0,0,0,0,0,0,0,0,0,0,0,0,0,0,0,0,0,0,0,0,0,0,0,0,0,0,0,0,0,0,0,0,0,0,0,0,0,0,0,0,0,0,0,0,0,0,0,0,0,0,0,0,0,0,0,0,0,0,0,0,0,0,0,0,0,0,0,0,0,0,0,0,0,0,0,0,0,0,0,0,0,0,0,0,0,0,0,0,0,0,0,0,0,0,0,0,0,0,0,0,0,0,0,0,0,0,0,0,0,0,0,0,0,0,0,0,0,0,0,0,0,0,0,0,0,0,0,0,0,0,0,0,0,0,0,0,0,0,0,0,0,0,0,0,0,0,0,0,0,0,0,0,0,0,0,0,0,0,0,0,0,0,0,0,0,0,0,0,0,0,0,0,0,0,0,0,0,0,0,0,0,0,0,0,0,0,0,0,0,0,0,0,0,0,0,0,0,0,0,0,0,0,0,0,0,0,0,0,0,0,0,0,0,0,0,0,0,0,0,0,0,0,0,0,0,0,0,0,0,0,0,0,0,0,0,0,0,0,0,0,0,0,0,0,0,0,0,0,0,0,0,0,0,0,0,0,0,0,0,0,0,0,0,0,0,0,0,0,0,0,0,0,0,0,0,0,0,0,0,0,0,0,0,0,0,0,0,0,0,0,0,0,0,0,0,0,0,0,0,0,0,0,0,0,0,0,0,0,0,0,0,0,0,0,0,0,0,0,0,0,0,0,0,0,0,0,0,0,0,0,0,0,0,0,0,0,0,0,0,0,0,0,0,0,0,0,0,0,0,0,0,0,0,0,0,0,0,0,0,0,0,0,0,0,0,0,0,0,0,0,0,0,0,0,0,0,0,0],"id":1,"left_children":[1,3,5,7,9,11,13,15,17,19,21,23,25,27,29,31,33,35,37,39,41,43,45,47,49,51,53,55,57,59,61,63,65,67,69,71,73,75,77,79,81,83,85,87,89,91,93,95,97,99,101,103,105,107,109,111,113,115,117,119,121,123,-1,-1,125,127,129,131,133,135,137,139,141,143,145,147,149,151,153,155,157,159,161,163,165,167,169,171,173,175,177,179,181,183,185,187,189,191,193,195,197,199,201,203,205,207,209,211,-1,213,215,217,219,221,223,225,227,229,231,233,-1,235,237,-1,239,241,-1,-1,243,-1,245,247,249,251,253,255,257,259,261,263,265,267,269,271,273,275,277,279,281,-1,283,285,287,289,291,293,295,297,299,301,303,305,307,309,311,313,315,317,-1,319,321,323,325,-1,327,329,331,333,335,337,339,341,343,345,347,349,351,353,355,357,359,361,363,365,367,369,371,373,375,377,379,381,383,385,387,389,391,393,395,397,399,-1,-1,401,403,405,407,409,411,413,-1,415,417,419,421,423,425,427,-1,429,431,433,-1,-1,435,-1,-1,-1,-1,-1,-1,-1,-1,-1,-1,-1,-1,-1,-1,-1,-1,-1,-1,-1,-1,-1,-1,-1,-1,-1,-1,-1,-1,-1,-1,-1,-1,-1,-1,-1,-1,-1,-1,-1,-1,-1,-1,-1,-1,-1,-1,-1,-1,-1,-1,-1,-1,-1,-1,-1,-1,-1,-1,-1,-1,-1,-1,-1,-1,-1,-1,-1,-1,-1,-1,-1,-1,-1,-1,-1,-1,-1,-1,-1,-1,-1,-1,-1,-1,-1,-1,-1,-1,-1,-1,-1,-1,-1,-1,-1,-1,-1,-1,-1,-1,-1,-1,-1,-1,-1,-1,-1,-1,-1,-1,-1,-1,-1,-1,-1,-1,-1,-1,-1,-1,-1,-1,-1,-1,-1,-1,-1,-1,-1,-1,-1,-1,-1,-1,-1,-1,-1,-1,-1,-1,-1,-1,-1,-1,-1,-1,-1,-1,-1,-1,-1,-1,-1,-1,-1,-1,-1,-1,-1,-1,-1,-1,-1,-1,-1,-1,-1,-1,-1,-1,-1,-1,-1,-1,-1,-1,-1,-1,-1,-1,-1,-1,-1,-1,-1,-1,-1,-1,-1,-1,-1,-1,-1,-1,-1,-1,-1,-1,-1,-1,-1,-1],"loss_changes":[7.3851605E6,9.922874E5,1.2428585E6,1.4043975E5,2.4204311E5,2.1319375E5,1.73411E5,4.2609E4,2.9891547E4,5.5491594E4,8.906417E4,1.1600281E5,8.0565E4,4.7281E4,5.534125E4,6.7175E3,6.559E3,1.648409E4,1.0594844E4,3.703108E4,7.466306E4,1.2310383E4,2.9867375E4,2.2331578E4,3.023275E4,5.8930812E4,3.8999562E4,2.1878375E4,1.8951625E4,3.9457E4,1.16665E4,1.725E3,1.31075E3,2.3895312E3,2.3399531E3,2.7868164E3,9.911979E3,1.0058906E3,5.1913203E3,2.1704586E4,2.3284562E4,3.3375688E4,2.6963771E4,4.825787E3,7.956687E3,3.543825E4,1.2726856E4,1.1785598E4,2.07425E4,1.39625625E4,2.1752656E4,1.9995088E4,9.09025E3,3.7268052E3,2.5239062E4,6.8254688E3,1.6549719E4,2.0379125E4,1.4906453E4,3.178625E3,4.00075E3,2.4145E3,0E0,0E0,5.673125E2,1.0508672E3,1.1454062E3,1.62625E2,2.3117188E3,1.3688047E3,1.4038047E3,2.5225508E3,3.9313633E3,9.173617E3,1.088544E3,9.571621E2,5.4439844E2,3.1311895E3,2.6178398E3,6.794996E3,6.706552E3,7.662453E3,1.1907965E4,1.5624113E4,2.0070773E4,1.3014598E4,7.217912E3,4.5400566E3,4.106988E2,7.3262886E3,3.3177656E3,1.0748359E4,4.391711E3,3.684082E3,7.522214E3,2.244128E3,6.0585664E3,7.619507E3,1.2935797E4,8.5353125E3,5.1266094E3,2.439375E4,1.4040323E4,3.6358987E3,1.0462992E4,1.2291164E4,7.116E3,1.6282874E2,0E0,1.4684547E4,8.9469375E3,3.5436875E3,4.5528906E2,3.010625E3,3.1847969E3,9.338875E3,3.40575E3,3.5983862E3,5.149367E3,2.304625E3,0E0,9.0709375E2,4.97875E2,0E0,7.0975E2,1.0475E2,0E0,0E0,6.572422E2,0E0,5.00875E2,1.54375E1,1.6082568E3,3.5862505E3,1.0205E3,3.6053506E3,9.9483594E2,7.1246875E2,1.7778906E3,8.610198E2,2.0185938E2,2.7917637E3,1.9051836E3,5.805641E3,6.128266E3,7.920615E2,3.524336E2,5.9213184E2,1.5260254E1,0E0,9.3310547E2,5.5789624E2,3.5390955E2,6.2991406E2,2.5499355E3,8.448496E3,2.2013853E3,4.176623E3,4.251752E3,4.2693594E3,1.3843125E3,1.9039191E4,6.2513066E3,5.2982266E3,1.4690778E4,5.234047E3,4.9433086E3,4.2772637E3,0E0,4.6379844E3,2.463455E3,1.901831E3,2.3234238E3,0E0,1.8415778E2,4.1884844E3,4.148745E3,1.6749297E3,1.8331621E3,5.7340625E3,8.406066E3,3.0184766E3,2.9402031E3,4.6818164E2,2.4800703E3,3.059352E3,6.24041E2,1.9318728E3,1.278041E3,1.4545361E3,3.2004824E3,5.086342E3,1.3455225E3,1.4061692E3,5.2142734E3,2.6164688E3,1.6344219E3,2.8206953E3,7.229219E2,3.6464766E3,6.81975E3,2.662962E3,2.587248E3,1.6849673E3,2.0825942E3,2.334293E3,2.7944873E3,1.7175156E3,1.7717402E3,2.8728125E3,1.0686844E4,0E0,0E0,1.2929121E3,2.9816719E3,3.8226328E3,9.409531E3,2.6875E2,7.018125E2,3.6564844E2,0E0,6.7884375E2,5.381094E2,3.3150244E3,3.2807207E3,8.0219375E3,6.8565625E3,1.053375E3,0E0,4.3203125E2,6.8921436E2,2.9864297E3,0E0,0E0,2.0395625E3,0E0,0E0,0E0,0E0,0E0,0E0,0E0,0E0,0E0,0E0,0E0,0E0,0E0,0E0,0E0,0E0,0E0,0E0,0E0,0E0,0E0,0E0,0E0,0E0,0E0,0E0,0E0,0E0,0E0,0E0,0E0,0E0,0E0,0E0,0E0,0E0,0E0,0E0,0E0,0E0,0E0,0E0,0E0,0E0,0E0,0E0,0E0,0E0,0E0,0E0,0E0,0E0,0E0,0E0,0E0,0E0,0E0,0E0,0E0,0E0,0E0,0E0,0E0,0E0,0E0,0E0,0E0,0E0,0E0,0E0,0E0,0E0,0E0,0E0,0E0,0E0,0E0,0E0,0E0,0E0,0E0,0E0,0E0,0E0,0E0,0E0,0E0,0E0,0E0,0E0,0E0,0E0,0E0,0E0,0E0,0E0,0E0,0E0,0E0,0E0,0E0,0E0,0E0,0E0,0E0,0E0,0E0,0E0,0E0,0E0,0E0,0E0,0E0,0E0,0E0,0E0,0E0,0E0,0E0,0E0,0E0,0E0,0E0,0E0,0E0,0E0,0E0,0E0,0E0,0E0,0E0,0E0,0E0,0E0,0E0,0E0,0E0,0E0,0E0,0E0,0E0,0E0,0E0,0E0,0E0,0E0,0E0,0E0,0E0,0E0,0E0,0E0,0E0,0E0,0E0,0E0,0E0,0E0,0E0,0E0,0E0,0E0,0E0,0E0,0E0,0E0,0E0,0E0,0E0,0E0,0E0,0E0,0E0,0E0,0E0,0E0,0E0,0E0,0E0,0E0,0E0,0E0,0E0,0E0,0E0,0E0,0E0,0E0,0E0,0E0,0E0,0E0,0E0,0E0,0E0,0E0,0E0,0E0,0E0,0E0,0E0,0E0],"parents":[2147483647,0,0,1,1,2,2,3,3,4,4,5,5,6,6,7,7,8,8,9,9,10,10,11,11,12,12,13,13,14,14,15,15,16,16,17,17,18,18,19,19,20,20,21,21,22,22,23,23,24,24,25,25,26,26,27,27,28,28,29,29,30,30,31,31,32,32,33,33,34,34,35,35,36,36,37,37,38,38,39,39,40,40,41,41,42,42,43,43,44,44,45,45,46,46,47,47,48,48,49,49,50,50,51,51,52,52,53,53,54,54,55,55,56,56,57,57,58,58,59,59,60,60,61,61,64,64,65,65,66,66,67,67,68,68,69,69,70,70,71,71,72,72,73,73,74,74,75,75,76,76,77,77,78,78,79,79,80,80,81,81,82,82,83,83,84,84,85,85,86,86,87,87,88,88,89,89,90,90,91,91,92,92,93,93,94,94,95,95,96,96,97,97,98,98,99,99,100,100,101,101,102,102,103,103,104,104,105,105,106,106,107,107,109,109,110,110,111,111,112,112,113,113,114,114,115,115,116,116,117,117,118,118,119,119,121,121,122,122,124,124,125,125,128,128,130,130,131,131,132,132,133,133,134,134,135,135,136,136,137,137,138,138,139,139,140,140,141,141,142,142,143,143,144,144,145,145,146,146,147,147,148,148,150,150,151,151,152,152,153,153,154,154,155,155,156,156,157,157,158,158,159,159,160,160,161,161,162,162,163,163,164,164,165,165,166,166,167,167,169,169,170,170,171,171,172,172,174,174,175,175,176,176,177,177,178,178,179,179,180,180,181,181,182,182,183,183,184,184,185,185,186,186,187,187,188,188,189,189,190,190,191,191,192,192,193,193,194,194,195,195,196,196,197,197,198,198,199,199,200,200,201,201,202,202,203,203,204,204,205,205,206,206,207,207,208,208,209,209,210,210,213,213,214,214,215,215,216,216,217,217,218,218,219,219,221,221,222,222,223,223,224,224,225,225,226,226,227,227,229,229,230,230,231,231,234,234],"right_children":[2,4,6,8,10,12,14,16,18,20,22,24,26,28,30,32,34,36,38,40,42,44,46,48,50,52,54,56,58,60,62,64,66,68,70,72,74,76,78,80,82,84,86,88,90,92,94,96,98,100,102,104,106,108,110,112,114,116,118,120,122,124,-1,-1,126,128,130,132,134,136,138,140,142,144,146,148,150,152,154,156,158,160,162,164,166,168,170,172,174,176,178,180,182,184,186,188,190,192,194,196,198,200,202,204,206,208,210,212,-1,214,216,218,220,222,224,226,228,230,232,234,-1,236,238,-1,240,242,-1,-1,244,-1,246,248,250,252,254,256,258,260,262,264,266,268,270,272,274,276,278,280,282,-1,284,286,288,290,292,294,296,298,300,302,304,306,308,310,312,314,316,318,-1,320,322,324,326,-1,328,330,332,334,336,338,340,342,344,346,348,350,352,354,356,358,360,362,364,366,368,370,372,374,376,378,380,382,384,386,388,390,392,394,396,398,400,-1,-1,402,404,406,408,410,412,414,-1,416,418,420,422,424,426,428,-1,430,432,434,-1,-1,436,-1,-1,-1,-1,-1,-1,-1,-1,-1,-1,-1,-1,-1,-1,-1,-1,-1,-1,-1,-1,-1,-1,-1,-1,-1,-1,-1,-1,-1,-1,-1,-1,-1,-1,-1,-1,-1,-1,-1,-1,-1,-1,-1,-1,-1,-1,-1,-1,-1,-1,-1,-1,-1,-1,-1,-1,-1,-1,-1,-1,-1,-1,-1,-1,-1,-1,-1,-1,-1,-1,-1,-1,-1,-1,-1,-1,-1,-1,-1,-1,-1,-1,-1,-1,-1,-1,-1,-1,-1,-1,-1,-1,-1,-1,-1,-1,-1,-1,-1,-1,-1,-1,-1,-1,-1,-1,-1,-1,-1,-1,-1,-1,-1,-1,-1,-1,-1,-1,-1,-1,-1,-1,-1,-1,-1,-1,-1,-1,-1,-1,-1,-1,-1,-1,-1,-1,-1,-1,-1,-1,-1,-1,-1,-1,-1,-1,-1,-1,-1,-1,-1,-1,-1,-1,-1,-1,-1,-1,-1,-1,-1,-1,-1,-1,-1,-1,-1,-1,-1,-1,-1,-1,-1,-1,-1,-1,-1,-1,-1,-1,-1,-1,-1,-1,-1,-1,-1,-1,-1,-1,-1,-1,-1,-1,-1,-1,-1,-1,-1,-1,-1,-1],"split_conditions":[4.462E1,1.67E1,7.628E1,1.53E1,2.502E1,7.628E1,9.46E1,4.92E0,2.43E1,5.172E1,4.22E1,3.125E1,5.16E1,9.685E1,4.865E1,4.3E0,9.62E0,2.388E1,5.58E0,3.077E1,5.022E1,7.3E0,3.412E1,3.14E1,1.128E1,3.62E1,4.75E0,3.225E1,5.16E1,1.0345E2,2.092E1,1.93E0,4.45E0,5.3E0,1.357E1,3.52E0,1.085E1,2.995E1,3.7E0,3.277E1,3.435E1,8.61E1,1E1,2.877E1,3.225E1,8.45E1,1.762E1,1.22E1,1.265E1,2.71E1,4.107E1,1.155E1,4.735E1,8.97E1,9.46E1,1.1107E2,2.865E1,1.2943E2,6.12E1,4.37E1,1.1302E2,1.4E-1,-1.564291E-1,-1.1684489E0,2.234E1,7.62E0,1.62E0,9.235E1,1.5E0,3.25E0,3.35E0,1.68E0,5.68E0,9.62E0,1.902E1,4.07E1,3.2E0,4.273E1,1.085E1,1.585E1,1.465E1,4.305E1,3.565E1,1.94E1,4.105E1,1.1211E2,8.688E1,3.14E1,-4.12E0,5.112E1,3.027E1,4.392E1,5.252E1,4.558E1,5.783E1,4.877E1,2.83E0,3.62E1,2.118E1,4.805E1,5.03E1,5.172E1,2.74E1,3.323E1,1.5E1,3.077E1,1.612E1,4.92E0,1.0753124E0,4.14E1,2.388E1,6.293E1,3.4E-1,7.09E1,7.362E1,5.812E1,1.366E2,8.3E0,6.433E1,8.58E0,1.0575491E0,-3.63E0,1.1697E2,1.1068503E0,1.2735E2,3E-1,5.907011E-2,-9.894018E-1,2.1153E2,-1.1401112E0,4.2E-1,4.2E0,5.48E1,2.885E1,3.46E1,5.783E1,4.2E-1,2.23E0,1.0338E2,1.93E0,4.2E0,2.052E1,9.8E0,5E0,1.94E1,2.502E1,4.045E1,1.4865E2,4.89E0,-1.0858188E0,6.27E0,1.288E1,7.45E0,9.46E1,4.165E1,2.39E1,9.4E0,3.62E1,1.77E1,3.057E1,9.06E1,1.6E0,5.067E1,6.208E1,2.67E1,5E-2,5.58E0,6.53E1,4.2061887E0,7.803E1,1.3879E2,3.442E1,1.882E1,3.2047805E-1,2.33E1,4.202E1,6.435E1,6.867E1,1.35E1,4.88E1,2.373E1,2.467E1,2.662E1,2.715E1,5.598E1,8.112E1,6.842E1,6.115E1,5.55E0,2.95E1,3.323E1,4.75E0,2.132E1,2.207E1,2.07E1,2.352E1,6.128E1,6.862E1,2.9E0,4.238E1,1.77E1,4.877E1,3.495E1,9.62E0,8.272E1,6.33E0,2.14E1,1.086E1,1.42E1,1.0985E2,2.627E1,-9.4180727E-1,-1.1526423E-1,7.47E1,3.04E0,5.84E1,2.07E1,4.73E1,6.42E0,1.1578E2,5.2514476E-1,3.395E1,1.2943E2,2.846E1,7.918E1,4.53E1,1.432E1,-3.13E0,8.071396E-1,1.366E2,9.685E1,4.48E1,3.7138138E0,1.8024079E0,1.2943E2,9.055939E-1,3.800991E0,3.9641716E0,4.831069E0,5.173571E0,2.0815656E0,-4.8067665E-1,-1.0772265E0,-8.1212443E-1,-4.9342584E-2,-3.1961238E-1,-9.8818487E-1,-2.6463637E-1,-9.522168E-1,-7.019886E-2,-9.0553725E-1,-5.893608E-1,9.0249723E-1,-8.7714094E-1,-7.479858E-1,-5.4938287E-1,6.0362226E-1,3.1709245E-1,-6.750531E-1,-3.9469704E-1,-9.5092374E-1,-7.448432E-1,3.7771448E-1,-5.374327E-1,-2.436263E-2,-6.68169E-2,-8.539573E-1,-5.230899E-1,-9.87184E-2,-7.273044E-1,-4.482742E-1,-4.6610992E-2,-4.9853158E-1,-1.4248894E-1,5.124512E-1,-4.5991245E-1,5.9631944E-1,-8.258893E-1,-1.8589829E-1,-8.141479E-1,-1.9809172E-1,3.8543608E-2,3.254474E-1,3.5086665E-1,-9.097919E-1,8.706978E-1,-1.9860612E-1,-7.368181E-1,-1.1391878E-1,-7.60217E-1,-9.764186E-2,-4.9349284E-1,4.3452594E-1,-4.8667565E-1,-6.787744E-2,8.964971E-2,-1.9041593E-1,1.2004828E-1,9.98298E-1,2.5429344E-1,-9.8641336E-2,-7.541609E-1,-2.824914E-1,-1.0721654E0,-5.35292E-1,2.3403049E0,-1.441582E-1,6.8784617E-3,-7.4571383E-1,6.769986E-1,1.4838381E0,-1.3167419E-1,7.932815E-1,-3.7341308E-2,3.6700127E0,4.9146256E-1,1.6507269E0,-4.9794826E-1,1.6027378E0,-4.357864E-1,-9.1709083E-1,1.1100203E-1,1.646287E0,3.9119574E-1,9.1221106E-1,1.5856159E0,8.0654633E-1,-1.7038019E-1,-5.592398E-1,1.7659402E-2,-4.9672183E-1,5.1664454E-1,2.2840824E0,7.743842E-1,-2.3579565E-1,4.566217E-1,1.4112106E-1,8.983264E-1,1.4023503E0,1.0252123E0,4.049185E-1,1.7188548E0,3.494302E0,2.8395265E-1,2.019691E0,1.0159198E0,2.261586E-1,9.416407E-1,2.990566E0,1.3188422E-1,1.0904727E0,-7.805527E-1,-1.2990832E-2,6.061713E-1,-6.234282E-1,4.8855433E-1,-6.2871474E-1,9.533703E-1,2.3523657E0,3.9221832E-1,-1.5173891E-1,7.802165E-2,6.716978E-1,3.7106058E-1,-8.786122E-1,-2.559016E-2,5.5347055E-1,1.405796E0,5.655116E-1,1.050863E0,1.5199325E0,1.6432022E0,2.0832691E0,1.950387E0,-3.9003602E-1,2.7703714E0,5.8581215E-1,8.804199E-1,1.4964986E0,1.6957501E0,1.253021E0,3.1361263E-3,1.988118E0,-4.6697116E-1,3.271802E-1,1.1279672E0,-2.0598102E-1,9.404406E-1,-8.25428E-1,6.361872E-1,1.9700062E0,-4.9173594E-2,8.72044E-1,8.295455E-1,2.484453E0,6.943055E-1,1.3427452E0,2.3946483E0,3.301883E0,1.637145E0,2.4486198E0,-6.6279314E-2,1.1949565E0,-2.2430563E-2,2.7068057E0,9.341795E-1,2.9413733E0,-4.1217166E-1,4.092322E0,1.0593976E0,3.8515096E0,1.0441121E0,2.893329E0,5.658542E-1,2.3925855E0,8.32279E-1,2.0608928E0,2.569988E0,5.736702E-1,1.340754E-1,1.3218987E0,1.0933831E0,2.5969653E0,3.8767612E-1,3.8044674E0,3.5158005E0,2.4445274E0,1.8947544E0,4.900869E0,5.9771944E-2,-7.707321E-1,1.6859032E0,3.530721E-1,2.3017728E0,1.7270674E-1,3.276615E0,1.2784424E0],"split_indices":[12,8,8,12,12,12,12,8,11,8,8,8,15,8,15,12,8,12,8,13,13,10,13,17,10,8,8,10,18,8,3,8,11,12,9,8,9,13,9,8,15,8,10,11,8,8,10,8,8,14,13,8,8,13,12,0,13,8,12,13,12,0,0,0,3,12,8,17,10,11,12,11,9,8,10,14,8,11,8,12,10,13,9,13,10,0,17,15,6,17,9,10,10,13,13,12,10,10,15,8,8,8,10,18,9,9,10,1,0,17,8,9,6,12,12,10,10,3,17,0,0,6,8,0,17,12,0,0,0,0,9,16,18,13,17,14,10,10,17,8,16,14,8,9,14,9,12,0,0,0,16,8,8,10,12,15,10,8,13,14,10,11,13,8,14,0,11,13,0,13,0,8,18,0,13,13,14,10,13,8,17,10,12,18,18,18,1,0,0,13,13,8,16,8,9,15,8,11,6,17,18,12,15,3,12,3,8,0,14,12,11,0,0,1,1,15,16,12,1,0,0,10,11,1,0,12,13,6,0,8,10,15,0,0,10,0,0,0,0,0,0,0,0,0,0,0,0,0,0,0,0,0,0,0,0,0,0,0,0,0,0,0,0,0,0,0,0,0,0,0,0,0,0,0,0,0,0,0,0,0,0,0,0,0,0,0,0,0,0,0,0,0,0,0,0,0,0,0,0,0,0,0,0,0,0,0,0,0,0,0,0,0,0,0,0,0,0,0,0,0,0,0,0,0,0,0,0,0,0,0,0,0,0,0,0,0,0,0,0,0,0,0,0,0,0,0,0,0,0,0,0,0,0,0,0,0,0,0,0,0,0,0,0,0,0,0,0,0,0,0,0,0,0,0,0,0,0,0,0,0,0,0,0,0,0,0,0,0,0,0,0,0,0,0,0,0,0,0,0,0,0,0,0,0,0,0,0,0,0,0,0,0,0,0,0,0,0,0,0,0,0,0,0,0,0,0,0,0,0,0,0,0,0,0,0,0,0],"split_type":[0,0,0,0,0,0,0,0,0,0,0,0,0,0,0,0,0,0,0,0,0,0,0,0,0,0,0,0,0,0,0,0,0,0,0,0,0,0,0,0,0,0,0,0,0,0,0,0,0,0,0,0,0,0,0,0,0,0,0,0,0,0,0,0,0,0,0,0,0,0,0,0,0,0,0,0,0,0,0,0,0,0,0,0,0,0,0,0,0,0,0,0,0,0,0,0,0,0,0,0,0,0,0,0,0,0,0,0,0,0,0,0,0,0,0,0,0,0,0,0,0,0,0,0,0,0,0,0,0,0,0,0,0,0,0,0,0,0,0,0,0,0,0,0,0,0,0,0,0,0,0,0,0,0,0,0,0,0,0,0,0,0,0,0,0,0,0,0,0,0,0,0,0,0,0,0,0,0,0,0,0,0,0,0,0,0,0,0,0,0,0,0,0,0,0,0,0,0,0,0,0,0,0,0,0,0,0,0,0,0,0,0,0,0,0,0,0,0,0,0,0,0,0,0,0,0,0,0,0,0,0,0,0,0,0,0,0,0,0,0,0,0,0,0,0,0,0,0,0,0,0,0,0,0,0,0,0,0,0,0,0,0,0,0,0,0,0,0,0,0,0,0,0,0,0,0,0,0,0,0,0,0,0,0,0,0,0,0,0,0,0,0,0,0,0,0,0,0,0,0,0,0,0,0,0,0,0,0,0,0,0,0,0,0,0,0,0,0,0,0,0,0,0,0,0,0,0,0,0,0,0,0,0,0,0,0,0,0,0,0,0,0,0,0,0,0,0,0,0,0,0,0,0,0,0,0,0,0,0,0,0,0,0,0,0,0,0,0,0,0,0,0,0,0,0,0,0,0,0,0,0,0,0,0,0,0,0,0,0,0,0,0,0,0,0,0,0,0,0,0,0,0,0,0,0,0,0,0,0,0,0,0,0,0,0,0,0,0,0,0,0,0,0,0,0,0,0,0,0,0,0,0,0,0,0,0,0],"sum_hessian":[1.6686E4,1.3012E4,3.674E3,8.61E3,4.402E3,2.569E3,1.105E3,6.778E3,1.832E3,2.827E3,1.575E3,1.872E3,6.97E2,6.14E2,4.91E2,4.025E3,2.753E3,1.154E3,6.78E2,2.27E3,5.57E2,9.22E2,6.53E2,6.58E2,1.214E3,5.14E2,1.83E2,3.58E2,2.56E2,3.71E2,1.2E2,2.565E3,1.46E3,1.676E3,1.077E3,5.61E2,5.93E2,3.29E2,3.49E2,1.403E3,8.67E2,3.24E2,2.33E2,2.05E2,7.17E2,5.49E2,1.04E2,2.49E2,4.09E2,4.28E2,7.86E2,1.18E2,3.96E2,9E0,1.74E2,1.31E2,2.27E2,2.14E2,4.2E1,1.73E2,1.98E2,1.19E2,1E0,1.285E3,1.28E3,3.85E2,1.075E3,8.17E2,8.59E2,5.71E2,5.06E2,1.3E2,4.31E2,4.86E2,1.07E2,6.3E1,2.66E2,2E1,3.29E2,1.004E3,3.99E2,4.68E2,3.99E2,2.69E2,5.5E1,1.1E1,2.22E2,1.89E2,1.6E1,4.66E2,2.51E2,4.91E2,5.8E1,1.6E1,8.8E1,5.9E1,1.9E2,1.85E2,2.24E2,3.14E2,1.14E2,7.31E2,5.5E1,2.8E1,9E1,9.1E1,3.05E2,6E0,3E0,7.2E1,1.02E2,8.6E1,4.5E1,1.84E2,4.3E1,1.77E2,3.7E1,1.1E1,3.1E1,1.7E2,3E0,7.6E1,1.22E2,1E0,1.18E2,1.279E3,1E0,1.83E2,2.02E2,1.99E2,8.76E2,7.73E2,4.4E1,2.5E1,8.34E2,5.6E1,5.15E2,1.65E2,3.41E2,3.3E1,9.7E1,1.66E2,2.65E2,3.32E2,1.54E2,6.8E1,3.9E1,6.1E1,2E0,1.23E2,1.43E2,1.1E1,9E0,1.53E2,1.76E2,6.59E2,3.45E2,5.6E1,3.43E2,2.45E2,2.23E2,2.2E2,1.79E2,8.8E1,1.81E2,1.4E1,4.1E1,8E0,3E0,2.11E2,1.1E1,1.31E2,5.8E1,2E0,1.4E1,4.36E2,3E1,5.7E1,1.94E2,2.67E2,2.24E2,2E1,3.8E1,8E0,8E0,6.1E1,2.7E1,1.2E1,4.7E1,1.9E1,1.71E2,1.71E2,1.4E1,4.3E1,1.81E2,1.49E2,1.65E2,7.4E1,4E1,3.14E2,4.17E2,1.2E1,4.3E1,8E0,2E1,3.7E1,5.3E1,3.4E1,5.7E1,1.18E2,1.87E2,5E0,1E0,8E0,6.4E1,2.5E1,7.7E1,3.4E1,5.2E1,4.4E1,1E0,8.6E1,9.8E1,2.3E1,2E1,8.3E1,9.4E1,3.6E1,1E0,5E0,6E0,1.9E1,1.2E1,7E0,1.63E2,1E0,7.5E1,4.5E1,7.7E1,1.16E2,2E0,3E0,1.276E3,1.99E2,3E0,4E0,8.72E2,1E0,7.72E2,7E0,3.7E1,2.1E1,4E0,5.28E2,3.06E2,4.9E1,7E0,2E0,5.13E2,8E0,1.57E2,3.38E2,3E0,1.9E1,1.4E1,1E0,9.6E1,6.1E1,1.05E2,1.13E2,1.52E2,2.3E2,1.02E2,5.5E1,9.9E1,6.7E1,1E0,3.6E1,3E0,5.6E1,5E0,1E0,1E0,1E0,1.42E2,1E1,1E0,4E0,5E0,1.49E2,4E0,1.69E2,7E0,5E2,1.59E2,9.7E1,2.48E2,2.3E1,3.3E1,1.54E2,1.89E2,1.77E2,6.8E1,2.07E2,1.6E1,7E0,2.13E2,3.4E1,1.45E2,5.1E1,3.7E1,1.13E2,6.8E1,1E0,1.3E1,1.6E1,2.5E1,4E0,4E0,1.23E2,8.8E1,8E0,3E0,1.1E2,2.1E1,1.4E1,4.4E1,9E0,5E0,3.93E2,4.3E1,2.7E1,3E0,5.3E1,4E0,7.6E1,1.18E2,9.7E1,1.7E2,1.22E2,1.02E2,7E0,1.3E1,3E0,3.5E1,3E0,5E0,4E0,4E0,5.2E1,9E0,2.4E1,3E0,8E0,4E0,2E0,4.5E1,1.7E1,2E0,1.38E2,3.3E1,5.2E1,1.19E2,2E0,1.2E1,1.7E1,2.6E1,1.58E2,2.3E1,8.6E1,6.3E1,1.08E2,5.7E1,7.3E1,1E0,3.9E1,1E0,2.86E2,2.8E1,2.58E2,1.59E2,2E0,1E1,2.8E1,1.5E1,4E0,4E0,1E0,1.9E1,5E0,3.2E1,1E1,4.3E1,3E0,3.1E1,2E1,3.7E1,9.9E1,1.9E1,1.04E2,8.3E1,6E0,2E0,1E0,6.3E1,4E0,2.1E1,1E0,7.6E1,1E0,3.3E1,2E0,5E1,1E0,4.3E1,3E0,8.3E1,9.7E1,1E0,1.2E1,1.1E1,1.4E1,6E0,2E0,8.1E1,3.3E1,6.1E1,2E0,3.4E1,3E0,2E0,4E0,2E0,1.7E1,2E0,1.6E2,3E0],"tree_param":{"num_deleted":"0","num_feature":"19","num_nodes":"437","size_leaf_vector":"1"}},{"base_weights":[1.18719734E-1,-1.0724576E1,3.1397528E1,-1.672305E1,-9.9152243E-1,2.168933E1,5.5813972E1,-1.9116013E1,-1.2619624E1,8.83744E0,-3.8624198E0,3.596636E1,1.5082748E1,6.3712852E1,8.507988E0,-2.0460554E1,-1.7130077E1,-4.9479885E0,-1.4516618E1,5.6020026E0,3.2638756E1,-7.1253166E0,8.110939E-1,3.298324E1,6.818932E1,2.2507719E1,5.0330352E-2,5.3656013E1,7.700918E1,3.2224937E1,-9.187845E0,-2.120575E1,-1.9365362E1,-1.1334145E1,-1.8086977E1,-1.1143153E1,2.4280972E0,-1.6280977E1,-1.253857E1,1.2994123E0,1.8449318E1,4.0561005E1,-1.1773326E1,-6.199536E-2,-8.706561E0,1.5510837E1,-1.7335061E0,2.7576397E1,4.1982113E1,4.4396717E1,7.476453E1,1.652836E1,3.3282974E1,6.0484557E0,-1.047039E1,6.267739E1,4.0013153E1,6.90602E1,9.0256454E1,3.670688E0,2.6905296E1,2.0923466E1,-1.1309859E1,-2.1613216E1,-1.995677E1,-6.9795017E0,-1.9651335E1,-1.4651496E1,-4.2049136E0,-1.8502285E1,-1.5822214E1,-1.49137335E1,-8.35345E0,4.451191E0,-1.644334E1,-1.6375767E1,2.0508356E0,-1.4852769E1,-9.075787E0,-2.487849E0,8.616036E0,2.5318457E1,8.58819E0,2.69764E1,4.815524E1,5.3931963E-1,-1.4885195E1,-6.1869044E0,8.709862E0,-1.2439713E1,-7.1324296E0,8.277879E0,2.2604057E1,1.4658935E0,-1.0994775E1,3.9851418E1,2.343844E1,4.3912735E1,2.4941935E1,3.0055305E-1,4.6100643E1,7.841185E1,3.490533E1,3.1730286E1,1.5133098E1,3.5854095E1,1.7013477E1,1.5029533E-1,1.6754349E1,-1.2985983E1,1.6419262E1,6.052283E1,8.495921E1,4.3535324E1,9.348543E0,7.75118E1,5.8804867E1,9.074714E1,2.5687084E-1,3.2852135E1,1.3841827E1,-1.1339021E1,2.3977544E0,7.2551423E-1,-1.5855442E1,-1.0813262E0,-1.1947327E-1,-1.651264E1,-2.07698E1,-1.541193E1,1.3560647E0,-1.6939285E1,-1.9997065E1,-1.778104E1,-1.0976657E1,1.2304585E1,-6.4224086E0,-1.9163504E1,-1.7330494E1,-1.6124773E1,8.026596E0,-1.525845E1,7.2162807E-1,-1.1631254E1,-3.296005E0,-4.6115746E0,1.2112022E1,-1.7404854E1,-3.590624E0,-1.8075428E1,-1.5167144E1,2.0908258E0,-1.1546196E1,-1.49787E1,4.085809E0,-1.7629207E0,-1.1966718E1,-5.548528E0,1.7254698E0,1.8438795E1,-2.9657168E0,1.1768705E1,2.8508318E1,-3.0299947E0,1.3049048E1,3.156171E1,4.116783E0,6.402074E1,3.8623524E1,4.2349383E-1,-7.57101E0,-3.8570985E-1,-8.3163387E-1,7.164174E0,-7.2090406E0,3.9739587E0,2.5780884E1,-1.1753905E1,-1.703843E1,-3.2688842E0,-9.6213455E0,1.1402906E1,1.9744585E0,1.4225519E1,3.3710457E1,-1.2900084E0,5.4436593E0,-1.3542285E1,-4.3126564E0,3.3203968E1,5.10198E1,2.4317255E1,1.2266266E0,3.827818E1,4.9439487E1,3.85907E1,7.4173937E0,3.9503336E-1,2.3891969E0,5.5468464E-1,7.943411E1,2.3867435E0,1.887654E0,1.4701029E1,3.8979744E1,1.827541E1,7.697781E0,3.140083E1,4.0412807E1,8.8084135E0,4.2075832E1,-2.100624E0,1.1080265E1,1.3046815E1,3.4932816E1,-6.4687567E0,-1.5034532E1,2.7538942E1,-8.911523E-1,6.137125E1,1.8808578E1,4.8631268E0,4.0505188E1,5.5823025E1,3.7471466E1,1.987608E1,-2.7079222E0,1.3928336E0,7.798816E1,7.183399E1,4.1466557E1,1.0361528E2,8.378535E1,3.5908993E1,-8.222142E0,-3.0077937E0,2.4888569E1,-6.938011E-1,-9.3200445E-2,-3.954134E0,1.4311012E0,-1.7837202E1,-7.5319595E0,-1.5537657E-2,-8.854472E-1,-2.5340578E-1,-1.0423402E0,6.3448906E-2,-9.148914E-1,3.7587103E-1,-6.2350655E-1,-9.2676586E-1,-5.6980294E-1,-1.0209345E0,-9.3478394E-1,-3.8138622E-1,-9.060549E-1,-4.5449615E-1,-9.0092987E-1,9.390489E-1,-1.8621714E-1,-6.910332E-1,-1.5024653E-1,-5.5785525E-1,-9.6209043E-1,-8.720838E-1,3.7846887E-1,3.6039445E-1,-8.1655926E-1,6.701805E-1,-2.0261121E-1,-3.4713492E-1,-8.4202063E-1,-6.0342145E-1,8.677309E-1,-1.5951032E-2,-5.184436E-1,8.180425E-2,-6.974233E-1,1.087075E0,2.8509086E-1,-8.928669E-1,-1.8625498E-1,-3.4197095E-1,7.267413E-2,-9.053923E-1,-3.410172E-1,-7.074946E-1,-8.3383554E-1,-7.0169824E-1,2.2316122E-2,-6.7383856E-1,-8.2237434E-1,-2.608438E-1,1.0324138E0,4.7583634E-1,-2.0892513E-1,-7.0296353E-1,-3.6349666E-1,-3.5978682E-2,-4.3179247E-1,4.6095E-1,-1.6530037E-1,5.876096E-1,1.2001141E0,-5.022362E-1,1.9584668E-1,-2.0325759E-1,7.2885317E-1,1.4746054E0,8.767813E-2,2.803943E-1,-5.445008E-1,1.0026085E0,4.147974E-1,1.6436065E0,-2.9205593E-1,-4.051856E-1,1.3592757E0,7.058642E-1,3.3957863E0,2.1936724E0,4.4292197E-1,-1.0115838E-1,-4.6666738E-1,-1.7656343E-1,1.3680515E0,-4.653499E-1,-1.09606996E-1,-2.0994215E-1,3.4873736E-1,3.0630217E0,9.6133673E-1,-6.378953E-1,-4.6434927E-1,-6.124692E-1,-9.522859E-1,-3.2377097E-1,2.0203674E-2,-5.0574315E-1,1.9842766E-1,6.366264E-1,-4.7461882E-1,-6.27519E-2,9.703806E-1,1.0078628E0,2.5652933E-1,9.7816116E-1,2.381111E0,8.747865E-2,-2.32745E-1,6.029418E-1,1.4777236E-1,-2.3881686E-3,-7.3929E-1,-2.7274236E-1,1.1089624E0,1.6863817E0,-3.3506513E-1,-4.4710246E-1,2.6213E0,1.0136532E0,1.4735206E0,6.7241293E-1,-4.336671E-1,2.7863855E0,1.7353672E0,2.746183E0,2.107666E0,2.6801286E0,1.2057952E0,7.461363E-1,-6.7899746E-1,2.3758776E0,4.1186256E0,1.4560738E-1,-4.033327E-3,1.4437293E-1,1.0798337E0,2.9399054E0,1.6114262E0,6.011798E-1,1.1313745E0,2.3671316E-1,7.7363825E-1,3.4219646E-1,1.6143433E0,2.2641644E0,1.6387444E0,6.7724556E-1,-6.693334E-1,2.2134087E0,1.7495905E-1,1.9252864E-1,-5.710388E-1,-3.5242984E-1,7.394761E-1,7.953283E-1,-2.9743215E-1,1.9565773E0,4.7359267E-1,-8.330576E-1,-4.670539E-2,7.2684777E-1,-7.8174156E-1,4.2037627E-1,2.1805239E0,2.0316248E0,3.1341574E0,1.9111947E0,-2.426941E-2,2.7248075E0,6.4450926E-1,1.4374942E0,2.8972538E0,9.1173595E-1,1.9923388E0,1.0100289E-2,1.3862754E0,9.594718E-1,-4.216877E-1,4.6768465E0,3.7438264E0,8.943246E-1,3.6542058E0,2.4702833E0,1.0319134E0,3.866624E-1,5.265523E0,4.352642E0,2.6228523E0,5.76559E-1,2.1011398E0,-5.554282E-1,1.09281065E-2,-5.0201315E-1,3.0163643E-1,7.458818E-1,1.7848437E0,-6.739394E-1,3.8032603E-2,-5.6420916E-1,-9.3562603E-1,1.6993771E-1,-7.598371E-1],"categories":[],"categories_nodes":[],"categories_segments":[],"categories_sizes":[],"default_left":[0,0,0,0,0,0,0,0,0,0,0,0,0,0,0,0,0,0,0,0,0,0,0,0,0,0,0,0,0,0,0,0,0,0,0,0,0,0,0,0,0,0,0,0,0,0,0,0,0,0,0,0,0,0,0,0,0,0,0,0,0,0,0,0,0,0,0,0,0,0,0,0,0,0,0,0,0,0,0,0,0,0,0,0,0,0,0,0,0,0,0,0,0,0,0,0,0,0,0,0,0,0,0,0,0,0,0,0,0,0,0,0,0,0,0,0,0,0,0,0,0,0,0,0,0,0,0,0,0,0,0,0,0,0,0,0,0,0,0,0,0,0,0,0,0,0,0,0,0,0,0,0,0,0,0,0,0,0,0,0,0,0,0,0,0,0,0,0,0,0,0,0,0,0,0,0,0,0,0,0,0,0,0,0,0,0,0,0,0,0,0,0,0,0,0,0,0,0,0,0,0,0,0,0,0,0,0,0,0,0,0,0,0,0,0,0,0,0,0,0,0,0,0,0,0,0,0,0,0,0,0,0,0,0,0,0,0,0,0,0,0,0,0,0,0,0,0,0,0,0,0,0,0,0,0,0,0,0,0,0,0,0,0,0,0,0,0,0,0,0,0,0,0,0,0,0,0,0,0,0,0,0,0,0,0,0,0,0,0,0,0,0,0,0,0,0,0,0,0,0,0,0,0,0,0,0,0,0,0,0,0,0,0,0,0,0,0,0,0,0,0,0,0,0,0,0,0,0,0,0,0,0,0,0,0,0,0,0,0,0,0,0,0,0,0,0,0,0,0,0,0,0,0,0,0,0,0,0,0,0,0,0,0,0,0,0,0,0,0,0,0,0,0,0,0,0,0,0,0,0,0,0,0,0,0,0,0,0,0,0,0,0,0,0,0,0,0,0,0,0,0,0,0,0,0,0,0,0,0,0,0,0,0,0,0,0,0,0,0,0,0,0,0,0,0,0,0,0,0,0,0,0,0,0,0,0,0,0,0,0,0,0,0,0,0],"id":2,"left_children":[1,3,5,7,9,11,13,15,17,19,21,23,25,27,29,31,33,35,37,39,41,43,45,47,49,51,53,55,57,59,61,63,65,67,69,71,73,75,77,79,81,83,85,87,89,91,93,95,97,99,101,103,105,107,109,111,113,115,117,-1,119,121,123,125,127,129,131,133,135,137,139,141,143,145,147,149,151,153,155,157,159,161,163,165,167,169,171,173,175,177,179,181,183,185,187,189,191,193,195,-1,197,199,201,203,205,207,209,211,213,215,217,219,221,223,225,227,229,231,-1,233,235,237,-1,239,241,-1,-1,243,245,247,249,251,253,255,257,259,261,263,265,267,269,271,-1,273,275,277,279,281,283,285,287,-1,289,291,293,295,297,299,301,303,305,307,309,311,313,315,317,319,321,-1,323,-1,-1,325,327,329,331,333,335,337,339,341,343,345,347,349,351,353,355,357,359,361,363,365,367,369,371,-1,-1,-1,373,-1,375,377,379,381,383,385,387,389,391,393,395,397,399,401,403,405,-1,407,409,-1,411,413,415,417,419,-1,421,423,425,427,429,431,433,435,437,-1,-1,439,-1,441,443,-1,-1,-1,-1,-1,-1,-1,-1,-1,-1,-1,-1,-1,-1,-1,-1,-1,-1,-1,-1,-1,-1,-1,-1,-1,-1,-1,-1,-1,-1,-1,-1,-1,-1,-1,-1,-1,-1,-1,-1,-1,-1,-1,-1,-1,-1,-1,-1,-1,-1,-1,-1,-1,-1,-1,-1,-1,-1,-1,-1,-1,-1,-1,-1,-1,-1,-1,-1,-1,-1,-1,-1,-1,-1,-1,-1,-1,-1,-1,-1,-1,-1,-1,-1,-1,-1,-1,-1,-1,-1,-1,-1,-1,-1,-1,-1,-1,-1,-1,-1,-1,-1,-1,-1,-1,-1,-1,-1,-1,-1,-1,-1,-1,-1,-1,-1,-1,-1,-1,-1,-1,-1,-1,-1,-1,-1,-1,-1,-1,-1,-1,-1,-1,-1,-1,-1,-1,-1,-1,-1,-1,-1,-1,-1,-1,-1,-1,-1,-1,-1,-1,-1,-1,-1,-1,-1,-1,-1,-1,-1,-1,-1,-1,-1,-1,-1,-1,-1,-1,-1,-1,-1,-1,-1,-1,-1,-1,-1,-1,-1,-1,-1,-1,-1,-1,-1,-1,-1,-1,-1,-1,-1,-1,-1,-1,-1,-1,-1,-1,-1,-1,-1],"loss_changes":[5.629804E6,7.196181E5,1.0116595E6,7.4641E4,1.3268669E5,2.879895E5,4.5346025E5,1.2506375E4,4.0851344E4,8.167632E4,5.549759E4,9.070375E4,2.3360956E5,1.350695E5,7.374202E4,1.9285E3,1.06099375E4,2.5571156E4,7.6622812E3,5.177032E4,4.5161656E4,2.393429E4,5.602212E4,4.199975E4,9.352469E3,8.971506E4,4.3794816E4,7.0846125E4,4.073175E4,1.4458016E4,6.6902E3,4.313125E2,4.0140938E3,6.536785E3,1.279875E3,3.0731367E3,9.8469375E3,2.0979375E3,8.415672E3,1.9501543E4,1.5700867E4,9.842734E3,7.743345E2,2.116853E4,1.0200984E4,1.1151281E4,3.785426E4,2.7357906E4,9.7940625E3,1.0310117E3,6.2765312E3,1.8673047E4,2.0263562E4,2.7907607E4,1.7259363E4,1.199675E4,2.5514469E4,1.9970625E4,6.3835E3,0E0,4.8279375E3,6.6485146E3,5.208744E3,2.721875E2,8.61125E2,1.9889935E3,7.348125E2,1.9899336E3,3.373901E3,7.5803125E2,2.048789E3,1.515082E3,2.8958486E3,1.6163227E4,2.4645703E2,2.1539688E3,4.267688E3,1.5827969E3,9.069527E3,5.9931396E3,2.735823E4,5.6291016E3,5.1185923E3,4.167623E3,7.8106094E3,3.8572263E2,7.219165E1,3.217662E3,1.2994713E4,1.4334141E3,1.1834738E4,2.1640044E3,9.849598E3,1.0421238E4,5.5250664E3,8.625469E3,8.149078E3,7.3251875E3,8.324535E3,0E0,8.4421094E2,2.9725E3,2.8751045E3,8.685922E3,1.9228172E4,7.4604375E3,1.4024053E4,7.0595854E3,1.0125613E4,2.986793E3,8.867625E3,1.0489375E4,1.1921391E4,1.39280625E4,3.3538696E3,1.422875E3,2.68405E4,5.920875E3,0E0,6.0709297E3,4.3559277E3,7.028735E1,0E0,3.6379136E3,1.0038164E3,0E0,0E0,1.6807637E3,3.1026562E2,6.9717114E2,1.371565E3,9.919844E2,1.724375E2,2.1050195E2,1.0319756E3,1.2118525E3,1.9811396E3,3.4328125E2,1.5660312E3,1.3843516E3,3.1410638E2,1.553793E3,0E0,1.565335E3,1.4916548E3,6.2645283E3,7.653623E3,7.584717E1,5.910277E1,5.3796875E1,8.343594E2,0E0,1.852713E2,1.1769688E3,8.7809656E2,3.3911355E3,2.9249023E3,4.0041816E3,7.420369E3,4.5540234E3,5.447523E3,1.3043374E3,2.8699219E3,1.9621E3,2.1969932E3,1.8584688E3,2.4755942E3,3.7061719E3,6.64325E3,0E0,1.0448593E1,0E0,0E0,3.7688623E3,2.2530508E3,3.1684666E3,6.961002E3,1.00598047E3,3.9154688E2,5.714688E3,5.0702734E3,2.176791E3,2.1637688E3,3.403251E3,8.318566E3,5.756203E3,6.367288E3,3.9763047E3,2.904794E3,2.1067734E3,4.6847266E3,7.8012188E3,2.1735354E3,7.4745625E3,3.51875E3,3.0532012E3,2.8817139E3,0E0,0E0,0E0,1.2439688E3,0E0,6.2845078E0,1.8927324E3,5.0625234E3,1.5563234E4,5.640991E3,4.6093594E3,6.2907188E3,5.8581763E3,1.2828418E3,1.3244898E4,3.3992305E3,7.265164E3,2.4088438E3,3.1998823E3,3.333836E3,4.8603545E3,0E0,6.21375E3,3.0153408E3,0E0,2.388419E3,2.2981719E3,5.990297E3,2.1564229E3,1.7917869E3,0E0,2.535E2,3.6834062E3,8.736484E3,7.8000625E3,6.796E3,5.9241914E3,9.988165E1,6.9634216E2,9.76251E2,0E0,0E0,1.0880134E3,0E0,1.0432422E2,1.3083729E3,0E0,0E0,0E0,0E0,0E0,0E0,0E0,0E0,0E0,0E0,0E0,0E0,0E0,0E0,0E0,0E0,0E0,0E0,0E0,0E0,0E0,0E0,0E0,0E0,0E0,0E0,0E0,0E0,0E0,0E0,0E0,0E0,0E0,0E0,0E0,0E0,0E0,0E0,0E0,0E0,0E0,0E0,0E0,0E0,0E0,0E0,0E0,0E0,0E0,0E0,0E0,0E0,0E0,0E0,0E0,0E0,0E0,0E0,0E0,0E0,0E0,0E0,0E0,0E0,0E0,0E0,0E0,0E0,0E0,0E0,0E0,0E0,0E0,0E0,0E0,0E0,0E0,0E0,0E0,0E0,0E0,0E0,0E0,0E0,0E0,0E0,0E0,0E0,0E0,0E0,0E0,0E0,0E0,0E0,0E0,0E0,0E0,0E0,0E0,0E0,0E0,0E0,0E0,0E0,0E0,0E0,0E0,0E0,0E0,0E0,0E0,0E0,0E0,0E0,0E0,0E0,0E0,0E0,0E0,0E0,0E0,0E0,0E0,0E0,0E0,0E0,0E0,0E0,0E0,0E0,0E0,0E0,0E0,0E0,0E0,0E0,0E0,0E0,0E0,0E0,0E0,0E0,0E0,0E0,0E0,0E0,0E0,0E0,0E0,0E0,0E0,0E0,0E0,0E0,0E0,0E0,0E0,0E0,0E0,0E0,0E0,0E0,0E0,0E0,0E0,0E0,0E0,0E0,0E0,0E0,0E0,0E0,0E0,0E0,0E0,0E0,0E0,0E0,0E0,0E0,0E0,0E0,0E0,0E0,0E0,0E0,0E0,0E0,0E0,0E0,0E0,0E0,0E0,0E0,0E0,0E0,0E0,0E0,0E0,0E0,0E0,0E0],"parents":[2147483647,0,0,1,1,2,2,3,3,4,4,5,5,6,6,7,7,8,8,9,9,10,10,11,11,12,12,13,13,14,14,15,15,16,16,17,17,18,18,19,19,20,20,21,21,22,22,23,23,24,24,25,25,26,26,27,27,28,28,29,29,30,30,31,31,32,32,33,33,34,34,35,35,36,36,37,37,38,38,39,39,40,40,41,41,42,42,43,43,44,44,45,45,46,46,47,47,48,48,49,49,50,50,51,51,52,52,53,53,54,54,55,55,56,56,57,57,58,58,60,60,61,61,62,62,63,63,64,64,65,65,66,66,67,67,68,68,69,69,70,70,71,71,72,72,73,73,74,74,75,75,76,76,77,77,78,78,79,79,80,80,81,81,82,82,83,83,84,84,85,85,86,86,87,87,88,88,89,89,90,90,91,91,92,92,93,93,94,94,95,95,96,96,97,97,98,98,100,100,101,101,102,102,103,103,104,104,105,105,106,106,107,107,108,108,109,109,110,110,111,111,112,112,113,113,114,114,115,115,116,116,117,117,119,119,120,120,121,121,123,123,124,124,127,127,128,128,129,129,130,130,131,131,132,132,133,133,134,134,135,135,136,136,137,137,138,138,139,139,140,140,141,141,143,143,144,144,145,145,146,146,147,147,148,148,149,149,150,150,152,152,153,153,154,154,155,155,156,156,157,157,158,158,159,159,160,160,161,161,162,162,163,163,164,164,165,165,166,166,167,167,168,168,170,170,173,173,174,174,175,175,176,176,177,177,178,178,179,179,180,180,181,181,182,182,183,183,184,184,185,185,186,186,187,187,188,188,189,189,190,190,191,191,192,192,193,193,194,194,195,195,196,196,200,200,202,202,203,203,204,204,205,205,206,206,207,207,208,208,209,209,210,210,211,211,212,212,213,213,214,214,215,215,216,216,217,217,219,219,220,220,222,222,223,223,224,224,225,225,226,226,228,228,229,229,230,230,231,231,232,232,233,233,234,234,235,235,236,236,239,239,241,241,242,242],"right_children":[2,4,6,8,10,12,14,16,18,20,22,24,26,28,30,32,34,36,38,40,42,44,46,48,50,52,54,56,58,60,62,64,66,68,70,72,74,76,78,80,82,84,86,88,90,92,94,96,98,100,102,104,106,108,110,112,114,116,118,-1,120,122,124,126,128,130,132,134,136,138,140,142,144,146,148,150,152,154,156,158,160,162,164,166,168,170,172,174,176,178,180,182,184,186,188,190,192,194,196,-1,198,200,202,204,206,208,210,212,214,216,218,220,222,224,226,228,230,232,-1,234,236,238,-1,240,242,-1,-1,244,246,248,250,252,254,256,258,260,262,264,266,268,270,272,-1,274,276,278,280,282,284,286,288,-1,290,292,294,296,298,300,302,304,306,308,310,312,314,316,318,320,322,-1,324,-1,-1,326,328,330,332,334,336,338,340,342,344,346,348,350,352,354,356,358,360,362,364,366,368,370,372,-1,-1,-1,374,-1,376,378,380,382,384,386,388,390,392,394,396,398,400,402,404,406,-1,408,410,-1,412,414,416,418,420,-1,422,424,426,428,430,432,434,436,438,-1,-1,440,-1,442,444,-1,-1,-1,-1,-1,-1,-1,-1,-1,-1,-1,-1,-1,-1,-1,-1,-1,-1,-1,-1,-1,-1,-1,-1,-1,-1,-1,-1,-1,-1,-1,-1,-1,-1,-1,-1,-1,-1,-1,-1,-1,-1,-1,-1,-1,-1,-1,-1,-1,-1,-1,-1,-1,-1,-1,-1,-1,-1,-1,-1,-1,-1,-1,-1,-1,-1,-1,-1,-1,-1,-1,-1,-1,-1,-1,-1,-1,-1,-1,-1,-1,-1,-1,-1,-1,-1,-1,-1,-1,-1,-1,-1,-1,-1,-1,-1,-1,-1,-1,-1,-1,-1,-1,-1,-1,-1,-1,-1,-1,-1,-1,-1,-1,-1,-1,-1,-1,-1,-1,-1,-1,-1,-1,-1,-1,-1,-1,-1,-1,-1,-1,-1,-1,-1,-1,-1,-1,-1,-1,-1,-1,-1,-1,-1,-1,-1,-1,-1,-1,-1,-1,-1,-1,-1,-1,-1,-1,-1,-1,-1,-1,-1,-1,-1,-1,-1,-1,-1,-1,-1,-1,-1,-1,-1,-1,-1,-1,-1,-1,-1,-1,-1,-1,-1,-1,-1,-1,-1,-1,-1,-1,-1,-1,-1,-1,-1,-1,-1,-1,-1,-1,-1],"split_conditions":[3.918E1,1.128E1,8.272E1,4.92E0,6.25E0,1.807E1,6.917E1,2.95E0,4.6E0,4.865E1,2.467E1,7.128E1,3.605E1,1.069E2,5.53E1,1.75E0,2.78E0,3.39E1,2.752E1,2.662E1,9.59E1,1.177E1,2.207E1,5.812E1,3.75E1,6.293E1,4.595E1,5.722E1,1.2943E2,1.973E1,3.34E1,4.305E1,9.5E-1,4.405E1,7.375E1,6.38E0,3.077E1,8.265E1,7.92E0,2.53E1,2.245E1,5.48E1,5.598E1,3.098E1,1.53E1,2.608E1,3.412E1,2.785E1,4.517E1,-5.3E-1,5.467E1,3.565E1,2.73E1,6.128E1,7.49E1,5.267E1,4.335E1,6.625E1,1.2735E2,3.670688E0,4.79E1,8.97E1,6.812E1,1.0338E2,8.8E-1,3.057E1,1.67E0,2.22E1,1.25E0,4.15E0,2.0232E2,7.803E1,2.023E1,3.605E1,1.951E1,7.12E0,2.084E1,5.88E0,7.78E0,1.902E1,3.945E1,2.185E1,3.077E1,5.84E1,-1.63E0,8.42E0,-7E-1,3.35E0,1.902E1,2.975E1,2.005E1,2.373E1,3.125E1,3.277E1,3.605E1,3.14E1,6.528E1,6.747E1,1.177E1,3.0055305E-1,4.105E1,5E0,6.917E1,1.204E1,2.235E1,7.095E1,3.14E1,2.992E1,3.495E1,5.31E1,7.255E1,4.825E1,1.22E0,1.35E1,5.658E1,5.87E0,2.133E1,2.467E1,2.5687084E-1,4.026E1,5.977E1,1.4094E2,2.3977544E0,7.25E1,7.958E1,-1.0813262E0,-1.1947327E-1,2.39E1,1.055E1,2.955E1,1.22E0,2.38E0,4.972E1,-2.5E0,4.303E1,3.057E1,3.262E1,2.32E0,2.99E0,4.2E-1,3.26E1,2E0,7.2162807E-1,8.265E1,1.81E0,3.077E1,2.95E0,9.25E0,3.205E1,7.803E1,-2.1E-1,2.0908258E0,2.741E1,4.707E1,1.3746E2,2.806E1,6.72E1,8.9E0,1.47E1,1.7E1,3.785E1,4.56E0,6.04E1,3.162E1,2.63E1,2.07E1,1.5613E2,5.115E1,8.112E1,4.2349383E-1,4.938E1,-3.8570985E-1,-8.3163387E-1,3.695E1,1.615E1,2.39E1,-2.28E0,3.04E1,4.122E1,2.39E1,7.25E1,3.362E1,4.165E1,3.39E1,2.865E1,1.882E1,3.125E1,2.41E1,1.2735E2,4.202E1,-3.61E0,4.95E1,4.592E1,3.675E1,5.92E1,1.061E1,6.358E1,3.9503336E-1,2.3891969E0,5.5468464E-1,6.71E0,2.3867435E0,7.497E1,2.83E1,2.545E1,4.88E1,2.41E1,5.82E0,6.503E1,5.53E1,1.8E1,2.755E1,1.77E1,3.875E1,2.53E0,2.65E1,2.388E1,5.658E1,-8.911523E-1,4.62E0,9.4E0,4.8631268E0,5.842E1,5.53E0,1.242E1,4.825E1,4.14E1,1.3928336E0,8.107E1,9.685E1,3.785E1,1.022E1,5.265E1,3.146E1,1.6123E2,2.672E1,4.48E1,-6.938011E-1,-9.3200445E-2,5.308E1,1.4311012E0,-2.86E0,1.366E2,-1.5537657E-2,-8.854472E-1,-2.5340578E-1,-1.0423402E0,6.3448906E-2,-9.148914E-1,3.7587103E-1,-6.2350655E-1,-9.2676586E-1,-5.6980294E-1,-1.0209345E0,-9.3478394E-1,-3.8138622E-1,-9.060549E-1,-4.5449615E-1,-9.0092987E-1,9.390489E-1,-1.8621714E-1,-6.910332E-1,-1.5024653E-1,-5.5785525E-1,-9.6209043E-1,-8.720838E-1,3.7846887E-1,3.6039445E-1,-8.1655926E-1,6.701805E-1,-2.0261121E-1,-3.4713492E-1,-8.4202063E-1,-6.0342145E-1,8.677309E-1,-1.5951032E-2,-5.184436E-1,8.180425E-2,-6.974233E-1,1.087075E0,2.8509086E-1,-8.928669E-1,-1.8625498E-1,-3.4197095E-1,7.267413E-2,-9.053923E-1,-3.410172E-1,-7.074946E-1,-8.3383554E-1,-7.0169824E-1,2.2316122E-2,-6.7383856E-1,-8.2237434E-1,-2.608438E-1,1.0324138E0,4.7583634E-1,-2.0892513E-1,-7.0296353E-1,-3.6349666E-1,-3.5978682E-2,-4.3179247E-1,4.6095E-1,-1.6530037E-1,5.876096E-1,1.2001141E0,-5.022362E-1,1.9584668E-1,-2.0325759E-1,7.2885317E-1,1.4746054E0,8.767813E-2,2.803943E-1,-5.445008E-1,1.0026085E0,4.147974E-1,1.6436065E0,-2.9205593E-1,-4.051856E-1,1.3592757E0,7.058642E-1,3.3957863E0,2.1936724E0,4.4292197E-1,-1.0115838E-1,-4.6666738E-1,-1.7656343E-1,1.3680515E0,-4.653499E-1,-1.09606996E-1,-2.0994215E-1,3.4873736E-1,3.0630217E0,9.6133673E-1,-6.378953E-1,-4.6434927E-1,-6.124692E-1,-9.522859E-1,-3.2377097E-1,2.0203674E-2,-5.0574315E-1,1.9842766E-1,6.366264E-1,-4.7461882E-1,-6.27519E-2,9.703806E-1,1.0078628E0,2.5652933E-1,9.7816116E-1,2.381111E0,8.747865E-2,-2.32745E-1,6.029418E-1,1.4777236E-1,-2.3881686E-3,-7.3929E-1,-2.7274236E-1,1.1089624E0,1.6863817E0,-3.3506513E-1,-4.4710246E-1,2.6213E0,1.0136532E0,1.4735206E0,6.7241293E-1,-4.336671E-1,2.7863855E0,1.7353672E0,2.746183E0,2.107666E0,2.6801286E0,1.2057952E0,7.461363E-1,-6.7899746E-1,2.3758776E0,4.1186256E0,1.4560738E-1,-4.033327E-3,1.4437293E-1,1.0798337E0,2.9399054E0,1.6114262E0,6.011798E-1,1.1313745E0,2.3671316E-1,7.7363825E-1,3.4219646E-1,1.6143433E0,2.2641644E0,1.6387444E0,6.7724556E-1,-6.693334E-1,2.2134087E0,1.7495905E-1,1.9252864E-1,-5.710388E-1,-3.5242984E-1,7.394761E-1,7.953283E-1,-2.9743215E-1,1.9565773E0,4.7359267E-1,-8.330576E-1,-4.670539E-2,7.2684777E-1,-7.8174156E-1,4.2037627E-1,2.1805239E0,2.0316248E0,3.1341574E0,1.9111947E0,-2.426941E-2,2.7248075E0,6.4450926E-1,1.4374942E0,2.8972538E0,9.1173595E-1,1.9923388E0,1.0100289E-2,1.3862754E0,9.594718E-1,-4.216877E-1,4.6768465E0,3.7438264E0,8.943246E-1,3.6542058E0,2.4702833E0,1.0319134E0,3.866624E-1,5.265523E0,4.352642E0,2.6228523E0,5.76559E-1,2.1011398E0,-5.554282E-1,1.09281065E-2,-5.0201315E-1,3.0163643E-1,7.458818E-1,1.7848437E0,-6.739394E-1,3.8032603E-2,-5.6420916E-1,-9.3562603E-1,1.6993771E-1,-7.598371E-1],"split_indices":[8,8,8,8,10,10,18,8,9,14,8,17,18,8,13,8,9,17,17,8,16,9,9,8,14,8,13,10,8,10,10,17,9,17,17,8,10,14,8,14,9,17,18,17,8,17,13,9,18,4,9,9,13,8,17,14,13,10,17,0,13,16,13,14,9,17,9,17,10,8,0,13,17,14,3,8,2,4,9,8,16,17,8,16,6,3,5,9,8,9,9,18,8,8,16,14,18,8,10,0,8,9,18,1,18,8,16,14,14,13,13,13,6,13,13,2,13,10,0,2,17,0,0,17,17,0,0,18,16,0,10,8,17,6,16,18,14,1,5,10,2,10,0,16,4,16,10,8,0,18,5,0,2,16,0,0,17,9,9,8,17,1,16,16,9,9,0,14,13,0,0,0,0,14,8,14,4,17,0,17,17,13,14,18,13,18,9,18,14,13,5,8,16,9,9,3,13,0,0,0,3,0,0,9,9,8,16,16,10,13,3,13,16,13,4,14,9,14,0,1,10,0,14,1,16,13,18,0,9,9,13,2,18,0,0,2,14,0,0,17,0,6,9,0,0,0,0,0,0,0,0,0,0,0,0,0,0,0,0,0,0,0,0,0,0,0,0,0,0,0,0,0,0,0,0,0,0,0,0,0,0,0,0,0,0,0,0,0,0,0,0,0,0,0,0,0,0,0,0,0,0,0,0,0,0,0,0,0,0,0,0,0,0,0,0,0,0,0,0,0,0,0,0,0,0,0,0,0,0,0,0,0,0,0,0,0,0,0,0,0,0,0,0,0,0,0,0,0,0,0,0,0,0,0,0,0,0,0,0,0,0,0,0,0,0,0,0,0,0,0,0,0,0,0,0,0,0,0,0,0,0,0,0,0,0,0,0,0,0,0,0,0,0,0,0,0,0,0,0,0,0,0,0,0,0,0,0,0,0,0,0,0,0,0,0,0,0,0,0,0,0,0,0,0,0,0,0,0,0,0,0,0,0,0,0,0,0,0,0,0,0,0,0,0,0],"split_type":[0,0,0,0,0,0,0,0,0,0,0,0,0,0,0,0,0,0,0,0,0,0,0,0,0,0,0,0,0,0,0,0,0,0,0,0,0,0,0,0,0,0,0,0,0,0,0,0,0,0,0,0,0,0,0,0,0,0,0,0,0,0,0,0,0,0,0,0,0,0,0,0,0,0,0,0,0,0,0,0,0,0,0,0,0,0,0,0,0,0,0,0,0,0,0,0,0,0,0,0,0,0,0,0,0,0,0,0,0,0,0,0,0,0,0,0,0,0,0,0,0,0,0,0,0,0,0,0,0,0,0,0,0,0,0,0,0,0,0,0,0,0,0,0,0,0,0,0,0,0,0,0,0,0,0,0,0,0,0,0,0,0,0,0,0,0,0,0,0,0,0,0,0,0,0,0,0,0,0,0,0,0,0,0,0,0,0,0,0,0,0,0,0,0,0,0,0,0,0,0,0,0,0,0,0,0,0,0,0,0,0,0,0,0,0,0,0,0,0,0,0,0,0,0,0,0,0,0,0,0,0,0,0,0,0,0,0,0,0,0,0,0,0,0,0,0,0,0,0,0,0,0,0,0,0,0,0,0,0,0,0,0,0,0,0,0,0,0,0,0,0,0,0,0,0,0,0,0,0,0,0,0,0,0,0,0,0,0,0,0,0,0,0,0,0,0,0,0,0,0,0,0,0,0,0,0,0,0,0,0,0,0,0,0,0,0,0,0,0,0,0,0,0,0,0,0,0,0,0,0,0,0,0,0,0,0,0,0,0,0,0,0,0,0,0,0,0,0,0,0,0,0,0,0,0,0,0,0,0,0,0,0,0,0,0,0,0,0,0,0,0,0,0,0,0,0,0,0,0,0,0,0,0,0,0,0,0,0,0,0,0,0,0,0,0,0,0,0,0,0,0,0,0,0,0,0,0,0,0,0,0,0,0,0,0,0,0,0,0,0,0,0,0,0,0,0,0,0,0,0,0,0,0,0,0,0,0,0,0,0,0,0,0,0,0],"sum_hessian":[1.6597E4,1.2325E4,4.272E3,7.625E3,4.7E3,3.058E3,1.214E3,4.814E3,2.811E3,1.062E3,3.638E3,9.66E2,2.092E3,1.04E3,1.74E2,2.865E3,1.949E3,5.58E2,2.253E3,9.36E2,1.26E2,2.142E3,1.496E3,8.86E2,8E1,1.4E3,6.92E2,5.95E2,4.45E2,7.4E1,1E2,1.694E3,1.171E3,2.78E2,1.671E3,3.03E2,2.55E2,1.187E3,1.066E3,7.02E2,2.34E2,1.07E2,1.9E1,3.92E2,1.75E3,2.2E2,1.276E3,5.56E2,3.3E2,1.9E1,6.1E1,9.02E2,4.98E2,4.41E2,2.51E2,3.56E2,2.39E2,2.82E2,1.63E2,7E0,6.7E1,6E0,9.4E1,1.265E3,4.29E2,2.7E1,1.144E3,1.89E2,8.9E1,1.406E3,2.65E2,1.27E2,1.76E2,2.31E2,2.4E1,1.181E3,6E0,6.37E2,4.29E2,4.63E2,2.39E2,1.37E2,9.7E1,4E1,6.7E1,4E0,1.5E1,2.31E2,1.61E2,5.17E2,1.233E3,1.1E2,1.1E2,9.49E2,3.27E2,1.38E2,4.18E2,2.95E2,3.5E1,1E0,1.8E1,5.5E1,6E0,7.4E1,8.28E2,4.29E2,6.9E1,2.85E2,1.56E2,2.3E2,2.1E1,3.28E2,2.8E1,2.14E2,2.5E1,1.51E2,1.31E2,1.62E2,1E0,4.5E1,2.2E1,3E0,3E0,2.6E1,6.8E1,1.264E3,1E0,8.6E1,3.43E2,1.3E1,1.4E1,1.35E2,1.009E3,1E2,8.9E1,1E1,7.9E1,8.89E2,5.17E2,2.62E2,3E0,1.26E2,1E0,1.06E2,7E1,1.06E2,1.25E2,2.2E1,2E0,4.85E2,6.96E2,1E0,5E0,6.33E2,4E0,1.22E2,3.07E2,2.68E2,1.95E2,1.29E2,1.1E2,2.7E1,1.1E2,2.7E1,7E1,3.3E1,7E0,2.3E1,4.4E1,2E0,2E0,4E0,1.1E1,1.6E1,2.15E2,1.27E2,3.4E1,4.53E2,6.4E1,4.84E2,7.49E2,7.3E1,3.7E1,6.4E1,4.6E1,5.61E2,3.88E2,2.36E2,9.1E1,8.9E1,4.9E1,4.02E2,1.6E1,1.5E2,1.45E2,1.9E1,1.6E1,1E0,1.7E1,1E0,5.4E1,4E0,2E0,2.3E1,5.1E1,5.81E2,2.47E2,2.21E2,2.08E2,5.3E1,1.6E1,2.37E2,4.8E1,1.31E2,2.5E1,5.6E1,1.74E2,1.6E1,5E0,3.21E2,7E0,2.1E1,7E0,6.8E1,1.46E2,1.3E1,1.2E1,2E0,1.49E2,7.3E1,5.8E1,5.2E1,1.1E2,4.2E1,3E0,9E0,1.3E1,2E0,1E0,2.3E1,3E0,5.4E1,1.4E1,6E0,8E1,2E0,3.41E2,2E0,1.1E1,1E1,4E0,1.03E2,3.2E1,7.51E2,2.58E2,4E0,9.6E1,7.2E1,1.7E1,7E0,3E0,2.4E1,5.5E1,1E1,8.79E2,5.15E2,2E0,2E0,2.6E2,2E0,1E0,2.1E1,1.05E2,1.05E2,1E0,5E1,2E1,6.4E1,4.2E1,4.9E1,7.6E1,2.1E1,1E0,1E0,1E0,4.83E2,2E0,4.22E2,2.74E2,4E0,1E0,3.18E2,3.15E2,3E0,1E0,2.1E1,1.01E2,2.11E2,9.6E1,1.05E2,1.63E2,7.8E1,1.17E2,6E1,6.9E1,5.4E1,5.6E1,4E0,2.3E1,1.06E2,4E0,1.3E1,1.4E1,2.7E1,4.3E1,3.2E1,1E0,5E0,2E0,2E0,2.1E1,3.7E1,7E0,1E0,1E0,1.1E1,5E0,1.51E2,6.4E1,3.4E1,9.3E1,4E0,3E1,3.19E2,1.34E2,2.1E1,4.3E1,2.58E2,2.26E2,7.23E2,2.6E1,6.9E1,4E0,3.2E1,5E0,3.8E1,2.6E1,2.4E1,2.2E1,2.95E2,2.66E2,1.05E2,2.83E2,2E1,2.16E2,8.8E1,3E0,8.8E1,1E0,1E0,4.8E1,2.28E2,1.74E2,7E0,9E0,2.3E1,1.27E2,7.9E1,6.6E1,8E0,1.1E1,1.2E1,4E0,6E0,4.8E1,1E0,1E0,9E0,1.4E1,1.1E1,4E1,2.4E2,3.41E2,1.8E2,6.7E1,8E0,2.13E2,1.24E2,8.4E1,4.4E1,9E0,1.5E1,1E0,1.45E2,9.2E1,8E0,4E1,1.14E2,1.7E1,2.1E1,4E0,1.9E1,3.7E1,3E0,1.71E2,8E0,8E0,2.1E1,3E2,3E0,4E0,4E0,3E0,6E0,6.2E1,1.7E1,1.29E2,4E0,9E0,2E0,1E1,2E1,1.29E2,2E0,7.1E1,4.1E1,1.7E1,1E0,5.1E1,9.8E1,1.2E1,9E0,3.3E1,2E0,1E0,5E0,4E0,8E0,5E0,7E0,1.6E1,8E0,4.6E1,6E0,8E0],"tree_param":{"num_deleted":"0","num_feature":"19","num_nodes":"445","size_leaf_vector":"1"}},{"base_weights":[4.9327753E-2,-1.1501958E1,3.730236E1,-1.7222036E1,8.222632E-1,2.5820408E1,6.4123566E1,-1.9521206E1,-1.2656481E1,-3.4075954E0,7.760687E0,1.9591291E1,3.4990246E1,5.8187954E1,9.383805E1,-2.0707264E1,-1.7594019E1,-7.2927675E0,-1.3747059E1,-6.7326746E0,4.043597E-1,1.4780176E1,3.9818459E0,3.364812E1,1.5854378E1,4.5472614E1,3.0811195E1,4.2536697E1,6.470253E1,5.1466797E1,9.658179E1,-1.0775172E0,-1.98201E1,-1.497378E1,-1.8131104E1,-1.04481945E1,-8.7972534E-1,-1.5602442E1,-1.1621965E1,-3.9438012E0,-9.466125E0,2.5292718E0,-1.0277051E1,8.463367E0,2.2141062E1,-2.2673686E0,8.711406E0,4.2638107E1,2.8725792E1,8.8368E0,1.9842905E1,4.106978E1,5.3018684E1,3.4503838E1,1.94671E1,5.2329147E1,2.2517748E1,5.786863E1,7.377267E1,-3.9511003E0,3.3469982E0,1.0610357E2,8.771289E1,-1.58906355E1,-2.005605E1,-1.6750359E1,-1.1760238E1,-1.8148586E1,3.443845E-1,-7.913993E0,-1.3724529E1,-5.3984327E0,4.2959366E0,-1.5893357E1,-1.1504682E1,-8.786307E0,-1.3062167E1,-5.8585544E0,-6.2390435E-1,-8.713585E0,-1.6898022E1,2.3865575E-2,7.124875E0,-1.5780587E1,-5.261494E0,1.6914537E1,3.6210093E0,2.0278614E1,5.1555992E1,-1.0228523E0,-9.617604E0,1.4218913E1,6.429192E0,3.6421185E1,5.090301E1,2.3266294E1,3.7181007E1,1.1816518E1,-1.747322E0,1.6307016E1,2.2721258E1,1.350616E1,4.2420963E1,4.84487E1,3.2890263E0,3.0091997E1,4.013111E1,1.3744978E1,3.6244125E1,6.465079E1,4.572184E1,4.3710705E1,2.9295444E0,7.1784935E1,5.3610584E1,7.5905594E1,5.827763E1,-4.8718157E-1,1.2276205E0,1.2705623E0,1.0677773E2,8.864833E1,-1.2239232E-1,-1.6156134E1,2.86393E-1,-2.049564E1,-1.937205E1,-3.2845502E0,-1.6904995E1,-1.3698279E1,-8.147573E0,-1.8854818E1,-1.7361979E1,-1.0224192E1,-4.1029344E0,-1.4658391E1,-1.0541706E1,-7.9055953E0,5.586978E-1,-5.251806E-1,1.0408678E1,2.0864182E0,-1.5925115E1,-1.3551312E1,4.239728E0,-1.0179388E1,-4.501031E0,-1.2494818E1,-1.7986586E1,7.479361E-1,-6.980065E0,-1.3481345E0,1.1370459E1,-1.0461732E1,-5.9943576E0,-1.7578255E1,-5.763765E0,5.528383E0,-2.5937226E0,1.9299904E1,5.50479E0,2.7039688E0,-1.62214E1,-1.2017849E1,-1.291752E0,1.1271434E1,2.1293062E1,-1.5872496E0,6.9535923E0,1.6901058E1,2.5457388E1,7.638713E-1,2.6585732E0,-5.648161E0,9.4551367E-1,-1.3752427E1,-7.613531E0,1.172326E1,1.9724451E1,8.05222E0,1.6395075E0,2.8038082E1,4.1118656E1,3.9887103E-1,5.1631096E1,1.0515326E1,2.4379547E1,4.9870667E-1,3.7703827E1,8.015809E0,1.7862617E1,-5.7037234E0,7.880982E0,1.9098257E1,1.2334935E1,2.4133139E1,1.3382522E1,-4.5828825E-1,1.6689928E1,5.0191734E1,3.811638E1,2.440313E0,4.424576E-1,2.5948578E1,3.3348053E1,2.1649387E0,3.5287518E1,9.283837E0,2.711863E1,4.1374474E1,2.4824926E1,6.5413414E1,3.7699586E-1,4.9660015E1,2.272853E1,4.486117E1,-2.3027292E-1,1.2385518E1,-3.875648E0,7.222432E1,8.06011E-1,4.890553E1,5.9460503E1,4.3779635E0,3.6736286E0,7.581807E-1,6.0147743E1,8.141661E-2,1.0654926E-2,1.376299E0,5.370816E0,9.0346085E1,2.57402E1,-8.4748363E-1,-4.362993E-1,-2.5831434E-1,-1.0252979E0,-7.8660095E-1,-9.75389E-1,1.6423656E-2,-2.2991912E-1,-8.859274E-1,-6.991106E-1,-4.2532292E-1,-7.19846E-1,-5.91013E-1,-2.2225876E-1,-3.0873916E-1,-9.437529E-1,-9.043421E-1,-8.110468E-1,-5.57369E-1,1.8738346E-1,-3.7338775E-1,-7.908585E-2,-7.375438E-1,-1.1906023E-1,-2.5205073E-1,-5.9666485E-1,-1.9530366E-1,-5.0038403E-1,2.164232E-1,-2.2571075E-1,6.9959246E-2,-4.0821448E-1,2.2028159E-1,6.544076E-1,-4.517974E-1,6.0827875E-1,-8.3138144E-1,-7.514709E-1,-7.01081E-1,-2.7461484E-1,5.275157E-1,-4.3675464E-2,-2.8147352E-1,-5.433329E-1,-2.797955E-1,1.8147223E-1,2.719091E-1,-6.304999E-1,-9.775173E-1,-6.3543606E-1,-3.011617E-1,3.250674E-1,-2.3023014E-1,-4.0381417E-1,-3.4267995E-1,-1.815815E-2,1.0085726E0,-4.2528102E-1,-4.51413E-1,-5.9348243E-1,-3.32787E-1,1.5948267E-1,-3.7272555E-1,-9.001319E-1,-4.63116E-1,2.0576134E-1,-1.1388023E-2,3.5794562E-1,-7.696359E-2,-4.4052824E-1,8.355241E-1,2.2832973E0,4.0519357E-1,8.486404E-2,3.6577383E-1,-1.6297618E-1,-8.388918E-1,-2.8174996E-1,-2.8537706E-1,-6.6293216E-1,-2.447721E-1,2.8292134E-1,1.2723257E-1,6.750496E-1,1.1052579E0,-4.818624E-2,-2.656371E-1,1.19465224E-1,5.2805173E-1,8.315598E-2,6.4299077E-1,9.817284E-1,1.0350724E0,1.4876648E0,-3.1968823E-1,4.8687484E-2,4.5966506E-1,1.2526062E-3,1.18223146E-1,-7.389584E-1,-2.7133837E-1,-6.496335E-1,8.904597E-1,5.173785E-1,1.0271446E0,2.7290345E-3,1.42446E-1,4.7538215E-1,-1.7913088E-1,2.506005E-1,1.4997635E0,4.1534206E-1,2.079699E0,5.16997E-1,5.9576315E-1,2.61113E0,9.9781686E-1,1.06007576E-1,1.0434955E0,1.3146118E0,1.1538092E0,1.9261341E0,6.786362E-1,1.8014541E-1,1.1363784E0,6.476451E-1,7.2695524E-1,-3.52447E-1,5.3156054E-1,-4.2732254E-1,8.3791155E-1,1.1774374E0,6.4106727E-1,-4.7985902E-1,1.5199659E0,1.1424321E0,-1.2457701E-1,7.724079E-1,1.5454833E-1,9.8516494E-1,1.2995514E0,2.566693E0,1.663176E0,2.0383375E0,1.4791633E0,1.0890583E0,1.6912796E0,1.4624067E-1,1.3986797E0,1.8735218E0,7.6546866E-1,1.152645E-1,-1.0268631E-1,1.399301E0,2.106823E0,4.2477223E-1,1.5443876E0,3.77566E-1,2.572272E0,3.642863E0,2.0817356E-1,2.5017886E0,4.5978966E-1,1.709752E0,1.6116885E0,2.4689178E0,-2.856134E-1,9.7646016E-1,2.0548008E-1,-6.3336104E-1,4.5455503E0,3.4235802E0,2.5334857E0,1.7737058E0,9.6268433E-1,2.9961917E0,1.3643388E0,3.1092389E0,3.255036E0,4.6931176E0,2.6854913E0,-7.4314184E-2],"categories":[],"categories_nodes":[],"categories_segments":[],"categories_sizes":[],"default_left":[0,0,0,0,0,0,0,0,0,0,0,0,0,0,0,0,0,0,0,0,0,0,0,0,0,0,0,0,0,0,0,0,0,0,0,0,0,0,0,0,0,0,0,0,0,0,0,0,0,0,0,0,0,0,0,0,0,0,0,0,0,0,0,0,0,0,0,0,0,0,0,0,0,0,0,0,0,0,0,0,0,0,0,0,0,0,0,0,0,0,0,0,0,0,0,0,0,0,0,0,0,0,0,0,0,0,0,0,0,0,0,0,0,0,0,0,0,0,0,0,0,0,0,0,0,0,0,0,0,0,0,0,0,0,0,0,0,0,0,0,0,0,0,0,0,0,0,0,0,0,0,0,0,0,0,0,0,0,0,0,0,0,0,0,0,0,0,0,0,0,0,0,0,0,0,0,0,0,0,0,0,0,0,0,0,0,0,0,0,0,0,0,0,0,0,0,0,0,0,0,0,0,0,0,0,0,0,0,0,0,0,0,0,0,0,0,0,0,0,0,0,0,0,0,0,0,0,0,0,0,0,0,0,0,0,0,0,0,0,0,0,0,0,0,0,0,0,0,0,0,0,0,0,0,0,0,0,0,0,0,0,0,0,0,0,0,0,0,0,0,0,0,0,0,0,0,0,0,0,0,0,0,0,0,0,0,0,0,0,0,0,0,0,0,0,0,0,0,0,0,0,0,0,0,0,0,0,0,0,0,0,0,0,0,0,0,0,0,0,0,0,0,0,0,0,0,0,0,0,0,0,0,0,0,0,0,0,0,0,0,0,0,0,0,0,0,0,0,0,0,0,0,0,0,0,0,0,0,0,0,0,0,0,0,0,0,0,0,0,0,0,0,0,0,0,0,0,0,0,0,0,0,0,0,0,0,0,0,0,0,0,0,0,0,0,0,0,0,0,0,0,0,0,0,0,0,0,0,0,0,0,0,0,0,0],"id":3,"left_children":[1,3,5,7,9,11,13,15,17,19,21,23,25,27,29,31,33,35,37,39,41,43,45,47,49,51,53,55,57,59,61,-1,63,65,67,69,71,73,75,77,79,81,83,85,87,89,91,93,95,97,99,101,103,105,107,109,111,113,115,117,-1,119,121,123,125,127,129,131,-1,133,135,137,139,141,143,145,147,149,151,153,155,157,159,161,163,165,167,169,171,173,175,177,179,181,183,185,187,189,191,193,195,197,199,201,-1,203,205,207,209,211,213,215,217,219,221,223,225,-1,227,-1,229,231,-1,233,-1,235,237,239,241,243,245,247,249,251,253,255,257,259,261,263,265,267,269,271,273,275,277,279,281,283,285,287,289,291,293,295,297,299,301,303,305,307,309,311,313,315,317,319,321,323,325,-1,-1,327,329,331,333,335,337,339,341,343,345,-1,347,349,351,-1,353,355,357,359,361,363,365,367,369,-1,371,373,375,-1,-1,377,379,-1,381,383,385,387,389,391,-1,393,395,397,-1,399,401,403,-1,405,407,-1,-1,-1,409,-1,-1,-1,-1,411,413,-1,-1,-1,-1,-1,-1,-1,-1,-1,-1,-1,-1,-1,-1,-1,-1,-1,-1,-1,-1,-1,-1,-1,-1,-1,-1,-1,-1,-1,-1,-1,-1,-1,-1,-1,-1,-1,-1,-1,-1,-1,-1,-1,-1,-1,-1,-1,-1,-1,-1,-1,-1,-1,-1,-1,-1,-1,-1,-1,-1,-1,-1,-1,-1,-1,-1,-1,-1,-1,-1,-1,-1,-1,-1,-1,-1,-1,-1,-1,-1,-1,-1,-1,-1,-1,-1,-1,-1,-1,-1,-1,-1,-1,-1,-1,-1,-1,-1,-1,-1,-1,-1,-1,-1,-1,-1,-1,-1,-1,-1,-1,-1,-1,-1,-1,-1,-1,-1,-1,-1,-1,-1,-1,-1,-1,-1,-1,-1,-1,-1,-1,-1,-1,-1,-1,-1,-1,-1,-1,-1,-1,-1,-1,-1,-1,-1,-1,-1,-1,-1,-1,-1,-1,-1,-1,-1,-1,-1,-1,-1,-1,-1,-1,-1,-1,-1,-1,-1,-1,-1,-1,-1,-1,-1,-1,-1,-1,-1,-1,-1,-1,-1],"loss_changes":[7.1669855E6,8.962235E5,1.212322E6,9.089825E4,1.18330445E5,1.5708E5,2.028365E5,1.28315E4,1.6927781E4,3.1753729E4,4.044565E4,8.598206E4,4.7486875E4,9.78835E4,1.7699E4,2.2415E3,2.833E3,9.987334E3,9.3525E3,1.0162574E4,2.6536158E4,2.4642172E4,2.9398453E4,1.4042031E4,3.6295375E4,8.321375E3,3.2881875E4,5.625975E4,3.881025E4,1.2269355E4,6.063E3,0E0,1.3046875E3,1.9781875E3,9.236875E2,2.6396445E3,3.858709E3,1.3525938E3,4.5041406E3,4.217248E3,3.6278906E3,1.1225838E4,5.2720117E3,1.1765672E4,1.24313125E4,3.9144353E3,7.0228125E3,4.311922E3,9.567359E3,1.496952E4,8.0768125E3,7.02475E3,3.4033438E3,1.37628125E4,1.860586E4,1.3001E4,4.055488E4,1.9913375E4,5.326E3,1.3195308E2,0E0,1.80175E3,8.651E3,6.894668E2,9.85E1,4.5047656E2,8.615996E2,6.865E2,0E0,1.6220625E3,2.7051562E2,1.3187405E3,2.2746753E3,7.1840625E2,2.9252998E3,2.2465605E3,1.8650625E3,3.1245146E3,2.134879E3,2.8607578E3,3.606914E2,9.120549E3,6.6790137E3,7.934961E2,2.7470374E3,2.3543848E3,3.2220737E3,3.6452812E3,8.175781E0,3.355723E3,4.0905762E2,2.0358516E3,3.1118613E3,1.6824297E3,1.1195469E3,1.7309453E3,8.614453E2,8.359215E3,4.0447612E3,3.9331406E3,5.676297E3,9.469796E2,4.5761562E3,7.9996875E2,0E0,3.7486562E3,2.4919062E3,8.697496E3,1.9021094E3,2.3813438E3,1.07335625E4,2.8191562E3,3.3941875E3,1.0614062E3,5.6520625E3,8.25375E2,2.3130781E3,0E0,8.725972E-1,0E0,1.1931875E3,8.247875E3,0E0,4.5939844E2,0E0,5E1,2.0671875E1,2.049807E1,3.229375E2,2.0035742E2,6.4094214E2,1.2721875E2,4.31125E2,1.5509199E3,6.074796E2,8.750586E1,2.1541333E2,4.8216406E2,5.358794E2,6.582427E2,4.8922852E2,4.4623972E2,5.039375E2,2.2241699E2,3.6415857E2,8.4253516E2,8.74891E2,1.4607344E3,3.7054102E2,2.4545134E3,9.002617E2,1.2501606E3,2.6205806E3,6.456289E2,1.4972461E3,1.1069141E2,2.109275E2,1.9162847E3,2.7986855E3,1.9678145E3,3.0045352E3,1.0634703E2,4.356172E2,2.218584E2,1.6807556E3,8.995742E2,1.0696309E3,1.0941611E3,2.1390493E3,1.3382422E3,1.2228633E3,0E0,0E0,5.4933105E2,1.9660386E3,3.4935474E2,4.4705957E2,7.869131E2,8.0381055E2,2.2448145E3,1.8319537E3,8.7074805E2,2.13625E2,0E0,5.053672E2,9.880558E2,3.1052344E2,0E0,1.2917969E2,5.566662E3,3.0973594E3,2.1448098E3,1.491414E3,1.8860938E3,1.8085918E3,2.4766875E3,2.0714717E3,0E0,3.4888477E2,4.9003125E2,3.03125E2,0E0,0E0,1.7034688E3,2.6323906E3,0E0,6.920781E2,4.7583506E3,9.9371875E2,4.6879297E2,1.6518408E3,3.01025E3,0E0,1.6892812E3,2.9441885E3,1.0322109E3,0E0,2.9558237E3,2.2283474E3,8.65E1,0E0,2.4203125E3,1.3425625E3,0E0,0E0,0E0,8.4684375E2,0E0,0E0,0E0,0E0,2.4114375E3,3.1258857E3,0E0,0E0,0E0,0E0,0E0,0E0,0E0,0E0,0E0,0E0,0E0,0E0,0E0,0E0,0E0,0E0,0E0,0E0,0E0,0E0,0E0,0E0,0E0,0E0,0E0,0E0,0E0,0E0,0E0,0E0,0E0,0E0,0E0,0E0,0E0,0E0,0E0,0E0,0E0,0E0,0E0,0E0,0E0,0E0,0E0,0E0,0E0,0E0,0E0,0E0,0E0,0E0,0E0,0E0,0E0,0E0,0E0,0E0,0E0,0E0,0E0,0E0,0E0,0E0,0E0,0E0,0E0,0E0,0E0,0E0,0E0,0E0,0E0,0E0,0E0,0E0,0E0,0E0,0E0,0E0,0E0,0E0,0E0,0E0,0E0,0E0,0E0,0E0,0E0,0E0,0E0,0E0,0E0,0E0,0E0,0E0,0E0,0E0,0E0,0E0,0E0,0E0,0E0,0E0,0E0,0E0,0E0,0E0,0E0,0E0,0E0,0E0,0E0,0E0,0E0,0E0,0E0,0E0,0E0,0E0,0E0,0E0,0E0,0E0,0E0,0E0,0E0,0E0,0E0,0E0,0E0,0E0,0E0,0E0,0E0,0E0,0E0,0E0,0E0,0E0,0E0,0E0,0E0,0E0,0E0,0E0,0E0,0E0,0E0,0E0,0E0,0E0,0E0,0E0,0E0,0E0,0E0,0E0,0E0,0E0,0E0,0E0,0E0,0E0,0E0,0E0,0E0,0E0,0E0,0E0,0E0,0E0,0E0,0E0,0E0,0E0,0E0,0E0,0E0,0E0,0E0,0E0],"parents":[2147483647,0,0,1,1,2,2,3,3,4,4,5,5,6,6,7,7,8,8,9,9,10,10,11,11,12,12,13,13,14,14,15,15,16,16,17,17,18,18,19,19,20,20,21,21,22,22,23,23,24,24,25,25,26,26,27,27,28,28,29,29,30,30,32,32,33,33,34,34,35,35,36,36,37,37,38,38,39,39,40,40,41,41,42,42,43,43,44,44,45,45,46,46,47,47,48,48,49,49,50,50,51,51,52,52,53,53,54,54,55,55,56,56,57,57,58,58,59,59,61,61,62,62,63,63,64,64,65,65,66,66,67,67,69,69,70,70,71,71,72,72,73,73,74,74,75,75,76,76,77,77,78,78,79,79,80,80,81,81,82,82,83,83,84,84,85,85,86,86,87,87,88,88,89,89,90,90,91,91,92,92,93,93,94,94,95,95,96,96,97,97,98,98,99,99,100,100,101,101,102,102,103,103,105,105,106,106,107,107,108,108,109,109,110,110,111,111,112,112,113,113,114,114,115,115,116,116,118,118,120,120,121,121,123,123,125,125,126,126,127,127,128,128,129,129,130,130,131,131,132,132,133,133,134,134,135,135,136,136,137,137,138,138,139,139,140,140,141,141,142,142,143,143,144,144,145,145,146,146,147,147,148,148,149,149,150,150,151,151,152,152,153,153,154,154,155,155,156,156,157,157,158,158,159,159,160,160,161,161,162,162,163,163,164,164,165,165,166,166,167,167,168,168,169,169,170,170,173,173,174,174,175,175,176,176,177,177,178,178,179,179,180,180,181,181,182,182,184,184,185,185,186,186,188,188,189,189,190,190,191,191,192,192,193,193,194,194,195,195,196,196,198,198,199,199,200,200,203,203,204,204,206,206,207,207,208,208,209,209,210,210,211,211,213,213,214,214,215,215,217,217,218,218,219,219,221,221,222,222,226,226,231,231,232,232],"right_children":[2,4,6,8,10,12,14,16,18,20,22,24,26,28,30,32,34,36,38,40,42,44,46,48,50,52,54,56,58,60,62,-1,64,66,68,70,72,74,76,78,80,82,84,86,88,90,92,94,96,98,100,102,104,106,108,110,112,114,116,118,-1,120,122,124,126,128,130,132,-1,134,136,138,140,142,144,146,148,150,152,154,156,158,160,162,164,166,168,170,172,174,176,178,180,182,184,186,188,190,192,194,196,198,200,202,-1,204,206,208,210,212,214,216,218,220,222,224,226,-1,228,-1,230,232,-1,234,-1,236,238,240,242,244,246,248,250,252,254,256,258,260,262,264,266,268,270,272,274,276,278,280,282,284,286,288,290,292,294,296,298,300,302,304,306,308,310,312,314,316,318,320,322,324,326,-1,-1,328,330,332,334,336,338,340,342,344,346,-1,348,350,352,-1,354,356,358,360,362,364,366,368,370,-1,372,374,376,-1,-1,378,380,-1,382,384,386,388,390,392,-1,394,396,398,-1,400,402,404,-1,406,408,-1,-1,-1,410,-1,-1,-1,-1,412,414,-1,-1,-1,-1,-1,-1,-1,-1,-1,-1,-1,-1,-1,-1,-1,-1,-1,-1,-1,-1,-1,-1,-1,-1,-1,-1,-1,-1,-1,-1,-1,-1,-1,-1,-1,-1,-1,-1,-1,-1,-1,-1,-1,-1,-1,-1,-1,-1,-1,-1,-1,-1,-1,-1,-1,-1,-1,-1,-1,-1,-1,-1,-1,-1,-1,-1,-1,-1,-1,-1,-1,-1,-1,-1,-1,-1,-1,-1,-1,-1,-1,-1,-1,-1,-1,-1,-1,-1,-1,-1,-1,-1,-1,-1,-1,-1,-1,-1,-1,-1,-1,-1,-1,-1,-1,-1,-1,-1,-1,-1,-1,-1,-1,-1,-1,-1,-1,-1,-1,-1,-1,-1,-1,-1,-1,-1,-1,-1,-1,-1,-1,-1,-1,-1,-1,-1,-1,-1,-1,-1,-1,-1,-1,-1,-1,-1,-1,-1,-1,-1,-1,-1,-1,-1,-1,-1,-1,-1,-1,-1,-1,-1,-1,-1,-1,-1,-1,-1,-1,-1,-1,-1,-1,-1,-1,-1,-1,-1,-1,-1,-1,-1],"split_conditions":[4.22E1,1.53E1,8.272E1,6.38E0,2.925E1,6.128E1,1.2943E2,3.52E0,5.2E0,2.467E1,1.408E1,2.467E1,4.95E1,6.862E1,3.675E1,1.85E0,3.35E0,1.973E1,1.04E1,1.94E1,4.675E1,2.662E1,3.027E1,2.63E1,3.51E1,7.222E1,2.695E1,1.0985E2,1.0345E2,3.55E0,2.07E1,-1.0775172E0,1.48E0,4.75E0,1.2267E2,1.9E1,1.062E1,3.165E1,1.06E1,1.94E1,4.602E1,3.277E1,6.25E0,8.55E0,7.958E1,3.62E1,2.502E1,4.238E1,5.252E1,6.39E1,5.107E1,1.412E1,4.91E1,7.222E1,7.495E1,1.612E1,3.46E1,7.365E1,1.2267E2,9.204E1,3.3469982E0,-3.94E0,1.2735E2,1.8669E2,4.3E0,4.2E-1,4.107E1,4.9E0,3.443845E-1,8.9E0,9.6E0,5.31E1,3.785E1,8.8E-1,1.0338E2,1.338E1,2.975E1,7.62E0,7.13E1,2.14E1,2.59E0,2.388E1,1.177E1,-4.57E0,3.34E1,3.978E1,1.973E1,2.95E1,2.49E0,2.14E1,2.348E1,3.86E1,5.03E1,4.532E1,3E0,1.87E1,1.35E1,5.03E1,1.868E1,4.805E1,6.503E1,-4.53E0,4.602E1,8.61E1,3.2890263E0,5.533E1,7.628E1,2.43E1,7.772E1,1.2267E2,3.495E1,3.945E1,1.2267E2,8.107E1,9.46E1,8.825E1,7.772E1,-4.8718157E-1,1.346E2,1.2705623E0,1.27E1,2.061E1,-1.2239232E-1,1.902E1,2.86393E-1,4.2E-1,1.67E0,7.72E0,1.265E1,1.48E0,8.9E0,-5.41E0,7.62E0,2.067E1,9.62E0,1.338E1,3.254E1,2.95E0,3.7E0,2.543E1,2.6E0,3.457E1,7.62E0,2.125E1,3.917E1,6.25E0,1.435E1,5E-2,2.068E1,1.615E1,1.288E1,4.67E0,8.97E1,2.388E1,6.747E1,2.777E1,3.868E1,1.532E1,3.86E1,6.812E1,3.79E1,1.0691E2,4.165E1,1.365E1,3.34E1,1.735E1,3.918E1,2.133E1,1.47E1,3.225E1,3.225E1,7.638713E-1,2.6585732E0,1.665E2,1.807E1,-5.41E0,4.874E1,2.173E1,4.045E1,3.34E1,2.068E1,1.7095E2,9.43E1,3.9887103E-1,4.07E0,2.155E1,4.532E1,4.9870667E-1,8.8E-1,4.675E1,5.395E1,1.31E1,7.772E1,4.735E1,7.628E1,3.62E1,1.193E1,-4.5828825E-1,7.51E0,1.545E1,6E0,2.440313E0,4.424576E-1,6.747E1,9.685E1,2.1649387E0,4.53E1,3.875E1,1.192E1,3.9E0,5.115E1,8.825E1,3.7699586E-1,2.975E1,1.0002E2,9.685E1,-2.3027292E-1,3.015E1,5.842E1,1.155E1,8.06011E-1,1.0002E2,3.98E1,4.3779635E0,3.6736286E0,7.581807E-1,-3.3E0,8.141661E-2,1.0654926E-2,1.376299E0,5.370816E0,-2.27E0,1.06E2,-8.4748363E-1,-4.362993E-1,-2.5831434E-1,-1.0252979E0,-7.8660095E-1,-9.75389E-1,1.6423656E-2,-2.2991912E-1,-8.859274E-1,-6.991106E-1,-4.2532292E-1,-7.19846E-1,-5.91013E-1,-2.2225876E-1,-3.0873916E-1,-9.437529E-1,-9.043421E-1,-8.110468E-1,-5.57369E-1,1.8738346E-1,-3.7338775E-1,-7.908585E-2,-7.375438E-1,-1.1906023E-1,-2.5205073E-1,-5.9666485E-1,-1.9530366E-1,-5.0038403E-1,2.164232E-1,-2.2571075E-1,6.9959246E-2,-4.0821448E-1,2.2028159E-1,6.544076E-1,-4.517974E-1,6.0827875E-1,-8.3138144E-1,-7.514709E-1,-7.01081E-1,-2.7461484E-1,5.275157E-1,-4.3675464E-2,-2.8147352E-1,-5.433329E-1,-2.797955E-1,1.8147223E-1,2.719091E-1,-6.304999E-1,-9.775173E-1,-6.3543606E-1,-3.011617E-1,3.250674E-1,-2.3023014E-1,-4.0381417E-1,-3.4267995E-1,-1.815815E-2,1.0085726E0,-4.2528102E-1,-4.51413E-1,-5.9348243E-1,-3.32787E-1,1.5948267E-1,-3.7272555E-1,-9.001319E-1,-4.63116E-1,2.0576134E-1,-1.1388023E-2,3.5794562E-1,-7.696359E-2,-4.4052824E-1,8.355241E-1,2.2832973E0,4.0519357E-1,8.486404E-2,3.6577383E-1,-1.6297618E-1,-8.388918E-1,-2.8174996E-1,-2.8537706E-1,-6.6293216E-1,-2.447721E-1,2.8292134E-1,1.2723257E-1,6.750496E-1,1.1052579E0,-4.818624E-2,-2.656371E-1,1.19465224E-1,5.2805173E-1,8.315598E-2,6.4299077E-1,9.817284E-1,1.0350724E0,1.4876648E0,-3.1968823E-1,4.8687484E-2,4.5966506E-1,1.2526062E-3,1.18223146E-1,-7.389584E-1,-2.7133837E-1,-6.496335E-1,8.904597E-1,5.173785E-1,1.0271446E0,2.7290345E-3,1.42446E-1,4.7538215E-1,-1.7913088E-1,2.506005E-1,1.4997635E0,4.1534206E-1,2.079699E0,5.16997E-1,5.9576315E-1,2.61113E0,9.9781686E-1,1.06007576E-1,1.0434955E0,1.3146118E0,1.1538092E0,1.9261341E0,6.786362E-1,1.8014541E-1,1.1363784E0,6.476451E-1,7.2695524E-1,-3.52447E-1,5.3156054E-1,-4.2732254E-1,8.3791155E-1,1.1774374E0,6.4106727E-1,-4.7985902E-1,1.5199659E0,1.1424321E0,-1.2457701E-1,7.724079E-1,1.5454833E-1,9.8516494E-1,1.2995514E0,2.566693E0,1.663176E0,2.0383375E0,1.4791633E0,1.0890583E0,1.6912796E0,1.4624067E-1,1.3986797E0,1.8735218E0,7.6546866E-1,1.152645E-1,-1.0268631E-1,1.399301E0,2.106823E0,4.2477223E-1,1.5443876E0,3.77566E-1,2.572272E0,3.642863E0,2.0817356E-1,2.5017886E0,4.5978966E-1,1.709752E0,1.6116885E0,2.4689178E0,-2.856134E-1,9.7646016E-1,2.0548008E-1,-6.3336104E-1,4.5455503E0,3.4235802E0,2.5334857E0,1.7737058E0,9.6268433E-1,2.9961917E0,1.3643388E0,3.1092389E0,3.255036E0,4.6931176E0,2.6854913E0,-7.4314184E-2],"split_indices":[7,7,7,7,12,7,7,7,8,7,9,9,9,12,12,7,8,12,7,8,8,7,7,8,12,7,13,9,7,1,10,0,8,7,12,11,7,12,8,7,8,7,11,8,13,8,9,13,7,8,7,12,14,7,12,10,13,8,9,0,0,6,15,0,12,11,13,7,0,7,7,13,13,9,13,7,8,8,14,7,6,8,9,6,7,13,7,13,1,7,7,7,10,7,8,12,14,7,11,8,8,4,8,11,0,12,9,11,9,8,13,15,8,9,7,8,12,0,0,0,2,3,0,12,0,11,8,0,12,11,12,4,12,3,12,9,0,8,9,11,11,0,12,3,12,8,9,0,11,12,8,12,15,8,10,13,0,15,8,13,8,0,7,2,11,7,10,13,8,7,7,0,0,0,8,4,1,8,8,7,11,0,1,0,12,2,7,0,11,8,8,13,8,7,8,9,14,0,3,15,11,0,0,9,8,0,12,13,2,4,13,7,0,8,8,7,0,15,13,9,0,8,9,0,0,0,4,0,0,0,0,6,0,0,0,0,0,0,0,0,0,0,0,0,0,0,0,0,0,0,0,0,0,0,0,0,0,0,0,0,0,0,0,0,0,0,0,0,0,0,0,0,0,0,0,0,0,0,0,0,0,0,0,0,0,0,0,0,0,0,0,0,0,0,0,0,0,0,0,0,0,0,0,0,0,0,0,0,0,0,0,0,0,0,0,0,0,0,0,0,0,0,0,0,0,0,0,0,0,0,0,0,0,0,0,0,0,0,0,0,0,0,0,0,0,0,0,0,0,0,0,0,0,0,0,0,0,0,0,0,0,0,0,0,0,0,0,0,0,0,0,0,0,0,0,0,0,0,0,0,0,0,0,0,0,0,0,0,0,0,0,0,0,0,0,0,0,0,0,0,0,0,0,0,0,0,0,0,0,0,0,0,0,0,0],"split_type":[0,0,0,0,0,0,0,0,0,0,0,0,0,0,0,0,0,0,0,0,0,0,0,0,0,0,0,0,0,0,0,0,0,0,0,0,0,0,0,0,0,0,0,0,0,0,0,0,0,0,0,0,0,0,0,0,0,0,0,0,0,0,0,0,0,0,0,0,0,0,0,0,0,0,0,0,0,0,0,0,0,0,0,0,0,0,0,0,0,0,0,0,0,0,0,0,0,0,0,0,0,0,0,0,0,0,0,0,0,0,0,0,0,0,0,0,0,0,0,0,0,0,0,0,0,0,0,0,0,0,0,0,0,0,0,0,0,0,0,0,0,0,0,0,0,0,0,0,0,0,0,0,0,0,0,0,0,0,0,0,0,0,0,0,0,0,0,0,0,0,0,0,0,0,0,0,0,0,0,0,0,0,0,0,0,0,0,0,0,0,0,0,0,0,0,0,0,0,0,0,0,0,0,0,0,0,0,0,0,0,0,0,0,0,0,0,0,0,0,0,0,0,0,0,0,0,0,0,0,0,0,0,0,0,0,0,0,0,0,0,0,0,0,0,0,0,0,0,0,0,0,0,0,0,0,0,0,0,0,0,0,0,0,0,0,0,0,0,0,0,0,0,0,0,0,0,0,0,0,0,0,0,0,0,0,0,0,0,0,0,0,0,0,0,0,0,0,0,0,0,0,0,0,0,0,0,0,0,0,0,0,0,0,0,0,0,0,0,0,0,0,0,0,0,0,0,0,0,0,0,0,0,0,0,0,0,0,0,0,0,0,0,0,0,0,0,0,0,0,0,0,0,0,0,0,0,0,0,0,0,0,0,0,0,0,0,0,0,0,0,0,0,0,0,0,0,0,0,0,0,0,0,0,0,0,0,0,0,0,0,0,0,0,0,0,0,0,0,0,0,0,0,0,0,0,0,0,0,0,0,0,0,0,0,0],"sum_hessian":[1.6653E4,1.2712E4,3.941E3,8.682E3,4.03E3,2.761E3,1.18E3,5.772E3,2.91E3,2.504E3,1.526E3,1.646E3,1.115E3,9.86E2,1.94E2,3.567E3,2.205E3,4.93E2,2.417E3,1.337E3,1.167E3,5.33E2,9.93E2,3.44E2,1.302E3,3.15E2,8E2,2.92E2,6.94E2,1.3E1,1.81E2,1.817E3,1.75E3,3.8E2,1.825E3,3.3E2,1.63E2,1.287E3,1.13E3,6.63E2,6.74E2,9.74E2,1.93E2,2.88E2,2.45E2,4.28E2,5.65E2,1.19E2,2.25E2,4.73E2,8.29E2,2.03E2,1.12E2,6.02E2,1.98E2,1.95E2,9.7E1,4E2,2.94E2,3E0,1E1,8.2E1,9.9E1,1.03E2,1.647E3,2.42E2,1.38E2,1.824E3,1E0,1.88E2,1.42E2,8.7E1,7.6E1,1.199E3,8.8E1,3.83E2,7.47E2,4.2E2,2.43E2,6.14E2,6E1,6.31E2,3.43E2,9.1E1,1.02E2,1.04E2,1.84E2,2.32E2,1.3E1,3.67E2,6.1E1,1.64E2,4.01E2,7.1E1,4.8E1,1.39E2,8.6E1,3.69E2,1.04E2,3.75E2,4.54E2,1E1,1.93E2,8.6E1,2.6E1,3.41E2,2.61E2,1.49E2,4.9E1,6.5E1,1.3E2,4.6E1,5.1E1,9E1,3.1E2,2.55E2,3.9E1,1E0,2E0,1E0,8.1E1,9.8E1,1E0,1.02E2,1E0,9.85E2,6.62E2,3E0,2.39E2,8.8E1,5E1,9.49E2,8.75E2,1.16E2,7.2E1,1.07E2,3.5E1,6.1E1,2.6E1,4.3E1,3.3E1,2E0,1.197E3,7.8E1,1E1,2.88E2,9.5E1,6.73E2,7.4E1,6.1E1,3.59E2,2.3E2,1.3E1,3.72E2,2.42E2,5.6E1,4E0,2.03E2,4.28E2,3.9E1,3.04E2,2E0,8.9E1,3.7E1,6.5E1,4.7E1,5.7E1,7.2E1,1.12E2,1.43E2,8.9E1,1E0,1.2E1,1.09E2,2.58E2,1.8E1,4.3E1,1.15E2,4.9E1,2.99E2,1.02E2,2.8E1,4.3E1,1E0,4.7E1,1.2E1,1.27E2,2E0,8.4E1,2.28E2,1.41E2,7.4E1,3E1,2.18E2,1.57E2,3.93E2,6.1E1,1E0,9E0,6.5E1,1.28E2,8.5E1,1E0,1.54E2,1.87E2,1.53E2,1.08E2,1.13E2,3.6E1,3.2E1,1.7E1,6.4E1,1E0,1.1E2,2E1,4.5E1,1E0,2.1E1,3E1,8.9E1,1E0,1.77E2,1.33E2,3.8E1,2.17E2,2E0,3.7E1,1E0,1E0,1E0,8E1,9.5E1,3E0,9.1E1,1.1E1,1E0,9.84E2,2.8E1,6.34E2,1E0,2E0,1.83E2,5.6E1,1.2E1,7.6E1,2.4E1,2.6E1,2E0,9.47E2,5.26E2,3.49E2,1.09E2,7E0,3E1,4.2E1,1.06E2,1E0,8E0,2.7E1,2.2E1,3.9E1,1.5E1,1.1E1,3.5E1,8E0,1.1E1,2.2E1,1E0,1E0,6.61E2,5.36E2,7.3E1,5E0,4E0,6E0,3.9E1,2.49E2,8.4E1,1.1E1,4E0,6.69E2,5.5E1,1.9E1,2.8E1,3.3E1,1.15E2,2.44E2,3.4E1,1.96E2,9E0,4E0,1.88E2,1.84E2,2.26E2,1.6E1,3E0,5.3E1,3E0,1E0,4.5E1,1.58E2,3.67E2,6.1E1,3.7E1,2E0,1.8E2,1.24E2,1E0,1E0,8.4E1,5E0,7E0,3E1,4.3E1,2.2E1,1E1,3.7E1,5.5E1,2E0,3.7E1,3.5E1,6.6E1,4.6E1,6E1,8.3E1,4.5E1,4.4E1,9.8E1,1.1E1,2.5E1,2.33E2,1E0,1.7E1,3.2E1,1.1E1,1.9E1,9.6E1,4.7E1,2E0,6.6E1,2.33E2,4E1,6.2E1,2.5E1,3E0,4.2E1,1E0,1E0,4.6E1,5E0,7E0,4.9E1,7.8E1,6E0,7.8E1,1E2,1.28E2,6.9E1,7.2E1,4E0,7E1,2.6E1,4E0,1.46E2,7.2E1,1.54E2,3E0,6.3E1,3.3E2,7E0,5.4E1,2E0,7E0,4E0,6.1E1,5E1,7.8E1,7.9E1,7.5E1,1.84E2,3E0,2.8E1,8E1,6E1,5.3E1,1E0,3.5E1,3.1E1,1E0,1.2E1,5E0,2.5E1,3.9E1,1E0,1.09E2,1E1,1E1,1.4E1,3.1E1,6E0,1.5E1,1.6E1,1.4E1,1.1E1,7.8E1,1.54E2,2.3E1,2E0,1.31E2,3E0,3.4E1,1.4E1,8.1E1,1E0,2E0],"tree_param":{"num_deleted":"0","num_feature":"19","num_nodes":"415","size_leaf_vector":"1"}},{"base_weights":[-6.693622E-2,-1.0714458E1,3.6456326E1,-1.6533182E1,8.591906E-1,2.6126877E1,6.349724E1,-1.8538626E1,-1.2317216E1,-3.5876231E0,7.9918766E0,1.9413065E1,3.5139217E1,5.5888767E1,8.539397E1,-1.9994492E1,-1.7111681E1,-7.4453E0,-1.3301092E1,-6.6618977E0,1.2701961E-1,5.8913083E0,1.8721853E1,3.398483E1,1.6731813E1,5.214752E1,3.278466E1,3.578592E1,6.060696E1,9.012233E1,5.477658E1,-1.027465E0,-1.9285818E1,-1.3372015E1,-1.7412985E1,-9.818438E0,5.50185E-2,-1.4491952E1,-1.0717893E1,-1.3020394E0,-8.00074E0,2.2447934E0,-9.379367E0,1.3993198E0,1.0533174E1,1.2971764E1,2.9177582E1,3.006803E1,4.5299374E1,9.172397E0,2.0335787E1,4.3558628E1,6.5262344E1,2.6413488E1,3.7658375E1,4.3107204E1,4.004497E0,5.549607E1,6.734679E1,8.395394E1,1.052836E2,2.2902138E1,6.860701E1,-1.2250839E1,-1.9359962E1,-1.4724695E1,-8.133605E0,-1.8209805E1,-1.6554493E1,-1.3228518E1,-7.0020037E0,-3.0614152E0,9.624957E0,-1.5087186E1,-1.2095343E1,-7.780829E0,-1.1933659E1,-1.7780175E0,2.6279507E1,-6.4901357E0,-1.0686796E1,-2.4866119E-1,6.5042715E0,-1.3753819E1,-4.226772E0,1.0150843E1,-6.948918E-1,1.7076054E1,8.437303E0,1.4942818E1,-3.149601E0,2.197176E1,3.6695786E1,2.115746E1,3.2429054E1,4.657238E1,5.58812E0,1.2777564E1,1.6107717E0,1.6400934E1,2.3794054E1,9.499693E0,4.5519543E1,6.4929575E-1,6.601793E1,2.8808943E1,9.933324E0,3.9507915E1,1.5529793E1,5.7643524E1,3.3741707E1,1.7012169E0,-7.0938306E0,3.4746091E0,5.1817123E1,6.956646E1,5.028528E1,4.692544E0,7.839389E1,2.0147402E0,5.338916E0,3.5460407E1,7.0721364E0,2.4049147E1,3.7807648E0,-1.4010654E1,4.524231E-2,-7.695245E0,-1.9391035E1,-1.6408257E1,-1.239909E1,-1.0873941E1,-1.3799356E0,-1.882261E1,-1.7423729E1,-1.3463578E1,-1.6922777E1,-1.3443231E1,-3.9266803E0,-8.120779E0,3.0146745E-1,4.6898878E-1,-8.219118E0,6.4431095E0,2.021788E1,-8.094064E-1,-1.4198732E1,-1.2644923E1,-2.2637117E0,-1.0190751E1,-5.693006E0,-1.2018223E1,6.44826E0,-4.1697736E0,1.6828009E0,1.4740149E0,3.3690882E-1,-8.537802E0,-3.683217E0,-1.3295058E1,-8.302639E0,6.4445124E0,-2.3939278E0,1.1732263E1,3.7091825E0,7.570057E-1,-1.4816034E1,-1.0426578E1,2.8686824E-1,7.713543E0,2.1790028E1,-3.7332127E0,2.9561226E0,1.3807573E1,2.1376024E1,6.0284286E0,1.1586095E1,6.3403196E0,1.9918621E1,5.8139515E0,-1.2694549E1,2.4263916E1,7.3661584E-1,4.2258553E1,2.5047787E1,2.280995E1,7.716272E0,2.4706266E1,3.3947037E1,2.4691308E0,3.0075678E1,3.0209733E-2,3.888993E-1,8.839734E0,1.849096E1,-5.6755958E0,6.449174E0,1.9455938E1,1.2452939E1,2.9298897E1,1.9709171E1,1.2062756E1,-8.289051E-2,3.512983E1,5.0838036E1,3.3494618E0,1.3911766E0,2.4469402E1,3.1843945E1,1.5289733E1,-7.993228E0,4.6722115E1,3.7142296E1,2.265396E1,2.044217E0,6.1139717E1,1.67468E1,4.1068047E1,1.6156797E1,3.0493388E0,-7.9002917E-1,5.4734703E1,4.5931614E1,7.835524E1,6.637476E1,5.378779E1,1.4545811E0,2.5087257E1,7.9619644E1,2.068671E0,-4.4193267E-4,1.8215698E1,-5.83946E0,1.6111876E0,-2.1623182E-1,-1.9562078E-1,-7.243244E-1,4.4484664E-2,-4.109149E-2,4.4351387E-1,-7.0270973E-1,-3.0821994E-1,-9.70362E-1,-8.287379E-1,-2.7776328E-1,-6.8168634E-1,-4.4269648E-1,-5.7703745E-1,-6.834189E-3,1.1317139E-1,-2.4254036E-1,-2.5185648E-1,-9.416979E-1,-6.9067293E-1,-8.7976277E-1,-7.0171285E-1,-2.984516E-1,-8.479622E-1,1.4702797E-1,-6.7749304E-1,7.444568E-2,-4.6046235E-2,-3.987426E-1,-6.19145E-1,-3.3999974E-1,-1.3495854E-1,1.2603148E0,-1.4290789E-1,2.2348748E-1,-5.057053E-1,-1.2351187E-1,3.98452E-1,-3.2202397E-2,2.2744827E-1,1.1220936E0,-6.528465E-1,-7.8674895E-1,-4.9901494E-1,-6.9538486E-1,2.853378E-1,-4.6053812E-1,-5.43426E-1,-2.8353384E-1,-3.5897586E-1,6.1997855E-3,-5.585352E-1,-7.328787E-1,4.5268473E-1,3.0934764E-2,-2.8158018E-1,9.2159055E-2,-1.4307004E-1,2.4198511E-1,-5.1837796E-1,-3.563529E-1,-2.5400582E-1,-1.900564E-2,-6.861778E-1,1.480435E-2,-6.667155E-1,-3.4292886E-1,-1.3648462E-1,4.1872922E-1,2.0269064E-2,-2.0403026E-1,4.350732E-1,8.690025E-1,7.589569E-2,3.8542193E-1,2.6957247E-1,-5.1545155E-1,-8.9014304E-1,-6.108255E-1,-5.699832E-1,-3.7559606E-2,-6.6834874E-2,6.3852686E-1,-6.968175E-2,4.6073252E-1,3.9117494E-1,1.2617491E0,-7.589249E-2,-3.267903E-1,4.3204767E-1,-1.6743878E-2,9.802117E-1,5.7451904E-1,1.1047362E0,2.0867363E-1,3.538628E-1,-3.2089986E-2,6.9573325E-1,4.059584E-1,1.935647E-1,9.813492E-1,7.983756E-1,1.2061933E0,9.6575767E-1,-8.316968E-2,-8.101045E-1,4.4520378E-2,6.623156E-1,1.3478204E0,4.5964056E-1,-2.8948423E-1,1.4115089E0,2.4078054E0,4.239101E-1,1.3345926E0,1.1641191E0,1.5687004E-1,4.781603E-1,-3.795991E-2,4.4379395E-2,1.3288128E0,1.0231594E0,1.7444975E0,3.7090635E-1,1.579981E0,7.266025E-1,2.1675412E-1,1.2274649E0,8.0108404E-1,-1.6512434E-1,-6.279515E-1,5.7171834E-1,-2.8866273E-1,8.060132E-1,1.1286029E0,7.2012633E-1,1.8151808E-1,1.3303735E0,1.6369917E0,1.0793742E0,5.536442E-1,6.6386956E-1,1.801054E-1,1.9155865E0,2.037045E-1,6.7856437E-1,2.5651326E0,1.4406008E0,9.716132E-1,1.6144783E0,9.5170516E-1,1.20418E0,5.482306E-1,-2.2342825E-2,-6.0680026E-1,2.3716877E0,7.482653E-2,1.9477106E0,1.4123162E0,4.15387E-1,1.4203366E0,3.998934E-1,-3.801776E-1,1.8599892E-2,3.1306393E0,1.1134821E0,-1.3361421E-1,6.2750256E-1,2.1264064E0,3.9636204E-1,1.7505201E0,6.1754894E-1,-3.3802623E-1,4.3758002E-1,2.7466903E0,2.366489E0,1.0097597E0,9.879249E-1,3.9530697E0,3.3626804E0,2.1297336E0,2.739144E0,6.730081E-1,1.6001663E0,1.0847626E-1,8.9201397E-1,4.0011377E0,7.938118E-2,1.1614592E0,-3.9622304E-1,1.0388565E-2],"categories":[],"categories_nodes":[],"categories_segments":[],"categories_sizes":[],"default_left":[0,0,0,0,0,0,0,0,0,0,0,0,0,0,0,0,0,0,0,0,0,0,0,0,0,0,0,0,0,0,0,0,0,0,0,0,0,0,0,0,0,0,0,0,0,0,0,0,0,0,0,0,0,0,0,0,0,0,0,0,0,0,0,0,0,0,0,0,0,0,0,0,0,0,0,0,0,0,0,0,0,0,0,0,0,0,0,0,0,0,0,0,0,0,0,0,0,0,0,0,0,0,0,0,0,0,0,0,0,0,0,0,0,0,0,0,0,0,0,0,0,0,0,0,0,0,0,0,0,0,0,0,0,0,0,0,0,0,0,0,0,0,0,0,0,0,0,0,0,0,0,0,0,0,0,0,0,0,0,0,0,0,0,0,0,0,0,0,0,0,0,0,0,0,0,0,0,0,0,0,0,0,0,0,0,0,0,0,0,0,0,0,0,0,0,0,0,0,0,0,0,0,0,0,0,0,0,0,0,0,0,0,0,0,0,0,0,0,0,0,0,0,0,0,0,0,0,0,0,0,0,0,0,0,0,0,0,0,0,0,0,0,0,0,0,0,0,0,0,0,0,0,0,0,0,0,0,0,0,0,0,0,0,0,0,0,0,0,0,0,0,0,0,0,0,0,0,0,0,0,0,0,0,0,0,0,0,0,0,0,0,0,0,0,0,0,0,0,0,0,0,0,0,0,0,0,0,0,0,0,0,0,0,0,0,0,0,0,0,0,0,0,0,0,0,0,0,0,0,0,0,0,0,0,0,0,0,0,0,0,0,0,0,0,0,0,0,0,0,0,0,0,0,0,0,0,0,0,0,0,0,0,0,0,0,0,0,0,0,0,0,0,0,0,0,0,0,0,0,0,0,0,0,0,0,0,0,0,0,0,0,0,0,0,0,0,0,0,0,0,0,0,0,0,0,0,0,0,0,0,0,0,0,0,0,0,0,0,0,0,0,0,0,0,0],"id":4,"left_children":[1,3,5,7,9,11,13,15,17,19,21,23,25,27,29,31,33,35,37,39,41,43,45,47,49,51,53,55,57,59,61,-1,63,65,67,69,71,73,75,77,79,81,83,85,87,89,91,93,95,97,99,101,103,105,107,109,111,113,115,117,119,121,123,125,127,129,131,133,135,137,139,141,143,145,147,149,151,153,155,157,159,161,163,165,167,169,171,173,175,177,179,181,183,185,187,189,191,193,195,197,199,201,203,-1,205,207,209,211,213,215,217,-1,219,-1,221,223,225,-1,227,-1,-1,229,231,233,-1,235,237,239,241,243,245,247,249,251,253,255,257,259,261,263,265,267,269,271,273,-1,275,277,279,281,283,