{"learner":{"attributes":{"best_iteration":"130","best_score":"9.15113274419107","scikit_learn":"{\"_estimator_type\": \"regressor\"}"},"feature_names":["O3_forecast","NO2_forecast","T_forecast","q_forecast","u_forecast","v_forecast","w_forecast","O3_target_lag_1","O3_target_lag_2","O3_target_lag_3","O3_target_lag_6","O3_target_lag_12","O3_target_lag_24","NO2_target_lag_1","NO2_target_lag_2","NO2_target_lag_3","NO2_target_lag_6","NO2_target_lag_12","NO2_target_lag_24"],"feature_types":["float","float","float","float","float","float","float","float","float","float","float","float","float","float","float","float","float","float","float"],"gradient_booster":{"model":{"cats":{"enc":[],"feature_segments":[],"sorted_idx":[]},"gbtree_model_param":{"num_parallel_tree":"1","num_trees":"181"},"iteration_indptr":[0,1,2,3,4,5,6,7,8,9,10,11,12,13,14,15,16,17,18,19,20,21,22,23,24,25,26,27,28,29,30,31,32,33,34,35,36,37,38,39,40,41,42,43,44,45,46,47,48,49,50,51,52,53,54,55,56,57,58,59,60,61,62,63,64,65,66,67,68,69,70,71,72,73,74,75,76,77,78,79,80,81,82,83,84,85,86,87,88,89,90,91,92,93,94,95,96,97,98,99,100,101,102,103,104,105,106,107,108,109,110,111,112,113,114,115,116,117,118,119,120,121,122,123,124,125,126,127,128,129,130,131,132,133,134,135,136,137,138,139,140,141,142,143,144,145,146,147,148,149,150,151,152,153,154,155,156,157,158,159,160,161,162,163,164,165,166,167,168,169,170,171,172,173,174,175,176,177,178,179,180,181],"tree_info":[0,0,0,0,0,0,0,0,0,0,0,0,0,0,0,0,0,0,0,0,0,0,0,0,0,0,0,0,0,0,0,0,0,0,0,0,0,0,0,0,0,0,0,0,0,0,0,0,0,0,0,0,0,0,0,0,0,0,0,0,0,0,0,0,0,0,0,0,0,0,0,0,0,0,0,0,0,0,0,0,0,0,0,0,0,0,0,0,0,0,0,0,0,0,0,0,0,0,0,0,0,0,0,0,0,0,0,0,0,0,0,0,0,0,0,0,0,0,0,0,0,0,0,0,0,0,0,0,0,0,0,0,0,0,0,0,0,0,0,0,0,0,0,0,0,0,0,0,0,0,0,0,0,0,0,0,0,0,0,0,0,0,0,0,0,0,0,0,0,0,0,0,0,0,0,0,0,0,0,0,0],"trees":[{"base_weights":[1.1274125E-1,-1.3996271E1,4.191371E1,-2.066532E1,2.0083438E-1,2.6661999E1,6.559187E1,-2.3866129E1,-1.600697E1,-6.269538E0,7.29692E0,1.8748466E1,3.7854454E1,5.733914E1,8.6427284E1,-2.5198019E1,-2.2030756E1,-1.779982E1,-1.1984073E1,-8.991554E0,-3.6051455E-1,3.2090578E0,1.6373808E1,2.3346958E1,6.7066393E0,4.7863747E1,3.208322E1,5.0736237E1,6.7153755E1,8.002035E1,1.016505E2,-2.521224E1,3.637351E-1,-2.2850668E1,-1.984693E1,-1.8860765E1,-1.5708158E1,-1.392575E1,-3.6608975E0,-7.130558E0,-1.701381E1,3.471989E0,-1.3080931E1,-2.305759E0,7.7774816E0,1.179135E1,2.5950066E1,1.6989544E1,2.7898865E1,2.7334501E1,3.1388533E0,3.9915363E1,5.844361E1,2.1279556E1,3.694198E1,6.263154E1,4.4054813E1,7.3735115E1,5.341557E1,5.7928257E1,8.314962E1,6.1341316E1,1.0641625E2,-1.2869295E0,-2.4187412E1,-1.1726044E0,-1.1128955E0,-1.067637E0,-1.6222532E1,-1.4869614E1,-1.9361952E1,-1.5128222E1,-2.052602E1,-1.6018248E1,-1.0971939E1,-1.667616E-1,-1.0089716E1,-9.619621E0,-4.8341956E0,-1.0982068E1,-1.9663006E1,8.802586E0,1.4256143E-2,3.6058762E0,-1.4726709E1,6.431957E0,-4.372231E0,1.7053003E1,5.658609E0,1.31091585E1,-6.959418E0,1.5754119E1,3.444204E1,2.5551378E1,1.3651389E1,3.894031E1,2.4419579E1,3.595376E1,1.7804092E1,9.722854E0,-7.077405E0,3.5739204E1,2.4116952E0,5.3241116E1,3.2074494E0,2.4153383E1,1.3807382E1,4.210798E1,3.3029564E1,-7.2670627E0,6.3239243E1,4.707022E1,1.9472618E1,4.0664487E0,6.8842224E1,5.746021E1,3.271202E1,3.7180555E0,4.4323658E1,8.691246E1,7.200481E1,7.302945E1,8.019555E0,5.346342E0,1.217985E0,-1.21471E0,-1.8757524E1,-1.17077265E1,-1.827998E1,1.7022837E1,-1.5913904E1,-1.9535414E1,-1.4468183E1,-1.5197041E1,5.92627E0,-1.2549124E1,-1.0933235E0,-1.6688538E1,-1.2562635E1,-5.4835196E0,-1.2428884E1,-2.9976208E0,6.61679E0,-1.0775585E1,3.7495537E0,-1.0036098E1,1.1132186E1,-2.1171389E0,-7.2868342E0,-1.2067158E1,-3.7372112E0,2.5498515E-1,-1.983172E1,5.163358E0,1.3942704E1,-2.236381E0,5.2992997E0,-3.711535E0,8.759762E-1,-6.699241E0,-1.6880016E1,5.791888E0,1.9049851E0,-8.5318575E0,-2.5300043E0,1.4401347E1,2.3429422E1,3.3554654E0,9.244636E0,8.280909E0,1.8989038E1,7.608062E0,-1.1710065E1,1.69125E1,-6.162476E0,3.5369514E1,-3.5135314E-1,1.8611681E1,3.04407E1,1.6349129E1,8.023126E0,1.3755205E1,3.9935642E1,2.6336958E1,1.3932657E1,1.35570545E1,3.794017E1,1.9117133E-1,2.1319029E1,1.7971682E1,6.8762884E0,-2.723445E0,-1.5724804E1,3.242816E1,2.0582304E0,1.3316027E0,2.6933472E0,1.736442E1,2.6638935E1,8.203746E0,2.2221605E1,1.848218E0,4.7020058E1,2.6529413E1,3.573502E1,-4.7701484E-1,-6.801486E-2,7.437481E1,5.8990463E1,5.1003704E1,3.9432236E1,3.1366661E1,1.2394877E1,5.0896927E1,7.147026E1,5.8133392E1,5.353135E-1,3.7805798E1,8.582838E0,2.7784836E1,5.6515163E1,4.364401E0,2.762351E-1,3.800415E0,4.8845875E1,3.8443062E0,6.6873515E-1,-4.9626485E-1,8.6548024E-1,-1.0322282E0,-2.3164728E-1,-7.6835746E-1,-2.6768747E-1,-9.576095E-1,-5.843091E-1,4.258735E0,-6.821238E-1,-8.13871E-1,-1.6627477E-1,-1.0095066E0,-9.035856E-1,1.8096466E0,-8.666541E-1,-6.190535E-1,-7.831852E-1,-1.8501487E-1,6.2948513E-1,-8.0732673E-1,-1.4222379E-1,-8.965929E-1,-7.340202E-1,-9.545407E-2,-6.683995E-1,-4.477485E-1,-6.301458E-2,9.781353E-2,-6.2707174E-1,-2.189091E-1,2.811264E-1,-1.0657674E-1,4.7026443E-1,-5.6023693E-1,4.279851E-1,4.3813515E-2,3.092351E-1,-5.833982E-1,-3.6073214E-1,1.6472762E0,-3.0195406E-1,1.1976631E-1,-2.1809946E-1,-3.2252762E-1,-5.5785936E-1,-6.189351E-1,2.3573513E-1,1.9623518E-1,-2.3952702E-1,-7.202017E-1,-1.0314835E0,1.2026813E-1,5.5361E-1,6.172239E-1,2.5158136E0,4.649068E-2,-1.9894062E-1,4.0205407E-1,-1.23070136E-1,1.3772772E-1,-3.438112E-1,-4.981806E-1,1.7616151E-1,-6.169722E-1,-9.915051E-1,-3.9960176E-2,3.6869225E-1,-3.5410637E-1,-6.0895205E-1,-8.6485045E-3,-3.311693E-1,7.5009286E-1,-1.3552228E-1,1.017592E0,1.582849E0,2.0521417E-1,-3.4154934E-1,7.464118E-1,2.8122053E-1,1.5507291E-1,6.1205906E-1,1.0864128E0,3.8113785E-1,-4.001484E-2,4.5714188E-1,-2.942582E-1,-9.855885E-1,6.261052E-1,1.0445198E0,2.4480153E-2,-5.3801984E-1,1.286314E0,2.0082724E0,4.5620868E-1,1.161514E0,1.9441252E0,1.2443377E0,6.6584283E-1,1.0952951E0,7.2863793E-1,2.6660883E-1,-1.8912376E-1,1.9199803E0,2.0314891E0,6.672762E-1,1.1350696E0,1.5451401E0,9.792143E-1,4.031553E-1,1.9298516E-1,7.751469E-1,9.5072764E-1,1.9756798E0,5.538136E-1,-4.0102234E-1,1.2289968E0,3.448086E-1,5.6424063E-1,1.1769536E0,1.3579214E-1,5.0537974E-1,-3.4182918E-1,1.7321433E-1,-8.7045205E-1,-2.047398E-1,1.7687542E0,1.3386468E0,9.119345E-1,-4.6201488E-1,2.4414682E-1,1.3506988E0,3.3366558E-1,1.5824851E0,2.7248022E-1,1.1779717E0,2.3639598E0,5.794851E-1,3.7147525E-1,1.385184E0,1.838437E0,1.183031E0,3.766648E0,3.7423515E-1,2.9632766E0,1.1503135E0,2.236088E0,2.727741E0,2.0853E0,7.1804947E-1,4.0498516E-1,1.6129427E0,2.4406694E-1,1.1789341E0,2.512351E-1,2.6204898E0,3.5875802E0,6.3323516E-1,1.9278958E0,2.9951148E0,4.6914688E-1,2.008947E0,5.6197625E-1,-1.1751485E-1,2.8080857E-1,2.0469117E0,3.0027418E0,2.6248512E-1,2.735357E0,-6.837649E-1],"categories":[],"categories_nodes":[],"categories_segments":[],"categories_sizes":[],"default_left":[0,0,0,0,0,0,0,0,0,0,0,0,0,0,0,0,0,0,0,0,0,0,0,0,0,0,0,0,0,0,0,0,0,0,0,0,0,0,0,0,0,0,0,0,0,0,0,0,0,0,0,0,0,0,0,0,0,0,0,0,0,0,0,0,0,0,0,0,0,0,0,0,0,0,0,0,0,0,0,0,0,0,0,0,0,0,0,0,0,0,0,0,0,0,0,0,0,0,0,0,0,0,0,0,0,0,0,0,0,0,0,0,0,0,0,0,0,0,0,0,0,0,0,0,0,0,0,0,0,0,0,0,0,0,0,0,0,0,0,0,0,0,0,0,0,0,0,0,0,0,0,0,0,0,0,0,0,0,0,0,0,0,0,0,0,0,0,0,0,0,0,0,0,0,0,0,0,0,0,0,0,0,0,0,0,0,0,0,0,0,0,0,0,0,0,0,0,0,0,0,0,0,0,0,0,0,0,0,0,0,0,0,0,0,0,0,0,0,0,0,0,0,0,0,0,0,0,0,0,0,0,0,0,0,0,0,0,0,0,0,0,0,0,0,0,0,0,0,0,0,0,0,0,0,0,0,0,0,0,0,0,0,0,0,0,0,0,0,0,0,0,0,0,0,0,0,0,0,0,0,0,0,0,0,0,0,0,0,0,0,0,0,0,0,0,0,0,0,0,0,0,0,0,0,0,0,0,0,0,0,0,0,0,0,0,0,0,0,0,0,0,0,0,0,0,0,0,0,0,0,0,0,0,0,0,0,0,0,0,0,0,0,0,0,0,0,0,0,0,0,0,0,0,0,0,0,0,0,0,0,0,0,0,0,0,0,0,0,0,0,0,0,0,0,0,0,0,0,0,0,0,0,0,0,0,0,0,0,0,0,0,0,0,0,0,0,0],"id":0,"left_children":[1,3,5,7,9,11,13,15,17,19,21,23,25,27,29,31,33,35,37,39,41,43,45,47,49,51,53,55,57,59,61,63,-1,65,67,69,71,73,75,77,79,81,83,85,87,89,91,93,95,97,99,101,103,105,107,109,111,113,115,117,119,121,123,-1,125,-1,-1,-1,127,129,131,133,135,137,139,141,143,145,147,149,151,153,155,157,159,161,163,165,167,169,171,173,175,177,179,181,183,185,187,189,191,193,-1,195,-1,197,199,201,203,205,207,209,211,-1,213,215,217,-1,219,221,223,225,227,-1,-1,-1,229,231,233,235,237,239,241,243,245,247,-1,249,251,253,255,257,259,261,263,265,267,269,271,273,275,-1,277,279,281,283,285,287,-1,289,291,293,-1,295,297,299,301,303,305,307,309,311,313,315,317,319,-1,321,323,325,327,329,331,333,335,337,339,341,343,345,347,349,351,353,-1,-1,-1,355,357,359,361,-1,363,365,367,-1,-1,369,371,373,375,377,379,381,383,385,-1,387,389,391,393,-1,-1,-1,395,-1,-1,-1,-1,-1,-1,-1,-1,-1,-1,-1,-1,-1,-1,-1,-1,-1,-1,-1,-1,-1,-1,-1,-1,-1,-1,-1,-1,-1,-1,-1,-1,-1,-1,-1,-1,-1,-1,-1,-1,-1,-1,-1,-1,-1,-1,-1,-1,-1,-1,-1,-1,-1,-1,-1,-1,-1,-1,-1,-1,-1,-1,-1,-1,-1,-1,-1,-1,-1,-1,-1,-1,-1,-1,-1,-1,-1,-1,-1,-1,-1,-1,-1,-1,-1,-1,-1,-1,-1,-1,-1,-1,-1,-1,-1,-1,-1,-1,-1,-1,-1,-1,-1,-1,-1,-1,-1,-1,-1,-1,-1,-1,-1,-1,-1,-1,-1,-1,-1,-1,-1,-1,-1,-1,-1,-1,-1,-1,-1,-1,-1,-1,-1,-1,-1,-1,-1,-1,-1,-1,-1,-1,-1,-1,-1,-1,-1,-1,-1,-1,-1,-1,-1,-1,-1,-1,-1,-1,-1,-1,-1,-1,-1,-1,-1,-1,-1,-1,-1,-1,-1,-1],"loss_changes":[9.465222E6,1.1360835E6,1.460838E6,1.2134725E5,1.7617306E5,2.1762E5,2.677555E5,1.1269E4,2.3789812E4,3.2278266E4,6.784973E4,7.991456E4,5.738575E4,7.040575E4,3.55615E4,1.474625E3,3.202875E3,4.80775E3,1.657861E4,2.0391664E4,3.0953574E4,3.183798E4,2.4619438E4,2.9795562E4,2.9426113E4,2.8865625E4,3.3333938E4,5.168275E4,3.72005E4,1.7305625E4,1.8253625E4,8.85125E2,0E0,4.875E0,2.7371875E3,2.7545E3,1.8688438E3,4.9790625E3,4.4010977E3,6.338039E3,3.9067031E3,8.994582E3,4.0901348E3,1.037435E4,1.3484176E4,9.629262E3,1.5302219E4,1.2198117E4,2.240625E4,4.2064336E3,2.3140312E4,5.7451875E3,1.24475E3,4.0471484E3,7.64375E3,1.08240625E4,3.184675E4,5.73375E3,1.0764875E4,6.3172344E3,5.400125E3,9.386039E3,2.171625E3,0E0,1.03875E2,0E0,0E0,0E0,1.3651133E3,6.065965E3,8.6165625E2,1.1043125E3,5.916953E2,9.160547E2,2.7225625E3,2.4778545E3,6.9534717E2,4.735539E3,3.8696602E3,5.916699E2,8.447969E2,3.5195723E3,3.5445818E3,1.4903906E3,2.2031875E3,2.008978E3,3.5340352E3,1.8268203E3,4.627131E3,1.0091371E4,1.8884196E3,2.2621816E3,4.05625E3,3.572961E3,4.697211E3,3.0603906E3,8.983E3,8.203164E2,1.8531738E3,4.783912E3,5.0399824E3,1.3057812E3,0E0,3.084375E1,0E0,2.0010781E3,2.5995625E3,3.0371875E3,3.6066875E3,2.7304749E1,7.0621875E3,9.796125E3,3.8203613E3,0E0,5.41725E3,3.311875E3,2.9940527E3,0E0,3.6721992E3,5.722625E3,3.3338125E3,1.9625703E3,8.386372E2,0E0,0E0,0E0,5.173882E2,1.2198335E3,4.375664E2,1.3701382E4,7.1922266E2,8.799375E2,7.884285E3,7.233125E2,2.3902359E2,4.4283423E2,0E0,7.454375E2,6.866094E2,1.0882688E3,4.6977734E2,1.107575E3,9.470458E2,6.4356494E2,2.2568016E1,2.333043E3,4.31915E3,2.8265347E3,9.184619E2,4.243418E2,1.1564766E2,0E0,4.694375E2,1.8311748E3,3.9713936E3,1.1567268E3,1.9135474E3,2.2357256E2,0E0,1.0362023E3,1.1617891E3,1.1424158E3,0E0,6.645625E2,3.1152358E3,9.9631055E2,2.6727734E2,2.6596265E3,4.44274E3,4.0644404E3,4.8781953E3,9.765158E1,8.16176E2,1.1530371E3,1.5819699E2,3.4527812E3,0E0,2.1104492E3,2.3143086E3,3.3141055E3,1.7728916E3,3.1706848E3,2.0048906E3,5.8054375E3,2.2968574E3,1.5642883E1,5.267578E1,6.251423E2,1.0062822E3,1.7074707E3,2.0832056E3,2.3397246E3,8.101592E2,6.527969E2,0E0,0E0,0E0,1.1454385E3,7.248281E2,1.1164443E3,3.8768652E2,0E0,3.0590625E2,1.5884414E3,1.3767031E3,0E0,0E0,3.4738438E3,4.181875E2,3.271E3,7.2678906E3,1.1236719E2,2.6578926E3,1.6798125E3,1.82125E3,1.9494062E3,0E0,1.1069336E3,2.0069168E2,3.560795E3,2.225207E3,0E0,0E0,0E0,5.8784805E3,0E0,0E0,0E0,0E0,0E0,0E0,0E0,0E0,0E0,0E0,0E0,0E0,0E0,0E0,0E0,0E0,0E0,0E0,0E0,0E0,0E0,0E0,0E0,0E0,0E0,0E0,0E0,0E0,0E0,0E0,0E0,0E0,0E0,0E0,0E0,0E0,0E0,0E0,0E0,0E0,0E0,0E0,0E0,0E0,0E0,0E0,0E0,0E0,0E0,0E0,0E0,0E0,0E0,0E0,0E0,0E0,0E0,0E0,0E0,0E0,0E0,0E0,0E0,0E0,0E0,0E0,0E0,0E0,0E0,0E0,0E0,0E0,0E0,0E0,0E0,0E0,0E0,0E0,0E0,0E0,0E0,0E0,0E0,0E0,0E0,0E0,0E0,0E0,0E0,0E0,0E0,0E0,0E0,0E0,0E0,0E0,0E0,0E0,0E0,0E0,0E0,0E0,0E0,0E0,0E0,0E0,0E0,0E0,0E0,0E0,0E0,0E0,0E0,0E0,0E0,0E0,0E0,0E0,0E0,0E0,0E0,0E0,0E0,0E0,0E0,0E0,0E0,0E0,0E0,0E0,0E0,0E0,0E0,0E0,0E0,0E0,0E0,0E0,0E0,0E0,0E0,0E0,0E0,0E0,0E0,0E0,0E0,0E0,0E0,0E0,0E0,0E0,0E0,0E0,0E0,0E0,0E0,0E0,0E0,0E0,0E0,0E0,0E0,0E0,0E0,0E0,0E0,0E0,0E0,0E0,0E0,0E0],"parents":[2147483647,0,0,1,1,2,2,3,3,4,4,5,5,6,6,7,7,8,8,9,9,10,10,11,11,12,12,13,13,14,14,15,15,16,16,17,17,18,18,19,19,20,20,21,21,22,22,23,23,24,24,25,25,26,26,27,27,28,28,29,29,30,30,31,31,33,33,34,34,35,35,36,36,37,37,38,38,39,39,40,40,41,41,42,42,43,43,44,44,45,45,46,46,47,47,48,48,49,49,50,50,51,51,52,52,53,53,54,54,55,55,56,56,57,57,58,58,59,59,60,60,61,61,62,62,64,64,68,68,69,69,70,70,71,71,72,72,73,73,74,74,75,75,76,76,77,77,78,78,79,79,80,80,81,81,82,82,83,83,84,84,85,85,86,86,87,87,88,88,89,89,90,90,91,91,92,92,93,93,94,94,95,95,96,96,97,97,98,98,99,99,100,100,101,101,103,103,105,105,106,106,107,107,108,108,109,109,110,110,111,111,112,112,114,114,115,115,116,116,118,118,119,119,120,120,121,121,122,122,126,126,127,127,128,128,129,129,130,130,131,131,132,132,133,133,134,134,135,135,137,137,138,138,139,139,140,140,141,141,142,142,143,143,144,144,145,145,146,146,147,147,148,148,149,149,150,150,152,152,153,153,154,154,155,155,156,156,157,157,159,159,160,160,161,161,163,163,164,164,165,165,166,166,167,167,168,168,169,169,170,170,171,171,172,172,173,173,174,174,175,175,177,177,178,178,179,179,180,180,181,181,182,182,183,183,184,184,185,185,186,186,187,187,188,188,189,189,190,190,191,191,192,192,193,193,197,197,198,198,199,199,200,200,202,202,203,203,204,204,207,207,208,208,209,209,210,210,211,211,212,212,213,213,214,214,215,215,217,217,218,218,219,219,220,220,224,224],"right_children":[2,4,6,8,10,12,14,16,18,20,22,24,26,28,30,32,34,36,38,40,42,44,46,48,50,52,54,56,58,60,62,64,-1,66,68,70,72,74,76,78,80,82,84,86,88,90,92,94,96,98,100,102,104,106,108,110,112,114,116,118,120,122,124,-1,126,-1,-1,-1,128,130,132,134,136,138,140,142,144,146,148,150,152,154,156,158,160,162,164,166,168,170,172,174,176,178,180,182,184,186,188,190,192,194,-1,196,-1,198,200,202,204,206,208,210,212,-1,214,216,218,-1,220,222,224,226,228,-1,-1,-1,230,232,234,236,238,240,242,244,246,248,-1,250,252,254,256,258,260,262,264,266,268,270,272,274,276,-1,278,280,282,284,286,288,-1,290,292,294,-1,296,298,300,302,304,306,308,310,312,314,316,318,320,-1,322,324,326,328,330,332,334,336,338,340,342,344,346,348,350,352,354,-1,-1,-1,356,358,360,362,-1,364,366,368,-1,-1,370,372,374,376,378,380,382,384,386,-1,388,390,392,394,-1,-1,-1,396,-1,-1,-1,-1,-1,-1,-1,-1,-1,-1,-1,-1,-1,-1,-1,-1,-1,-1,-1,-1,-1,-1,-1,-1,-1,-1,-1,-1,-1,-1,-1,-1,-1,-1,-1,-1,-1,-1,-1,-1,-1,-1,-1,-1,-1,-1,-1,-1,-1,-1,-1,-1,-1,-1,-1,-1,-1,-1,-1,-1,-1,-1,-1,-1,-1,-1,-1,-1,-1,-1,-1,-1,-1,-1,-1,-1,-1,-1,-1,-1,-1,-1,-1,-1,-1,-1,-1,-1,-1,-1,-1,-1,-1,-1,-1,-1,-1,-1,-1,-1,-1,-1,-1,-1,-1,-1,-1,-1,-1,-1,-1,-1,-1,-1,-1,-1,-1,-1,-1,-1,-1,-1,-1,-1,-1,-1,-1,-1,-1,-1,-1,-1,-1,-1,-1,-1,-1,-1,-1,-1,-1,-1,-1,-1,-1,-1,-1,-1,-1,-1,-1,-1,-1,-1,-1,-1,-1,-1,-1,-1,-1,-1,-1,-1,-1,-1,-1,-1,-1,-1,-1,-1],"split_conditions":[4.408E1,1.68E1,7.735E1,7.62E0,2.76E1,5.803E1,1.098E2,4.72E0,1.677E1,2.988E1,5.43E1,6.012E1,3.26E1,9.415E1,1.3195E2,1.4472E2,1.18E1,1.198E1,8.05E1,4.28E1,5.803E1,3.033E1,7.258E1,5.317E1,1.465E1,6.035E1,5.885E1,6.115E1,1.0007E2,5.317E1,4.473E1,3.85E0,3.637351E-1,5.88E0,6.82E1,5.55E0,3.848E1,1.288E1,8.43E0,2.152E1,5.065E1,2.988E1,2.15E1,1.13E1,1.905E1,4.9E1,2.76E1,3.072E1,1.37E1,3.108E1,5.677E1,6.197E1,8.247E1,5.885E1,5.735E1,1.145E1,7.71E1,6.035E1,6.108E1,5.24E1,1.1632E2,6.622E1,9.237E1,-1.2869295E0,3.848E1,-1.1726044E0,-1.1128955E0,-1.067637E0,4.38E0,1.672E1,1.9464E2,4.24E1,3.695E1,5.545E1,7.83E0,1.37E1,7.127E1,1.0248E2,1.998E1,4.477E1,6.45E0,3.508E1,3.848E1,2.717E1,4.81E1,1.1338E2,2.215E1,5.66E1,3.798E1,3.18E1,2.965E1,4.027E1,4.742E1,3.132E1,5.458E1,8.07E0,8.372E1,4.78E0,4.9E1,3.345E1,8.255E1,5.395E1,2.4116952E0,1.698E1,3.2074494E0,5.042E1,5.593E1,6.805E1,6.583E1,1.2435E2,2.895E1,5.735E1,5.352E1,4.0664487E0,5.53E1,4.3E0,1.1338E2,3.7180555E0,3.61E1,3.943E1,4.41E1,1.5793E2,2.042E1,5.346342E0,1.217985E0,-1.21471E0,1.0649E2,3.107E1,7.3E0,2.88E0,1.327E2,1.022E1,7.75E0,7.4E0,8.817E1,3.315E1,-1.0933235E0,1.1E1,-3.65E0,4.775E1,-5.54E0,1.186E2,6.42E1,6.18E0,1.0678E2,1.557E1,9.753E1,1.18E1,4.64E1,9.202E1,-1.75E0,2.5498515E-1,1.249E1,4.157E1,1.0105E2,3.662E1,1.51E0,2.47E0,8.759762E-1,4.35E1,8.172E1,1.905E1,1.9049851E0,4.04E1,3.033E1,1.6457E2,5.097E1,6.895E1,3.402E1,4.185E1,2.8E1,1.144E1,8.843E1,2.25E1,-1.18E0,8.972E1,-3.5135314E-1,3.07E1,1.307E1,5.042E1,2.39E1,4.012E1,8.653E1,6.035E1,3.372E1,3.951E1,4.68E1,5.034E1,6.668E1,5.66E1,3.64E1,5.803E1,9.237E1,2.398E1,2.0582304E0,1.3316027E0,2.6933472E0,5.53E1,1.082E1,1.259E2,8.36E0,1.848218E0,7.642E1,1.49E0,8.688E1,-4.7701484E-1,-6.801486E-2,6.583E1,5.395E1,8.372E1,4.81E1,3.38E0,4.61E1,1.082E1,1.4645E2,3.74E1,5.353135E-1,1.348E1,1.072E2,7.207E1,1.687E2,4.364401E0,2.762351E-1,3.800415E0,1.4472E2,3.8443062E0,6.6873515E-1,-4.9626485E-1,8.6548024E-1,-1.0322282E0,-2.3164728E-1,-7.6835746E-1,-2.6768747E-1,-9.576095E-1,-5.843091E-1,4.258735E0,-6.821238E-1,-8.13871E-1,-1.6627477E-1,-1.0095066E0,-9.035856E-1,1.8096466E0,-8.666541E-1,-6.190535E-1,-7.831852E-1,-1.8501487E-1,6.2948513E-1,-8.0732673E-1,-1.4222379E-1,-8.965929E-1,-7.340202E-1,-9.545407E-2,-6.683995E-1,-4.477485E-1,-6.301458E-2,9.781353E-2,-6.2707174E-1,-2.189091E-1,2.811264E-1,-1.0657674E-1,4.7026443E-1,-5.6023693E-1,4.279851E-1,4.3813515E-2,3.092351E-1,-5.833982E-1,-3.6073214E-1,1.6472762E0,-3.0195406E-1,1.1976631E-1,-2.1809946E-1,-3.2252762E-1,-5.5785936E-1,-6.189351E-1,2.3573513E-1,1.9623518E-1,-2.3952702E-1,-7.202017E-1,-1.0314835E0,1.2026813E-1,5.5361E-1,6.172239E-1,2.5158136E0,4.649068E-2,-1.9894062E-1,4.0205407E-1,-1.23070136E-1,1.3772772E-1,-3.438112E-1,-4.981806E-1,1.7616151E-1,-6.169722E-1,-9.915051E-1,-3.9960176E-2,3.6869225E-1,-3.5410637E-1,-6.0895205E-1,-8.6485045E-3,-3.311693E-1,7.5009286E-1,-1.3552228E-1,1.017592E0,1.582849E0,2.0521417E-1,-3.4154934E-1,7.464118E-1,2.8122053E-1,1.5507291E-1,6.1205906E-1,1.0864128E0,3.8113785E-1,-4.001484E-2,4.5714188E-1,-2.942582E-1,-9.855885E-1,6.261052E-1,1.0445198E0,2.4480153E-2,-5.3801984E-1,1.286314E0,2.0082724E0,4.5620868E-1,1.161514E0,1.9441252E0,1.2443377E0,6.6584283E-1,1.0952951E0,7.2863793E-1,2.6660883E-1,-1.8912376E-1,1.9199803E0,2.0314891E0,6.672762E-1,1.1350696E0,1.5451401E0,9.792143E-1,4.031553E-1,1.9298516E-1,7.751469E-1,9.5072764E-1,1.9756798E0,5.538136E-1,-4.0102234E-1,1.2289968E0,3.448086E-1,5.6424063E-1,1.1769536E0,1.3579214E-1,5.0537974E-1,-3.4182918E-1,1.7321433E-1,-8.7045205E-1,-2.047398E-1,1.7687542E0,1.3386468E0,9.119345E-1,-4.6201488E-1,2.4414682E-1,1.3506988E0,3.3366558E-1,1.5824851E0,2.7248022E-1,1.1779717E0,2.3639598E0,5.794851E-1,3.7147525E-1,1.385184E0,1.838437E0,1.183031E0,3.766648E0,3.7423515E-1,2.9632766E0,1.1503135E0,2.236088E0,2.727741E0,2.0853E0,7.1804947E-1,4.0498516E-1,1.6129427E0,2.4406694E-1,1.1789341E0,2.512351E-1,2.6204898E0,3.5875802E0,6.3323516E-1,1.9278958E0,2.9951148E0,4.6914688E-1,2.008947E0,5.6197625E-1,-1.1751485E-1,2.8080857E-1,2.0469117E0,3.0027418E0,2.6248512E-1,2.735357E0,-6.837649E-1],"split_indices":[7,7,7,7,12,12,7,7,12,7,17,18,9,7,7,12,12,7,17,9,9,7,14,7,10,7,7,9,9,12,12,7,0,7,17,9,9,7,9,7,13,9,17,9,9,9,7,9,10,9,13,13,12,9,9,12,18,9,18,17,9,17,18,0,12,0,0,0,9,16,0,2,18,17,9,7,12,13,10,17,10,7,7,2,13,13,7,12,7,7,15,10,9,17,9,12,9,12,7,13,13,7,0,14,0,7,7,7,7,0,9,10,13,0,12,6,18,0,12,2,13,0,0,0,0,0,1,12,7,12,18,7,7,9,0,17,0,7,4,17,4,13,13,6,0,12,14,9,13,9,4,0,1,17,14,9,6,6,0,17,18,7,0,14,9,1,14,10,9,14,9,1,10,7,4,17,0,12,9,7,18,16,16,7,13,0,7,1,13,7,14,7,17,9,0,0,0,9,17,10,2,0,13,0,10,0,0,10,10,7,13,12,12,17,16,12,0,0,7,17,0,0,0,0,12,0,0,0,0,0,0,0,0,0,0,0,0,0,0,0,0,0,0,0,0,0,0,0,0,0,0,0,0,0,0,0,0,0,0,0,0,0,0,0,0,0,0,0,0,0,0,0,0,0,0,0,0,0,0,0,0,0,0,0,0,0,0,0,0,0,0,0,0,0,0,0,0,0,0,0,0,0,0,0,0,0,0,0,0,0,0,0,0,0,0,0,0,0,0,0,0,0,0,0,0,0,0,0,0,0,0,0,0,0,0,0,0,0,0,0,0,0,0,0,0,0,0,0,0,0,0,0,0,0,0,0,0,0,0,0,0,0,0,0,0,0,0,0,0,0,0,0,0,0,0,0,0,0,0,0,0,0,0,0,0,0,0,0,0,0,0,0,0,0,0,0,0],"split_type":[0,0,0,0,0,0,0,0,0,0,0,0,0,0,0,0,0,0,0,0,0,0,0,0,0,0,0,0,0,0,0,0,0,0,0,0,0,0,0,0,0,0,0,0,0,0,0,0,0,0,0,0,0,0,0,0,0,0,0,0,0,0,0,0,0,0,0,0,0,0,0,0,0,0,0,0,0,0,0,0,0,0,0,0,0,0,0,0,0,0,0,0,0,0,0,0,0,0,0,0,0,0,0,0,0,0,0,0,0,0,0,0,0,0,0,0,0,0,0,0,0,0,0,0,0,0,0,0,0,0,0,0,0,0,0,0,0,0,0,0,0,0,0,0,0,0,0,0,0,0,0,0,0,0,0,0,0,0,0,0,0,0,0,0,0,0,0,0,0,0,0,0,0,0,0,0,0,0,0,0,0,0,0,0,0,0,0,0,0,0,0,0,0,0,0,0,0,0,0,0,0,0,0,0,0,0,0,0,0,0,0,0,0,0,0,0,0,0,0,0,0,0,0,0,0,0,0,0,0,0,0,0,0,0,0,0,0,0,0,0,0,0,0,0,0,0,0,0,0,0,0,0,0,0,0,0,0,0,0,0,0,0,0,0,0,0,0,0,0,0,0,0,0,0,0,0,0,0,0,0,0,0,0,0,0,0,0,0,0,0,0,0,0,0,0,0,0,0,0,0,0,0,0,0,0,0,0,0,0,0,0,0,0,0,0,0,0,0,0,0,0,0,0,0,0,0,0,0,0,0,0,0,0,0,0,0,0,0,0,0,0,0,0,0,0,0,0,0,0,0,0,0,0,0,0,0,0,0,0,0,0,0,0,0,0,0,0,0,0,0,0,0,0,0,0,0,0,0,0,0,0,0,0,0,0,0,0,0,0,0,0,0,0,0,0,0,0],"sum_hessian":[1.6047E4,1.1998E4,4.049E3,8.163E3,3.835E3,2.464E3,1.585E3,4.836E3,3.327E3,2.006E3,1.829E3,1.445E3,1.019E3,1.138E3,4.47E2,2.795E3,2.041E3,2.299E3,1.028E3,1.373E3,6.33E2,1.262E3,5.67E2,1.045E3,4E2,3.7E2,6.49E2,6.84E2,4.54E2,3.19E2,1.28E2,2.794E3,1E0,1.477E3,5.64E2,1.52E3,7.79E2,8.33E2,1.95E2,1.116E3,2.57E2,4.87E2,1.46E2,5.72E2,6.9E2,3.85E2,1.82E2,4.38E2,6.07E2,5.8E1,3.42E2,2.14E2,1.56E2,2.03E2,4.46E2,2.43E2,4.41E2,3.04E2,1.5E2,4.2E1,2.77E2,1.5E1,1.13E2,1.83E3,9.64E2,7.14E2,7.63E2,3.95E2,1.69E2,1.73E2,1.347E3,6.99E2,8E1,4.85E2,3.48E2,1.27E2,6.8E1,5.34E2,5.82E2,8E1,1.77E2,1.91E2,2.96E2,1.3E1,1.33E2,1.09E2,4.63E2,1.27E2,5.63E2,3.6E2,2.5E1,8.4E1,9.8E1,1.21E2,3.17E2,1.43E2,4.64E2,2.9E1,2.9E1,2.08E2,1.34E2,1.46E2,6.8E1,8.7E1,6.9E1,1.45E2,5.8E1,1.88E2,2.58E2,2E0,2.41E2,3.92E2,4.9E1,1.13E2,1.91E2,1.24E2,2.6E1,1.7E1,2.5E1,2.02E2,7.5E1,1.2E1,3E0,1.12E2,1E0,9.42E2,2.2E1,5.5E1,1.14E2,5E0,1.68E2,1.298E3,4.9E1,6.97E2,2E0,1.3E1,6.7E1,4.03E2,8.2E1,7.4E1,2.74E2,9E1,3.7E1,6.5E1,3E0,5.24E2,1E1,2.77E2,3.05E2,6.9E1,1.1E1,1E0,1.76E2,1.13E2,7.8E1,2.08E2,8.8E1,9E0,4E0,2.9E1,1.04E2,1.08E2,1E0,1.41E2,3.22E2,9.2E1,3.5E1,3.44E2,2.19E2,1.99E2,1.61E2,6E0,1.9E1,8E1,4E0,9.6E1,2E0,5.2E1,6.9E1,2.13E2,1.04E2,6E0,1.37E2,3.91E2,7.3E1,3E0,2.6E1,5E0,2.4E1,5.2E1,1.56E2,9E1,4.4E1,9.5E1,5.1E1,3E0,8.4E1,4.1E1,1.04E2,3.6E1,2.2E1,9.6E1,9.2E1,7.9E1,1.79E2,1E0,1E0,6.2E1,1.79E2,2.55E2,1.37E2,1.7E1,3.2E1,2.7E1,1.64E2,1.22E2,2E0,2.1E1,5E0,1.2E1,1.3E1,2.01E2,1E0,6.2E1,1.3E1,1.1E1,1E0,1E0,2E0,1.9E1,3E0,3.4E1,2.1E1,9.9E1,1.5E1,1E0,4E0,1.63E2,5E0,8.88E2,4.1E2,2E0,4.7E1,1.03E2,5.94E2,1E0,1E0,9E0,4E0,2.44E2,1.59E2,6E0,7.6E1,4E1,3.4E1,2E0,2.72E2,7.8E1,1.2E1,9E0,2.8E1,6.4E1,1E0,2E0,1E0,3.3E2,1.94E2,4E0,6E0,9.2E1,1.85E2,2.53E2,5.2E1,6.8E1,1E0,1E0,1E1,2.5E1,1.51E2,7.8E1,3.5E1,7.6E1,2E0,7.4E1,1.34E2,6.5E1,2.3E1,3E0,6E0,2.2E1,7E0,4.3E1,6.1E1,2.1E1,8.7E1,1.03E2,3.8E1,2.05E2,1.17E2,8.9E1,3E0,2.8E1,7E0,3.21E2,2.3E1,8.4E1,1.35E2,8.7E1,1.12E2,1.29E2,3.2E1,1E0,5E0,1.2E1,7E0,4E1,4E1,2E0,2E0,3.4E1,6.2E1,1.8E1,3.4E1,2.5E1,4.4E1,1.4E2,7.3E1,2.9E1,7.5E1,4E0,2E0,1.33E2,4E0,2.21E2,1.7E2,3.6E1,3.7E1,1E0,2E0,3E0,2.3E1,2E0,3E0,1.9E1,5E0,2.5E1,2.7E1,6.9E1,8.7E1,5.4E1,3.6E1,3.8E1,6E0,5.9E1,3.6E1,4E1,1E0,2E0,1.02E2,3.5E1,1E0,2E0,2E1,9.1E1,1E0,5E0,7.4E1,1.63E2,1.6E1,6.1E1,1E0,1.77E2,2E0,9.7E1,1.58E2,1.25E2,1.2E1,1E0,1.6E1,2E1,1.2E1,1E0,2.6E1,1.63E2,1E0,1.2E1,1.1E2,2E0,1.9E1,4E0,1E0,5E0,7E0,1.2E1,1E0,1.2E1,1E0],"tree_param":{"num_deleted":"0","num_feature":"19","num_nodes":"397","size_leaf_vector":"1"}},{"base_weights":[8.22023E-2,-1.2608771E1,3.4148193E1,-1.8265694E1,-1.8576456E0,2.0928343E1,5.3094563E1,-2.0108547E1,-1.1545711E1,-8.085578E0,7.0011353E0,4.372903E0,2.5689362E1,4.219777E1,6.491793E1,-2.2563208E1,-1.7284342E1,-6.2519684E0,-1.5156305E1,-3.1149948E0,-1.4803355E1,2.3476708E0,1.5420352E1,1.4005598E1,-5.3418703E0,1.9172466E1,4.092147E1,3.6272823E1,5.7108013E1,5.7566673E1,7.726641E1,-2.3773027E1,-2.1504599E1,-1.8645197E1,-1.5362524E1,-9.918782E0,-2.5557215E0,-1.8920137E1,-1.0431994E1,-7.3939395E0,7.908907E0,-2.926349E0,-1.678862E1,8.261034E0,-4.9990036E-2,1.9467808E1,-1.1045353E-1,-2.5107446E0,2.0418682E1,-1.162874E1,2.388547E0,1.1898475E1,2.4414776E1,3.0728819E1,5.234686E1,4.371543E1,2.447576E1,6.104022E1,4.134246E1,8.229777E1,5.4207783E1,7.938627E1,5.722447E1,-1.2172512E0,-2.2519194E1,-1.8426987E1,-2.1928913E1,-1.9565504E1,-1.657179E1,-8.858393E0,-1.6244295E1,-1.4359558E1,-5.893962E0,6.837141E0,-5.5543895E0,-1.5998929E1,-2.0206114E1,-1.2554153E1,-7.189485E0,-9.474092E0,-3.553103E0,4.5729E0,2.0290403E1,-6.03507E0,2.4625484E1,-1.3015068E1,-2.101232E1,5.9038305E0,1.91254E1,1.4760649E0,-7.481846E0,1.4995153E1,3.405059E1,3.6686066E1,-4.3804917E0,-1.6031952E1,2.6907644E-1,8.444476E0,2.5072239E1,-9.005872E0,-2.0033716E1,1.8287739E1,-8.423776E-1,6.6031294E0,1.7619564E1,2.9442696E1,1.5731078E1,1.2242488E1,3.4201057E1,4.216842E1,5.7651787E1,4.7323185E1,2.989458E1,2.9766588E1,8.865786E0,6.6641525E1,5.2355133E1,4.3526974E1,2.0620275E0,1.0026534E0,8.297828E1,4.3626064E1,5.8871323E1,7.982299E1,1.1727082E1,6.519972E1,-2.0719647E0,-2.272955E1,-1.0317418E1,1.8279491E1,-1.9205786E1,-2.259584E1,-2.0225067E1,-1.9836288E1,-1.4741053E1,-1.4796541E1,-1.8780272E1,1.4496875E1,-1.0547824E1,-1.6953785E1,-1.247637E1,-1.6364294E1,-1.0344257E1,-9.256003E0,-2.7553499E0,2.9408834E0,2.1561604E1,-1.0469629E1,-2.4899378E0,-2.139955E0,-1.675102E1,-2.1250668E1,-1.7520914E1,-3.8067188E0,-1.3373175E1,-3.6579561E0,-1.0027967E1,-1.09129305E1,-7.362049E0,2.3112345E0,-5.732469E0,1.0338494E1,-9.990134E-1,2.542765E1,-2.1688902E0,-1.2155144E1,1.0707413E0,3.0814672E0,-3.937645E-2,-1.3834298E1,1.2211058E1,-2.248773E1,-1.8948074E1,1.3285642E1,2.6129537E0,1.0648544E1,2.4885374E1,-3.0867677E0,3.2621953E0,2.373319E0,-8.26965E0,2.0686213E1,8.116691E0,5.722256E1,2.9199556E1,8.9694595E-1,4.3111637E1,5.0356E0,-7.7311215E0,-9.7652763E-1,-5.828363E0,-5.575402E0,8.052745E0,-1.2456963E0,1.754966E1,2.8860704E1,1.2722046E1,-1.0579998E1,4.005543E0,-2.0752377E1,1.4595138E-1,8.680642E0,2.5570267E1,4.0820374E0,-6.5227327E0,9.420479E0,-5.472954E-1,1.1924902E1,2.5481379E1,2.416742E1,3.5925495E1,1.92261E1,2.4881642E0,2.0736753E1,2.239212E0,2.7588015E1,3.856102E1,2.3937075E1,4.7303276E1,5.8732826E1,7.6363177E0,3.6744633E1,5.0030903E1,1.1552984E1,3.444595E1,2.3423307E1,3.421853E1,1.2073319E1,-8.852644E0,6.272903E1,8.619685E1,5.6690342E1,2.7766766E1,3.8548473E1,6.671248E1,4.6004063E-1,-4.838582E-1,2.5400593E0,4.2759333E0,5.191932E1,3.185469E1,6.555272E1,4.940311E1,8.096948E1,5.563023E1,5.4954577E-2,8.2457656E-1,3.3276508E0,6.488573E-1,-7.385912E-1,5.6592745E-1,-1.1395513E0,-2.7506456E-1,-8.964998E-1,6.7109656E-1,4.152267E0,-9.336652E-1,-1.0022485E0,-4.200368E-1,-1.1329633E0,-8.288889E-1,-1.0166682E0,1.0918938E-1,-9.3898565E-1,-1.0296428E0,-9.444701E-1,6.354403E-1,-7.618589E-1,2.534308E-1,-7.9495385E-2,-9.663736E-1,-6.36284E-1,2.9256065E0,-5.7402056E-1,1.684556E0,-9.1438574E-1,-7.996012E-1,8.8004076E-1,-6.4738065E-1,1.3694859E-1,-8.380912E-1,-1.4825514E-1,-6.144683E-1,-5.479406E-1,1.675155E-1,6.296819E-2,-4.7794962E-1,-5.898485E-1,1.9149698E-1,6.427795E-1,1.6081127E0,-7.6903015E-1,-3.3336696E-1,-3.0084854E-1,8.7381065E-2,-5.464191E-1,4.4170734E-1,-8.4815085E-1,4.3981057E-1,-2.9172525E-1,-1.0791992E0,-9.0877736E-1,6.052178E-1,8.5045475E-1,-3.236103E-1,-6.0328066E-1,-8.6911994E-1,-5.9435993E-1,-4.499387E-2,-5.710882E-1,-2.2199295E-1,-4.7066194E-1,-7.671886E-1,-4.5677835E-1,-1.9355772E-1,-1.03150465E-1,4.1886973E-1,-1.1533048E-1,-4.3206832E-1,3.4106252E-1,1.0216522E0,-1.6245069E-1,8.728407E-1,-3.3919986E-2,1.3561428E0,7.1165484E-1,-4.411156E-1,-6.563771E-1,3.707202E-1,7.4635905E-1,-2.6995078E-1,7.0401645E-1,-5.8996177E-1,-8.393259E-1,-3.7950644E-1,-2.8097787E-1,1.9946787E0,-6.595389E-1,-1.1445394E0,-1.7929931E-1,-9.5968705E-1,3.6265418E-1,9.643453E-1,-8.171166E-2,3.4631118E-1,7.5359845E-1,1.4742768E-1,1.6138159E0,4.9387208E-1,-2.7559325E-1,8.088207E-2,1.2870178E-1,8.746335E-1,-6.456387E-1,-1.8554997E-1,9.5286953E-1,2.3321843E0,4.6880737E-1,-7.730766E-2,3.2069566E0,1.3205829E0,1.1788893E0,2.8430457E0,-2.9198933E-1,3.592603E-1,1.027608E0,2.4501212E0,5.422532E-1,-1.1892172E-1,-4.6931943E-1,3.4608912E-1,-3.9685974E-1,-8.8837214E-2,-3.7338784E-1,6.661365E-1,-6.279493E-1,4.9867734E-1,-3.1399536E-1,4.0103298E-1,1.2869264E0,2.1156715E-1,1.1282101E0,1.7489575E0,-2.2156751E-1,1.0074844E0,-6.4525E-1,-1.2860528E-1,-2.2380908E-1,1.316445E0,-3.6107725E-1,-1.0667956E0,5.987501E-1,-6.06574E-1,3.8035718E-1,1.4201088E0,-3.6029938E-1,3.5587028E-1,-4.4088107E-1,4.5809695E-1,2.5611028E-1,6.564476E-1,-3.140525E-1,2.5356022E-1,6.389926E-1,-4.6601757E-1,1.3351215E0,-3.7274018E-1,9.3347645E-1,1.5473446E0,1.9745291E0,1.4114404E0,4.7138253E-1,1.0638834E0,4.462026E-1,-1.7265163E-1,1.3992504E0,1.1627167E-1,9.133615E-1,-1.8918501E-1,1.7154006E0,1.070811E0,1.4267658E0,1.9939946E0,2.3462425E-1,1.3775685E0,2.5154436E0,1.4318295E0,2.9517062E0,1.3508259E-1,-2.1828146E-1,1.3911027E0,2.542185E0,1.4381654E0,2.0874388E0,2.6373003E0,1.5753312E0,2.0657861E-1,1.8780323E0,6.000851E-1,2.5312135E-1,1.2260654E0,2.0017185E0,1.2599902E0,1.366024E-2,8.4796935E-1,-8.234219E-1,1.7899974E-1,1.6581601E0,3.1926603E0,4.5186157E0,3.8035232E-1,2.9063115E0,8.6948854E-1,1.7237749E0,3.4943845E-2,2.1455967E0,1.2754855E0,3.742211E0,1.4105748E0,6.8669504E-1,2.6559794E0,1.7022921E0,8.199393E-1,2.9861388E0,3.6286976E0,2.5871043E0,1.4649354E0,3.8552754E0,4.393725E0,2.881198E0,6.4310735E-1],"categories":[],"categories_nodes":[],"categories_segments":[],"categories_sizes":[],"default_left":[0,0,0,0,0,0,0,0,0,0,0,0,0,0,0,0,0,0,0,0,0,0,0,0,0,0,0,0,0,0,0,0,0,0,0,0,0,0,0,0,0,0,0,0,0,0,0,0,0,0,0,0,0,0,0,0,0,0,0,0,0,0,0,0,0,0,0,0,0,0,0,0,0,0,0,0,0,0,0,0,0,0,0,0,0,0,0,0,0,0,0,0,0,0,0,0,0,0,0,0,0,0,0,0,0,0,0,0,0,0,0,0,0,0,0,0,0,0,0,0,0,0,0,0,0,0,0,0,0,0,0,0,0,0,0,0,0,0,0,0,0,0,0,0,0,0,0,0,0,0,0,0,0,0,0,0,0,0,0,0,0,0,0,0,0,0,0,0,0,0,0,0,0,0,0,0,0,0,0,0,0,0,0,0,0,0,0,0,0,0,0,0,0,0,0,0,0,0,0,0,0,0,0,0,0,0,0,0,0,0,0,0,0,0,0,0,0,0,0,0,0,0,0,0,0,0,0,0,0,0,0,0,0,0,0,0,0,0,0,0,0,0,0,0,0,0,0,0,0,0,0,0,0,0,0,0,0,0,0,0,0,0,0,0,0,0,0,0,0,0,0,0,0,0,0,0,0,0,0,0,0,0,0,0,0,0,0,0,0,0,0,0,0,0,0,0,0,0,0,0,0,0,0,0,0,0,0,0,0,0,0,0,0,0,0,0,0,0,0,0,0,0,0,0,0,0,0,0,0,0,0,0,0,0,0,0,0,0,0,0,0,0,0,0,0,0,0,0,0,0,0,0,0,0,0,0,0,0,0,0,0,0,0,0,0,0,0,0,0,0,0,0,0,0,0,0,0,0,0,0,0,0,0,0,0,0,0,0,0,0,0,0,0,0,0,0,0,0,0,0,0,0,0,0,0,0,0,0,0,0,0,0,0,0,0,0,0,0,0,0,0,0,0,0,0,0,0,0,0,0,0,0,0,0,0,0,0,0,0,0,0,0,0,0,0,0,0,0,0,0,0,0,0,0,0,0,0,0,0,0,0,0,0,0,0,0,0,0,0,0,0],"id":1,"left_children":[1,3,5,7,9,11,13,15,17,19,21,23,25,27,29,31,33,35,37,39,41,43,45,47,49,51,53,55,57,59,61,63,65,67,69,71,73,75,77,79,81,83,85,87,89,91,93,95,97,99,101,103,105,107,109,111,113,115,117,119,121,123,125,-1,127,129,131,133,135,137,139,141,143,145,147,149,151,153,155,157,159,161,163,165,167,169,171,173,175,177,179,181,183,185,187,189,191,193,195,197,199,201,203,205,207,209,211,213,215,217,219,221,223,225,227,229,231,233,235,-1,237,239,241,243,245,247,249,251,253,255,257,259,261,263,265,267,269,271,273,275,277,279,281,283,285,287,289,291,293,295,297,299,301,303,305,307,309,311,313,315,317,319,321,323,325,327,329,-1,331,333,335,337,339,341,343,345,347,349,351,-1,353,355,357,359,361,363,365,367,369,-1,371,373,375,377,379,381,383,385,387,389,-1,391,393,395,397,399,401,403,405,407,409,411,413,415,417,419,421,423,425,427,429,431,433,435,437,439,441,443,445,447,449,451,453,455,457,-1,-1,-1,-1,459,461,463,465,467,469,-1,-1,-1,-1,-1,-1,-1,-1,-1,-1,-1,-1,-1,-1,-1,-1,-1,-1,-1,-1,-1,-1,-1,-1,-1,-1,-1,-1,-1,-1,-1,-1,-1,-1,-1,-1,-1,-1,-1,-1,-1,-1,-1,-1,-1,-1,-1,-1,-1,-1,-1,-1,-1,-1,-1,-1,-1,-1,-1,-1,-1,-1,-1,-1,-1,-1,-1,-1,-1,-1,-1,-1,-1,-1,-1,-1,-1,-1,-1,-1,-1,-1,-1,-1,-1,-1,-1,-1,-1,-1,-1,-1,-1,-1,-1,-1,-1,-1,-1,-1,-1,-1,-1,-1,-1,-1,-1,-1,-1,-1,-1,-1,-1,-1,-1,-1,-1,-1,-1,-1,-1,-1,-1,-1,-1,-1,-1,-1,-1,-1,-1,-1,-1,-1,-1,-1,-1,-1,-1,-1,-1,-1,-1,-1,-1,-1,-1,-1,-1,-1,-1,-1,-1,-1,-1,-1,-1,-1,-1,-1,-1,-1,-1,-1,-1,-1,-1,-1,-1,-1,-1,-1,-1,-1,-1,-1,-1,-1,-1,-1,-1,-1,-1,-1,-1,-1,-1,-1,-1,-1,-1,-1,-1,-1,-1,-1,-1,-1,-1,-1,-1,-1,-1,-1,-1,-1,-1,-1,-1,-1,-1,-1,-1,-1,-1,-1,-1,-1,-1,-1,-1,-1,-1,-1,-1,-1],"loss_changes":[6.967006E6,7.140334E5,1.0944365E6,9.503775E4,2.2344758E5,2.030875E5,2.287805E5,4.145425E4,3.1595531E4,7.935833E4,6.5470305E4,5.4070156E4,1.97946E5,8.079375E4,7.362025E4,3.6205E3,7.065125E3,9.109674E3,1.7317406E4,6.4587945E4,2.378925E4,1.5284557E4,3.7403984E4,3.076827E4,1.4024613E4,5.3247562E4,6.8148E4,5.8107875E4,1.39046875E4,4.0645375E4,8.967625E3,5.246875E2,1.856375E3,2.807125E3,6.572E3,5.956551E3,9.529943E3,1.7315938E3,2.9305547E3,7.8440117E3,1.5726936E4,1.2653657E4,1.3529156E4,7.8516465E3,8.721255E3,3.0275016E4,1.9643898E4,3.0864097E3,1.1434305E4,3.3247559E3,6.693386E3,1.775779E4,3.51205E4,2.0057594E4,1.274175E4,1.91285E4,2.1457188E4,6.727E3,4.7155312E3,1.004625E3,2.1168125E4,7.485125E3,1.6213836E4,0E0,1.0026406E3,6.5258516E3,1.2656875E3,1.1851562E3,1.7255469E3,5.7558193E3,2.5419375E3,1.1186562E3,1.8633301E3,4.640954E3,3.829935E3,1.7569414E3,6.8228125E2,1.8404727E3,1.7275742E3,1.8615078E3,4.4608755E3,9.744322E3,9.400844E3,5.7534424E3,1.3692851E4,9.675297E3,8.134531E2,6.20849E3,2.420463E3,5.2096514E3,6.06332E3,1.4042E4,1.0694016E4,2.9508848E3,3.572513E3,3.8594482E2,3.1838093E3,5.31571E3,6.651078E3,2.5616172E3,6.709004E2,1.3172407E3,3.0756208E3,6.2098926E3,1.2366164E4,1.6744E4,1.3883727E4,4.3720303E3,6.6633125E3,8.229234E3,9.392E3,7.4708125E3,6.9482266E3,4.7335312E3,3.9714878E3,4.08025E3,7.6997344E3,3.5460781E3,4.2425204E2,0E0,7.2353125E2,1.3087219E4,1.7700875E4,3.34525E3,1.3378387E2,1.2565078E3,1.0174839E3,3.7559375E2,2.0478317E3,1.3517125E4,1.7538984E3,3.69375E1,1.1025156E3,4.6696875E2,7.5278457E3,2.5981836E3,2.0763438E3,1.2726683E4,5.8739307E3,8.16E2,2.5948926E3,8.4329297E2,7.6734326E2,1.8828037E3,2.579618E3,9.0996515E2,1.1554551E3,1.7274014E3,2.386931E3,1.0609938E3,1.0320039E3,1.2408984E3,2.3726992E3,1.4417092E3,1.053668E3,1.8050547E3,7.04791E2,2.367332E3,1.5867197E3,2.538095E3,2.5112979E3,5.150867E3,6.4931875E3,2.9392344E3,1.871638E3,1.4484199E3,5.638756E3,0E0,1.8265946E3,8.0942266E3,7.6281284E3,5.6740625E2,5.953828E2,2.7201475E3,3.2904673E3,7.7300757E2,3.2307227E3,2.0624731E3,4.4498867E3,0E0,2.70371E3,7.482547E3,2.034706E3,2.1418828E3,1.3121383E4,1.6904703E2,4.547168E2,1.3179414E3,2.0780913E3,0E0,2.8618515E1,1.5299695E3,1.3129889E3,1.4498328E3,3.2720107E3,3.6025469E3,4.803434E3,2.0148281E3,2.7686208E3,1.3016699E2,0E0,8.9946326E2,3.943794E2,2.072823E3,1.9165093E3,3.455498E3,2.8667812E3,3.1342715E3,4.944617E3,1.0119531E4,5.1688438E3,4.5837266E3,2.477975E3,3.6715215E3,2.4825012E3,3.8274375E3,9.6440625E2,1.5400498E3,2.8793594E3,2.8455625E3,1.3328013E3,6.414617E3,3.5545625E3,2.6834277E3,4.442703E3,1.5693203E3,4.9181562E3,3.3394238E3,1.1004854E3,1.4387812E3,5.219203E3,3.1086406E3,2.6997754E3,1.5224531E3,3.9317188E2,0E0,0E0,0E0,0E0,3.2579062E3,1.643E3,3.484E3,5.114375E3,3.74875E2,6.231211E2,0E0,0E0,0E0,0E0,0E0,0E0,0E0,0E0,0E0,0E0,0E0,0E0,0E0,0E0,0E0,0E0,0E0,0E0,0E0,0E0,0E0,0E0,0E0,0E0,0E0,0E0,0E0,0E0,0E0,0E0,0E0,0E0,0E0,0E0,0E0,0E0,0E0,0E0,0E0,0E0,0E0,0E0,0E0,0E0,0E0,0E0,0E0,0E0,0E0,0E0,0E0,0E0,0E0,0E0,0E0,0E0,0E0,0E0,0E0,0E0,0E0,0E0,0E0,0E0,0E0,0E0,0E0,0E0,0E0,0E0,0E0,0E0,0E0,0E0,0E0,0E0,0E0,0E0,0E0,0E0,0E0,0E0,0E0,0E0,0E0,0E0,0E0,0E0,0E0,0E0,0E0,0E0,0E0,0E0,0E0,0E0,0E0,0E0,0E0,0E0,0E0,0E0,0E0,0E0,0E0,0E0,0E0,0E0,0E0,0E0,0E0,0E0,0E0,0E0,0E0,0E0,0E0,0E0,0E0,0E0,0E0,0E0,0E0,0E0,0E0,0E0,0E0,0E0,0E0,0E0,0E0,0E0,0E0,0E0,0E0,0E0,0E0,0E0,0E0,0E0,0E0,0E0,0E0,0E0,0E0,0E0,0E0,0E0,0E0,0E0,0E0,0E0,0E0,0E0,0E0,0E0,0E0,0E0,0E0,0E0,0E0,0E0,0E0,0E0,0E0,0E0,0E0,0E0,0E0,0E0,0E0,0E0,0E0,0E0,0E0,0E0,0E0,0E0,0E0,0E0,0E0,0E0,0E0,0E0,0E0,0E0,0E0,0E0,0E0,0E0,0E0,0E0,0E0,0E0,0E0,0E0,0E0,0E0,0E0,0E0,0E0,0E0,0E0,0E0,0E0,0E0,0E0,0E0,0E0,0E0,0E0,0E0,0E0,0E0,0E0,0E0,0E0,0E0,0E0,0E0,0E0,0E0,0E0,0E0,0E0,0E0],"parents":[2147483647,0,0,1,1,2,2,3,3,4,4,5,5,6,6,7,7,8,8,9,9,10,10,11,11,12,12,13,13,14,14,15,15,16,16,17,17,18,18,19,19,20,20,21,21,22,22,23,23,24,24,25,25,26,26,27,27,28,28,29,29,30,30,31,31,32,32,33,33,34,34,35,35,36,36,37,37,38,38,39,39,40,40,41,41,42,42,43,43,44,44,45,45,46,46,47,47,48,48,49,49,50,50,51,51,52,52,53,53,54,54,55,55,56,56,57,57,58,58,59,59,60,60,61,61,62,62,64,64,65,65,66,66,67,67,68,68,69,69,70,70,71,71,72,72,73,73,74,74,75,75,76,76,77,77,78,78,79,79,80,80,81,81,82,82,83,83,84,84,85,85,86,86,87,87,88,88,89,89,90,90,91,91,92,92,93,93,94,94,95,95,96,96,97,97,98,98,99,99,100,100,101,101,102,102,103,103,104,104,105,105,106,106,107,107,108,108,109,109,110,110,111,111,112,112,113,113,114,114,115,115,116,116,117,117,118,118,120,120,121,121,122,122,123,123,124,124,125,125,126,126,127,127,128,128,129,129,130,130,131,131,132,132,133,133,134,134,135,135,136,136,137,137,138,138,139,139,140,140,141,141,142,142,143,143,144,144,145,145,146,146,147,147,148,148,149,149,150,150,151,151,152,152,153,153,154,154,155,155,156,156,157,157,158,158,159,159,160,160,161,161,162,162,163,163,164,164,165,165,166,166,168,168,169,169,170,170,171,171,172,172,173,173,174,174,175,175,176,176,177,177,178,178,180,180,181,181,182,182,183,183,184,184,185,185,186,186,187,187,188,188,190,190,191,191,192,192,193,193,194,194,195,195,196,196,197,197,198,198,199,199,201,201,202,202,203,203,204,204,205,205,206,206,207,207,208,208,209,209,210,210,211,211,212,212,213,213,214,214,215,215,216,216,217,217,218,218,219,219,220,220,221,221,222,222,223,223,224,224,225,225,226,226,227,227,228,228,229,229,230,230,231,231,232,232,233,233,234,234,239,239,240,240,241,241,242,242,243,243,244,244],"right_children":[2,4,6,8,10,12,14,16,18,20,22,24,26,28,30,32,34,36,38,40,42,44,46,48,50,52,54,56,58,60,62,64,66,68,70,72,74,76,78,80,82,84,86,88,90,92,94,96,98,100,102,104,106,108,110,112,114,116,118,120,122,124,126,-1,128,130,132,134,136,138,140,142,144,146,148,150,152,154,156,158,160,162,164,166,168,170,172,174,176,178,180,182,184,186,188,190,192,194,196,198,200,202,204,206,208,210,212,214,216,218,220,222,224,226,228,230,232,234,236,-1,238,240,242,244,246,248,250,252,254,256,258,260,262,264,266,268,270,272,274,276,278,280,282,284,286,288,290,292,294,296,298,300,302,304,306,308,310,312,314,316,318,320,322,324,326,328,330,-1,332,334,336,338,340,342,344,346,348,350,352,-1,354,356,358,360,362,364,366,368,370,-1,372,374,376,378,380,382,384,386,388,390,-1,392,394,396,398,400,402,404,406,408,410,412,414,416,418,420,422,424,426,428,430,432,434,436,438,440,442,444,446,448,450,452,454,456,458,-1,-1,-1,-1,460,462,464,466,468,470,-1,-1,-1,-1,-1,-1,-1,-1,-1,-1,-1,-1,-1,-1,-1,-1,-1,-1,-1,-1,-1,-1,-1,-1,-1,-1,-1,-1,-1,-1,-1,-1,-1,-1,-1,-1,-1,-1,-1,-1,-1,-1,-1,-1,-1,-1,-1,-1,-1,-1,-1,-1,-1,-1,-1,-1,-1,-1,-1,-1,-1,-1,-1,-1,-1,-1,-1,-1,-1,-1,-1,-1,-1,-1,-1,-1,-1,-1,-1,-1,-1,-1,-1,-1,-1,-1,-1,-1,-1,-1,-1,-1,-1,-1,-1,-1,-1,-1,-1,-1,-1,-1,-1,-1,-1,-1,-1,-1,-1,-1,-1,-1,-1,-1,-1,-1,-1,-1,-1,-1,-1,-1,-1,-1,-1,-1,-1,-1,-1,-1,-1,-1,-1,-1,-1,-1,-1,-1,-1,-1,-1,-1,-1,-1,-1,-1,-1,-1,-1,-1,-1,-1,-1,-1,-1,-1,-1,-1,-1,-1,-1,-1,-1,-1,-1,-1,-1,-1,-1,-1,-1,-1,-1,-1,-1,-1,-1,-1,-1,-1,-1,-1,-1,-1,-1,-1,-1,-1,-1,-1,-1,-1,-1,-1,-1,-1,-1,-1,-1,-1,-1,-1,-1,-1,-1,-1,-1,-1,-1,-1,-1,-1,-1,-1,-1,-1,-1,-1,-1,-1,-1,-1,-1,-1,-1,-1],"split_conditions":[4.098E1,1.74E1,6.305E1,1.62E1,2.112E1,1.775E1,8.14E1,6.07E0,1.04E1,5.173E1,4.408E1,8.65E0,5.033E1,9.595E1,1.0255E2,3.77E0,8.88E0,8.3E0,9.4E0,4.1E1,1.643E1,1.328E1,5.24E1,5.033E1,1.115E1,3.908E1,7.588E1,5.042E1,5.593E1,4.223E1,9.415E1,5.3E0,3.39E1,1.13E1,5.88E0,5.352E1,7.1E0,2.76E1,3.288E1,2.852E1,7.588E1,9.535E1,8.41E1,3.402E1,4.742E1,8.14E1,8.88E0,3.72E0,6.88E0,6.805E1,7.97E0,3.392E1,4.223E1,4.375E1,6.108E1,5.173E1,4.065E1,7.005E1,3.42E0,-5.14E0,7.588E1,7.765E1,4.125E1,-1.2172512E0,1.3682E2,3.82E0,7.5E0,1.0255E2,5.097E1,1.725E1,1.418E1,6.78E0,5.32E0,8.05E1,4.188E1,2.25E0,6.67E0,-3.03E0,4.095E1,2.965E1,2.8E1,3.035E1,4.158E1,2.633E1,7.75E0,8.112E1,5.45E0,1.393E1,9.53E0,2.675E1,7.75E0,5.115E1,2.15E1,6.06E1,4.1E1,4.25E0,4.185E1,8.893E1,8.43E0,1.4334E2,2.473E1,6.25E0,5.58E1,2.942E1,3.417E1,6.805E1,3.667E1,5.593E1,5.803E1,3.217E1,5.735E1,5.458E1,4.97E1,7.347E1,7.31E1,1.259E2,2.01E0,1.3195E2,5.8E-1,1.0026534E0,2.75E0,6.035E1,8.14E1,2.1606E2,1.3407E2,3.742E1,9.231E1,1.098E2,1.02E1,1.083E1,3.26E1,1.3195E2,1.645E2,5.097E1,9.432E1,6.337E1,4.55E0,1.99E1,1.207E2,9.12E0,7.75E0,1.643E1,3.48E0,1.1015E2,6.17E0,3.42E0,1.1E1,1.218E1,2.555E1,3.62E0,1.3682E2,-3.71E0,1.9959E2,1.227E1,4.252E1,2E1,8.05E1,3.315E1,1.35E1,9.93E0,2.665E1,2.888E1,4.775E1,1.645E1,1.23E1,1.202E2,5.967E1,3.0814672E0,1.0707E2,5.593E1,1.632E1,3.18E1,5.53E0,2.075E1,2.552E1,6.342E1,1.215E1,3.508E1,6.38E1,2.373319E0,3.15E1,5.352E1,4.473E1,6.24E1,1.1253E2,8.161E1,5.53E0,7.803E1,1.0488E2,-9.7652763E-1,1.387E1,1.526E2,2.243E1,1.543E1,1.226E2,6.82E1,1.07E1,2.37E0,7.347E1,6.7E0,1.4595138E-1,8.44E1,5.22E0,1.645E1,1.643E1,1.748E1,3.085E1,5.66E1,6.24E1,5.042E1,4.68E1,4.9E1,6.398E1,3.695E1,2.215E1,4.99E1,2.117E1,5.033E1,5.135E1,9.753E1,4.1E1,1.18E1,7.005E1,3.417E1,7.31E1,1.075E1,2.665E1,3.55E1,7.207E1,4.742E1,3.45E0,5.097E1,1.202E2,8.893E1,5.803E1,4.6004063E-1,-4.838582E-1,2.5400593E0,4.2759333E0,1.41E1,3.27E0,8.688E1,9.415E1,1.259E2,6.525E1,5.4954577E-2,8.2457656E-1,3.3276508E0,6.488573E-1,-7.385912E-1,5.6592745E-1,-1.1395513E0,-2.7506456E-1,-8.964998E-1,6.7109656E-1,4.152267E0,-9.336652E-1,-1.0022485E0,-4.200368E-1,-1.1329633E0,-8.288889E-1,-1.0166682E0,1.0918938E-1,-9.3898565E-1,-1.0296428E0,-9.444701E-1,6.354403E-1,-7.618589E-1,2.534308E-1,-7.9495385E-2,-9.663736E-1,-6.36284E-1,2.9256065E0,-5.7402056E-1,1.684556E0,-9.1438574E-1,-7.996012E-1,8.8004076E-1,-6.4738065E-1,1.3694859E-1,-8.380912E-1,-1.4825514E-1,-6.144683E-1,-5.479406E-1,1.675155E-1,6.296819E-2,-4.7794962E-1,-5.898485E-1,1.9149698E-1,6.427795E-1,1.6081127E0,-7.6903015E-1,-3.3336696E-1,-3.0084854E-1,8.7381065E-2,-5.464191E-1,4.4170734E-1,-8.4815085E-1,4.3981057E-1,-2.9172525E-1,-1.0791992E0,-9.0877736E-1,6.052178E-1,8.5045475E-1,-3.236103E-1,-6.0328066E-1,-8.6911994E-1,-5.9435993E-1,-4.499387E-2,-5.710882E-1,-2.2199295E-1,-4.7066194E-1,-7.671886E-1,-4.5677835E-1,-1.9355772E-1,-1.03150465E-1,4.1886973E-1,-1.1533048E-1,-4.3206832E-1,3.4106252E-1,1.0216522E0,-1.6245069E-1,8.728407E-1,-3.3919986E-2,1.3561428E0,7.1165484E-1,-4.411156E-1,-6.563771E-1,3.707202E-1,7.4635905E-1,-2.6995078E-1,7.0401645E-1,-5.8996177E-1,-8.393259E-1,-3.7950644E-1,-2.8097787E-1,1.9946787E0,-6.595389E-1,-1.1445394E0,-1.7929931E-1,-9.5968705E-1,3.6265418E-1,9.643453E-1,-8.171166E-2,3.4631118E-1,7.5359845E-1,1.4742768E-1,1.6138159E0,4.9387208E-1,-2.7559325E-1,8.088207E-2,1.2870178E-1,8.746335E-1,-6.456387E-1,-1.8554997E-1,9.5286953E-1,2.3321843E0,4.6880737E-1,-7.730766E-2,3.2069566E0,1.3205829E0,1.1788893E0,2.8430457E0,-2.9198933E-1,3.592603E-1,1.027608E0,2.4501212E0,5.422532E-1,-1.1892172E-1,-4.6931943E-1,3.4608912E-1,-3.9685974E-1,-8.8837214E-2,-3.7338784E-1,6.661365E-1,-6.279493E-1,4.9867734E-1,-3.1399536E-1,4.0103298E-1,1.2869264E0,2.1156715E-1,1.1282101E0,1.7489575E0,-2.2156751E-1,1.0074844E0,-6.4525E-1,-1.2860528E-1,-2.2380908E-1,1.316445E0,-3.6107725E-1,-1.0667956E0,5.987501E-1,-6.06574E-1,3.8035718E-1,1.4201088E0,-3.6029938E-1,3.5587028E-1,-4.4088107E-1,4.5809695E-1,2.5611028E-1,6.564476E-1,-3.140525E-1,2.5356022E-1,6.389926E-1,-4.6601757E-1,1.3351215E0,-3.7274018E-1,9.3347645E-1,1.5473446E0,1.9745291E0,1.4114404E0,4.7138253E-1,1.0638834E0,4.462026E-1,-1.7265163E-1,1.3992504E0,1.1627167E-1,9.133615E-1,-1.8918501E-1,1.7154006E0,1.070811E0,1.4267658E0,1.9939946E0,2.3462425E-1,1.3775685E0,2.5154436E0,1.4318295E0,2.9517062E0,1.3508259E-1,-2.1828146E-1,1.3911027E0,2.542185E0,1.4381654E0,2.0874388E0,2.6373003E0,1.5753312E0,2.0657861E-1,1.8780323E0,6.000851E-1,2.5312135E-1,1.2260654E0,2.0017185E0,1.2599902E0,1.366024E-2,8.4796935E-1,-8.234219E-1,1.7899974E-1,1.6581601E0,3.1926603E0,4.5186157E0,3.8035232E-1,2.9063115E0,8.6948854E-1,1.7237749E0,3.4943845E-2,2.1455967E0,1.2754855E0,3.742211E0,1.4105748E0,6.8669504E-1,2.6559794E0,1.7022921E0,8.199393E-1,2.9861388E0,3.6286976E0,2.5871043E0,1.4649354E0,3.8552754E0,4.393725E0,2.881198E0,6.4310735E-1],"split_indices":[12,8,8,12,12,8,12,8,11,13,8,11,15,8,8,8,12,8,8,8,10,10,13,15,8,8,12,10,18,9,10,12,13,8,11,14,9,11,17,8,8,14,13,8,13,8,10,9,8,11,9,17,10,17,14,18,13,10,6,6,8,13,13,0,18,8,12,11,13,18,8,8,8,14,17,9,8,6,16,17,9,13,13,8,1,15,12,9,3,12,9,10,10,14,10,8,14,14,9,1,9,10,0,13,15,12,13,13,12,8,10,12,12,8,13,8,6,8,0,0,11,9,9,0,0,11,0,10,11,3,13,11,18,13,18,14,9,13,14,8,1,12,11,14,9,9,8,8,12,10,14,6,1,18,13,12,17,13,12,12,13,15,14,17,1,11,18,0,16,8,3,9,12,8,8,1,11,8,17,0,12,15,13,18,8,0,10,18,8,0,0,1,15,3,13,16,8,6,12,18,0,0,9,16,8,15,15,10,13,8,9,8,10,18,8,18,8,17,18,18,8,10,8,13,13,1,13,14,18,12,6,13,9,18,12,0,0,0,0,15,6,8,10,8,13,0,0,0,0,0,0,0,0,0,0,0,0,0,0,0,0,0,0,0,0,0,0,0,0,0,0,0,0,0,0,0,0,0,0,0,0,0,0,0,0,0,0,0,0,0,0,0,0,0,0,0,0,0,0,0,0,0,0,0,0,0,0,0,0,0,0,0,0,0,0,0,0,0,0,0,0,0,0,0,0,0,0,0,0,0,0,0,0,0,0,0,0,0,0,0,0,0,0,0,0,0,0,0,0,0,0,0,0,0,0,0,0,0,0,0,0,0,0,0,0,0,0,0,0,0,0,0,0,0,0,0,0,0,0,0,0,0,0,0,0,0,0,0,0,0,0,0,0,0,0,0,0,0,0,0,0,0,0,0,0,0,0,0,0,0,0,0,0,0,0,0,0,0,0,0,0,0,0,0,0,0,0,0,0,0,0,0,0,0,0,0,0,0,0,0,0,0,0,0,0,0,0,0,0,0,0,0,0,0,0,0,0,0,0,0,0,0,0,0,0,0,0,0,0,0,0],"split_type":[0,0,0,0,0,0,0,0,0,0,0,0,0,0,0,0,0,0,0,0,0,0,0,0,0,0,0,0,0,0,0,0,0,0,0,0,0,0,0,0,0,0,0,0,0,0,0,0,0,0,0,0,0,0,0,0,0,0,0,0,0,0,0,0,0,0,0,0,0,0,0,0,0,0,0,0,0,0,0,0,0,0,0,0,0,0,0,0,0,0,0,0,0,0,0,0,0,0,0,0,0,0,0,0,0,0,0,0,0,0,0,0,0,0,0,0,0,0,0,0,0,0,0,0,0,0,0,0,0,0,0,0,0,0,0,0,0,0,0,0,0,0,0,0,0,0,0,0,0,0,0,0,0,0,0,0,0,0,0,0,0,0,0,0,0,0,0,0,0,0,0,0,0,0,0,0,0,0,0,0,0,0,0,0,0,0,0,0,0,0,0,0,0,0,0,0,0,0,0,0,0,0,0,0,0,0,0,0,0,0,0,0,0,0,0,0,0,0,0,0,0,0,0,0,0,0,0,0,0,0,0,0,0,0,0,0,0,0,0,0,0,0,0,0,0,0,0,0,0,0,0,0,0,0,0,0,0,0,0,0,0,0,0,0,0,0,0,0,0,0,0,0,0,0,0,0,0,0,0,0,0,0,0,0,0,0,0,0,0,0,0,0,0,0,0,0,0,0,0,0,0,0,0,0,0,0,0,0,0,0,0,0,0,0,0,0,0,0,0,0,0,0,0,0,0,0,0,0,0,0,0,0,0,0,0,0,0,0,0,0,0,0,0,0,0,0,0,0,0,0,0,0,0,0,0,0,0,0,0,0,0,0,0,0,0,0,0,0,0,0,0,0,0,0,0,0,0,0,0,0,0,0,0,0,0,0,0,0,0,0,0,0,0,0,0,0,0,0,0,0,0,0,0,0,0,0,0,0,0,0,0,0,0,0,0,0,0,0,0,0,0,0,0,0,0,0,0,0,0,0,0,0,0,0,0,0,0,0,0,0,0,0,0,0,0,0,0,0,0,0,0,0,0,0,0,0,0,0,0,0,0,0,0,0,0,0,0,0,0,0,0],"sum_hessian":[1.6113E4,1.174E4,4.373E3,7.692E3,4.048E3,2.577E3,1.796E3,6.035E3,1.657E3,2.377E3,1.671E3,5.76E2,2.001E3,9.37E2,8.59E2,3.225E3,2.81E3,6.73E2,9.84E2,1.367E3,1.01E3,1.077E3,5.94E2,2.89E2,2.87E2,1.403E3,5.98E2,6.73E2,2.64E2,5.42E2,3.17E2,1.495E3,1.73E3,1.64E3,1.17E3,3.37E2,3.36E2,5.46E2,4.38E2,9.85E2,3.82E2,1.45E2,8.65E2,3.1E2,7.67E2,4.71E2,1.23E2,8.1E1,2.08E2,1.58E2,1.29E2,5.89E2,8.14E2,3.18E2,2.8E2,4.11E2,2.62E2,2.09E2,5.5E1,6.2E1,4.8E2,2.84E2,3.3E1,1.014E3,4.81E2,2.15E2,1.515E3,1.13E3,5.1E2,1.41E2,1.029E3,1.59E2,1.78E2,8.1E1,2.55E2,1.71E2,3.75E2,2.63E2,1.75E2,6.38E2,3.47E2,3.02E2,8E1,1.31E2,1.4E1,4.59E2,4.06E2,2.56E2,5.4E1,6.37E2,1.3E2,3.62E2,1.09E2,1.2E1,1.11E2,1.3E1,6.8E1,5.9E1,1.49E2,1.22E2,3.6E1,2.1E1,1.08E2,3.07E2,2.82E2,5.14E2,3E2,5.1E1,2.67E2,9.9E1,1.81E2,3.24E2,8.7E1,1.95E2,6.7E1,1.23E2,8.6E1,5.2E1,3E0,1E0,6.1E1,1.5E2,3.3E2,2.82E2,2E0,2.9E1,4E0,4.72E2,9E0,4E0,2.11E2,1.08E3,4.35E2,1.067E3,6.3E1,2.87E2,2.23E2,9E0,1.32E2,8.63E2,1.66E2,1.04E2,5.5E1,8.5E1,9.3E1,6.5E1,1.6E1,9.7E1,1.58E2,9E0,1.62E2,2.65E2,1.1E2,2.3E1,2.4E2,7.9E1,9.6E1,3.77E2,2.61E2,9.4E1,2.53E2,1.48E2,1.54E2,6.5E1,1.5E1,7E1,6.1E1,5E0,9E0,4.45E2,1.4E1,2.31E2,1.75E2,7.8E1,1.78E2,2.3E1,3.1E1,1.79E2,4.58E2,1E0,1.29E2,1.97E2,1.65E2,1.7E1,9.2E1,2E0,1E1,2.9E1,8.2E1,9E0,4E0,3.9E1,2.9E1,2.9E1,3E1,1.13E2,3.6E1,1.09E2,1.3E1,3.5E1,1E0,1E1,1.1E1,5.8E1,5E1,2.2E2,8.7E1,1.65E2,1.17E2,2.86E2,2.28E2,2.37E2,6.3E1,2.7E1,2.4E1,1.09E2,1.58E2,2.3E1,7.6E1,1.77E2,4E0,6.9E1,2.55E2,1.8E1,6.9E1,8.3E1,1.12E2,5.7E1,1E1,1.06E2,1.7E1,7.2E1,1.4E1,4.5E1,7E0,2E0,1E0,6E0,5.5E1,8.6E1,6.4E1,1.9E2,1.4E2,2.67E2,1.5E1,1E0,1E0,2.8E1,1E0,2E0,2E0,4.7E2,2E0,7E0,2E0,1E0,3E0,1.95E2,1.6E1,1.066E3,1.4E1,4.33E2,2E0,4.56E2,6.11E2,5.5E1,8E0,2.81E2,6E0,7E0,2.16E2,6E0,3E0,1.3E2,2E0,3.54E2,5.09E2,2E0,1.64E2,2E0,1.02E2,1.2E1,4.3E1,7.5E1,1E1,5.9E1,3.4E1,3E0,6.2E1,1E1,6E0,4.1E1,5.6E1,8.6E1,7.2E1,5E0,4E0,1.61E2,1E0,6E0,2.59E2,1.08E2,2E0,2E0,2.1E1,1.84E2,5.6E1,1.9E1,6E1,7.6E1,2E1,2.84E2,9.3E1,1.72E2,8.9E1,5.5E1,3.9E1,1.17E2,1.36E2,1.11E2,3.7E1,1.38E2,1.6E1,4E0,6.1E1,4E0,1.1E1,6.7E1,3E0,1.9E1,4.2E1,4E0,5E0,3.01E2,1.44E2,9E0,5E0,1.1E1,2.2E2,3E0,1.72E2,4E1,3.8E1,9E1,8.8E1,1.4E1,9E0,2E1,1.1E1,1.18E2,6.1E1,4.38E2,2E1,6.3E1,6.6E1,1.87E2,1E1,1.46E2,1.9E1,1.3E1,4E0,7.8E1,1.4E1,1E0,1E0,3E0,7E0,1.6E1,1.3E1,7.4E1,8E0,2E0,2E0,3.6E1,3E0,2E0,2.7E1,1.9E1,1E1,1.8E1,1.2E1,5.8E1,5.5E1,1.1E1,2.5E1,8.4E1,2.5E1,1E1,3E0,2E0,3.3E1,9E0,1E0,2E0,9E0,1.2E1,4.6E1,4.4E1,6E0,1.03E2,1.17E2,4.3E1,4.4E1,1.59E2,6E0,1.13E2,4E0,1.6E2,1.26E2,1.53E2,7.5E1,4.2E1,1.95E2,3E1,3.3E1,1.9E1,8E0,6E0,1.8E1,5E1,5.9E1,2.1E1,1.37E2,4E0,1.9E1,6.4E1,1.2E1,1.76E2,1E0,3E0,1E0,2.3E1,4.6E1,6.7E1,1.88E2,4E0,1.4E1,6E1,9E0,5E0,7.8E1,6.6E1,4.6E1,1.7E1,4E1,6E0,4E0,5E0,1.01E2,1.6E1,1E0,6.9E1,3E0,1.1E1,3E0,3.2E1,1.3E1,5E0,2E0,3E0,8.3E1,5.5E1,9E0,1.09E2,8.1E1,1.24E2,1.6E1,1.79E2,8.8E1,1.4E1,1E0],"tree_param":{"num_deleted":"0","num_feature":"19","num_nodes":"471","size_leaf_vector":"1"}},{"base_weights":[-2.1034485E-2,-1.0160242E1,3.1226236E1,-1.5903154E1,2.542453E0,3.786397E1,2.2873008E0,-1.9814474E1,-1.1676248E1,1.555607E1,-2.337988E0,2.7043226E1,5.4755642E1,3.433779E1,-3.3059642E0,-2.0859903E1,-1.687373E1,-5.305813E0,-1.314532E1,7.198193E0,2.8167244E1,-1.3772525E-1,-1.4944559E1,4.1945496E1,1.8588049E1,6.0910637E1,4.2117744E1,2.3734838E1,4.5093082E1,6.037256E0,-1.715937E1,-2.1599396E1,-1.9798727E1,-1.085002E1,-1.7565859E1,-1.1461978E1,1.08099E0,-1.5805214E1,-1.00185375E1,3.0819745E0,1.7877657E1,1.025779E1,3.8176525E1,-6.2015395E0,3.146598E0,1.3195962E1,-1.7627663E1,3.5908703E1,5.217894E1,2.2548786E1,6.2131233E0,5.3368942E1,6.785606E1,2.984427E1,6.158195E1,1.9842764E1,3.012193E0,5.200106E1,2.5868315E1,1.9663122E0,2.251451E1,-1.3841173E1,-2.093035E1,-2.1657375E1,2.1625414E1,-1.9902615E1,-1.06653185E1,-1.410525E1,-5.4939117E0,-1.7746336E1,-2.2208495E0,-1.6000849E1,-5.800917E0,3.8801675E0,-1.5371238E1,-1.7102419E1,-1.4830147E1,-3.3780308E0,-1.1891816E1,5.0272126E0,-8.252998E0,2.3038494E1,1.8593658E0,1.5420289E0,1.8494537E1,2.9519104E1,4.5860165E1,-7.8029723E0,2.5171673E0,1.1680816E0,1.6214844E1,1.0656263E0,4.4628273E1,-9.34715E0,-1.8914139E1,2.9896889E1,4.4545357E1,5.2899117E1,-6.9569635E0,1.7250616E1,2.9747162E1,2.1096115E0,2.8519281E1,6.657798E1,4.81554E1,4.4023643E0,6.844016E1,3.4955013E1,8.816124E0,6.998932E1,4.5879776E1,2.4203205E1,-1.3274508E0,6.020907E1,3.5401512E1,3.402528E1,-3.55445E-1,1.0307123E1,-4.609393E0,3.0834196E1,1.2876111E1,-1.5232551E1,3.4811902E0,-3.0672234E-1,-2.1136116E1,-2.1262522E1,-1.1509326E0,1.3107294E0,3.111766E-1,-1.7303692E1,-2.030075E1,-1.8395432E1,1.9056404E1,8.957955E0,-1.4870311E1,-2.9187849E0,-8.841403E-1,-1.8413137E1,-1.4960389E1,2.9776365E1,-9.875159E-1,-1.3614173E1,-1.8852057E1,-8.421424E0,1.244897E1,-4.346934E0,1.6385908E1,6.0685344E0,-1.6751392E1,-1.7380112E1,-1.0354606E1,-1.00429735E1,-1.528754E1,-7.651745E0,7.4785867E0,-1.1988311E1,2.517938E0,2.5490158E0,1.5170355E1,-9.693237E0,1.6494017E1,1.824869E1,3.7136997E1,6.4407964E0,-5.526398E0,3.9873033E0,-1.0050569E1,2.7491514E1,2.0893064E0,3.2259903E1,7.9318E-1,3.1602695E1,5.2954594E1,-5.602675E0,-1.1009092E1,9.722517E0,-3.9834723E0,4.1560516E0,-4.364132E0,2.7477226E1,7.400311E0,-6.49605E0,1.7818106E0,5.166558E1,-4.676877E-1,-1.1144984E1,1.5013099E1,-1.916623E1,8.5121804E-1,4.020298E1,2.5485395E1,5.295412E1,3.301817E1,5.925656E1,4.6281464E1,2.4140052E-1,-6.2473124E-1,1.233108E1,2.0697273E1,3.438126E1,1.7900978E1,8.083634E0,-9.258022E0,5.8135124E1,1.8943779E1,4.909025E-1,3.350044E0,5.1875816E1,4.216667E1,1.1495861E1,-5.9929055E-1,5.7857407E1,7.090121E1,2.4831284E1,4.3049225E1,-1.5967941E0,1.742662E1,5.958143E1,8.161733E1,5.9018433E1,3.0706E1,1.4045824E1,3.5689774E1,-7.8328214E0,6.7444844E0,4.0545673E1,7.135823E1,5.9707255E0,3.947004E1,1.8481474E0,5.9560317E-1,3.2424858E0,1.5895922E1,-7.063846E0,1.4029474E1,7.446804E0,3.6629433E1,4.5501027E0,3.734857E1,-1.6357258E1,-4.986175E0,1.2960848E1,-3.787307E0,-2.083262E-1,-2.1249416E1,-1.0302341E0,-1.139875E0,-8.979335E-1,4.6061334E-1,-9.8324805E-1,-1.0892844E0,-1.0448698E0,-1.12788014E-1,1.6258551E0,1.865235E-1,-4.1336185E-1,1.0852085E0,-8.2518166E-1,-3.4624317E-1,-2.3432334E-1,1.0222389E0,-9.225114E-1,2.8891778E-1,-9.041107E-1,-4.9749857E-1,4.261408E-1,2.055223E0,-7.7159995E-1,-3.5775474E-1,-9.550031E-1,-2.4812548E-1,-5.5586463E-1,2.4959559E-2,1.4356067E0,-5.093847E-2,2.4462799E-3,-7.7908516E-1,1.0277098E0,-6.7778575E-1,4.4625854E-1,-6.2534384E-2,-8.8734144E-1,2.545598E-1,-8.7144995E-1,4.3937203E-1,1.8371147E0,-8.2468367E-1,7.9814774E-1,-5.403368E-1,-7.4772656E-1,-1.0512835E0,-5.2441275E-1,-1.21131815E-1,-1.2078704E-1,9.1530466E-1,-5.599886E-1,-8.712985E-1,-9.663642E-2,3.7506142E-1,1.1059371E0,-1.8750997E-1,-7.005648E-1,-3.600303E-1,3.0490017E-2,1.0792745E0,-2.337492E-2,1.006275E0,1.9758104E0,5.3017396E-1,3.3290286E-2,6.8020254E-1,2.1506654E-1,-4.4405934E-1,9.044977E-2,6.862124E-1,1.2050072E-1,-6.267611E-1,9.6220255E-1,1.6749464E0,1.5137432E0,-1.2519775E-1,1.1500086E0,1.8735288E0,-3.0511817E-1,1.1756966E0,1.9938357E0,7.798647E-1,2.715552E0,-2.2430742E-1,1.3143092E-1,-3.2098302E-1,-7.038667E-1,-3.9748448E-1,1.4283822E-1,8.8561344E-1,1.1561908E0,-2.7951643E-1,8.584892E-2,4.0641674E-1,3.9227955E-2,-4.273367E-1,7.616391E-1,1.6668408E0,5.660691E-1,-3.077817E-1,-4.1720733E-2,-6.886367E-1,1.3402344E0,3.309668E0,-3.731824E-1,-7.6618654E-1,1.3480444E-1,9.110036E-1,-9.7001326E-1,-1.9009887E-1,-4.1099444E-1,9.283911E-1,1.1323842E0,2.273626E0,1.4102476E0,7.647702E-1,2.6993694E0,2.5797544E-2,3.3047566E-1,1.7950352E0,2.4751422E0,3.518317E0,1.2090794E0,2.4696114E0,1.1701927E0,4.3271494E-1,1.287539E0,7.7572054E-1,2.1184154E0,1.5866088E0,4.8487917E-1,1.1275802E0,1.513296E-1,7.684409E-1,-5.805814E-2,-6.031031E-1,1.8167819E0,3.5122716E0,-9.5217474E-2,1.2380327E0,2.6254928E0,9.781446E-1,2.455613E0,1.776948E0,6.486409E-1,1.7662477E-1,3.0004513E0,9.583818E-1,5.6733745E-1,3.5609078E0,1.6330311E0,8.23681E-1,2.3096108E0,9.822529E-1,-3.7308654E-1,6.8562925E-1,1.0900277E0,4.3425184E-1,3.0529773E0,6.3110465E-1,1.4536074E0,4.1692595E0,3.2041752E0,-3.9641684E-1,1.7173951E0,-3.2142904E-2,1.5412819E0,2.1680842E-1,2.047406E0,8.297806E-1,-6.933195E-1,1.4114386E-1,3.735654E-1,9.5929764E-2,5.473982E-1,2.1205325E0,3.685824E0,1.0175267E0,8.019614E-2,3.6760828E-1,2.1160095E0,1.3170552E-1,6.597867E-1,-1.84251E-2,5.877432E-1,1.3244518E0,-4.8566929E-1,2.1630359E-1,3.4405538E-1,1.4781073E0,-1.0221837E-1,7.724307E-1,7.6467794E-1,2.1107583E0,6.452787E-1,-4.044009E-2,3.593665E-1,2.0110157E0,3.3554432E-1,-8.414554E-1,9.3982095E-1,-5.258154E-1,3.3738613E-2,7.9318374E-1,-4.3845496E-1,6.5258616E-1,-1.067662E0,-2.4053288E-1],"categories":[],"categories_nodes":[],"categories_segments":[],"categories_sizes":[],"default_left":[0,0,0,0,0,0,0,0,0,0,0,0,0,0,0,0,0,0,0,0,0,0,0,0,0,0,0,0,0,0,0,0,0,0,0,0,0,0,0,0,0,0,0,0,0,0,0,0,0,0,0,0,0,0,0,0,0,0,0,0,0,0,0,0,0,0,0,0,0,0,0,0,0,0,0,0,0,0,0,0,0,0,0,0,0,0,0,0,0,0,0,0,0,0,0,0,0,0,0,0,0,0,0,0,0,0,0,0,0,0,0,0,0,0,0,0,0,0,0,0,0,0,0,0,0,0,0,0,0,0,0,0,0,0,0,0,0,0,0,0,0,0,0,0,0,0,0,0,0,0,0,0,0,0,0,0,0,0,0,0,0,0,0,0,0,0,0,0,0,0,0,0,0,0,0,0,0,0,0,0,0,0,0,0,0,0,0,0,0,0,0,0,0,0,0,0,0,0,0,0,0,0,0,0,0,0,0,0,0,0,0,0,0,0,0,0,0,0,0,0,0,0,0,0,0,0,0,0,0,0,0,0,0,0,0,0,0,0,0,0,0,0,0,0,0,0,0,0,0,0,0,0,0,0,0,0,0,0,0,0,0,0,0,0,0,0,0,0,0,0,0,0,0,0,0,0,0,0,0,0,0,0,0,0,0,0,0,0,0,0,0,0,0,0,0,0,0,0,0,0,0,0,0,0,0,0,0,0,0,0,0,0,0,0,0,0,0,0,0,0,0,0,0,0,0,0,0,0,0,0,0,0,0,0,0,0,0,0,0,0,0,0,0,0,0,0,0,0,0,0,0,0,0,0,0,0,0,0,0,0,0,0,0,0,0,0,0,0,0,0,0,0,0,0,0,0,0,0,0,0,0,0,0,0,0,0,0,0,0,0,0,0,0,0,0,0,0,0,0,0,0,0,0,0,0,0,0,0,0,0,0,0,0,0,0,0,0,0,0,0,0,0,0,0,0,0,0,0,0,0,0,0,0,0,0,0,0,0,0,0,0,0,0,0,0,0,0,0,0,0,0,0,0],"id":2,"left_children":[1,3,5,7,9,11,13,15,17,19,21,23,25,27,29,31,33,35,37,39,41,43,45,47,49,51,53,55,57,59,61,63,65,67,69,71,73,75,77,79,81,83,85,87,89,91,93,95,97,99,101,103,105,107,109,111,-1,113,115,117,119,121,123,125,127,129,131,133,135,137,139,141,143,145,147,149,151,153,155,157,159,161,163,165,167,169,171,173,175,177,179,181,183,185,187,189,191,193,195,197,199,201,203,205,207,209,211,213,215,217,219,221,223,225,227,229,-1,231,233,235,237,239,241,-1,243,245,-1,-1,-1,247,249,251,253,255,257,259,-1,261,263,265,-1,267,269,271,273,275,277,279,281,283,285,287,289,291,293,295,-1,297,299,301,303,305,307,309,311,313,315,317,319,321,323,325,327,329,331,333,335,337,339,341,343,345,-1,347,-1,349,351,353,355,357,359,361,363,365,367,-1,-1,369,371,373,375,377,379,381,383,-1,-1,385,387,389,-1,391,393,395,397,399,401,403,405,407,409,411,413,415,417,419,421,423,425,-1,-1,427,429,431,433,435,437,439,441,443,445,447,449,-1,451,-1,-1,-1,-1,-1,-1,-1,-1,-1,-1,-1,-1,-1,-1,-1,-1,-1,-1,-1,-1,-1,-1,-1,-1,-1,-1,-1,-1,-1,-1,-1,-1,-1,-1,-1,-1,-1,-1,-1,-1,-1,-1,-1,-1,-1,-1,-1,-1,-1,-1,-1,-1,-1,-1,-1,-1,-1,-1,-1,-1,-1,-1,-1,-1,-1,-1,-1,-1,-1,-1,-1,-1,-1,-1,-1,-1,-1,-1,-1,-1,-1,-1,-1,-1,-1,-1,-1,-1,-1,-1,-1,-1,-1,-1,-1,-1,-1,-1,-1,-1,-1,-1,-1,-1,-1,-1,-1,-1,-1,-1,-1,-1,-1,-1,-1,-1,-1,-1,-1,-1,-1,-1,-1,-1,-1,-1,-1,-1,-1,-1,-1,-1,-1,-1,-1,-1,-1,-1,-1,-1,-1,-1,-1,-1,-1,-1,-1,-1,-1,-1,-1,-1,-1,-1,-1,-1,-1,-1,-1,-1,-1,-1,-1,-1,-1,-1,-1,-1,-1,-1,-1,-1,-1,-1,-1,-1,-1,-1,-1,-1,-1,-1,-1,-1,-1,-1,-1,-1,-1,-1,-1,-1,-1,-1,-1,-1,-1,-1,-1,-1,-1,-1,-1,-1,-1,-1,-1,-1],"loss_changes":[5.0732805E6,8.8201175E5,7.534785E5,1.374205E5,2.3915975E5,5.81772E5,1.3151616E5,1.293825E4,3.740225E4,1.0804575E5,7.597169E4,2.4454488E5,9.42785E4,1.1359836E4,8.100073E4,2.07175E3,4.5580625E3,2.9579686E4,2.6896562E4,2.7155527E4,7.292609E4,4.6482438E4,3.096271E4,4.1617375E4,6.0833094E4,4.011625E4,9.634731E4,6.9040605E3,5.6934453E3,2.5042887E4,2.863539E3,5.1449375E3,1.0402188E3,2.01475E3,2.7854062E3,9.748297E3,1.7099146E4,1.9674688E3,1.8594234E4,9.919541E3,1.4176023E4,1.0596331E4,1.6074594E4,1.1468824E4,3.912665E4,1.3678686E4,3.7859922E3,2.1825375E4,1.1398375E4,3.5413062E4,2.7674512E4,2.46845E4,1.5673125E4,2.6989078E4,1.7647125E4,4.924635E3,0E0,3.0459844E3,4.545785E3,1.655637E4,5.536922E3,3.3549902E3,2.235039E2,5.124375E2,4.889856E1,9.98E2,4.2563394E3,1.4389199E3,1.4236216E3,1.5970625E3,7.879717E3,1.1859883E3,8.330559E3,3.268609E4,1.6995264E3,1.2197812E3,2.0579844E3,1.5414989E4,7.6197344E3,9.5886875E3,2.512227E3,8.101086E3,1.4906011E3,2.1094116E3,1.1159973E4,9.894648E3,1.2183844E4,4.8270312E3,6.0341704E3,2.1771734E4,1.9551914E4,7.289607E3,4.2821504E3,2.4446963E3,1.61575E3,1.1069156E4,1.5795781E4,8.0278125E3,3.2136896E2,8.985766E3,2.1233281E4,1.7527838E4,1.222727E4,2.0305938E3,4.3630625E3,7.1903455E2,7.018875E3,1.5647516E4,4.6005073E3,7.3604375E3,9.750828E3,4.63234E3,5.779376E2,2.3682578E3,1.5604355E3,4.0419238E2,0E0,5.199674E3,7.830552E3,5.0131094E3,7.1653447E3,1.3820098E3,8.070183E2,0E0,1.3064844E2,1.0025E3,0E0,0E0,0E0,3.2915586E3,6.3371875E2,5.181924E2,7.0388684E2,8.381015E2,8.200928E2,1.7477874E3,0E0,8.3253125E2,2.948414E3,8.5348584E2,0E0,1.2868184E3,2.2901562E2,3.636919E3,4.847868E3,9.482964E3,1.6004098E4,9.479602E1,1.1992402E3,1.0691094E3,9.85821E3,1.9799795E3,1.4435469E3,3.504706E3,1.0114525E4,4.8086875E3,0E0,6.8726143E3,9.943E3,5.772002E2,3.1033313E2,3.486961E3,1.6011094E3,1.1078711E3,5.9869E2,1.2689867E3,4.3269287E2,1.7830938E3,3.7007886E3,4.6868438E3,2.0235537E3,5.734621E3,7.2560625E3,2.7942363E3,2.525832E3,3.2955962E3,3.091181E3,8.269875E3,9.955841E3,5.734211E3,6.0760723E3,9.3606024E2,0E0,1.4762695E3,0E0,6.3941406E2,1.0887836E2,1.0661016E3,9.561714E2,6.1858203E3,4.806211E3,5.553E3,5.776492E3,1.0278594E4,7.7427812E3,0E0,0E0,9.039121E3,7.955625E3,4.6857188E3,4.1305117E3,6.1796943E3,2.0066426E3,3.515703E2,4.5341777E3,0E0,0E0,2.5990625E3,3.6865312E3,1.2197876E0,0E0,6.0089062E3,5.647375E3,5.547414E3,7.3311562E3,2.2572444E3,8.8124414E2,3.1857656E3,1.7559688E3,1.0680773E4,3.3329941E3,3.9394902E3,1.3285137E3,4.2489444E2,3.203415E0,1.4287695E2,1.83875E2,6.3051224E0,1.2533672E3,0E0,0E0,2.1613262E3,2.9347617E3,4.5687266E3,2.0172446E3,7.151017E2,3.0488516E3,1.2641709E3,4.9045996E2,1.353793E3,2.0389619E3,1.6761731E2,7.0167163E2,0E0,9.013672E1,0E0,0E0,0E0,0E0,0E0,0E0,0E0,0E0,0E0,0E0,0E0,0E0,0E0,0E0,0E0,0E0,0E0,0E0,0E0,0E0,0E0,0E0,0E0,0E0,0E0,0E0,0E0,0E0,0E0,0E0,0E0,0E0,0E0,0E0,0E0,0E0,0E0,0E0,0E0,0E0,0E0,0E0,0E0,0E0,0E0,0E0,0E0,0E0,0E0,0E0,0E0,0E0,0E0,0E0,0E0,0E0,0E0,0E0,0E0,0E0,0E0,0E0,0E0,0E0,0E0,0E0,0E0,0E0,0E0,0E0,0E0,0E0,0E0,0E0,0E0,0E0,0E0,0E0,0E0,0E0,0E0,0E0,0E0,0E0,0E0,0E0,0E0,0E0,0E0,0E0,0E0,0E0,0E0,0E0,0E0,0E0,0E0,0E0,0E0,0E0,0E0,0E0,0E0,0E0,0E0,0E0,0E0,0E0,0E0,0E0,0E0,0E0,0E0,0E0,0E0,0E0,0E0,0E0,0E0,0E0,0E0,0E0,0E0,0E0,0E0,0E0,0E0,0E0,0E0,0E0,0E0,0E0,0E0,0E0,0E0,0E0,0E0,0E0,0E0,0E0,0E0,0E0,0E0,0E0,0E0,0E0,0E0,0E0,0E0,0E0,0E0,0E0,0E0,0E0,0E0,0E0,0E0,0E0,0E0,0E0,0E0,0E0,0E0,0E0,0E0,0E0,0E0,0E0,0E0,0E0,0E0,0E0,0E0,0E0,0E0,0E0,0E0,0E0,0E0,0E0,0E0,0E0,0E0,0E0,0E0,0E0,0E0,0E0,0E0,0E0,0E0,0E0,0E0,0E0,0E0,0E0,0E0,0E0,0E0,0E0,0E0,0E0,0E0,0E0,0E0,0E0,0E0,0E0],"parents":[2147483647,0,0,1,1,2,2,3,3,4,4,5,5,6,6,7,7,8,8,9,9,10,10,11,11,12,12,13,13,14,14,15,15,16,16,17,17,18,18,19,19,20,20,21,21,22,22,23,23,24,24,25,25,26,26,27,27,28,28,29,29,30,30,31,31,32,32,33,33,34,34,35,35,36,36,37,37,38,38,39,39,40,40,41,41,42,42,43,43,44,44,45,45,46,46,47,47,48,48,49,49,50,50,51,51,52,52,53,53,54,54,55,55,57,57,58,58,59,59,60,60,61,61,62,62,63,63,64,64,65,65,66,66,67,67,68,68,69,69,70,70,71,71,72,72,73,73,74,74,75,75,76,76,77,77,78,78,79,79,80,80,81,81,82,82,83,83,84,84,85,85,86,86,87,87,88,88,89,89,90,90,91,91,92,92,93,93,94,94,95,95,96,96,97,97,98,98,99,99,100,100,101,101,102,102,103,103,104,104,105,105,106,106,107,107,108,108,109,109,110,110,111,111,112,112,113,113,114,114,115,115,117,117,118,118,119,119,120,120,121,121,122,122,124,124,125,125,129,129,130,130,131,131,132,132,133,133,134,134,135,135,137,137,138,138,139,139,141,141,142,142,143,143,144,144,145,145,146,146,147,147,148,148,149,149,150,150,151,151,152,152,153,153,154,154,155,155,157,157,158,158,159,159,160,160,161,161,162,162,163,163,164,164,165,165,166,166,167,167,168,168,169,169,170,170,171,171,172,172,173,173,174,174,175,175,176,176,177,177,178,178,179,179,180,180,181,181,183,183,185,185,186,186,187,187,188,188,189,189,190,190,191,191,192,192,193,193,194,194,197,197,198,198,199,199,200,200,201,201,202,202,203,203,204,204,207,207,208,208,209,209,211,211,212,212,213,213,214,214,215,215,216,216,217,217,218,218,219,219,220,220,221,221,222,222,223,223,224,224,225,225,226,226,227,227,228,228,231,231,232,232,233,233,234,234,235,235,236,236,237,237,238,238,239,239,240,240,241,241,242,242,244,244],"right_children":[2,4,6,8,10,12,14,16,18,20,22,24,26,28,30,32,34,36,38,40,42,44,46,48,50,52,54,56,58,60,62,64,66,68,70,72,74,76,78,80,82,84,86,88,90,92,94,96,98,100,102,104,106,108,110,112,-1,114,116,118,120,122,124,126,128,130,132,134,136,138,140,142,144,146,148,150,152,154,156,158,160,162,164,166,168,170,172,174,176,178,180,182,184,186,188,190,192,194,196,198,200,202,204,206,208,210,212,214,216,218,220,222,224,226,228,230,-1,232,234,236,238,240,242,-1,244,246,-1,-1,-1,248,250,252,254,256,258,260,-1,262,264,266,-1,268,270,272,274,276,278,280,282,284,286,288,290,292,294,296,-1,298,300,302,304,306,308,310,312,314,316,318,320,322,324,326,328,330,332,334,336,338,340,342,344,346,-1,348,-1,350,352,354,356,358,360,362,364,366,368,-1,-1,370,372,374,376,378,380,382,384,-1,-1,386,388,390,-1,392,394,396,398,400,402,404,406,408,410,412,414,416,418,420,422,424,426,-1,-1,428,430,432,434,436,438,440,442,444,446,448,450,-1,452,-1,-1,-1,-1,-1,-1,-1,-1,-1,-1,-1,-1,-1,-1,-1,-1,-1,-1,-1,-1,-1,-1,-1,-1,-1,-1,-1,-1,-1,-1,-1,-1,-1,-1,-1,-1,-1,-1,-1,-1,-1,-1,-1,-1,-1,-1,-1,-1,-1,-1,-1,-1,-1,-1,-1,-1,-1,-1,-1,-1,-1,-1,-1,-1,-1,-1,-1,-1,-1,-1,-1,-1,-1,-1,-1,-1,-1,-1,-1,-1,-1,-1,-1,-1,-1,-1,-1,-1,-1,-1,-1,-1,-1,-1,-1,-1,-1,-1,-1,-1,-1,-1,-1,-1,-1,-1,-1,-1,-1,-1,-1,-1,-1,-1,-1,-1,-1,-1,-1,-1,-1,-1,-1,-1,-1,-1,-1,-1,-1,-1,-1,-1,-1,-1,-1,-1,-1,-1,-1,-1,-1,-1,-1,-1,-1,-1,-1,-1,-1,-1,-1,-1,-1,-1,-1,-1,-1,-1,-1,-1,-1,-1,-1,-1,-1,-1,-1,-1,-1,-1,-1,-1,-1,-1,-1,-1,-1,-1,-1,-1,-1,-1,-1,-1,-1,-1,-1,-1,-1,-1,-1,-1,-1,-1,-1,-1,-1,-1,-1,-1,-1,-1,-1,-1,-1,-1,-1,-1],"split_conditions":[4.473E1,1.775E1,6.955E1,6.78E0,1.13E1,7.858E1,1.675E1,5.15E0,7E0,5.725E1,6.865E1,1.97E1,6.205E1,7.865E1,7.588E1,3.85E0,4E0,5.677E1,1.165E1,3.26E1,5.065E1,2.59E1,1.802E1,6.622E1,3.667E1,9.595E1,1.098E2,1.202E2,8.43E0,9.415E1,1.0248E2,4.812E1,1.5403E2,7.588E1,1.5403E2,8.65E0,9.982E1,8.78E0,1.07E1,7.415E1,4.477E1,3.55E1,2.76E1,5.352E1,5.097E1,1.5261E2,3.072E1,6.035E1,8.522E1,6.035E1,6.82E1,6.49E1,1.838E1,4.373E1,3.01E1,2.09E0,3.012193E0,8.41E1,7.258E1,4.912E1,5.32E1,1.072E2,-3.96E0,1.0707E2,1.511E1,3.39E1,8.567E1,1.4E0,1.0105E2,9.332E1,7E0,4.99E1,1.2171E2,7.478E1,3.67E0,1.9706E2,7.97E0,6.72E1,8.688E1,4.545E1,3.632E1,3.785E1,7.895E1,7.803E1,6.108E1,1.938E1,6.622E1,3.06E1,1.97E1,3.185E1,2.633E1,2.675E1,5.115E1,3.57E1,2.36E0,3.308E1,5.395E1,3.798E1,2E-2,5.18E1,6.305E1,5.352E1,4.61E1,1.645E1,8.247E1,3.572E1,3.785E1,9.202E1,9.07E0,1.259E2,1.0007E2,1.021E1,-6.3E-1,7.005E1,6.97E0,1.3624E2,-3.55445E-1,6.305E1,5.825E1,2.195E1,5.43E1,9.237E1,2.391E1,-3.0672234E-1,9.39E0,2.515E1,-1.1509326E0,1.3107294E0,3.111766E-1,3.92E0,2.25E1,8.224E1,7.31E0,3.62E1,1.83E0,3.44E0,-8.841403E-1,1.5403E2,8.893E1,1.3624E2,-9.875159E-1,4.64E1,2.2E0,4.35E1,1E-1,7.31E1,1.998E1,5.266E1,1.51E1,8.372E1,1.9964E2,1E-2,3.612E1,1.465E1,6.42E1,5.885E1,2.517938E0,2.398E1,6.38E1,4.65E0,3.951E1,1.53E1,2.02E1,-6E-2,3.26E1,1.005E1,2.243E1,2.8E1,1.6E-1,7.415E1,1.9031E2,5.097E1,2.95E1,1.418E1,6.278E1,4.065E1,-2.69E0,3.612E1,3.352E1,2.988E1,6.525E1,6.72E1,1.7818106E0,1.13E1,-4.676877E-1,7.928E1,5.8E-1,3.943E1,3.338E1,2.795E1,4.97E1,4.015E1,1.28E0,5.395E1,5.317E1,2.4140052E-1,-6.2473124E-1,4.223E1,5.53E1,2.852E1,6.805E1,3.785E1,5.965E1,1.115E1,3.75E1,4.909025E-1,3.350044E0,5.735E1,3.01E1,7.69E0,-5.9929055E-1,5.065E1,4.55E0,2.868E1,3.14E0,6.82E1,1.941E1,2.74E0,1.672E1,4.742E1,5.593E1,4.64E1,9.9E-1,4.878E1,2.963E1,4.12E0,2.057E1,2.3E-1,2.03E0,1.8481474E0,5.9560317E-1,2.988E1,3.667E1,6.525E1,8.247E1,6.02E1,1.0007E2,6.108E1,3E-2,3.372E1,4.97E1,1.431E1,1.5156E2,-2.083262E-1,1.327E2,-1.0302341E0,-1.139875E0,-8.979335E-1,4.6061334E-1,-9.8324805E-1,-1.0892844E0,-1.0448698E0,-1.12788014E-1,1.6258551E0,1.865235E-1,-4.1336185E-1,1.0852085E0,-8.2518166E-1,-3.4624317E-1,-2.3432334E-1,1.0222389E0,-9.225114E-1,2.8891778E-1,-9.041107E-1,-4.9749857E-1,4.261408E-1,2.055223E0,-7.7159995E-1,-3.5775474E-1,-9.550031E-1,-2.4812548E-1,-5.5586463E-1,2.4959559E-2,1.4356067E0,-5.093847E-2,2.4462799E-3,-7.7908516E-1,1.0277098E0,-6.7778575E-1,4.4625854E-1,-6.2534384E-2,-8.8734144E-1,2.545598E-1,-8.7144995E-1,4.3937203E-1,1.8371147E0,-8.2468367E-1,7.9814774E-1,-5.403368E-1,-7.4772656E-1,-1.0512835E0,-5.2441275E-1,-1.21131815E-1,-1.2078704E-1,9.1530466E-1,-5.599886E-1,-8.712985E-1,-9.663642E-2,3.7506142E-1,1.1059371E0,-1.8750997E-1,-7.005648E-1,-3.600303E-1,3.0490017E-2,1.0792745E0,-2.337492E-2,1.006275E0,1.9758104E0,5.3017396E-1,3.3290286E-2,6.8020254E-1,2.1506654E-1,-4.4405934E-1,9.044977E-2,6.862124E-1,1.2050072E-1,-6.267611E-1,9.6220255E-1,1.6749464E0,1.5137432E0,-1.2519775E-1,1.1500086E0,1.8735288E0,-3.0511817E-1,1.1756966E0,1.9938357E0,7.798647E-1,2.715552E0,-2.2430742E-1,1.3143092E-1,-3.2098302E-1,-7.038667E-1,-3.9748448E-1,1.4283822E-1,8.8561344E-1,1.1561908E0,-2.7951643E-1,8.584892E-2,4.0641674E-1,3.9227955E-2,-4.273367E-1,7.616391E-1,1.6668408E0,5.660691E-1,-3.077817E-1,-4.1720733E-2,-6.886367E-1,1.3402344E0,3.309668E0,-3.731824E-1,-7.6618654E-1,1.3480444E-1,9.110036E-1,-9.7001326E-1,-1.9009887E-1,-4.1099444E-1,9.283911E-1,1.1323842E0,2.273626E0,1.4102476E0,7.647702E-1,2.6993694E0,2.5797544E-2,3.3047566E-1,1.7950352E0,2.4751422E0,3.518317E0,1.2090794E0,2.4696114E0,1.1701927E0,4.3271494E-1,1.287539E0,7.7572054E-1,2.1184154E0,1.5866088E0,4.8487917E-1,1.1275802E0,1.513296E-1,7.684409E-1,-5.805814E-2,-6.031031E-1,1.8167819E0,3.5122716E0,-9.5217474E-2,1.2380327E0,2.6254928E0,9.781446E-1,2.455613E0,1.776948E0,6.486409E-1,1.7662477E-1,3.0004513E0,9.583818E-1,5.6733745E-1,3.5609078E0,1.6330311E0,8.23681E-1,2.3096108E0,9.822529E-1,-3.7308654E-1,6.8562925E-1,1.0900277E0,4.3425184E-1,3.0529773E0,6.3110465E-1,1.4536074E0,4.1692595E0,3.2041752E0,-3.9641684E-1,1.7173951E0,-3.2142904E-2,1.5412819E0,2.1680842E-1,2.047406E0,8.297806E-1,-6.933195E-1,1.4114386E-1,3.735654E-1,9.5929764E-2,5.473982E-1,2.1205325E0,3.685824E0,1.0175267E0,8.019614E-2,3.6760828E-1,2.1160095E0,1.3170552E-1,6.597867E-1,-1.84251E-2,5.877432E-1,1.3244518E0,-4.8566929E-1,2.1630359E-1,3.4405538E-1,1.4781073E0,-1.0221837E-1,7.724307E-1,7.6467794E-1,2.1107583E0,6.452787E-1,-4.044009E-2,3.593665E-1,2.0110157E0,3.3554432E-1,-8.414554E-1,9.3982095E-1,-5.258154E-1,3.3738613E-2,7.9318374E-1,-4.3845496E-1,6.5258616E-1,-1.067662E0,-2.4053288E-1],"split_indices":[8,8,18,8,10,8,10,8,9,17,13,10,10,17,13,8,9,17,8,8,14,8,9,17,13,8,8,8,10,8,13,9,17,17,14,8,16,8,9,16,18,14,8,17,17,0,9,8,9,8,17,9,9,13,13,4,0,18,13,13,13,8,4,16,0,13,13,9,16,17,10,14,1,14,9,0,9,17,9,14,2,14,1,16,16,9,14,13,9,13,9,8,10,8,5,9,9,9,0,8,10,13,9,16,9,0,17,8,3,8,10,3,5,8,3,0,0,8,14,0,14,17,2,0,2,10,0,0,0,4,10,1,3,0,4,4,0,13,13,0,0,17,5,17,4,16,10,0,8,9,0,0,9,8,14,10,0,8,18,10,0,9,3,4,13,10,13,8,0,14,0,18,9,9,0,13,4,8,9,8,18,18,0,9,0,18,0,2,1,17,9,2,0,8,8,0,0,9,9,10,8,14,9,3,16,0,0,10,13,0,0,13,1,13,6,17,3,4,16,14,13,13,4,17,2,3,3,0,5,0,0,13,14,16,8,1,9,13,0,14,8,2,0,0,17,0,0,0,0,0,0,0,0,0,0,0,0,0,0,0,0,0,0,0,0,0,0,0,0,0,0,0,0,0,0,0,0,0,0,0,0,0,0,0,0,0,0,0,0,0,0,0,0,0,0,0,0,0,0,0,0,0,0,0,0,0,0,0,0,0,0,0,0,0,0,0,0,0,0,0,0,0,0,0,0,0,0,0,0,0,0,0,0,0,0,0,0,0,0,0,0,0,0,0,0,0,0,0,0,0,0,0,0,0,0,0,0,0,0,0,0,0,0,0,0,0,0,0,0,0,0,0,0,0,0,0,0,0,0,0,0,0,0,0,0,0,0,0,0,0,0,0,0,0,0,0,0,0,0,0,0,0,0,0,0,0,0,0,0,0,0,0,0,0,0,0,0,0,0,0,0,0,0,0,0,0,0,0,0,0,0,0,0,0,0,0,0,0,0,0,0,0,0,0,0,0,0,0,0,0,0,0,0],"split_type":[0,0,0,0,0,0,0,0,0,0,0,0,0,0,0,0,0,0,0,0,0,0,0,0,0,0,0,0,0,0,0,0,0,0,0,0,0,0,0,0,0,0,0,0,0,0,0,0,0,0,0,0,0,0,0,0,0,0,0,0,0,0,0,0,0,0,0,0,0,0,0,0,0,0,0,0,0,0,0,0,0,0,0,0,0,0,0,0,0,0,0,0,0,0,0,0,0,0,0,0,0,0,0,0,0,0,0,0,0,0,0,0,0,0,0,0,0,0,0,0,0,0,0,0,0,0,0,0,0,0,0,0,0,0,0,0,0,0,0,0,0,0,0,0,0,0,0,0,0,0,0,0,0,0,0,0,0,0,0,0,0,0,0,0,0,0,0,0,0,0,0,0,0,0,0,0,0,0,0,0,0,0,0,0,0,0,0,0,0,0,0,0,0,0,0,0,0,0,0,0,0,0,0,0,0,0,0,0,0,0,0,0,0,0,0,0,0,0,0,0,0,0,0,0,0,0,0,0,0,0,0,0,0,0,0,0,0,0,0,0,0,0,0,0,0,0,0,0,0,0,0,0,0,0,0,0,0,0,0,0,0,0,0,0,0,0,0,0,0,0,0,0,0,0,0,0,0,0,0,0,0,0,0,0,0,0,0,0,0,0,0,0,0,0,0,0,0,0,0,0,0,0,0,0,0,0,0,0,0,0,0,0,0,0,0,0,0,0,0,0,0,0,0,0,0,0,0,0,0,0,0,0,0,0,0,0,0,0,0,0,0,0,0,0,0,0,0,0,0,0,0,0,0,0,0,0,0,0,0,0,0,0,0,0,0,0,0,0,0,0,0,0,0,0,0,0,0,0,0,0,0,0,0,0,0,0,0,0,0,0,0,0,0,0,0,0,0,0,0,0,0,0,0,0,0,0,0,0,0,0,0,0,0,0,0,0,0,0,0,0,0,0,0,0,0,0,0,0,0,0,0,0,0,0,0,0,0,0,0,0,0,0,0,0,0,0,0,0,0,0,0,0,0],"sum_hessian":[1.6011E4,1.2089E4,3.922E3,8.325E3,3.764E3,3.19E3,7.32E2,4.322E3,4.003E3,1.026E3,2.738E3,1.946E3,1.244E3,1.08E2,6.24E2,3.184E3,1.138E3,7.51E2,3.252E3,6.18E2,4.08E2,2.332E3,4.06E2,7.03E2,1.243E3,8.34E2,4.1E2,5.6E1,5.2E1,3.73E2,2.51E2,1.865E3,1.319E3,1.19E2,1.019E3,3.82E2,3.69E2,1.755E3,1.497E3,4.47E2,1.71E2,1.47E2,2.61E2,8.19E2,1.513E3,3.5E1,3.71E2,4.45E2,2.58E2,9.41E2,3.02E2,4.04E2,4.3E2,2.53E2,1.57E2,5.2E1,4E0,3.7E1,1.5E1,3E2,7.3E1,1.36E2,1.15E2,1.863E3,2E0,1.303E3,1.6E1,7.3E1,4.6E1,1.007E3,1.2E1,2.11E2,1.71E2,3.16E2,5.3E1,7.46E2,1.009E3,3.3E2,1.167E3,3.82E2,6.5E1,1.29E2,4.2E1,7.2E1,7.5E1,1.25E2,1.36E2,6.92E2,1.27E2,1.315E3,1.98E2,2.6E1,9E0,5.1E1,3.2E2,2.65E2,1.8E2,2.55E2,3E0,5.44E2,3.97E2,2.56E2,4.6E1,1.11E2,2.93E2,4E0,4.26E2,2.03E2,5E1,1E2,5.7E1,4.3E1,9E0,2.3E1,1.4E1,1.2E1,3E0,1.32E2,1.68E2,3.8E1,3.5E1,1.26E2,1E1,2E0,1.13E2,1.457E3,4.06E2,1E0,1E0,1.79E2,1.124E3,1.3E1,3E0,2E0,7.1E1,3.9E1,7E0,8.08E2,1.99E2,4E0,8E0,1.18E2,9.3E1,1.5E2,2.1E1,1.91E2,1.25E2,3E0,5E1,7.15E2,3.1E1,9E1,9.19E2,2.37E2,9.3E1,1.166E3,1E0,3.08E2,7.4E1,6.2E1,3E0,9.8E1,3.1E1,2.6E1,1.6E1,6E1,1.2E1,4.8E1,2.7E1,1.14E2,1.1E1,4.7E1,8.9E1,4.12E2,2.8E2,6E1,6.7E1,8.54E2,4.61E2,8.6E1,1.12E2,2.2E1,4E0,8E0,1E0,4.8E1,3E0,3.16E2,4E0,7.7E1,1.88E2,1.02E2,7.8E1,1.26E2,1.29E2,1E0,2E0,2.26E2,3.18E2,2.84E2,1.13E2,1.68E2,8.8E1,1E1,3.6E1,1E0,1.1E2,1.76E2,1.17E2,3E0,1E0,8.5E1,3.41E2,9.2E1,1.11E2,2.3E1,2.7E1,5.6E1,4.4E1,2.9E1,2.8E1,2.4E1,1.9E1,5E0,4E0,1E1,1.3E1,2E0,1.2E1,1E1,2E0,5.9E1,7.3E1,1.49E2,1.9E1,8E0,3E1,2.7E1,8E0,1.13E2,1.3E1,4E0,6E0,1E0,1.12E2,1.03E3,4.27E2,1.75E2,4E0,7.97E2,3.27E2,1.1E1,2E0,1E0,2E0,1E0,1E0,5.8E1,1.3E1,3.7E1,2E0,8.07E2,1E0,1.21E2,7.8E1,2E0,2E0,9.1E1,2.7E1,9.1E1,2E0,1.15E2,3.5E1,9E0,1.2E1,1.38E2,5.3E1,1.1E2,1.5E1,2E0,1E0,4.8E1,2E0,7.14E2,1E0,3E0,2.8E1,2E0,8.8E1,8.72E2,4.7E1,1.53E2,8.4E1,4.9E1,4.4E1,1.021E3,1.45E2,1.62E2,1.46E2,5.4E1,2E1,2.1E1,4.1E1,1E0,2E0,9E0,8.9E1,2.8E1,3E0,1.5E1,1.1E1,4E0,1.2E1,5E1,1E1,2E0,1E1,2.2E1,2.6E1,3E0,2.4E1,4.3E1,7.1E1,9E0,2E0,3E1,1.7E1,8.7E1,2E0,3.7E1,3.75E2,1.38E2,1.42E2,3.3E1,2.7E1,3E0,6.4E1,5.3E2,3.24E2,2.07E2,2.54E2,2.9E1,5.7E1,8.7E1,2.5E1,1.3E1,9E0,4E0,4E0,2.7E1,2.1E1,1E0,2E0,3.11E2,5E0,3E0,1E0,1.9E1,5.8E1,1.47E2,4.1E1,1E2,2E0,8E0,7E1,7E1,5.6E1,1.7E1,1.12E2,5.5E1,1.71E2,1.59E2,1.59E2,6.7E1,2.17E2,4.2E1,7.1E1,1E2,6.8E1,2.3E1,6.5E1,5E0,5E0,8E0,2.8E1,1.72E2,4E0,5.4E1,6.3E1,2E0,1E0,8E1,5E0,2E0,3.39E2,4.6E1,4.6E1,9.7E1,1.4E1,1.7E1,6E0,1.7E1,1E1,5.4E1,2E0,2E0,4.2E1,2.7E1,2E0,2.5E1,3E0,8E0,1.6E1,1.4E1,5E0,3E0,2E0,3E0,1E0,1E0,9E0,1.2E1,1E0,1E0,1E0,1.1E1,1E0,1.5E1,4.4E1,5.4E1,1.9E1,1.21E2,2.8E1,1.4E1,5E0,4E0,4E0,7E0,2.3E1,1E1,1.7E1,1E0,7E0,2E0,1.11E2,2E0,1.1E1,1E0,3E0,5E0,1E0,1.11E2,1E0],"tree_param":{"num_deleted":"0","num_feature":"19","num_nodes":"453","size_leaf_vector":"1"}},{"base_weights":[5.544047E-2,-1.1878981E1,3.6301594E1,-1.7722523E1,8.1982875E-1,2.6537424E1,6.3421753E1,-2.07041E1,-1.35480175E1,-5.033827E0,6.9139504E0,1.6909449E1,3.481152E1,5.564295E1,7.749549E1,-2.2001904E1,-1.9310968E1,-1.5094469E1,-1.0380698E1,-3.822915E0,-1.5424067E1,1.438868E1,3.269055E0,2.9287626E1,1.2697624E1,2.826598E1,4.2464672E1,6.409144E1,4.751641E1,4.773492E1,8.0339516E1,-2.2015488E1,2.975587E-1,-1.9958076E1,-1.7919777E1,-1.623377E1,-1.3170835E1,-4.9402895E0,-1.220114E1,-6.554183E0,2.2240303E0,-7.7617157E-1,-1.7020687E1,7.7470226E0,2.2156914E1,-1.3428054E0,8.177973E0,2.4588047E1,3.867714E1,1.5305088E1,-5.0146174E0,3.8711224E1,2.2984503E1,5.1762463E1,3.5627876E1,2.6659744E0,6.4455635E1,3.4004074E1,5.182422E1,7.1266294E0,5.589089E1,7.600108E1,1.0446488E2,-1.1163486E0,-2.1094631E1,-1.0355989E0,-1.9407204E1,-1.3686805E1,-1.8676964E1,-1.1747492E1,-1.677941E1,-1.2469965E1,-1.8816622E1,-1.4386293E0,-9.278769E0,-1.5733927E1,-1.01924095E1,-4.8806043E0,-1.2635179E1,5.85528E0,-1.0964924E0,-1.16819725E1,5.5111556E0,-8.511352E0,-1.7515406E1,2.8778627E0,1.3156099E1,1.7155418E1,3.3546787E1,-1.5149452E-1,-1.0474169E1,1.2420611E1,2.895227E0,2.9992275E1,1.7994392E1,3.9873966E1,-3.904881E0,7.636163E0,1.8517965E1,3.0036213E1,-6.643906E0,3.291028E1,4.6759506E1,1.8709196E1,2.7179163E1,6.093206E1,4.732416E1,3.8462772E1,2.9199966E1,3.1445438E-1,-1.145063E-1,6.965511E1,5.8565155E1,3.8085594E1,1.3256883E1,4.414877E1,5.8888363E1,1.0903256E0,-9.334909E0,5.9745724E1,2.567105E0,1.8390714E-1,7.623779E1,5.305376E0,2.1954253E0,-2.112315E1,-6.536446E-2,-1.3813927E1,-9.7355765E-1,-1.5581482E1,-8.9383335E0,3.5105106E-1,-1.8769104E1,2.437063E1,-1.2822926E1,-1.6805094E1,4.1075847E-1,-5.29132E0,-1.2936014E1,-1.9230057E1,4.9082175E-1,-4.3375306E0,4.022501E0,-1.0389965E1,-1.9109011E0,-1.3012437E1,-1.6468256E1,-7.5044665E0,-1.2067318E1,1.1847623E-1,-6.3266115E0,-1.0466959E1,-1.5923413E1,1.0178352E1,1.9596772E0,-3.2686327E0,4.7099395E0,-1.24385394E-1,-7.166055E-1,7.254572E-1,4.6104544E-1,-5.600728E-1,-3.307786E-1,-1.5556356E1,-1.9428644E1,-3.2037272E0,6.131608E0,1.707231E1,8.757609E0,1.2920209E1,2.1894678E1,3.7167492E1,2.5273443E1,-6.726308E0,1.0320128E0,-7.2779717E0,-1.6575445E1,9.298144E0,1.6613499E1,4.238844E0,-3.3335295E0,6.435398E1,2.8338171E1,7.622464E0,2.193641E1,2.7841318E1,4.256575E1,-7.7834783E0,1.9327278E-1,1.0593933E1,-2.3320894E0,2.2281118E1,1.2079713E1,1.6920556E0,2.7529302E-1,-2.7331307E0,-1.3870053E1,3.9307987E1,2.7989594E1,4.3960777E1,3.031835E0,2.0814579E1,1.0467101E1,2.9099028E1,1.7093596E1,6.1416294E1,3.732439E-1,3.9151333E1,4.9440548E1,3.2328194E1,4.2161892E1,3.154532E1,1.5189255E1,7.059199E1,3.7754707E1,3.4827316E1,5.9741558E1,1.3667674E0,4.190136E1,-9.0135145E-1,1.6593502E1,4.4820496E1,1.1616358E1,2.958776E0,5.102354E-1,-6.0042053E-1,-3.2860186E-2,-5.032171E-1,6.2817814E1,2.0323707E-2,1.7220917E-1,7.137717E1,4.177133E0,-2.929025E-1,-1.0568845E0,-8.2445854E-1,5.241059E-1,-7.9071474E-1,8.772955E-2,-3.2821E-1,-7.227331E-1,-7.6382816E-1,-9.5307034E-1,4.074216E0,-5.1394343E-1,-6.652923E-1,-2.8689686E-2,-8.2175124E-1,-9.6705455E-1,8.978475E-1,-3.8784382E-1,-6.527879E-1,-2.6352156E-2,-3.7460214E-1,-9.8367137E-1,-4.4052583E-1,-6.6718005E-2,-3.4460556E-2,4.3794137E-1,-6.951534E-1,-4.395474E-1,1.2339065E-1,-4.5721412E-1,-1.7281626E-1,-6.7696136E-1,-7.3216134E-1,-8.6843204E-1,-5.013108E-1,-2.458444E-1,-6.8408865E-1,-4.685166E-1,-1.457758E-1,2.7034974E-1,-4.5490298E-1,-1.7305638E-1,-7.5419825E-1,-4.682487E-1,-3.8228065E-1,-8.3745223E-1,3.48964E-1,9.17356E-1,-3.635531E-1,1.3300236E-1,-3.293589E-1,-3.7305893E-3,3.328807E-1,-6.355981E-2,-3.944888E-1,1.7674865E-1,7.601087E-2,-1.4709416E-1,-8.2689136E-1,-3.8993236E-1,-4.7061267E-1,-9.843303E-1,6.470606E-1,-1.8402748E-1,4.518299E-1,1.281408E-1,4.821832E-1,1.0080651E0,5.00466E-1,-8.3641276E-2,7.6149136E-1,3.383318E-1,4.8821387E-1,1.1796093E0,7.3490155E-1,1.9071807E0,6.76418E-1,1.3874595E0,3.9128506E-1,-3.8486102E-1,-3.6056504E-2,1.6073433E-1,-4.7130132E-1,-4.638412E-2,-3.4289217E-1,-9.641611E-1,7.0406693E-1,2.7925116E-1,1.0126761E0,7.1877563E-1,9.486559E-2,3.8650307E-1,-4.4597283E-1,7.741583E-2,8.7534857E-1,3.5844498E0,4.8318362E-1,1.5143769E0,1.0041078E-1,6.063916E-1,1.1490413E0,1.15033984E-1,-2.2873716E-1,1.476136E0,1.8869257E0,2.473378E0,-4.6073896E-1,-1.2302194E-1,2.2944763E-1,6.759263E-1,3.3668205E-1,-2.4638379E-1,9.7833633E-1,1.5717882E0,1.2176564E0,4.8877683E-1,-2.3468478E-1,5.2631783E-1,-7.849298E-1,-1.8396433E-1,9.716892E-1,1.9949502E0,1.0873393E0,1.539075E0,2.2080789E0,5.970203E-1,8.643827E-1,1.1469179E0,6.383118E-1,-4.6753254E-2,1.7117672E0,1.3527162E0,9.92935E-1,4.0607476E-1,1.9866211E0,3.1344821E0,2.175167E-1,1.989961E0,2.4873083E0,8.279428E-1,1.809918E0,1.434103E0,2.184007E0,1.5832186E0,1.1295542E0,1.6980816E0,-3.819612E-1,9.709201E-1,3.1065266E0,3.7499967E0,2.2619607E0,-1.7880873E-1,6.213204E-1,2.1326253E0,2.7613096E0,3.2786126E0,2.2552989E0,7.4282587E-1,3.660988E-1,-3.0415595E-1,9.828783E-1,-8.628401E-3,2.2783244E0,8.677935E-1,1.1930833E0,-6.279892E-1,3.3435848E0,1.1901762E0,3.7024395E0,2.587213E0],"categories":[],"categories_nodes":[],"categories_segments":[],"categories_sizes":[],"default_left":[0,0,0,0,0,0,0,0,0,0,0,0,0,0,0,0,0,0,0,0,0,0,0,0,0,0,0,0,0,0,0,0,0,0,0,0,0,0,0,0,0,0,0,0,0,0,0,0,0,0,0,0,0,0,0,0,0,0,0,0,0,0,0,0,0,0,0,0,0,0,0,0,0,0,0,0,0,0,0,0,0,0,0,0,0,0,0,0,0,0,0,0,0,0,0,0,0,0,0,0,0,0,0,0,0,0,0,0,0,0,0,0,0,0,0,0,0,0,0,0,0,0,0,0,0,0,0,0,0,0,0,0,0,0,0,0,0,0,0,0,0,0,0,0,0,0,0,0,0,0,0,0,0,0,0,0,0,0,0,0,0,0,0,0,0,0,0,0,0,0,0,0,0,0,0,0,0,0,0,0,0,0,0,0,0,0,0,0,0,0,0,0,0,0,0,0,0,0,0,0,0,0,0,0,0,0,0,0,0,0,0,0,0,0,0,0,0,0,0,0,0,0,0,0,0,0,0,0,0,0,0,0,0,0,0,0,0,0,0,0,0,0,0,0,0,0,0,0,0,0,0,0,0,0,0,0,0,0,0,0,0,0,0,0,0,0,0,0,0,0,0,0,0,0,0,0,0,0,0,0,0,0,0,0,0,0,0,0,0,0,0,0,0,0,0,0,0,0,0,0,0,0,0,0,0,0,0,0,0,0,0,0,0,0,0,0,0,0,0,0,0,0,0,0,0,0,0,0,0,0,0,0,0,0,0,0,0,0,0,0,0,0,0,0,0,0,0,0,0,0,0,0,0,0,0,0,0,0,0,0,0,0,0,0,0,0,0,0,0,0,0,0,0,0,0,0,0,0,0,0,0,0,0,0,0,0,0,0,0,0,0,0,0,0,0,0,0,0,0,0,0,0,0],"id":3,"left_children":[1,3,5,7,9,11,13,15,17,19,21,23,25,27,29,31,33,35,37,39,41,43,45,47,49,51,53,55,57,59,61,63,-1,65,67,69,71,73,75,77,79,81,83,85,87,89,91,93,95,97,99,101,103,105,107,109,111,113,115,117,119,121,123,-1,125,-1,127,129,131,133,135,137,139,141,143,145,147,149,151,153,155,157,159,161,163,165,167,169,171,173,175,177,179,181,183,185,187,189,191,193,195,197,199,201,203,205,207,209,211,-1,-1,213,215,217,219,221,223,-1,225,227,229,-1,231,-1,-1,233,-1,235,-1,237,239,-1,241,243,245,247,-1,249,251,253,-1,255,257,259,261,263,265,267,269,271,273,275,277,279,281,283,285,-1,-1,-1,287,-1,289,291,293,295,297,299,301,303,305,307,309,311,313,315,317,319,321,323,325,327,329,331,333,335,337,339,-1,341,343,345,347,-1,-1,349,351,353,355,357,-1,359,361,363,365,367,-1,369,371,373,375,377,379,381,383,385,387,-1,389,391,393,395,397,-1,-1,-1,-1,-1,399,-1,-1,401,-1,-1,-1,-1,-1,-1,-1,-1,-1,-1,-1,-1,-1,-1,-1,-1,-1,-1,-1,-1,-1,-1,-1,-1,-1,-1,-1,-1,-1,-1,-1,-1,-1,-1,-1,-1,-1,-1,-1,-1,-1,-1,-1,-1,-1,-1,-1,-1,-1,-1,-1,-1,-1,-1,-1,-1,-1,-1,-1,-1,-1,-1,-1,-1,-1,-1,-1,-1,-1,-1,-1,-1,-1,-1,-1,-1,-1,-1,-1,-1,-1,-1,-1,-1,-1,-1,-1,-1,-1,-1,-1,-1,-1,-1,-1,-1,-1,-1,-1,-1,-1,-1,-1,-1,-1,-1,-1,-1,-1,-1,-1,-1,-1,-1,-1,-1,-1,-1,-1,-1,-1,-1,-1,-1,-1,-1,-1,-1,-1,-1,-1,-1,-1,-1,-1,-1,-1,-1,-1,-1,-1,-1,-1,-1,-1,-1,-1,-1,-1,-1,-1,-1,-1,-1,-1,-1,-1,-1,-1,-1,-1,-1,-1,-1,-1,-1,-1,-1,-1,-1,-1],"loss_changes":[6.964486E6,8.98798E5,1.0543625E6,1.0296425E5,1.362339E5,2.33142E5,1.11186E5,8.32025E3,1.6785812E4,2.4450117E4,5.0927625E4,7.042706E4,7.7797875E4,4.384725E4,2.77355E4,1.079125E3,1.749875E3,4.875125E3,1.1210406E4,2.885121E4,4.734379E3,3.1455453E4,2.8513787E4,1.4228625E4,4.6953547E4,4.6167062E4,4.4241875E4,7.255375E3,1.8727188E4,1.11936875E4,2.754225E4,2.45E2,0E0,2.579375E2,2.1578594E3,3.362125E3,3.2039531E3,4.3467207E3,5.8857734E3,1.2181297E4,6.5657793E3,1.5043163E3,6.212969E2,8.706242E3,1.5489016E4,7.0693037E3,1.3635836E4,7.7273125E3,5.9145625E3,2.166439E4,7.6806953E3,1.1767156E4,9.695656E3,9.529125E3,6.5485625E3,6.827233E1,6.027875E3,6.946953E3,1.1768625E4,1.8951357E3,5.807711E3,4.701375E3,2.151875E2,0E0,3.38625E2,0E0,6.509375E1,9.223535E2,1.6377031E3,6.56617E3,9.6875E2,2.5277344E3,1.3015391E3,2.5504521E3,1.0281006E3,3.992422E2,2.6610938E3,6.831881E3,1.6798984E3,4.358706E3,3.6099248E3,1.5927441E2,6.2948236E2,2.6037384E2,3.424414E2,3.5023223E3,2.554877E3,3.6913242E3,1.6068594E3,4.488993E3,1.3419307E3,4.270672E3,2.2988845E3,5.3378906E3,4.207633E3,2.37775E3,1.5063872E2,7.7789424E3,1.4824984E4,3.7368896E2,3.5228315E3,4.2200938E3,1.8784531E3,4.727664E3,5.0210312E3,2.0270625E3,1.6966875E3,5.195125E3,3.8912422E3,0E0,0E0,2.4155E3,2.4153125E3,1.8490938E3,7.708069E2,2.3420781E3,1.2834062E3,0E0,8.490744E1,6.422703E3,4.2851562E0,0E0,4.33375E3,0E0,0E0,2E1,0E0,1.0828113E3,0E0,3.6274023E2,3.7659082E2,0E0,3.5604688E2,1.0732369E4,9.210762E2,8.9559375E2,0E0,2.9479658E3,1.0748594E3,3.3660156E2,0E0,1.3987234E3,1.2557443E3,5.0132324E2,5.926787E2,3.055879E2,1.3675E2,1.4319277E3,1.2651289E3,3.433418E3,5.7896562E3,6.6771094E2,5.622207E2,3.086246E3,9.1150195E2,2.204205E3,9.17109E2,0E0,0E0,0E0,2.8458835E2,0E0,2.3804876E1,5.562832E2,2.916211E1,5.2492316E2,1.169081E3,1.6872266E3,1.0089912E3,1.4176719E3,1.6640469E3,6.8953125E2,4.6785547E2,1.3035642E3,1.8734956E3,6.869348E2,5.255864E2,3.4024297E3,8.7377344E2,1.8246628E3,1.3500221E3,4.630586E2,4.1485312E3,7.597665E2,1.5262266E3,1.3886602E3,1.0650312E3,1.842041E-1,0E0,3.5030781E3,1.4685652E3,9.125828E3,6.322918E3,0E0,0E0,2.2070825E3,7.621465E2,5.85625E1,1.0561094E3,1.2209375E2,0E0,1.2962891E3,1.5848438E3,1.5732969E3,1.02954E3,1.3221875E2,0E0,9.09125E2,8.143125E2,5.563047E2,1.4379062E3,1.6776719E3,2.1757866E3,1.4570625E3,2.3271729E3,1.2228955E3,3.805E2,0E0,3.8366406E3,2.1498592E2,6.712324E2,1.8316719E3,1.4838745E3,0E0,0E0,0E0,0E0,0E0,2.5203672E3,0E0,0E0,5.662125E3,0E0,0E0,0E0,0E0,0E0,0E0,0E0,0E0,0E0,0E0,0E0,0E0,0E0,0E0,0E0,0E0,0E0,0E0,0E0,0E0,0E0,0E0,0E0,0E0,0E0,0E0,0E0,0E0,0E0,0E0,0E0,0E0,0E0,0E0,0E0,0E0,0E0,0E0,0E0,0E0,0E0,0E0,0E0,0E0,0E0,0E0,0E0,0E0,0E0,0E0,0E0,0E0,0E0,0E0,0E0,0E0,0E0,0E0,0E0,0E0,0E0,0E0,0E0,0E0,0E0,0E0,0E0,0E0,0E0,0E0,0E0,0E0,0E0,0E0,0E0,0E0,0E0,0E0,0E0,0E0,0E0,0E0,0E0,0E0,0E0,0E0,0E0,0E0,0E0,0E0,0E0,0E0,0E0,0E0,0E0,0E0,0E0,0E0,0E0,0E0,0E0,0E0,0E0,0E0,0E0,0E0,0E0,0E0,0E0,0E0,0E0,0E0,0E0,0E0,0E0,0E0,0E0,0E0,0E0,0E0,0E0,0E0,0E0,0E0,0E0,0E0,0E0,0E0,0E0,0E0,0E0,0E0,0E0,0E0,0E0,0E0,0E0,0E0,0E0,0E0,0E0,0E0,0E0,0E0,0E0,0E0,0E0,0E0,0E0,0E0,0E0,0E0,0E0,0E0,0E0,0E0,0E0,0E0,0E0,0E0,0E0,0E0,0E0,0E0,0E0,0E0,0E0,0E0,0E0,0E0,0E0],"parents":[2147483647,0,0,1,1,2,2,3,3,4,4,5,5,6,6,7,7,8,8,9,9,10,10,11,11,12,12,13,13,14,14,15,15,16,16,17,17,18,18,19,19,20,20,21,21,22,22,23,23,24,24,25,25,26,26,27,27,28,28,29,29,30,30,31,31,33,33,34,34,35,35,36,36,37,37,38,38,39,39,40,40,41,41,42,42,43,43,44,44,45,45,46,46,47,47,48,48,49,49,50,50,51,51,52,52,53,53,54,54,55,55,56,56,57,57,58,58,59,59,60,60,61,61,62,62,64,64,66,66,67,67,68,68,69,69,70,70,71,71,72,72,73,73,74,74,75,75,76,76,77,77,78,78,79,79,80,80,81,81,82,82,83,83,84,84,85,85,86,86,87,87,88,88,89,89,90,90,91,91,92,92,93,93,94,94,95,95,96,96,97,97,98,98,99,99,100,100,101,101,102,102,103,103,104,104,105,105,106,106,107,107,108,108,111,111,112,112,113,113,114,114,115,115,116,116,118,118,119,119,120,120,122,122,125,125,127,127,129,129,130,130,132,132,133,133,134,134,135,135,137,137,138,138,139,139,141,141,142,142,143,143,144,144,145,145,146,146,147,147,148,148,149,149,150,150,151,151,152,152,153,153,154,154,155,155,156,156,160,160,162,162,163,163,164,164,165,165,166,166,167,167,168,168,169,169,170,170,171,171,172,172,173,173,174,174,175,175,176,176,177,177,178,178,179,179,180,180,181,181,182,182,183,183,184,184,185,185,186,186,187,187,189,189,190,190,191,191,192,192,195,195,196,196,197,197,198,198,199,199,201,201,202,202,203,203,204,204,205,205,207,207,208,208,209,209,210,210,211,211,212,212,213,213,214,214,215,215,216,216,218,218,219,219,220,220,221,221,222,222,228,228,231,231],"right_children":[2,4,6,8,10,12,14,16,18,20,22,24,26,28,30,32,34,36,38,40,42,44,46,48,50,52,54,56,58,60,62,64,-1,66,68,70,72,74,76,78,80,82,84,86,88,90,92,94,96,98,100,102,104,106,108,110,112,114,116,118,120,122,124,-1,126,-1,128,130,132,134,136,138,140,142,144,146,148,150,152,154,156,158,160,162,164,166,168,170,172,174,176,178,180,182,184,186,188,190,192,194,196,198,200,202,204,206,208,210,212,-1,-1,214,216,218,220,222,224,-1,226,228,230,-1,232,-1,-1,234,-1,236,-1,238,240,-1,242,244,246,248,-1,250,252,254,-1,256,258,260,262,264,266,268,270,272,274,276,278,280,282,284,286,-1,-1,-1,288,-1,290,292,294,296,298,300,302,304,306,308,310,312,314,316,318,320,322,324,326,328,330,332,334,336,338,340,-1,342,344,346,348,-1,-1,350,352,354,356,358,-1,360,362,364,366,368,-1,370,372,374,376,378,380,382,384,386,388,-1,390,392,394,396,398,-1,-1,-1,-1,-1,400,-1,-1,402,-1,-1,-1,-1,-1,-1,-1,-1,-1,-1,-1,-1,-1,-1,-1,-1,-1,-1,-1,-1,-1,-1,-1,-1,-1,-1,-1,-1,-1,-1,-1,-1,-1,-1,-1,-1,-1,-1,-1,-1,-1,-1,-1,-1,-1,-1,-1,-1,-1,-1,-1,-1,-1,-1,-1,-1,-1,-1,-1,-1,-1,-1,-1,-1,-1,-1,-1,-1,-1,-1,-1,-1,-1,-1,-1,-1,-1,-1,-1,-1,-1,-1,-1,-1,-1,-1,-1,-1,-1,-1,-1,-1,-1,-1,-1,-1,-1,-1,-1,-1,-1,-1,-1,-1,-1,-1,-1,-1,-1,-1,-1,-1,-1,-1,-1,-1,-1,-1,-1,-1,-1,-1,-1,-1,-1,-1,-1,-1,-1,-1,-1,-1,-1,-1,-1,-1,-1,-1,-1,-1,-1,-1,-1,-1,-1,-1,-1,-1,-1,-1,-1,-1,-1,-1,-1,-1,-1,-1,-1,-1,-1,-1,-1,-1,-1,-1,-1,-1,-1,-1,-1],"split_conditions":[4.473E1,1.775E1,8.843E1,7.62E0,2.76E1,5.395E1,1.1253E2,4.42E0,1.62E1,5.317E1,1.53E1,1.675E1,6.895E1,8.372E1,4.473E1,6.49E1,1.04E1,1.198E1,6.45E0,2.988E1,2.688E1,2.852E1,3.308E1,6.305E1,6.108E1,2.988E1,5.53E1,1.145E1,5.53E1,1.747E1,1.4472E2,3.85E0,2.975587E-1,5.4E0,4.42E0,6.17E0,2.895E1,8.53E0,1.115E1,3.072E1,3.308E1,-1.7E-1,-2.87E0,5.135E1,6.91E1,3.848E1,3.508E1,4.223E1,4.05E0,5.18E1,5.255E1,5.735E1,5.885E1,2.633E1,8.688E1,1E-2,8.247E1,5.825E1,1.0007E2,7.07E0,1.194E2,-5.14E0,1.1632E2,-1.1163486E0,9.01E1,-1.0355989E0,2.5E0,2.32E1,1.75E0,2.02E1,8.372E1,6.45E0,8.372E1,1.307E1,1.62E1,7.3E0,1.218E1,1.393E1,5.32E1,2.12E1,3.908E1,5.66E1,5.735E1,2.799E1,8.255E1,2.117E1,6.67E0,3.57E1,1.873E1,2.215E1,5.18E1,3.908E1,5.53E1,-4.12E0,5.042E1,-2.16E0,1.9964E2,5.735E1,3.417E1,1.64E0,8.41E1,2.95E1,8.338E1,6.115E1,6.305E1,4.542E1,7.247E1,7.588E1,5.097E1,3.1445438E-1,-1.145063E-1,5.115E1,3.452E1,9.415E1,4.9E-1,2.206E1,4.5E0,1.0903256E0,2.042E1,-4.92E0,2.708E1,1.8390714E-1,1.259E2,5.305376E0,2.1954253E0,-5.54E0,-6.536446E-2,1.6604E2,-9.7355765E-1,2.127E1,5.8E0,3.5105106E-1,4.02E0,-2.45E0,6.07E0,2E1,4.1075847E-1,4.2E0,4.065E1,-3.17E0,4.9082175E-1,5.32E1,6.475E1,1.147E1,1.257E1,3.48E0,2.556E1,1.37E1,1.53E1,4.81E1,2.25E1,7.83E0,1.055E1,3.742E1,3.35E0,2.075E1,1.51E0,-1.24385394E-1,-7.166055E-1,7.254572E-1,5.395E1,-5.600728E-1,7.875E1,4.28E1,3.108E1,5.22E0,1.53E1,4.352E1,3.742E1,2.25E1,3.505E1,-3.46E0,2.3E-1,-2.69E0,2.988E1,2.23E0,2.62E1,3.033E1,3.15E1,4.027E1,1.1E1,5.19E1,9.93E0,9.33E0,6.668E1,1.186E1,7.347E1,1.2435E2,1.9327278E-1,2.515E1,1.977E1,7.005E1,5.66E1,1.6920556E0,2.7529302E-1,2.555E1,2.82E0,4.2E-1,4.9E1,5.29E0,3.031835E0,5.18E1,4.095E1,5.66E1,3.61E1,2.595E1,3.732439E-1,1.51E1,1.4472E2,7.347E1,8.688E1,7.347E1,3.06E1,9.415E1,9.782E1,2.988E1,1.0255E2,1.3667674E0,5.317E1,7.64E0,1.4472E2,1.3195E2,1.4034E2,2.958776E0,5.102354E-1,-6.0042053E-1,-3.2860186E-2,-5.032171E-1,1.9031E2,2.0323707E-2,1.7220917E-1,1.259E2,4.177133E0,-2.929025E-1,-1.0568845E0,-8.2445854E-1,5.241059E-1,-7.9071474E-1,8.772955E-2,-3.2821E-1,-7.227331E-1,-7.6382816E-1,-9.5307034E-1,4.074216E0,-5.1394343E-1,-6.652923E-1,-2.8689686E-2,-8.2175124E-1,-9.6705455E-1,8.978475E-1,-3.8784382E-1,-6.527879E-1,-2.6352156E-2,-3.7460214E-1,-9.8367137E-1,-4.4052583E-1,-6.6718005E-2,-3.4460556E-2,4.3794137E-1,-6.951534E-1,-4.395474E-1,1.2339065E-1,-4.5721412E-1,-1.7281626E-1,-6.7696136E-1,-7.3216134E-1,-8.6843204E-1,-5.013108E-1,-2.458444E-1,-6.8408865E-1,-4.685166E-1,-1.457758E-1,2.7034974E-1,-4.5490298E-1,-1.7305638E-1,-7.5419825E-1,-4.682487E-1,-3.8228065E-1,-8.3745223E-1,3.48964E-1,9.17356E-1,-3.635531E-1,1.3300236E-1,-3.293589E-1,-3.7305893E-3,3.328807E-1,-6.355981E-2,-3.944888E-1,1.7674865E-1,7.601087E-2,-1.4709416E-1,-8.2689136E-1,-3.8993236E-1,-4.7061267E-1,-9.843303E-1,6.470606E-1,-1.8402748E-1,4.518299E-1,1.281408E-1,4.821832E-1,1.0080651E0,5.00466E-1,-8.3641276E-2,7.6149136E-1,3.383318E-1,4.8821387E-1,1.1796093E0,7.3490155E-1,1.9071807E0,6.76418E-1,1.3874595E0,3.9128506E-1,-3.8486102E-1,-3.6056504E-2,1.6073433E-1,-4.7130132E-1,-4.638412E-2,-3.4289217E-1,-9.641611E-1,7.0406693E-1,2.7925116E-1,1.0126761E0,7.1877563E-1,9.486559E-2,3.8650307E-1,-4.4597283E-1,7.741583E-2,8.7534857E-1,3.5844498E0,4.8318362E-1,1.5143769E0,1.0041078E-1,6.063916E-1,1.1490413E0,1.15033984E-1,-2.2873716E-1,1.476136E0,1.8869257E0,2.473378E0,-4.6073896E-1,-1.2302194E-1,2.2944763E-1,6.759263E-1,3.3668205E-1,-2.4638379E-1,9.7833633E-1,1.5717882E0,1.2176564E0,4.8877683E-1,-2.3468478E-1,5.2631783E-1,-7.849298E-1,-1.8396433E-1,9.716892E-1,1.9949502E0,1.0873393E0,1.539075E0,2.2080789E0,5.970203E-1,8.643827E-1,1.1469179E0,6.383118E-1,-4.6753254E-2,1.7117672E0,1.3527162E0,9.92935E-1,4.0607476E-1,1.9866211E0,3.1344821E0,2.175167E-1,1.989961E0,2.4873083E0,8.279428E-1,1.809918E0,1.434103E0,2.184007E0,1.5832186E0,1.1295542E0,1.6980816E0,-3.819612E-1,9.709201E-1,3.1065266E0,3.7499967E0,2.2619607E0,-1.7880873E-1,6.213204E-1,2.1326253E0,2.7613096E0,3.2786126E0,2.2552989E0,7.4282587E-1,3.660988E-1,-3.0415595E-1,9.828783E-1,-8.628401E-3,2.2783244E0,8.677935E-1,1.1930833E0,-6.279892E-1,3.3435848E0,1.1901762E0,3.7024395E0,2.587213E0],"split_indices":[7,7,7,7,12,12,7,7,12,8,9,10,7,9,12,8,12,7,11,7,14,7,7,7,13,9,9,12,12,2,7,7,0,7,11,8,8,8,7,8,9,4,4,13,13,8,9,8,4,7,8,7,7,9,9,0,8,13,7,11,1,6,10,0,12,0,9,12,8,15,8,8,8,7,7,8,8,8,13,11,7,9,8,2,13,7,9,7,8,7,8,7,8,4,7,6,0,8,13,4,13,8,13,9,10,10,7,7,13,0,0,11,12,7,0,3,6,0,0,4,0,0,7,0,0,4,0,0,0,3,9,0,8,4,8,8,0,11,2,4,0,15,14,7,8,9,1,7,7,13,7,11,10,7,10,11,6,0,0,0,1,0,0,7,15,8,8,12,11,8,12,6,0,4,7,4,14,8,8,7,11,0,12,3,13,2,7,0,0,12,1,7,8,0,0,11,4,0,7,6,0,7,15,8,14,13,0,15,12,8,8,7,15,7,7,14,7,0,12,3,8,8,0,0,0,0,0,0,0,0,0,9,0,0,0,0,0,0,0,0,0,0,0,0,0,0,0,0,0,0,0,0,0,0,0,0,0,0,0,0,0,0,0,0,0,0,0,0,0,0,0,0,0,0,0,0,0,0,0,0,0,0,0,0,0,0,0,0,0,0,0,0,0,0,0,0,0,0,0,0,0,0,0,0,0,0,0,0,0,0,0,0,0,0,0,0,0,0,0,0,0,0,0,0,0,0,0,0,0,0,0,0,0,0,0,0,0,0,0,0,0,0,0,0,0,0,0,0,0,0,0,0,0,0,0,0,0,0,0,0,0,0,0,0,0,0,0,0,0,0,0,0,0,0,0,0,0,0,0,0,0,0,0,0,0,0,0,0,0,0,0,0,0,0,0,0,0,0,0,0,0,0,0],"split_type":[0,0,0,0,0,0,0,0,0,0,0,0,0,0,0,0,0,0,0,0,0,0,0,0,0,0,0,0,0,0,0,0,0,0,0,0,0,0,0,0,0,0,0,0,0,0,0,0,0,0,0,0,0,0,0,0,0,0,0,0,0,0,0,0,0,0,0,0,0,0,0,0,0,0,0,0,0,0,0,0,0,0,0,0,0,0,0,0,0,0,0,0,0,0,0,0,0,0,0,0,0,0,0,0,0,0,0,0,0,0,0,0,0,0,0,0,0,0,0,0,0,0,0,0,0,0,0,0,0,0,0,0,0,0,0,0,0,0,0,0,0,0,0,0,0,0,0,0,0,0,0,0,0,0,0,0,0,0,0,0,0,0,0,0,0,0,0,0,0,0,0,0,0,0,0,0,0,0,0,0,0,0,0,0,0,0,0,0,0,0,0,0,0,0,0,0,0,0,0,0,0,0,0,0,0,0,0,0,0,0,0,0,0,0,0,0,0,0,0,0,0,0,0,0,0,0,0,0,0,0,0,0,0,0,0,0,0,0,0,0,0,0,0,0,0,0,0,0,0,0,0,0,0,0,0,0,0,0,0,0,0,0,0,0,0,0,0,0,0,0,0,0,0,0,0,0,0,0,0,0,0,0,0,0,0,0,0,0,0,0,0,0,0,0,0,0,0,0,0,0,0,0,0,0,0,0,0,0,0,0,0,0,0,0,0,0,0,0,0,0,0,0,0,0,0,0,0,0,0,0,0,0,0,0,0,0,0,0,0,0,0,0,0,0,0,0,0,0,0,0,0,0,0,0,0,0,0,0,0,0,0,0,0,0,0,0,0,0,0,0,0,0,0,0,0,0,0,0,0,0,0,0,0,0,0,0,0,0,0,0,0,0,0,0,0,0,0,0,0,0,0,0,0],"sum_hessian":[1.6098E4,1.2111E4,3.987E3,8.294E3,3.817E3,2.933E3,1.054E3,4.836E3,3.458E3,1.947E3,1.87E3,1.357E3,1.576E3,6.82E2,3.72E2,2.496E3,2.34E3,2.321E3,1.137E3,1.745E3,2.02E2,6.12E2,1.258E3,3.43E2,1.014E3,8.52E2,7.24E2,3.31E2,3.51E2,3.4E1,3.38E2,2.495E3,1E0,1.588E3,7.52E2,1.453E3,8.68E2,2.86E2,8.51E2,1.202E3,5.43E2,2E1,1.82E2,3.31E2,2.81E2,6.49E2,6.09E2,2.31E2,1.12E2,8.84E2,1.3E2,2.84E2,5.68E2,3.04E2,4.2E2,2E0,3.29E2,8.7E1,2.64E2,6E0,2.8E1,2.9E2,4.8E1,1.847E3,6.48E2,6.55E2,9.33E2,1.17E2,6.35E2,1.6E2,1.293E3,7.75E2,9.3E1,1.59E2,1.27E2,3.06E2,5.45E2,9.44E2,2.58E2,2.59E2,2.84E2,7E0,1.3E1,1.1E1,1.71E2,1.75E2,1.56E2,1.97E2,8.4E1,5.75E2,7.4E1,3.37E2,2.72E2,1.25E2,1.06E2,1.09E2,3E0,2.62E2,6.22E2,5E0,1.25E2,1.68E2,1.16E2,2.84E2,2.84E2,9.5E1,2.09E2,2.88E2,1.32E2,1E0,1E0,1.69E2,1.6E2,7.2E1,1.5E1,1.3E2,1.34E2,3E0,3E0,2.6E1,2E0,1E0,2.89E2,4.6E1,2E0,6.47E2,1E0,1.3E1,9.2E2,8.2E1,3.5E1,2E0,6.33E2,4E0,1.56E2,1.292E3,1E0,4.8E1,7.27E2,9.2E1,1E0,1.04E2,5.5E1,1.1E2,1.7E1,6.9E1,2.37E2,2.26E2,3.19E2,2.12E2,7.32E2,1.58E2,1E2,1.22E2,1.37E2,2.07E2,7.7E1,2E0,5E0,4E0,9E0,8E0,3E0,8.9E1,8.2E1,6.1E1,1.14E2,8.1E1,7.5E1,1.06E2,9.1E1,5.6E1,2.8E1,8.7E1,4.88E2,5E1,2.4E1,1.95E2,1.42E2,2.24E2,4.8E1,4E0,1.21E2,3E1,7.6E1,2.2E1,8.7E1,2E0,1E0,2.02E2,6E1,3.91E2,2.31E2,4E0,1E0,8.2E1,4.3E1,7E1,9.8E1,1E2,1.6E1,2.25E2,5.9E1,2.37E2,4.7E1,9.4E1,1E0,4.7E1,1.62E2,1.12E2,1.76E2,1.12E2,2E1,1.63E2,6E0,9E0,1.51E2,2.1E1,5.1E1,3E0,1.2E1,1.27E2,3E0,1.33E2,1E0,2E0,1E0,1E0,2.5E1,1E0,1E0,1.8E2,1.09E2,1E0,6.46E2,1.2E1,1E0,8.1E1,1E0,2.6E1,9E0,5.3E1,5.8E2,1E0,3E0,1.5E2,6E0,1.134E3,1.58E2,4E0,4.4E1,7.2E2,7E0,4E0,8.8E1,4.1E1,6.3E1,2.8E1,2.7E1,3.2E1,7.8E1,1.1E1,6E0,4E0,6.5E1,8.4E1,1.53E2,1.13E2,1.13E2,1.97E2,1.22E2,1.35E2,7.7E1,3.71E2,3.61E2,2.8E1,1.3E2,1E1,9E1,8.9E1,3.3E1,9E0,1.28E2,1.01E2,1.06E2,5.8E1,1.9E1,2E0,7E0,2E0,1E0,7.8E1,1.1E1,3E0,7.9E1,1E0,6E1,6.2E1,5.2E1,2.5E1,5.6E1,6.7E1,8E0,7.6E1,3E1,1.2E1,7.9E1,3E0,5.3E1,6E0,2.2E1,5E0,8.2E1,2.71E2,2.17E2,3.7E1,1.3E1,6E0,1.8E1,8.4E1,1.11E2,5.1E1,9.1E1,1.35E2,8.9E1,2.2E1,2.6E1,1E0,3E0,1.2E1,1.09E2,1.4E1,1.6E1,7.2E1,4E0,1E0,2.1E1,5.5E1,3.2E1,1E0,1E0,6.7E1,1.35E2,1.3E1,4.7E1,3.04E2,8.7E1,3.5E1,1.96E2,7.2E1,1E1,3.6E1,7E0,3E0,6.7E1,3.3E1,6.5E1,9.9E1,1E0,8.8E1,1.37E2,4.9E1,1E1,6.3E1,1.74E2,3.5E1,1.2E1,7E0,8.7E1,1E0,4.6E1,1.6E2,2E0,5E1,6.2E1,1.51E2,2.5E1,2.6E1,8.6E1,3E0,1.7E1,6.1E1,1.02E2,5E0,1E0,3E0,6E0,9.1E1,6E1,4.5E1,6E0,1E0,2E0,1E1,2E0,1.23E2,4E0,2E0,1E0,2.2E1,3E0,1.56E2,2.4E1],"tree_param":{"num_deleted":"0","num_feature":"19","num_nodes":"403","size_leaf_vector":"1"}},{"base_weights":[6.363824E-2,-1.1313589E1,3.4877937E1,-1.7304659E1,-5.0876606E-2,2.2816498E1,5.4563076E1,-1.9683723E1,-1.3596748E1,-5.3734617E0,6.052707E0,1.5749853E1,3.1728241E1,4.748834E1,7.139019E1,-2.0899807E1,-1.8346249E1,-1.4662863E1,-1.0019944E1,-4.289445E0,-1.5272075E1,4.138856E0,1.8303078E1,1.974651E1,6.4184294E0,2.8787233E1,4.3467808E1,4.9298653E1,2.408812E1,6.410658E1,8.054016E1,-2.0912767E1,2.9011974E-1,-1.8566942E1,-1.4115428E1,-9.694568E0,-1.4993299E1,-1.2558909E1,-4.7798405E0,-6.4299936E0,3.7263548E0,-1.67644E1,-7.397686E0,-7.964929E-1,7.7303863E0,1.0349893E1,2.5712324E1,2.6500496E1,1.6551308E1,1.3125075E1,-9.676319E-1,2.3077559E1,3.4027958E1,4.4329594E1,2.136824E1,4.4516365E1,5.5779537E1,4.3207382E1,1.580542E1,4.207383E1,6.583204E1,4.7002388E1,8.395181E1,-1.0568792E0,-1.005203E0,-1.9140966E1,-1.7601645E1,-8.768041E0,-1.664429E1,-1.0822142E1,3.4449337E1,-1.6418167E1,-1.3789827E1,-1.4596804E1,-1.1083511E1,-1.5833623E0,-8.829892E0,-8.397827E-1,-7.7974815E0,8.396186E0,8.9650786E-1,-7.861691E0,-1.7391571E1,-3.0535324E0,-1.5182775E1,2.542377E0,-4.58149E0,1.4433591E1,4.708962E0,-2.0978513E0,1.3980717E1,1.6717592E1,3.395425E1,2.0220457E1,3.2648376E1,1.0432542E1,1.9210344E1,2.6026886E1,8.770334E0,5.137474E0,-9.241613E0,2.7393486E1,1.8074873E1,4.267963E1,2.9442772E1,3.7859398E1,4.883398E1,4.64255E0,1.2484673E0,5.1515022E1,3.723676E1,6.438688E1,4.9051205E1,-3.838073E0,4.787067E1,2.720575E1,7.0353184E0,1.39141E1,4.7881172E1,6.6601685E1,1.7723783E1,5.7805233E1,1.2161547E1,8.610732E1,4.4379143E1,-1.3377857E1,-1.922166E1,-9.07636E-1,-1.6042055E1,-4.6821303E0,-1.602172E1,3.3934936E-1,-1.7341038E1,-1.3366636E1,-6.8674393E0,3.9723604E0,-3.5161775E-1,-1.645019E1,4.0048948E-1,-1.3444707E1,-1.7997355E1,-4.76888E0,-1.4774859E1,-4.381578E0,-1.2109299E1,-7.1642375E0,2.0189693E0,-1.3150772E1,-6.605037E0,-2.9173849E0,9.034653E0,-1.0149362E1,-5.0351524E0,7.5966654E0,2.3986022E0,-1.7470877E0,4.8046446E0,-7.490602E-1,-6.494057E-1,-9.834102E0,-1.784684E1,-7.583839E0,1.0476972E0,-2.9977646E-1,-8.154068E-1,-2.3882685E0,6.5452247E0,-3.5927746E0,-9.65994E0,1.1827411E1,2.1833197E1,8.964406E0,2.0672698E0,2.6725028E0,-7.7405777E0,9.469765E0,1.780232E1,2.4000568E1,6.935237E0,2.7058947E1,1.8953428E0,3.33217E1,1.4845006E1,3.5760128E1,2.5723694E1,1.2727476E1,-2.1559972E-2,2.1008854E1,1.1598373E1,1.7424229E0,1.9357147E1,3.4811766E0,1.6691198E1,-9.1021305E-1,1.377801E1,4.4484383E-1,-1.170601E1,3.4383274E1,2.5227493E1,1.0131725E1,2.0292955E1,2.7367432E0,4.0033012E1,3.0650764E1,1.4374391E1,3.9882988E1,2.4169945E1,5.2833282E1,3.6931736E1,4.4373322E-2,3.0381796E-1,5.897882E1,4.7880566E1,3.8475433E1,2.1561493E1,7.010607E1,2.900791E0,3.6234535E1,5.163917E1,1.6136499E-1,-4.4922048E-1,5.191191E-1,2.4612982E0,1.010294E-2,2.8371038E1,1.3229796E1,-4.9075003E0,-2.7516963E0,1.2970932E0,4.9308357E0,5.3279163E1,3.5710952E0,5.8612988E1,1.1949897E0,2.819923E-1,6.3336E1,-4.9063668E-1,-5.45774E-1,1.8960047E1,8.024811E1,9.847318E1,2.9596164E0,2.2169437E1,-1.9019686E-1,-7.9849774E-1,-2.0117998E-1,-9.615022E-1,-6.273691E-1,-8.56613E-1,-4.3714148E-1,-1.0830339E-1,1.6306018E-2,-8.652167E-1,-3.338676E-1,-9.240317E-1,-6.906845E-1,-1.546706E-1,-4.7667605E-1,2.1848667E-2,-7.9877037E-1,-9.0209883E-1,-5.56016E-1,-6.955559E-1,4.785512E-1,-9.2096967E-1,-5.6946326E-2,-2.6958185E-1,-7.657065E-1,-5.722672E-1,-1.0519103E-1,-5.388346E-1,6.663161E-2,-6.169442E-1,-4.5533815E-1,3.4872133E-3,8.064072E-3,4.2559585E-1,-7.2891647E-1,6.0024478E-2,-4.3992406E-1,-1.3929531E-1,-2.524944E-1,1.9324622E-1,9.0302247E-1,1.4643534E-1,-5.1511365E-1,1.420165E0,-1.3581304E-1,-4.944695E-1,6.054094E-1,1.763269E-1,-3.784388E-1,-2.0027006E-2,2.7111217E-1,-4.501171E-1,-3.220352E-1,2.056757E-1,-6.7778814E-1,-2.619618E-1,-8.641625E-3,-8.978111E-1,-4.6781355E-1,2.9782268E-1,-7.908314E-2,4.0082565E-1,-1.9023912E-1,6.298565E-1,1.0761884E-2,4.06322E-1,-2.1737245E-1,6.837174E-2,-3.5379216E-1,-8.2688296E-1,4.5628372E-1,8.03507E-1,4.7837934E-1,1.1453865E0,2.7034897E-1,6.4269304E-1,1.8496488E-1,-5.04868E-2,-4.0235242E-1,2.7721694E-1,-5.3458214E-1,-1.0119418E-1,5.033096E-1,-4.6405718E-1,1.2412698E0,7.3223346E-1,1.2884605E0,-2.6116583E-1,-6.2100686E-2,7.5976443E-1,1.4676867E0,7.826685E-1,1.5027045E0,3.398052E0,-6.0646057E-2,8.0520004E-1,1.8105482E0,4.3309808E-1,1.3385383E0,2.3482642E-3,5.8338165E-1,1.2070227E0,-1.2597245E-1,4.6741095E-1,8.940159E-1,1.3377813E0,7.1939504E-1,9.402402E-2,1.00763045E-1,1.2888192E0,3.3168828E-1,-3.0579185E-1,6.247758E-1,1.2443565E0,-2.5821576E-1,3.0802125E-1,8.5583305E-1,2.7572232E-1,-4.22379E-1,4.2017704E-1,-6.530805E-1,-7.59316E-2,1.4725741E0,2.196368E0,1.1163356E0,1.4560603E0,-7.4270415E-1,5.8196497E-1,1.077626E0,4.0804583E-1,1.8542492E0,2.3220315E0,1.3295358E0,1.6857197E0,-2.445302E-1,8.174028E-1,2.0065362E0,5.325778E-1,5.940202E-1,1.394886E0,6.219058E-1,2.6581094E0,8.122092E-2,1.8992163E0,3.6391282E-1,2.9738975E0,2.2338395E0,2.7279017E0,2.1088507E0,1.6742432E0,4.329444E-1,1.3332602E0,8.961776E-1,3.5247693E0,1.9786158E0,6.707807E-1,2.6519616E0,1.8403362E0,1.4643365E0,2.0564537E-1,3.0016226E-1,9.375826E-1,-4.4517246E-1,5.024081E-1,-3.203869E-2,-1.7433853E-1,5.7275933E-1,-2.0294666E-1,2.8514102E0,1.9815637E-2,2.9596646E0,1.5964298E-1,5.719792E-1,3.322403E0,1.0603925E0,2.4922095E-1,2.4641702E0,4.074453E0,1.1838483E0,4.9780416E0,1.2584424E0,1.7930947E-1],"categories":[],"categories_nodes":[],"categories_segments":[],"categories_sizes":[],"default_left":[0,0,0,0,0,0,0,0,0,0,0,0,0,0,0,0,0,0,0,0,0,0,0,0,0,0,0,0,0,0,0,0,0,0,0,0,0,0,0,0,0,0,0,0,0,0,0,0,0,0,0,0,0,0,0,0,0,0,0,0,0,0,0,0,0,0,0,0,0,0,0,0,0,0,0,0,0,0,0,0,0,0,0,0,0,0,0,0,0,0,0,0,0,0,0,0,0,0,0,0,0,0,0,0,0,0,0,0,0,0,0,0,0,0,0,0,0,0,0,0,0,0,0,0,0,0,0,0,0,0,0,0,0,0,0,0,0,0,0,0,0,0,0,0,0,0,0,0,0,0,0,0,0,0,0,0,0,0,0,0,0,0,0,0,0,0,0,0,0,0,0,0,0,0,0,0,0,0,0,0,0,0,0,0,0,0,0,0,0,0,0,0,0,0,0,0,0,0,0,0,0,0,0,0,0,0,0,0,0,0,0,0,0,0,0,0,0,0,0,0,0,0,0,0,0,0,0,0,0,0,0,0,0,0,0,0,0,0,0,0,0,0,0,0,0,0,0,0,0,0,0,0,0,0,0,0,