{"learner":{"attributes":{"best_iteration":"152","best_score":"6.428915187439288","scikit_learn":"{\"_estimator_type\": \"regressor\"}"},"feature_names":["O3_forecast","NO2_forecast","T_forecast","q_forecast","u_forecast","v_forecast","w_forecast","O3_target_lag_1","O3_target_lag_2","O3_target_lag_3","O3_target_lag_6","O3_target_lag_12","O3_target_lag_24","NO2_target_lag_1","NO2_target_lag_2","NO2_target_lag_3","NO2_target_lag_6","NO2_target_lag_12","NO2_target_lag_24"],"feature_types":["float","float","float","float","float","float","float","float","float","float","float","float","float","float","float","float","float","float","float"],"gradient_booster":{"model":{"cats":{"enc":[],"feature_segments":[],"sorted_idx":[]},"gbtree_model_param":{"num_parallel_tree":"1","num_trees":"203"},"iteration_indptr":[0,1,2,3,4,5,6,7,8,9,10,11,12,13,14,15,16,17,18,19,20,21,22,23,24,25,26,27,28,29,30,31,32,33,34,35,36,37,38,39,40,41,42,43,44,45,46,47,48,49,50,51,52,53,54,55,56,57,58,59,60,61,62,63,64,65,66,67,68,69,70,71,72,73,74,75,76,77,78,79,80,81,82,83,84,85,86,87,88,89,90,91,92,93,94,95,96,97,98,99,100,101,102,103,104,105,106,107,108,109,110,111,112,113,114,115,116,117,118,119,120,121,122,123,124,125,126,127,128,129,130,131,132,133,134,135,136,137,138,139,140,141,142,143,144,145,146,147,148,149,150,151,152,153,154,155,156,157,158,159,160,161,162,163,164,165,166,167,168,169,170,171,172,173,174,175,176,177,178,179,180,181,182,183,184,185,186,187,188,189,190,191,192,193,194,195,196,197,198,199,200,201,202,203],"tree_info":[0,0,0,0,0,0,0,0,0,0,0,0,0,0,0,0,0,0,0,0,0,0,0,0,0,0,0,0,0,0,0,0,0,0,0,0,0,0,0,0,0,0,0,0,0,0,0,0,0,0,0,0,0,0,0,0,0,0,0,0,0,0,0,0,0,0,0,0,0,0,0,0,0,0,0,0,0,0,0,0,0,0,0,0,0,0,0,0,0,0,0,0,0,0,0,0,0,0,0,0,0,0,0,0,0,0,0,0,0,0,0,0,0,0,0,0,0,0,0,0,0,0,0,0,0,0,0,0,0,0,0,0,0,0,0,0,0,0,0,0,0,0,0,0,0,0,0,0,0,0,0,0,0,0,0,0,0,0,0,0,0,0,0,0,0,0,0,0,0,0,0,0,0,0,0,0,0,0,0,0,0,0,0,0,0,0,0,0,0,0,0,0,0,0,0,0,0,0,0,0,0,0,0],"trees":[{"base_weights":[-1.1346944E-1,-1.10746155E1,5.252464E1,-1.8684324E1,3.8370504E0,3.8666E1,9.013687E1,-2.299942E1,-1.2660658E1,-1.2704055E0,1.2909335E1,2.1132261E1,4.676467E1,7.588434E1,1.08579994E2,-2.4651855E1,-1.9971548E1,-1.5528261E1,-9.95603E0,-4.5764365E0,5.1104174E0,9.057064E0,2.1597517E1,2.6657854E1,1.36339035E1,3.806721E1,5.6152462E1,6.457731E1,8.592706E1,7.217206E1,1.1580945E2,-2.6117426E1,-2.361118E1,-2.100034E1,-1.5913472E1,-1.6634474E1,-1.0246053E1,-1.14879265E1,-6.459657E0,-7.3202977E0,-2.2457132E0,4.0090256E0,2.5116014E1,1.1085463E1,-1.0791578E0,3.6232807E1,1.5566132E1,2.1759079E1,3.8883987E1,2.2900427E1,7.0860567E0,5.331887E1,3.3761765E1,8.442854E1,5.2618626E1,7.151766E1,4.001961E1,5.2580028E0,7.860121E1,2.3949876E0,7.749347E1,1.0669358E2,1.2728865E2,-2.6136173E1,-1.3656664E-2,-1.2037559E0,-2.1283264E1,-1.8045938E1,-2.1230429E1,-1.6509544E1,-2.530015E0,-1.8472359E1,-1.5340021E1,-1.1386666E1,1.6889584E0,-6.8522115E0,-1.2255151E1,-7.8015847E0,2.063492E-1,-6.4948735E0,-1.3822696E1,-1.232272E0,-1.083917E1,1.0516714E1,2.4460032E0,1.008175E1,3.1700771E1,8.510158E0,1.5759101E1,4.8775744E0,-9.542211E0,2.8753685E1,4.3945564E1,1.725084E1,-2.3351517E-1,2.5168524E1,1.7969519E1,3.450065E1,6.6913445E1,1.7919691E1,3.670947E1,-9.3493156E-2,1.3590984E1,4.9418304E1,7.622641E1,2.9508812E1,3.7664856E1,4.2588954E0,7.805934E-1,4.5932175E1,5.7646088E1,1.9559336E-1,7.192596E1,4.883661E1,2.3101305E1,3.536863E0,4.289302E0,4.4779116E-1,-4.9641776E0,2.2696651E1,8.69407E1,2.1296246E0,5.362656E0,2.8984338E-1,6.416082E0,-1.1515665E-1,-2.615197E1,-1.0456733E1,-2.1484278E1,1.1234331E-1,-1.8250845E1,-1.0921676E0,-2.0432457E1,-1.6756704E1,4.1429873E0,7.455541E0,-1.2234459E1,-1.9386656E1,-1.628498E1,-4.6537155E-1,-1.5442898E1,-1.55152235E1,-1.0372255E1,8.917416E0,-1.0292969E1,-7.3439984E0,2.1400933E0,-1.54070015E1,-1.1214825E1,-8.140329E0,1.942926E0,5.7110443E0,-4.575204E0,-8.726099E0,-4.750265E0,-9.95214E0,-1.7566551E1,-2.3390636E0,1.5777584E0,-3.2945323E0,-1.5779553E1,5.6851683E0,1.6621788E1,-8.0751884E-1,6.0099077E0,1.20841255E1,-5.489067E-1,2.0014183E1,3.7696747E1,1.093261E1,4.9548125E0,1.4104128E1,2.271206E1,6.3810635E0,-3.8111916E0,-3.0438695E0,-1.4760771E1,2.1429342E1,3.417269E1,9.992494E-1,4.51126E1,8.158167E0,1.823623E1,-7.2225842E0,6.768527E0,2.2945932E1,3.3774746E1,1.302175E0,1.6678701E1,2.1256004E1,4.302421E1,1.9670724E0,3.9614131E0,2.0257874E1,2.0075896E0,1.0977487E1,4.2944878E1,1.5162971E1,-4.593868E0,1.035354E1,2.8008818E1,3.9602585E1,5.26541E1,4.0812345E0,2.1313493E0,3.368548E1,2.5907394E1,4.04048E1,2.6671541E1,4.8762436E1,3.504665E1,6.2492252E1,4.882468E1,6.3607063E1,7.847622E1,1.0350301E1,2.6364763E0,3.819665E1,7.205361E0,-3.5240665E-1,-1.9906664E-2,5.228987E0,3.5624985E1,9.048964E1,2.0580494E0,-1.309291E0,-7.9269713E-1,-1.3935064E-1,-8.7148494E-1,-8.0282176E-1,-1.0903205E0,-9.213838E-1,2.5593376E-2,-1.0001298E0,-1.1268853E0,2.1276508E-1,-8.475035E-1,-5.0454223E-1,8.4979117E-1,6.551556E-1,-1.4398496E-1,-7.889828E-1,5.7911556E-3,-9.732356E-1,-4.5075065E-1,-4.9814782E-1,-8.413888E-1,-7.148444E-1,2.0630932E0,-6.5731704E-1,-8.018679E-1,-7.8949606E-1,-2.3906661E-2,6.787652E-1,-5.373448E-1,9.9410087E-1,6.6243084E-3,-7.4371165E-1,7.214005E-2,-3.9761806E-1,1.6411246E0,-8.3194035E-1,-5.834339E-1,-6.1737525E-1,-4.5466557E-1,1.3571632E-2,-4.239454E-1,-2.009815E-1,8.528493E-1,6.630942E-2,5.672524E-1,-1.4257258E-1,-7.7476853E-1,1.5830934E0,-4.4699484E-1,1.6627267E-4,-3.138593E-1,-5.6142604E-1,1.8904936E-1,-9.2446184E-1,-1.3973494E-1,-1.3323624E-1,4.0995237E-1,3.1812912E-1,7.644491E-4,-4.4854903E-1,1.1391773E-1,1.2329117E-1,-8.198957E-1,2.0453632E-1,8.651295E-1,1.5658379E0,6.8920606E-1,-1.2488653E-1,1.2640712E-1,5.703877E-1,1.7095439E-1,1.7873894E-1,7.8135157E-1,5.4747593E-1,1.3757315E0,1.9722775E0,6.7362446E-1,4.4305357E-1,7.4420977E-1,2.4404218E-2,3.4313074E-1,1.5960263E-1,7.602288E-1,1.4079571E0,6.125699E-1,-2.8521162E-1,3.7036073E-1,3.4064937E-1,-3.8021228E-1,-2.529285E-1,5.2294934E-1,-1.21554255E-1,-8.347238E-1,-1.0554222E-1,1.1459993E0,-1.2115665E-1,1.7562188E0,1.5590955E0,2.383919E0,-1.7326854E-1,5.434761E-1,8.5447115E-1,1.3420403E0,-1.2942117E-1,-6.3458663E-1,4.196076E-1,-5.0609946E-2,1.178898E0,2.3524939E-1,1.7675956E0,4.949579E-1,4.5648295E-1,9.192336E-1,2.8562078E-1,1.6783446E0,2.302387E0,7.856601E-1,6.4821804E-1,1.1857237E0,5.012259E-1,-5.6105065E-1,1.2896246E0,-5.350628E-3,-6.361567E-1,2.3026783E0,1.9387912E0,4.8939377E-1,-6.364711E-2,-5.429413E-1,7.150826E-1,1.6949461E-1,1.585057E0,1.3362446E-1,1.8309335E-1,2.0237494E0,2.1721823E0,2.9159124E0,1.3308946E0,1.8307551E0,1.3309474E0,2.0782225E-1,2.3406434E0,1.8915033E0,1.4415048E0,1.0398892E-1,4.0134335E-1,2.446218E0,1.8262471E0,-1.8687554E-1,3.1339939E0,5.725934E-1,2.6286457E0,1.4613601E0,3.284423E0,1.453489E0,1.2916244E0,3.9728572E0,8.682912E-1,-2.6740667E-1,2.116017E0,7.9212445E-1,1.1181401E0,-1.2426855E-1,4.3495774E-1,7.9116825E-4,1.3843345E-2,2.21964E0,9.7934335E-1,4.590272E0],"categories":[],"categories_nodes":[],"categories_segments":[],"categories_sizes":[],"default_left":[0,0,0,0,0,0,0,0,0,0,0,0,0,0,0,0,0,0,0,0,0,0,0,0,0,0,0,0,0,0,0,0,0,0,0,0,0,0,0,0,0,0,0,0,0,0,0,0,0,0,0,0,0,0,0,0,0,0,0,0,0,0,0,0,0,0,0,0,0,0,0,0,0,0,0,0,0,0,0,0,0,0,0,0,0,0,0,0,0,0,0,0,0,0,0,0,0,0,0,0,0,0,0,0,0,0,0,0,0,0,0,0,0,0,0,0,0,0,0,0,0,0,0,0,0,0,0,0,0,0,0,0,0,0,0,0,0,0,0,0,0,0,0,0,0,0,0,0,0,0,0,0,0,0,0,0,0,0,0,0,0,0,0,0,0,0,0,0,0,0,0,0,0,0,0,0,0,0,0,0,0,0,0,0,0,0,0,0,0,0,0,0,0,0,0,0,0,0,0,0,0,0,0,0,0,0,0,0,0,0,0,0,0,0,0,0,0,0,0,0,0,0,0,0,0,0,0,0,0,0,0,0,0,0,0,0,0,0,0,0,0,0,0,0,0,0,0,0,0,0,0,0,0,0,0,0,0,0,0,0,0,0,0,0,0,0,0,0,0,0,0,0,0,0,0,0,0,0,0,0,0,0,0,0,0,0,0,0,0,0,0,0,0,0,0,0,0,0,0,0,0,0,0,0,0,0,0,0,0,0,0,0,0,0,0,0,0,0,0,0,0,0,0,0,0,0,0,0,0,0,0,0,0,0,0,0,0,0,0,0,0,0,0,0,0,0,0,0,0,0,0,0,0,0,0,0,0,0,0,0,0,0,0,0,0,0,0,0,0,0,0,0,0,0,0,0,0,0,0,0,0,0,0,0,0,0,0,0,0,0,0,0,0,0,0],"id":0,"left_children":[1,3,5,7,9,11,13,15,17,19,21,23,25,27,29,31,33,35,37,39,41,43,45,47,49,51,53,55,57,59,61,63,65,67,69,71,73,75,77,79,81,83,85,87,89,91,93,95,97,99,101,103,105,107,109,111,113,-1,115,117,119,121,123,125,-1,-1,127,129,131,133,135,137,139,141,143,145,147,149,151,153,155,157,159,161,163,165,167,169,171,173,175,177,179,181,183,185,187,189,191,193,195,197,199,201,203,205,207,-1,-1,209,211,-1,213,215,217,-1,-1,-1,219,221,223,-1,-1,-1,-1,-1,225,227,229,-1,231,-1,233,235,237,239,241,243,245,247,249,251,253,255,257,259,-1,261,263,265,267,269,271,273,275,277,279,281,283,285,287,289,291,293,295,297,-1,299,301,303,305,307,309,311,313,315,317,319,321,-1,323,325,327,329,331,333,335,-1,337,339,341,-1,-1,343,345,347,349,351,353,355,357,359,361,-1,-1,363,365,367,369,371,373,375,377,379,381,383,-1,385,387,-1,-1,389,391,393,-1,-1,-1,-1,-1,-1,-1,-1,-1,-1,-1,-1,-1,-1,-1,-1,-1,-1,-1,-1,-1,-1,-1,-1,-1,-1,-1,-1,-1,-1,-1,-1,-1,-1,-1,-1,-1,-1,-1,-1,-1,-1,-1,-1,-1,-1,-1,-1,-1,-1,-1,-1,-1,-1,-1,-1,-1,-1,-1,-1,-1,-1,-1,-1,-1,-1,-1,-1,-1,-1,-1,-1,-1,-1,-1,-1,-1,-1,-1,-1,-1,-1,-1,-1,-1,-1,-1,-1,-1,-1,-1,-1,-1,-1,-1,-1,-1,-1,-1,-1,-1,-1,-1,-1,-1,-1,-1,-1,-1,-1,-1,-1,-1,-1,-1,-1,-1,-1,-1,-1,-1,-1,-1,-1,-1,-1,-1,-1,-1,-1,-1,-1,-1,-1,-1,-1,-1,-1,-1,-1,-1,-1,-1,-1,-1,-1,-1,-1,-1,-1,-1,-1,-1,-1,-1,-1,-1,-1,-1,-1,-1,-1,-1,-1,-1,-1,-1,-1,-1,-1,-1],"loss_changes":[9.259859E6,1.5073394E6,1.438305E6,2.283145E5,2.0802003E5,2.8627775E5,1.873285E5,2.514E4,2.8332438E4,6.06299E4,5.3924125E4,2.6195E4,1.10784E5,4.2484E4,7.639575E4,4.431625E3,7.2390625E3,1.0236375E4,1.0064859E4,1.2089637E4,2.1514664E4,2.308061E4,4.3218438E4,2.1194578E4,1.6462887E4,4.55445E4,6.18065E4,3.1736938E4,2.287275E4,2.0607906E4,1.435875E4,6.54125E2,1.589375E3,5.985E2,2.9178828E3,3.2162188E3,4.2529453E3,4.5929844E3,5.1809355E3,4.5743516E3,8.913332E3,9.444095E3,4.729248E3,1.1119594E4,9.524025E3,7.043E3,9.400094E3,2.9716016E3,1.0469156E4,7.1142266E3,7.567069E3,1.02613125E4,8.267375E3,2.3831562E3,1.7252875E4,4.052375E3,5.8827344E3,0E0,3.1978125E3,2.858697E2,2.4946E4,9.9125E2,1.3437625E4,4.53375E2,0E0,0E0,4.97875E2,5.025625E2,2.06125E2,1.8815078E3,1.738587E3,8.902344E2,1.3225938E3,1.0284805E3,2.5168904E3,4.9295713E3,3.5225938E3,1.6068516E3,2.6055864E3,2.967539E3,1.2307832E3,2.8587788E3,3.973542E3,5.214951E3,8.724476E3,8.495477E2,1.6980664E3,5.1564883E3,3.4884688E3,1.4743638E3,2.600205E3,2.2841914E3,1.0278594E3,2.709414E3,1.7617078E3,1.8455625E3,9.100703E2,9.471492E3,1.2971211E3,3.121791E3,4.1816055E3,5.4251216E3,3.6775469E3,2.266125E3,3.2953906E2,3.2638125E3,7.6875625E3,0E0,0E0,6.2705625E3,1.1227375E4,0E0,3.508875E3,3.9489531E3,4.0439648E3,0E0,0E0,0E0,2.5740196E1,1.8461675E3,3.424E3,0E0,0E0,0E0,0E0,0E0,5.9875E1,3.7926874E2,2.1810938E2,0E0,3.7439062E2,0E0,8.765625E1,1.49825E3,1.0862275E3,5.6305396E2,3.958855E2,1.645625E2,4.637578E2,4.6299727E3,9.6734375E2,2.155039E2,2.2183594E3,1.7311844E3,6.128717E2,4.8549453E3,0E0,1.0814062E3,1.9326641E3,1.3294883E3,1.600576E3,1.1213519E3,9.5347E2,3.2016367E3,3.164664E3,9.1888965E2,6.025576E2,2.28344E3,1.9436995E3,1.4123442E3,7.737754E2,1.8185972E3,2.86258E3,2.227676E3,4.9815547E3,4.2650195E2,0E0,6.505747E2,4.005664E2,2.806832E3,2.1014946E3,3.1936719E3,3.1877754E3,1.2203796E3,7.3687506E2,1.032259E3,9.8461914E2,1.2765312E3,1.5478672E3,0E0,8.366094E2,1.0776797E3,2.3733672E3,4.2335687E2,2.3588812E2,1.1802852E3,6.290996E2,0E0,1.3002969E3,7.079756E3,3.8181094E3,0E0,0E0,1.5581523E3,1.3851184E3,1.1522782E3,4.566199E3,1.9050508E3,1.2553102E3,1.9035391E3,1.3185283E3,1.0432695E3,2.6833438E3,0E0,0E0,1.5928438E3,2.2418516E3,2.040375E3,3.178082E3,9.463125E2,3.4045625E3,1.3124375E3,7.4985E3,3.4100312E3,2.2334688E3,5.334056E2,0E0,1.591748E2,1.5244468E3,0E0,0E0,9.031511E1,1.5373374E3,1.9335312E3,0E0,0E0,0E0,0E0,0E0,0E0,0E0,0E0,0E0,0E0,0E0,0E0,0E0,0E0,0E0,0E0,0E0,0E0,0E0,0E0,0E0,0E0,0E0,0E0,0E0,0E0,0E0,0E0,0E0,0E0,0E0,0E0,0E0,0E0,0E0,0E0,0E0,0E0,0E0,0E0,0E0,0E0,0E0,0E0,0E0,0E0,0E0,0E0,0E0,0E0,0E0,0E0,0E0,0E0,0E0,0E0,0E0,0E0,0E0,0E0,0E0,0E0,0E0,0E0,0E0,0E0,0E0,0E0,0E0,0E0,0E0,0E0,0E0,0E0,0E0,0E0,0E0,0E0,0E0,0E0,0E0,0E0,0E0,0E0,0E0,0E0,0E0,0E0,0E0,0E0,0E0,0E0,0E0,0E0,0E0,0E0,0E0,0E0,0E0,0E0,0E0,0E0,0E0,0E0,0E0,0E0,0E0,0E0,0E0,0E0,0E0,0E0,0E0,0E0,0E0,0E0,0E0,0E0,0E0,0E0,0E0,0E0,0E0,0E0,0E0,0E0,0E0,0E0,0E0,0E0,0E0,0E0,0E0,0E0,0E0,0E0,0E0,0E0,0E0,0E0,0E0,0E0,0E0,0E0,0E0,0E0,0E0,0E0,0E0,0E0,0E0,0E0,0E0,0E0,0E0,0E0,0E0,0E0,0E0,0E0,0E0,0E0,0E0,0E0,0E0,0E0,0E0,0E0,0E0,0E0,0E0],"parents":[2147483647,0,0,1,1,2,2,3,3,4,4,5,5,6,6,7,7,8,8,9,9,10,10,11,11,12,12,13,13,14,14,15,15,16,16,17,17,18,18,19,19,20,20,21,21,22,22,23,23,24,24,25,25,26,26,27,27,28,28,29,29,30,30,31,31,32,32,33,33,34,34,35,35,36,36,37,37,38,38,39,39,40,40,41,41,42,42,43,43,44,44,45,45,46,46,47,47,48,48,49,49,50,50,51,51,52,52,53,53,54,54,55,55,56,56,58,58,59,59,60,60,61,61,62,62,63,63,66,66,67,67,68,68,69,69,70,70,71,71,72,72,73,73,74,74,75,75,76,76,77,77,78,78,79,79,80,80,81,81,82,82,83,83,84,84,85,85,86,86,87,87,88,88,89,89,90,90,91,91,92,92,93,93,94,94,95,95,96,96,97,97,98,98,99,99,100,100,101,101,102,102,103,103,104,104,105,105,106,106,109,109,110,110,112,112,113,113,114,114,118,118,119,119,120,120,126,126,127,127,128,128,130,130,132,132,133,133,134,134,135,135,136,136,137,137,138,138,139,139,140,140,141,141,142,142,143,143,144,144,145,145,147,147,148,148,149,149,150,150,151,151,152,152,153,153,154,154,155,155,156,156,157,157,158,158,159,159,160,160,161,161,162,162,163,163,164,164,165,165,167,167,168,168,169,169,170,170,171,171,172,172,173,173,174,174,175,175,176,176,177,177,178,178,180,180,181,181,182,182,183,183,184,184,185,185,186,186,188,188,189,189,190,190,193,193,194,194,195,195,196,196,197,197,198,198,199,199,200,200,201,201,202,202,205,205,206,206,207,207,208,208,209,209,210,210,211,211,212,212,213,213,214,214,215,215,217,217,218,218,221,221,222,222,223,223],"right_children":[2,4,6,8,10,12,14,16,18,20,22,24,26,28,30,32,34,36,38,40,42,44,46,48,50,52,54,56,58,60,62,64,66,68,70,72,74,76,78,80,82,84,86,88,90,92,94,96,98,100,102,104,106,108,110,112,114,-1,116,118,120,122,124,126,-1,-1,128,130,132,134,136,138,140,142,144,146,148,150,152,154,156,158,160,162,164,166,168,170,172,174,176,178,180,182,184,186,188,190,192,194,196,198,200,202,204,206,208,-1,-1,210,212,-1,214,216,218,-1,-1,-1,220,222,224,-1,-1,-1,-1,-1,226,228,230,-1,232,-1,234,236,238,240,242,244,246,248,250,252,254,256,258,260,-1,262,264,266,268,270,272,274,276,278,280,282,284,286,288,290,292,294,296,298,-1,300,302,304,306,308,310,312,314,316,318,320,322,-1,324,326,328,330,332,334,336,-1,338,340,342,-1,-1,344,346,348,350,352,354,356,358,360,362,-1,-1,364,366,368,370,372,374,376,378,380,382,384,-1,386,388,-1,-1,390,392,394,-1,-1,-1,-1,-1,-1,-1,-1,-1,-1,-1,-1,-1,-1,-1,-1,-1,-1,-1,-1,-1,-1,-1,-1,-1,-1,-1,-1,-1,-1,-1,-1,-1,-1,-1,-1,-1,-1,-1,-1,-1,-1,-1,-1,-1,-1,-1,-1,-1,-1,-1,-1,-1,-1,-1,-1,-1,-1,-1,-1,-1,-1,-1,-1,-1,-1,-1,-1,-1,-1,-1,-1,-1,-1,-1,-1,-1,-1,-1,-1,-1,-1,-1,-1,-1,-1,-1,-1,-1,-1,-1,-1,-1,-1,-1,-1,-1,-1,-1,-1,-1,-1,-1,-1,-1,-1,-1,-1,-1,-1,-1,-1,-1,-1,-1,-1,-1,-1,-1,-1,-1,-1,-1,-1,-1,-1,-1,-1,-1,-1,-1,-1,-1,-1,-1,-1,-1,-1,-1,-1,-1,-1,-1,-1,-1,-1,-1,-1,-1,-1,-1,-1,-1,-1,-1,-1,-1,-1,-1,-1,-1,-1,-1,-1,-1,-1,-1,-1,-1,-1,-1],"split_conditions":[5.298E1,2.11E1,1.0067E2,9.68E0,3.617E1,4.723E1,1.2947E2,6.22E0,1.457E1,3.075E1,4.795E1,2.777E1,7.445E1,9.525E1,7.92E1,3.58E0,1.762E1,2.638E1,2.435E1,2.66E1,7.465E1,6.03E1,2.087E1,7.158E1,6.895E1,2.77E1,3.07E1,4.125E1,5.802E1,1.18E1,1.5342E2,1.3697E2,1.405E1,3.8E0,1.0815E2,9.4E0,8.155E1,8.85E0,5.253E1,4.32E1,5.388E1,1.477E1,6.868E1,4.438E1,3.698E1,4.44E1,7.765E1,4.322E1,3.04E1,5.358E1,2.543E1,6.155E1,6.43E1,4.56E0,8.455E1,7.9E0,4.677E1,5.2580028E0,1.146E2,3.206E1,1.917E1,1.046E1,1.03E1,3.1E0,-1.3656664E-2,-1.2037559E0,-2.98E0,2.5E0,7.93E0,2.4683E2,1.63E1,1.267E1,5.92E0,1.457E1,7.5E0,2.1414E2,8.22E0,3.803E1,9.5E0,1.762E1,3.517E1,3.255E1,3.727E1,2.8E1,3.03E1,3.288E1,2.6E1,3.715E1,3.545E1,2.68E0,5.033E1,4.255E1,3.6E1,3.81E1,6.25E1,3.488E1,9.57E0,2.97E1,1.903E1,8.443E1,2.982E1,3.13E1,8.647E1,2.638E1,1.785E1,5.03E1,7.445E1,4.2588954E0,7.805934E-1,6.767E1,5.915E1,1.9559336E-1,1.1062E2,3.394E1,8.647E1,3.536863E0,4.289302E0,4.4779116E-1,1.2665E2,1.457E1,4.49E1,2.1296246E0,5.362656E0,2.8984338E-1,6.416082E0,-1.1515665E-1,6.25E1,2.875E1,2.62E0,1.1234331E-1,1.68E1,-1.0921676E0,1.965E1,3.1E0,2.996E1,8.43E0,1E0,5.28E0,1.191E1,-2.6E-1,7.7E0,2.145E1,6.25E0,-1.02E0,4.783E1,1.1185E2,2.1400933E0,1.89E1,1.87E1,-3.42E0,5.299E1,4.26E1,2.605E1,-4.1E0,1.598E1,5.542E1,1.4405E2,6.868E1,2.338E1,1.232E1,-4.1E0,7.465E1,6.22E0,4.44E1,2.605E1,1.2446E2,-5.489067E-1,6.223E1,3.965E1,2.92E1,2.315E1,1.7E1,3.415E1,8.22E0,6.347E1,4.317E1,4.6E0,1.415E1,5.92E0,9.992494E-1,3.91E1,1.889E1,5.358E1,8.26E1,3.213E1,3.776E1,3.308E1,1.302175E0,9.2E0,2.859E1,4.932E1,1.9670724E0,3.9614131E0,3.157E1,7.7E-1,1.613E1,5.388E1,4.53E0,6.01E1,1.4536E2,7.14E1,8.98E0,5.915E1,4.0812345E0,2.1313493E0,5.567E1,4.44E1,4.377E1,4.205E1,4.78E0,4.733E1,5.81E0,4.44E1,1.2947E2,9.4E0,2.407E1,2.6364763E0,2.38E0,5.137E1,-3.5240665E-1,-1.9906664E-2,1.472E1,2.07E1,4E-2,2.0580494E0,-1.309291E0,-7.9269713E-1,-1.3935064E-1,-8.7148494E-1,-8.0282176E-1,-1.0903205E0,-9.213838E-1,2.5593376E-2,-1.0001298E0,-1.1268853E0,2.1276508E-1,-8.475035E-1,-5.0454223E-1,8.4979117E-1,6.551556E-1,-1.4398496E-1,-7.889828E-1,5.7911556E-3,-9.732356E-1,-4.5075065E-1,-4.9814782E-1,-8.413888E-1,-7.148444E-1,2.0630932E0,-6.5731704E-1,-8.018679E-1,-7.8949606E-1,-2.3906661E-2,6.787652E-1,-5.373448E-1,9.9410087E-1,6.6243084E-3,-7.4371165E-1,7.214005E-2,-3.9761806E-1,1.6411246E0,-8.3194035E-1,-5.834339E-1,-6.1737525E-1,-4.5466557E-1,1.3571632E-2,-4.239454E-1,-2.009815E-1,8.528493E-1,6.630942E-2,5.672524E-1,-1.4257258E-1,-7.7476853E-1,1.5830934E0,-4.4699484E-1,1.6627267E-4,-3.138593E-1,-5.6142604E-1,1.8904936E-1,-9.2446184E-1,-1.3973494E-1,-1.3323624E-1,4.0995237E-1,3.1812912E-1,7.644491E-4,-4.4854903E-1,1.1391773E-1,1.2329117E-1,-8.198957E-1,2.0453632E-1,8.651295E-1,1.5658379E0,6.8920606E-1,-1.2488653E-1,1.2640712E-1,5.703877E-1,1.7095439E-1,1.7873894E-1,7.8135157E-1,5.4747593E-1,1.3757315E0,1.9722775E0,6.7362446E-1,4.4305357E-1,7.4420977E-1,2.4404218E-2,3.4313074E-1,1.5960263E-1,7.602288E-1,1.4079571E0,6.125699E-1,-2.8521162E-1,3.7036073E-1,3.4064937E-1,-3.8021228E-1,-2.529285E-1,5.2294934E-1,-1.21554255E-1,-8.347238E-1,-1.0554222E-1,1.1459993E0,-1.2115665E-1,1.7562188E0,1.5590955E0,2.383919E0,-1.7326854E-1,5.434761E-1,8.5447115E-1,1.3420403E0,-1.2942117E-1,-6.3458663E-1,4.196076E-1,-5.0609946E-2,1.178898E0,2.3524939E-1,1.7675956E0,4.949579E-1,4.5648295E-1,9.192336E-1,2.8562078E-1,1.6783446E0,2.302387E0,7.856601E-1,6.4821804E-1,1.1857237E0,5.012259E-1,-5.6105065E-1,1.2896246E0,-5.350628E-3,-6.361567E-1,2.3026783E0,1.9387912E0,4.8939377E-1,-6.364711E-2,-5.429413E-1,7.150826E-1,1.6949461E-1,1.585057E0,1.3362446E-1,1.8309335E-1,2.0237494E0,2.1721823E0,2.9159124E0,1.3308946E0,1.8307551E0,1.3309474E0,2.0782225E-1,2.3406434E0,1.8915033E0,1.4415048E0,1.0398892E-1,4.0134335E-1,2.446218E0,1.8262471E0,-1.8687554E-1,3.1339939E0,5.725934E-1,2.6286457E0,1.4613601E0,3.284423E0,1.453489E0,1.2916244E0,3.9728572E0,8.682912E-1,-2.6740667E-1,2.116017E0,7.9212445E-1,1.1181401E0,-1.2426855E-1,4.3495774E-1,7.9116825E-4,1.3843345E-2,2.21964E0,9.7934335E-1,4.590272E0],"split_indices":[7,7,7,7,7,12,7,7,7,12,12,13,7,12,12,7,12,12,12,7,14,9,9,7,9,9,9,18,9,12,7,12,12,9,17,12,17,9,17,9,9,9,17,7,17,13,10,10,15,17,12,13,7,4,7,16,13,0,7,0,9,0,9,13,0,0,6,13,7,0,1,7,2,14,10,1,12,2,9,12,17,7,13,7,7,2,7,9,17,4,13,7,17,7,12,17,13,12,2,1,15,17,7,14,9,9,9,0,0,10,10,0,7,0,10,0,0,0,0,17,15,0,0,0,0,0,12,17,9,0,12,0,9,17,2,7,4,4,1,4,9,13,16,6,1,16,0,7,7,4,1,12,9,6,9,14,10,14,9,16,6,17,9,12,9,0,0,18,9,17,12,9,9,16,9,14,12,13,2,0,7,2,17,9,2,2,14,0,15,2,17,0,0,15,4,2,7,12,13,0,17,9,7,0,0,7,13,9,13,1,16,4,18,9,16,0,0,4,16,0,0,2,2,0,0,0,0,0,0,0,0,0,0,0,0,0,0,0,0,0,0,0,0,0,0,0,0,0,0,0,0,0,0,0,0,0,0,0,0,0,0,0,0,0,0,0,0,0,0,0,0,0,0,0,0,0,0,0,0,0,0,0,0,0,0,0,0,0,0,0,0,0,0,0,0,0,0,0,0,0,0,0,0,0,0,0,0,0,0,0,0,0,0,0,0,0,0,0,0,0,0,0,0,0,0,0,0,0,0,0,0,0,0,0,0,0,0,0,0,0,0,0,0,0,0,0,0,0,0,0,0,0,0,0,0,0,0,0,0,0,0,0,0,0,0,0,0,0,0,0,0,0,0,0,0,0,0,0,0,0,0,0,0,0,0,0,0,0,0,0,0,0,0,0,0],"split_type":[0,0,0,0,0,0,0,0,0,0,0,0,0,0,0,0,0,0,0,0,0,0,0,0,0,0,0,0,0,0,0,0,0,0,0,0,0,0,0,0,0,0,0,0,0,0,0,0,0,0,0,0,0,0,0,0,0,0,0,0,0,0,0,0,0,0,0,0,0,0,0,0,0,0,0,0,0,0,0,0,0,0,0,0,0,0,0,0,0,0,0,0,0,0,0,0,0,0,0,0,0,0,0,0,0,0,0,0,0,0,0,0,0,0,0,0,0,0,0,0,0,0,0,0,0,0,0,0,0,0,0,0,0,0,0,0,0,0,0,0,0,0,0,0,0,0,0,0,0,0,0,0,0,0,0,0,0,0,0,0,0,0,0,0,0,0,0,0,0,0,0,0,0,0,0,0,0,0,0,0,0,0,0,0,0,0,0,0,0,0,0,0,0,0,0,0,0,0,0,0,0,0,0,0,0,0,0,0,0,0,0,0,0,0,0,0,0,0,0,0,0,0,0,0,0,0,0,0,0,0,0,0,0,0,0,0,0,0,0,0,0,0,0,0,0,0,0,0,0,0,0,0,0,0,0,0,0,0,0,0,0,0,0,0,0,0,0,0,0,0,0,0,0,0,0,0,0,0,0,0,0,0,0,0,0,0,0,0,0,0,0,0,0,0,0,0,0,0,0,0,0,0,0,0,0,0,0,0,0,0,0,0,0,0,0,0,0,0,0,0,0,0,0,0,0,0,0,0,0,0,0,0,0,0,0,0,0,0,0,0,0,0,0,0,0,0,0,0,0,0,0,0,0,0,0,0,0,0,0,0,0,0,0,0,0,0,0,0,0,0,0,0,0,0,0,0,0,0,0,0,0,0,0,0,0,0,0,0,0,0,0,0,0,0,0],"sum_hessian":[1.6047E4,1.3282E4,2.765E3,8.794E3,4.488E3,2.022E3,7.43E2,5.122E3,3.672E3,2.872E3,1.616E3,6.4E2,1.382E3,4.22E2,3.21E2,3.309E3,1.813E3,1.78E3,1.892E3,1.892E3,9.8E2,1.121E3,4.95E2,3.67E2,2.73E2,7.2E2,6.62E2,2.02E2,2.2E2,5.5E1,2.66E2,1.364E3,1.945E3,1.443E3,3.7E2,1.47E3,3.1E2,1.314E3,5.78E2,8.68E2,1.024E3,9.3E2,5E1,9.34E2,1.87E2,1.43E2,3.52E2,2.64E2,1.03E2,1.12E2,1.61E2,1.56E2,5.64E2,7.1E1,5.91E2,1.56E2,4.6E1,5.7E1,1.63E2,4E0,5.1E1,1.54E2,1.12E2,1.363E3,1E0,1.614E3,3.31E2,1.1E2,1.333E3,3.54E2,1.6E1,6.02E2,8.68E2,2.83E2,2.7E1,1.88E2,1.126E3,4.81E2,9.7E1,7.72E2,9.6E1,9.17E2,1.07E2,1.79E2,7.51E2,1.6E1,3.4E1,6.04E2,3.3E2,1.1E2,7.7E1,7.5E1,6.8E1,3.18E2,3.4E1,1.36E2,1.28E2,9.1E1,1.2E1,8.4E1,2.8E1,7.7E1,8.4E1,1.36E2,2E1,2.74E2,2.9E2,7E1,1E0,2.58E2,3.33E2,1E0,1.55E2,2.9E1,1.7E1,8.3E1,8E1,2E0,2E0,8E0,4.3E1,2E0,1.52E2,1E0,1.11E2,1E0,1.362E3,7E0,3.24E2,1E0,1.09E2,7.39E2,5.94E2,3.5E2,4E0,8E0,8E0,4.19E2,1.83E2,6E0,8.62E2,5.3E1,2.3E2,1.7E1,1E1,1.87E2,1E0,2.76E2,8.5E2,4.65E2,1.6E1,4.5E1,5.2E1,3.37E2,4.35E2,4.9E1,4.7E1,6.58E2,2.59E2,4.3E1,6.4E1,1.01E2,7.8E1,3.93E2,3.58E2,1.5E1,1E0,1.3E1,2.1E1,3.58E2,2.46E2,2.69E2,6.1E1,9.4E1,1.6E1,3.5E1,4.2E1,3.4E1,4.1E1,4E0,6.4E1,3.2E1,2.86E2,1.7E1,1.7E1,1.11E2,2.5E1,1.5E1,1.13E2,3.7E1,5.4E1,5E0,7E0,7.3E1,1.1E1,6E0,2.2E1,1.7E1,6E1,7E1,1.4E1,3.7E1,9.9E1,1.6E1,4E0,1.23E2,1.51E2,2.3E2,6E1,2.02E2,5.6E1,2.11E2,1.22E2,7.3E1,8.2E1,3E0,2.6E1,8E0,9E0,1E0,1E0,4E0,4E0,3.9E1,4E0,1.356E3,6E0,4E0,3E0,2.1E1,3.03E2,1.08E2,1E0,5.02E2,9.2E1,3E0,3.47E2,2E0,2E0,5E0,3E0,6E0,2E0,4.15E2,4E0,1.6E1,1.67E2,5E0,1E0,1.82E2,6.8E2,5.2E1,1E0,3E0,2.27E2,7E0,1E1,7E0,3E0,1.85E2,2E0,2.05E2,7.1E1,5.51E2,2.99E2,1.8E1,4.47E2,1.2E1,4E0,2.6E1,1.9E1,4.6E1,6E0,1E0,3.36E2,1.06E2,3.29E2,4.5E1,4E0,4.4E1,3E0,6.39E2,1.9E1,6.3E1,1.96E2,2.1E1,2.2E1,2E0,6.2E1,9E1,1.1E1,1.1E1,6.7E1,2.61E2,1.32E2,1.15E2,2.43E2,5E0,1E1,7E0,6E0,1.9E1,2E0,2.37E2,1.21E2,7.4E1,1.72E2,2.5E1,2.44E2,3.9E1,2.2E1,7E0,8.7E1,4E0,1.2E1,3.1E1,4E0,6E0,3.6E1,2E0,3.2E1,1E0,4E1,1.2E1,5.2E1,6E0,2.6E1,2.55E2,3.1E1,1E1,7E0,1.4E1,3E0,1.07E2,4E0,2.3E1,2E0,2.2E1,9.1E1,1.7E1,2E1,4.8E1,6E0,2.5E1,4.8E1,7E0,4E0,2E0,4E0,1E0,2.1E1,2E0,1.5E1,4E1,2E1,4.4E1,2.6E1,1.2E1,2E0,1E0,3.6E1,4.1E1,5.8E1,3.9E1,8.4E1,1.46E2,5E0,6.1E1,1.69E2,5.5E1,5E0,1E0,2.01E2,5.4E1,2E0,2.1E2,1E0,1.01E2,2.1E1,6.8E1,5E0,2E0,8E1,2E0,1E0,6E0,2E0,3E0,6E0,2E0,2E0,1E0,3E0,1E0,3.8E1],"tree_param":{"num_deleted":"0","num_feature":"19","num_nodes":"395","size_leaf_vector":"1"}},{"base_weights":[1.2420027E-1,-1.0248031E1,4.2215366E1,-1.8840181E1,-1.9057565E0,2.9157452E1,7.250819E1,-2.1434494E1,-1.3445789E1,-7.1184635E0,8.024383E0,1.1579265E1,3.7052666E1,5.3483643E1,8.92928E1,-2.3046915E1,-1.880874E1,-1.7603298E1,-1.1032235E1,-1.2849613E1,-4.6658697E0,3.7513635E0,2.101254E1,1.4978872E1,-1.1924624E1,3.0681488E1,5.7280457E1,4.261176E1,6.032623E1,7.914208E1,1.04529205E2,-2.49069E1,-2.2189238E1,5.098115E0,-1.887027E1,-1.795165E1,-5.675494E0,-1.324969E1,-6.8074713E0,-1.5298828E1,-4.965483E0,-7.372741E0,1.4296199E0,1.1341885E0,8.023787E0,2.6963324E1,8.123715E0,8.313014E0,2.5511866E1,4.534804E0,-1.6832321E1,4.0132095E1,2.5122915E1,4.964326E1,9.711234E1,4.5362152E1,2.1047058E1,5.4970936E1,7.2052086E1,7.3111435E1,5.3770714E0,1.0528617E2,1.972618E1,-1.2492661E0,-9.959436E0,-2.3043264E1,-2.1140434E1,1.325767E0,-6.885027E0,-1.9817924E1,-1.7275646E1,-1.5541444E1,-1.978429E1,1.9897461E0,-1.4218461E1,2.7629274E1,-1.342503E1,-9.740948E0,-8.958553E-2,-1.2572324E1,-1.803868E1,-9.177455E0,5.454598E0,-8.380169E0,-3.6343493E0,3.6952746E0,-1.113728E1,-1.2836781E-1,1.3617899E1,1.1501493E1,2.8164926E0,2.1617474E1,4.3820736E1,2.2942474E1,4.8426003E0,1.0449444E0,1.4491099E1,1.4498773E1,4.0124424E1,-1.0764104E1,7.6826277E0,-1.0926192E1,-2.1485397E1,3.113023E1,4.447859E1,1.609745E1,3.1811478E1,3.3987827E1,5.8450756E1,8.0328094E1,5.4569826E0,-1.1433665E-1,4.5949684E1,2.4977322E0,2.5030367E1,4.24003E1,5.7680637E1,-2.555499E-1,7.305543E1,6.4066315E1,7.861487E1,5.4678288E0,4.4941087E0,1.2943528E0,1.8511076E-1,-1.4494504E1,3.1789753E-1,-9.068128E0,-2.307632E1,-1.3150205E1,-2.1260963E1,7.303381E-2,-5.07691E-1,-2.0094172E1,-1.6367432E1,1.4642838E0,-1.7398575E1,-1.7102173E1,-9.322804E0,-2.0146797E1,-7.024739E0,-4.5352616E0,1.7804829E1,-1.59264145E1,7.152696E-2,3.9234827E0,-7.7370346E-1,-1.3603137E1,1.0145526E1,1.5496132E0,-9.968648E0,-3.3131602E0,7.9715905E0,8.215233E0,-1.3463009E1,-1.9913132E1,-1.3284435E1,1.5265752E1,-1.0297715E1,9.365917E0,-1.6167894E1,-8.860616E0,-1.3255792E0,-3.9937234E0,9.66587E0,1.723449E0,1.4972196E1,-1.3648574E1,-1.7049521E0,-3.0649533E0,2.778084E0,1.1249044E1,4.767068E1,1.1801554E1,-9.519238E0,5.086974E0,-8.445122E0,2.9060867E1,1.7880503E1,2.0534658E1,4.8892746E1,3.7512364E0,3.2816395E1,7.587711E0,-1.0287026E1,-3.862298E-1,4.892341E1,3.6334057E1,1.2661498E1,3.1235949E1,1.021985E1,3.2580624E1,5.6640602E1,-1.6506682E-1,-6.075624E-1,9.103575E0,-1.2283154E-1,-1.3115591E1,-3.8737748E0,-1.1220447E0,-5.441022E-1,2.1821552E1,3.872704E1,3.1501926E1,4.7741024E1,2.9322779E1,1.3147484E1,2.7280579E1,3.6171753E1,2.0065489E1,4.4174427E1,7.332553E1,5.2320946E1,1.5060152E0,4.151588E0,-3.0380803E-1,2.9523277E-1,4.6822166E1,1.6479307E1,-3.4232075E0,3.7930474E-1,2.7293976E1,2.3071642E-1,2.687993E1,5.033385E1,1.1187366E1,5.82118E1,-2.161634E-1,7.4064095E1,1.5973154E-1,6.4631775E1,8.6514656E1,6.7938866E1,9.446001E-2,-9.5313656E-1,1.674243E-1,-7.161581E-1,-1.1543529E0,-3.1035247E-1,3.2437276E-2,-7.091091E-1,-1.068666E0,-7.3515636E-1,-1.0074185E0,-2.9647455E-1,8.48621E-1,-8.498168E-1,-9.3530846E-1,-7.192113E-1,-6.759946E-1,-9.2658204E-1,-8.3296776E-1,-2.805675E-1,-1.0151948E0,-4.1794822E-1,-7.024049E-1,3.511128E-1,-5.551099E-1,-1.2860122E-1,-1.3575745E-2,1.1960391E0,-1.4180803E-1,-8.532879E-1,-4.0146723E-1,-7.019284E-1,-6.7077976E-1,2.301611E0,-1.2298051E-1,-5.5893755E-1,-1.987646E-1,1.5559475E0,1.7657508E-1,1.0469354E0,6.502299E-1,1.9222938E-2,-7.407486E-1,-2.1824948E-1,1.0980265E0,-1.0048547E0,-7.1371305E-1,3.1322765E0,-4.281869E-1,1.3350891E0,-3.592531E-1,-6.995016E-1,-3.2566467E-1,6.22252E-1,8.917765E-1,-1.0077753E0,-4.8287058E-1,-2.815796E-1,-1.1853453E-1,2.7102778E0,-3.2498917E-1,-8.3991416E-2,7.8023475E-1,5.6313056E-2,-2.2449337E-1,1.515089E-1,4.8784968E-1,1.7931141E0,-4.7461152E-1,-9.399363E-1,-3.4385046E-1,5.850983E-1,-2.5789803E-1,-2.2941161E-2,-3.0129537E-2,2.7348918E-1,1.3313383E-1,7.784479E-1,5.236564E-1,2.6507783E0,5.6218547E-1,1.3385439E0,-1.2886763E-2,-5.659996E-1,1.7083508E-1,6.196257E-1,-4.5846105E-1,5.672791E-1,1.2254467E0,2.122135E0,1.0959463E0,6.872021E-1,1.4976808E0,-1.6477619E-1,1.2536689E0,2.7261772E0,-1.3776349E-1,1.209459E0,-2.3118047E-1,1.745979E0,8.752455E-2,6.001316E-1,5.8201706E-1,-5.906416E-1,-6.0909474E-1,1.1858906E-1,3.8816879E0,1.1168692E0,2.1865585E0,2.5295988E-1,5.691437E-1,1.5179765E0,9.5940477E-1,3.1458616E0,-3.2238933E-1,7.135312E-1,7.801063E-1,1.8058573E0,5.151311E-1,3.0703845E0,-8.439016E-2,5.382879E-1,-7.0655495E-1,2.5602698E-1,-3.9092842E-1,1.5059295E-1,2.0968066E-1,1.1904126E0,1.6883278E0,2.276913E0,1.8730065E0,-1.3154623E-1,2.170801E0,2.741289E0,9.034196E-1,1.7692969E0,7.1400756E-1,-5.77269E-1,1.4069769E0,-9.4727844E-2,2.038588E0,1.4716032E0,1.159115E0,-1.1961941E-1,2.253241E0,-3.2026845E-1,2.4577124E0,3.946394E0,2.7076309E0,4.499044E-1,1.4807334E0,2.4187887E0,1.200061E0,-5.2825636E-1,9.059334E-3,-2.657999E-1,2.3618722E-1,1.4241871E0,6.1403936E-1,1.7624081E0,7.068101E-1,2.7415895E0,6.8673277E-1,1.5231963E-1,3.3761475E0,2.6998231E0,1.9070354E-1,3.744727E0,1.0646023E0,3.2642822E0,4.4250894E0,2.2634618E0,2.4224472E0,3.5735986E0],"categories":[],"categories_nodes":[],"categories_segments":[],"categories_sizes":[],"default_left":[0,0,0,0,0,0,0,0,0,0,0,0,0,0,0,0,0,0,0,0,0,0,0,0,0,0,0,0,0,0,0,0,0,0,0,0,0,0,0,0,0,0,0,0,0,0,0,0,0,0,0,0,0,0,0,0,0,0,0,0,0,0,0,0,0,0,0,0,0,0,0,0,0,0,0,0,0,0,0,0,0,0,0,0,0,0,0,0,0,0,0,0,0,0,0,0,0,0,0,0,0,0,0,0,0,0,0,0,0,0,0,0,0,0,0,0,0,0,0,0,0,0,0,0,0,0,0,0,0,0,0,0,0,0,0,0,0,0,0,0,0,0,0,0,0,0,0,0,0,0,0,0,0,0,0,0,0,0,0,0,0,0,0,0,0,0,0,0,0,0,0,0,0,0,0,0,0,0,0,0,0,0,0,0,0,0,0,0,0,0,0,0,0,0,0,0,0,0,0,0,0,0,0,0,0,0,0,0,0,0,0,0,0,0,0,0,0,0,0,0,0,0,0,0,0,0,0,0,0,0,0,0,0,0,0,0,0,0,0,0,0,0,0,0,0,0,0,0,0,0,0,0,0,0,0,0,0,0,0,0,0,0,0,0,0,0,0,0,0,0,0,0,0,0,0,0,0,0,0,0,0,0,0,0,0,0,0,0,0,0,0,0,0,0,0,0,0,0,0,0,0,0,0,0,0,0,0,0,0,0,0,0,0,0,0,0,0,0,0,0,0,0,0,0,0,0,0,0,0,0,0,0,0,0,0,0,0,0,0,0,0,0,0,0,0,0,0,0,0,0,0,0,0,0,0,0,0,0,0,0,0,0,0,0,0,0,0,0,0,0,0,0,0,0,0,0,0,0,0,0,0,0,0,0,0,0,0,0,0,0,0,0,0,0,0,0,0,0,0,0,0,0,0,0,0,0,0],"id":1,"left_children":[1,3,5,7,9,11,13,15,17,19,21,23,25,27,29,31,33,35,37,39,41,43,45,47,49,51,53,55,57,59,61,63,65,67,69,71,73,75,77,79,81,83,85,87,89,91,93,95,97,99,101,103,105,107,109,111,113,115,117,119,-1,121,123,-1,125,127,129,-1,131,133,135,137,139,141,143,145,147,149,151,153,155,157,159,161,163,165,167,169,171,173,175,177,179,181,183,185,187,189,191,193,195,197,199,201,203,205,207,209,211,213,-1,215,217,219,221,223,225,-1,227,229,231,-1,-1,-1,-1,233,-1,235,237,239,241,-1,-1,243,245,-1,247,249,251,253,255,257,259,261,-1,-1,-1,263,265,-1,267,269,271,273,275,277,279,281,283,285,287,289,291,293,295,297,299,301,303,305,307,309,311,313,315,317,319,321,323,325,327,329,331,333,335,337,339,341,343,345,347,349,351,-1,-1,353,-1,355,357,-1,-1,359,361,363,365,367,369,371,373,375,377,379,381,-1,-1,-1,-1,383,385,387,-1,389,-1,391,393,395,397,-1,399,-1,401,403,405,-1,-1,-1,-1,-1,-1,-1,-1,-1,-1,-1,-1,-1,-1,-1,-1,-1,-1,-1,-1,-1,-1,-1,-1,-1,-1,-1,-1,-1,-1,-1,-1,-1,-1,-1,-1,-1,-1,-1,-1,-1,-1,-1,-1,-1,-1,-1,-1,-1,-1,-1,-1,-1,-1,-1,-1,-1,-1,-1,-1,-1,-1,-1,-1,-1,-1,-1,-1,-1,-1,-1,-1,-1,-1,-1,-1,-1,-1,-1,-1,-1,-1,-1,-1,-1,-1,-1,-1,-1,-1,-1,-1,-1,-1,-1,-1,-1,-1,-1,-1,-1,-1,-1,-1,-1,-1,-1,-1,-1,-1,-1,-1,-1,-1,-1,-1,-1,-1,-1,-1,-1,-1,-1,-1,-1,-1,-1,-1,-1,-1,-1,-1,-1,-1,-1,-1,-1,-1,-1,-1,-1,-1,-1,-1,-1,-1,-1,-1,-1,-1,-1,-1,-1,-1,-1,-1,-1,-1,-1,-1,-1,-1,-1,-1,-1,-1,-1,-1,-1,-1,-1,-1,-1,-1],"loss_changes":[7.035471E6,9.266901E5,1.2581435E6,8.884425E4,3.3967356E5,3.0878075E5,3.014515E5,1.776775E4,2.0586969E4,6.0423797E4,1.25292625E5,5.5472203E4,1.96323E5,3.10545E4,7.0295E4,3.689125E3,2.5100625E3,3.0518281E3,1.2210266E4,2.4814547E4,4.9757164E4,1.901094E4,4.265547E4,4.2265844E4,7.184785E3,6.0506625E4,1.06821875E5,9.602719E3,1.3308E4,4.505875E4,1.07615E4,7.2534375E2,1.151125E3,1.4657871E3,2.1314375E3,2.947875E3,1.5344207E3,6.5351406E3,8.945996E3,7.116422E3,1.3524008E4,7.8332812E3,2.646341E4,1.6645771E4,1.1666305E4,3.34775E4,8.543625E3,1.6688684E4,3.7075734E4,1.0940201E3,1.633998E3,1.5518E4,4.415978E4,4.0757812E4,2.9414375E3,4.2000938E3,1.5630107E3,4.1284375E3,6.7993125E3,7.8065E3,0E0,2.5855E3,2.0032544E2,0E0,5.36158E2,2.513125E2,5.22625E2,0E0,1.2395297E2,6.4334375E2,4.0467812E3,2.9754688E3,1.7780312E3,1.4222655E3,3.1678882E2,9.979806E3,3.73575E3,3.239836E3,3.6384377E3,9.294117E3,4.0843438E3,6.1540215E3,7.678378E3,5.5603438E3,2.1655923E3,1.7474023E4,3.340334E3,8.202157E3,7.2883594E3,2.5533398E3,6.690975E3,7.6025625E3,9.74375E3,5.940668E3,6.1833315E3,1.1804753E4,7.572703E3,9.349078E3,1.0614078E4,1.2923889E0,2.816964E2,4.4329126E2,1.3066211E2,9.338047E3,1.07310625E4,1.1982008E4,7.38975E3,1.5281234E4,1.4125875E4,1.2999219E3,0E0,1.4353015E2,3.2138438E3,1.766082E2,7.0590625E2,3.3260234E3,3.20125E3,0E0,6.72025E3,3.3388125E3,7.279125E3,0E0,0E0,0E0,0E0,4.1023572E2,0E0,3.0895978E2,3.675E1,2.2280396E2,2.8921875E2,0E0,0E0,6.0215625E2,1.9868418E3,0E0,2.1628594E3,1.0654844E3,1.7308799E3,5.765781E2,1.3811917E3,1.0036946E2,4.4871106E2,1.0074194E2,0E0,0E0,0E0,1.9526719E3,6.536265E3,0E0,2.8348145E3,2.403567E3,2.2290613E3,7.8259326E2,5.7902188E3,3.1220156E3,1.149141E4,2.9538142E3,2.3129902E3,3.797005E3,2.2577786E3,3.9052656E3,6.2803438E3,2.5057432E3,5.910082E2,5.4615347E3,1.2396777E4,2.2190059E3,2.2300562E3,2.604956E3,4.3984795E3,3.371043E3,6.3766113E2,2.8889102E3,9.714856E1,2.6055454E3,7.3456934E2,4.8074453E3,2.989582E3,4.138912E3,8.557953E3,1.6624028E3,1.8150586E3,3.2003486E3,9.070137E2,5.4943647E3,2.082336E3,3.248912E3,3.8860664E3,9.098408E3,7.4513496E3,3.6996797E3,5.994258E3,0E0,0E0,3.0516638E2,0E0,5.16813E2,2.6801004E2,0E0,0E0,2.2465938E3,1.0977109E3,1.2504156E4,4.6365938E3,3.2501523E3,7.4647266E3,5.3660625E3,5.4035312E3,3.5553086E3,3.2159844E3,3.5682188E3,1.0860219E4,0E0,0E0,0E0,0E0,2.5774062E3,1.4741312E3,2.1430283E1,0E0,2.9510352E2,0E0,1.3996602E3,3.1324492E3,2.0371094E1,2.3984375E3,0E0,4.4398125E3,0E0,1.5005E3,3.042125E3,1.4263438E3,0E0,0E0,0E0,0E0,0E0,0E0,0E0,0E0,0E0,0E0,0E0,0E0,0E0,0E0,0E0,0E0,0E0,0E0,0E0,0E0,0E0,0E0,0E0,0E0,0E0,0E0,0E0,0E0,0E0,0E0,0E0,0E0,0E0,0E0,0E0,0E0,0E0,0E0,0E0,0E0,0E0,0E0,0E0,0E0,0E0,0E0,0E0,0E0,0E0,0E0,0E0,0E0,0E0,0E0,0E0,0E0,0E0,0E0,0E0,0E0,0E0,0E0,0E0,0E0,0E0,0E0,0E0,0E0,0E0,0E0,0E0,0E0,0E0,0E0,0E0,0E0,0E0,0E0,0E0,0E0,0E0,0E0,0E0,0E0,0E0,0E0,0E0,0E0,0E0,0E0,0E0,0E0,0E0,0E0,0E0,0E0,0E0,0E0,0E0,0E0,0E0,0E0,0E0,0E0,0E0,0E0,0E0,0E0,0E0,0E0,0E0,0E0,0E0,0E0,0E0,0E0,0E0,0E0,0E0,0E0,0E0,0E0,0E0,0E0,0E0,0E0,0E0,0E0,0E0,0E0,0E0,0E0,0E0,0E0,0E0,0E0,0E0,0E0,0E0,0E0,0E0,0E0,0E0,0E0,0E0,0E0,0E0,0E0,0E0,0E0,0E0,0E0,0E0,0E0,0E0,0E0,0E0,0E0,0E0,0E0,0E0,0E0,0E0,0E0,0E0,0E0,0E0,0E0,0E0,0E0,0E0,0E0,0E0,0E0],"parents":[2147483647,0,0,1,1,2,2,3,3,4,4,5,5,6,6,7,7,8,8,9,9,10,10,11,11,12,12,13,13,14,14,15,15,16,16,17,17,18,18,19,19,20,20,21,21,22,22,23,23,24,24,25,25,26,26,27,27,28,28,29,29,30,30,31,31,32,32,33,33,34,34,35,35,36,36,37,37,38,38,39,39,40,40,41,41,42,42,43,43,44,44,45,45,46,46,47,47,48,48,49,49,50,50,51,51,52,52,53,53,54,54,55,55,56,56,57,57,58,58,59,59,61,61,62,62,64,64,65,65,66,66,68,68,69,69,70,70,71,71,72,72,73,73,74,74,75,75,76,76,77,77,78,78,79,79,80,80,81,81,82,82,83,83,84,84,85,85,86,86,87,87,88,88,89,89,90,90,91,91,92,92,93,93,94,94,95,95,96,96,97,97,98,98,99,99,100,100,101,101,102,102,103,103,104,104,105,105,106,106,107,107,108,108,109,109,111,111,112,112,113,113,114,114,115,115,116,116,118,118,119,119,120,120,125,125,127,127,128,128,129,129,130,130,133,133,134,134,136,136,137,137,138,138,139,139,140,140,141,141,142,142,143,143,147,147,148,148,150,150,151,151,152,152,153,153,154,154,155,155,156,156,157,157,158,158,159,159,160,160,161,161,162,162,163,163,164,164,165,165,166,166,167,167,168,168,169,169,170,170,171,171,172,172,173,173,174,174,175,175,176,176,177,177,178,178,179,179,180,180,181,181,182,182,183,183,184,184,185,185,186,186,187,187,188,188,189,189,190,190,191,191,192,192,195,195,197,197,198,198,201,201,202,202,203,203,204,204,205,205,206,206,207,207,208,208,209,209,210,210,211,211,212,212,217,217,218,218,219,219,221,221,223,223,224,224,225,225,226,226,228,228,230,230,231,231,232,232],"right_children":[2,4,6,8,10,12,14,16,18,20,22,24,26,28,30,32,34,36,38,40,42,44,46,48,50,52,54,56,58,60,62,64,66,68,70,72,74,76,78,80,82,84,86,88,90,92,94,96,98,100,102,104,106,108,110,112,114,116,118,120,-1,122,124,-1,126,128,130,-1,132,134,136,138,140,142,144,146,148,150,152,154,156,158,160,162,164,166,168,170,172,174,176,178,180,182,184,186,188,190,192,194,196,198,200,202,204,206,208,210,212,214,-1,216,218,220,222,224,226,-1,228,230,232,-1,-1,-1,-1,234,-1,236,238,240,242,-1,-1,244,246,-1,248,250,252,254,256,258,260,262,-1,-1,-1,264,266,-1,268,270,272,274,276,278,280,282,284,286,288,290,292,294,296,298,300,302,304,306,308,310,312,314,316,318,320,322,324,326,328,330,332,334,336,338,340,342,344,346,348,350,352,-1,-1,354,-1,356,358,-1,-1,360,362,364,366,368,370,372,374,376,378,380,382,-1,-1,-1,-1,384,386,388,-1,390,-1,392,394,396,398,-1,400,-1,402,404,406,-1,-1,-1,-1,-1,-1,-1,-1,-1,-1,-1,-1,-1,-1,-1,-1,-1,-1,-1,-1,-1,-1,-1,-1,-1,-1,-1,-1,-1,-1,-1,-1,-1,-1,-1,-1,-1,-1,-1,-1,-1,-1,-1,-1,-1,-1,-1,-1,-1,-1,-1,-1,-1,-1,-1,-1,-1,-1,-1,-1,-1,-1,-1,-1,-1,-1,-1,-1,-1,-1,-1,-1,-1,-1,-1,-1,-1,-1,-1,-1,-1,-1,-1,-1,-1,-1,-1,-1,-1,-1,-1,-1,-1,-1,-1,-1,-1,-1,-1,-1,-1,-1,-1,-1,-1,-1,-1,-1,-1,-1,-1,-1,-1,-1,-1,-1,-1,-1,-1,-1,-1,-1,-1,-1,-1,-1,-1,-1,-1,-1,-1,-1,-1,-1,-1,-1,-1,-1,-1,-1,-1,-1,-1,-1,-1,-1,-1,-1,-1,-1,-1,-1,-1,-1,-1,-1,-1,-1,-1,-1,-1,-1,-1,-1,-1,-1,-1,-1,-1,-1,-1,-1,-1,-1],"split_conditions":[4.795E1,1.357E1,8.455E1,1.163E1,2.747E1,3.07E1,9.525E1,6.3E0,6.7E0,9.7E0,4.955E1,6.653E1,9.048E1,7.02E1,1.2947E2,3.02E0,1.85E0,2.515E1,2.403E1,4.958E1,3.255E1,3.255E1,2.982E1,4.733E1,2.505E1,1.917E1,6.155E1,6.223E1,1.1798E2,4.165E1,7.753E1,2.338E1,5.35E0,-3.32E0,9.68E0,1.003E1,2.132E1,1.98E0,4.877E1,3.833E1,3.765E1,2.345E1,5.137E1,5.542E1,3.54E1,8.647E1,2.798E1,1.89E1,1.677E1,7.02E1,6.39E1,2.407E1,5.47E1,2.265E1,4.87E1,3.172E1,-1.9E0,-1.67E0,3.4E-1,1.998E1,5.3770714E0,-4.6E-1,1.046E1,-1.2492661E0,3.282E1,4.29E0,2.45E0,1.325767E0,4.51E1,9.525E1,2.95E0,6.08E1,2.162E1,1.855E1,3.502E1,6.8E0,1.6393E2,4E-2,1.14E1,-1.92E0,7.15E0,-2.55E0,6.39E1,1.8193E2,7.465E1,7.02E1,6.39E1,2.25E1,9.63E1,6.155E1,3.658E1,3.415E1,3.937E1,3.34E1,5.937E1,2.3877E2,1.195E1,3.88E0,8.647E1,1.109E1,1.99E0,2.307E1,1.4238E2,4.792E1,3.517E1,2.928E1,6.895E1,5.683E1,2.162E1,3.795E1,5.4569826E0,3.001E1,5.802E1,1.5117E2,6.128E1,1.313E1,4E-2,-2.555499E-1,9.22E0,1.02E1,2.505E1,5.4678288E0,4.4941087E0,1.2943528E0,1.8511076E-1,6.45E0,3.1789753E-1,5.25E0,1.6393E2,2.1E-1,1.1798E2,7.303381E-2,-5.07691E-1,1.9318E2,3.1E0,1.4642838E0,1.1208E2,3.42E0,1.79E1,2.325E2,4.573E1,6.61E0,4.35E0,2.616E1,7.152696E-2,3.9234827E0,-7.7370346E-1,5.35E0,-2.89E0,1.5496132E0,6.1E0,4.723E1,1.1896E2,1.917E1,4.083E1,1.1E1,1.1062E2,3.255E1,4.78E1,1.233E1,5.213E1,2.635E1,6.03E1,2.37E1,1.595E1,9.4E0,3.13E1,6.793E1,8.295E1,2.54E1,2.198E1,3.895E1,2.75E0,5.61E1,6.92E0,6.43E1,2.132E1,6.653E1,1.712E1,2.922E1,1.58E1,6.666E1,4.29E0,7.158E1,2.4E1,1.438E1,1.03E1,1.562E1,3.76E1,9.775E1,6.4E0,5.298E1,6.08E0,-1.6506682E-1,-6.075624E-1,-2.23E0,-1.2283154E-1,1.3697E2,2.227E1,-1.1220447E0,-5.441022E-1,4.3E0,6.547E1,4.323E1,3.928E1,2.248E1,4.98E1,7.92E1,2.18E1,2.732E1,2.835E1,1.97E1,7.272E1,1.5060152E0,4.151588E0,-3.0380803E-1,2.9523277E-1,1.31E1,1.4405E2,1.3284E2,3.7930474E-1,8.647E1,2.3071642E-1,2.62E1,1E1,1.4603E2,8.26E1,-2.161634E-1,7.9E0,1.5973154E-1,1.18E1,9.875E1,3.157E1,9.446001E-2,-9.5313656E-1,1.674243E-1,-7.161581E-1,-1.1543529E0,-3.1035247E-1,3.2437276E-2,-7.091091E-1,-1.068666E0,-7.3515636E-1,-1.0074185E0,-2.9647455E-1,8.48621E-1,-8.498168E-1,-9.3530846E-1,-7.192113E-1,-6.759946E-1,-9.2658204E-1,-8.3296776E-1,-2.805675E-1,-1.0151948E0,-4.1794822E-1,-7.024049E-1,3.511128E-1,-5.551099E-1,-1.2860122E-1,-1.3575745E-2,1.1960391E0,-1.4180803E-1,-8.532879E-1,-4.0146723E-1,-7.019284E-1,-6.7077976E-1,2.301611E0,-1.2298051E-1,-5.5893755E-1,-1.987646E-1,1.5559475E0,1.7657508E-1,1.0469354E0,6.502299E-1,1.9222938E-2,-7.407486E-1,-2.1824948E-1,1.0980265E0,-1.0048547E0,-7.1371305E-1,3.1322765E0,-4.281869E-1,1.3350891E0,-3.592531E-1,-6.995016E-1,-3.2566467E-1,6.22252E-1,8.917765E-1,-1.0077753E0,-4.8287058E-1,-2.815796E-1,-1.1853453E-1,2.7102778E0,-3.2498917E-1,-8.3991416E-2,7.8023475E-1,5.6313056E-2,-2.2449337E-1,1.515089E-1,4.8784968E-1,1.7931141E0,-4.7461152E-1,-9.399363E-1,-3.4385046E-1,5.850983E-1,-2.5789803E-1,-2.2941161E-2,-3.0129537E-2,2.7348918E-1,1.3313383E-1,7.784479E-1,5.236564E-1,2.6507783E0,5.6218547E-1,1.3385439E0,-1.2886763E-2,-5.659996E-1,1.7083508E-1,6.196257E-1,-4.5846105E-1,5.672791E-1,1.2254467E0,2.122135E0,1.0959463E0,6.872021E-1,1.4976808E0,-1.6477619E-1,1.2536689E0,2.7261772E0,-1.3776349E-1,1.209459E0,-2.3118047E-1,1.745979E0,8.752455E-2,6.001316E-1,5.8201706E-1,-5.906416E-1,-6.0909474E-1,1.1858906E-1,3.8816879E0,1.1168692E0,2.1865585E0,2.5295988E-1,5.691437E-1,1.5179765E0,9.5940477E-1,3.1458616E0,-3.2238933E-1,7.135312E-1,7.801063E-1,1.8058573E0,5.151311E-1,3.0703845E0,-8.439016E-2,5.382879E-1,-7.0655495E-1,2.5602698E-1,-3.9092842E-1,1.5059295E-1,2.0968066E-1,1.1904126E0,1.6883278E0,2.276913E0,1.8730065E0,-1.3154623E-1,2.170801E0,2.741289E0,9.034196E-1,1.7692969E0,7.1400756E-1,-5.77269E-1,1.4069769E0,-9.4727844E-2,2.038588E0,1.4716032E0,1.159115E0,-1.1961941E-1,2.253241E0,-3.2026845E-1,2.4577124E0,3.946394E0,2.7076309E0,4.499044E-1,1.4807334E0,2.4187887E0,1.200061E0,-5.2825636E-1,9.059334E-3,-2.657999E-1,2.3618722E-1,1.4241871E0,6.1403936E-1,1.7624081E0,7.068101E-1,2.7415895E0,6.8673277E-1,1.5231963E-1,3.3761475E0,2.6998231E0,1.9070354E-1,3.744727E0,1.0646023E0,3.2642822E0,4.4250894E0,2.2634618E0,2.4224472E0,3.5735986E0],"split_indices":[12,8,8,12,12,8,12,8,8,12,8,11,12,12,8,8,9,9,12,11,8,8,13,15,13,10,14,18,8,14,18,9,12,6,8,11,13,9,17,13,8,12,13,17,10,8,10,8,8,11,13,15,8,15,8,9,6,6,0,14,0,6,0,0,1,3,11,0,0,11,9,14,3,13,12,8,15,0,8,6,12,6,13,0,15,8,15,17,14,13,13,10,0,12,13,0,9,11,12,0,6,17,13,8,17,9,8,8,18,17,0,0,11,0,12,3,0,0,17,16,18,0,0,0,0,3,0,8,18,0,11,0,0,1,13,0,0,9,12,0,11,3,8,0,0,0,0,9,6,0,9,12,0,10,9,18,8,10,13,17,11,8,9,8,8,16,15,13,17,8,8,15,0,17,1,10,3,8,13,0,16,1,3,8,9,17,8,11,14,12,8,12,3,0,0,6,0,11,8,0,0,11,8,11,13,16,13,9,18,18,13,13,10,0,0,0,0,16,9,0,0,9,0,16,14,1,9,0,16,0,10,16,16,0,0,0,0,0,0,0,0,0,0,0,0,0,0,0,0,0,0,0,0,0,0,0,0,0,0,0,0,0,0,0,0,0,0,0,0,0,0,0,0,0,0,0,0,0,0,0,0,0,0,0,0,0,0,0,0,0,0,0,0,0,0,0,0,0,0,0,0,0,0,0,0,0,0,0,0,0,0,0,0,0,0,0,0,0,0,0,0,0,0,0,0,0,0,0,0,0,0,0,0,0,0,0,0,0,0,0,0,0,0,0,0,0,0,0,0,0,0,0,0,0,0,0,0,0,0,0,0,0,0,0,0,0,0,0,0,0,0,0,0,0,0,0,0,0,0,0,0,0,0,0,0,0,0,0,0,0,0,0,0,0,0,0,0,0,0,0,0,0,0,0,0,0,0],"split_type":[0,0,0,0,0,0,0,0,0,0,0,0,0,0,0,0,0,0,0,0,0,0,0,0,0,0,0,0,0,0,0,0,0,0,0,0,0,0,0,0,0,0,0,0,0,0,0,0,0,0,0,0,0,0,0,0,0,0,0,0,0,0,0,0,0,0,0,0,0,0,0,0,0,0,0,0,0,0,0,0,0,0,0,0,0,0,0,0,0,0,0,0,0,0,0,0,0,0,0,0,0,0,0,0,0,0,0,0,0,0,0,0,0,0,0,0,0,0,0,0,0,0,0,0,0,0,0,0,0,0,0,0,0,0,0,0,0,0,0,0,0,0,0,0,0,0,0,0,0,0,0,0,0,0,0,0,0,0,0,0,0,0,0,0,0,0,0,0,0,0,0,0,0,0,0,0,0,0,0,0,0,0,0,0,0,0,0,0,0,0,0,0,0,0,0,0,0,0,0,0,0,0,0,0,0,0,0,0,0,0,0,0,0,0,0,0,0,0,0,0,0,0,0,0,0,0,0,0,0,0,0,0,0,0,0,0,0,0,0,0,0,0,0,0,0,0,0,0,0,0,0,0,0,0,0,0,0,0,0,0,0,0,0,0,0,0,0,0,0,0,0,0,0,0,0,0,0,0,0,0,0,0,0,0,0,0,0,0,0,0,0,0,0,0,0,0,0,0,0,0,0,0,0,0,0,0,0,0,0,0,0,0,0,0,0,0,0,0,0,0,0,0,0,0,0,0,0,0,0,0,0,0,0,0,0,0,0,0,0,0,0,0,0,0,0,0,0,0,0,0,0,0,0,0,0,0,0,0,0,0,0,0,0,0,0,0,0,0,0,0,0,0,0,0,0,0,0,0,0,0,0,0,0,0,0,0,0,0,0,0,0,0,0,0,0,0,0,0,0,0,0,0,0,0,0,0,0],"sum_hessian":[1.6113E4,1.2928E4,3.185E3,6.368E3,6.56E3,2.227E3,9.58E2,4.298E3,2.07E3,4.302E3,2.258E3,6.91E2,1.536E3,4.51E2,5.07E2,2.658E3,1.64E3,7.58E2,1.312E3,1.288E3,3.014E3,1.7E3,5.58E2,6.04E2,8.7E1,1.17E3,3.66E2,1.77E2,2.74E2,3.08E2,1.99E2,8.3E2,1.828E3,4E0,1.636E3,7.36E2,2.2E1,8.59E2,4.53E2,9.82E2,3.06E2,2.087E3,9.27E2,1.055E3,6.45E2,3.81E2,1.77E2,3.71E2,2.33E2,2E1,6.7E1,4.31E2,7.39E2,3.09E2,5.7E1,1.56E2,2.1E1,1.92E2,8.2E1,2.57E2,5.1E1,1.97E2,2E0,8.25E2,5E0,9.96E2,8.32E2,1E0,3E0,1.019E3,6.17E2,3.22E2,4.14E2,1.2E1,1E1,3E0,8.56E2,3.15E2,1.38E2,4.95E2,4.87E2,2.18E2,8.8E1,1.643E3,4.44E2,7.86E2,1.41E2,9.59E2,9.6E1,3.86E2,2.59E2,2.91E2,9E1,3.1E1,1.46E2,1.71E2,2E2,1.34E2,9.9E1,3E0,1.7E1,3.1E1,3.6E1,1.43E2,2.88E2,3.16E2,4.23E2,1.13E2,1.96E2,2.7E1,3E1,2E0,1.54E2,4E0,1.7E1,3.7E1,1.55E2,1E0,8.1E1,1.02E2,1.55E2,1.51E2,4.6E1,1E0,1E0,4E0,1E0,3E0,9.93E2,1.4E1,8.18E2,1E0,2E0,9.39E2,8E1,1E0,6.16E2,2.56E2,6.6E1,4.02E2,1.2E1,9E0,3E0,9E0,1E0,1E0,2E0,8.5E2,6E0,1E0,3.14E2,9.9E1,3.9E1,2E1,4.75E2,3.47E2,1.4E2,9E0,2.09E2,7.5E1,1.3E1,1.538E3,1.05E2,4.33E2,1.1E1,6.7E2,1.16E2,1.11E2,3E1,4.77E2,4.82E2,9.1E1,5E0,3.81E2,5E0,2.16E2,4.3E1,9.5E1,1.96E2,1.7E1,7.3E1,1.1E1,2E1,1.24E2,2.2E1,1.67E2,4E0,1.4E1,1.86E2,2.6E1,1.08E2,7E1,2.9E1,1E0,2E0,1.5E1,2E0,2.3E1,8E0,3.2E1,4E0,6.6E1,7.7E1,6E1,2.28E2,5.6E1,2.6E2,2.11E2,2.12E2,4.9E1,6.4E1,5.4E1,1.42E2,2E0,2.5E1,1E0,1E0,1.49E2,5E0,2E0,2E0,1.5E1,2E0,1.4E1,2.3E1,2E0,1.53E2,1E0,8E1,1E0,1.01E2,8.5E1,7E1,1E0,3E0,1E0,2E0,9.92E2,1E0,1E0,1.3E1,8.02E2,1.6E1,9.35E2,4E0,1E0,7.9E1,4.26E2,1.9E2,7.6E1,1.8E2,2.1E1,4.5E1,3.96E2,6E0,8E0,4E0,1E0,8E0,1E0,2E0,1E0,8E0,6.3E1,7.87E2,4E0,2E0,4.4E1,2.7E2,9.8E1,1E0,3E1,9E0,1.2E1,8E0,4.13E2,6.2E1,1E0,3.46E2,1.39E2,1E0,3E0,6E0,1.15E2,9.4E1,1.2E1,6.3E1,1E0,1.2E1,1.232E3,3.06E2,1.04E2,1E0,2.07E2,2.26E2,6E0,5E0,1.16E2,5.54E2,9.4E1,2.2E1,6.3E1,4.8E1,2.2E1,8E0,2.64E2,2.13E2,2.14E2,2.68E2,3.1E1,6E1,1E0,4E0,3.69E2,1.2E1,1E0,4E0,1.77E2,3.9E1,4.2E1,1E0,7.3E1,2.2E1,9.7E1,9.9E1,1.2E1,5E0,1.5E1,5.8E1,9E0,2E0,1E0,1.9E1,5.4E1,7E1,1E0,2.1E1,3.1E1,1.36E2,1E0,3E0,1.1E1,3E0,1.75E2,1.1E1,2E1,6E0,2.1E1,8.7E1,1.3E1,5.7E1,3E0,2.6E1,2E0,1.3E1,2.2E1,1E0,5E0,3E0,7E0,5.9E1,4.8E1,2.9E1,5.1E1,9E0,1.46E2,8.2E1,2.1E1,3.5E1,2.49E2,1.1E1,2.05E2,6E0,1.23E2,8.9E1,4.3E1,6E0,6.3E1,1E0,1.2E1,4.2E1,1.36E2,6E0,1.4E1,1.35E2,4E0,1E0,1E0,1E0,1E0,1.4E1,6E0,8E0,3E0,2E1,1E0,1E0,4.3E1,1.1E2,1E0,7.9E1,2E0,9.9E1,8E1,5E0,1.3E1,5.7E1],"tree_param":{"num_deleted":"0","num_feature":"19","num_nodes":"407","size_leaf_vector":"1"}},{"base_weights":[-1.0934299E-1,-8.621897E0,3.791673E1,-1.728187E1,1.875883E-1,2.5534845E1,6.0248447E1,-2.0498419E1,-1.3277724E1,-4.793016E0,6.718909E0,3.793266E1,1.3383174E1,6.537704E1,1.5195313E1,-2.2871628E1,-1.9504099E1,-1.4664101E1,-6.882004E0,-6.251466E0,3.3635705E0,1.6483143E1,2.3028488E0,3.4138653E1,6.0696743E1,2.1240974E1,-5.2293863E0,5.4483585E1,8.45211E1,4.824407E1,4.128098E0,-2.3272055E1,-1.9224453E1,-1.9794243E1,-1.5634622E1,1.8528933E1,-1.475439E1,1.1702814E1,-9.121264E0,-8.060608E0,-2.8313918E0,9.993085E0,-1.0423902E1,1.2651662E1,4.382982E1,3.98831E0,-1.2412045E1,2.6055155E1,4.0532536E1,7.181459E1,4.221132E1,1.4811237E1,2.9740204E1,3.3256676E1,-8.114262E0,7.309347E1,4.6834064E1,-8.021431E-1,8.685761E1,5.7759E1,-5.1734333E0,1.9845434E1,-6.327906E0,-1.49870615E1,-1.1667253E0,-8.170419E0,-2.0593462E1,-2.0619606E1,-1.846978E1,-8.412932E0,-1.697809E1,3.8253956E0,-3.8855488E0,-1.6506119E1,-1.2963992E1,-4.1116858E0,3.704914E1,-7.524903E0,-1.8135834E1,-1.2555054E1,-6.738463E0,2.8007908E0,-5.4716954E0,2.182139E0,1.9639862E1,-1.3215419E0,-1.3404081E1,7.044701E0,1.7928501E1,3.3363136E1,5.698427E1,3.1460783E-1,7.345735E0,3.3992653E1,-1.45336685E1,4.5114067E1,2.2731237E1,4.2245544E1,8.651901E0,6.4019485E1,9.554081E1,4.598621E1,5.6061354E0,1.7936068E1,7.701861E0,3.55435E1,2.0026293E1,1.8575884E1,4.3667936E0,-2.8561863E-1,-1.349775E1,-2.9927522E-1,7.4832344E1,5.0280636E1,2.3980412E1,1.1919736E1,-7.953985E-1,1.8622458E1,8.806748E1,2.1438274E1,6.6657074E1,-4.135811E-1,1.8048297E-1,1.0971241E1,3.6596436E1,-1.2332126E1,6.905031E-1,1.7986673E0,-9.7041637E-1,-1.4670474E1,1.9082577E0,-2.0894402E1,-3.9986115E0,-1.7624598E1,-2.0816036E1,-1.8626049E1,-6.903682E0,-1.6860775E1,1.798221E1,-1.7193453E1,4.046927E-1,-1.5003641E1,1.2926229E0,-1.6675245E1,5.5411263E0,-1.7233082E1,-1.1869762E1,-1.0920306E1,1.4682758E1,4.9501682E1,1.3561949E1,-1.4176657E1,-5.178234E0,2.0971452E-1,-1.8520247E1,-1.0475325E1,-1.7745853E1,-5.4834075E0,-1.1903875E1,-3.359349E0,5.686277E0,-4.2905126E0,-1.27006235E1,4.9360064E-1,3.5903545E1,7.912459E0,2.9369184E1,-3.178382E0,7.2701114E-1,-1.9244152E-1,-1.5274127E1,1.4636958E1,1.6043499E0,2.4649132E1,1.2897824E1,2.0848835E1,4.2421345E1,6.2846992E1,1.5342379E1,1.0928431E1,-9.110342E-1,1.0745568E1,2.126086E0,-1.1826038E1,5.8873005E1,-8.805657E0,-1.8081251E1,4.959496E1,-6.92529E0,2.4119835E1,-5.815538E0,5.00901E1,3.575675E1,3.2842495E1,-5.496051E0,6.618626E1,1.4971361E1,5.11387E0,1.3882686E0,2.6506369E1,5.2654785E1,9.409467E-1,-5.7049966E0,1.2675923E1,2.2579655E1,4.333214E0,2.0194645E1,3.0057343E1,4.2583195E1,7.834078E0,2.866704E1,3.201455E-1,3.1322886E1,-4.8209915E0,9.441198E0,-8.572908E0,-1.6375227E1,3.656126E-1,-3.9055222E-1,6.820237E1,9.518348E1,5.3991257E1,4.074467E1,1.3096169E1,4.2533783E1,-1.2448082E0,1.881321E1,1.545657E0,1.6761613E0,-5.7788056E-1,8.8724205E1,-6.626172E-2,1.3128012E0,7.168996E1,-4.7255012E-1,2.25374E1,7.350082E0,1.7407271E-1,2.1784246E0,-4.657279E0,-1.7317503E1,1.2546681E1,-3.958594E0,-1.6545954E-1,3.0035958E-1,-8.100004E-1,9.209853E-2,-8.220625E-2,-1.05389E0,3.0995008E-1,-6.0984594E-1,-9.053256E-1,7.1597964E-1,-8.508177E-1,-1.0445536E0,-9.352209E-1,-1.7982873E-1,7.064737E-1,-1.0079355E0,-9.187148E-1,4.487558E-1,1.1420244E0,1.13579236E-1,-4.537087E-1,-8.9078426E-1,-1.9489856E-1,-8.402783E-1,-5.5389833E-1,-8.6735135E-1,-3.44799E-1,1.842985E0,-8.866887E-1,-6.29464E-1,-4.3927166E-1,-6.888331E-1,1.8164688E-1,-6.114942E-1,8.910816E-2,1.361346E0,6.164251E-1,3.1569054E0,1.07185565E-1,1.7841927E0,-7.369209E-1,1.0921191E0,2.744994E-2,-4.1256666E-1,-9.6605724E-1,-2.2022565E-1,-3.788497E-1,-6.1470366E-1,-9.258704E-1,-7.1649425E-2,-3.2122442E-1,-3.0301547E-2,-7.257239E-1,-4.5286384E-1,-2.001576E-1,1.6864742E0,1.4678714E-1,5.4080564E-1,-2.3407765E-1,5.565227E-1,-7.093042E-1,9.625805E-1,5.0467724E-1,-2.6503798E-1,3.1905255E-1,2.7260852E0,2.1150444E-1,1.1548204E0,1.863086E0,4.494289E-1,-2.807122E-1,4.9014804E-1,4.5464998E-1,-3.4639975E-1,-8.294574E-1,-2.844836E-1,1.8621323E-1,9.654132E-1,1.57255E-1,-6.536244E-1,1.3086871E0,-7.077979E-1,7.0255876E-1,-3.6288416E-1,1.3329012E0,-1.9350993E-2,-1.2197634E-1,2.2607057E0,3.280777E0,3.4148738E-1,-2.9137421E-2,9.0468454E-1,2.0780356E-1,1.9085884E0,-2.7133375E-3,-2.9548284E-1,3.9905402E-1,8.593354E-1,3.7592493E-2,1.3339055E0,-9.921389E-2,-7.2225994E-1,-2.4761043E-1,3.6314244E0,-6.411975E-1,-9.9480465E-2,1.7381464E-1,-9.2431974E-1,2.0130713E0,3.8664722E0,4.22894E-1,-6.4427763E-1,-4.1828707E-2,1.241289E0,-6.348867E-1,8.142466E-1,-2.0084095E-3,2.6298418E0,1.3138969E0,2.001785E0,8.549763E-1,1.893203E0,2.4869727E-1,-5.353658E-1,2.8500268E0,3.993955E0,1.9145689E0,-2.7828848E-1,1.8364407E0,7.1242183E-1,2.6943283E0,3.0014783E-1,-5.412311E-1,-1.9512368E-2,1.065356E0,3.2037666E-1,7.9494447E-1,1.3001138E0,-2.8583655E-1,3.544711E-1,1.0881956E0,-4.366928E-1,1.6339028E0,7.860358E-1,5.9198953E-2,2.1843047E0,-2.2321616E-1,6.333856E-1,1.7178373E0,9.7987825E-1,3.7229326E-1,-4.3335205E-1,1.7921511E0,7.7909636E-1,-3.652758E-1,2.398643E-1,-4.7405702E-1,6.094317E-1,-6.315277E-1,2.2210339E-1,6.453329E-1,-8.405081E-1,3.4284394E0,5.1421833E-1,5.155844E0,1.7181815E0,2.222539E0,2.902274E0,1.5588337E0,2.5413504E0,4.4797212E-1,1.5068023E0,1.274669E0,3.6486337E0,9.352875E-2,-1.8688937E-1,1.0623127E0,2.8785202E-1,-1.7405806E-1,2.277828E-1,2.3743427E0,4.508599E0,4.133295E0,2.4504397E0,1.3475361E0,1.2210274E-1,5.1570114E-2,4.766541E-1,-5.145599E-1,4.5916805E-1,-9.1245556E-1,-8.358469E-2,1.1553398E0,-5.750518E-2,-3.6649427E-1,4.8366982E-1],"categories":[],"categories_nodes":[],"categories_segments":[],"categories_sizes":[],"default_left":[0,0,0,0,0,0,0,0,0,0,0,0,0,0,0,0,0,0,0,0,0,0,0,0,0,0,0,0,0,0,0,0,0,0,0,0,0,0,0,0,0,0,0,0,0,0,0,0,0,0,0,0,0,0,0,0,0,0,0,0,0,0,0,0,0,0,0,0,0,0,0,0,0,0,0,0,0,0,0,0,0,0,0,0,0,0,0,0,0,0,0,0,0,0,0,0,0,0,0,0,0,0,0,0,0,0,0,0,0,0,0,0,0,0,0,0,0,0,0,0,0,0,0,0,0,0,0,0,0,0,0,0,0,0,0,0,0,0,0,0,0,0,0,0,0,0,0,0,0,0,0,0,0,0,0,0,0,0,0,0,0,0,0,0,0,0,0,0,0,0,0,0,0,0,0,0,0,0,0,0,0,0,0,0,0,0,0,0,0,0,0,0,0,0,0,0,0,0,0,0,0,0,0,0,0,0,0,0,0,0,0,0,0,0,0,0,0,0,0,0,0,0,0,0,0,0,0,0,0,0,0,0,0,0,0,0,0,0,0,0,0,0,0,0,0,0,0,0,0,0,0,0,0,0,0,0,0,0,0,0,0,0,0,0,0,0,0,0,0,0,0,0,0,0,0,0,0,0,0,0,0,0,0,0,0,0,0,0,0,0,0,0,0,0,0,0,0,0,0,0,0,0,0,0,0,0,0,0,0,0,0,0,0,0,0,0,0,0,0,0,0,0,0,0,0,0,0,0,0,0,0,0,0,0,0,0,0,0,0,0,0,0,0,0,0,0,0,0,0,0,0,0,0,0,0,0,0,0,0,0,0,0,0,0,0,0,0,0,0,0,0,0,0,0,0,0,0,0,0,0,0,0,0,0,0,0,0,0,0,0,0,0,0,0,0,0,0,0,0,0,0,0,0,0,0,0,0,0,0,0,0,0,0,0,0,0,0,0,0,0,0,0,0,0,0,0,0,0,0,0,0,0,0,0,0,0,0,0,0],"id":2,"left_children":[1,3,5,7,9,11,13,15,17,19,21,23,25,27,29,31,33,35,37,39,41,43,45,47,49,51,53,55,57,59,61,63,65,67,69,71,73,75,77,79,81,83,85,87,89,91,93,95,97,99,101,103,105,107,109,111,113,115,117,119,121,123,125,127,-1,129,131,133,135,137,139,-1,141,143,145,147,149,151,153,155,157,159,161,163,165,167,169,171,173,175,177,179,181,183,185,187,189,191,193,195,197,199,201,203,205,207,209,211,-1,213,215,217,219,221,223,225,-1,227,229,231,233,-1,-1,235,237,239,241,243,-1,245,-1,247,249,251,253,255,257,259,261,263,-1,265,-1,267,269,271,273,275,277,279,281,283,285,-1,287,289,291,293,295,297,299,301,303,305,307,309,311,313,-1,315,317,319,321,323,325,327,329,331,333,335,337,339,341,343,345,347,349,351,353,355,357,359,361,363,365,367,369,-1,-1,371,373,-1,375,377,379,381,383,385,387,389,391,393,395,397,399,401,403,-1,-1,405,407,409,411,413,415,417,419,-1,421,-1,423,-1,-1,425,-1,427,429,-1,-1,431,433,435,437,-1,-1,-1,-1,-1,-1,-1,-1,-1,-1,-1,-1,-1,-1,-1,-1,-1,-1,-1,-1,-1,-1,-1,-1,-1,-1,-1,-1,-1,-1,-1,-1,-1,-1,-1,-1,-1,-1,-1,-1,-1,-1,-1,-1,-1,-1,-1,-1,-1,-1,-1,-1,-1,-1,-1,-1,-1,-1,-1,-1,-1,-1,-1,-1,-1,-1,-1,-1,-1,-1,-1,-1,-1,-1,-1,-1,-1,-1,-1,-1,-1,-1,-1,-1,-1,-1,-1,-1,-1,-1,-1,-1,-1,-1,-1,-1,-1,-1,-1,-1,-1,-1,-1,-1,-1,-1,-1,-1,-1,-1,-1,-1,-1,-1,-1,-1,-1,-1,-1,-1,-1,-1,-1,-1,-1,-1,-1,-1,-1,-1,-1,-1,-1,-1,-1,-1,-1,-1,-1,-1,-1,-1,-1,-1,-1,-1,-1,-1,-1,-1,-1,-1,-1,-1,-1,-1,-1,-1,-1,-1,-1,-1,-1,-1,-1,-1,-1,-1,-1,-1,-1,-1,-1,-1,-1,-1,-1,-1,-1,-1,-1,-1,-1,-1,-1,-1,-1,-1,-1,-1,-1,-1,-1,-1,-1,-1],"loss_changes":[5.1833945E6,9.981804E5,8.083555E5,8.4707E4,2.110538E5,2.83626E5,2.4023225E5,8.1835E3,2.5985438E4,4.38101E4,1.2099832E5,7.8508375E4,1.3963717E5,1.90802E5,3.930267E4,1.121125E3,2.5915625E3,7.5170312E3,2.1996898E4,1.930043E4,5.119914E4,9.102169E4,4.8015383E4,4.0395188E4,2.4097031E4,3.6228188E4,3.1801654E4,8.1990625E4,6.745275E4,1.40219375E4,1.3601505E4,1.485625E2,1.5266484E3,2.2426875E3,1.6520586E3,9.394256E3,7.347625E3,2.3000186E4,6.6270703E3,1.2049594E4,1.6105391E4,2.8439613E4,4.91934E3,2.2596555E4,1.2830969E4,2.1409826E4,2.008625E4,2.1590531E4,2.3991312E4,8.8643125E3,6.927578E3,8.392648E3,1.5523547E4,1.4256164E4,1.116468E4,2.2100812E4,3.2506438E4,2.1113638E3,2.552075E4,6.0042344E3,1.6591608E2,4.503995E3,2.1155188E3,7.770508E2,0E0,4.7764746E3,4.1086328E2,4.979375E2,1.5541562E3,7.2156357E3,9.7609375E2,0E0,2.3716604E3,4.6228438E3,5.387078E3,4.7670527E3,5.763117E3,6.1859844E3,6.7855664E2,4.8124062E3,1.0177672E4,6.1692515E3,6.2385234E3,1.1939654E4,1.905046E4,1.4010413E3,3.381832E3,1.5424418E4,1.3036758E4,6.143711E3,1.0265984E4,1.0807218E4,1.6072715E4,1.09561E4,3.7220156E3,1.2468961E4,1.2270109E4,1.9740375E4,8.39444E3,5.8107812E3,5.3785938E3,4.709742E3,1.00407214E3,6.211086E3,4.920462E3,5.6331875E3,1.1363906E4,3.9459731E3,0E0,4.854023E3,2.0844824E3,3.4299652E2,1.6311E4,1.092775E4,1.1155457E4,5.6791547E2,0E0,1.4061553E3,2.215825E4,6.928086E2,7.5723203E3,0E0,0E0,7.97655E2,2.3879922E3,9.524214E2,1.3725598E3,8.436858E1,0E0,3.5817236E2,0E0,3.0779688E2,3.2641818E2,1.7525312E3,3.625E1,1.014E3,4.187963E3,1.1033882E3,5.587283E2,6.163594E2,0E0,3.4550293E1,0E0,4.3425625E3,4.1493076E3,3.3942188E2,5.5016875E3,5.5901245E2,1.5697488E3,6.318332E3,2.1968423E3,2.4262695E3,5.249434E3,0E0,6.949629E2,1.6622031E3,1.6222617E3,5.8391836E3,2.1573867E3,2.7854712E3,3.2981572E3,3.8812969E3,5.161873E3,1.1234235E4,5.1486387E3,4.263509E3,1.4463695E4,1.3831078E3,0E0,1.1887628E3,1.4180625E3,7.880426E3,4.9934355E3,1.0309828E4,5.4021523E3,3.4644854E3,4.495301E3,5.755297E3,3.1724915E2,1.5708498E4,3.190259E3,9.638582E3,1.20927E4,7.444525E1,5.6273496E3,2.0286509E3,1.0861289E3,9.311922E3,5.674231E2,5.1651562E3,2.4882778E3,2.3752469E4,8.4794375E3,6.403223E1,9.262484E2,3.1193438E3,2.128826E3,0E0,0E0,1.230956E3,1.6303281E3,0E0,1.0461383E2,6.7346426E3,2.787789E3,2.6720037E3,1.3249951E3,3.3937812E3,3.418375E3,2.850513E3,2.6292578E3,5.76855E2,1.5300879E2,1.8273099E3,1.9351387E3,3.2247158E3,1.4650605E3,0E0,0E0,2.074875E3,1.5274344E4,7.631125E3,8.833891E3,2.4085928E3,9.0321875E3,3.0291567E1,4.7493896E0,0E0,7.5260895E1,0E0,1.488225E4,0E0,0E0,1.8074219E2,0E0,3.776211E2,2.5224731E2,0E0,0E0,1.0302324E3,2.0270557E2,1.0390526E3,8.9813824E2,0E0,0E0,0E0,0E0,0E0,0E0,0E0,0E0,0E0,0E0,0E0,0E0,0E0,0E0,0E0,0E0,0E0,0E0,0E0,0E0,0E0,0E0,0E0,0E0,0E0,0E0,0E0,0E0,0E0,0E0,0E0,0E0,0E0,0E0,0E0,0E0,0E0,0E0,0E0,0E0,0E0,0E0,0E0,0E0,0E0,0E0,0E0,0E0,0E0,0E0,0E0,0E0,0E0,0E0,0E0,0E0,0E0,0E0,0E0,0E0,0E0,0E0,0E0,0E0,0E0,0E0,0E0,0E0,0E0,0E0,0E0,0E0,0E0,0E0,0E0,0E0,0E0,0E0,0E0,0E0,0E0,0E0,0E0,0E0,0E0,0E0,0E0,0E0,0E0,0E0,0E0,0E0,0E0,0E0,0E0,0E0,0E0,0E0,0E0,0E0,0E0,0E0,0E0,0E0,0E0,0E0,0E0,0E0,0E0,0E0,0E0,0E0,0E0,0E0,0E0,0E0,0E0,0E0,0E0,0E0,0E0,0E0,0E0,0E0,0E0,0E0,0E0,0E0,0E0,0E0,0E0,0E0,0E0,0E0,0E0,0E0,0E0,0E0,0E0,0E0,0E0,0E0,0E0,0E0,0E0,0E0,0E0,0E0,0E0,0E0,0E0,0E0,0E0,0E0,0E0,0E0,0E0,0E0,0E0,0E0,0E0,0E0,0E0,0E0,0E0,0E0,0E0,0E0,0E0,0E0,0E0,0E0,0E0,0E0,0E0,0E0,0E0,0E0,0E0,0E0,0E0,0E0,0E0,0E0,0E0,0E0,0E0,0E0,0E0,0E0,0E0,0E0,0E0,0E0,0E0,0E0],"parents":[2147483647,0,0,1,1,2,2,3,3,4,4,5,5,6,6,7,7,8,8,9,9,10,10,11,11,12,12,13,13,14,14,15,15,16,16,17,17,18,18,19,19,20,20,21,21,22,22,23,23,24,24,25,25,26,26,27,27,28,28,29,29,30,30,31,31,32,32,33,33,34,34,35,35,36,36,37,37,38,38,39,39,40,40,41,41,42,42,43,43,44,44,45,45,46,46,47,47,48,48,49,49,50,50,51,51,52,52,53,53,54,54,55,55,56,56,57,57,58,58,59,59,60,60,61,61,62,62,63,63,65,65,66,66,67,67,68,68,69,69,70,70,72,72,73,73,74,74,75,75,76,76,77,77,78,78,79,79,80,80,81,81,82,82,83,83,84,84,85,85,86,86,87,87,88,88,89,89,90,90,91,91,92,92,93,93,94,94,95,95,96,96,97,97,98,98,99,99,100,100,101,101,102,102,103,103,104,104,105,105,106,106,107,107,109,109,110,110,111,111,112,112,113,113,114,114,115,115,117,117,118,118,119,119,120,120,123,123,124,124,125,125,126,126,127,127,129,129,131,131,132,132,133,133,134,134,135,135,136,136,137,137,138,138,139,139,141,141,143,143,144,144,145,145,146,146,147,147,148,148,149,149,150,150,151,151,152,152,154,154,155,155,156,156,157,157,158,158,159,159,160,160,161,161,162,162,163,163,164,164,165,165,166,166,167,167,169,169,170,170,171,171,172,172,173,173,174,174,175,175,176,176,177,177,178,178,179,179,180,180,181,181,182,182,183,183,184,184,185,185,186,186,187,187,188,188,189,189,190,190,191,191,192,192,193,193,194,194,195,195,196,196,199,199,200,200,202,202,203,203,204,204,205,205,206,206,207,207,208,208,209,209,210,210,211,211,212,212,213,213,214,214,215,215,216,216,219,219,220,220,221,221,222,222,223,223,224,224,225,225,226,226,228,228,230,230,233,233,235,235,236,236,239,239,240,240,241,241,242,242],"right_children":[2,4,6,8,10,12,14,16,18,20,22,24,26,28,30,32,34,36,38,40,42,44,46,48,50,52,54,56,58,60,62,64,66,68,70,72,74,76,78,80,82,84,86,88,90,92,94,96,98,100,102,104,106,108,110,112,114,116,118,120,122,124,126,128,-1,130,132,134,136,138,140,-1,142,144,146,148,150,152,154,156,158,160,162,164,166,168,170,172,174,176,178,180,182,184,186,188,190,192,194,196,198,200,202,204,206,208,210,212,-1,214,216,218,220,222,224,226,-1,228,230,232,234,-1,-1,236,238,240,242,244,-1,246,-1,248,250,252,254,256,258,260,262,264,-1,266,-1,268,270,272,274,276,278,280,282,284,286,-1,288,290,292,294,296,298,300,302,304,306,308,310,312,314,-1,316,318,320,322,324,326,328,330,332,334,336,338,340,342,344,346,348,350,352,354,356,358,360,362,364,366,368,370,-1,-1,372,374,-1,376,378,380,382,384,386,388,390,392,394,396,398,400,402,404,-1,-1,406,408,410,412,414,416,418,420,-1,422,-1,424,-1,-1,426,-1,428,430,-1,-1,432,434,436,438,-1,-1,-1,-1,-1,-1,-1,-1,-1,-1,-1,-1,-1,-1,-1,-1,-1,-1,-1,-1,-1,-1,-1,-1,-1,-1,-1,-1,-1,-1,-1,-1,-1,-1,-1,-1,-1,-1,-1,-1,-1,-1,-1,-1,-1,-1,-1,-1,-1,-1,-1,-1,-1,-1,-1,-1,-1,-1,-1,-1,-1,-1,-1,-1,-1,-1,-1,-1,-1,-1,-1,-1,-1,-1,-1,-1,-1,-1,-1,-1,-1,-1,-1,-1,-1,-1,-1,-1,-1,-1,-1,-1,-1,-1,-1,-1,-1,-1,-1,-1,-1,-1,-1,-1,-1,-1,-1,-1,-1,-1,-1,-1,-1,-1,-1,-1,-1,-1,-1,-1,-1,-1,-1,-1,-1,-1,-1,-1,-1,-1,-1,-1,-1,-1,-1,-1,-1,-1,-1,-1,-1,-1,-1,-1,-1,-1,-1,-1,-1,-1,-1,-1,-1,-1,-1,-1,-1,-1,-1,-1,-1,-1,-1,-1,-1,-1,-1,-1,-1,-1,-1,-1,-1,-1,-1,-1,-1,-1,-1,-1,-1,-1,-1,-1,-1,-1,-1,-1,-1,-1,-1,-1,-1,-1,-1,-1],"split_conditions":[5.03E1,1.357E1,8.85E1,6.7E0,2.8E1,4.13E1,6.627E1,3.2E0,5.937E1,5.085E1,1.94E1,7.55E1,3.423E1,1.2307E2,6.767E1,9.355E1,9.155E1,1.98E0,5.25E0,2.227E1,2.035E1,7.55E1,5.253E1,6.128E1,4.792E1,7.02E1,5.567E1,2.515E1,4.955E1,7.355E1,4.877E1,-2.13E0,3.423E1,5.17E0,3.65E0,1.596E1,9.68E0,7.14E1,6.547E1,1.155E1,2.195E1,1.87E1,1.23E1,3.577E1,6.223E1,3.617E1,2.057E1,3.292E1,5.745E1,7.355E1,5.297E1,2.407E1,2.265E1,7.02E1,5.033E1,1.917E1,3.365E1,1.285E1,1.29E1,7.14E1,1.904E1,1.2307E2,1.1062E2,6.266E1,-1.1667253E0,2.43E1,2.515E1,2.83E0,2.99E1,4.35E0,1.6393E2,3.8253956E0,1.067E1,1.9318E2,9.6E0,3.155E1,8.01E1,8.05E0,2.265E1,1.73E1,4.78E1,1.762E1,4.275E1,1.975E2,4.205E1,4.02E1,3.177E1,2.338E1,3.03E1,3.617E1,1.0815E2,2.457E1,2.52E1,3.283E1,6.48E1,4.125E1,5.085E1,5.915E1,3.545E1,7.245E1,1.1625E2,6.895E1,1.4059E2,1.29E1,3.488E1,1.84E1,2.305E1,-8.7E-1,4.3667936E0,3.365E1,6.555E1,1.472E1,4.78E1,2.778E1,4.63E1,1.05E1,-7.953985E-1,-1.92E0,9.22E0,-2.59E0,3.664E1,-4.135811E-1,1.8048297E-1,3.34E1,-2.45E0,6.302E1,8.155E1,4E-2,-9.7041637E-1,1.06E0,1.9082577E0,-3.16E0,1.522E2,1.975E2,-3.83E0,1.806E2,2.735E1,3.582E1,6E-1,3.58E0,4.046927E-1,2.105E1,1.2926229E0,5.07E0,1.965E1,1.6041E2,2.465E1,1.98E0,8.9E-1,1.052E1,1.515E1,2.008E1,8.57E0,2.0971452E-1,2.38E0,1.58E1,1.8528E2,1.4869E2,1.125E1,6.547E1,8.582E1,4.955E1,3.62E0,1.16E1,1.112E1,1.823E1,7.645E1,2.688E1,7.2701114E-1,2.014E1,1.1185E2,2.212E1,3.488E1,7.14E1,6.627E1,2.77E1,7.47E0,1.785E1,3.143E1,3.633E1,3.833E1,2.195E1,4.78E1,4E-2,9.82E0,4.98E1,2.26E1,4.63E1,6.5E-1,8.05E0,1E-1,1.823E1,7.02E1,4.78E1,1.2844E2,6.895E1,1.0337E2,5.11387E0,1.3882686E0,7.14E0,1.1062E2,9.409467E-1,2.369E1,1.06E1,5.802E1,1.998E1,3.62E0,1.873E1,4.255E1,1.415E1,3.698E1,-1.97E0,5.137E1,7.626E1,4.573E1,4.49E1,4.722E1,3.656126E-1,-3.9055222E-1,5.28E0,8.455E1,1.952E1,2.795E1,7.291E1,1.686E1,1.4453E2,1.8713E2,1.545657E0,1.686E1,-5.7788056E-1,1.232E1,-6.626172E-2,1.3128012E0,1.146E2,-4.7255012E-1,1.224E2,5.854E1,1.7407271E-1,2.1784246E0,5.247E1,1.2365E2,1.189E1,9.378E1,-1.6545954E-1,3.0035958E-1,-8.100004E-1,9.209853E-2,-8.220625E-2,-1.05389E0,3.0995008E-1,-6.0984594E-1,-9.053256E-1,7.1597964E-1,-8.508177E-1,-1.0445536E0,-9.352209E-1,-1.7982873E-1,7.064737E-1,-1.0079355E0,-9.187148E-1,4.487558E-1,1.1420244E0,1.13579236E-1,-4.537087E-1,-8.9078426E-1,-1.9489856E-1,-8.402783E-1,-5.5389833E-1,-8.6735135E-1,-3.44799E-1,1.842985E0,-8.866887E-1,-6.29464E-1,-4.3927166E-1,-6.888331E-1,1.8164688E-1,-6.114942E-1,8.910816E-2,1.361346E0,6.164251E-1,3.1569054E0,1.07185565E-1,1.7841927E0,-7.369209E-1,1.0921191E0,2.744994E-2,-4.1256666E-1,-9.6605724E-1,-2.2022565E-1,-3.788497E-1,-6.1470366E-1,-9.258704E-1,-7.1649425E-2,-3.2122442E-1,-3.0301547E-2,-7.257239E-1,-4.5286384E-1,-2.001576E-1,1.6864742E0,1.4678714E-1,5.4080564E-1,-2.3407765E-1,5.565227E-1,-7.093042E-1,9.625805E-1,5.0467724E-1,-2.6503798E-1,3.1905255E-1,2.7260852E0,2.1150444E-1,1.1548204E0,1.863086E0,4.494289E-1,-2.807122E-1,4.9014804E-1,4.5464998E-1,-3.4639975E-1,-8.294574E-1,-2.844836E-1,1.8621323E-1,9.654132E-1,1.57255E-1,-6.536244E-1,1.3086871E0,-7.077979E-1,7.0255876E-1,-3.6288416E-1,1.3329012E0,-1.9350993E-2,-1.2197634E-1,2.2607057E0,3.280777E0,3.4148738E-1,-2.9137421E-2,9.0468454E-1,2.0780356E-1,1.9085884E0,-2.7133375E-3,-2.9548284E-1,3.9905402E-1,8.593354E-1,3.7592493E-2,1.3339055E0,-9.921389E-2,-7.2225994E-1,-2.4761043E-1,3.6314244E0,-6.411975E-1,-9.9480465E-2,1.7381464E-1,-9.2431974E-1,2.0130713E0,3.8664722E0,4.22894E-1,-6.4427763E-1,-4.1828707E-2,1.241289E0,-6.348867E-1,8.142466E-1,-2.0084095E-3,2.6298418E0,1.3138969E0,2.001785E0,8.549763E-1,1.893203E0,2.4869727E-1,-5.353658E-1,2.8500268E0,3.993955E0,1.9145689E0,-2.7828848E-1,1.8364407E0,7.1242183E-1,2.6943283E0,3.0014783E-1,-5.412311E-1,-1.9512368E-2,1.065356E0,3.2037666E-1,7.9494447E-1,1.3001138E0,-2.8583655E-1,3.544711E-1,1.0881956E0,-4.366928E-1,1.6339028E0,7.860358E-1,5.9198953E-2,2.1843047E0,-2.2321616E-1,6.333856E-1,1.7178373E0,9.7987825E-1,3.7229326E-1,-4.3335205E-1,1.7921511E0,7.7909636E-1,-3.652758E-1,2.398643E-1,-4.7405702E-1,6.094317E-1,-6.315277E-1,2.2210339E-1,6.453329E-1,-8.405081E-1,3.4284394E0,5.1421833E-1,5.155844E0,1.7181815E0,2.222539E0,2.902274E0,1.5588337E0,2.5413504E0,4.4797212E-1,1.5068023E0,1.274669E0,3.6486337E0,9.352875E-2,-1.8688937E-1,1.0623127E0,2.8785202E-1,-1.7405806E-1,2.277828E-1,2.3743427E0,4.508599E0,4.133295E0,2.4504397E0,1.3475361E0,1.2210274E-1,5.1570114E-2,4.766541E-1,-5.145599E-1,4.5916805E-1,-9.1245556E-1,-8.358469E-2,1.1553398E0,-5.750518E-2,-3.6649427E-1,4.8366982E-1],"split_indices":[8,8,8,8,8,10,18,8,17,17,10,17,13,8,10,0,17,9,9,8,9,17,13,8,9,8,9,10,9,13,13,6,13,8,9,2,8,14,10,16,9,8,10,8,14,8,9,9,18,14,18,13,13,8,13,9,13,10,16,17,3,8,8,0,0,10,9,9,9,8,13,0,3,1,17,2,16,8,13,13,18,17,18,0,14,9,13,9,9,8,13,9,18,17,13,18,13,9,13,14,13,8,0,16,16,16,16,5,0,14,13,2,14,18,16,10,0,6,17,5,2,0,0,17,4,13,18,0,0,6,0,5,0,0,4,1,17,2,6,10,0,0,0,9,10,0,18,10,4,1,3,9,9,0,5,9,0,0,3,10,0,9,4,9,9,10,16,8,0,2,17,17,13,13,18,9,9,10,0,17,18,17,14,0,1,14,9,13,4,17,5,9,8,16,0,8,0,0,0,3,9,0,2,13,8,14,4,13,9,16,18,6,14,1,10,14,10,0,0,4,9,16,16,1,3,0,0,0,1,0,2,0,0,9,0,0,0,0,0,1,1,3,16,0,0,0,0,0,0,0,0,0,0,0,0,0,0,0,0,0,0,0,0,0,0,0,0,0,0,0,0,0,0,0,0,0,0,0,0,0,0,0,0,0,0,0,0,0,0,0,0,0,0,0,0,0,0,0,0,0,0,0,0,0,0,0,0,0,0,0,0,0,0,0,0,0,0,0,0,0,0,0,0,0,0,0,0,0,0,0,0,0,0,0,0,0,0,0,0,0,0,0,0,0,0,0,0,0,0,0,0,0,0,0,0,0,0,0,0,0,0,0,0,0,0,0,0,0,0,0,0,0,0,0,0,0,0,0,0,0,0,0,0,0,0,0,0,0,0,0,0,0,0,0,0,0,0,0,0,0,0,0,0,0,0,0,0,0,0,0,0,0,0,0,0,0,0,0,0,0,0,0,0,0,0,0,0,0,0,0,0,0,0,0,0,0,0,0,0],"split_type":[0,0,0,0,0,0,0,0,0,0,0,0,0,0,0,0,0,0,0,0,0,0,0,0,0,0,0,0,0,0,0,0,0,0,0,0,0,0,0,0,0,0,0,0,0,0,0,0,0,0,0,0,0,0,0,0,0,0,0,0,0,0,0,0,0,0,0,0,0,0,0,0,0,0,0,0,0,0,0,0,0,0,0,0,0,0,0,0,0,0,0,0,0,0,0,0,0,0,0,0,0,0,0,0,0,0,0,0,0,0,0,0,0,0,0,0,0,0,0,0,0,0,0,0,0,0,0,0,0,0,0,0,0,0,0,0,0,0,0,0,0,0,0,0,0,0,0,0,0,0,0,0,0,0,0,0,0,0,0,0,0,0,0,0,0,0,0,0,0,0,0,0,0,0,0,0,0,0,0,0,0,0,0,0,0,0,0,0,0,0,0,0,0,0,0,0,0,0,0,0,0,0,0,0,0,0,0,0,0,0,0,0,0,0,0,0,0,0,0,0,0,0,0,0,0,0,0,0,0,0,0,0,0,0,0,0,0,0,0,0,0,0,0,0,0,0,0,0,0,0,0,0,0,0,0,0,0,0,0,0,0,0,0,0,0,0,0,0,0,0,0,0,0,0,0,0,0,0,0,0,0,0,0,0,0,0,0,0,0,0,0,0,0,0,0,0,0,0,0,0,0,0,0,0,0,0,0,0,0,0,0,0,0,0,0,0,0,0,0,0,0,0,0,0,0,0,0,0,0,0,0,0,0,0,0,0,0,0,0,0,0,0,0,0,0,0,0,0,0,0,0,0,0,0,0,0,0,0,0,0,0,0,0,0,0,0,0,0,0,0,0,0,0,0,0,0,0,0,0,0,0,0,0,0,0,0,0,0,0,0,0,0,0,0,0,0,0,0,0,0,0,0,0,0,0,0,0,0,0,0,0,0,0,0,0,0,0,0,0,0,0,0,0,0,0,0,0,0,0,0,0,0,0,0,0,0,0,0,0],"sum_hessian":[1.6011E4,1.3083E4,2.928E3,6.597E3,6.486E3,1.885E3,1.043E3,3.656E3,2.941E3,3.68E3,2.806E3,9.32E2,9.53E2,9.36E2,1.07E2,1.073E3,2.583E3,2.416E3,5.25E2,3.122E3,5.58E2,8.73E2,1.933E3,8.01E2,1.31E2,6.7E2,2.83E2,5.99E2,3.37E2,2.6E1,8.1E1,9.62E2,1.11E2,2.399E3,1.84E2,6E0,2.41E3,5.6E1,4.69E2,2.041E3,1.081E3,3.77E2,1.81E2,7.67E2,1.06E2,1.735E3,1.98E2,3.56E2,4.45E2,8E1,5.1E1,3.83E2,2.87E2,1.9E1,2.64E2,1.72E2,4.27E2,9E0,3.28E2,2.2E1,4E0,3.2E1,4.9E1,9E0,9.53E2,1.3E1,9.8E1,1.469E3,9.3E2,3E1,1.54E2,1E0,5E0,1.214E3,1.196E3,3.5E1,2.1E1,4E2,6.9E1,4.62E2,1.579E3,3.45E2,7.36E2,2.09E2,1.68E2,4.5E1,1.36E2,3.73E2,3.94E2,6.1E1,4.5E1,8.29E2,9.06E2,8E0,1.9E2,5.1E1,3.05E2,4.22E2,2.3E1,6.3E1,1.7E1,4.6E1,5E0,2.65E2,1.18E2,1.78E2,1.09E2,1.6E1,3E0,1.08E2,1.56E2,4E0,1.68E2,3.7E2,5.7E1,5E0,4E0,6E0,3.22E2,5E0,1.7E1,3E0,1E0,2.2E1,1E1,2.6E1,2.3E1,2E0,7E0,1.2E1,1E0,9.6E1,2E0,9.6E1,1.373E3,9.17E2,1.3E1,2.3E1,7E0,1.53E2,1E0,4E0,1E0,1.205E3,9E0,2.41E2,9.55E2,2.6E1,9E0,1.3E1,8E0,1.03E2,2.97E2,1E0,6.8E1,3.32E2,1.3E2,1.272E3,3.07E2,1.1E2,2.35E2,6.34E2,1.02E2,2E2,9E0,7.7E1,9.1E1,4.1E1,4E0,1.7E1,1.19E2,1.55E2,2.18E2,1.67E2,2.27E2,2.7E1,3.4E1,3.9E1,6E0,8.5E1,7.44E2,5.48E2,3.58E2,3E0,5E0,7.4E1,1.16E2,4.7E1,4E0,2.91E2,1.4E1,1.88E2,2.34E2,8E0,1.5E1,6E1,3E0,1.5E1,2E0,1.3E1,3.3E1,2E0,3E0,1.26E2,1.39E2,9.4E1,2.4E1,1.03E2,7.5E1,4.6E1,6.3E1,7E0,9E0,7.4E1,3.4E1,5.9E1,9.7E1,2E0,2E0,1.3E2,3.8E1,2.63E2,1.07E2,3.7E1,2E1,2E0,3E0,3E0,3E0,2E0,3.2E2,1E0,4E0,1.6E1,1E0,4E0,1.8E1,2E0,8E0,1.1E1,1.5E1,6E0,1.7E1,1E0,1E0,1.1E1,1E0,1E0,9.5E1,1E0,1E0,9.5E1,1E0,3.1E1,1.342E3,9.12E2,5E0,5E0,8E0,2.2E1,1E0,5E0,2E0,1.2E1,1.41E2,1E0,3E0,1.31E2,1.074E3,7E0,2E0,2.15E2,2.6E1,3.67E2,5.88E2,2E0,2.4E1,5E0,4E0,4E0,9E0,6E0,2E0,1.02E2,1E0,1.04E2,1.93E2,6.4E1,4E0,1.3E2,2.02E2,1.24E2,6E0,1.066E3,2.06E2,1.58E2,1.49E2,1.09E2,1E0,1.54E2,8.1E1,6.19E2,1.5E1,9.8E1,4E0,7.5E1,1.25E2,4E0,5E0,6.3E1,1.4E1,6.5E1,2.6E1,3.5E1,6E0,7E0,1E1,1.04E2,1.5E1,4.7E1,1.08E2,1.98E2,2E1,1.61E2,6E0,2.15E2,1.2E1,2.1E1,6E0,2E0,3.2E1,3.7E1,2E0,1E0,5E0,6.9E1,1.6E1,6.36E2,1.08E2,3.85E2,1.63E2,3.4E2,1.8E1,1E0,2E0,1E0,4E0,4.6E1,2.8E1,2E0,1.14E2,3.7E1,1E1,1E0,3E0,8E0,2.83E2,1.1E1,3E0,9E0,1.79E2,7.5E1,1.59E2,3E0,5E0,5E0,1E1,3.9E1,2.1E1,1E0,2E0,6E0,7E0,3.2E1,1E0,1E0,2E0,5.2E1,7.4E1,4.9E1,9E1,2E1,7.4E1,2.3E1,1E0,8.6E1,1.7E1,2E0,7.3E1,1.3E1,3.3E1,3.7E1,2.6E1,4E0,3E0,6E0,3E0,5.9E1,1.5E1,4E0,3E1,4.5E1,1.4E1,1E0,9.6E1,1.29E2,1E0,3.3E1,5E0,8.2E1,1.81E2,5.7E1,5E1,3.1E1,6E0,1.4E1,6E0,1E0,1E0,2E0,1E0,1E0,2E0,1.2E1,3.08E2,9E0,7E0,3E0,1E0,5E0,1.3E1,8E0,3E0,1.4E1,1E0,3E0,3E0,1.4E1,3E0],"tree_param":{"num_deleted":"0","num_feature":"19","num_nodes":"439","size_leaf_vector":"1"}},{"base_weights":[2.077882E-2,-9.543996E0,4.5888996E1,-1.6040369E1,3.5923665E0,3.5645077E1,8.2546E1,-1.9708385E1,-1.0628062E1,-9.3271124E-1,1.1101065E1,1.9810507E1,4.2569416E1,6.8892166E1,9.606213E1,-2.1428125E1,-1.7069874E1,-1.3683282E1,-8.827934E0,-4.0372353E0,3.7475436E0,4.818601E0,1.4858626E1,2.2556381E1,7.5720673E0,3.691722E1,5.6156025E1,7.7957954E1,6.1712097E1,4.875746E1,1.0034171E2,-2.24672E1,-2.0396976E1,-1.8073046E1,-1.4420572E1,-1.4653004E1,-9.062139E0,-5.8636985E0,-1.1276704E1,-2.9011035E0,-1.1245089E1,5.509831E0,-5.642477E0,1.5152436E1,1.7856356E0,2.610901E1,1.0844314E1,1.8180525E1,3.0947685E1,2.612974E1,-1.0575381E-1,5.9962063E1,3.4893154E1,3.8549726E0,5.102656E1,1.492995E1,8.0340576E1,6.3257133E1,2.6186205E1,6.7287735E1,2.36258E1,9.259787E1,1.1118607E2,-2.2546272E1,-1.5485763E1,-1.0377989E0,-1.8737864E1,-1.8094105E1,3.4790784E-1,1.3983185E1,-1.4591892E1,-1.2817585E1,-1.5378782E1,-4.781792E0,-1.3375062E1,-6.9325E0,-1.0141642E0,-1.4275692E1,-9.494337E0,1.1072091E0,-3.8513064E0,-7.638491E0,-1.5081509E1,3.3300557E0,1.0393081E1,-2.0208306E0,-1.099434E1,1.6284399E1,-8.842908E0,-1.7749656E0,4.0884633E0,2.291788E1,3.8282787E1,8.073441E0,1.3996173E1,2.1613453E1,1.1015136E1,2.5546469E1,5.244306E1,1.8582445E1,2.5111232E0,-4.9702096E0,1.1068395E1,2.0714594E1,6.1644474E1,3.1237463E1,4.1872208E1,4.3352055E1,5.575628E1,1.3947918E0,-3.6672738E-1,8.101832E1,-1.0941811E-1,5.49088E1,6.754336E1,1.9461733E0,4.1058508E-1,1.2024975E-2,7.205965E1,8.446284E0,2.783407E0,9.8333565E1,8.043196E1,5.6261606E0,6.06016E1,-2.2560665E1,9.408474E-4,-6.6738534E0,-1.0769271E0,-1.9077198E1,-1.1543555E1,1.4083773E0,-1.8120747E1,1.8605512E0,-6.1631036E0,-7.835098E0,-1.5038694E1,-9.39933E0,-1.379772E1,-1.6357483E1,-1.4066082E1,3.1289823E0,-5.882988E0,-1.3731062E1,4.611292E0,-7.5376554E0,5.404444E0,-3.8062248E0,5.9330635E0,-1.2856364E1,-1.8532944E1,-1.0803247E1,-7.8730187E0,4.035662E0,-3.2558718E0,-6.0922236E0,-1.7895193E0,-1.240269E1,-6.3544984E0,-1.5763608E1,7.0232576E-1,6.1857185E0,1.3650737E0,1.2166494E1,5.6147313E0,-1.0548451E1,3.6659232E-1,-1.2328497E1,2.7742915E0,8.861767E0,2.06855E1,-4.3932596E-4,-6.189904E-1,-6.6777573E0,-4.6445826E-1,5.1983976E0,-9.167214E0,2.434136E1,6.7276735E0,4.31953E1,2.4760971E1,7.6940007E0,2.2331514E0,1.5261775E1,2.9701443E0,2.1145037E1,3.350834E0,1.694434E0,1.3761998E1,1.32392435E1,3.1087648E1,-6.0392016E-1,5.463163E1,2.2229673E1,-3.3701844E0,-8.052887E0,5.2257047E0,1.669515E1,-1.6660424E-1,1.3093424E0,-2.936039E-2,6.2358734E1,1.1143752E0,3.7962166E1,2.7547674E1,5.2881622E1,3.7377304E1,4.779509E1,2.6044672E1,4.6797775E1,5.7690098E1,1.9654594E1,8.185631E1,2.8162274E0,2.7504347E1,3.4095933E0,2.2547478E1,3.8688354E0,1.3385754E0,-1.9496177E0,1.5701821E1,8.5652417E-1,9.8926834E1,4.052179E0,1.1239593E0,-1.963123E-1,3.885756E0,-1.1579267E0,-1.0912684E0,-4.5075342E-1,8.9700125E-2,-6.8677765E-1,-9.7698843E-1,-1.954093E-1,-8.5239667E-1,-1.8722229E-1,2.9285058E-1,-9.4393474E-1,-8.6045706E-1,1.0300918E-1,-5.65242E-1,-5.0675374E-1,4.685882E-1,-7.572276E-1,-3.202782E-2,1.4132102E-3,-5.5229336E-1,-7.0931476E-1,-3.4469065E-1,-7.822539E-1,-9.250876E-1,5.972186E-1,-7.1657485E-1,-3.8805792E-1,1.1060566E-1,-7.019248E-1,-8.834984E-2,3.916018E-1,-4.575491E-2,-5.0069064E-1,-2.5786972E-1,1.8686665E0,-1.8778469E-1,-4.407993E-1,-1.1693074E-1,-2.9058359E-3,5.190004E-1,-7.6818955E-1,-5.152193E-1,-9.8815787E-1,-7.73594E-1,-5.6246144E-1,-1.0104982E-1,4.1624975E-1,-4.136378E-1,1.6388217E-1,3.2087693E0,-2.6246434E-1,1.5701406E-1,-3.1620044E-1,1.0311273E0,3.3717663E0,-1.0080766E-1,7.094846E-2,-6.532664E-1,-3.6106402E-1,8.67637E-2,-8.328234E-1,-5.05472E-1,4.7129655E-1,1.0586007E-1,-1.3805361E-1,1.462104E-1,5.4016113E-1,9.3927E-1,6.2215507E-2,4.8175082E-1,-5.916957E-1,4.4329378E-1,-3.0705976E-1,2.1821676E-1,4.1834956E-1,-6.5655226E-1,-1.8826449E-1,6.374415E-1,9.301101E-3,5.2174735E-1,5.6965715E-1,1.2001202E0,5.5670213E-2,-5.5703163E-2,-2.1508303E-1,-5.175571E-1,-7.140457E-2,3.877726E-1,4.5488453E-1,1.2994364E-1,-6.9025123E-1,6.271539E-2,1.0288483E0,1.5170497E0,1.4421617E0,-5.463456E-2,-7.4518204E-2,2.220523E0,2.2189224E-1,1.3587433E0,4.4945222E-1,-7.610833E-2,1.0330218E0,6.833755E-1,6.009421E-1,-1.7268689E-1,9.8812294E-1,1.5082164E0,-2.210516E-1,3.278674E-1,7.476898E-1,-4.8638397E-1,1.1010777E0,4.495281E-2,-3.447957E-1,1.595814E0,3.0261354E0,1.3591945E0,-4.2475978E-1,1.1931922E0,-5.624622E-1,7.0365137E-1,-2.0401025E-1,-6.705316E-1,-2.3796642E-1,5.347077E-1,-2.2187462E-1,9.099638E-1,-2.1715236E-1,5.513056E-1,6.7945844E-1,3.1404884E0,1.4680535E0,2.0137284E0,1.4309201E0,8.563879E-1,2.9038927E-1,2.6660311E0,1.9568255E0,9.462517E-1,2.4262826E0,8.060582E-1,-4.5536455E-2,1.3967535E0,2.3864648E0,1.6855946E-1,6.305936E-1,2.8938344E0,1.2886996E0,1.8539496E-1,3.8472328E0,4.993294E0,3.913164E-1,1.5233635E0,1.5108196E0,1.8024135E-1,4.040234E-2,-3.245069E-1,1.0027411E0,2.3319414E-1,1.1317466E0,4.971415E0],"categories":[],"categories_nodes":[],"categories_segments":[],"categories_sizes":[],"default_left":[0,0,0,0,0,0,0,0,0,0,0,0,0,0,0,0,0,0,0,0,0,0,0,0,0,0,0,0,0,0,0,0,0,0,0,0,0,0,0,0,0,0,0,0,0,0,0,0,0,0,0,0,0,0,0,0,0,0,0,0,0,0,0,0,0,0,0,0,0,0,0,0,0,0,0,0,0,0,0,0,0,0,0,0,0,0,0,0,0,0,0,0,0,0,0,0,0,0,0,0,0,0,0,0,0,0,0,0,0,0,0,0,0,0,0,0,0,0,0,0,0,0,0,0,0,0,0,0,0,0,0,0,0,0,0,0,0,0,0,0,0,0,0,0,0,0,0,0,0,0,0,0,0,0,0,0,0,0,0,0,0,0,0,0,0,0,0,0,0,0,0,0,0,0,0,0,0,0,0,0,0,0,0,0,0,0,0,0,0,0,0,0,0,0,0,0,0,0,0,0,0,0,0,0,0,0,0,0,0,0,0,0,0,0,0,0,0,0,0,0,0,0,0,0,0,0,0,0,0,0,0,0,0,0,0,0,0,0,0,0,0,0,0,0,0,0,0,0,0,0,0,0,0,0,0,0,0,0,0,0,0,0,0,0,0,0,0,0,0,0,0,0,0,0,0,0,0,0,0,0,0,0,0,0,0,0,0,0,0,0,0,0,0,0,0,0,0,0,0,0,0,0,0,0,0,0,0,0,0,0,0,0,0,0,0,0,0,0,0,0,0,0,0,0,0,0,0,0,0,0,0,0,0,0,0,0,0,0,0,0,0,0,0,0,0,0,0,0,0,0,0,0,0,0,0,0,0,0,0,0,0,0,0,0,0,0,0,0,0,0,0,0,0,0,0,0,0,0,0,0,0,0,0,0,0,0,0,0,0],"id":3,"left_children":[1,3,5,7,9,11,13,15,17,19,21,23,25,27,29,31,33,35,37,39,41,43,45,47,49,51,53,55,57,59,61,63,65,67,69,71,73,75,77,79,81,83,85,87,89,91,93,95,97,99,101,103,105,-1,107,109,111,113,115,117,119,121,123,125,127,-1,129,131,-1,133,135,137,139,141,143,145,147,149,151,153,155,157,159,161,163,165,167,169,171,173,175,177,179,181,183,185,187,189,191,193,-1,195,197,199,201,203,205,207,209,-1,-1,211,-1,213,215,-1,-1,-1,217,219,-1,221,223,-1,225,227,-1,229,-1,231,233,235,237,-1,239,241,243,245,247,249,251,-1,253,255,257,259,261,263,265,267,269,271,273,275,277,279,281,283,285,287,-1,289,291,293,295,297,299,301,303,305,307,309,-1,311,313,315,317,319,321,323,325,327,-1,329,331,333,-1,335,337,339,341,-1,343,345,347,349,351,353,355,-1,-1,357,-1,359,361,363,365,367,369,371,373,375,377,-1,379,-1,381,-1,-1,383,385,-1,387,-1,-1,-1,-1,-1,-1,-1,-1,-1,-1,-1,-1,-1,-1,-1,-1,-1,-1,-1,-1,-1,-1,-1,-1,-1,-1,-1,-1,-1,-1,-1,-1,-1,-1,-1,-1,-1,-1,-1,-1,-1,-1,-1,-1,-1,-1,-1,-1,-1,-1,-1,-1,-1,-1,-1,-1,-1,-1,-1,-1,-1,-1,-1,-1,-1,-1,-1,-1,-1,-1,-1,-1,-1,-1,-1,-1,-1,-1,-1,-1,-1,-1,-1,-1,-1,-1,-1,-1,-1,-1,-1,-1,-1,-1,-1,-1,-1,-1,-1,-1,-1,-1,-1,-1,-1,-1,-1,-1,-1,-1,-1,-1,-1,-1,-1,-1,-1,-1,-1,-1,-1,-1,-1,-1,-1,-1,-1,-1,-1,-1,-1,-1,-1,-1,-1,-1,-1,-1,-1,-1,-1,-1,-1,-1,-1,-1,-1,-1,-1,-1,-1,-1,-1,-1,-1,-1,-1,-1,-1,-1,-1,-1,-1,-1,-1,-1],"loss_changes":[7.0633775E6,1.1369399E6,1.040228E6,1.7675525E5,1.498169E5,2.37413E5,1.052175E5,2.373775E4,1.9694938E4,4.0001586E4,3.9068375E4,2.2109438E4,1.13963E5,1.5042375E4,5.62455E4,2.983125E3,5.3231875E3,5.8451562E3,1.6411203E4,1.3520287E4,1.8200703E4,1.9467771E4,4.6550453E4,1.9302406E4,1.752811E4,4.7816875E4,4.354925E4,1.8473E4,7.949E3,1.0984086E4,1.2882E4,5.28625E2,5.7775E2,9.271875E2,3.0361328E3,1.2695469E3,4.255871E3,5.3264688E3,6.503328E3,5.4545273E3,2.9979941E3,9.811445E3,3.3503472E3,3.9738203E3,3.9593928E3,9.6893125E3,6.576789E3,8.568109E3,2.002289E4,5.612799E3,4.8383535E3,4.335625E3,2.3848125E4,0E0,1.0577625E4,1.9366769E3,7.224875E3,2.2670625E3,1.7408857E3,4.7818203E3,5.8528438E3,3.74425E3,6.2125E2,5.10375E2,9.763218E2,0E0,5.0973438E2,8.146875E2,0E0,2.1011545E3,1.6301406E3,9.3572266E2,7.771406E2,9.195351E3,8.06084E2,6.334383E3,3.6498367E3,2.5473047E3,1.5744766E3,3.526836E3,5.3347793E3,6.430161E2,2.3671914E3,3.5884165E3,2.3467754E3,2.141566E3,1.3200684E3,4.226836E3,2.18919E2,1.217676E3,4.358543E3,4.860367E3,2.5838828E3,5.3486113E3,4.936453E3,3.7084219E3,2.9977979E3,9.749703E3,5.7434062E3,2.3968389E3,0E0,1.990786E3,1.7096294E3,5.982212E2,8.871875E2,1.5107375E4,1.46508125E4,9.597719E3,1.076875E3,0E0,0E0,4.8189375E3,0E0,8.562969E2,1.5555E3,0E0,0E0,0E0,1.2997109E3,7.848911E2,0E0,3.556375E3,2.6946875E2,0E0,5.826621E3,1.8425E2,0E0,2.1442374E2,0E0,4.3333594E2,6.0582104E2,9.070035E1,7.2328125E2,0E0,1.5013596E2,1.5988481E3,8.1639844E2,1.1490059E3,5.5946094E2,3.8726562E2,2.5322031E3,0E0,1.8112378E3,3.9450195E2,6.0564354E1,4.687051E3,1.1853939E4,9.646012E2,1.439295E3,2.0748984E3,1.1975781E2,1.6614492E3,2.3545234E3,7.3115186E3,1.4317549E3,3.5608281E3,9.611927E3,2.3834863E2,6.7867725E2,3.6674023E2,0E0,3.4207695E3,2.4591292E3,1.6648965E3,1.3760679E3,6.789155E2,2.1861685E3,1.1728516E3,5.046082E2,7.077815E2,2.3155703E3,4.9616113E0,0E0,3.0460535E2,1.2071431E3,2.7232969E3,1.1289755E3,3.8926719E3,3.3176E3,2.1838906E3,7.1338477E2,4.8713613E3,0E0,2.4718281E3,2.2503647E3,2.3966484E3,0E0,8.6168176E2,2.6930059E3,5.1822188E3,3.4304766E3,0E0,4.0141406E3,1.4579697E3,8.454914E2,9.669436E2,8.699367E2,6.5290967E2,5.153443E2,0E0,0E0,8.841875E2,0E0,3.35225E3,4.2403438E3,1.6535625E3,7.1149688E3,1.7862031E3,1.6050898E3,1.6190156E3,7.42E2,1.9718518E2,3.196E3,0E0,5.307544E1,0E0,3.2688367E2,0E0,0E0,6.7850494E1,1.9475537E2,0E0,1.88125E3,0E0,0E0,0E0,0E0,0E0,0E0,0E0,0E0,0E0,0E0,0E0,0E0,0E0,0E0,0E0,0E0,0E0,0E0,0E0,0E0,0E0,0E0,0E0,0E0,0E0,0E0,0E0,0E0,0E0,0E0,0E0,0E0,0E0,0E0,0E0,0E0,0E0,0E0,0E0,0E0,0E0,0E0,0E0,0E0,0E0,0E0,0E0,0E0,0E0,0E0,0E0,0E0,0E0,0E0,0E0,0E0,0E0,0E0,0E0,0E0,0E0,0E0,0E0,0E0,0E0,0E0,0E0,0E0,0E0,0E0,0E0,0E0,0E0,0E0,0E0,0E0,0E0,0E0,0E0,0E0,0E0,0E0,0E0,0E0,0E0,0E0,0E0,0E0,0E0,0E0,0E0,0E0,0E0,0E0,0E0,0E0,0E0,0E0,0E0,0E0,0E0,0E0,0E0,0E0,0E0,0E0,0E0,0E0,0E0,0E0,0E0,0E0,0E0,0E0,0E0,0E0,0E0,0E0,0E0,0E0,0E0,0E0,0E0,0E0,0E0,0E0,0E0,0E0,0E0,0E0,0E0,0E0,0E0,0E0,0E0,0E0,0E0,0E0,0E0,0E0,0E0,0E0,0E0,0E0,0E0,0E0,0E0,0E0,0E0,0E0,0E0,0E0,0E0,0E0,0E0,0E0,0E0,0E0,0E0,0E0,0E0,0E0,0E0,0E0,0E0,0E0],"parents":[2147483647,0,0,1,1,2,2,3,3,4,4,5,5,6,6,7,7,8,8,9,9,10,10,11,11,12,12,13,13,14,14,15,15,16,16,17,17,18,18,19,19,20,20,21,21,22,22,23,23,24,24,25,25,26,26,27,27,28,28,29,29,30,30,31,31,32,32,33,33,34,34,35,35,36,36,37,37,38,38,39,39,40,40,41,41,42,42,43,43,44,44,45,45,46,46,47,47,48,48,49,49,50,50,51,51,52,52,54,54,55,55,56,56,57,57,58,58,59,59,60,60,61,61,62,62,63,63,64,64,66,66,67,67,69,69,70,70,71,71,72,72,73,73,74,74,75,75,76,76,77,77,78,78,79,79,80,80,81,81,82,82,83,83,84,84,85,85,86,86,87,87,88,88,89,89,90,90,91,91,92,92,93,93,94,94,95,95,96,96,97,97,98,98,99,99,101,101,102,102,103,103,104,104,105,105,106,106,107,107,108,108,111,111,113,113,114,114,118,118,119,119,121,121,122,122,124,124,125,125,127,127,129,129,130,130,131,131,132,132,134,134,135,135,136,136,137,137,138,138,139,139,140,140,142,142,143,143,144,144,145,145,146,146,147,147,148,148,149,149,150,150,151,151,152,152,153,153,154,154,155,155,156,156,157,157,158,158,159,159,161,161,162,162,163,163,164,164,165,165,166,166,167,167,168,168,169,169,170,170,171,171,173,173,174,174,175,175,176,176,177,177,178,178,179,179,180,180,181,181,183,183,184,184,185,185,187,187,188,188,189,189,190,190,192,192,193,193,194,194,195,195,196,196,197,197,198,198,201,201,203,203,204,204,205,205,206,206,207,207,208,208,209,209,210,210,211,211,212,212,214,214,216,216,219,219,220,220,222,222],"right_children":[2,4,6,8,10,12,14,16,18,20,22,24,26,28,30,32,34,36,38,40,42,44,46,48,50,52,54,56,58,60,62,64,66,68,70,72,74,76,78,80,82,84,86,88,90,92,94,96,98,100,102,104,106,-1,108,110,112,114,116,118,120,122,124,126,128,-1,130,132,-1,134,136,138,140,142,144,146,148,150,152,154,156,158,160,162,164,166,168,170,172,174,176,178,180,182,184,186,188,190,192,194,-1,196,198,200,202,204,206,208,210,-1,-1,212,-1,214,216,-1,-1,-1,218,220,-1,222,224,-1,226,228,-1,230,-1,232,234,236,238,-1,240,242,244,246,248,250,252,-1,254,256,258,260,262,264,266,268,270,272,274,276,278,280,282,284,286,288,-1,290,292,294,296,298,300,302,304,306,308,310,-1,312,314,316,318,320,322,324,326,328,-1,330,332,334,-1,336,338,340,342,-1,344,346,348,350,352,354,356,-1,-1,358,-1,360,362,364,366,368,370,372,374,376,378,-1,380,-1,382,-1,-1,384,386,-1,388,-1,-1,-1,-1,-1,-1,-1,-1,-1,-1,-1,-1,-1,-1,-1,-1,-1,-1,-1,-1,-1,-1,-1,-1,-1,-1,-1,-1,-1,-1,-1,-1,-1,-1,-1,-1,-1,-1,-1,-1,-1,-1,-1,-1,-1,-1,-1,-1,-1,-1,-1,-1,-1,-1,-1,-1,-1,-1,-1,-1,-1,-1,-1,-1,-1,-1,-1,-1,-1,-1,-1,-1,-1,-1,-1,-1,-1,-1,-1,-1,-1,-1,-1,-1,-1,-1,-1,-1,-1,-1,-1,-1,-1,-1,-1,-1,-1,-1,-1,-1,-1,-1,-1,-1,-1,-1,-1,-1,-1,-1,-1,-1,-1,-1,-1,-1,-1,-1,-1,-1,-1,-1,-1,-1,-1,-1,-1,-1,-1,-1,-1,-1,-1,-1,-1,-1,-1,-1,-1,-1,-1,-1,-1,-1,-1,-1,-1,-1,-1,-1,-1,-1,-1,-1,-1,-1,-1,-1,-1,-1,-1,-1,-1,-1,-1,-1],"split_conditions":[5.298E1,2.165E1,1.0658E2,1.018E1,3.425E1,4.795E1,1.2947E2,6.1E0,1.38E1,3.255E1,3.375E1,4.24E1,8.647E1,9.048E1,4.025E1,3.88E0,1.46E1,2.607E1,1.632E1,3.715E1,5.802E1,1.805E1,2.26E1,7.02E1,6.128E1,1.843E1,7.272E1,1.74E1,4.63E1,2.982E1,1.5342E2,2.338E1,1.405E1,5.915E1,1.98E0,9.83E0,1.14E1,3.465E1,1.328E1,1.89E1,3.76E1,4.188E1,4.4E1,8.455E1,2.74E1,5.672E1,4.377E1,6.653E1,3.085E1,7.14E1,3.18E1,2.428E1,7.445E1,3.8549726E0,7.92E1,1.4E-1,7.92E1,1.146E2,1.0859E2,1.38E1,1.28E0,1.4405E2,5.47E1,1.3697E2,3.375E1,-1.0377989E0,2.11E1,1.85E0,3.4790784E-1,1.749E1,4.28E0,5.28E0,1.235E1,1.52E0,9.63E1,1.9172E2,4.677E1,2.77E1,1.87E1,3.103E1,2.628E1,2.6E1,1.2307E2,3.375E1,4.792E1,7.6E0,6.627E1,2.875E1,8.08E0,2.31E1,6.03E1,6.347E1,1.1185E2,7.465E1,7.445E1,4.205E1,5.915E1,2.698E1,4E-2,6.555E1,2.5111232E0,7.765E1,3.155E1,1.8528E2,4.56E0,4.32E1,5.388E1,1.146E2,9.048E1,1.3947918E0,-3.6672738E-1,1.06E1,-1.0941811E-1,3.698E1,4.137E1,1.9461733E0,4.1058508E-1,1.2024975E-2,1.6682E2,1.5342E2,2.783407E0,4.96E0,6.547E1,5.6261606E0,2.051E1,2.95E0,9.408474E-4,3.577E1,-1.0769271E0,3.1E0,6.04E1,4.567E1,7.93E0,1.8605512E0,8.328E1,1.8193E2,2.215E1,5.25E0,3.5E0,1.94E1,5.92E0,3.1289823E0,7.355E1,1.4943E2,8.96E0,1.615E1,1.497E1,1.58E1,1.655E1,1.74E1,2.638E1,3.85E0,1.363E1,3.03E1,2.718E1,9.875E1,6.72E0,-4.74E0,8.07E1,3.133E1,7.0232576E-1,3.417E1,3.5E1,4.677E1,4.647E1,2.052E1,4.377E1,-4.1E0,1.2307E2,3.725E1,2.457E1,1.1208E2,-6.189904E-1,3.415E1,4.57E1,2.66E1,2.961E1,4.32E1,4.26E1,4.53E0,1.1625E2,4.87E1,2.2331514E0,3.375E1,2.578E1,6.547E1,3.350834E0,1.037E1,1.0367E2,2.407E1,1.825E1,-6.0392016E-1,1.4334E2,4.29E0,1.357E2,1.0367E2,-1.54E0,-3.11E0,6E-2,1.3093424E0,-2.936039E-2,9.99E0,1.1143752E0,5.683E1,7.92E1,4.78E0,1.1062E2,3.43E0,7.56E0,1.146E2,4E-2,4.871E1,4.78E1,2.8162274E0,2.407E1,3.4095933E0,1.8193E2,3.8688354E0,1.3385754E0,2.912E1,3.143E1,8.5652417E-1,1.52E0,4.052179E0,1.1239593E0,-1.963123E-1,3.885756E0,-1.1579267E0,-1.0912684E0,-4.5075342E-1,8.9700125E-2,-6.8677765E-1,-9.7698843E-1,-1.954093E-1,-8.5239667E-1,-1.8722229E-1,2.9285058E-1,-9.4393474E-1,-8.6045706E-1,1.0300918E-1,-5.65242E-1,-5.0675374E-1,4.685882E-1,-7.572276E-1,-3.202782E-2,1.4132102E-3,-5.5229336E-1,-7.0931476E-1,-3.4469065E-1,-7.822539E-1,-9.250876E-1,5.972186E-1,-7.1657485E-1,-3.8805792E-1,1.1060566E-1,-7.019248E-1,-8.834984E-2,3.916018E-1,-4.575491E-2,-5.0069064E-1,-2.5786972E-1,1.8686665E0,-1.8778469E-1,-4.407993E-1,-1.1693074E-1,-2.9058359E-3,5.190004E-1,-7.6818955E-1,-5.152193E-1,-9.8815787E-1,-7.73594E-1,-5.6246144E-1,-1.0104982E-1,4.1624975E-1,-4.136378E-1,1.6388217E-1,3.2087693E0,-2.6246434E-1,1.5701406E-1,-3.1620044E-1,1.0311273E0,3.3717663E0,-1.0080766E-1,7.094846E-2,-6.532664E-1,-3.6106402E-1,8.67637E-2,-8.328234E-1,-5.05472E-1,4.7129655E-1,1.0586007E-1,-1.3805361E-1,1.462104E-1,5.4016113E-1,9.3927E-1,6.2215507E-2,4.8175082E-1,-5.916957E-1,4.4329378E-1,-3.0705976E-1,2.1821676E-1,4.1834956E-1,-6.5655226E-1,-1.8826449E-1,6.374415E-1,9.301101E-3,5.2174735E-1,5.6965715E-1,1.2001202E0,5.5670213E-2,-5.5703163E-2,-2.1508303E-1,-5.175571E-1,-7.140457E-2,3.877726E-1,4.5488453E-1,1.2994364E-1,-6.9025123E-1,6.271539E-2,1.0288483E0,1.5170497E0,1.4421617E0,-5.463456E-2,-7.4518204E-2,2.220523E0,2.2189224E-1,1.3587433E0,4.4945222E-1,-7.610833E-2,1.0330218E0,6.833755E-1,6.009421E-1,-1.7268689E-1,9.8812294E-1,1.5082164E0,-2.210516E-1,3.278674E-1,7.476898E-1,-4.8638397E-1,1.1010777E0,4.495281E-2,-3.447957E-1,1.595814E0,3.0261354E0,1.3591945E0,-4.2475978E-1,1.1931922E0,-5.624622E-1,7.0365137E-1,-2.0401025E-1,-6.705316E-1,-2.3796642E-1,5.347077E-1,-2.2187462E-1,9.099638E-1,-2.1715236E-1,5.513056E-1,6.7945844E-1,3.1404884E0,1.4680535E0,2.0137284E0,1.4309201E0,8.563879E-1,2.9038927E-1,2.6660311E0,1.9568255E0,9.462517E-1,2.4262826E0,8.060582E-1,-4.5536455E-2,1.3967535E0,2.3864648E0,1.6855946E-1,6.305936E-1,2.8938344E0,1.2886996E0,1.8539496E-1,3.8472328E0,4.993294E0,3.913164E-1,1.5233635E0,1.5108196E0,1.8024135E-1,4.040234E-2,-3.245069E-1,1.0027411E0,2.3319414E-1,1.1317466E0,4.971415E0],"split_indices":[7,7,7,7,12,12,7,7,7,7,7,13,7,9,12,7,12,12,8,8,8,8,9,7,9,9,8,8,13,14,7,8,12,8,8,8,8,12,12,8,13,7,13,11,7,13,7,8,15,15,12,15,7,0,12,6,11,7,0,9,6,8,11,12,9,0,8,8,0,2,8,11,12,0,14,0,13,8,7,11,7,7,11,8,8,11,14,13,1,7,9,11,15,14,9,13,7,12,0,14,0,7,2,0,4,9,9,9,7,0,0,14,0,13,2,0,0,0,8,7,0,3,11,0,0,7,0,8,0,8,0,0,7,0,0,0,3,8,4,8,2,0,13,1,1,7,7,7,7,7,11,4,12,11,9,14,2,4,11,7,0,11,7,14,7,3,7,6,9,12,7,0,0,10,9,8,2,7,12,8,15,8,0,9,13,7,0,3,8,13,8,0,0,3,0,10,6,6,6,0,0,2,0,7,8,1,9,4,3,8,0,0,13,0,0,0,0,0,0,2,0,0,0,0,0,0,0,0,0,0,0,0,0,0,0,0,0,0,0,0,0,0,0,0,0,0,0,0,0,0,0,0,0,0,0,0,0,0,0,0,0,0,0,0,0,0,0,0,0,0,0,0,0,0,0,0,0,0,0,0,0,0,0,0,0,0,0,0,0,0,0,0,0,0,0,0,0,0,0,0,0,0,0,0,0,0,0,0,0,0,0,0,0,0,0,0,0,0,0,0,0,0,0,0,0,0,0,0,0,0,0,0,0,0,0,0,0,0,0,0,0,0,0,0,0,0,0,0,0,0,0,0,0,0,0,0,0,0,0,0,0,0,0,0,0,0,0,0,0,0,0,0,0,0,0,0,0,0,0,0,0,0,0,0,0,0,0,0,0],"split_type":[0,0,0,0,0,0,0,0,0,0,0,0,0,0,0,0,0,0,0,0,0,0,0,0,0,0,0,0,0,0,0,0,0,0,0,0,0,0,0,0,0,0,0,0,0,0,0,0,0,0,0,0,0,0,0,0,0,0,0,0,0,0,0,0,0,0,0,0,0,0,0,0,0,0,0,0,0,0,0,0,0,0,0,0,0,0,0,0,0,0,0,0,0,0,0,0,0,0,0,0,0,0,0,0,0,0,0,0,0,0,0,0,0,0,0,0,0,0,0,0,0,0,0,0,0,0,0,0,0,0,0,0,0,0,0,0,0,0,0,0,0,0,0,0,0,0,0,0,0,0,0,0,0,0,0,0,0,0,0,0,0,0,0,0,0,0,0,0,0,0,0,0,0,0,0,0,0,0,0,0,0,0,0,0,0,0,0,0,0,0,0,0,0,0,0,0,0,0,0,0,0,0,0,0,0,0,0,0,0,0,0,0,0,0,0,0,0,0,0,0,0,0,0,0,0,0,0,0,0,0,0,0,0,0,0,0,0,0,0,0,0,0,0,0,0,0,0,0,0,0,0,0,0,0,0,0,0,0,0,0,0,0,0,0,0,0,0,0,0,0,0,0,0,0,0,0,0,0,0,0,0,0,0,0,0,0,0,0,0,0,0,0,0,0,0,0,0,0,0,0,0,0,0,0,0,0,0,0,0,0,0,0,0,0,0,0,0,0,0,0,0,0,0,0,0,0,0,0,0,0,0,0,0,0,0,0,0,0,0,0,0,0,0,0,0,0,0,0,0,0,0,0,0,0,0,0,0,0,0,0,0,0,0,0,0,0,0,0,0,0,0,0,0,0,0,0,0,0,0,0,0,0,0,0,0,0,0,0,0],"sum_hessian":[1.6098E4,1.3321E4,2.777E3,8.913E3,4.408E3,2.172E3,6.05E2,5.311E3,3.602E3,2.751E3,1.657E3,6.62E2,1.51E3,3.04E2,3.01E2,3.211E3,2.1E3,1.333E3,2.269E3,1.654E3,1.097E3,6.21E2,1.036E3,5.4E2,1.22E2,1.069E3,4.41E2,1.3E2,1.74E2,2.6E1,2.75E2,1.589E3,1.622E3,1.519E3,5.81E2,1.1E3,2.33E2,1.028E3,1.241E3,1.43E3,2.24E2,9.24E2,1.73E2,1.4E2,4.81E2,2.71E2,7.65E2,3.57E2,1.83E2,3.5E1,8.7E1,8.4E1,9.85E2,8.4E1,3.57E2,5E0,1.25E2,1.66E2,8E0,1.4E1,1.2E1,1.66E2,1.09E2,1.569E3,2E1,1.324E3,2.98E2,1.518E3,1E0,3E0,5.78E2,3.17E2,7.83E2,1.18E2,1.15E2,8.42E2,1.86E2,4.6E2,7.81E2,2.74E2,1.156E3,1.17E2,1.07E2,6.4E2,2.84E2,1.04E2,6.9E1,1.34E2,6E0,1.89E2,2.92E2,2.17E2,5.4E1,4.09E2,3.56E2,2.4E2,1.17E2,1.48E2,3.5E1,2.8E1,7E0,6.1E1,2.6E1,4E0,8E1,6.5E2,3.35E2,1.4E2,2.17E2,3E0,2E0,1.24E2,1E0,6.1E1,1.05E2,4E0,4E0,1E0,1.3E1,9E0,3E0,1.08E2,5.8E1,1.05E2,4E0,1.568E3,1E0,9E0,1.1E1,2.83E2,1.5E1,2E0,1.516E3,1E0,2E0,3.7E1,5.41E2,7.3E1,2.44E2,4.42E2,3.41E2,1E0,1.17E2,1.13E2,2E0,8.03E2,3.9E1,1.33E2,5.3E1,3.48E2,1.12E2,4.29E2,3.52E2,1.64E2,1.1E2,5.53E2,6.03E2,2.3E1,9.4E1,1.05E2,2E0,2.6E2,3.8E2,2.06E2,7.8E1,2.2E1,8.2E1,6.3E1,6E0,5.1E1,8.3E1,2E0,4E0,3.9E1,1.5E2,2.7E2,2.2E1,1.99E2,1.8E1,3.8E1,1.6E1,4.06E2,3E0,3.19E2,3.7E1,2.39E2,1E0,2.7E1,9E1,4.7E1,1.01E2,1E0,3.4E1,2.4E1,4E0,4.7E1,1.4E1,1.7E1,9E0,3E0,1E0,7.8E1,2E0,2.27E2,4.23E2,9.4E1,2.41E2,1.1E2,3E1,4.3E1,1.74E2,2E0,1.22E2,5.7E1,4E0,1.03E2,2E0,1.1E1,2E0,4E0,5E0,1E0,1.07E2,5.7E1,1E0,1E0,3E0,8.48E2,7.2E2,7E0,2E0,2.5E1,2.58E2,7E0,8E0,1E0,1E0,8.17E2,6.99E2,1E0,1E0,3.3E1,4E0,5.37E2,4E0,1.1E1,6.2E1,2.3E2,1.4E1,3.38E2,1.04E2,3E0,3.38E2,9.5E1,2.2E1,1.1E2,3E0,1E0,1E0,3.92E2,4.11E2,8E0,3.1E1,2.9E1,1.04E2,2.3E1,3E1,1.73E2,1.75E2,7.6E1,3.6E1,4.08E2,2.1E1,8E0,3.44E2,1.63E2,1E0,8.4E1,2.6E1,5.49E2,4E0,1E0,6.02E2,1E0,2.2E1,8.5E1,9E0,8.9E1,1.6E1,1.44E2,1.16E2,1.04E2,2.76E2,1.73E2,3.3E1,3.8E1,4E1,2.1E1,1E0,3.1E1,5.1E1,2E0,6.1E1,4E0,2E0,8E0,4.3E1,2.3E1,6E1,1E0,1E0,2.5E1,1.4E1,1.35E2,1.5E1,1.07E2,1.63E2,1.5E1,7E0,1.25E2,7.4E1,4E0,1.4E1,1E0,3.7E1,2E0,1.4E1,3.56E2,5E1,7E1,2.49E2,1.5E1,2.2E1,2.1E2,2.9E1,1.2E1,1.5E1,8.6E1,4E0,2.7E1,2E1,2E0,9.9E1,2.7E1,7E0,1E0,2.3E1,3E0,1E0,2.8E1,1.9E1,5E0,9E0,1E0,1.6E1,7E0,2E0,1E0,7.7E1,5.1E1,1.76E2,3.82E2,4.1E1,1E0,9.3E1,2.19E2,2.2E1,1.07E2,3E0,2E0,2.8E1,4.2E1,1E0,1E0,1.73E2,1E0,1E0,1E2,2.2E1,1E0,3E0,1E0,1E0,3E0,1E0,3E0,2E0,1E0,1.06E2],"tree_param":{"num_deleted":"0","num_feature":"19","num_nodes":"389","size_leaf_vector":"1"}},{"base_weights":[-9.341442E-3,-9.434868E0,4.173547E1,-1.6053724E1,1.4858791E0,2.8365498E1,6.767479E1,-1.888565E1,-1.1187166E1,-3.0848053E0,8.264176E0,1.6570507E1,3.5085365E1,5.761563E1,9.021882E1,-2.034675E1,-1.6426748E1,-1.2780066E1,-7.917239E0,-5.900183E0,6.856056E-1,1.6755236E1,5.5891376E0,1.9171179E1,5.2484317E0,3.0657595E1,4.3375347E1,4.4615597E1,6.351792E1,2.3029411E1,9.333998E1,-2.1794561E1,-1.969098E1,-1.7270658E1,-1.3168272E1,-1.4426999E1,-1.0962344E1,-8.768955E0,1.2040933E0,-5.184759E0,-1.2848242E1,-8.8496643E-1,1.0255185E1,1.1189625E1,2.6264147E1,7.06564E0,-3.663979E0,1.872579E1,6.6378494E1,1.7379591E1,-2.8659117E-1,4.887685E1,2.782709E1,6.07272E1,3.8924232E1,5.03486E1,3.0081789E1,7.9479126E1,6.019849E1,3.0344079E0,4.014574E1,8.499297E1,1.0473488E2,-2.1898325E1,-1.4070353E1,-1.0195868E0,-1.9096258E1,1.1785366E1,-1.735482E1,-1.3353179E1,8.475794E0,-1.28480215E1,-1.5248304E1,-6.6484647E0,-1.2592946E1,-1.1179664E1,-7.559053E0,1.2415707E1,-1.3757625E0,-6.521602E0,-1.8277618E0,-1.5304257E1,-9.577134E0,-4.542921E0,1.0143149E0,1.5138283E1,2.682935E0,8.447736E0,1.9091925E1,3.2599915E1,1.9172155E1,3.8562775E0,1.2181469E1,3.7404352E-1,-1.073544E1,1.5538122E1,2.4730993E1,3.733506E0,8.3030015E-1,1.3045868E1,3.4167183E1,2.887859E0,-1.5452973E0,2.0898123E1,5.060906E1,2.2285759E1,3.129014E1,9.985791E0,6.1816452E1,4.0717648E1,2.9347889E1,4.663602E1,6.808557E1,3.256184E1,4.8811E0,1.807601E-1,4.02027E0,5.3992218E1,6.744949E1,3.52527E-1,-2.7443595E0,3.1693745E-2,5.3210716E1,9.214746E1,7.146773E1,-1.9140449E-1,1.0567934E2,-2.1920708E1,9.1733935E-4,-2.1309657E0,-1.7872568E1,-1.9218227E1,-1.4544209E1,-3.4086676E0,1.8140376E0,-1.3717716E1,-1.757129E1,-1.4007344E1,-6.8044276E0,9.125187E-1,-8.658574E-1,-1.4684092E1,-1.1325449E1,-1.7212887E1,-1.4318921E1,-6.9802623E0,2.031947E0,-1.148036E1,-1.4802065E1,-7.2493086E0,-1.2463268E1,-4.885638E0,-1.0004057E1,3.3667296E-1,1.6413994E1,-9.825543E0,7.237584E-1,-3.903853E0,-7.724052E0,2.8802218E0,-3.5128958E0,2.879491E-1,-1.5612559E1,-1.3144237E1,-6.886107E0,6.3702285E-1,-5.5443153E0,8.097388E0,-8.173656E-1,8.579769E0,2.3467848E1,5.357383E0,-9.6613245E0,1.7922277E1,6.734875E0,4.1100764E0,2.3928907E1,1.4494383E1,3.4410347E1,1.3482313E1,2.8648582E1,8.19525E-1,5.8623543E0,1.0332819E1,1.618975E1,8.921307E0,-1.6681849E0,-1.174586E1,5.9616942E0,1.7612019E1,7.492133E0,3.0548325E1,1.6541628E1,-6.285366E0,1.5742974E1,7.1110053E0,2.1000373E0,-5.1151443E0,7.713359E0,-3.588206E-1,1.4021786E0,4.1933517E1,5.7383446E1,2.752819E1,1.9499792E1,4.248995E1,2.885641E1,7.775607E-1,-2.8626347E-2,6.926872E1,2.6155586E0,4.117758E1,1.2237766E1,2.2243023E1,3.5237663E1,4.776563E1,8.164907E0,1.2338775E0,3.5393624E0,2.4546626E0,2.818618E1,-9.629542E0,1.2611265E1,5.4414436E1,1.2476957E0,6.7789276E1,1.6570626E-1,2.797219E-2,-3.1639424E-1,3.5931855E-1,3.0489156E0,4.6291957E0,1.1034529E0,3.667441E0,2.0372808E0,1.4743308E0,1.0672976E2,-1.0974425E0,-2.7199462E-1,-2.642906E-1,8.67101E-2,-1.2967883E-1,-9.5128936E-1,-8.6690205E-1,-9.708665E-1,-4.0601268E-1,-9.638681E-1,-4.1759738E-1,2.8552935E-1,5.7021856E-1,-7.064063E-1,-8.796525E-1,3.3921012E-1,2.9295513E-1,-7.0953506E-1,2.6982102E-1,-4.6303627E-1,-1.6537328E-1,1.0043397E-1,-6.786919E-2,-7.4206054E-1,-6.19838E-1,-2.883871E-1,-7.923089E-1,-9.266181E-1,-2.0971337E-1,-7.242045E-1,1.0690814E0,-3.693313E-1,-6.110463E-1,-4.2220107E-1,-9.526602E-1,-6.7422026E-1,-3.9578196E-1,3.3617797E-1,3.3174253E-1,-6.3762707E-1,-3.912069E-1,-1.2246032E-1,-5.0979203E-1,1.2506002E0,-9.42839E-2,1.2233998E-1,9.5954865E-1,3.0311477E-1,-1.460054E-2,-6.1995256E-1,7.131409E-1,-7.284831E-2,-1.0911945E-1,-3.380293E-1,-4.748167E-1,-3.280286E-1,3.5031578E-1,-3.5107397E-2,-2.9263353E-1,-8.224681E-2,-7.9791427E-1,-3.0639587E-2,-6.866426E-1,8.34251E-2,2.807564E-2,-4.467146E-1,1.3828468E-1,-3.7177154E-1,-2.8417936E-1,9.407482E-1,2.3082507E-1,5.5587244E-1,-2.1545696E-3,-3.1237918E-1,8.4737283E-1,2.6504228E-1,9.9833566E-1,1.4802911E0,-1.7146473E-1,4.3532977E-1,7.746768E-3,-6.310848E-1,6.144735E-1,2.1080234E0,5.185555E-1,3.0771663E-2,-4.072817E-1,4.3691778E-1,8.8592386E-1,1.497507E0,8.589274E-1,1.2525727E-1,2.36947E0,1.5520643E0,8.5164624E-1,2.2718573E-1,1.4719591E0,1.2326522E-1,-4.070918E-2,1.8568507E-1,1.7055255E-1,3.677225E-1,5.635017E-1,3.0466813E-1,1.0388129E0,7.050931E-1,2.8823332E-3,7.228746E-1,-1.1691805E-1,1.1395413E0,-6.850159E-1,-2.78644E-1,5.2061963E-1,-2.3811786E-2,1.0013541E0,7.305034E-1,7.896699E-1,2.649572E-2,-5.3190302E-2,1.6313175E0,1.2371215E0,4.7796223E-1,-6.624749E-1,1.3869439E-1,9.958582E-1,-7.069208E-2,5.3627398E-2,4.79698E-1,-3.6897203E-1,4.2646438E-1,6.90781E-1,-2.6741013E-1,-9.246111E-2,6.554957E-2,1.7147185E0,2.5894153E0,2.9554482E0,4.1733128E-1,1.3975921E0,2.7507016E-1,6.72259E-1,1.0688347E0,5.1866764E-1,2.1613877E0,1.5041572E0,6.950989E-1,3.5141175E0,6.420698E-1,1.8271033E0,2.1853364E0,9.657125E-1,1.9354811E-1,1.3672874E0,5.703567E-1,1.8133671E0,1.3442473E-1,1.8943913E0,2.63918E0,9.4783586E-1,-2.6742682E-1,1.143998E0,2.329622E0,-1.2113171E-1,-6.0108393E-1,7.035192E-1,1.6936974E-1,2.7289455E0,4.763255E-1,3.2460728E0,3.9693286E0,1.9135834E0,5.379377E0],"categories":[],"categories_nodes":[],"categories_segments":[],"categories_sizes":[],"default_left":[0,0,0,0,0,0,0,0,0,0,0,0,0,0,0,0,0,0,0,0,0,0,0,0,0,0,0,0,0,0,0,0,0,0,0,0,0,0,0,0,0,0,0,0,0,0,0,0,0,0,0,0,0,0,0,0,0,0,0,0,0,0,0,0,0,0,0,0,0,0,0,0,0,0,0,0,0,0,0,0,0,0,0,0,0,0,0,0,0,0,0,0,0,0,0,0,0,0,0,0,0,0,0,0,0,0,0,0,0,0,0,0,0,0,0,0,0,0,0,0,0,0,0,0,0,0,0,0,0,0,0,0,0,0,0,0,0,0,0,0,0,0,0,0,0,0,0,0,0,0,0,0,0,0,0,0,0,0,0,0,0,0,0,0,0,0,0,0,0,0,0,0,0,0,0,0,0,0,0,0,0,0,0,0,0,0,0,0,0,0,0,0,0,0,0,0,0,0,0,0,0,0,0,0,0,0,0,0,0,0,0,0,0,0,0,0,0,0,0,0,0,0,0,0,0,0,0,0,0,0,0,0,0,0,0,0,0,0,0,0,0,0,0,0,0,0,0,0,0,0,0,0,0,0,0,0,0,0,0,0,0,0,0,0,0,0,0,0,0,0,0,0,0,0,0,0,0,0,0,0,0,0,0,0,0,0,0,0,0,0,0,0,0,0,0,0,0,0,0,0,0,0,0,0,0,0,0,0,0,0,0,0,0,0,0,0,0,0,0,0,0,0,0,0,0,0,0,0,0,0,0,0,0,0,0,0,0,0,0,0,0,0,0,0,0,0,0,0,0,0,0,0,0,0,0,0,0,0,0,0,0,0,0,0,0,0,0,0,0,0,0,0,0,0,0,0,0,0,0,0,0,0,0,0,0,0,0,0,0,0,0,0,0,0,0,0,0,0,0,0,0,0,0,0,0,0,0,0,0],"id":4,"left_children":[1,3,5,7,9,11,13,15,17,19,21,23,25,27,29,31,33,35,37,39,41,43,45,47,49,51,53,55,57,59,61,63,65,67,69,71,73,75,77,79,81,83,85,87,89,91,93,95,97,99,101,103,105,107,109,111,113,115,117,119,121,123,125,127,129,-1,131,133,135,137,139,141,143,145,147,149,151,153,155,157,159,161,163,165,167,169,171,173,175,177,179,181,183,185,187,189,191,-1,-1,193,195,-1,197,199,201,203,205,207,209,211,213,215,217,219,221,-1,-1,223,225,-1,227,-1,229,231,233,-1,235,237,-1,239,241,243,245,247,-1,249,251,253,255,-1,257,259,261,263,265,267,-1,269,271,273,275,277,279,281,283,285,287,289,291,293,295,-1,297,299,301,303,305,307,309,311,313,315,317,319,321,323,325,327,329,331,333,335,337,339,341,343,345,347,349,351,353,355,357,359,361,363,-1,365,367,369,-1,371,373,375,377,379,381,-1,-1,383,-1,385,387,389,391,393,395,-1,-1,-1,397,399,401,403,-1,405,-1,-1,-1,-1,-1,-1,-1,-1,-1,-1,407,-1,-1,-1,-1,-1,-1,-1,-1,-1,-1,-1,-1,-1,-1,-1,-1,-1,-1,-1,-1,-1,-1,-1,-1,-1,-1,-1,-1,-1,-1,-1,-1,-1,-1,-1,-1,-1,-1,-1,-1,-1,-1,-1,-1,-1,-1,-1,-1,-1,-1,-1,-1,-1,-1,-1,-1,-1,-1,-1,-1,-1,-1,-1,-1,-1,-1,-1,-1,-1,-1,-1,-1,-1,-1,-1,-1,-1,-1,-1,-1,-1,-1,-1,-1,-1,-1,-1,-1,-1,-1,-1,-1,-1,-1,-1,-1,-1,-1,-1,-1,-1,-1,-1,-1,-1,-1,-1,-1,-1,-1,-1,-1,-1,-1,-1,-1,-1,-1,-1,-1,-1,-1,-1,-1,-1,-1,-1,-1,-1,-1,-1,-1,-1,-1,-1,-1,-1,-1,-1,-1,-1,-1,-1,-1,-1,-1,-1,-1,-1,-1,-1,-1,-1,-1,-1,-1,-1,-1,-1,-1,-1,-1,-1,-1,-1,-1,-1,-1,-1,-1,-1,-1],"loss_changes":[6.3100275E6,9.457006E5,1.022551E6,1.120545E5,1.5301192E5,1.540565E5,2.22483E5,1.8161E4,1.55195625E4,3.131869E4,4.508433E4,2.0805344E4,4.425925E4,5.064675E4,6.2441E4,2.63275E3,5.0633438E3,5.8740938E3,7.6628047E3,8.329082E3,1.8976574E4,2.4897422E4,2.0710535E4,1.0888781E4,9.002578E3,4.0566062E4,3.0847375E4,1.6899656E4,2.0487875E4,5.011797E3,1.906175E4,4.901875E2,5.399375E2,3.93375E3,1.7140391E3,1.1709375E3,6.6831953E3,2.543461E3,2.4756501E3,6.8678477E3,1.11475E3,7.5426294E3,6.541119E3,6.3822188E3,7.238289E3,2.1395645E4,5.9719517E3,1.05844375E4,8.2350195E2,2.609877E3,6.8838364E3,4.1765938E3,1.28506875E4,4.1359375E3,4.7301562E3,7.1632188E3,3.903504E3,5.2606562E3,1.4314E4,2.0501556E2,4.096044E3,1.03485E4,1.27085E4,4.81625E2,6.882522E2,0E0,3.9890625E2,1.9845875E3,9.564375E2,1.6054141E3,3.810451E2,8.5966406E2,1.0097031E3,4.457168E3,1.5431719E3,1.4181133E3,3.8926406E3,7.672009E2,1.2489457E3,3.4197383E3,3.4850273E3,6.6136914E2,5.814292E2,1.9279707E3,9.282977E3,5.6986445E3,2.3957593E3,3.546954E3,5.4816055E3,2.484125E3,4.1968984E3,4.893131E3,3.5598984E3,2.3539143E3,1.3522305E3,6.158875E3,8.879805E3,0E0,0E0,1.9237944E3,1.3969023E3,0E0,3.0802375E3,1.2251863E3,3.5296094E3,3.4796562E3,1.0549094E4,1.8518802E2,2.3266875E3,3.2685E3,1.6432812E3,5.3898438E3,1.185E3,2.8840586E3,9.066283E2,0E0,0E0,1.3395E3,3.6979375E3,0E0,5.089715E1,0E0,1.7067754E3,1.35175E3,7.6775E2,0E0,6.377E3,3.35125E2,0E0,7.013671E1,1.620957E2,1.0771875E2,9.3806396E2,2.2801064E2,0E0,1.0890527E3,8.783125E2,1.3945E3,1.1887932E3,0E0,2.7699116E1,3.2115234E2,1.1490762E3,9.585156E1,7.302344E2,3.212129E3,0E0,9.4915625E2,1.0314336E3,7.608235E2,1.3221133E3,2.057079E3,2.3636797E3,2.8061087E1,2.2861621E2,3.39864E2,1.7037032E3,1.691709E3,1.4842109E3,1.7195378E3,1.4020784E3,0E0,4.4138672E2,2.7576465E2,6.4568896E2,1.0687635E3,1.1620225E3,1.4940117E3,2.3920784E3,1.6112588E3,4.1889258E2,1.766136E3,3.7973267E2,4.1238584E3,4.2882E3,1.2056365E3,1.638207E3,2.7877612E2,2.1146016E3,1.6681699E3,5.691387E2,1.5207887E3,1.7451816E3,1.3100586E3,1.2104648E3,1.275009E3,1.8400044E3,7.923174E2,1.4822517E2,1.875125E3,4.557453E3,7.5234688E3,4.573418E3,3.522018E2,2.2482495E3,3.4689682E1,0E0,2.1329082E3,2.1462202E3,9.890386E0,0E0,1.8374922E3,4.0757969E3,7.140703E2,1.7921797E3,1.32875E3,6.1493438E3,0E0,0E0,1.614125E3,0E0,1.72075E3,2.8048053E2,1.2915469E3,9.079492E2,4.3942188E3,8.305631E2,0E0,0E0,0E0,3.7196875E3,2.2595612E1,1.9631653E1,1.0746875E3,0E0,7.99375E2,0E0,0E0,0E0,0E0,0E0,0E0,0E0,0E0,0E0,0E0,2.75275E3,0E0,0E0,0E0,0E0,0E0,0E0,0E0,0E0,0E0,0E0,0E0,0E0,0E0,0E0,0E0,0E0,0E0,0E0,0E0,0E0,0E0,0E0,0E0,0E0,0E0,0E0,0E0,0E0,0E0,0E0,0E0,0E0,0E0,0E0,0E0,0E0,0E0,0E0,0E0,0E0,0E0,0E0,0E0,0E0,0E0,0E0,0E0,0E0,0E0,0E0,0E0,0E0,0E0,0E0,0E0,0E0,0E0,0E0,0E0,0E0,0E0,0E0,0E0,0E0,0E0,0E0,0E0,0E0,0E0,0E0,0E0,0E0,0E0,0E0,0E0,0E0,0E0,0E0,0E0,0E0,0E0,0E0,0E0,0E0,0E0,0E0,0E0,0E0,0E0,0E0,0E0,0E0,0E0,0E0,0E0,0E0,0E0,0E0,0E0,0E0,0E0,0E0,0E0,0E0,0E0,0E0,0E0,0E0,0E0,0E0,0E0,0E0,0E0,0E0,0E0,0E0,0E0,0E0,0E0,0E0,0E0,0E0,0E0,0E0,0E0,0E0,0E0,0E0,0E0,0E0,0E0,0E0,0E0,0E0,0E0,0E0,0E0,0E0,0E0,0E0,0E0,0E0,0E0,0E0,0E0,0E0,0E0,0E0,0E0,0E0,0E0,0E0,0E0,0E0,0E0,0E0,0E0,0E0,0E0,0E0,0E0,0E0,0E0,0E0,0E0,0E0,0E0,0E0,0E0,0E0,0E0,0E0],"parents":[2147483647,0,0,1,1,2,2,3,3,4,4,5,5,6,6,7,7,8,8,9,9,10,10,11,11,12,12,13,13,14,14,15,15,16,16,17,17,18,18,19,19,20,20,21,21,22,22,23,23,24,24,25,25,26,26,27,27,28,28,29,29,30,30,31,31,32,32,33,33,34,34,35,35,36,36,37,37,38,38,39,39,40,40,41,41,42,42,43,43,44,44,45,45,46,46,47,47,48,48,49,49,50,50,51,51,52,52,53,53,54,54,55,55,56,56,57,57,58,58,59,59,60,60,61,61,62,62,63,63,64,64,66,66,67,67,68,68,69,69,70,70,