{"learner":{"attributes":{"best_iteration":"117","best_score":"17.33275980411914","scikit_learn":"{\"_estimator_type\": \"regressor\"}"},"feature_names":["O3_forecast","NO2_forecast","T_forecast","q_forecast","u_forecast","v_forecast","w_forecast","O3_target_lag_1","O3_target_lag_2","O3_target_lag_3","O3_target_lag_6","O3_target_lag_12","O3_target_lag_24","NO2_target_lag_1","NO2_target_lag_2","NO2_target_lag_3","NO2_target_lag_6","NO2_target_lag_12","NO2_target_lag_24"],"feature_types":["float","float","float","float","float","float","float","float","float","float","float","float","float","float","float","float","float","float","float"],"gradient_booster":{"model":{"cats":{"enc":[],"feature_segments":[],"sorted_idx":[]},"gbtree_model_param":{"num_parallel_tree":"1","num_trees":"168"},"iteration_indptr":[0,1,2,3,4,5,6,7,8,9,10,11,12,13,14,15,16,17,18,19,20,21,22,23,24,25,26,27,28,29,30,31,32,33,34,35,36,37,38,39,40,41,42,43,44,45,46,47,48,49,50,51,52,53,54,55,56,57,58,59,60,61,62,63,64,65,66,67,68,69,70,71,72,73,74,75,76,77,78,79,80,81,82,83,84,85,86,87,88,89,90,91,92,93,94,95,96,97,98,99,100,101,102,103,104,105,106,107,108,109,110,111,112,113,114,115,116,117,118,119,120,121,122,123,124,125,126,127,128,129,130,131,132,133,134,135,136,137,138,139,140,141,142,143,144,145,146,147,148,149,150,151,152,153,154,155,156,157,158,159,160,161,162,163,164,165,166,167,168],"tree_info":[0,0,0,0,0,0,0,0,0,0,0,0,0,0,0,0,0,0,0,0,0,0,0,0,0,0,0,0,0,0,0,0,0,0,0,0,0,0,0,0,0,0,0,0,0,0,0,0,0,0,0,0,0,0,0,0,0,0,0,0,0,0,0,0,0,0,0,0,0,0,0,0,0,0,0,0,0,0,0,0,0,0,0,0,0,0,0,0,0,0,0,0,0,0,0,0,0,0,0,0,0,0,0,0,0,0,0,0,0,0,0,0,0,0,0,0,0,0,0,0,0,0,0,0,0,0,0,0,0,0,0,0,0,0,0,0,0,0,0,0,0,0,0,0,0,0,0,0,0,0,0,0,0,0,0,0,0,0,0,0,0,0,0,0,0,0,0,0],"trees":[{"base_weights":[8.923485E-2,-8.779654E0,3.1382898E1,-1.25212965E1,1.1585053E0,2.3024326E1,5.5886467E1,-1.42952385E1,-9.252228E0,-2.0448158E0,7.1866016E0,1.4284984E1,3.229157E1,4.5408005E1,6.3714527E1,-1.5331025E1,-1.2892894E1,-1.0075381E1,-6.059395E0,1.8158696E0,-4.3326E0,1.2404652E1,1.9065626E0,1.847722E1,7.1018543E0,2.7553738E1,3.8287357E1,5.2311012E1,3.1965357E1,5.6791046E1,7.743691E1,-1.6556986E1,-1.4733136E1,-1.3152892E1,-9.096342E0,-1.0225474E1,8.4484005E0,-9.321352E-1,-7.565102E0,-7.2993284E-1,7.964447E0,-5.7070704E0,-1.643718E0,8.785597E0,1.8613256E1,4.5581098E0,-2.8131797E0,1.3360949E1,2.3183193E1,1.5367994E1,2.308006E0,3.726308E1,2.4758799E1,4.868286E1,3.5050285E1,7.7690797E0,5.3128277E1,2.723762E1,5.091812E1,6.674531E1,5.459237E1,7.185889E1,9.145526E1,-7.592483E0,-1.6581522E1,-9.485753E0,-1.4868463E1,-9.103873E0,-1.3227922E1,9.483517E0,-9.595169E0,-1.1329616E1,-8.775138E0,5.5479955E-2,2.3101337E0,-4.631861E0,4.0326767E0,-7.717618E0,1.4572672E1,-3.7547412E0,1.6519191E0,2.9502876E0,1.1662359E1,-5.1532264E0,-1.0501673E1,-4.202021E-1,-7.7857175E0,8.24123E0,2.4273289E1,2.6575504E1,1.3936781E1,1.2664975E0,6.932277E0,-5.015768E0,3.1546516E0,1.7567543E1,8.974817E0,1.8479322E1,2.9150717E1,8.14486E0,2.047356E1,9.984115E0,-1.262899E-2,2.860451E1,4.051524E1,1.6733856E1,2.7359943E1,4.9163486E1,-4.2907763E-1,3.7394093E1,3.0226397E1,-4.9543682E-1,9.5425856E-1,4.8140144E1,6.040945E1,3.425753E1,1.6725294E1,-1.2354031E0,5.513982E1,-1.4282762E-1,3.3976476E0,4.99884E1,5.9045227E1,4.121724E-1,7.228158E1,1.2921724E0,4.6159897E0,-6.4711636E-1,3.451724E-1,-1.106464E1,-8.310071E-1,4.4314598E1,-1.1976168E1,-1.5219341E1,-1.3999796E1,1.9859225E0,-1.0987719E1,-1.3741491E1,-1.2705976E1,-3.6407763E-1,1.5495172E1,9.0167236E-1,-9.868594E0,-9.690401E0,-1.1836879E1,-7.931977E0,-1.0758037E1,2.9882671E1,-7.404785E0,-6.91101E0,-1.2711805E0,1.1095889E0,8.430344E0,-7.808476E0,1.0109224E0,1.346724E-1,8.817299E-1,-5.40752E0,-2.7700198E-1,-1.101967E0,4.014078E0,-3.6541004E0,5.038004E0,6.2813005E0,1.5406118E1,-5.2923384E0,6.267178E0,7.7240796E0,-1.154223E1,-1.1139678E0,4.4842634E0,-9.489008E0,5.5972066E0,3.405038E0,1.0036231E1,-3.4577608E-2,2.641132E1,1.660977E1,2.833137E1,9.800539E0,1.6097666E1,3.5274415E0,-7.3218095E-1,6.2238116E0,1.4509691E1,-2.3960915E0,-7.8040776E0,-2.87098E0,7.1407638E0,1.3424448E1,2.669209E1,1.940704E0,8.07953E0,2.3015242E1,1.5310626E1,2.7758736E1,2.3079274E0,3.7613037E0,1.1493702E1,7.716034E0,2.1243246E1,8.063189E0,2.831591E1,-4.6269155E0,4.8197546E0,1.1880173E1,1.4718482E0,3.752401E1,2.3898015E0,1.0842273E0,1.37118225E1,3.0294138E1,2.3492727E1,4.9608105E1,1.2767931E1,3.7606537E1,1.2165173E1,3.2225323E1,1.2221784E1,5.0995434E1,3.597493E1,6.113683E1,-3.445776E-1,4.4412637E0,3.509376E1,2.5946314E1,2.5185509E0,8.342238E-2,-1.760776E-1,5.744138E1,1.9114597E1,5.0163734E1,5.746724E-1,2.970965E0,1.0142241E-1,8.641724E-1,7.2571686E1,6.1092246E-1,-7.307397E-1,3.6971726E0,-3.735776E-1,1.2670631E0,-6.8353397E-1,-2.0657761E-1,-7.6117784E-1,-7.0814604E-1,-3.1520802E-1,1.0625632E0,-6.446406E-1,-6.0149014E-1,-6.9529414E-1,-5.588469E-1,-6.5909135E-1,1.764224E-1,9.153965E-1,-6.033252E-1,-3.0243847E-1,-5.3344256E-1,-3.5896623E-1,-3.4847456E-1,-5.963173E-1,5.942299E-1,-3.9978683E-1,-5.4616374E-1,-6.684734E-2,1.4239651E-1,2.7746723E0,-5.1946557E-1,4.4956318E-1,-3.986039E-1,-1.4756636E-1,-1.4964876E-1,7.84218E-2,-4.3932414E-1,1.191252E-1,5.6735295E-1,6.680648E-2,-4.074761E-1,-1.4510924E-1,-3.998935E-1,-2.1250403E-1,-9.227203E-2,6.149103E-1,-1.8678826E-1,5.6267004E-2,2.3296726E0,1.7673272E-1,5.715632E-1,-2.6590902E-1,1.6565487E-1,5.1960254E-1,1.2273689E-1,4.8959967E-1,7.958645E-1,-2.0210345E-1,-3.338106E-1,-2.1658197E-1,2.0240633E0,-2.9169354E-1,1.4114224E0,-1.0112417E-1,7.98836E-2,-5.9940356E-1,5.1365532E-2,-1.1256707E-1,1.772302E-1,1.3101724E0,-2.711865E-1,-5.7890195E-1,8.902759E-1,-2.754627E-1,7.090304E-1,6.659095E-2,2.3994248E-1,5.7485235E-1,1.3984044E0,2.321724E-1,-7.282763E-2,9.0021306E-1,1.0874971E0,1.5544652E0,6.6090846E-1,3.1385034E-1,5.538276E-1,8.6035997E-1,-4.8519582E-3,2.2247425E-1,-1.2461805E-1,1.19182825E-1,3.739141E-1,1.1478168E-1,1.0172415E-2,7.64659E-1,-2.0807071E-1,9.1889225E-2,2.5221808E-2,-4.800682E-1,2.5536698E-1,-2.8296283E-1,1.0982912E-1,6.7463577E-1,-2.0696269E-1,7.020807E-1,3.224267E-1,1.4454702E0,3.3660612E-1,9.942808E-1,1.1743606E0,-5.877013E-2,8.235073E-1,5.4457134E-1,1.7394637E0,1.234116E0,2.807369E-1,-2.4920447E-1,-4.3207762E-1,6.0665935E-1,6.261207E-1,-2.2343682E-1,1.2299763E0,9.3281597E-1,1.3436526E-1,6.0311687E-1,1.7583836E0,7.1925867E-1,-6.533492E-2,-3.3379966E-1,3.2802314E-1,-6.4442955E-2,5.1723956E-3,7.885632E-1,1.607849E0,2.0281403E0,1.472392E-1,7.272144E-1,1.4830965E0,2.760676E0,1.2137309E0,5.7971305E-1,6.226724E-1,2.489622E0,-3.5957763E-1,1.3171724E0,1.6417841E0,1.9704752E0,6.9256324E-1,1.7767239E-1,1.6890057E0,1.1491342E0,8.7426037E-1,2.0573917E-1,2.566235E0,1.0083965E0,1.9194902E0,-8.877015E-2,2.0484717E0,3.2206256E0,-1.1782761E-1,4.509224E-1,4.8613358E-1,1.807379E0,1.1896531E-2,1.3920913E0,-3.512897E-1,5.4831344E-1,7.4842244E-1,2.9345791E0,-1.798276E-1,1.6134224E0,6.264224E-1,2.5163915E0,3.6408849E0,1.0209224E0],"categories":[],"categories_nodes":[],"categories_segments":[],"categories_sizes":[],"default_left":[0,0,0,0,0,0,0,0,0,0,0,0,0,0,0,0,0,0,0,0,0,0,0,0,0,0,0,0,0,0,0,0,0,0,0,0,0,0,0,0,0,0,0,0,0,0,0,0,0,0,0,0,0,0,0,0,0,0,0,0,0,0,0,0,0,0,0,0,0,0,0,0,0,0,0,0,0,0,0,0,0,0,0,0,0,0,0,0,0,0,0,0,0,0,0,0,0,0,0,0,0,0,0,0,0,0,0,0,0,0,0,0,0,0,0,0,0,0,0,0,0,0,0,0,0,0,0,0,0,0,0,0,0,0,0,0,0,0,0,0,0,0,0,0,0,0,0,0,0,0,0,0,0,0,0,0,0,0,0,0,0,0,0,0,0,0,0,0,0,0,0,0,0,0,0,0,0,0,0,0,0,0,0,0,0,0,0,0,0,0,0,0,0,0,0,0,0,0,0,0,0,0,0,0,0,0,0,0,0,0,0,0,0,0,0,0,0,0,0,0,0,0,0,0,0,0,0,0,0,0,0,0,0,0,0,0,0,0,0,0,0,0,0,0,0,0,0,0,0,0,0,0,0,0,0,0,0,0,0,0,0,0,0,0,0,0,0,0,0,0,0,0,0,0,0,0,0,0,0,0,0,0,0,0,0,0,0,0,0,0,0,0,0,0,0,0,0,0,0,0,0,0,0,0,0,0,0,0,0,0,0,0,0,0,0,0,0,0,0,0,0,0,0,0,0,0,0,0,0,0,0,0,0,0,0,0,0,0,0,0,0,0,0,0,0,0,0,0,0,0,0,0,0,0,0,0,0,0,0,0,0,0,0,0,0,0,0,0,0,0,0,0,0,0,0,0,0,0,0,0,0,0,0,0,0,0,0,0,0,0,0,0,0,0,0,0,0,0,0,0,0,0,0,0,0,0,0,0,0,0,0,0,0],"id":0,"left_children":[1,3,5,7,9,11,13,15,17,19,21,23,25,27,29,31,33,35,37,39,41,43,45,47,49,51,53,55,57,59,61,63,65,67,69,71,73,75,77,79,81,83,85,87,89,91,93,95,97,99,101,103,105,107,109,111,113,115,117,119,121,123,125,127,129,131,133,135,137,139,141,143,145,147,-1,149,151,153,155,157,159,161,163,165,167,169,171,173,175,177,179,181,183,185,187,189,191,193,195,197,199,201,203,205,207,209,211,213,-1,215,217,-1,-1,219,221,223,225,227,229,-1,-1,231,233,-1,235,-1,-1,-1,-1,237,-1,239,241,243,245,-1,247,249,251,-1,253,-1,255,257,259,261,263,265,267,269,271,273,275,277,-1,-1,-1,279,281,283,285,287,289,291,293,295,297,299,301,303,305,307,309,311,313,-1,315,317,319,321,323,325,327,329,331,333,335,337,339,341,343,-1,345,347,349,351,-1,353,355,357,359,361,363,365,367,369,-1,371,-1,-1,373,375,377,379,381,383,385,387,389,391,393,395,-1,397,399,401,403,-1,-1,405,407,409,-1,-1,-1,-1,411,-1,-1,-1,-1,-1,-1,-1,-1,-1,-1,-1,-1,-1,-1,-1,-1,-1,-1,-1,-1,-1,-1,-1,-1,-1,-1,-1,-1,-1,-1,-1,-1,-1,-1,-1,-1,-1,-1,-1,-1,-1,-1,-1,-1,-1,-1,-1,-1,-1,-1,-1,-1,-1,-1,-1,-1,-1,-1,-1,-1,-1,-1,-1,-1,-1,-1,-1,-1,-1,-1,-1,-1,-1,-1,-1,-1,-1,-1,-1,-1,-1,-1,-1,-1,-1,-1,-1,-1,-1,-1,-1,-1,-1,-1,-1,-1,-1,-1,-1,-1,-1,-1,-1,-1,-1,-1,-1,-1,-1,-1,-1,-1,-1,-1,-1,-1,-1,-1,-1,-1,-1,-1,-1,-1,-1,-1,-1,-1,-1,-1,-1,-1,-1,-1,-1,-1,-1,-1,-1,-1,-1,-1,-1,-1,-1,-1,-1,-1,-1,-1,-1,-1,-1,-1,-1,-1,-1,-1,-1,-1,-1,-1,-1,-1,-1,-1,-1,-1,-1,-1,-1,-1,-1,-1,-1,-1],"loss_changes":[4.677935E6,4.8836575E5,7.61034E5,5.519725E4,6.9395266E4,2.24447E5,7.47035E4,8.78325E3,8.767031E3,2.0737547E4,3.4333074E4,4.2961E4,3.720925E4,3.6188125E4,4.6811E4,2.3589375E3,2.479375E3,7.5070312E3,5.327574E3,1.368659E4,5.438211E3,1.3924719E4,7.7844004E3,2.1431812E4,2.0927016E4,1.9593E4,1.8215062E4,9.343125E3,1.1247219E4,4.279E3,7.34675E3,1.28375E2,1.5604375E3,6.275E2,1.6851152E3,4.141E3,6.9685464E3,2.9208928E3,1.9154434E3,4.4658784E3,4.712323E3,2.534959E3,3.7541458E3,3.1554922E3,8.193727E3,3.1015264E3,2.9602305E3,7.868375E3,1.2626391E4,6.9876133E3,5.9854443E3,3.5436562E3,1.1857844E4,4.2200312E3,4.0140625E3,1.3893727E3,6.643875E3,7.9135312E3,6.012883E3,5.3214062E3,3.2396875E3,2.9535625E3,2.8015625E2,4.7710162E2,6.15625E1,8.971787E3,4.9825E2,4.8511553E3,4.7278125E2,6.1675793E2,1.4470986E3,1.1325625E3,1.8356797E3,4.449131E3,0E0,6.8822864E2,8.6477E2,1.5056621E3,9.79953E1,1.5676882E3,2.261699E3,1.5350994E3,2.8646016E3,1.4248867E3,1.9856455E3,1.4272611E3,1.9450977E3,3.3166777E3,7.1214795E2,9.9928906E2,1.1561113E3,7.617578E2,1.1497803E3,1.1792339E3,1.4856504E3,7.996328E3,5.4300645E3,3.4564531E3,3.5719844E3,1.1605156E3,9.4566406E2,2.5183784E3,5.797483E3,3.3247656E2,7.981406E2,1.9019531E3,4.3264375E3,1.5835312E3,0E0,1.1611875E3,5.1486094E3,0E0,0E0,3.7578125E3,5.4635312E3,1.5396016E3,6.2226846E3,2.579143E1,9.748828E2,0E0,0E0,4.6959375E2,3.0360625E3,0E0,8.359375E2,0E0,0E0,0E0,0E0,1.0878142E3,0E0,5.155565E3,4.203755E3,1.428125E1,7.69375E2,0E0,3.1606484E3,1.7179688E2,7.3378125E2,0E0,7.003943E1,0E0,1.329083E3,8.0791016E2,4.1375E2,1.118457E3,5.146797E2,2.6114814E3,8.7636395E2,2.033523E2,1.9048524E2,5.500019E2,5.4351746E2,8.631797E2,0E0,0E0,0E0,5.206704E2,1.7780818E3,9.486747E2,3.6526443E3,7.3858124E2,7.413296E2,8.08864E2,9.192969E2,1.122416E3,4.790452E3,1.2561742E3,5.756924E2,8.9611694E2,9.683684E2,5.6564795E2,1.4540062E3,2.3491663E3,2.0947168E3,0E0,2.7678125E2,4.0412402E2,5.943906E2,5.552617E2,3.3866016E2,2.6444403E2,4.9954007E2,1.0324502E3,2.0985547E2,6.504253E2,1.1845332E3,5.850478E2,1.1323545E3,1.7274375E3,2.8658516E3,0E0,3.2067256E3,1.24925E3,6.353594E2,3.2940625E3,0E0,6.277176E2,6.971543E2,5.2447644E2,4.6140234E2,1.5155093E3,1.6225781E2,8.961267E2,1.358886E3,1.8166577E2,0E0,1.4715625E2,0E0,0E0,7.9971094E2,2.2850469E3,1.542E3,3.0453125E2,1.0023313E3,1.2778438E3,8.860901E0,1.2067344E3,6.534519E2,2.6415625E2,3.1676797E3,4.0994062E3,0E0,1.14597015E2,1.4131641E3,1.4065605E3,1.6896053E3,0E0,0E0,3.4278125E2,1.0122722E3,3.205625E2,0E0,0E0,0E0,0E0,1.81125E2,0E0,0E0,0E0,0E0,0E0,0E0,0E0,0E0,0E0,0E0,0E0,0E0,0E0,0E0,0E0,0E0,0E0,0E0,0E0,0E0,0E0,0E0,0E0,0E0,0E0,0E0,0E0,0E0,0E0,0E0,0E0,0E0,0E0,0E0,0E0,0E0,0E0,0E0,0E0,0E0,0E0,0E0,0E0,0E0,0E0,0E0,0E0,0E0,0E0,0E0,0E0,0E0,0E0,0E0,0E0,0E0,0E0,0E0,0E0,0E0,0E0,0E0,0E0,0E0,0E0,0E0,0E0,0E0,0E0,0E0,0E0,0E0,0E0,0E0,0E0,0E0,0E0,0E0,0E0,0E0,0E0,0E0,0E0,0E0,0E0,0E0,0E0,0E0,0E0,0E0,0E0,0E0,0E0,0E0,0E0,0E0,0E0,0E0,0E0,0E0,0E0,0E0,0E0,0E0,0E0,0E0,0E0,0E0,0E0,0E0,0E0,0E0,0E0,0E0,0E0,0E0,0E0,0E0,0E0,0E0,0E0,0E0,0E0,0E0,0E0,0E0,0E0,0E0,0E0,0E0,0E0,0E0,0E0,0E0,0E0,0E0,0E0,0E0,0E0,0E0,0E0,0E0,0E0,0E0,0E0,0E0,0E0,0E0,0E0,0E0,0E0,0E0,0E0,0E0,0E0,0E0,0E0,0E0,0E0,0E0,0E0,0E0,0E0,0E0,0E0,0E0,0E0,0E0,0E0,0E0,0E0,0E0,0E0,0E0,0E0,0E0],"parents":[2147483647,0,0,1,1,2,2,3,3,4,4,5,5,6,6,7,7,8,8,9,9,10,10,11,11,12,12,13,13,14,14,15,15,16,16,17,17,18,18,19,19,20,20,21,21,22,22,23,23,24,24,25,25,26,26,27,27,28,28,29,29,30,30,31,31,32,32,33,33,34,34,35,35,36,36,37,37,38,38,39,39,40,40,41,41,42,42,43,43,44,44,45,45,46,46,47,47,48,48,49,49,50,50,51,51,52,52,53,53,54,54,55,55,56,56,57,57,58,58,59,59,60,60,61,61,62,62,63,63,64,64,65,65,66,66,67,67,68,68,69,69,70,70,71,71,72,72,73,73,75,75,76,76,77,77,78,78,79,79,80,80,81,81,82,82,83,83,84,84,85,85,86,86,87,87,88,88,89,89,90,90,91,91,92,92,93,93,94,94,95,95,96,96,97,97,98,98,99,99,100,100,101,101,102,102,103,103,104,104,105,105,106,106,107,107,109,109,110,110,113,113,114,114,115,115,116,116,117,117,118,118,121,121,122,122,124,124,129,129,131,131,132,132,133,133,134,134,136,136,137,137,138,138,140,140,142,142,143,143,144,144,145,145,146,146,147,147,148,148,149,149,150,150,151,151,152,152,153,153,157,157,158,158,159,159,160,160,161,161,162,162,163,163,164,164,165,165,166,166,167,167,168,168,169,169,170,170,171,171,172,172,173,173,174,174,176,176,177,177,178,178,179,179,180,180,181,181,182,182,183,183,184,184,185,185,186,186,187,187,188,188,189,189,190,190,192,192,193,193,194,194,195,195,197,197,198,198,199,199,200,200,201,201,202,202,203,203,204,204,205,205,207,207,210,210,211,211,212,212,213,213,214,214,215,215,216,216,217,217,218,218,219,219,220,220,221,221,223,223,224,224,225,225,226,226,229,229,230,230,231,231,236,236],"right_children":[2,4,6,8,10,12,14,16,18,20,22,24,26,28,30,32,34,36,38,40,42,44,46,48,50,52,54,56,58,60,62,64,66,68,70,72,74,76,78,80,82,84,86,88,90,92,94,96,98,100,102,104,106,108,110,112,114,116,118,120,122,124,126,128,130,132,134,136,138,140,142,144,146,148,-1,150,152,154,156,158,160,162,164,166,168,170,172,174,176,178,180,182,184,186,188,190,192,194,196,198,200,202,204,206,208,210,212,214,-1,216,218,-1,-1,220,222,224,226,228,230,-1,-1,232,234,-1,236,-1,-1,-1,-1,238,-1,240,242,244,246,-1,248,250,252,-1,254,-1,256,258,260,262,264,266,268,270,272,274,276,278,-1,-1,-1,280,282,284,286,288,290,292,294,296,298,300,302,304,306,308,310,312,314,-1,316,318,320,322,324,326,328,330,332,334,336,338,340,342,344,-1,346,348,350,352,-1,354,356,358,360,362,364,366,368,370,-1,372,-1,-1,374,376,378,380,382,384,386,388,390,392,394,396,-1,398,400,402,404,-1,-1,406,408,410,-1,-1,-1,-1,412,-1,-1,-1,-1,-1,-1,-1,-1,-1,-1,-1,-1,-1,-1,-1,-1,-1,-1,-1,-1,-1,-1,-1,-1,-1,-1,-1,-1,-1,-1,-1,-1,-1,-1,-1,-1,-1,-1,-1,-1,-1,-1,-1,-1,-1,-1,-1,-1,-1,-1,-1,-1,-1,-1,-1,-1,-1,-1,-1,-1,-1,-1,-1,-1,-1,-1,-1,-1,-1,-1,-1,-1,-1,-1,-1,-1,-1,-1,-1,-1,-1,-1,-1,-1,-1,-1,-1,-1,-1,-1,-1,-1,-1,-1,-1,-1,-1,-1,-1,-1,-1,-1,-1,-1,-1,-1,-1,-1,-1,-1,-1,-1,-1,-1,-1,-1,-1,-1,-1,-1,-1,-1,-1,-1,-1,-1,-1,-1,-1,-1,-1,-1,-1,-1,-1,-1,-1,-1,-1,-1,-1,-1,-1,-1,-1,-1,-1,-1,-1,-1,-1,-1,-1,-1,-1,-1,-1,-1,-1,-1,-1,-1,-1,-1,-1,-1,-1,-1,-1,-1,-1,-1,-1,-1,-1,-1],"split_conditions":[3.09E1,1.203E1,6.475E1,5.92E0,2.188E1,3.902E1,6.208E1,3.9E0,1.59E1,1.057E1,2.035E1,3.385E1,5.088E1,1.785E1,8.693E1,2.33E0,2.22E1,7.195E1,4.25E0,3.005E1,1.798E1,3.202E1,3.645E1,2.307E1,1.162E1,1.42E1,3.148E1,3.85E0,9.188E1,3.317E1,1.0957E2,5.46E0,6.4E-1,4.5E-1,1.65E0,8.45E0,2.03E0,2.735E1,8.897E1,1.465E1,2.307E1,4.467E1,3.903E1,4.502E1,6.48E0,2.562E1,2.465E1,1.225E1,4.112E1,4.323E1,1.435E1,1.62E1,3.903E1,6.742E1,3.385E1,1.68E1,7.797E1,2.065E1,9.31E0,9.85E0,7.562E1,1.1E-1,4.35E0,1.257E1,2.9E0,4.35E0,7.25E0,5.03E0,4.8E0,4.05E0,4.83E0,5.1E0,1.32E1,-2.38E0,2.3101337E0,8.82E0,4.985E1,9.865E1,1.736E1,1.643E1,1.36E1,4.6E0,2.645E1,4.323E1,1.51E1,3.057E1,3.29E1,7.93E0,1.559E1,2.23E1,2.518E1,1.02E1,4.773E1,2.032E1,6E-1,4.25E1,1.45E0,2.188E1,6.085E1,5.72E0,-2.29E0,1.1256E2,4.467E1,9.45E0,4.4E1,2.432E1,3.975E1,6.05E1,-4.2907763E-1,8.122E1,1.485E1,-4.9543682E-1,9.5425856E-1,4.323E1,4.32E0,6.03E0,1.318E2,5.079E1,2.33E0,-1.4282762E-1,3.3976476E0,5.29E0,5.265E1,4.121724E-1,-4.79E0,1.2921724E0,4.6159897E0,-6.4711636E-1,3.451724E-1,1.834E1,-8.310071E-1,5E-2,5.8E1,2.25E0,6.742E1,1.9859225E0,-1.2E-1,3E0,4.45E0,-3.6407763E-1,2.865E1,9.0167236E-1,3.212E1,2.39E1,6.4E-1,2.25E0,6.742E1,1.318E2,1.443E1,2.085E1,1.497E1,-3.59E0,2.866E1,4.903E1,1.0109224E0,1.346724E-1,8.817299E-1,4.83E0,3.69E1,8.95E0,1.37E1,3.66E0,2.88E1,1.708E1,4.21E0,1.418E1,9.14E0,8.73E0,1.123E1,1.65E1,3.852E1,2.61E1,2.85E1,1.543E1,9.85E0,-3.4577608E-2,3.735E1,2.1E0,5.357E1,1.145E1,8.12E0,2.267E1,1.793E1,1.39E1,2.618E1,6.272E1,4.25E1,-3.19E0,5.167E1,8.47E0,1.278E1,1.940704E0,5.588E1,3.69E1,2.512E1,6.17E0,2.3079274E0,2.14E1,7.79E0,-2.67E0,6.5E0,5.395E1,5.87E0,1.935E1,5.465E1,1.8E0,1.4718482E0,2.52E1,2.3898015E0,1.0842273E0,7.81E0,5.375E1,6.208E1,6.24E0,5.6E1,5.395E1,1.822E1,1.46E1,1.812E1,3.49E0,9.865E1,3.58E1,-3.445776E-1,4.752E1,1.8E1,1.85E0,2.866E1,8.342238E-2,-1.760776E-1,1.8E1,1.88E1,2.36E0,5.746724E-1,2.970965E0,1.0142241E-1,8.641724E-1,5.78E0,6.1092246E-1,-7.307397E-1,3.6971726E0,-3.735776E-1,1.2670631E0,-6.8353397E-1,-2.0657761E-1,-7.6117784E-1,-7.0814604E-1,-3.1520802E-1,1.0625632E0,-6.446406E-1,-6.0149014E-1,-6.9529414E-1,-5.588469E-1,-6.5909135E-1,1.764224E-1,9.153965E-1,-6.033252E-1,-3.0243847E-1,-5.3344256E-1,-3.5896623E-1,-3.4847456E-1,-5.963173E-1,5.942299E-1,-3.9978683E-1,-5.4616374E-1,-6.684734E-2,1.4239651E-1,2.7746723E0,-5.1946557E-1,4.4956318E-1,-3.986039E-1,-1.4756636E-1,-1.4964876E-1,7.84218E-2,-4.3932414E-1,1.191252E-1,5.6735295E-1,6.680648E-2,-4.074761E-1,-1.4510924E-1,-3.998935E-1,-2.1250403E-1,-9.227203E-2,6.149103E-1,-1.8678826E-1,5.6267004E-2,2.3296726E0,1.7673272E-1,5.715632E-1,-2.6590902E-1,1.6565487E-1,5.1960254E-1,1.2273689E-1,4.8959967E-1,7.958645E-1,-2.0210345E-1,-3.338106E-1,-2.1658197E-1,2.0240633E0,-2.9169354E-1,1.4114224E0,-1.0112417E-1,7.98836E-2,-5.9940356E-1,5.1365532E-2,-1.1256707E-1,1.772302E-1,1.3101724E0,-2.711865E-1,-5.7890195E-1,8.902759E-1,-2.754627E-1,7.090304E-1,6.659095E-2,2.3994248E-1,5.7485235E-1,1.3984044E0,2.321724E-1,-7.282763E-2,9.0021306E-1,1.0874971E0,1.5544652E0,6.6090846E-1,3.1385034E-1,5.538276E-1,8.6035997E-1,-4.8519582E-3,2.2247425E-1,-1.2461805E-1,1.19182825E-1,3.739141E-1,1.1478168E-1,1.0172415E-2,7.64659E-1,-2.0807071E-1,9.1889225E-2,2.5221808E-2,-4.800682E-1,2.5536698E-1,-2.8296283E-1,1.0982912E-1,6.7463577E-1,-2.0696269E-1,7.020807E-1,3.224267E-1,1.4454702E0,3.3660612E-1,9.942808E-1,1.1743606E0,-5.877013E-2,8.235073E-1,5.4457134E-1,1.7394637E0,1.234116E0,2.807369E-1,-2.4920447E-1,-4.3207762E-1,6.0665935E-1,6.261207E-1,-2.2343682E-1,1.2299763E0,9.3281597E-1,1.3436526E-1,6.0311687E-1,1.7583836E0,7.1925867E-1,-6.533492E-2,-3.3379966E-1,3.2802314E-1,-6.4442955E-2,5.1723956E-3,7.885632E-1,1.607849E0,2.0281403E0,1.472392E-1,7.272144E-1,1.4830965E0,2.760676E0,1.2137309E0,5.7971305E-1,6.226724E-1,2.489622E0,-3.5957763E-1,1.3171724E0,1.6417841E0,1.9704752E0,6.9256324E-1,1.7767239E-1,1.6890057E0,1.1491342E0,8.7426037E-1,2.0573917E-1,2.566235E0,1.0083965E0,1.9194902E0,-8.877015E-2,2.0484717E0,3.2206256E0,-1.1782761E-1,4.509224E-1,4.8613358E-1,1.807379E0,1.1896531E-2,1.3920913E0,-3.512897E-1,5.4831344E-1,7.4842244E-1,2.9345791E0,-1.798276E-1,1.6134224E0,6.264224E-1,2.5163915E0,3.6408849E0,1.0209224E0],"split_indices":[7,7,7,7,7,12,12,7,12,9,9,10,7,18,7,7,12,16,9,17,7,12,9,12,13,9,9,12,7,9,7,2,0,0,10,7,6,13,14,7,12,9,9,14,9,7,12,13,7,7,17,13,7,13,10,17,7,13,2,17,7,0,15,17,17,17,12,13,7,7,13,9,9,6,0,7,17,10,2,12,17,12,14,9,13,17,15,12,2,15,7,13,12,17,4,7,10,9,7,16,6,1,7,15,7,9,9,16,0,16,13,0,0,10,4,12,0,0,6,0,0,4,13,0,4,0,0,0,0,2,0,0,1,18,15,0,6,9,9,0,0,0,17,13,0,17,17,0,10,13,18,6,2,17,0,0,0,12,14,12,17,1,13,7,4,7,1,1,18,9,9,13,16,2,17,0,1,9,0,9,15,7,12,13,7,1,9,4,9,2,9,0,7,16,10,10,0,17,2,6,13,10,0,13,18,0,0,13,0,0,1,13,9,2,0,7,2,18,18,6,9,9,0,0,18,12,2,0,0,18,0,1,0,0,0,0,4,0,0,0,0,0,0,0,0,0,0,0,0,0,0,0,0,0,0,0,0,0,0,0,0,0,0,0,0,0,0,0,0,0,0,0,0,0,0,0,0,0,0,0,0,0,0,0,0,0,0,0,0,0,0,0,0,0,0,0,0,0,0,0,0,0,0,0,0,0,0,0,0,0,0,0,0,0,0,0,0,0,0,0,0,0,0,0,0,0,0,0,0,0,0,0,0,0,0,0,0,0,0,0,0,0,0,0,0,0,0,0,0,0,0,0,0,0,0,0,0,0,0,0,0,0,0,0,0,0,0,0,0,0,0,0,0,0,0,0,0,0,0,0,0,0,0,0,0,0,0,0,0,0,0,0,0,0,0,0,0,0,0,0,0,0,0,0,0,0,0,0,0,0,0,0,0],"split_type":[0,0,0,0,0,0,0,0,0,0,0,0,0,0,0,0,0,0,0,0,0,0,0,0,0,0,0,0,0,0,0,0,0,0,0,0,0,0,0,0,0,0,0,0,0,0,0,0,0,0,0,0,0,0,0,0,0,0,0,0,0,0,0,0,0,0,0,0,0,0,0,0,0,0,0,0,0,0,0,0,0,0,0,0,0,0,0,0,0,0,0,0,0,0,0,0,0,0,0,0,0,0,0,0,0,0,0,0,0,0,0,0,0,0,0,0,0,0,0,0,0,0,0,0,0,0,0,0,0,0,0,0,0,0,0,0,0,0,0,0,0,0,0,0,0,0,0,0,0,0,0,0,0,0,0,0,0,0,0,0,0,0,0,0,0,0,0,0,0,0,0,0,0,0,0,0,0,0,0,0,0,0,0,0,0,0,0,0,0,0,0,0,0,0,0,0,0,0,0,0,0,0,0,0,0,0,0,0,0,0,0,0,0,0,0,0,0,0,0,0,0,0,0,0,0,0,0,0,0,0,0,0,0,0,0,0,0,0,0,0,0,0,0,0,0,0,0,0,0,0,0,0,0,0,0,0,0,0,0,0,0,0,0,0,0,0,0,0,0,0,0,0,0,0,0,0,0,0,0,0,0,0,0,0,0,0,0,0,0,0,0,0,0,0,0,0,0,0,0,0,0,0,0,0,0,0,0,0,0,0,0,0,0,0,0,0,0,0,0,0,0,0,0,0,0,0,0,0,0,0,0,0,0,0,0,0,0,0,0,0,0,0,0,0,0,0,0,0,0,0,0,0,0,0,0,0,0,0,0,0,0,0,0,0,0,0,0,0,0,0,0,0,0,0,0,0,0,0,0,0,0,0,0,0,0,0,0,0,0,0,0,0,0,0,0,0,0,0,0,0,0,0,0,0,0,0,0,0,0,0,0,0,0],"sum_hessian":[1.6853E4,1.3132E4,3.721E3,9.54E3,3.592E3,2.776E3,9.45E2,6.182E3,3.358E3,2.346E3,1.246E3,1.43E3,1.346E3,4.07E2,5.38E2,3.55E3,2.632E3,2.668E3,6.9E2,8.73E2,1.473E3,6.26E2,6.2E2,9.02E2,5.28E2,7.55E2,5.91E2,2.67E2,1.4E2,3.61E2,1.77E2,1.155E3,2.395E3,2.461E3,1.71E2,2.647E3,2.1E1,1.57E2,5.33E2,6.18E2,2.55E2,9.74E2,4.99E2,3.97E2,2.29E2,3.97E2,2.23E2,4.34E2,4.68E2,1.93E2,3.35E2,1.66E2,5.89E2,1.37E2,4.54E2,5E0,2.62E2,1.14E2,2.6E1,6E1,3.01E2,1.31E2,4.6E1,4E0,1.151E3,6.2E1,2.333E3,4.7E1,2.414E3,4E0,1.67E2,1.499E3,1.148E3,1.8E1,3E0,9E1,6.7E1,5.3E2,3E0,2.72E2,3.46E2,1.09E2,1.46E2,8.75E2,9.9E1,4.17E2,8.2E1,3.85E2,1.2E1,8.3E1,1.46E2,1.67E2,2.3E2,1.63E2,6E1,2.2E2,2.14E2,2.64E2,2.04E2,8.1E1,1.12E2,7.7E1,2.58E2,4.8E1,1.18E2,1.46E2,4.43E2,1.36E2,1E0,3.01E2,1.53E2,2E0,3E0,1.6E2,1.02E2,6.7E1,4.7E1,2E0,2.4E1,1E0,5.9E1,1.54E2,1.47E2,1E0,1.3E2,1E0,4.5E1,3E0,1E0,1E1,1.141E3,2E0,6E1,1.65E3,6.83E2,1E0,4.6E1,1.204E3,1.21E3,1E0,3E0,1E0,1.66E2,3.59E2,1.14E3,8.09E2,3.39E2,3E0,1.5E1,5.3E1,3.7E1,4.1E1,2.6E1,5.29E2,1E0,1E0,2E0,1.84E2,8.8E1,1.6E2,1.86E2,2.6E1,8.3E1,6.1E1,8.5E1,8.65E2,1E1,5E0,9.4E1,3.66E2,5.1E1,7.3E1,9E0,1.05E2,2.8E2,1E0,1.1E1,1.4E1,6.9E1,5.2E1,9.4E1,7.8E1,8.9E1,2.12E2,1.8E1,8.5E1,7.8E1,2.4E1,3.6E1,1.53E2,6.7E1,5E0,2.09E2,1.06E2,1.58E2,1.91E2,1.3E1,3.6E1,4.5E1,7E0,1.05E2,7.1E1,6E0,1.32E2,1.26E2,3E0,4.5E1,8.8E1,3E1,5.3E1,9.3E1,2.48E2,1.95E2,1.34E2,2E0,2.98E2,3E0,1.37E2,1.6E1,1.27E2,3.3E1,1.01E2,1E0,2E0,6.5E1,2.8E1,1.9E1,1E0,1E0,2.2E1,2E0,1.53E2,1E0,1.46E2,1E0,1E0,1.29E2,1E0,9E0,1E0,1E0,2E0,5.8E1,1E0,1.649E3,6.68E2,1.5E1,2E0,4.4E1,1.12E2,1.092E3,2.93E2,9.17E2,1E0,2E0,1.04E2,6.2E1,2.56E2,1.03E2,2.2E1,1.118E3,2E0,8.07E2,3.33E2,6E0,2E0,1E0,1.3E1,2E0,4.1E1,1.2E1,2.3E1,1.4E1,4E0,3.7E1,1.8E1,8E0,4.94E2,3.5E1,5.5E1,1.29E2,7.9E1,9E0,7.3E1,8.7E1,1E0,1.85E2,2E0,2.4E1,6.4E1,1.9E1,3E1,3.1E1,8.3E1,2E0,3.52E2,5.13E2,2E0,8E0,1E0,4E0,3E0,9.1E1,1.27E2,2.39E2,5E1,1E0,2.6E1,4.7E1,4E0,5E0,1.6E1,8.9E1,6.2E1,2.18E2,1E1,1E0,1E0,1.3E1,2.3E1,4.6E1,2.5E1,2.7E1,1.9E1,7.5E1,1.6E1,6.2E1,5.7E1,3.2E1,1.6E2,5.2E1,1E0,1.7E1,6E1,2.5E1,1.4E1,6.4E1,6E0,1.8E1,2.1E1,1.5E1,5E0,1.48E2,7E0,6E1,1.89E2,2E1,1.04E2,2E0,1.23E2,3.5E1,5.5E1,1.36E2,3E1,6E0,1E0,4.4E1,5E0,2E0,4.2E1,6.3E1,3.1E1,4E1,3E0,3E0,5.1E1,8.1E1,9.8E1,2.8E1,1E0,2E0,3.6E1,5.2E1,7E0,8.6E1,2.44E2,4E0,1.82E2,1.3E1,1E0,1.33E2,1E0,1E0,8.7E1,2.11E2,2E0,1E0,1.15E2,2.2E1,9E0,7E0,1.25E2,2E0,3.1E1,2E0,1.6E1,8.5E1,1E0,1E0,3E0,6.2E1,2E0,2.6E1,9E0,1E1,1E0,2.1E1,1E0,1E0,1E0,1.52E2,1.28E2,1E0],"tree_param":{"num_deleted":"0","num_feature":"19","num_nodes":"413","size_leaf_vector":"1"}},{"base_weights":[1.19502135E-1,-6.9877586E0,2.775927E1,-1.0460201E1,1.1773238E0,1.3304799E1,3.920984E1,-1.1548968E1,-5.389297E0,6.5018463E0,-3.9529731E0,2.3699431E0,2.0326794E1,3.1741982E1,5.20393E1,-1.3503689E1,-1.0135369E1,-8.139814E0,-2.3524797E0,2.200384E0,1.4991329E1,1.9731452E0,-5.6783133E0,-5.6024094E0,1.1229121E1,1.4675787E1,3.210415E1,2.7853754E1,4.0447437E1,4.5835484E1,6.2536148E1,-1.478096E1,-1.2745419E1,-1.1014575E1,-8.608018E0,-1.0792602E1,-5.8455825E0,-3.9414244E0,3.804492E0,-1.0498976E0,6.762225E0,1.2939192E1,2.8104132E1,1.4056878E0,5.3671112E1,-1.8484285E0,-8.603993E0,-1.1979301E1,-1.6045358E0,2.0175066E0,1.6591354E1,8.139638E0,1.8462744E1,2.1380983E1,4.087804E1,3.6722748E1,2.4793036E1,4.4953545E1,2.8067621E1,4.08376E1,5.4725708E1,6.589912E1,5.115483E1,-1.14117775E1,-1.4922399E1,-6.532339E0,-1.2932118E1,-1.1400323E1,-9.886313E0,-7.5639234E0,-1.0373877E1,-1.1654615E1,4.0685205E0,-9.35715E-1,-6.812757E0,-6.913994E0,-2.1614234E0,9.528582E0,-1.3711804E0,-3.952457E0,2.4932528E0,3.5508213E0,9.50278E0,1.5574286E1,5.990608E0,5.3596794E1,1.9938189E1,-2.2020194E-1,1.6008137E1,3.3038158E0,1.0125723E-1,-3.2790892E0,2.185023E0,-1.0772923E1,-3.8858705E0,-1.2151003E1,2.199155E-1,1.4726084E1,-2.6551461E0,-3.2406251E0,8.200244E0,3.5924487E0,2.2586031E1,3.5956528E0,1.1387542E1,2.1173468E1,9.025524E0,2.3783592E1,4.0422773E0,1.9564516E1,4.2572197E1,3.0748165E1,4.007973E1,2.6694445E1,1.2670705E1,2.668274E1,4.6133984E1,3.0489798E1,8.953332E0,3.2571396E1,4.625623E1,5.6706863E1,3.3474945E1,5.6846584E1,6.933259E1,1.632685E1,5.3204582E1,3.9362845E-1,-1.2649709E1,-6.223119E0,-1.4977504E1,-8.9502535E0,4.4003387E1,-1.3287979E1,-1.1461639E1,-1.172419E1,-9.702401E0,-9.980532E0,1.3785678E0,-7.6911087E0,7.931078E0,1.5155233E1,-1.0482245E1,1.8887646E0,-1.2096576E1,5.2096806E1,-6.083469E-1,-2.8733406E0,2.8315813E1,-9.901457E0,-5.4930778E0,-8.408992E0,-3.8749478E0,2.004244E-2,-6.6077704E0,3.2466576E1,7.512738E0,1.0085737E0,-8.898435E0,-5.408679E0,-9.805765E-1,4.379921E0,1.9414271E-1,1.0590527E1,8.00166E-1,1.4513987E1,7.0749426E0,1.2405417E1,2.0638205E1,2.8149E0,1.7251997E1,5.1577086E0,3.166298E1,-7.835496E-1,2.2668638E1,-2.0335083E0,1.1172498E1,1.2876446E1,2.9274115E1,-4.3711E0,3.0982933E0,4.4280233E0,-1.7903259E0,-2.4514287E0,-1.1455979E1,-5.095277E0,9.478727E0,-1.2313214E1,1.8285933E-1,-2.5422137E0,4.989823E1,-5.6211925E0,1.5780257E0,-6.868942E0,5.2039094E0,1.2856885E1,-3.211935E0,-2.85823E0,8.229935E0,1.8983736E1,3.917891E1,-1.3364426E0,6.823789E0,1.8696552E1,9.654392E0,1.7880882E1,2.6915302E1,5.22501E0,1.2794383E1,1.8950083E1,2.9429798E1,1.576213E1,-4.3211856E-1,2.678482E1,-5.1824517E0,2.8916021E1,4.454062E1,3.1262085E1,-2.7198234E-1,4.162697E1,2.075164E1,2.3356548E1,3.110681E1,1.5607022E1,3.846351E-1,3.4301884E1,-1.51124E0,4.3478493E1,5.8276783E1,3.1836376E1,9.782805E0,-1.5548384E0,2.6077374E1,3.3709675E1,5.5155296E0,2.327523E0,6.9841784E-1,5.8111847E1,2.9175236E1,4.192983E1,-2.3721654E0,5.74847E1,4.7994724E-1,6.3158882E1,7.710601E1,-2.226841E-1,1.1317704E0,5.3913017E1,2.8517666E-1,1.6885041E0,-6.517839E-1,-6.7131275E-1,1.7369595E-1,-6.4203095E-1,5.6460446E-1,-7.797424E-1,-7.243576E-1,6.0181427E-1,-4.9407244E-1,-3.0448923E-1,3.6047432E0,-6.502458E-1,-7.1017724E-1,-5.869022E-1,8.639942E-2,-6.267068E-1,-5.7248515E-1,6.7823815E-1,-5.075787E-1,-3.8565174E-1,-5.251868E-1,-5.595675E-1,1.0934454E0,-1.2668167E-1,-4.0280604E-1,-1.18113495E-1,2.2569466E0,1.5222665E0,-3.85624E-1,-5.3184503E-1,3.442508E-1,2.2522457E0,-2.7306622E-1,-7.1551E-1,-5.597891E-1,4.1452856E0,-3.173668E-1,-7.7963443E-3,-4.320674E-1,3.2788079E0,1.3033438E-1,3.3144847E-1,-5.123293E-1,-1.00901835E-1,-3.5026225E-1,-4.478573E-1,-1.06552206E-1,-1.3314083E-1,-4.6995398E-1,-2.0119646E-1,1.4746006E-1,-1.6179015E-1,-6.4900345E-1,1.8713931E0,1.9150405E-1,2.8805715E-1,7.9682934E-1,-3.668725E-2,8.023777E-1,-4.9839565E-1,4.2053666E-2,-1.877061E-1,-3.385131E-1,2.2619276E-1,-1.19853795E-1,8.4074005E-2,3.8467535E-1,-1.5837151E-1,8.517637E-2,4.0288654E-1,9.3967026E-1,-1.7628599E-2,3.8872454E-1,5.734623E-1,9.5926946E-1,4.3314123E-1,9.33087E-2,-1.7908256E-1,6.5983087E-1,8.3401394E-1,1.3810049E0,-7.203528E-2,2.8167987E-1,-3.864617E-1,1.0362357E0,-5.609781E-1,1.9295228E0,7.3470336E-1,-3.652439E-1,1.9077059E0,9.442076E-1,3.9380857E-1,-1.7598975E-1,-1.0493813E-1,9.4861835E-1,9.230408E-1,3.324127E-1,2.5591945E-2,1.9388117E0,-3.209761E-1,-9.5477805E-2,-1.6605806E-1,3.3892137E-1,1.764466E-1,8.062319E-1,-2.030685E-1,4.9670553E-1,-2.244319E-1,2.3324354E0,-6.050221E-1,-2.1043956E-1,-2.708556E-1,1.2247765E0,-1.7679122E-1,8.103496E-1,-2.0567821E-1,-6.3543457E-1,4.219776E-1,-4.7198445E-1,2.9137118E0,6.1925554E-1,-3.0226502E-1,1.0045608E0,-1.6588442E-1,2.5665745E-1,-4.406159E-1,5.0999314E-2,-5.129537E-1,4.490222E-1,-7.191905E-2,8.2410365E-1,6.6333944E-1,-3.3838227E-1,-2.0295595E-1,3.6506635E-1,-4.1335046E-2,8.163102E-1,1.2345436E0,5.687547E-1,1.824979E-1,2.2448814E0,9.0508856E-2,-3.084754E-1,2.5999102E-1,8.3648044E-1,2.1396028E-1,1.0619471E0,5.944218E-1,2.583945E-1,7.739009E-1,1.1489773E0,9.988863E-1,1.6345586E0,3.9771646E-1,-3.5912988E-1,-2.0194963E-1,6.8356305E-1,1.2545903E0,4.3472192E-1,1.5704806E0,1.872853E-1,7.497921E-2,9.4764346E-1,-4.5232835E-1,2.6794302E-1,6.034018E-1,2.101568E0,1.2521887E-1,-4.2897603E-1,9.335399E-2,1.5057578E0,2.3342695E0,1.5151438E0,1.7495833E-1,1.5782691E0,1.8903834E0,2.449083E0,1.4018164E0,-4.1340888E-2,1.2084855E0,1.2722082E-1,2.4068816E0,1.4857075E0,6.633112E-1,1.2094915E0,-2.5067493E-1,1.026574E0,6.847004E-1,2.0275373E0,3.8351652E-1,-2.8621075E-1,2.2028558E0,1.1535901E0,3.3562932E0,1.7575926E0,4.76779E-2,1.6284525E0,1.2521379E0,-3.961424E-1,-2.8543133E-1,2.5322765E-1,1.6937855E0,4.7932896E-1,1.0705138E0,1.7896394E0,8.2174367E-1,-5.4410523E-1,2.5896401E0,3.1280384E0,3.66492E-1,1.5494841E0,2.254718E0,9.8886825E-2,-3.1971657E-1,2.4235831E-1,2.904092E0,5.7126266E-1,3.1970532E0,1.5862797E0,1.4291085E0,3.917542E0,8.5850257E-1,2.7450507E0],"categories":[],"categories_nodes":[],"categories_segments":[],"categories_sizes":[],"default_left":[0,0,0,0,0,0,0,0,0,0,0,0,0,0,0,0,0,0,0,0,0,0,0,0,0,0,0,0,0,0,0,0,0,0,0,0,0,0,0,0,0,0,0,0,0,0,0,0,0,0,0,0,0,0,0,0,0,0,0,0,0,0,0,0,0,0,0,0,0,0,0,0,0,0,0,0,0,0,0,0,0,0,0,0,0,0,0,0,0,0,0,0,0,0,0,0,0,0,0,0,0,0,0,0,0,0,0,0,0,0,0,0,0,0,0,0,0,0,0,0,0,0,0,0,0,0,0,0,0,0,0,0,0,0,0,0,0,0,0,0,0,0,0,0,0,0,0,0,0,0,0,0,0,0,0,0,0,0,0,0,0,0,0,0,0,0,0,0,0,0,0,0,0,0,0,0,0,0,0,0,0,0,0,0,0,0,0,0,0,0,0,0,0,0,0,0,0,0,0,0,0,0,0,0,0,0,0,0,0,0,0,0,0,0,0,0,0,0,0,0,0,0,0,0,0,0,0,0,0,0,0,0,0,0,0,0,0,0,0,0,0,0,0,0,0,0,0,0,0,0,0,0,0,0,0,0,0,0,0,0,0,0,0,0,0,0,0,0,0,0,0,0,0,0,0,0,0,0,0,0,0,0,0,0,0,0,0,0,0,0,0,0,0,0,0,0,0,0,0,0,0,0,0,0,0,0,0,0,0,0,0,0,0,0,0,0,0,0,0,0,0,0,0,0,0,0,0,0,0,0,0,0,0,0,0,0,0,0,0,0,0,0,0,0,0,0,0,0,0,0,0,0,0,0,0,0,0,0,0,0,0,0,0,0,0,0,0,0,0,0,0,0,0,0,0,0,0,0,0,0,0,0,0,0,0,0,0,0,0,0,0,0,0,0,0,0,0,0,0,0,0,0,0,0,0,0,0,0,0,0,0,0,0,0,0,0,0,0,0,0,0,0,0,0,0,0,0,0,0,0,0,0,0,0,0,0,0,0,0,0,0,0,0,0,0,0,0,0,0,0,0,0,0,0,0,0,0,0,0,0,0,0,0,0,0,0,0,0,0,0,0,0,0],"id":1,"left_children":[1,3,5,7,9,11,13,15,17,19,21,23,25,27,29,31,33,35,37,39,41,43,45,47,49,51,53,55,57,59,61,63,65,67,69,71,73,75,77,79,81,83,85,87,89,91,93,95,97,99,101,103,105,107,109,111,113,115,117,119,121,123,125,127,129,131,133,135,137,139,141,143,145,147,149,151,153,155,157,159,161,163,165,167,169,171,173,175,177,-1,-1,179,181,183,185,187,-1,189,191,193,195,197,199,201,203,205,207,209,211,213,215,217,219,221,223,225,227,229,231,233,235,237,239,241,243,245,247,249,251,253,255,257,259,261,263,265,267,269,271,273,275,277,279,281,283,285,-1,287,289,291,293,295,297,299,301,303,305,307,309,311,313,315,317,319,321,323,325,327,329,331,333,-1,335,337,339,341,343,345,347,349,351,353,355,357,359,361,363,365,-1,367,369,371,373,375,377,379,381,383,385,387,389,391,393,395,397,399,401,403,405,407,409,411,413,415,417,419,421,423,-1,425,427,429,431,433,435,437,439,441,443,445,447,449,451,453,455,-1,-1,457,459,461,463,465,-1,467,469,-1,-1,471,-1,-1,-1,-1,-1,-1,-1,-1,-1,-1,-1,-1,-1,-1,-1,-1,-1,-1,-1,-1,-1,-1,-1,-1,-1,-1,-1,-1,-1,-1,-1,-1,-1,-1,-1,-1,-1,-1,-1,-1,-1,-1,-1,-1,-1,-1,-1,-1,-1,-1,-1,-1,-1,-1,-1,-1,-1,-1,-1,-1,-1,-1,-1,-1,-1,-1,-1,-1,-1,-1,-1,-1,-1,-1,-1,-1,-1,-1,-1,-1,-1,-1,-1,-1,-1,-1,-1,-1,-1,-1,-1,-1,-1,-1,-1,-1,-1,-1,-1,-1,-1,-1,-1,-1,-1,-1,-1,-1,-1,-1,-1,-1,-1,-1,-1,-1,-1,-1,-1,-1,-1,-1,-1,-1,-1,-1,-1,-1,-1,-1,-1,-1,-1,-1,-1,-1,-1,-1,-1,-1,-1,-1,-1,-1,-1,-1,-1,-1,-1,-1,-1,-1,-1,-1,-1,-1,-1,-1,-1,-1,-1,-1,-1,-1,-1,-1,-1,-1,-1,-1,-1,-1,-1,-1,-1,-1,-1,-1,-1,-1,-1,-1,-1,-1,-1,-1,-1,-1,-1,-1,-1,-1,-1,-1,-1,-1,-1,-1,-1,-1,-1,-1,-1,-1,-1,-1,-1,-1,-1,-1,-1,-1,-1,-1,-1,-1,-1,-1,-1,-1,-1,-1,-1,-1,-1],"loss_changes":[3.3297072E6,3.822928E5,5.73308E5,5.216675E4,1.0994682E5,1.1773922E5,1.8364175E5,2.1380062E4,1.3963473E4,7.208847E4,2.0971566E4,4.2510633E4,6.169022E4,4.0338125E4,4.336925E4,2.9738125E3,5.9789062E3,5.2805117E3,7.812115E3,1.9460477E4,1.7504094E4,1.3507307E4,1.7777668E4,8.062379E3,1.4044055E4,1.5517828E4,2.7539312E4,2.2163188E4,1.9713312E4,1.7759625E4,6.61875E3,4.063125E2,2.3004375E3,1.135125E3,2.976586E3,5.2484766E3,2.2397607E3,3.3396611E3,4.8717314E3,7.8978384E3,4.771621E3,1.0453367E4,1.7458656E4,1.0901091E4,3.069581E3,3.9830398E3,9.168094E3,3.9651562E2,3.4018945E3,3.4725964E3,1.3945227E4,3.4125283E3,1.0041594E4,5.6526797E3,5.125E3,3.0998438E3,1.42981875E4,4.6785E3,4.4957266E3,1.15725E4,4.7958125E3,2.212875E3,3.7002188E3,7.7953613E2,4.6192188E2,7.969686E3,8.9165625E2,1.0575312E3,7.9703906E2,2.120418E3,1.8547656E3,2.3213281E3,1.8568365E4,4.5589634E3,1.555666E3,1.0441943E3,3.8605547E3,3.3627603E3,1.567407E3,1.8209941E3,1.4999792E3,4.8905674E3,3.4742324E3,6.4355234E3,5.6734985E3,1.9560465E4,3.9217617E3,8.57532E3,1.5341201E3,0E0,0E0,3.5583052E3,1.6218518E3,3.473289E3,4.654817E3,3.553086E2,0E0,7.41521E3,2.3316904E3,1.8128333E3,2.6452744E3,1.7585891E3,6.60825E3,1.5853458E3,1.542291E3,5.379422E3,1.2365967E3,2.7445078E3,9.507178E2,2.6403398E3,2.798E3,1.6950547E3,3.1733594E3,7.3444375E3,3.168666E3,4.1333037E3,5.7209375E3,2.2259531E3,2.3797966E3,3.4789375E3,1.00278125E3,3.8747188E3,4.948795E3,1.2571875E3,1.80075E3,7.562865E2,1.7115781E3,3.1295515E3,6.476372E2,1.1881594E3,1.22203125E2,1.2914907E3,4.6606157E3,2.299375E2,1.4639727E3,2.53125E2,3.7641875E3,7.8740625E2,2.0476759E3,1.9317852E3,3.5535706E3,1.2837576E3,1.7143516E3,4.369625E3,5.815664E2,1.1329831E4,0E0,1.1742073E3,4.6187183E3,7.354248E2,1.4519648E3,5.2463477E2,5.106499E2,3.1864436E3,2.7728198E3,7.0909033E2,9.853154E2,1.7673553E3,2.2712378E2,6.121289E2,1.1024275E3,1.6859514E3,8.0199915E2,1.3236792E3,1.4739822E3,1.1311641E3,1.6380146E3,3.3233477E3,3.9330703E3,1.5195194E3,3.1965312E3,0E0,5.186051E3,1.01575E3,2.854373E3,5.3005703E3,5.94012E3,1.233708E3,2.1665732E3,2.1811338E3,1.7943464E3,1.1629905E3,1.7977092E3,5.010697E3,2.6066016E3,2.627816E3,2.1588733E3,3.3685352E2,0E0,7.6138477E2,5.351074E2,1.3100842E3,1.3572051E3,6.375658E2,1.1432676E3,1.8375137E3,9.6868835E2,3.3464935E2,2.506546E3,4.1917656E3,4.1029043E3,6.1948065E2,8.7821313E2,8.254756E2,1.0611416E3,2.0945977E3,3.7947266E3,1.648756E3,7.194551E2,4.0649785E3,2.6282344E3,1.9911902E2,7.468845E2,1.9609434E3,1.2593711E2,6.5735156E2,2.5855938E3,5.7160156E2,0E0,1.6312656E3,1.9094888E3,5.2863594E3,4.0959688E3,1.1055273E3,2.060531E3,1.376334E3,2.3731523E2,1.5104062E3,6.4396875E3,1.89225E3,2.0897222E3,2.7637155E2,3.182517E2,2.1544688E3,1.2531544E3,0E0,0E0,5.8315625E2,1.2958545E2,1.5544004E3,1.4714377E2,9.59125E2,0E0,1.2125E1,1.2035312E3,0E0,0E0,1.1991562E3,0E0,0E0,0E0,0E0,0E0,0E0,0E0,0E0,0E0,0E0,0E0,0E0,0E0,0E0,0E0,0E0,0E0,0E0,0E0,0E0,0E0,0E0,0E0,0E0,0E0,0E0,0E0,0E0,0E0,0E0,0E0,0E0,0E0,0E0,0E0,0E0,0E0,0E0,0E0,0E0,0E0,0E0,0E0,0E0,0E0,0E0,0E0,0E0,0E0,0E0,0E0,0E0,0E0,0E0,0E0,0E0,0E0,0E0,0E0,0E0,0E0,0E0,0E0,0E0,0E0,0E0,0E0,0E0,0E0,0E0,0E0,0E0,0E0,0E0,0E0,0E0,0E0,0E0,0E0,0E0,0E0,0E0,0E0,0E0,0E0,0E0,0E0,0E0,0E0,0E0,0E0,0E0,0E0,0E0,0E0,0E0,0E0,0E0,0E0,0E0,0E0,0E0,0E0,0E0,0E0,0E0,0E0,0E0,0E0,0E0,0E0,0E0,0E0,0E0,0E0,0E0,0E0,0E0,0E0,0E0,0E0,0E0,0E0,0E0,0E0,0E0,0E0,0E0,0E0,0E0,0E0,0E0,0E0,0E0,0E0,0E0,0E0,0E0,0E0,0E0,0E0,0E0,0E0,0E0,0E0,0E0,0E0,0E0,0E0,0E0,0E0,0E0,0E0,0E0,0E0,0E0,0E0,0E0,0E0,0E0,0E0,0E0,0E0,0E0,0E0,0E0,0E0,0E0,0E0,0E0,0E0,0E0,0E0,0E0,0E0,0E0,0E0,0E0,0E0,0E0,0E0,0E0,0E0,0E0,0E0,0E0,0E0,0E0,0E0,0E0,0E0,0E0,0E0,0E0,0E0,0E0,0E0,0E0,0E0,0E0,0E0,0E0,0E0,0E0,0E0,0E0,0E0,0E0,0E0,0E0,0E0,0E0,0E0,0E0,0E0,0E0,0E0,0E0,0E0,0E0,0E0,0E0,0E0,0E0,0E0],"parents":[2147483647,0,0,1,1,2,2,3,3,4,4,5,5,6,6,7,7,8,8,9,9,10,10,11,11,12,12,13,13,14,14,15,15,16,16,17,17,18,18,19,19,20,20,21,21,22,22,23,23,24,24,25,25,26,26,27,27,28,28,29,29,30,30,31,31,32,32,33,33,34,34,35,35,36,36,37,37,38,38,39,39,40,40,41,41,42,42,43,43,44,44,45,45,46,46,47,47,48,48,49,49,50,50,51,51,52,52,53,53,54,54,55,55,56,56,57,57,58,58,59,59,60,60,61,61,62,62,63,63,64,64,65,65,66,66,67,67,68,68,69,69,70,70,71,71,72,72,73,73,74,74,75,75,76,76,77,77,78,78,79,79,80,80,81,81,82,82,83,83,84,84,85,85,86,86,87,87,88,88,91,91,92,92,93,93,94,94,95,95,97,97,98,98,99,99,100,100,101,101,102,102,103,103,104,104,105,105,106,106,107,107,108,108,109,109,110,110,111,111,112,112,113,113,114,114,115,115,116,116,117,117,118,118,119,119,120,120,121,121,122,122,123,123,124,124,125,125,126,126,127,127,128,128,129,129,130,130,131,131,132,132,133,133,134,134,135,135,136,136,137,137,138,138,139,139,140,140,141,141,142,142,143,143,144,144,145,145,147,147,148,148,149,149,150,150,151,151,152,152,153,153,154,154,155,155,156,156,157,157,158,158,159,159,160,160,161,161,162,162,163,163,164,164,165,165,166,166,167,167,168,168,169,169,170,170,172,172,173,173,174,174,175,175,176,176,177,177,178,178,179,179,180,180,181,181,182,182,183,183,184,184,185,185,186,186,187,187,189,189,190,190,191,191,192,192,193,193,194,194,195,195,196,196,197,197,198,198,199,199,200,200,201,201,202,202,203,203,204,204,205,205,206,206,207,207,208,208,209,209,210,210,211,211,212,212,213,213,214,214,215,215,216,216,217,217,219,219,220,220,221,221,222,222,223,223,224,224,225,225,226,226,227,227,228,228,229,229,230,230,231,231,232,232,233,233,234,234,237,237,238,238,239,239,240,240,241,241,243,243,244,244,247,247],"right_children":[2,4,6,8,10,12,14,16,18,20,22,24,26,28,30,32,34,36,38,40,42,44,46,48,50,52,54,56,58,60,62,64,66,68,70,72,74,76,78,80,82,84,86,88,90,92,94,96,98,100,102,104,106,108,110,112,114,116,118,120,122,124,126,128,130,132,134,136,138,140,142,144,146,148,150,152,154,156,158,160,162,164,166,168,170,172,174,176,178,-1,-1,180,182,184,186,188,-1,190,192,194,196,198,200,202,204,206,208,210,212,214,216,218,220,222,224,226,228,230,232,234,236,238,240,242,244,246,248,250,252,254,256,258,260,262,264,266,268,270,272,274,276,278,280,282,284,286,-1,288,290,292,294,296,298,300,302,304,306,308,310,312,314,316,318,320,322,324,326,328,330,332,334,-1,336,338,340,342,344,346,348,350,352,354,356,358,360,362,364,366,-1,368,370,372,374,376,378,380,382,384,386,388,390,392,394,396,398,400,402,404,406,408,410,412,414,416,418,420,422,424,-1,426,428,430,432,434,436,438,440,442,444,446,448,450,452,454,456,-1,-1,458,460,462,464,466,-1,468,470,-1,-1,472,-1,-1,-1,-1,-1,-1,-1,-1,-1,-1,-1,-1,-1,-1,-1,-1,-1,-1,-1,-1,-1,-1,-1,-1,-1,-1,-1,-1,-1,-1,-1,-1,-1,-1,-1,-1,-1,-1,-1,-1,-1,-1,-1,-1,-1,-1,-1,-1,-1,-1,-1,-1,-1,-1,-1,-1,-1,-1,-1,-1,-1,-1,-1,-1,-1,-1,-1,-1,-1,-1,-1,-1,-1,-1,-1,-1,-1,-1,-1,-1,-1,-1,-1,-1,-1,-1,-1,-1,-1,-1,-1,-1,-1,-1,-1,-1,-1,-1,-1,-1,-1,-1,-1,-1,-1,-1,-1,-1,-1,-1,-1,-1,-1,-1,-1,-1,-1,-1,-1,-1,-1,-1,-1,-1,-1,-1,-1,-1,-1,-1,-1,-1,-1,-1,-1,-1,-1,-1,-1,-1,-1,-1,-1,-1,-1,-1,-1,-1,-1,-1,-1,-1,-1,-1,-1,-1,-1,-1,-1,-1,-1,-1,-1,-1,-1,-1,-1,-1,-1,-1,-1,-1,-1,-1,-1,-1,-1,-1,-1,-1,-1,-1,-1,-1,-1,-1,-1,-1,-1,-1,-1,-1,-1,-1,-1,-1,-1,-1,-1,-1,-1,-1,-1,-1,-1,-1,-1,-1,-1,-1,-1,-1,-1,-1,-1,-1,-1,-1,-1,-1,-1,-1,-1,-1,-1],"split_conditions":[3.315E1,1.357E1,3.645E1,1.338E1,1.51E1,1.278E1,6.34E1,4.17E0,1.97E1,3.148E1,1.145E1,3.057E1,2.473E1,6.085E1,7.562E1,2.55E0,7.75E0,5.78E0,9.38E0,1.558E1,6.085E1,6.938E1,2.59E1,4.78E0,5E0,2.315E1,5.167E1,6.8E0,1.71E1,2.03E1,1.39E1,6.5E0,6.4E-1,7.25E0,2.12E1,8.355E1,5.85E0,2.21E1,8.2E0,1.998E1,2.035E1,1.153E1,9.15E0,2.76E1,1.082E2,1.85E1,1.85E1,8.897E1,5.1E0,8.863E1,2.645E1,1.97E1,2.98E1,2.47E1,1.37E1,1.652E1,1.8E1,5.6E0,2.85E1,5.31E1,3.562E1,7.355E1,8.12E0,4.23E0,2.9E0,2.112E1,7.33E0,4.323E1,7.625E1,2.85E1,2.25E0,1.8E0,3.779E1,2.125E1,8.2E0,6.97E0,9.8E0,4.92E0,2.83E1,1.01E1,1.83E1,1.043E1,1.83E1,1.255E1,1.348E1,-1.42E0,7.33E0,4.627E1,3.852E1,3.3038158E0,1.0125723E-1,2.697E1,2.045E1,1.97E1,8.693E1,1.2199E2,2.199155E-1,5.05E0,1.843E1,5.997E1,4.25E0,1.325E1,5.96E1,1.62E1,8.97E0,1.357E1,3.258E1,2.227E1,1.862E1,3.988E1,2.188E1,1.765E1,4.038E1,5.01E1,2.37E1,8.3E-1,8.355E1,2.094E1,3.057E1,2.015E1,9.865E1,3.43E0,6.555E1,3.27E0,9.82E0,-9.4E-1,5.265E1,8.848E1,1.3556E2,9E0,2.67E0,6.319E1,8.948E1,6.559E1,6.555E1,3.6E0,6.4E-1,4.35E0,8.02E0,5.38E0,2.1E1,1.4326E2,8.897E1,5.8E1,2.67E0,5.087E1,-6.083469E-1,2.615E1,2.132E1,3E-1,6.88E0,8.848E1,2.21E1,2.027E1,4.165E1,1.1E-1,1.203E1,2.545E1,7.625E1,9.45E0,1.125E1,2.397E1,1.012E1,3.155E1,1.56E1,2.81E1,3.315E1,4.72E0,4.467E1,1.395E1,8.82E0,5.1577086E0,4.74E0,2.4E0,2.432E1,1.04E1,3.13E1,1.162E1,1.225E1,3.035E1,2.225E1,4.383E1,2.927E1,7.797E1,6.628E1,6.742E1,2.757E1,6.3E0,1.8285933E-1,3.902E1,5.73E1,1.4036E2,1.348E1,4.17E0,1.98E0,3.212E1,2.36E0,5.265E1,3.9E0,4.17E0,1.97E1,1.262E1,5.588E1,6.19E0,9.8E0,3.148E1,4.627E1,7.321E1,1.08E0,8.43E0,2.47E1,1.002E1,1.998E1,4.874E1,7.832E1,5.5E0,4.325E1,8.82E0,-2.7198234E-1,3.212E1,4.44E1,5.242E1,4.25E1,5.01E1,5.083E1,4.627E1,1.24E1,1.525E1,6.628E1,-3.98E0,4.3E-1,5.588E1,5.079E1,8.12E0,-4.9E-1,2.327523E0,6.9841784E-1,1.1628E2,3.785E1,1.195E1,1.3491E2,3.767E1,4.7994724E-1,2.44E0,4.6E0,-2.226841E-1,1.1317704E0,1.243E1,2.8517666E-1,1.6885041E0,-6.517839E-1,-6.7131275E-1,1.7369595E-1,-6.4203095E-1,5.6460446E-1,-7.797424E-1,-7.243576E-1,6.0181427E-1,-4.9407244E-1,-3.0448923E-1,3.6047432E0,-6.502458E-1,-7.1017724E-1,-5.869022E-1,8.639942E-2,-6.267068E-1,-5.7248515E-1,6.7823815E-1,-5.075787E-1,-3.8565174E-1,-5.251868E-1,-5.595675E-1,1.0934454E0,-1.2668167E-1,-4.0280604E-1,-1.18113495E-1,2.2569466E0,1.5222665E0,-3.85624E-1,-5.3184503E-1,3.442508E-1,2.2522457E0,-2.7306622E-1,-7.1551E-1,-5.597891E-1,4.1452856E0,-3.173668E-1,-7.7963443E-3,-4.320674E-1,3.2788079E0,1.3033438E-1,3.3144847E-1,-5.123293E-1,-1.00901835E-1,-3.5026225E-1,-4.478573E-1,-1.06552206E-1,-1.3314083E-1,-4.6995398E-1,-2.0119646E-1,1.4746006E-1,-1.6179015E-1,-6.4900345E-1,1.8713931E0,1.9150405E-1,2.8805715E-1,7.9682934E-1,-3.668725E-2,8.023777E-1,-4.9839565E-1,4.2053666E-2,-1.877061E-1,-3.385131E-1,2.2619276E-1,-1.19853795E-1,8.4074005E-2,3.8467535E-1,-1.5837151E-1,8.517637E-2,4.0288654E-1,9.3967026E-1,-1.7628599E-2,3.8872454E-1,5.734623E-1,9.5926946E-1,4.3314123E-1,9.33087E-2,-1.7908256E-1,6.5983087E-1,8.3401394E-1,1.3810049E0,-7.203528E-2,2.8167987E-1,-3.864617E-1,1.0362357E0,-5.609781E-1,1.9295228E0,7.3470336E-1,-3.652439E-1,1.9077059E0,9.442076E-1,3.9380857E-1,-1.7598975E-1,-1.0493813E-1,9.4861835E-1,9.230408E-1,3.324127E-1,2.5591945E-2,1.9388117E0,-3.209761E-1,-9.5477805E-2,-1.6605806E-1,3.3892137E-1,1.764466E-1,8.062319E-1,-2.030685E-1,4.9670553E-1,-2.244319E-1,2.3324354E0,-6.050221E-1,-2.1043956E-1,-2.708556E-1,1.2247765E0,-1.7679122E-1,8.103496E-1,-2.0567821E-1,-6.3543457E-1,4.219776E-1,-4.7198445E-1,2.9137118E0,6.1925554E-1,-3.0226502E-1,1.0045608E0,-1.6588442E-1,2.5665745E-1,-4.406159E-1,5.0999314E-2,-5.129537E-1,4.490222E-1,-7.191905E-2,8.2410365E-1,6.6333944E-1,-3.3838227E-1,-2.0295595E-1,3.6506635E-1,-4.1335046E-2,8.163102E-1,1.2345436E0,5.687547E-1,1.824979E-1,2.2448814E0,9.0508856E-2,-3.084754E-1,2.5999102E-1,8.3648044E-1,2.1396028E-1,1.0619471E0,5.944218E-1,2.583945E-1,7.739009E-1,1.1489773E0,9.988863E-1,1.6345586E0,3.9771646E-1,-3.5912988E-1,-2.0194963E-1,6.8356305E-1,1.2545903E0,4.3472192E-1,1.5704806E0,1.872853E-1,7.497921E-2,9.4764346E-1,-4.5232835E-1,2.6794302E-1,6.034018E-1,2.101568E0,1.2521887E-1,-4.2897603E-1,9.335399E-2,1.5057578E0,2.3342695E0,1.5151438E0,1.7495833E-1,1.5782691E0,1.8903834E0,2.449083E0,1.4018164E0,-4.1340888E-2,1.2084855E0,1.2722082E-1,2.4068816E0,1.4857075E0,6.633112E-1,1.2094915E0,-2.5067493E-1,1.026574E0,6.847004E-1,2.0275373E0,3.8351652E-1,-2.8621075E-1,2.2028558E0,1.1535901E0,3.3562932E0,1.7575926E0,4.76779E-2,1.6284525E0,1.2521379E0,-3.961424E-1,-2.8543133E-1,2.5322765E-1,1.6937855E0,4.7932896E-1,1.0705138E0,1.7896394E0,8.2174367E-1,-5.4410523E-1,2.5896401E0,3.1280384E0,3.66492E-1,1.5494841E0,2.254718E0,9.8886825E-2,-3.1971657E-1,2.4235831E-1,2.904092E0,5.7126266E-1,3.1970532E0,1.5862797E0,1.4291085E0,3.917542E0,8.5850257E-1,2.7450507E0],"split_indices":[12,8,8,12,13,8,12,8,17,8,10,17,15,8,8,8,8,8,8,12,8,15,13,8,8,8,12,10,18,15,18,16,0,12,13,11,9,15,9,8,8,13,17,12,0,12,11,15,8,0,14,17,9,10,17,15,18,16,13,8,13,12,16,0,17,3,12,11,15,14,17,0,0,3,8,8,11,1,13,12,10,9,9,16,15,6,12,8,8,0,0,15,13,18,11,1,0,8,17,1,9,14,12,8,9,15,8,8,1,13,14,13,13,8,13,6,8,3,14,13,10,6,16,6,13,6,14,1,1,1,12,1,1,1,18,12,0,9,3,18,13,0,16,1,8,1,0,11,3,0,10,1,13,12,15,6,8,14,13,13,9,8,11,17,15,12,11,17,8,12,9,0,1,11,10,18,16,9,9,8,10,18,12,10,8,17,14,14,0,12,0,1,14,8,8,15,1,17,11,9,16,9,12,3,10,8,12,1,0,9,9,3,8,0,0,13,16,9,0,15,16,9,9,12,15,12,11,18,10,6,6,10,0,16,6,0,0,0,8,3,0,13,0,6,17,0,0,9,0,0,0,0,0,0,0,0,0,0,0,0,0,0,0,0,0,0,0,0,0,0,0,0,0,0,0,0,0,0,0,0,0,0,0,0,0,0,0,0,0,0,0,0,0,0,0,0,0,0,0,0,0,0,0,0,0,0,0,0,0,0,0,0,0,0,0,0,0,0,0,0,0,0,0,0,0,0,0,0,0,0,0,0,0,0,0,0,0,0,0,0,0,0,0,0,0,0,0,0,0,0,0,0,0,0,0,0,0,0,0,0,0,0,0,0,0,0,0,0,0,0,0,0,0,0,0,0,0,0,0,0,0,0,0,0,0,0,0,0,0,0,0,0,0,0,0,0,0,0,0,0,0,0,0,0,0,0,0,0,0,0,0,0,0,0,0,0,0,0,0,0,0,0,0,0,0,0,0,0,0,0,0,0,0,0,0,0,0,0,0,0,0,0,0,0,0,0,0,0,0,0,0,0,0,0,0,0,0,0,0,0,0,0,0,0,0,0,0,0,0,0,0,0,0],"split_type":[0,0,0,0,0,0,0,0,0,0,0,0,0,0,0,0,0,0,0,0,0,0,0,0,0,0,0,0,0,0,0,0,0,0,0,0,0,0,0,0,0,0,0,0,0,0,0,0,0,0,0,0,0,0,0,0,0,0,0,0,0,0,0,0,0,0,0,0,0,0,0,0,0,0,0,0,0,0,0,0,0,0,0,0,0,0,0,0,0,0,0,0,0,0,0,0,0,0,0,0,0,0,0,0,0,0,0,0,0,0,0,0,0,0,0,0,0,0,0,0,0,0,0,0,0,0,0,0,0,0,0,0,0,0,0,0,0,0,0,0,0,0,0,0,0,0,0,0,0,0,0,0,0,0,0,0,0,0,0,0,0,0,0,0,0,0,0,0,0,0,0,0,0,0,0,0,0,0,0,0,0,0,0,0,0,0,0,0,0,0,0,0,0,0,0,0,0,0,0,0,0,0,0,0,0,0,0,0,0,0,0,0,0,0,0,0,0,0,0,0,0,0,0,0,0,0,0,0,0,0,0,0,0,0,0,0,0,0,0,0,0,0,0,0,0,0,0,0,0,0,0,0,0,0,0,0,0,0,0,0,0,0,0,0,0,0,0,0,0,0,0,0,0,0,0,0,0,0,0,0,0,0,0,0,0,0,0,0,0,0,0,0,0,0,0,0,0,0,0,0,0,0,0,0,0,0,0,0,0,0,0,0,0,0,0,0,0,0,0,0,0,0,0,0,0,0,0,0,0,0,0,0,0,0,0,0,0,0,0,0,0,0,0,0,0,0,0,0,0,0,0,0,0,0,0,0,0,0,0,0,0,0,0,0,0,0,0,0,0,0,0,0,0,0,0,0,0,0,0,0,0,0,0,0,0,0,0,0,0,0,0,0,0,0,0,0,0,0,0,0,0,0,0,0,0,0,0,0,0,0,0,0,0,0,0,0,0,0,0,0,0,0,0,0,0,0,0,0,0,0,0,0,0,0,0,0,0,0,0,0,0,0,0,0,0,0,0,0,0,0,0,0,0,0,0,0,0,0,0,0,0,0,0,0,0,0,0,0,0,0,0,0,0],"sum_hessian":[1.6948E4,1.3482E4,3.466E3,9.459E3,4.023E3,1.533E3,1.933E3,7.786E3,1.673E3,1.974E3,2.049E3,6E2,9.33E2,1.224E3,7.09E2,3.264E3,4.522E3,8.77E2,7.96E2,1.311E3,6.63E2,4.62E2,1.587E3,3.16E2,2.84E2,6.32E2,3.01E2,8.49E2,3.75E2,4.49E2,2.6E2,1.209E3,2.055E3,2.866E3,1.656E3,4.05E2,4.72E2,6.33E2,1.63E2,7.66E2,5.45E2,5.75E2,8.8E1,4.58E2,4E0,6.88E2,8.99E2,1.21E2,1.95E2,1.05E2,1.79E2,2.33E2,3.99E2,1.37E2,1.64E2,2.15E2,6.34E2,2.73E2,1.02E2,2.91E2,1.58E2,1.97E2,6.3E1,5.2E1,1.157E3,6.1E1,1.994E3,2.129E3,7.37E2,1.044E3,6.12E2,3.83E2,2.2E1,7.8E1,3.94E2,2.36E2,3.97E2,7.7E1,8.6E1,4.21E2,3.45E2,2.52E2,2.93E2,4.16E2,1.59E2,2E1,6.8E1,4.13E2,4.5E1,3E0,1E0,5.08E2,1.8E2,6.15E2,2.84E2,1.2E2,1E0,1.1E1,1.84E2,5.7E1,4.8E1,5.7E1,1.22E2,9.8E1,1.35E2,3.09E2,9E1,1.2E2,1.7E1,1.3E1,1.51E2,8.1E1,1.34E2,5.47E2,8.7E1,1.8E1,2.55E2,9E1,1.2E1,1.18E2,1.73E2,1.43E2,1.5E1,5.9E1,1.38E2,4E0,5.9E1,5E0,4.7E1,8E0,1.149E3,5.9E1,2E0,1.599E3,3.95E2,1.783E3,3.46E2,7.31E2,6E0,1.036E3,8E0,2E0,6.1E2,1.2E1,3.71E2,5E0,1.7E1,7.4E1,4E0,1.16E2,2.78E2,1.57E2,7.9E1,2.67E2,1.3E2,5E0,7.2E1,6.6E1,2E1,2.82E2,1.39E2,1.89E2,1.56E2,7E1,1.82E2,9.4E1,1.99E2,2.58E2,1.58E2,1.25E2,3.4E1,5E0,1.5E1,8E0,6E1,3.57E2,5.6E1,3.8E1,7E0,4.34E2,7.4E1,1.15E2,6.5E1,4.7E1,5.68E2,2.61E2,2.3E1,1.19E2,1E0,8E0,3E0,1.08E2,7.6E1,4E1,1.7E1,3.4E1,1.4E1,2.4E1,3.3E1,1.02E2,2E1,3.9E1,5.9E1,2.4E1,1.11E2,1.99E2,1.1E2,4.6E1,4.4E1,6.7E1,5.3E1,4E0,1.3E1,1E1,3E0,2.1E1,1.3E2,8E1,1E0,1.23E2,1.1E1,3.15E2,2.32E2,7E1,1.7E1,1.4E1,4E0,2.13E2,4.2E1,8.4E1,6E0,8E0,4E0,1.13E2,5E0,1.71E2,2E0,1.35E2,8E0,1.2E1,3E0,5.8E1,1E0,8.2E1,5.6E1,1E0,3E0,5.8E1,1E0,1E0,4E0,4.5E1,2E0,6E0,2E0,4.95E2,6.54E2,2E0,5.7E1,1E0,1E0,1.233E3,3.66E2,3.87E2,8E0,4.4E2,1.343E3,6E0,3.4E2,1.4E2,5.91E2,4E0,2E0,6.9E1,9.67E2,7E0,1E0,1E0,1E0,6.05E2,5E0,1E0,1.1E1,1.03E2,2.68E2,3E0,2E0,5.1E1,2.3E1,1E0,3E0,2E0,1.14E2,8.5E1,1.93E2,1.44E2,1.3E1,6.6E1,1.3E1,1.12E2,1.55E2,8.6E1,4.4E1,4E0,1E0,6.1E1,1.1E1,6E1,6E0,1.8E1,2E0,1.29E2,1.53E2,2.8E1,1.11E2,1.05E2,8.4E1,4.8E1,1.08E2,5.5E1,1.5E1,1.57E2,2.5E1,5.9E1,3.5E1,1.52E2,4.7E1,1.2E1,2.46E2,1.03E2,5.5E1,5E1,7.5E1,4E0,3E1,2E0,1.3E1,2E0,6E0,1E1,5E1,4.6E1,3.11E2,2.1E1,3.5E1,1.9E1,1.9E1,2E0,5E0,2.36E2,1.98E2,2.7E1,4.7E1,1.08E2,7E0,5.5E1,1E1,4.6E1,1E0,5.21E2,4.7E1,2.59E2,2E0,8E0,1.5E1,6E0,1.13E2,3E0,5E0,2E0,1E0,1.07E2,1E0,3.2E1,4.4E1,3.2E1,8E0,3E0,1.4E1,7E0,2.7E1,2E0,1.2E1,2.2E1,2E0,1.6E1,1.7E1,5.7E1,4.5E1,3E0,1.7E1,2.4E1,1.5E1,5.2E1,7E0,4E0,2E1,7.3E1,3.8E1,1.38E2,6.1E1,5.2E1,5.8E1,3.8E1,8E0,2E0,4.2E1,4.1E1,2.6E1,4.9E1,4E0,1E0,3E0,5E0,8E0,6E0,4E0,1E0,2E0,1E0,2E1,1.11E2,1.9E1,1E0,7.9E1,8.5E1,3.8E1,8E0,3E0,3.03E2,1.2E1,1.5E1,2.17E2,5.7E1,1.3E1,1.4E1,3E0,4E0,1E1,1E0,3E0,2.06E2,7E0,2.9E1,1.3E1,2E0,8.2E1,3E0,3E0,5E0,3E0,2E0,2E0,1.8E1,9.5E1,3E0,2E0,6.1E1,7.4E1,1E0,7E0,1.1E1,1E0,2E0,1E0,5.7E1,1E0,7.9E1,3E0,2E0,5.4E1,2E0,5.6E1],"tree_param":{"num_deleted":"0","num_feature":"19","num_nodes":"473","size_leaf_vector":"1"}},{"base_weights":[-7.2209407E-3,-7.322003E0,2.0180729E1,-9.786532E0,-9.775592E-2,2.7788282E1,5.048587E0,-1.154327E1,-7.554018E0,7.1975274E0,-2.4588566E0,2.0639082E1,4.7917072E1,1.2133664E1,-1.5505892E0,-1.3143293E1,-1.0506108E1,-8.723175E0,-2.0534704E0,1.6691631E0,1.4546869E1,6.9764405E-1,-4.10424E0,1.50782585E1,2.9302628E1,4.3804897E1,5.6561714E1,2.512868E1,9.557565E0,1.541947E1,-5.175156E0,-1.4235698E1,-1.2459204E1,-1.1151003E1,-8.77004E0,-5.0429587E0,-9.07845E0,4.9261484E0,-6.4990683E0,-2.9800708E0,6.504388E0,9.761817E0,2.2839363E1,-1.244302E0,6.836975E0,-4.762628E0,3.993002E0,1.0918031E1,2.222048E1,2.5252356E1,3.7162464E1,5.2440315E1,3.917787E1,9.59177E0,5.8494938E1,1.7223923E1,3.371396E1,5.8879433E0,2.0266077E1,7.6883245E0,4.273761E1,-6.6800647E0,6.4459677E0,-8.709989E0,-1.4318865E1,-9.805354E0,-1.2744852E1,-4.936684E0,-1.1354315E1,-5.1421647E0,-9.816045E0,-7.02655E0,1.3699714E0,-1.0108065E1,-7.4090137E0,-3.5367298E0,1.0657348E1,-2.422519E0,-8.398791E0,-9.8461986E-1,-6.8026958E0,9.564441E0,-2.6271217E0,5.8712745E0,1.4635072E1,2.8108072E1,7.472036E0,-3.0268223E0,3.7718856E0,5.383242E0,2.2855022E1,-3.2698696E0,-7.136595E0,1.3434111E1,-2.672817E0,1.3552186E1,1.570356E0,2.3928207E1,5.271998E-1,1.7200203E1,3.0931513E1,4.61722E1,3.0250074E1,6.231434E1,4.699253E1,4.1073593E1,1.8996325E1,-2.1259356E0,3.062924E1,3.1935589E1,5.9763863E1,2.3770311E1,9.934712E0,4.439496E1,1.9682228E1,1.0805E1,3.1039152E0,2.9655563E1,1.4750146E1,-2.6052472E-1,1.7629814E1,-3.4355706E-1,4.652649E1,-4.3410573E0,-1.0587356E1,2.3624348E1,5.0248176E-1,-8.306787E-1,-1.0783375E1,-6.5686975E0,-1.4371896E1,-1.059125E1,2.59468E1,-1.2406945E1,-1.459989E1,-7.3545117E0,2.9900242E1,-9.8687935E0,-1.1673695E1,-7.525634E0,3.877662E0,1.4512698E-2,-1.0218579E1,-7.283944E0,9.144179E0,-4.11471E0,4.8290873E0,-1.0177539E1,1.3345278E1,-3.6017773E0,-8.479111E0,-7.6114163E0,-6.220696E-2,-6.673916E-1,1.42578E1,-4.1626105E0,2.0614931E1,-8.582341E0,6.2249184E-1,3.3925636E0,-2.4609444E0,-9.267791E0,2.122126E-1,5.9782257E0,2.1109507E1,7.010881E-1,-3.519943E0,9.081017E0,9.3434304E-1,1.888126E1,3.5561957E0,2.9096972E1,-4.969705E-1,2.0530252E0,3.0612244E1,1.5203956E0,-3.7030284E0,4.6899743E0,-8.171562E0,4.0784554E0,1.7730684E1,7.8760123E0,1.8424767E0,-4.9875345E0,-1.3312299E0,1.7028357E0,-8.187256E0,1.6986242E1,-6.8938413E0,1.2175483E0,-6.8278375E0,9.838233E0,1.6015846E1,-8.0513144E-1,1.5173325E1,2.6881207E1,1.9858747E1,-3.370182E0,1.3026853E1,2.0440832E1,7.874E0,3.449989E1,2.1208916E1,4.7365845E1,1.4802864E1,3.3447124E1,2.0839245E1,5.721188E0,6.410542E1,4.748894E1,-3.2683206E-1,4.302518E1,2.8822353E1,4.935185E0,2.8357357E1,9.4805235E-1,-6.157552E-1,-8.036933E-2,2.0955288E0,3.980144E1,-7.5510716E0,6.0238625E1,4.393638E0,2.5773968E1,-2.4287872E-1,1.2686167E1,-1.704219E0,-3.834215E-1,4.8249966E1,2.6475143E1,-7.373345E0,8.301628E0,1.7386812E1,5.418831E-1,9.174993E0,4.1236282E1,2.5195433E1,7.5245275E0,2.6654573E1,-3.0230007E0,1.2571002E1,4.6652138E1,1.0659045E1,1.3651151E1,5.3079777E1,-7.8453846E0,1.9134552E0,-1.1848503E1,-1.1095842E0,6.235081E0,4.6755203E1,-2.6554163E0,1.7288773E1,5.628519E-2,-1.6749565E-1,-6.5760416E-1,-1.6750573E-1,-5.770188E-1,5.815343E-1,-1.2315607E-1,-7.1922284E-1,-6.5057373E-1,-3.1022662E-1,1.5737079E0,3.7230206E-1,-4.9800935E-1,-6.349489E-1,-7.327227E-1,-1.3718913E-1,1.1248053E0,-5.2522546E-1,-3.1743142E-1,2.809118E0,-5.3041E-1,-1.6832402E-1,-6.258378E-1,-5.459985E-1,-4.380965E-1,1.1166791E-1,-2.022448E-2,7.796514E-1,-4.4055772E-1,3.8312286E-1,-4.8104057E-1,-6.6979665E-1,-1.9551323E-1,-4.396022E-1,1.2033585E0,-1.9262706E-1,-6.778767E-2,-4.1276503E-1,4.8878074E-1,-1.801099E-1,-5.320269E-1,-4.5748565E-1,1.3065728E0,-4.0756917E-1,-1.07270375E-1,-4.0855914E-1,9.166449E-1,-4.2791358E-1,2.8438607E-2,-4.152474E-1,-1.8961874E-1,3.213873E-1,3.9657098E-1,-3.2439438E-1,8.7570155E-1,5.301104E-2,-3.2846138E-1,1.0645218E-1,1.2389611E0,1.3192545E-1,-5.025794E-1,-3.0281395E-1,4.0632746E-1,-1.1594474E-1,-1.4191802E-1,3.091714E-1,-4.852626E-1,3.8075063E-1,-2.3795967E-1,6.7169636E-1,4.459033E-1,1.3738027E-1,1.1044421E0,-3.7814847E-1,8.117512E-2,-4.0851435E-1,1.506704E-1,6.4368683E-1,1.4052291E-1,-1.4967704E-1,5.3519183E-1,1.1066636E0,3.3524942E-1,-3.199105E-1,9.6540767E-1,1.6707629E0,3.4601402E-1,-1.860482E-1,2.2736251E0,2.9724155E-2,-1.2286245E-2,1.0498433E0,-1.363556E-1,-3.4202775E-1,3.59434E-1,7.0634045E-2,2.6985312E-1,-4.947858E-1,-2.9085398E-2,3.408707E-1,1.2364107E0,3.3837184E-1,6.255941E-1,-2.7831775E-1,-2.7141422E-1,5.478987E-1,-7.536736E-2,1.1796403E0,-9.299379E-2,8.871088E-1,-2.9186884E-1,-4.9193802E-1,4.4379202E-1,1.3653505E0,-1.2627701E-1,-5.315379E-1,-7.550208E-2,5.646908E-1,5.9120256E-1,-3.8756755E-1,6.8807966E-1,3.169962E-1,9.059491E-1,5.803523E-1,4.413032E-2,-4.801166E-1,1.6994246E0,5.3106385E-1,-1.565402E-1,1.3679322E0,7.2759753E-1,1.1658797E0,4.9986288E-1,-3.285809E-1,8.30647E-1,-3.9154622E-1,1.1951591E0,7.553836E-1,1.3564658E-1,9.8415816E-1,1.4039888E0,2.067288E0,1.3030535E0,5.648359E-1,2.7142513E0,2.1443374E0,-6.674757E-2,1.5692832E0,1.6918808E0,-3.5482183E-1,1.3606482E0,-6.676217E-2,-3.7742283E-2,4.6683142E-1,1.593574E0,3.2919357E0,2.4155252E0,1.3603895E0,1.8428824E0,2.2540882E0,1.4759003E0,-7.944226E-2,1.1103861E0,-2.0973007E-1,-2.0847805E-1,1.7358376E0,2.1632488E0,1.2915349E-1,-1.05761625E-1,-4.6056876E-1,1.6954988E0,3.0784488E0,-2.2745824E-1,5.569811E-1,-5.2352745E-2,1.3829899E0,-2.3590215E-1,7.1665514E-1,-2.0882086E-1,1.4920925E-1,1.6175174E0,2.6383235E0,1.4766496E0,-8.5814126E-2,-4.157807E-1,-6.655007E-2,2.6711673E-1,6.6458595E-1,9.116352E-1,3.5711524E-1,-8.078825E-2,2.191669E-1,1.3445531E0,3.7550744E-1,2.136267E0,5.4696435E-1,-1.7319012E-1,1.3338964E0,5.732042E-1,-1.10101454E-1,4.219652E-1,1.5694232E0,8.2772154E-1,-2.2957371E-1,-2.6699165E-1,1.17843E0,6.50583E-1,3.0651882E0,8.4462065E-1,-1.7932981E-1,-1.657859E-1,1.5861629E0,2.8068342E0,-3.5430646E-1,-4.7032496E-1,-2.2884022E-2,5.8546543E-1,-1.0503917E-2,-6.455688E-1,-2.3851381E-1,3.7225196E-1,-3.9396554E-1,-4.303046E-1,9.0326804E-1,2.5059555E0,5.801963E-1,-3.0857667E-1,6.6334087E-1,4.7215383E-2,1.0911859E0],"categories":[],"categories_nodes":[],"categories_segments":[],"categories_sizes":[],"default_left":[0,0,0,0,0,0,0,0,0,0,0,0,0,0,0,0,0,0,0,0,0,0,0,0,0,0,0,0,0,0,0,0,0,0,0,0,0,0,0,0,0,0,0,0,0,0,0,0,0,0,0,0,0,0,0,0,0,0,0,0,0,0,0,0,0,0,0,0,0,0,0,0,0,0,0,0,0,0,0,0,0,0,0,0,0,0,0,0,0,0,0,0,0,0,0,0,0,0,0,0,0,0,0,0,0,0,0,0,0,0,0,0,0,0,0,0,0,0,0,0,0,0,0,0,0,0,0,0,0,0,0,0,0,0,0,0,0,0,0,0,0,0,0,0,0,0,0,0,0,0,0,0,0,0,0,0,0,0,0,0,0,0,0,0,0,0,0,0,0,0,0,0,0,0,0,0,0,0,0,0,0,0,0,0,0,0,0,0,0,0,0,0,0,0,0,0,0,0,0,0,0,0,0,0,0,0,0,0,0,0,0,0,0,0,0,0,0,0,0,0,0,0,0,0,0,0,0,0,0,0,0,0,0,0,0,0,0,0,0,0,0,0,0,0,0,0,0,0,0,0,0,0,0,0,0,0,0,0,0,0,0,0,0,0,0,0,0,0,0,0,0,0,0,0,0,0,0,0,0,0,0,0,0,0,0,0,0,0,0,0,0,0,0,0,0,0,0,0,0,0,0,0,0,0,0,0,0,0,0,0,0,0,0,0,0,0,0,0,0,0,0,0,0,0,0,0,0,0,0,0,0,0,0,0,0,0,0,0,0,0,0,0,0,0,0,0,0,0,0,0,0,0,0,0,0,0,0,0,0,0,0,0,0,0,0,0,0,0,0,0,0,0,0,0,0,0,0,0,0,0,0,0,0,0,0,0,0,0,0,0,0,0,0,0,0,0,0,0,0,0,0,0,0,0,0,0,0,0,0,0,0,0,0,0,0,0,0,0,0,0,0,0,0,0,0,0,0,0,0,0,0,0,0,0,0,0,0,0,0,0,0,0,0,0,0,0,0,0,0,0,0,0,0,0,0,0,0,0,0,0,0,0,0,0,0,0,0,0,0,0,0,0,0,0,0,0,0,0,0,0,0,0,0],"id":2,"left_children":[1,3,5,7,9,11,13,15,17,19,21,23,25,27,29,31,33,35,37,39,41,43,45,47,49,51,53,55,57,59,61,63,65,67,69,71,73,75,77,79,81,83,85,87,89,91,93,95,97,99,101,103,105,107,109,111,113,115,117,119,121,123,125,127,129,131,133,135,137,139,141,143,145,147,149,151,153,155,157,159,161,163,165,167,169,171,173,175,177,179,181,183,185,187,189,191,193,195,197,199,201,203,205,207,209,211,213,215,217,219,221,223,225,227,229,231,233,235,237,239,241,-1,243,245,247,249,251,253,255,257,259,261,263,265,267,269,271,273,275,277,279,281,283,285,287,289,291,293,295,297,299,301,303,305,307,309,311,313,-1,315,317,319,321,323,325,-1,327,329,331,333,335,337,-1,339,341,343,345,347,349,351,353,355,-1,357,359,361,363,365,367,369,371,373,375,377,379,381,383,385,387,389,391,393,395,397,399,401,403,405,407,409,-1,411,413,415,417,-1,-1,-1,-1,419,421,423,425,427,-1,429,431,-1,433,435,437,439,441,443,445,447,449,451,453,455,457,459,461,463,465,467,469,471,473,475,477,479,481,-1,-1,-1,-1,-1,-1,-1,-1,-1,-1,-1,-1,-1,-1,-1,-1,-1,-1,-1,-1,-1,-1,-1,-1,-1,-1,-1,-1,-1,-1,-1,-1,-1,-1,-1,-1,-1,-1,-1,-1,-1,-1,-1,-1,-1,-1,-1,-1,-1,-1,-1,-1,-1,-1,-1,-1,-1,-1,-1,-1,-1,-1,-1,-1,-1,-1,-1,-1,-1,-1,-1,-1,-1,-1,-1,-1,-1,-1,-1,-1,-1,-1,-1,-1,-1,-1,-1,-1,-1,-1,-1,-1,-1,-1,-1,-1,-1,-1,-1,-1,-1,-1,-1,-1,-1,-1,-1,-1,-1,-1,-1,-1,-1,-1,-1,-1,-1,-1,-1,-1,-1,-1,-1,-1,-1,-1,-1,-1,-1,-1,-1,-1,-1,-1,-1,-1,-1,-1,-1,-1,-1,-1,-1,-1,-1,-1,-1,-1,-1,-1,-1,-1,-1,-1,-1,-1,-1,-1,-1,-1,-1,-1,-1,-1,-1,-1,-1,-1,-1,-1,-1,-1,-1,-1,-1,-1,-1,-1,-1,-1,-1,-1,-1,-1,-1,-1,-1,-1,-1,-1,-1,-1,-1,-1,-1,-1,-1,-1,-1,-1,-1,-1,-1,-1,-1,-1,-1,-1,-1,-1,-1,-1,-1,-1,-1,-1,-1,-1,-1,-1,-1,-1,-1,-1,-1,-1,-1,-1,-1,-1],"loss_changes":[2.485737E6,2.1998994E5,5.1524538E5,3.6045625E4,5.4172777E4,4.277035E5,7.010557E4,8.4149375E3,2.6091938E4,3.1220066E4,1.2342983E4,1.05546375E5,2.525E4,2.3963305E4,4.7872383E4,1.3344062E3,3.40875E3,4.3317188E3,2.215539E4,9.910623E3,1.2871453E4,9.725142E3,8.346236E3,3.9632594E4,2.6407375E4,1.9242125E4,2.1958188E4,7.4951953E3,2.3654863E4,2.8605889E4,1.1253334E4,2.300625E2,8.241406E2,2.8245625E3,3.1864688E3,3.7876519E3,5.1711094E3,1.3521371E4,3.3561738E3,1.7095703E3,6.060795E3,3.9145508E3,9.505895E3,5.555119E3,4.4410166E3,5.0973945E3,7.461968E3,2.0908453E4,1.8251156E4,2.553375E4,1.6664156E4,6.9155625E3,1.26485625E4,2.7767354E3,6.1124375E3,2.8178008E3,7.5190938E3,6.153991E3,7.5385117E3,8.53912E3,5.958535E3,5.1450957E3,7.543489E3,2.1975842E2,2.1753125E2,3.8150908E3,5.252969E2,6.452899E3,9.3190625E2,4.178387E3,2.6158086E3,1.0114385E3,1.3668928E3,3.20725E3,4.7280195E3,1.5993345E3,6.7780293E3,5.6980303E3,1.2433965E3,9.712082E2,1.3334827E3,6.5811035E3,8.66902E2,1.8772227E3,4.3078535E3,3.6378438E3,3.9498572E3,1.413915E3,1.8256433E3,2.8437368E3,3.063755E3,2.9536719E3,5.1869395E3,3.6552705E3,1.1398317E3,5.908836E3,6.087189E3,4.958E3,1.846392E3,7.0320625E3,1.0821375E4,3.941875E3,4.3275E3,5.91775E3,3.5522812E3,6.410875E3,4.0721074E3,1.9523777E3,1.5220559E3,4.338296E3,5.676375E3,2.0180957E3,1.0463875E3,6.5918477E3,4.9736514E3,2.5413672E3,4.505774E3,1.8535195E3,8.315105E3,2.200256E3,9.213511E3,0E0,5.307758E3,7.839688E3,2.5208633E3,7.3508223E3,3.014435E3,2.3485355E1,1.4961853E2,7.675928E2,7.721875E1,1.2357598E3,7.242297E1,5.5946875E2,6.847656E1,6.8183647E3,5.120167E3,1.873E3,1.01409375E3,1.8655146E3,2.0631533E3,1.8899667E3,1.0771875E3,1.1052979E3,8.6851953E2,3.0867175E2,1.8702593E3,7.973125E2,1.8621682E3,1.6993931E3,2.0904531E3,2.9973096E2,1.5253104E3,2.1034812E3,5.396203E3,1.9975354E3,6.8321045E2,1.0339902E3,0E0,1.046287E3,3.829535E2,4.948833E2,1.4442753E3,1.162685E3,1.2340977E3,0E0,1.2809604E3,1.618123E3,3.6213303E2,1.5448242E3,8.8919763E2,3.032375E3,0E0,7.8454407E2,2.649399E3,2.069027E3,1.2030684E3,1.2345713E3,3.341405E2,2.110025E3,1.1368198E3,6.304991E2,0E0,3.3696602E3,1.8747847E3,3.4616104E3,1.8752227E3,3.2732617E3,1.0374341E2,1.0339594E3,6.773114E2,3.5773594E3,3.4707969E3,2.3989014E3,2.0371294E3,3.8398281E3,3.2583438E3,1.3067532E3,8.032749E2,2.8887656E3,3.7863176E3,9.4751875E3,4.130383E3,1.3599375E3,1.6475594E3,2.1874531E3,6.3963633E3,7.728885E1,1.253875E3,7.016875E2,0E0,1.8138125E3,1.0412148E3,2.3008765E3,4.0749326E3,0E0,0E0,0E0,0E0,1.3062207E3,7.5912323E0,5.758E3,2.3165997E2,1.5969375E3,0E0,8.128784E2,9.359786E1,0E0,3.755E2,1.8609951E3,2.3092957E1,1.7010488E3,2.5106934E2,1.7062264E3,2.3345698E3,1.6420898E2,1.9193555E3,2.4392983E3,2.9255781E3,1.6420498E3,2.2925898E3,3.6383242E3,3.612519E3,1.9449479E3,4.627996E3,2.6367627E3,2.685895E3,1.3452578E3,1.5643856E3,2.2623748E3,3.6438867E2,2.7691296E3,6.4648315E2,0E0,0E0,0E0,0E0,0E0,0E0,0E0,0E0,0E0,0E0,0E0,0E0,0E0,0E0,0E0,0E0,0E0,0E0,0E0,0E0,0E0,0E0,0E0,0E0,0E0,0E0,0E0,0E0,0E0,0E0,0E0,0E0,0E0,0E0,0E0,0E0,0E0,0E0,0E0,0E0,0E0,0E0,0E0,0E0,0E0,0E0,0E0,0E0,0E0,0E0,0E0,0E0,0E0,0E0,0E0,0E0,0E0,0E0,0E0,0E0,0E0,0E0,0E0,0E0,0E0,0E0,0E0,0E0,0E0,0E0,0E0,0E0,0E0,0E0,0E0,0E0,0E0,0E0,0E0,0E0,0E0,0E0,0E0,0E0,0E0,0E0,0E0,0E0,0E0,0E0,0E0,0E0,0E0,0E0,0E0,0E0,0E0,0E0,0E0,0E0,0E0,0E0,0E0,0E0,0E0,0E0,0E0,0E0,0E0,0E0,0E0,0E0,0E0,0E0,0E0,0E0,0E0,0E0,0E0,0E0,0E0,0E0,0E0,0E0,0E0,0E0,0E0,0E0,0E0,0E0,0E0,0E0,0E0,0E0,0E0,0E0,0E0,0E0,0E0,0E0,0E0,0E0,0E0,0E0,0E0,0E0,0E0,0E0,0E0,0E0,0E0,0E0,0E0,0E0,0E0,0E0,0E0,0E0,0E0,0E0,0E0,0E0,0E0,0E0,0E0,0E0,0E0,0E0,0E0,0E0,0E0,0E0,0E0,0E0,0E0,0E0,0E0,0E0,0E0,0E0,0E0,0E0,0E0,0E0,0E0,0E0,0E0,0E0,0E0,0E0,0E0,0E0,0E0,0E0,0E0,0E0,0E0,0E0,0E0,0E0,0E0,0E0,0E0,0E0,0E0,0E0,0E0,0E0,0E0,0E0,0E0,0E0,0E0,0E0,0E0,0E0,0E0,0E0,0E0,0E0,0E0,0E0,0E0,0E0,0E0,0E0,0E0,0E0,0E0,0E0],"parents":[2147483647,0,0,1,1,2,2,3,3,4,4,5,5,6,6,7,7,8,8,9,9,10,10,11,11,12,12,13,13,14,14,15,15,16,16,17,17,18,18,19,19,20,20,21,21,22,22,23,23,24,24,25,25,26,26,27,27,28,28,29,29,30,30,31,31,32,32,33,33,34,34,35,35,36,36,37,37,38,38,39,39,40,40,41,41,42,42,43,43,44,44,45,45,46,46,47,47,48,48,49,49,50,50,51,51,52,52,53,53,54,54,55,55,56,56,57,57,58,58,59,59,60,60,61,61,62,62,63,63,64,64,65,65,66,66,67,67,68,68,69,69,70,70,71,71,72,72,73,73,74,74,75,75,76,76,77,77,78,78,79,79,80,80,81,81,82,82,83,83,84,84,85,85,86,86,87,87,88,88,89,89,90,90,91,91,92,92,93,93,94,94,95,95,96,96,97,97,98,98,99,99,100,100,101,101,102,102,103,103,104,104,105,105,106,106,107,107,108,108,109,109,110,110,111,111,112,112,113,113,114,114,115,115,116,116,117,117,118,118,119,119,120,120,122,122,123,123,124,124,125,125,126,126,127,127,128,128,129,129,130,130,131,131,132,132,133,133,134,134,135,135,136,136,137,137,138,138,139,139,140,140,141,141,142,142,143,143,144,144,145,145,146,146,147,147,148,148,149,149,150,150,151,151,152,152,153,153,154,154,155,155,156,156,157,157,159,159,160,160,161,161,162,162,163,163,164,164,166,166,167,167,168,168,169,169,170,170,171,171,173,173,174,174,175,175,176,176,177,177,178,178,179,179,180,180,181,181,183,183,184,184,185,185,186,186,187,187,188,188,189,189,190,190,191,191,192,192,193,193,194,194,195,195,196,196,197,197,198,198,199,199,200,200,201,201,202,202,203,203,204,204,205,205,206,206,207,207,208,208,209,209,211,211,212,212,213,213,214,214,219,219,220,220,221,221,222,222,223,223,225,225,226,226,228,228,229,229,230,230,231,231,232,232,233,233,234,234,235,235,236,236,237,237,238,238,239,239,240,240,241,241,242,242,243,243,244,244,245,245,246,246,247,247,248,248,249,249,250,250,251,251,252,252],"right_children":[2,4,6,8,10,12,14,16,18,20,22,24,26,28,30,32,34,36,38,40,42,44,46,48,50,52,54,56,58,60,62,64,66,68,70,72,74,76,78,80,82,84,86,88,90,92,94,96,98,100,102,104,106,108,110,112,114,116,118,120,122,124,126,128,130,132,134,136,138,140,142,144,146,148,150,152,154,156,158,160,162,164,166,168,170,172,174,176,178,180,182,184,186,188,190,192,194,196,198,200,202,204,206,208,210,212,214,216,218,220,222,224,226,228,230,232,234,236,238,240,242,-1,244,246,248,250,252,254,256,258,260,262,264,266,268,270,272,274,276,278,280,282,284,286,288,290,292,294,296,298,300,302,304,306,308,310,312,314,-1,316,318,320,322,324,326,-1,328,330,332,334,336,338,-1,340,342,344,346,348,350,352,354,356,-1,358,360,362,364,366,368,370,372,374,376,378,380,382,384,386,388,390,392,394,396,398,400,402,404,406,408,410,-1,412,414,416,418,-1,-1,-1,-1,420,422,424,426,428,-1,430,432,-1,434,436,438,440,442,444,446,448,450,452,454,456,458,460,462,464,466,468,470,472,474,476,478,480,482,-1,-1,-1,-1,-1,-1,-1,-1,-1,-1,-1,-1,-1,-1,-1,-1,-1,-1,-1,-1,-1,-1,-1,-1,-1,-1,-1,-1,-1,-1,-1,-1,-1,-1,-1,-1,-1,-1,-1,-1,-1,-1,-1,-1,-1,-1,-1,-1,-1,-1,-1,-1,-1,-1,-1,-1,-1,-1,-1,-1,-1,-1,-1,-1,-1,-1,-1,-1,-1,-1,-1,-1,-1,-1,-1,-1,-1,-1,-1,-1,-1,-1,-1,-1,-1,-1,-1,-1,-1,-1,-1,-1,-1,-1,-1,-1,-1,-1,-1,-1,-1,-1,-1,-1,-1,-1,-1,-1,-1,-1,-1,-1,-1,-1,-1,-1,-1,-1,-1,-1,-1,-1,-1,-1,-1,-1,-1,-1,-1,-1,-1,-1,-1,-1,-1,-1,-1,-1,-1,-1,-1,-1,-1,-1,-1,-1,-1,-1,-1,-1,-1,-1,-1,-1,-1,-1,-1,-1,-1,-1,-1,-1,-1,-1,-1,-1,-1,-1,-1,-1,-1,-1,-1,-1,-1,-1,-1,-1,-1,-1,-1,-1,-1,-1,-1,-1,-1,-1,-1,-1,-1,-1,-1,-1,-1,-1,-1,-1,-1,-1,-1,-1,-1,-1,-1,-1,-1,-1,-1,-1,-1,-1,-1,-1,-1,-1,-1,-1,-1,-1,-1,-1,-1,-1,-1,-1,-1,-1,-1,-1],"split_conditions":[2.47E1,1.11E1,2.102E1,5E0,5.47E0,6.085E1,2.135E1,2.95E0,3.265E1,2.627E1,1.255E1,1.857E1,8.355E1,1.028E1,1.122E1,2.02E0,3.105E1,4.1E0,5.3E0,1.562E1,2.61E1,1.955E1,4.502E1,4.323E1,4.773E1,1.24E1,3.385E1,3.975E1,6.085E1,3.268E1,3.603E1,3E-1,1.9E0,6.4E-1,1.92E1,2.31E1,7.95E0,2.59E1,1.8E1,1.723E1,3.057E1,1.71E1,9.55E0,1.998E1,2.88E1,2.27E1,1.485E1,1.348E1,1.935E1,2.33E1,4.25E1,4.93E1,1.78E1,2.977E1,7.6E0,4.1E0,9.2E-1,1.172E1,1.172E1,3.292E1,1.38E1,4.117E1,3.032E1,2.085E1,2.9E0,6.05E1,4.83E1,2.112E1,3.15E0,3.46E1,2.3E0,7.195E1,1.83E1,8.122E1,7.07E0,6.32E0,5.42E0,6.05E1,2.36E0,7.75E0,1.844E1,1.693E1,6.08E0,8.43E0,1.42E1,2.117E1,5.265E1,9.25E0,2.1E1,2.23E1,1.0293E2,1.677E1,9.55E0,5.822E1,2.315E1,3.148E1,2.805E1,9.55E0,2.49E0,1.8E1,3.035E1,1.888E1,2.315E1,1.57E1,5.78E0,1.46E1,1.51E1,3.85E0,1.603E1,1.0957E2,4.165E1,2.76E1,1.735E1,1.395E1,6.838E1,4.852E1,1.51E1,3.58E1,1.357E1,2.52E0,9.12E0,-3.4355706E-1,2.805E1,1.935E1,4.83E1,3.415E1,8.693E1,1.8E-1,1.3556E2,9E0,2.25E0,3.345E1,9.977E1,1.286E1,7.195E1,9.45E0,2.76E1,4.038E1,3.97E0,3.603E1,-3.1E-1,1.95E1,6.05E1,1.235E1,1.603E1,1.07E0,2.645E1,6.8E0,1.225E1,2.21E1,2.25E0,2.63E0,1.843E1,2.568E1,9.38E0,4.62E1,1.101E1,7.75E0,6.2249184E-1,2.914E1,3.848E1,1.59E0,3.46E1,8.12E0,2.188E1,7.010881E-1,1.62E1,1.278E1,1.665E1,1.769E1,2.25E1,1.378E1,-4.969705E-1,1.377E1,1.1344E2,1.8374E2,1.525E1,2.188E1,5.6E0,1.51E1,7.65E0,8.93E0,1.8424767E0,2.715E1,2.25E1,2.76E1,2.265E1,2.975E1,2.13E0,1.998E1,5.6E0,2.432E1,2.617E1,2.975E1,1.337E1,3.53E0,4.852E1,3.21E1,4.3E-1,9.8E0,1.905E1,2E1,1.495E1,2.98E1,1.1156E2,7.025E1,1.56E1,3E-1,1.98E0,2.952E1,-3.2683206E-1,6.628E1,1.2753E2,1.857E1,1.378E1,9.4805235E-1,-6.157552E-1,-8.036933E-2,2.0955288E0,3.006E1,5.87E0,7.17E0,2.65E0,3.93E0,-2.4287872E-1,5.5E0,7.2E-1,-3.834215E-1,2.627E1,2E1,-1.1E-1,9.32E0,1.41E0,5.01E1,3.15E0,1.434E1,3.785E1,1.765E1,3.44E1,2.21E1,4.25E1,3.69E1,5.938E1,1.1539E2,1.889E1,6.628E1,2.59E1,6.34E1,5.465E1,5.822E1,1.7191E2,3.562E1,2.391E1,5.628519E-2,-1.6749565E-1,-6.5760416E-1,-1.6750573E-1,-5.770188E-1,5.815343E-1,-1.2315607E-1,-7.1922284E-1,-6.5057373E-1,-3.1022662E-1,1.5737079E0,3.7230206E-1,-4.9800935E-1,-6.349489E-1,-7.327227E-1,-1.3718913E-1,1.1248053E0,-5.2522546E-1,-3.1743142E-1,2.809118E0,-5.3041E-1,-1.6832402E-1,-6.258378E-1,-5.459985E-1,-4.380965E-1,1.1166791E-1,-2.022448E-2,7.796514E-1,-4.4055772E-1,3.8312286E-1,-4.8104057E-1,-6.6979665E-1,-1.9551323E-1,-4.396022E-1,1.2033585E0,-1.9262706E-1,-6.778767E-2,-4.1276503E-1,4.8878074E-1,-1.801099E-1,-5.320269E-1,-4.5748565E-1,1.3065728E0,-4.0756917E-1,-1.07270375E-1,-4.0855914E-1,9.166449E-1,-4.2791358E-1,2.8438607E-2,-4.152474E-1,-1.8961874E-1,3.213873E-1,3.9657098E-1,-3.2439438E-1,8.7570155E-1,5.301104E-2,-3.2846138E-1,1.0645218E-1,1.2389611E0,1.3192545E-1,-5.025794E-1,-3.0281395E-1,4.0632746E-1,-1.1594474E-1,-1.4191802E-1,3.091714E-1,-4.852626E-1,3.8075063E-1,-2.3795967E-1,6.7169636E-1,4.459033E-1,1.3738027E-1,1.1044421E0,-3.7814847E-1,8.117512E-2,-4.0851435E-1,1.506704E-1,6.4368683E-1,1.4052291E-1,-1.4967704E-1,5.3519183E-1,1.1066636E0,3.3524942E-1,-3.199105E-1,9.6540767E-1,1.6707629E0,3.4601402E-1,-1.860482E-1,2.2736251E0,2.9724155E-2,-1.2286245E-2,1.0498433E0,-1.363556E-1,-3.4202775E-1,3.59434E-1,7.0634045E-2,2.6985312E-1,-4.947858E-1,-2.9085398E-2,3.408707E-1,1.2364107E0,3.3837184E-1,6.255941E-1,-2.7831775E-1,-2.7141422E-1,5.478987E-1,-7.536736E-2,1.1796403E0,-9.299379E-2,8.871088E-1,-2.9186884E-1,-4.9193802E-1,4.4379202E-1,1.3653505E0,-1.2627701E-1,-5.315379E-1,-7.550208E-2,5.646908E-1,5.9120256E-1,-3.8756755E-1,6.8807966E-1,3.169962E-1,9.059491E-1,5.803523E-1,4.413032E-2,-4.801166E-1,1.6994246E0,5.3106385E-1,-1.565402E-1,1.3679322E0,7.2759753E-1,1.1658797E0,4.9986288E-1,-3.285809E-1,8.30647E-1,-3.9154622E-1,1.1951591E0,7.553836E-1,1.3564658E-1,9.8415816E-1,1.4039888E0,2.067288E0,1.3030535E0,5.648359E-1,2.7142513E0,2.1443374E0,-6.674757E-2,1.5692832E0,1.6918808E0,-3.5482183E-1,1.3606482E0,-6.676217E-2,-3.7742283E-2,4.6683142E-1,1.593574E0,3.2919357E0,2.4155252E0,1.3603895E0,1.8428824E0,2.2540882E0,1.4759003E0,-7.944226E-2,1.1103861E0,-2.0973007E-1,-2.0847805E-1,1.7358376E0,2.1632488E0,1.2915349E-1,-1.05761625E-1,-4.6056876E-1,1.6954988E0,3.0784488E0,-2.2745824E-1,5.569811E-1,-5.2352745E-2,1.3829899E0,-2.3590215E-1,7.1665514E-1,-2.0882086E-1,1.4920925E-1,1.6175174E0,2.6383235E0,1.4766496E0,-8.5814126E-2,-4.157807E-1,-6.655007E-2,2.6711673E-1,6.6458595E-1,9.116352E-1,3.5711524E-1,-8.078825E-2,2.191669E-1,1.3445531E0,3.7550744E-1,2.136267E0,5.4696435E-1,-1.7319012E-1,1.3338964E0,5.732042E-1,-1.10101454E-1,4.219652E-1,1.5694232E0,8.2772154E-1,-2.2957371E-1,-2.6699165E-1,1.17843E0,6.50583E-1,3.0651882E0,8.4462065E-1,-1.7932981E-1,-1.657859E-1,1.5861629E0,2.8068342E0,-3.5430646E-1,-4.7032496E-1,-2.2884022E-2,5.8546543E-1,-1.0503917E-2,-6.455688E-1,-2.3851381E-1,3.7225196E-1,-3.9396554E-1,-4.303046E-1,9.0326804E-1,2.5059555E0,5.801963E-1,-3.0857667E-1,6.6334087E-1,4.7215383E-2,1.0911859E0],"split_indices":[8,8,18,8,10,8,13,8,17,17,18,16,8,10,10,8,17,9,9,8,14,17,17,8,8,10,9,8,8,2,16,0,9,0,18,17,8,14,18,18,16,8,9,8,16,13,9,13,13,17,9,9,13,16,17,10,6,13,13,17,17,13,18,16,17,18,16,3,9,14,9,16,14,14,9,8,8,14,5,9,3,14,3,9,9,3,14,9,13,14,0,8,9,10,9,8,17,18,4,13,9,18,10,16,4,18,16,10,2,8,13,9,13,9,8,8,14,10,14,6,9,0,16,14,14,17,8,0,1,1,13,14,0,2,18,16,10,18,8,16,5,13,14,18,2,4,13,8,9,18,17,9,14,18,10,17,3,8,0,2,14,5,18,18,9,0,13,8,18,2,13,8,0,9,0,0,13,9,10,8,9,3,0,14,13,17,9,14,4,8,10,9,10,13,2,17,8,10,5,10,17,14,13,9,0,9,13,0,10,14,0,8,1,13,10,0,0,0,0,2,0,16,0,9,0,14,6,0,18,13,5,14,5,8,1,3,10,13,0,13,8,16,17,0,3,8,13,8,18,8,0,2,2,0,0,0,0,0,0,0,0,0,0,0,0,0,0,0,0,0,0,0,0,0,0,0,0,0,0,0,0,0,0,0,0,0,0,0,0,0,0,0,0,0,0,0,0,0,0,0,0,0,0,0,0,0,0,0,0,0,0,0,0,0,0,0,0,0,0,0,0,0,0,0,0,0,0,0,0,0,0,0,0,0,0,0,0,0,0,0,0,0,0,0,0,0,0,0,0,0,0,0,0,0,0,0,0,0,0,0,0,0,0,0,0,0,0,0,0,0,0,0,0,0,0,0,0,0,0,0,0,0,0,0,0,0,0,0,0,0,0,0,0,0,0,0,0,0,0,0,0,0,0,0,0,0,0,0,0,0,0,0,0,0,0,0,0,0,0,0,0,0,0,0,0,0,0,0,0,0,0,0,0,0,0,0,0,0,0,0,0,0,0,0,0,0,0,0,0,0,0,0,0,0,0,0,0,0,0,0,0,0,0,0,0,0,0,0,0,0,0,0,0,0,0,0,0,0,0,0,0,0,0],"split_type":[0,0,0,0,0,0,0,0,0,0,0,0,0,0,0,0,0,0,0,0,0,0,0,0,0,0,0,0,0,0,0,0,0,0,0,0,0,0,0,0,0,0,0,0,0,0,0,0,0,0,0,0,0,0,0,0,0,0,0,0,0,0,0,0,0,0,0,0,0,0,0,0,0,0,0,0,0,0,0,0,0,0,0,0,0,0,0,0,0,0,0,0,0,0,0,0,0,0,0,0,0,0,0,0,0,0,0,0,0,0,0,0,0,0,0,0,0,0,0,0,0,0,0,0,0,0,0,0,0,0,0,0,0,0,0,0,0,0,0,0,0,0,0,0,0,0,0,0,0,0,0,0,0,0,0,0,0,0,0,0,0,0,0,0,0,0,0,0,0,0,0,0,0,0,0,0,0,0,0,0,0,0,0,0,0,0,0,0,0,0,0,0,0,0,0,0,0,0,0,0,0,0,0,0,0,0,0,0,0,0,0,0,0,0,0,0,0,0,0,0,0,0,0,0,0,0,0,0,0,0,0,0,0,0,0,0,0,0,0,0,0,0,0,0,0,0,0,0,0,0,0,0,0,0,0,0,0,0,0,0,0,0,0,0,0,0,0,0,0,0,0,0,0,0,0,0,0,0,0,0,0,0,0,0,0,0,0,0,0,0,0,0,0,0,0,0,0,0,0,0,0,0,0,0,0,0,0,0,0,0,0,0,0,0,0,0,0,0,0,0,0,0,0,0,0,0,0,0,0,0,0,0,0,0,0,0,0,0,0,0,0,0,0,0,0,0,0,0,0,0,0,0,0,0,0,0,0,0,0,0,0,0,0,0,0,0,0,0,0,0,0,0,0,0,0,0,0,0,0,0,0,0,0,0,0,0,0,0,0,0,0,0,0,0,0,0,0,0,0,0,0,0,0,0,0,0,0,0,0,0,0,0,0,0,0,0,0,0,0,0,0,0,0,0,0,0,0,0,0,0,0,0,0,0,0,0,0,0,0,0,0,0,0,0,0,0,0,0,0,0,0,0,0,0,0,0,0,0,0,0,0,0,0,0,0,0,0,0,0,0,0,0,0,0,0,0,0,0,0,0,0,0,0],"sum_hessian":[1.6831E4,1.2355E4,4.476E3,9.212E3,3.143E3,2.978E3,1.498E3,5.153E3,4.059E3,7.68E2,2.375E3,2.199E3,7.79E2,7.22E2,7.76E2,2.022E3,3.131E3,3.347E3,7.12E2,4.39E2,3.29E2,8.14E2,1.561E3,1.341E3,8.58E2,5.32E2,2.47E2,1.18E2,6.04E2,1.36E2,6.4E2,7.71E2,1.251E3,2.279E3,8.52E2,2.96E2,3.051E3,2.77E2,4.35E2,2.24E2,2.15E2,2.1E2,1.19E2,6.19E2,1.95E2,1.444E3,1.17E2,8.49E2,4.92E2,5.69E2,2.89E2,1.82E2,3.5E2,1E1,2.37E2,6.3E1,5.5E1,4.51E2,1.53E2,1.07E2,2.9E1,5.67E2,7.3E1,1.3E1,7.58E2,1.25E2,1.126E3,7.3E1,2.206E3,1.92E2,6.6E2,2.26E2,7E1,1.884E3,1.167E3,1.12E2,1.65E2,1.39E2,2.96E2,1.48E2,7.6E1,1.61E2,5.4E1,1.18E2,9.2E1,8.8E1,3.1E1,4.57E2,1.62E2,1.8E2,1.5E1,8.88E2,5.56E2,4.8E1,6.9E1,6.62E2,1.87E2,4.56E2,3.6E1,2.37E2,3.32E2,1.23E2,1.66E2,6.1E1,1.21E2,3.19E2,3.1E1,7E0,3E0,1.2E1,2.25E2,3.2E1,3.1E1,3E1,2.5E1,1.62E2,2.89E2,5.5E1,9.8E1,6E1,4.7E1,2E0,2.7E1,3.56E2,2.11E2,1.8E1,5.5E1,3E0,1E1,6E0,7.52E2,1.23E2,2E0,9.59E2,1.67E2,6.9E1,4E0,3.96E2,1.81E3,1.52E2,4E1,2.6E1,6.34E2,2.23E2,3E0,2.7E1,4.3E1,1.879E3,5E0,2.57E2,9.1E2,5.1E1,6.1E1,4E1,1.25E2,1.3E2,9E0,2.94E2,2E0,3.7E1,1.11E2,5.6E1,2E1,1.24E2,3.7E1,2E0,5.2E1,7.1E1,4.7E1,6.6E1,2.6E1,8.6E1,2E0,2.6E1,5E0,5.9E1,3.98E2,1.51E2,1.1E1,1.64E2,1.6E1,8E0,7E0,4.7E2,4.18E2,5.9E1,4.97E2,4.1E1,7E0,3.6E1,3.3E1,2.66E2,3.96E2,1.6E2,2.7E1,2.61E2,1.95E2,2.8E1,8E0,1.75E2,6.2E1,2.41E2,9.1E1,1.18E2,5E0,1.22E2,4.4E1,2E0,5.9E1,1.2E2,1E0,2.73E2,4.6E1,1.3E1,1.8E1,2E0,5E0,1E0,2E0,1E1,2E0,2.23E2,2E0,3E1,2E0,2.5E1,6E0,2E0,2.8E1,2E1,5E0,1.19E2,4.3E1,2.04E2,8.5E1,1.3E1,4.2E1,6.2E1,3.6E1,5E1,1E1,8E0,3.9E1,5E0,2.2E1,2.28E2,1.28E2,1.86E2,2.5E1,1.1E1,7E0,4.7E1,8E0,2E0,1E0,7E0,3E0,5E0,1E0,1E0,7.51E2,7.8E1,4.5E1,1E0,1E0,1.06E2,8.53E2,1.66E2,1E0,6E0,6.3E1,2E0,2E0,3.55E2,4.1E1,8.47E2,9.63E2,1.35E2,1.7E1,3E1,1E1,1.2E1,1.4E1,5.37E2,9.7E1,7E1,1.53E2,1E0,2E0,1.7E1,1E1,2.7E1,1.6E1,1.289E3,5.9E2,3E0,2E0,1.96E2,6.1E1,2E0,9.08E2,4E0,4.7E1,3.9E1,2.2E1,1.6E1,2.4E1,1E2,2.5E1,9.4E1,3.6E1,7E0,2E0,1.84E2,1.1E2,2E1,1.7E1,1.07E2,4E0,5.5E1,1E0,1.5E1,5E0,6.4E1,6E1,3.6E1,1E0,2.5E1,2.7E1,2.8E1,4.3E1,3.2E1,1.5E1,2E1,4.6E1,2E1,6E0,2.8E1,5.8E1,1.4E1,1.2E1,3E0,2E0,5.5E1,4E0,3.05E2,9.3E1,8.5E1,6.6E1,1E0,1E1,6.1E1,1.03E2,9E0,7E0,6E0,2E0,4.58E2,1.2E1,4.16E2,2E0,4.9E1,1E1,2.07E2,2.9E2,2.4E1,1.7E1,4E0,3E0,2.9E1,7E0,1E0,3.2E1,1.24E2,1.42E2,2.66E2,1.3E2,1.35E2,2.5E1,4E0,2.3E1,4E0,2.57E2,7.9E1,1.16E2,5E0,2.3E1,7E0,1E0,1.04E2,7.1E1,4.4E1,1.8E1,1.27E2,1.14E2,6E1,3.1E1,4.2E1,7.6E1,3E0,2E0,1.21E2,1E0,3.4E1,1E1,1E0,1E0,4E0,5.5E1,1.14E2,6E0,7.3E1,2E2,4.5E1,1E0,4E0,9E0,3E0,1.5E1,9E0,1E0,1E0,1E0,1.2E1,2.11E2,1E0,1E0,2E0,2.8E1,2E0,2.3E1,4E0,2E0,8E0,2E1,1.8E1,2E0,4E0,1E0,7.6E1,4.3E1,3.9E1,4E0,1.31E2,7.3E1,6E0,7.9E1,1.2E1,1E0,2E0,4E1,4.4E1,1.8E1,8E0,2.8E1,3E0,4.7E1,4E0,6E0,3E0,5E0,2.7E1,1.2E1,3E0,2E0,2.1E1,1E0,1.88E2,4E1,2.2E1,1.06E2,1.61E2,2.5E1,1.1E1,1.4E1,5E0,6E0,6E0,1E0,3.9E1,8E0,2E0,6E0],"tree_param":{"num_deleted":"0","num_feature":"19","num_nodes":"483","size_leaf_vector":"1"}},{"base_weights":[1.2598256E-2,-7.6337876E0,2.7231833E1,-1.0926977E1,8.9779365E-1,1.9783453E1,4.7794983E1,-1.24661E1,-8.095883E0,-1.5734459E0,6.3341694E0,1.1826112E1,2.659829E1,4.0941383E1,5.763256E1,-1.3350002E1,-1.1237283E1,-4.5964427E0,-8.796631E0,-3.9312956E0,1.273395E0,2.5804372E0,1.0652456E1,1.5547339E1,5.8631096E0,2.1749107E1,3.1098911E1,2.7166363E1,4.4152477E1,5.137748E1,6.48374E1,-1.4454292E1,-1.2796432E1,-9.745432E0,-1.1752829E1,-6.292616E0,1.203806E0,-9.92925E0,-7.4405365E0,1.4533335E0,-5.238846E0,3.2367113E0,-4.9270473E0,1.1277049E1,4.5368224E-1,1.7757322E1,6.206547E0,1.0543207E1,1.8442297E1,1.2755179E1,2.1030867E0,3.4204052E1,1.9789808E1,4.0660187E1,2.8051006E1,3.8468407E1,1.4105454E1,5.0932533E1,4.1643623E1,3.72644E1,5.393621E1,5.653967E-1,6.536641E1,-8.798351E0,-7.2377795E-1,1.3046116E0,-1.287397E1,1.786714E1,-9.938101E0,-1.1920886E1,-9.446172E0,7.1796565E0,-6.5618377E0,-4.6118026E0,5.9376297E0,-1.0127672E1,-7.183838E-2,-5.723413E0,-8.692606E0,-4.7110023E0,3.4609294E0,-3.9700809E0,-7.705267E0,1.5336697E0,7.23296E0,-7.233179E0,-1.5364921E0,5.940617E0,1.37426605E1,1.4350581E0,-5.744317E0,2.3094666E1,1.3626445E1,8.907407E0,9.4111365E-1,1.1675757E1,1.8056065E0,1.5035716E1,2.2405281E1,7.2005486E0,1.7123089E1,-5.5540997E-1,1.2960426E1,2.4032695E0,1.6364759E0,1.5102549E1,2.1979198E1,4.0974743E1,-3.990087E-1,3.0772785E1,2.2330883E1,1.7473593E1,4.2824924E1,2.6253662E1,8.759896E0,-1.2937541E-1,5.1392433E1,3.791203E1,4.5158577E1,4.985146E1,2.6416338E1,5.8146374E1,4.7330578E1,6.571127E1,8.229375E-2,-4.9427032E-2,-6.1440176E-1,-9.458106E0,3.5304985E0,-1.2910478E1,3.7288606E0,1.880283E0,-3.9135465E-1,-1.0876735E1,-7.157395E0,-7.2886114E0,-1.1971958E1,-9.728768E0,7.1054554E-1,-1.685677E0,1.9525582E0,-6.893402E0,2.3860629E0,-3.5547407E0,-7.6800866E0,8.7508335E0,-4.279684E0,-1.0163885E1,5.6048226E-1,2.603047E0,-5.4624066E0,-5.8593607E0,2.0609692E1,-8.806407E0,9.706342E0,7.528423E0,-5.819479E0,2.2967327E0,3.027555E0,-4.880133E0,-1.6321108E0,-7.8663006E0,1.3210839E0,5.9065304E0,2.4738198E-2,1.1461778E1,5.289809E0,-3.846639E0,-1.0740964E1,-3.927534E0,2.031494E0,2.733533E0,9.011025E0,1.4817302E1,-2.3390102E0,-7.172889E-1,5.4432054E0,-1.5844941E0,-7.569248E0,2.8200256E1,1.865041E1,-3.5484284E-1,1.38642235E1,4.5309973E0,1.0502861E1,1.5477377E1,1.2482944E-1,7.0575323E0,1.3106247E1,-1.1590687E0,9.036734E0,1.3022354E1,2.4140055E1,2.6611578E1,1.7883451E1,2.2069721E0,1.03409815E1,1.3818736E1,2.2154705E1,-2.6869597E0,6.381384E0,4.092017E1,1.0326649E1,2.0100294E1,1.03440275E1,2.765398E1,1.8948387E1,4.6597782E1,3.6702972E1,2.7788967E1,3.3628742E1,2.4896175E1,8.8867445E0,5.587856E0,1.421401E0,5.268831E1,3.2073147E1,3.3115757E-1,1.4292469E0,1.3911874E1,-4.107251E-1,5.163986E1,5.363466E-1,3.8151295E1,1.139719E1,4.532121E1,4.2150852E-1,5.767693E1,1.3598092E0,-3.6933262E0,3.1364882E1,4.547721E1,6.0508945E1,2.3986905E0,7.736468E-1,6.0245495E1,7.34397E1,-3.721939E-1,3.6848688E-1,3.9031282E-1,-5.7736623E-1,-5.491479E-1,-6.540814E-1,1.89872E0,-5.3575635E-1,1.7979296E-1,-5.5008537E-1,7.572462E-2,-3.8242576E-1,2.8109863E-1,-5.234981E-1,-5.9914917E-1,-7.567432E-2,2.2191344E-1,-4.9885222E-1,2.061018E-1,-2.997356E-1,-4.2850873E-1,-2.4445601E-1,2.549445E0,-4.099632E-1,-1.2580447E-1,-3.2681912E-1,-2.0436314E-1,-4.6109802E-1,2.425317E0,3.5730362E-1,3.355914E-1,-3.1646582E-1,-5.27169E-1,-4.3348318E-1,2.10519E0,-4.3324533E-1,-3.4684512E-1,-1.8626265E-1,1.7566913E0,-2.1096444E-1,5.9602445E-1,-4.4255337E-1,-8.85289E-2,8.973908E-1,8.803007E-1,-9.559383E-2,-3.1190068E-1,2.2455175E-1,9.228364E-2,6.6194636E-1,-2.978725E-1,-2.0715939E-1,1.4711792E-2,-1.3717245E-1,-2.0640889E-1,-4.4637567E-1,3.6372146E-1,-6.3360888E-3,4.030617E-2,-1.5169263E-1,1.0591797E0,4.8157206E-1,-3.7042144E-1,2.8851283E-1,-2.193536E-1,1.0387435E0,-5.673148E-1,3.0413533E-2,-2.4295215E-1,3.2539496E-1,2.4425266E-2,4.6498138E-1,1.8968955E-1,-7.090255E-2,5.160944E-1,-9.289098E-2,6.1582804E-1,1.1790797E0,-3.032223E-1,1.7039537E-1,-6.0390063E-2,6.3236624E-1,2.1227479E-1,5.7771426E-1,4.3576993E-2,-3.4859648E-1,-4.156754E-1,3.0588612E-1,2.0950031E-1,1.4360921E0,1.6682468E-1,9.778453E-1,6.7027014E-1,1.6771897E0,2.5137386E-1,-3.2889768E-1,6.152464E-1,4.1333175E-1,1.9423948E-1,1.2887517E0,1.4849691E-1,-1.5566161E-1,-2.7596733E-1,3.8952917E-1,8.6661685E-1,5.596756E-1,8.9740056E-1,-1.3515155E-1,5.1399106E-1,-5.3776123E-2,9.899177E-1,3.1557927E-1,2.6385643E0,9.737558E-1,1.0882412E0,1.451779E0,1.0023016E0,5.021238E-1,3.5361585E-1,-2.1030562E-1,6.7552745E-1,4.1346255E-1,6.0777526E-2,7.59829E-1,1.1333956E0,1.0481067E-1,-1.8839943E-1,3.480221E-1,4.2356953E-1,-2.4578945E-1,6.280051E-1,2.782009E0,-2.6235899E-2,6.584423E-1,1.1272421E0,8.536024E-1,5.8386934E-1,-1.6786408E-1,1.3456463E0,3.322097E0,9.840938E-1,4.569717E-1,4.919897E-1,2.3483264E0,1.8530143E0,-2.9306889E-2,3.6619138E-2,1.3961982E0,2.4705696E-1,1.687589E0,8.77953E-1,1.3067001E0,-3.6606765E-1,5.7318324E-1,-1.915069E-1,5.060541E-1,2.8245084E0,9.7782487E-1,2.1196468E0,1.0839554E0,1.8706848E-1,8.133716E-1,-2.4969271E-1,6.7206717E-1,2.5931678E0,6.2051505E-1,1.420751E0,1.9445552E0,-7.745619E-2,9.3224543E-1,2.2775476E0,8.521209E-1,8.123514E-1,3.0097609E0,3.0278346E-1,-4.480774E-1,1.8999983E0,-1.5083408E-1,5.091364E-1,2.4328244E0,3.056568E0,1.124844E0,3.3637383E0,2.7495906E0,3.6945138E0,1.0587505E0],"categories":[],"categories_nodes":[],"categories_segments":[],"categories_sizes":[],"default_left":[0,0,0,0,0,0,0,0,0,0,0,0,0,0,0,0,0,0,0,0,0,0,0,0,0,0,0,0,0,0,0,0,0,0,0,0,0,0,0,0,0,0,0,0,0,0,0,0,0,0,0,0,0,0,0,0,0,0,0,0,0,0,0,0,0,0,0,0,0,0,0,0,0,0,0,0,0,0,0,0,0,0,0,0,0,0,0,0,0,0,0,0,0,0,0,0,0,0,0,0,0,0,0,0,0,0,0,0,0,0,0,0,0,0,0,0,0,0,0,0,0,0,0,0,0,0,0,0,0,0,0,0,0,0,0,0,0,0,0,0,0,0,0,0,0,0,0,0,0,0,0,0,0,0,0,0,0,0,0,0,0,0,0,0,0,0,0,0,0,0,0,0,0,0,0,0,0,0,0,0,0,0,0,0,0,0,0,0,0,0,0,0,0,0,0,0,0,0,0,0,0,0,0,0,0,0,0,0,0,0,0,0,0,0,0,0,0,0,0,0,0,0,0,0,0,0,0,0,0,0,0,0,0,0,0,0,0,0,0,0,0,0,0,0,0,0,0,0,0,0,0,0,0,0,0,0,0,0,0,0,0,0,0,0,0,0,0,0,0,0,0,0,0,0,0,0,0,0,0,0,0,0,0,0,0,0,0,0,0,0,0,0,0,0,0,0,0,0,0,0,0,0,0,0,0,0,0,0,0,0,0,0,0,0,0,0,0,0,0,0,0,0,0,0,0,0,0,0,0,0,0,0,0,0,0,0,0,0,0,0,0,0,0,0,0,0,0,0,0,0,0,0,0,0,0,0,0,0,0,0,0,0,0,0,0,0,0,0,0,0,0,0,0,0,0,0,0,0,0,0,0,0,0,0,0,0,0,0,0,0,0,0,0,0,0,0,0,0,0,0,0,0,0,0,0,0,0,0,0,0,0,0,0,0,0,0,0,0,0,0,0,0,0],"id":3,"left_children":[1,3,5,7,9,11,13,15,17,19,21,23,25,27,29,31,33,35,37,39,41,43,45,47,49,51,53,55,57,59,61,63,65,67,69,71,73,75,77,79,81,83,85,87,89,91,93,95,97,99,101,103,105,107,109,111,113,115,117,119,121,-1,123,125,-1,127,129,131,133,135,137,139,141,143,145,147,149,151,153,155,157,159,161,163,165,167,169,171,173,175,177,179,181,183,185,187,189,191,193,195,197,199,201,-1,-1,203,205,207,-1,209,211,213,215,217,219,-1,221,223,225,227,229,231,233,235,-1,237,-1,239,-1,241,243,-1,-1,245,247,249,251,253,-1,255,-1,257,259,261,263,265,267,269,-1,-1,271,273,275,277,279,281,283,-1,285,287,289,291,-1,293,295,297,299,301,303,305,307,309,311,313,315,317,319,321,323,325,327,-1,329,331,333,335,337,339,341,343,345,347,349,351,353,355,357,359,361,363,365,367,369,371,373,375,377,379,381,383,385,387,389,391,-1,393,395,-1,-1,397,399,401,-1,403,405,407,-1,409,-1,411,413,415,417,-1,-1,419,421,-1,-1,-1,-1,-1,-1,-1,-1,-1,-1,-1,-1,-1,-1,-1,-1,-1,-1,-1,-1,-1,-1,-1,-1,-1,-1,-1,-1,-1,-1,-1,-1,-1,-1,-1,-1,-1,-1,-1,-1,-1,-1,-1,-1,-1,-1,-1,-1,-1,-1,-1,-1,-1,-1,-1,-1,-1,-1,-1,-1,-1,-1,-1,-1,-1,-1,-1,-1,-1,-1,-1,-1,-1,-1,-1,-1,-1,-1,-1,-1,-1,-1,-1,-1,-1,-1,-1,-1,-1,-1,-1,-1,-1,-1,-1,-1,-1,-1,-1,-1,-1,-1,-1,-1,-1,-1,-1,-1,-1,-1,-1,-1,-1,-1,-1,-1,-1,-1,-1,-1,-1,-1,-1,-1,-1,-1,-1,-1,-1,-1,-1,-1,-1,-1,-1,-1,-1,-1,-1,-1,-1,-1,-1,-1,-1,-1,-1,-1,-1,-1,-1,-1,-1,-1,-1,-1,-1,-1,-1,-1,-1,-1,-1,-1,-1,-1,-1,-1,-1,-1,-1,-1,-1,-1,-1,-1,-1,-1,-1,-1,-1,-1,-1,-1,-1,-1],"loss_changes":[3.5180005E6,3.707662E5,5.668265E5,4.1385875E4,4.9395508E4,1.4734825E5,6.4052E4,6.5471875E3,8.1892344E3,1.697401E4,1.859745E4,2.7823484E4,3.1318125E4,2.4632438E4,1.4785625E4,2.004125E3,1.8744375E3,5.536658E3,4.219078E3,9.744865E3,1.3966698E4,1.138815E4,1.6757555E4,1.10183125E4,1.2541629E4,1.6624812E4,2.0948938E4,1.6137875E4,5.9078125E3,5.934625E3,4.443E3,1.5546875E1,2.6343438E3,3.7420156E3,6.305E2,1.6248711E3,3.5512317E3,2.9722812E3,2.6935938E3,3.370064E3,3.45233E3,5.91674E3,2.1469492E3,1.5104258E3,3.0251963E3,4.205129E3,4.6846123E3,2.8091055E3,6.2647188E3,4.0255293E3,9.099422E3,3.6854688E2,5.979328E3,3.0963438E3,8.311656E3,4.739547E3,3.2767236E3,3.1604688E3,2.8786875E3,3.7352773E3,2.365125E3,0E0,3.86925E3,2.131095E2,0E0,1.1110633E4,1.4913438E3,2.8301736E3,1.6604531E3,3.345625E2,1.0407871E3,2.6087915E3,1.2832734E3,1.6081458E2,2.0782312E3,1.2652344E3,8.996162E3,2.057502E3,1.6265234E3,9.528082E2,3.6343704E3,1.5601299E3,2.2796758E3,4.0380427E3,2.0758496E3,1.9068809E3,9.7200494E2,3.6925037E2,1.4517842E3,3.704855E3,5.0422144E2,1.4708203E3,6.798457E2,1.4745664E3,1.3388947E3,1.5789062E3,7.3936426E2,4.561504E3,3.7846172E3,1.1846909E3,1.2733457E3,3.7728215E3,4.1430967E3,0E0,0E0,4.5246797E3,6.6480625E3,2.6134062E3,0E0,2.3804062E3,6.3315E3,1.4035657E3,3.5065156E3,5.429043E2,1.8483403E3,0E0,6.735625E2,6.817656E2,6.6321875E2,1.2680156E3,3.3938184E3,4.8084375E2,8.355781E2,3.179125E3,0E0,2.1944139E2,0E0,5.590386E2,0E0,6.40125E2,3.3747532E3,0E0,0E0,9.3666406E2,7.398623E2,9.624701E2,1.8501562E2,5.1560254E2,0E0,2.2491553E2,0E0,1.3427188E3,8.649701E3,1.2291376E2,3.9862854E1,3.226062E3,4.0293814E2,7.523594E2,0E0,0E0,4.782418E3,1.2136367E3,1.2300983E3,7.831133E2,5.0471164E2,6.044734E2,2.955642E2,0E0,2.4375679E3,3.9609766E2,4.460982E2,1.4547148E3,0E0,1.2966235E3,1.0922573E3,1.2373018E3,1.1408994E3,1.2221746E3,5.5650586E2,6.9262976E2,5.1133087E2,9.781653E1,3.041272E2,1.3971816E3,1.491257E2,1.8508176E3,1.0488408E3,2.971743E2,5.296321E2,3.6806836E2,6.2884766E2,0E0,6.0677344E2,3.6399292E2,5.3902344E2,6.161283E2,1.0042109E3,6.146072E2,1.358E3,7.8602924E2,1.367602E2,9.878914E3,5.2497324E3,7.07375E2,1.6808828E3,9.9700494E2,1.9690283E2,1.02343945E3,3.2307227E2,2.059905E3,1.4583137E3,1.388457E3,1.7957305E3,3.2576953E2,1.9391553E3,2.3222578E3,1.7986797E3,5.408594E2,1.447375E3,6.954531E2,5.1796875E2,9.8516406E2,1.4204724E3,3.3762234E2,0E0,1.9183516E3,1.869832E3,0E0,0E0,5.380679E2,1.0194112E3,4.1725E2,0E0,1.4821875E2,3.1037698E2,3.5415625E2,0E0,1.6966797E2,0E0,2.597076E2,4.449002E3,1.8609688E3,7.0675E2,0E0,0E0,3.9965625E2,8.38125E1,0E0,0E0,0E0,0E0,0E0,0E0,0E0,0E0,0E0,0E0,0E0,0E0,0E0,0E0,0E0,0E0,0E0,0E0,0E0,0E0,0E0,0E0,0E0,0E0,0E0,0E0,0E0,0E0,0E0,0E0,0E0,0E0,0E0,0E0,0E0,0E0,0E0,0E0,0E0,0E0,0E0,0E0,0E0,0E0,0E0,0E0,0E0,0E0,0E0,0E0,0E0,0E0,0E0,0E0,0E0,0E0,0E0,0E0,0E0,0E0,0E0,0E0,0E0,0E0,0E0,0E0,0E0,0E0,0E0,0E0,0E0,0E0,0E0,0E0,0E0,0E0,0E0,0E0,0E0,0E0,0E0,0E0,0E0,0E0,0E0,0E0,0E0,0E0,0E0,0E0,0E0,0E0,0E0,0E0,0E0,0E0,0E0,0E0,0E0,0E0,0E0,0E0,0E0,0E0,0E0,0E0,0E0,0E0,0E0,0E0,0E0,0E0,0E0,0E0,0E0,0E0,0E0,0E0,0E0,0E0,0E0,0E0,0E0,0E0,0E0,0E0,0E0,0E0,0E0,0E0,0E0,0E0,0E0,0E0,0E0,0E0,0E0,0E0,0E0,0E0,0E0,0E0,0E0,0E0,0E0,0E0,0E0,0E0,0E0,0E0,0E0,0E0,0E0,0E0,0E0,0E0,0E0,0E0,0E0,0E0,0E0,0E0,0E0,0E0,0E0,0E0,0E0,0E0,0E0,0E0,0E0,0E0,0E0,0E0,0E0,0E0,0E0,0E0,0E0,0E0,0E0,0E0,0E0,0E0,0E0,0E0],"parents":[2147483647,0,0,1,1,2,2,3,3,4,4,5,5,6,6,7,7,8,8,9,9,10,10,11,11,12,12,13,13,14,14,15,15,16,16,17,17,18,18,19,19,20,20,21,21,22,22,23,23,24,24,25,25,26,26,27,27,28,28,29,29,30,30,31,31,32,32,33,33,34,34,35,35,36,36,37,37,38,38,39,39,40,40,41,41,42,42,43,43,44,44,45,45,46,46,47,47,48,48,49,49,50,50,51,51,52,52,53,53,54,54,55,55,56,56,57,57,58,58,59,59,60,60,62,62,63,63,65,65,66,66,67,67,68,68,69,69,70,70,71,71,72,72,73,73,74,74,75,75,76,76,77,77,78,78,79,79,80,80,81,81,82,82,83,83,84,84,85,85,86,86,87,87,88,88,89,89,90,90,91,91,92,92,93,93,94,94,95,95,96,96,97,97,98,98,99,99,100,100,101,101,102,102,105,105,106,106,107,107,109,109,110,110,111,111,112,112,113,113,114,114,116,116,117,117,118,118,119,119,120,120,121,121,122,122,123,123,125,125,127,127,129,129,130,130,133,133,134,134,135,135,136,136,137,137,139,139,141,141,142,142,143,143,144,144,145,145,146,146,147,147,150,150,151,151,152,152,153,153,154,154,155,155,156,156,158,158,159,159,160,160,161,161,163,163,164,164,165,165,166,166,167,167,168,168,169,169,170,170,171,171,172,172,173,173,174,174,175,175,176,176,177,177,178,178,179,179,180,180,182,182,183,183,184,184,185,185,186,186,187,187,188,188,189,189,190,190,191,191,192,192,193,193,194,194,195,195,196,196,197,197,198,198,199,199,200,200,201,201,202,202,203,203,204,204,205,205,206,206,207,207,208,208,209,209,210,210,211,211,212,212,213,213,215,215,216,216,219,219,220,220,221,221,223,223,224,224,225,225,227,227,229,229,230,230,231,231,232,232,235,235,236,236],"right_children":[2,4,6,8,10,12,14,16,18,20,22,24,26,28,30,32,34,36,38,40,42,44,46,48,50,52,54,56,58,60,62,64,66,68,70,72,74,76,78,80,82,84,86,88,90,92,94,96,98,100,102,104,106,108,110,112,114,116,118,120,122,-1,124,126,-1,128,130,132,134,136,138,140,142,144,146,148,150,152,154,156,158,160,162,164,166,168,170,172,174,176,178,180,182,184,186,188,190,192,194,196,198,200,202,-1,-1,204,206,208,-1,210,212,214,216,218,220,-1,222,224,226,228,230,232,234,236,-1,238,-1,240,-1,242,244,-1,-1,246,248,250,252,254,-1,256,-1,258,260,262,264,266,268,270,-1,-1,272,274,276,278,280,282,284,-1,286,288,290,292,-1,294,296,298,300,302,304,306,308,310,312,314,316,318,320,322,324,326,328,-1,330,332,334,336,338,340,342,344,346,348,350,352,354,356,358,360,362,364,366,368,370,372,374,376,378,380,382,384,386,388,390,392,-1,394,396,-1,-1,398,400,402,-1,404,406,408,-1,410,-1,412,414,416,418,-1,-1,420,422,-1,-1,-1,-1,-1,-1,-1,-1,-1,-1,-1,-1,-1,-1,-1,-1,-1,-1,-1,-1,-1,-1,-1,-1,-1,-1,-1,-1,-1,-1,-1,-1,-1,-1,-1,-1,-1,-1,-1,-1,-1,-1,-1,-1,-1,-1,-1,-1,-1,-1,-1,-1,-1,-1,-1,-1,-1,-1,-1,-1,-1,-1,-1,-1,-1,-1,-1,-1,-1,-1,-1,-1,-1,-1,-1,-1,-1,-1,-1,-1,-1,-1,-1,-1,-1,-1,-1,-1,-1,-1,-1,-1,-1,-1,-1,-1,-1,-1,-1,-1,-1,-1,-1,-1,-1,-1,-1,-1,-1,-1,-1,-1,-1,-1,-1,-1,-1,-1,-1,-1,-1,-1,-1,-1,-1,-1,-1,-1,-1,-1,-1,-1,-1,-1,-1,-1,-1,-1,-1,-1,-1,-1,-1,-1,-1,-1,-1,-1,-1,-1,-1,-1,-1,-1,-1,-1,-1,-1,-1,-1,-1,-1,-1,-1,-1,-1,-1,-1,-1,-1,-1,-1,-1,-1,-1,-1,-1,-1,-1,-1,-1,-1,-1,-1,-1,-1],"split_conditions":[3.09E1,1.18E1,6.34E1,5.85E0,2.26E1,3.58E1,8.092E1,3.9E0,5.1E0,1.83E1,2.188E1,3.385E1,4.773E1,4.112E1,7.355E1,2.33E0,4.05E0,1.917E1,8.45E0,9.25E0,3.09E1,7.33E0,1.855E1,3.645E1,1.162E1,7.95E0,3.035E1,6.838E1,4.25E1,1.295E1,1.1E-1,5.46E0,5E-2,4.95E0,1.992E1,6.4E-1,2.715E1,6.05E1,9.38E0,4.6E0,1.797E1,2.47E1,9.25E0,2.173E1,2.267E1,6.48E0,2.76E1,3.785E1,2.18E1,4.323E1,2.76E1,7.07E0,3.785E1,6.742E1,3.45E1,1.96E1,1.143E1,1.262E1,7.193E1,-4.7E-1,8.092E1,5.653967E-1,3.883E1,4.83E0,-7.2377795E-1,2.112E1,1.0957E2,4.3E0,4.93E0,4.39E0,5.29E0,1.56E0,2.112E1,1.3084E2,2.223E1,8.897E1,3.73E0,5.167E1,7.195E1,1.85E0,4.7E0,1.562E1,1.0957E2,1.485E1,1.89E1,2.568E1,2.618E1,1.562E1,3.65E0,1.83E1,2.432E1,9.68E0,4.39E0,2.518E1,3.83E0,1.32E1,2.465E1,3.208E1,1.395E1,5.83E0,1.44E1,5.167E1,1.1E-1,2.4032695E0,1.6364759E0,2.88E1,3.58E1,1.593E1,-3.990087E-1,5.49E1,1.255E1,1.944E1,6.208E1,6.475E1,9.188E1,-1.2937541E-1,3.49E0,1.3556E2,4.09E0,1.134E1,3.3E0,9.73E0,3.851E1,9.865E1,8.229375E-2,1.43E1,-6.1440176E-1,2.73E0,3.5304985E0,2.15E0,4.037E1,1.880283E0,-3.9135465E-1,1.3E0,5E0,9.53E1,7.025E1,3.93E0,7.1054554E-1,4.3E0,1.9525582E0,7.33E0,6.05E0,2.977E1,3.5E0,1.857E1,3.265E1,1.295E1,5.6048226E-1,2.603047E0,3.384E1,1.028E1,1.73E1,1.18E0,8.114E1,1.751E1,2.72E1,2.2967327E0,3.24E1,1.32E1,1.357E1,1.295E1,1.3210839E0,4.323E1,2.518E1,3.85E0,4.83E0,8.693E1,3.037E1,7.797E1,3.105E1,2.288E1,3.09E1,3.251E1,3.45E0,4.903E1,2.757E1,2.59E1,3.74E0,-3.67E0,2.73E0,-3.5484284E-1,3.633E1,2.98E1,2.432E1,1.3431E2,3.385E1,2.55E0,2.618E1,4.08E0,8.848E1,1.225E1,3.785E1,4.112E1,1.262E1,7.15E0,3.975E1,-2.02E0,1.0957E2,2.712E1,8.355E1,1.1912E2,7.5E0,2.47E1,5.01E1,7.025E1,5.167E1,6.24E0,3.645E1,4.08E0,2.36E0,5.01E1,1.62E1,6.116E1,1.421401E0,3.603E1,1.048E1,3.3115757E-1,1.4292469E0,3.51E0,3.38E1,5.29E0,5.363466E-1,4.773E1,6.4E-1,5.31E1,4.2150852E-1,4.3E0,1.3598092E0,4.101E1,7.797E1,5.96E1,3.27E0,2.3986905E0,7.736468E-1,6.208E1,8.848E1,-3.721939E-1,3.6848688E-1,3.9031282E-1,-5.7736623E-1,-5.491479E-1,-6.540814E-1,1.89872E0,-5.3575635E-1,1.7979296E-1,-5.5008537E-1,7.572462E-2,-3.8242576E-1,2.8109863E-1,-5.234981E-1,-5.9914917E-1,-7.567432E-2,2.2191344E-1,-4.9885222E-1,2.061018E-1,-2.997356E-1,-4.2850873E-1,-2.4445601E-1,2.549445E0,-4.099632E-1,-1.2580447E-1,-3.2681912E-1,-2.0436314E-1,-4.6109802E-1,2.425317E0,3.5730362E-1,3.355914E-1,-3.1646582E-1,-5.27169E-1,-4.3348318E-1,2.10519E0,-4.3324533E-1,-3.4684512E-1,-1.8626265E-1,1.7566913E0,-2.1096444E-1,5.9602445E-1,-4.4255337E-1,-8.85289E-2,8.973908E-1,8.803007E-1,-9.559383E-2,-3.1190068E-1,2.2455175E-1,9.228364E-2,6.6194636E-1,-2.978725E-1,-2.0715939E-1,1.4711792E-2,-1.3717245E-1,-2.0640889E-1,-4.4637567E-1,3.6372146E-1,-6.3360888E-3,4.030617E-2,-1.5169263E-1,1.0591797E0,4.8157206E-1,-3.7042144E-1,2.8851283E-1,-2.193536E-1,1.0387435E0,-5.673148E-1,3.0413533E-2,-2.4295215E-1,3.2539496E-1,2.4425266E-2,4.6498138E-1,1.8968955E-1,-7.090255E-2,5.160944E-1,-9.289098E-2,6.1582804E-1,1.1790797E0,-3.032223E-1,1.7039537E-1,-6.0390063E-2,6.3236624E-1,2.1227479E-1,5.7771426E-1,4.3576993E-2,-3.4859648E-1,-4.156754E-1,3.0588612E-1,2.0950031E-1,1.4360921E0,1.6682468E-1,9.778453E-1,6.7027014E-1,1.6771897E0,2.5137386E-1,-3.2889768E-1,6.152464E-1,4.1333175E-1,1.9423948E-1,1.2887517E0,1.4849691E-1,-1.5566161E-1,-2.7596733E-1,3.8952917E-1,8.6661685E-1,5.596756E-1,8.9740056E-1,-1.3515155E-1,5.1399106E-1,-5.3776123E-2,9.899177E-1,3.1557927E-1,2.6385643E0,9.737558E-1,1.0882412E0,1.451779E0,1.0023016E0,5.021238E-1,3.5361585E-1,-2.1030562E-1,6.7552745E-1,4.1346255E-1,6.0777526E-2,7.59829E-1,1.1333956E0,1.0481067E-1,-1.8839943E-1,3.480221E-1,4.2356953E-1,-2.4578945E-1,6.280051E-1,2.782009E0,-2.6235899E-2,6.584423E-1,1.1272421E0,8.536024E-1,5.8386934E-1,-1.6786408E-1,1.3456463E0,3.322097E0,9.840938E-1,4.569717E-1,4.919897E-1,2.3483264E0,1.8530143E0,-2.9306889E-2,3.6619138E-2,1.3961982E0,2.4705696E-1,1.687589E0,8.77953E-1,1.3067001E0,-3.6606765E-1,5.7318324E-1,-1.915069E-1,5.060541E-1,2.8245084E0,9.7782487E-1,2.1196468E0,1.0839554E0,1.8706848E-1,8.133716E-1,-2.4969271E-1,6.7206717E-1,2.5931678E0,6.2051505E-1,1.420751E0,1.9445552E0,-7.745619E-2,9.3224543E-1,2.2775476E0,8.521209E-1,8.123514E-1,3.0097609E0,3.0278346E-1,-4.480774E-1,1.8999983E0,-1.5083408E-1,5.091364E-1,2.4328244E0,3.056568E0,1.124844E0,3.3637383E0,2.7495906E0,3.6945138E0,1.0587505E0],"split_indices":[7,7,7,7,12,12,7,7,8,7,7,10,7,12,12,7,8,12,7,8,8,8,8,7,13,9,9,9,9,12,0,2,0,14,12,0,13,15,8,12,8,7,11,13,8,9,9,8,12,7,11,8,7,13,10,8,13,8,7,4,9,0,2,10,0,3,11,7,7,3,4,6,3,0,11,13,10,9,15,10,12,7,9,8,8,13,7,7,4,7,9,8,3,7,1,12,12,11,10,14,11,7,0,0,0,8,8,9,0,7,13,1,8,7,8,0,6,1,4,3,12,15,2,7,0,0,0,7,0,9,0,0,0,11,7,0,8,7,0,11,0,7,7,11,8,15,14,12,0,0,0,7,0,9,0,2,9,0,13,7,8,13,0,11,8,9,9,9,7,11,13,14,10,2,10,14,14,15,4,4,9,0,2,8,8,0,8,8,8,3,1,13,11,7,13,13,9,6,10,12,8,1,3,8,8,10,8,2,10,3,1,7,2,0,0,13,13,0,0,1,12,4,0,12,0,11,0,11,0,1,9,8,6,0,0,9,1,0,0,0,0,0,0,0,0,0,0,0,0,0,0,0,0,0,0,0,0,0,0,0,0,0,0,0,0,0,0,0,0,0,0,0,0,0,0,0,0,0,0,0,0,0,0,0,0,0,0,0,0,0,0,0,0,0,0,0,0,0,0,0,0,0,0,0,0,0,0,0,0,0,0,0,0,0,0,0,0,0,0,0,0,0,0,0,0,0,0,0,0,0,0,0,0,0,0,0,0,0,0,0,0,0,0,0,0,0,0,0,0,0,0,0,0,0,0,0,0,0,0,0,0,0,0,0,0,0,0,0,0,0,0,0,0,0,0,0,0,0,0,0,0,0,0,0,0,0,0,0,0,0,0,0,0,0,0,0,0,0,0,0,0,0,0,0,0,0,0,0,0,0,0,0,0,0,0,0,0,0,0,0,0,0,0],"split_type":[0,0,0,0,0,0,0,0,0,0,0,0,0,0,0,0,0,0,0,0,0,0,0,0,0,0,0,0,0,0,0,0,0,0,0,0,0,0,0,0,0,0,0,0,0,0,0,0,0,0,0,0,0,0,0,0,0,0,0,0,0,0,0,0,0,0,0,0,0,0,0,0,0,0,0,0,0,0,0,0,0,0,0,0,0,0,0,0,0,0,0,0,0,0,0,0,0,0,0,0,0,0,0,0,0,0,0,0,0,0,0,0,0,0,0,0,0,0,0,0,0,0,0,0,0,0,0,0,0,0,0,0,0,0,0,0,0,0,0,0,0,0,0,0,0,0,0,0,0,0,0,0,0,0,0,0,0,0,0,0,0,0,0,0,0,0,0,0,0,0,0,0,0,0,0,0,0,0,0,0,0,0,0,0,0,0,0,0,0,0,0,0,0,0,0,0,0,0,0,0,0,0,0,0,0,0,0,0,0,0,0,0,0,0,0,0,0,0,0,0,0,0,0,0,0,0,0,0,0,0,0,0,0,0,0,0,0,0,0,0,0,0,0,0,0,0,0,0,0,0,0,0,0,0,0,0,0,0,0,0,0,0,0,0,0,0,0,0,0,0,0,0,0,0,0,0,0,0,0,0,0,0,0,0,0,0,0,0,0,0,0,0,0,0,0,0,0,0,0,0,0,0,0,0,0,0,0,0,0,0,0,0,0,0,0,0,0,0,0,0,0,0,0,0,0,0,0,0,0,0,0,0,0,0,0,0,0,0,0,0,0,0,0,0,0,0,0,0,0,0,0,0,0,0,0,0,0,0,0,0,0,0,0,0,0,0,0,0,0,0,0,0,0,0,0,0,0,0,0,0,0,0,0,0,0,0,0,0,0,0,0,0,0,0,0,0,0,0,0,0,0,0,0,0,0,0,0,0,0,0,0,0,0,0,0,0,0,0,0,0,0,0,0],"sum_hessian":[1.6901E4,1.3195E4,3.706E3,9.52E3,3.675E3,2.722E3,9.84E2,6.165E3,3.355E3,2.527E3,1.148E3,1.257E3,1.465E3,5.83E2,4.01E2,3.58E3,2.585E3,5.61E2,2.794E3,1.382E3,1.145E3,6.15E2,5.33E2,7.73E2,4.84E2,7.08E2,7.57E2,1.12E2,4.71E2,2.19E2,1.82E2,1.187E3,2.393E3,6.69E2,1.916E3,4.34E2,1.27E2,1.519E3,1.275E3,2.7E2,1.112E3,8.7E2,2.75E2,1.2E2,4.95E2,2.04E2,3.29E2,2.85E2,4.88E2,1.7E2,3.14E2,9.4E1,6.14E2,1.8E2,5.77E2,5.9E1,5.3E1,1.22E2,3.49E2,3.6E1,1.83E2,2E0,1.8E2,6E0,1.181E3,1.3E1,2.38E3,4E0,6.65E2,1.782E3,1.34E2,8E0,4.26E2,5.7E1,7E1,1.489E3,3E1,5.4E2,7.35E2,6.6E1,2.04E2,7.36E2,3.76E2,6.11E2,2.59E2,1.63E2,1.12E2,3.9E1,8.1E1,4.28E2,6.7E1,8.7E1,1.17E2,2.17E2,1.12E2,2.52E2,3.3E1,2.65E2,2.23E2,7.6E1,9.4E1,2.53E2,6.1E1,6E0,8.8E1,1.98E2,4.16E2,1.79E2,1E0,3.88E2,1.89E2,1.1E1,4.8E1,1.5E1,3.8E1,1E0,1.21E2,1.75E2,1.74E2,1.5E1,2.1E1,1.07E2,7.6E1,1.79E2,1E0,2E0,4E0,1.2E1,1E0,2.375E3,5E0,2E0,2E0,4.95E2,1.7E2,2.1E1,1.761E3,1.33E2,1E0,7E0,1E0,4.11E2,1.5E1,4.4E1,1.3E1,5.5E1,1.5E1,1.487E3,2E0,2E0,2.8E1,5.38E2,2E0,7.31E2,4E0,5E0,6.1E1,1E0,2.03E2,5.29E2,2.07E2,3.75E2,1E0,1.56E2,4.55E2,8E1,1.79E2,8.4E1,7.9E1,6.7E1,4.5E1,2E1,1.9E1,7.6E1,5E0,2.79E2,1.49E2,2.1E1,4.6E1,3.8E1,4.9E1,1E0,1.16E2,5.9E1,1.58E2,5E0,1.07E2,6.1E1,1.91E2,2.4E1,9E0,2.19E2,4.6E1,1.13E2,1.1E2,3E1,4.6E1,5.9E1,3.5E1,1.94E2,5.9E1,4E0,5.7E1,9.5E1,1.03E2,1.42E2,2.74E2,7.3E1,1.06E2,1.95E2,1.93E2,1.58E2,3.1E1,6E0,5E0,2.3E1,2.5E1,2E0,1.3E1,2.4E1,1.4E1,1.2E2,1E0,1.73E2,2E0,1.73E2,1E0,1E1,5E0,3E0,1.8E1,2E1,8.7E1,7.4E1,2E0,1.1E2,6.9E1,1E0,1E0,1E0,1.1E1,1.99E2,2.176E3,1E0,4E0,4E0,4.91E2,9E0,1.61E2,4E0,1.7E1,1.759E3,2E0,2E0,1.31E2,3E0,4E0,2.22E2,1.89E2,2E0,1.3E1,3.4E1,1E1,5E0,8E0,1E0,5.4E1,2E0,1.3E1,1.181E3,3.06E2,1E0,2.7E1,3.56E2,1.82E2,1E0,1E0,1E0,7.3E2,2E0,2E0,2E0,3E0,5.9E1,2E0,1.83E2,2E1,2.12E2,3.17E2,7.6E1,1.31E2,8.4E1,2.91E2,1.27E2,2.9E1,3.63E2,9.2E1,1.1E1,6.9E1,6E0,1.73E2,8.3E1,1E0,7.5E1,4E0,6.2E1,5E0,3.8E1,7E0,1.6E1,4E0,1.7E1,2E0,6.1E1,1.5E1,3E0,2E0,2.7E2,9E0,1.26E2,2.3E1,1.5E1,6E0,4.4E1,2E0,1E0,3.7E1,3E0,4.6E1,1.15E2,1E0,5.7E1,2E0,8.5E1,7.3E1,3E0,2E0,5.7E1,5E1,3E0,5.8E1,5.7E1,1.34E2,1E0,2.3E1,8E0,1E0,1.08E2,1.11E2,5E0,4.1E1,4.1E1,7.2E1,8.5E1,2.5E1,1.7E1,1.3E1,1.6E1,3E1,6E0,5.3E1,3.4E1,1E0,1.75E2,1.9E1,5E1,9E0,2E0,2E0,1.2E1,4.5E1,4.9E1,4.6E1,9.4E1,9E0,1.41E2,1E0,2.54E2,2E1,1E0,7.2E1,1.05E2,1E0,1E0,1.94E2,1E0,1.92E2,2.5E1,1.33E2,4E0,2.7E1,2E0,4E0,2E1,3E0,1.1E1,1.4E1,5E0,1.9E1,1.1E1,3E0,1.19E2,1E0,1.5E1,1.58E2,1E0,1E0,1.71E2,2E0,1E0,9E0,1E0,2E0,1.5E1,3E0,2E0,1.8E1,8.5E1,2E0,4.2E1,6.8E1,6.8E1,1E0],"tree_param":{"num_deleted":"0","num_feature":"19","num_nodes":"423","size_leaf_vector":"1"}},{"base_weights":[-3.4058215E-3,-7.3098335E0,2.5727074E1,-1.0224454E1,1.2507226E0,1.8740688E1,4.5316936E1,-1.1906246E1,-7.6799264E0,-1.0952593E0,6.2295403E0,1.082059E1,2.4675129E1,3.996416E1,5.9642387E1,-1.2710235E1,-1.0689029E1,-8.411381E0,-4.752705E0,-1.346832E-1,-7.0853868E0,3.0518265E0,1.01092615E1,1.4350151E1,5.2006493E0,2.0209736E1,2.9306078E1,2.3338778E1,4.2851624E1,3.634201E1,6.328015E1,-1.3713678E1,-1.2216029E1,-9.467045E0,-1.1302571E1,-8.508392E0,7.0265427E0,7.928971E-1,-6.4029636E0,-2.0971785E0,4.402568E0,-2.2048342E0,-8.614112E0,9.759363E0,6.492459E-1,1.772286E1,6.5948286E0,1.1921287E1,2.0187387E1,2.7017632E0,1.35283375E1,1.774535E1,2.8000284E1,3.862691E1,2.6531069E1,3.405621E1,1.2391867E1,4.72813E1,3.933775E1,6.522141E1,2.216072E1,5.6362465E1,6.952727E1,-9.90226E0,-1.3758329E1,-1.2249932E1,-1.9195338E0,1.174485E1,-9.616923E0,4.261942E-1,-1.1325473E1,-9.541492E0,-7.13126E0,2.2630722E1,-7.797852E0,-3.5693445E0,5.0042734E0,-7.466044E0,-4.323129E0,2.2761073E0,-2.9538996E0,8.547827E0,2.3029144E0,-3.4665332E0,7.5729847E0,-1.0290701E1,-3.4687195E0,3.236253E0,1.3734647E1,2.0757835E0,-5.1473923E0,1.2804351E1,2.11939E1,8.343902E0,-1.4215629E-1,6.9014754E0,1.4324197E1,2.2114426E1,2.6271825E0,9.616495E0,-5.6518024E-1,1.635513E1,2.73912E0,1.3901448E1,2.008813E1,3.1310633E1,2.0250847E1,3.406382E1,4.476683E1,2.819425E1,2.0116575E1,1.6159061E1,3.825876E1,1.7875626E1,1.9015064E0,4.5223E1,5.582232E1,4.265223E1,3.260013E1,7.6930565E1,4.4504333E0,1.0452902E1,2.2207463E0,3.0479047E0,5.021246E1,6.9952995E1,5.248543E-1,5.850904E-1,-1.1983877E1,-8.446735E0,-6.889456E-1,-1.2366573E1,-1.0614113E1,-5.707868E-1,1.851252E0,-4.8234135E-1,1.8176069E0,-1.0445067E1,-6.6441107E0,-4.334417E-1,6.927819E-1,-1.1179531E1,-1.2731768E1,-7.7434297E0,-1.0167022E1,-6.328269E0,-9.679854E0,-1.276465E0,3.8781593E1,1.1120806E-1,-9.0224695E0,-5.807924E0,8.063174E-1,2.364684E0,4.0198436E0,-9.271352E0,-6.7240586E0,-5.067832E0,4.8369555E0,-3.0578685E0,4.9815173E0,-4.612486E0,-1.2489052E0,1.0115197E1,4.5901175E0,2.036145E-1,5.5946026E0,-5.461015E0,-3.4638625E-2,8.36887E-1,2.0098384E-1,-1.2080474E1,-8.788891E0,-4.890624E0,4.1298647E0,4.2566013E0,-3.9280853E0,4.701633E0,1.5219531E1,-1.1463337E-1,6.711886E0,-3.1163466E0,-1.0914237E1,1.12887335E1,1.9218407E1,1.3808228E1,2.4464926E1,6.029888E0,9.978847E0,1.1102994E1,-1.194168E0,9.06207E0,-9.93118E-1,1.2913942E1,2.1104189E1,1.2247871E1,2.3744152E1,-1.5860729E0,1.7269464E1,5.6022134E0,1.3462066E1,-2.1016111E0,6.139389E0,2.2179556E0,1.5116029E1,8.975979E0,